{"fc1.weight": [[-0.023941775783896446, 0.002568094292655587, 0.020202456042170525, 0.014489661902189255, -0.01313568651676178, -0.024420365691184998, -0.008157621137797832, -0.011781320907175541, -0.02326214499771595, 0.017401406541466713, -0.02574889548122883, -0.011817265301942825, 0.019013846293091774, 0.0335737019777298, -0.00828743539750576, -0.028337698429822922, 0.03396588936448097, -0.035088058561086655, 0.016816280782222748, 0.028270114213228226, 0.013259044848382473, -0.005260459613054991, 0.013375421054661274, 0.025196675211191177, -0.0009477004641667008, 0.01874888688325882, 0.0014000179944559932, 0.0035483057145029306, 0.02675657905638218, -0.01990446075797081, 0.007551098242402077, -0.021862821653485298, 0.00899265706539154, -0.011196572333574295, 0.02188785932958126, -0.02580358274281025, -0.005927430931478739, 2.5714783987496048e-05, 0.02252158522605896, -0.015925463289022446, -0.008998662233352661, -0.03405652195215225, -0.012722017243504524, -0.017678137868642807, -0.03501519560813904, 0.013893856666982174, -0.01890360750257969, -0.0024495082907378674, 0.03178202733397484, 0.01371578499674797, 0.025449510663747787, -0.02457061968743801, 0.0103383120149374, 0.009387718513607979, -0.017074666917324066, 0.03364354744553566, -0.022049855440855026, -0.03094169683754444, 0.030328428372740746, 0.010577422566711903, 0.014468646608293056, 0.0033751444425433874, 0.020228806883096695, 0.00428561819717288, 0.0015806157607585192, -0.013815001584589481, -0.036204949021339417, -0.02216309867799282, 0.025968778878450394, 0.0015838999534025788, -0.02606896124780178, -0.01730508916079998, -0.024341663345694542, 0.016928434371948242, -0.011727463454008102, -0.03102724812924862, -0.030999014154076576, -0.027277134358882904, -0.02281446009874344, -0.01381582859903574, 0.02550450898706913, -0.02478562667965889, -0.027649296447634697, -0.0075280084274709225, 0.004999329801648855, 0.017908144742250443, -0.020750265568494797, -0.017581311985850334, -0.02432108484208584, -0.027138549834489822, -0.0015249126590788364, 0.030716173350811005, -0.026859482750296593, -0.03777911514043808, -0.028644949197769165, -0.006410228554159403, -0.0033271112479269505, 0.022587738931179047, 0.032625023275613785, 0.02575446479022503, 0.0334496907889843, -0.002861431334167719, 0.021574120968580246, 0.011115459725260735, 0.02504987083375454, 0.0069510675966739655, -0.01908356323838234, 0.006376422476023436, 0.015634486451745033, -0.029144970700144768, -0.0004453324363566935, -0.01927131414413452, 0.012927589938044548, -0.03631261736154556, -0.03398287668824196, 0.023744843900203705, 0.027580710127949715, 0.03303660824894905, -0.022707590833306313, 0.02961086481809616, -0.0364113450050354, -0.036913804709911346, 0.03247984126210213, -0.03167427331209183, 0.020541468635201454, -0.016182919964194298, -0.003267450025305152, 0.026672564446926117, 0.03249489516019821, -0.014451568014919758, 0.004281497560441494, -0.03676270321011543, -0.0027453340590000153, -0.007571762427687645, -0.026389019563794136, -0.0013108194107189775, 0.03238483518362045, 0.020486043766140938, 0.03030499629676342, -0.01133696548640728, 0.015453039668500423, 0.029226507991552353, 0.00028312529320828617, -0.03603613004088402, -0.0064630089327692986, 0.009382748045027256, -0.017734630033373833, 0.0033085374161601067, -0.02309834398329258, -0.03127714619040489, 0.031990211457014084, -0.022722499445080757, 0.034071918576955795, 0.014676462858915329, 0.010134448297321796, 0.021022234112024307, 0.023827683180570602, -0.023049132898449898, -0.01650414988398552, -0.0016438133316114545, 0.02229563146829605, -0.014741174876689911, -0.022411437705159187, -0.025288283824920654, -0.0161895714700222, 0.02044047601521015, 0.024122819304466248, 0.02767554670572281, -0.018792355433106422, 0.009173989295959473, 0.01922883838415146, 0.027932066470384598, 0.02278405986726284, 0.020765773952007294, 0.03301171585917473, -0.018781501799821854, -0.03579387068748474, 0.016421642154455185, 0.030940784141421318, 0.023472581058740616, 0.011376281268894672, -0.02362707629799843, -0.028614042326807976, 0.03643324598670006, 0.011635355651378632, 0.008600068278610706, -0.031720422208309174, 0.008426067419350147, 0.007491838652640581, -0.024848420172929764, -0.032506730407476425, -0.022265950217843056, 0.01308551523834467, -0.033333126455545425, 0.005643240641802549, 0.033442556858062744, -0.014811470173299313, 0.03379536420106888, -0.031305406242609024, 0.02796073630452156, 0.0026323979254812002, 0.011264370754361153, -0.02163282409310341, 0.030060483142733574, 0.013048863038420677, -0.02174224518239498, -0.024892544373869896, 0.03356780856847763, 0.02040833793580532, 0.016712190583348274, 0.005660005379468203, -0.007355133071541786, 0.014302089810371399, -0.027501076459884644, -0.01486926805227995, -0.025235578417778015, 0.017431149259209633, -0.00870974175632, 0.0286614578217268, -0.03654392063617706, 0.022782817482948303, -8.320024790009484e-05, -0.02659066766500473, -0.011008420027792454, -0.03627005219459534, 0.007416779641062021, 0.028276577591896057, 0.02530374936759472, 0.005286159459501505, -0.030875790864229202, 0.02559180185198784, 0.003997746389359236, 0.00821855291724205, 0.024245405569672585, -0.03373193368315697, -0.026374852284789085, 0.012214885093271732, 0.013677731156349182, 0.008333727717399597, 0.011894553899765015, -0.0005828464636579156, 0.017474563792347908, -0.006983054336160421, 0.022178828716278076, -0.02742866612970829, -0.03225236013531685, -0.025554895401000977, -0.011245436035096645, 0.019569898024201393, 0.02683958224952221, 0.023311728611588478, -0.004584628157317638, 0.010710382834076881, -0.013420219533145428, -0.03346027061343193, 0.01997842639684677, -0.01732325367629528, -0.019095035269856453, -0.0032557505182921886, 0.01482144184410572, 0.03674536943435669, -0.009613796137273312, 0.017467819154262543, 0.03264382854104042, 0.037263013422489166, -0.013942176476120949, 0.010162011720240116, -0.01233637984842062, -0.019240334630012512, 0.028396163135766983, 0.007662543561309576, -0.026139598339796066, -0.0027243441436439753, -0.018917664885520935, 0.004935577046126127, 0.026911603286862373, 0.003268833039328456, -0.026727216318249702, 0.029244665056467056, 0.0244998037815094, 0.012102664448320866, -0.002548882272094488, 0.03178372606635094, 0.021016834303736687, 0.01250658743083477, -0.03189299255609512, 0.00907591450959444, 0.015835018828511238, 0.018074508756399155, -0.003803402651101351, 0.03526967391371727, 0.0053666457533836365, -0.0025798031128942966, -0.03802116587758064, 0.01721801608800888, -0.03284603729844093, 0.029128553345799446, 0.02327083796262741, -0.018798531964421272, 0.038495227694511414, 0.014456980861723423, -0.03868768736720085, -0.03073982521891594, -0.03217655420303345, -0.002412986010313034, 0.007199673913419247, 0.02790498360991478, -0.0012867029290646315, 0.009749634191393852, 0.0326409786939621, -0.01592259854078293, -0.0026258996222168207, 0.0009726011194288731, 0.010060018859803677, 0.006810391321778297, 0.03255445137619972, 0.038799650967121124, -0.024409934878349304, 0.023473957553505898, 0.023487921804189682, 0.027339348569512367, 0.02987848035991192, 0.033426739275455475, 0.004995742347091436, -0.02357146516442299, -0.01778304949402809, -0.005827943794429302, 0.0017373297596350312, 0.03195234388113022, -0.019489670172333717, -0.009741737507283688, 0.02082611620426178, 0.005658472888171673, 0.01880313642323017, -0.023840060457587242, -0.003202565247192979, -0.027752522379159927, -0.004924132488667965, 0.022728674113750458, -0.0023695032577961683, -0.03367353603243828, 0.023317283019423485, -0.026160232722759247, -0.009994165040552616, 0.02398628555238247, -0.019052132964134216, 0.010852234438061714, -0.01923365518450737, 0.02512306161224842, 0.003102527931332588, -0.021925531327724457, -0.012180163525044918, 0.012167369946837425, -0.004090740345418453, 0.004667350091040134, -0.024988574907183647, 0.011514273472130299, 0.010952811688184738, 0.0013890439877286553, -0.025587573647499084, -0.03631104156374931, 0.029062174260616302, -0.01717119850218296, -0.029479078948497772, 0.022520514205098152, -0.003034337656572461, -0.031075922772288322, 0.010160575620830059, -0.027569180354475975, 0.030753932893276215, -0.016032671555876732, 0.01719028316438198, 0.02392614632844925, -0.019790571182966232, -0.010929792188107967, -0.012825778685510159, -0.010337866842746735, 0.011691804975271225, 0.013651383109390736, 0.039633918553590775, 0.017447540536522865, 0.0021644022781401873, 0.011065789498388767, -0.012703324668109417, 0.022953983396291733, -0.025409022346138954, -0.019832979887723923, -0.023853978142142296, 0.008416137658059597, 0.03276108205318451, -0.026109419763088226, -0.009237708523869514, 0.018357926979660988, -0.014388106763362885, -0.009158363565802574, 0.026966044679284096, -0.035723309963941574, -0.00695078494027257, -0.03458234667778015, 0.022870833054184914, 0.01415468379855156, -0.014135259203612804, 0.029509345069527626, 0.022652149200439453, -0.016026141121983528, 0.008820869959890842, 0.03465669974684715, 2.8091208150726743e-05, 0.012931657023727894, -0.00928572565317154, 0.0033718848135322332, 0.03245984762907028, 0.01808364875614643, 0.019457433372735977, -0.035211559385061264, -0.021223323419690132, -0.019428299739956856, -0.000412595720263198, -0.022957390174269676, -0.02783701941370964, -0.018950656056404114, 0.003850693115964532, -0.015554498881101608, -0.0009519863524474204, 9.7253083367832e-05, 0.027530379593372345, -0.01662304997444153, -0.0033336584456264973, -0.005697227548807859, -0.006537968758493662, 0.019476663321256638, -0.0018929950892925262, 0.0006423559389077127, -0.024677762761712074, -0.0127625847235322, -0.019520726054906845, 0.04365530610084534, -0.021827975288033485, 0.0003363912692293525, -0.030619241297245026, -0.02137785591185093, 0.017810195684432983, -0.013605988584458828, -0.014907837845385075, -0.020539745688438416, -0.012297144159674644, 0.02750251442193985, 0.018602466210722923, 0.006062133237719536, 0.002183015225455165, -0.0018624899676069617, 0.03002908080816269, -0.03450878709554672, 0.031887948513031006, -0.013239783234894276, -0.010468553751707077, -0.010337669402360916, 0.0011639075819402933, 0.03069004975259304, 0.0006005888571962714, 0.015559027902781963, -0.011151702143251896, -0.011792120523750782, 0.023269273340702057, 0.02623962238430977, 0.028634512796998024, 0.016251297667622566, -0.03074067458510399, -0.016541535034775734, -0.005359133239835501, -0.008334336802363396, -0.019526660442352295, 0.004474048502743244, -0.019100220873951912, 0.024392640218138695, -0.03164980933070183, 0.024998482316732407, -0.019173430278897285, 0.026307061314582825, 0.015679888427257538, -0.024390043690800667, 0.002531148958951235, -0.018802467733621597, -0.04386259615421295, -0.03544799983501434, 0.007524148561060429, 0.04497791826725006, -0.00071064627263695, 0.031415265053510666, 0.019119584932923317, 0.02991776168346405, 0.029289068654179573, 0.024173565208911896, 0.01802946627140045, -0.0009858901612460613, 0.009493794292211533, -0.0297867339104414, -0.02395339123904705, -0.02826947346329689, 0.022408481687307358, 0.01566755585372448, 0.01119201723486185, -0.01777518354356289, -0.03544063866138458, -0.033161260187625885, 0.017696397379040718, 0.019527452066540718, 0.033021215349435806, 0.0026481561362743378, 0.00387937156483531, 0.007113362662494183, -0.03015059418976307, 0.006052318494766951, -0.026512403041124344, -0.009873861446976662, -0.019956272095441818, 0.00021561409812420607, 0.027261080220341682, -0.03504876419901848, 0.0185101181268692, 0.02761644683778286, -0.008129914291203022, -0.01564791612327099, -0.01871592178940773, -0.025607477873563766, 0.022424068301916122, 0.0043835765682160854, 0.0176499392837286, -0.016092000529170036, -0.007213732693344355, -0.011304021812975407, -0.0004390075628180057, -0.007967446930706501, -0.012199093587696552, -0.018359821289777756, 0.020401418209075928, -0.020538896322250366, -0.006126310210675001, -0.0042410846799612045, -0.020216111093759537, -0.015822209417819977, 0.00587845966219902, 0.04489151015877724, 0.04615486413240433, -0.020952757447957993, -0.03007376939058304, 0.02781936526298523, -0.019000845029950142, 0.024443183094263077, 0.030673421919345856, -0.022999068722128868, -0.02292667143046856, -0.019353216513991356, -0.02225007861852646, 0.004427099600434303, 0.015735000371932983, 0.008562442846596241, 0.03221803903579712, -0.0010909429984167218, 0.032711852341890335, -0.030981361865997314, -0.03684333339333534, 0.016873860731720924, -0.0018574277637526393, 0.021324820816516876, -0.018378971144557, -0.03662485629320145, -0.041891999542713165, 0.03045070916414261, -0.015850994735956192, -0.003151891054585576, 0.04049607738852501, -0.025683321058750153, -0.024744823575019836, -0.03134859725832939, 0.022768734022974968, -0.027195483446121216, 0.02294103614985943, 0.009732143953442574, 0.014606318436563015, -0.008668155409395695, 0.025364946573972702, -0.03245270252227783, -0.028904257342219353, 0.004106913693249226, 0.0021188927348703146, -0.020702799782156944, 0.02216610498726368, -0.026055794209241867, -0.017170783132314682, 0.004452388733625412, 0.009548814035952091, -0.003454343881458044, -0.006129554472863674, 0.032817915081977844, 0.015909593552350998, -0.014391062781214714, -0.025809641927480698, 0.004285926464945078, 0.025662539526820183, 0.01837383583188057, -0.0003152842109557241, 0.010419076308608055, -0.02819145657122135, -0.012744851410388947, -0.01310706790536642, -0.0027243606746196747, 0.03530460596084595, -0.013435897417366505, 0.005951971281319857, 0.021196214482188225, -0.01914222724735737, -0.015397423878312111, 0.015289688482880592, 0.026702743023633957, -0.02035137452185154, 0.02602502331137657, 0.00843584444373846, -0.021298205479979515, -0.011013475246727467, -0.026566555723547935, 0.01722787506878376, -0.0153831597417593, -0.0070703234523534775, -0.008006124757230282, -0.021101756021380424, -0.03249623253941536, -0.006670356262475252, 0.00880393385887146, 0.04083456099033356, -0.026162225753068924, 0.004429074935615063, -0.0193531084805727, 0.03155124932527542, -0.004285179078578949, -0.021726254373788834, -0.009528067894279957, 0.0037609366700053215, -0.021362707018852234, -0.026580944657325745, -0.008110222406685352, -0.0009111993131227791, 0.03379907086491585, -0.009973663836717606, 0.03032132238149643, -0.015894487500190735, -0.024590754881501198, -0.01471376046538353, 0.009791678749024868, -0.033108532428741455, -0.005421920213848352, 0.026773592457175255, 0.0101140346378088, -0.02372165210545063, 0.01649399846792221, -0.02810460701584816, 0.03852000832557678, 0.03419877588748932, -0.022495608776807785, -0.008886395022273064, -0.019126759842038155, 0.00718289241194725, -0.014419591054320335, 0.015151656232774258, 0.007957554422318935, -0.03245633840560913, 0.013450832106173038, 0.0032167627941817045, 0.020137442275881767, -0.012830237857997417, 0.020461594685912132, -0.014559614472091198, 0.0030647923704236746, -0.0016199600649997592, 0.003758917097002268, 0.004919765517115593, 0.014192123897373676, 0.02859189361333847, 0.01627430133521557, -0.03653215616941452, 0.02761797606945038, -0.011059829965233803, -0.0026736375875771046, 0.005422156769782305, -0.025241155177354813, -0.00041513924952596426, 0.004661055281758308, -0.016957618296146393, -0.0011190491495653987, 0.02270822785794735, -0.02728399820625782, 0.026786480098962784, 0.004047304857522249, -0.029726432636380196, 0.001135917496867478, 0.03260105848312378, -0.016080671921372414, -0.003030569525435567, 0.022703077644109726, 0.018700825050473213, -0.005391156766563654, -0.01272741798311472, 0.02972240187227726, -0.010271784849464893, 0.03062288463115692, 0.03371943160891533, -0.013168311677873135, -0.017762189731001854, 0.01629420556128025, -0.009770388714969158, -0.01415112055838108, -0.00814737193286419, 0.023582374677062035, 0.014783845283091068, 0.000753744796384126, 0.015382721088826656, -0.002250538906082511, -0.009660104289650917, 0.030666938051581383, 0.021251894533634186, 0.014586889185011387, 0.021859563887119293, 0.03133634850382805, 0.015302948653697968, -0.0017638964345678687, -0.028171410784125328, -0.030131222680211067, -0.007703443989157677, -0.017071649432182312, 0.029231950640678406, 0.02630934864282608, -0.011421017348766327, 0.007136182393878698, 0.025416823104023933, -0.017996760085225105, -0.009430116973817348, -0.009666121564805508, -0.006959139835089445, -0.0036328190471976995, 0.020401598885655403, -0.008037500083446503, -0.031933728605508804, 0.01687474362552166, -0.0015992653788998723, -0.024390969425439835, 0.006398158147931099, 0.03549637645483017, 0.0238661952316761, -0.027898866683244705, -0.023677334189414978, -0.001805207459256053, -0.03498184308409691, 0.010404364205896854, 0.011070885695517063, -0.0009071833919733763, 0.021604107692837715, 0.01116348896175623, 0.012815997004508972, -0.01507511269301176, -0.011695189401507378, -0.03177691251039505, -0.023823289200663567, -0.0018537574214860797, -0.012789631262421608, -0.028678473085165024, -0.02395360730588436, -0.016850346699357033, -0.03424752503633499, 0.02860167622566223, -0.020900679752230644, -0.029636822640895844, -0.005945030599832535, 0.011240536347031593, 0.031215080991387367, 0.005688387900590897, 0.020374879240989685, -0.010443944483995438, 0.014452168717980385, 0.015328045934438705, 0.0050809807144105434, -0.01005859300494194, -0.014040829613804817, 0.00801319070160389, 0.0337996706366539], [0.006601172033697367, -0.02947692573070526, 0.021280165761709213, 0.014175261370837688, -0.030712652951478958, 0.003189539536833763, 0.02783486619591713, 0.00946501549333334, 0.023502491414546967, 0.025407914072275162, 0.02226877398788929, -0.029445961117744446, 0.03532397747039795, -0.017440160736441612, -0.029968075454235077, -0.00780401611700654, -0.0032619310077279806, -0.018589401617646217, -0.035700589418411255, 0.007667111232876778, 0.02969960682094097, -0.006071069277822971, -0.03255390003323555, 0.0217801071703434, 0.005579386372119188, -0.02651553973555565, -0.008844700641930103, 0.001012275693938136, -0.02581539936363697, 0.011739755049347878, -0.007824132218956947, -0.0023259439039975405, -0.02506069839000702, -0.012875998392701149, -0.012059822678565979, 0.013228295370936394, 0.0007199756219051778, 0.026941973716020584, 0.010944805108010769, -0.02825380302965641, 0.006959538906812668, -0.03397934138774872, 0.03350888192653656, -0.026500554755330086, -0.02507881633937359, 0.01541215181350708, 0.03545837104320526, -0.00917160976678133, -0.008224996738135815, 0.030486231669783592, 0.018074367195367813, 0.02340817078948021, 0.031671710312366486, -0.007192496210336685, 0.026480283588171005, -0.023300593718886375, 0.0024181220214813948, 0.017760159447789192, 0.019458798691630363, 0.008189239539206028, -0.00240623508580029, -0.019957764074206352, -0.009462029673159122, -0.02063518576323986, 0.00547079648822546, -0.022943273186683655, 0.00966833159327507, 0.017336135730147362, 0.026895780116319656, -0.0028546182438731194, -0.012431011535227299, -0.011506308801472187, 0.024323100224137306, 0.006403733976185322, -0.03540851175785065, 0.02588280476629734, 0.021344531327486038, 0.0037313152570277452, 0.014671273529529572, -0.019619591534137726, 0.035378944128751755, 0.010131865739822388, -0.03320007026195526, -0.003906262572854757, -0.01123893354088068, 0.02465936355292797, -0.03302249312400818, 0.0096137011423707, -0.009400516748428345, 0.03005041554570198, 0.032198790460824966, -0.01939975470304489, 0.0009030576329678297, 0.003932819236069918, -0.020506635308265686, -0.018895147368311882, 0.015534265898168087, -0.03043663688004017, 0.012333816848695278, -0.006225390359759331, 0.024367138743400574, 0.006297410931438208, -0.030204376205801964, 0.0054564266465604305, 0.004641797859221697, 0.005474303383380175, -0.02166559174656868, -0.01678324118256569, 0.003444032510742545, -0.017696065828204155, -0.008562671951949596, -0.033131230622529984, 0.027194194495677948, -0.01871413365006447, -0.029508689418435097, 0.022435171529650688, 0.021412547677755356, -0.024150250479578972, -0.009378333576023579, -0.006442902144044638, 0.027705593034625053, -0.01671553961932659, -0.024186568334698677, 0.011844374239444733, 0.02650499902665615, 0.01150660589337349, -0.027284694835543633, -0.03491108864545822, 0.024150287732481956, 0.004119422752410173, 0.030565757304430008, 0.031609755009412766, -0.010356459766626358, 0.03010263480246067, -0.030409561470150948, -0.005289512220770121, -0.031033076345920563, -0.006730508059263229, -0.02230644039809704, -0.025083081796765327, 0.02262667752802372, 0.03222275525331497, -0.024907784536480904, -0.026372132822871208, -0.01402627769857645, 0.008254317566752434, -0.009908255189657211, -0.020057210698723793, 0.026721440255641937, 0.009676785208284855, -0.03163250535726547, -0.025671478360891342, -0.025049934163689613, -0.022538110613822937, -0.032937973737716675, 0.007078771945089102, -0.011806363239884377, -0.015438252128660679, 0.02448260225355625, -0.013583623804152012, -0.017889441922307014, 0.02208413928747177, -0.02932748757302761, -0.0034442907199263573, 0.03582381457090378, 0.022461965680122375, 0.035261884331703186, 0.024035891517996788, 0.03170987218618393, 0.03144000470638275, -0.012078111059963703, 0.008656122721731663, 0.017235375940799713, 0.007057861890643835, -0.02893228828907013, -0.03534168750047684, 0.025253592059016228, 0.012003790587186813, -0.023841921240091324, 0.024220751598477364, -0.0005517464014701545, 0.016248080879449844, 0.032129447907209396, 0.005809808615595102, 0.022129984572529793, -0.008908683434128761, 0.016158821061253548, -0.015314608812332153, -0.01818235032260418, -0.03027471713721752, 0.005384606309235096, 0.0011960623087361455, 0.02751094661653042, -0.01712764985859394, 0.00038379529723897576, 0.016377845779061317, -0.035070572048425674, 0.00866011343896389, 0.02132769301533699, -0.014635271392762661, 0.016207998618483543, -0.008765687234699726, -0.0021410740446299314, 0.022509537637233734, -0.007614849600940943, -0.01986725442111492, 0.02236035093665123, -0.026901233941316605, 0.01858540251851082, -0.016767900437116623, -0.009043684229254723, 0.012418154627084732, 0.01262538693845272, 0.008642414584755898, 0.012272428721189499, 0.019631890580058098, 0.021473266184329987, -0.033490829169750214, -0.026793356984853745, 0.007139524444937706, -0.03513393923640251, -0.003948507830500603, -0.017460236325860023, 0.021995384246110916, 0.0289461649954319, -0.024192359298467636, -0.0014414297183975577, -0.028050264343619347, 0.023582302033901215, 0.026606876403093338, -0.011504425667226315, -0.020719323307275772, 0.03154332935810089, -0.0044669113121926785, -0.024336813017725945, 0.02808859758079052, 0.021357061341404915, 0.023665593937039375, -0.015515225939452648, 0.035151075571775436, 0.02293497510254383, 0.02915528044104576, 0.018921293318271637, 0.0030876684468239546, 0.022663351148366928, 0.038475170731544495, -0.022478455677628517, 0.03128261864185333, 0.008083244785666466, -0.0027078452985733747, 0.035080861300230026, -0.022564133629202843, -0.012228609062731266, -0.0013275161618366838, -0.021781127899885178, -0.0022035748697817326, 0.01732150837779045, -0.009153245948255062, -0.020017080008983612, -0.023220179602503777, 0.0222476776689291, -0.010432899929583073, -0.021156273782253265, -0.005655619781464338, -0.0004734935937449336, 0.02585795149207115, -0.01707027107477188, 0.004304828587919474, 0.03672241419553757, 0.0100416773930192, -0.020789997652173042, 0.03419976681470871, 0.023038947954773903, 0.0026561145205050707, 0.02579999901354313, -0.024784259498119354, 0.012536448426544666, 0.0046538906171917915, -0.011230780743062496, -0.034465961158275604, 0.0006248315330594778, 0.019687015563249588, 0.03131546452641487, -0.025386830791831017, 0.027937330305576324, -0.018201163038611412, -0.027199028059840202, 0.0034953346475958824, -0.021368322893977165, -0.026325594633817673, -0.008279943838715553, -0.04108292981982231, 0.028458962216973305, 0.016289126127958298, 0.03364316746592522, -0.010664718225598335, -0.011254760436713696, -0.01992393471300602, 0.01695846952497959, 0.016674837097525597, -0.015251869335770607, 0.005688878241926432, 0.029859576374292374, -0.019949132576584816, -0.032552845776081085, 0.01122232899069786, -0.007387924939393997, -0.02106630988419056, -0.009970278479158878, 0.02224627323448658, -0.01613219454884529, 0.005665893200784922, -0.009654083289206028, -0.034411974251270294, 0.028840817511081696, 0.010316283442080021, -0.03802855685353279, -0.03737666457891464, -0.020826896652579308, 0.007322786375880241, 0.018251584842801094, -0.005486362148076296, -0.02970391884446144, -0.008036108687520027, 0.022265678271651268, 0.017261851578950882, -0.006844491232186556, -0.005769818555563688, -0.037588078528642654, 0.01668391190469265, -0.0007171729230321944, 0.02425413765013218, -0.022438084706664085, 0.022986331954598427, 0.00961142498999834, 0.0027775282505899668, -0.023634448647499084, 0.02722390741109848, -0.03343862667679787, -0.018408052623271942, 0.023090248927474022, -0.02058025449514389, -0.00682084821164608, -0.036931395530700684, -0.03931686654686928, 0.01681653968989849, -0.02502213418483734, -0.005626177880913019, -0.017693674191832542, 0.024301398545503616, -0.008316661231219769, 0.021229898557066917, -0.022313695400953293, 0.028125718235969543, -0.00901344045996666, 0.020755508914589882, -0.004272837657481432, -0.02205219864845276, -0.001373282284475863, -0.009510789066553116, -0.036300916224718094, 0.00393846957013011, 0.0005918188253417611, -0.018728960305452347, -0.006438017822802067, 0.0029348863754421473, 0.020459486171603203, -0.0054707834497094154, 0.006596835795789957, 0.014724958688020706, -0.010044052265584469, -0.003981932997703552, 0.0010418264428153634, -0.022827764973044395, -0.023323316127061844, 0.00689102616161108, 0.009787808172404766, -0.021392609924077988, 0.015258034691214561, 0.001415369799360633, -0.010428009554743767, -0.04047667980194092, -0.027771422639489174, -0.016253074631094933, 0.021632442250847816, 0.0270700566470623, -0.006798656657338142, 0.020945219323039055, -0.022472485899925232, 0.009572033770382404, 0.015890084207057953, 0.01966470666229725, 0.02213679626584053, -0.030642054975032806, 0.017650891095399857, 0.022071857005357742, 0.030127936974167824, -0.021890174597501755, 0.02348935231566429, 3.208042471669614e-05, -0.027494793757796288, -0.014619898051023483, 0.018522286787629128, -0.024218421429395676, -0.0006906703347340226, 0.02650936134159565, -0.017900310456752777, -0.034981731325387955, -0.020700573921203613, -0.007007670123130083, -0.029056737199425697, 0.02872724086046219, 0.01405889168381691, -0.015561982989311218, -0.012596582062542439, -0.02591891400516033, -0.03367569297552109, -0.033592287451028824, -0.01527251023799181, 0.009708008728921413, 0.005985721480101347, 0.023374374955892563, 0.008631451986730099, 0.017522914335131645, 0.020326558500528336, -0.02566046081483364, 0.010719187557697296, 0.010651146993041039, -0.03698468953371048, -0.0004979628138244152, 0.01833152398467064, 0.004788380116224289, 0.004184430465102196, -0.01798180304467678, -0.00443889619782567, -0.009462427347898483, 0.004890973214060068, 0.021921711042523384, -0.026666970923542976, 0.03210857883095741, -0.01237373985350132, -0.035688936710357666, -0.0022178494837135077, 0.010646332055330276, -0.02241077646613121, -0.03478511795401573, -0.023795312270522118, 0.008769184350967407, 0.0011839912040159106, -0.007950940169394016, 0.0075936829671263695, 0.02710837870836258, 0.013468785211443901, -0.01729883812367916, -0.00760684534907341, -0.010586380027234554, -0.0058491718955338, 0.00395205756649375, 0.007650061044842005, -0.010617204941809177, 0.03702201321721077, 0.012825804762542248, -0.007554654031991959, 0.01074181403964758, -0.017895538359880447, 0.033859483897686005, 0.042074043303728104, 0.006873582489788532, -0.03245827183127403, -0.04062758386135101, 0.013295300304889679, 0.005944853648543358, 0.0036835477221757174, 0.03381740674376488, 0.02954087406396866, 0.0292443186044693, -0.026440462097525597, -0.011324052698910236, -0.01325349509716034, 0.01776055060327053, 0.02101173996925354, -0.023229364305734634, 0.024273481220006943, -0.03183567151427269, -0.009725555777549744, -0.01086715143173933, -0.021047184243798256, 0.01904393918812275, -0.01907549425959587, 0.015852168202400208, -0.0047886790707707405, 0.00838504172861576, -0.003871042048558593, 0.007999684661626816, 0.002524979878216982, 0.02490975335240364, 0.022901898249983788, -0.029926922172307968, -0.039583977311849594, -0.03094252571463585, -0.020949527621269226, -0.01599956676363945, -0.01014803908765316, -0.029909318313002586, 0.03389964997768402, -0.016246505081653595, -0.02965301275253296, 0.009595257230103016, 0.01805809698998928, 0.013377919793128967, -0.02160957083106041, -0.02825012058019638, -0.024273814633488655, -0.018884696066379547, -0.01569627784192562, 0.014988001435995102, -0.012896981090307236, -0.02632676437497139, 0.022349189966917038, -0.026372097432613373, -0.01581922359764576, 0.01840471476316452, 0.03080740198493004, -0.03911096602678299, -0.031602464616298676, -0.004441388417035341, 0.019428374245762825, 0.006389962509274483, -0.013322468847036362, 0.012589887715876102, -0.02589951828122139, -0.0307302363216877, 0.011878609657287598, -0.02709738351404667, -0.02519444189965725, -0.030481288209557533, -0.00939187966287136, 0.02172938548028469, 0.0034106397069990635, -0.0018385133007541299, 0.016496697440743446, -0.013064117170870304, -0.011749285273253918, -0.012931467033922672, 0.022418808192014694, -0.03327947482466698, 0.019457655027508736, 0.01414482668042183, -0.010400245897471905, -0.008870887570083141, 0.022958016023039818, -0.03033781237900257, 0.007001449819654226, -0.03056146390736103, 0.012836188077926636, 0.021221278235316277, -0.01998968981206417, -0.014135870151221752, 0.00366722303442657, -0.00011963144061155617, -0.004682458937168121, 0.024432450532913208, -0.00313644390553236, 0.03201761096715927, -0.015147230587899685, -0.0015499098226428032, -0.008576744236052036, -0.03319624811410904, 0.029503455385565758, 0.01947868801653385, -0.03284145146608353, -0.012065218761563301, -0.03896063193678856, 0.020339207723736763, 0.019059794023633003, 0.012058828957378864, 0.02920502983033657, -0.0386836864054203, -0.0031639186199754477, 0.025813374668359756, 0.007004300132393837, 0.021900471299886703, -0.01236206479370594, -0.024523261934518814, 0.0023935118224471807, 0.012636539526283741, 6.756626135029364e-06, 0.011562210507690907, 0.012911075726151466, 0.016731495037674904, 0.004788932856172323, -0.025862496346235275, 0.0057943291030824184, 0.0035392537247389555, 0.020359454676508904, 0.012471339665353298, -0.029914602637290955, 0.018499068915843964, 0.00975238811224699, 0.014056586660444736, 0.005863240920007229, -0.02329277992248535, 0.02766118198633194, -0.029930634424090385, 0.017856696620583534, -0.01983906514942646, 0.003433270612731576, -0.010465077124536037, -0.032486822456121445, -0.028438175097107887, -0.016922764480113983, 0.024997301399707794, 0.03257187083363533, 0.017906418070197105, 0.023661626502871513, 0.016979562118649483, 0.0038875723257660866, -0.018662169575691223, 0.021797126159071922, 0.018994582816958427, -0.03139735013246536, 0.033207088708877563, -0.02903302200138569, -0.011162887327373028, -0.007594608701765537, 0.014158197678625584, -0.03311518579721451, 0.004536725580692291, 0.0078263645991683, 0.025457125157117844, 0.01893666945397854, 0.007862113416194916, 0.026868047192692757, -0.025683904066681862, 0.030155425891280174, 0.001504687243141234, -0.00043460787856020033, -0.019553063437342644, 0.0315038338303566, 0.007511470932513475, 0.00972097460180521, -0.021728377789258957, 0.008711542002856731, -0.03527481108903885, -0.019505321979522705, -0.011303922161459923, 0.00752795347943902, 0.030847907066345215, 0.007133746054023504, 0.007737140171229839, -0.0074872118420898914, -0.013284054584801197, -0.009001961909234524, 0.016717499122023582, 0.03158317506313324, -0.03157252445816994, 0.0013650525361299515, -0.014233679510653019, 0.03860871121287346, 0.03775062784552574, -0.00473195593804121, 0.02248878963291645, 0.013017183169722557, -0.0187388863414526, -0.03117547370493412, -0.023598769679665565, 0.014253135770559311, -0.013588685542345047, 0.02233893610537052, -0.009395700879395008, -0.005489782430231571, 0.030868547037243843, -0.0033962097950279713, 0.011032394133508205, 0.028869565576314926, 0.001730739139020443, -0.009499866515398026, -0.019333412870764732, -0.00523907458409667, -0.002246120711788535, -0.007458915468305349, -0.00992970447987318, -0.0310702845454216, 0.030275078490376472, -0.017397891730070114, 0.003540195059031248, -0.0234528798609972, 0.00729930168017745, 0.036107003688812256, 0.034432362765073776, -0.00047709193313494325, 0.01959291100502014, 0.01918748766183853, 0.03510313853621483, 0.03098159097135067, 0.027570633217692375, -0.021140020340681076, 0.0026218872517347336, -0.0012808702886104584, -0.017944222316145897, -0.01503897923976183, -0.028958231210708618, 0.025701062753796577, 0.014605622738599777, 0.012880947440862656, -0.018599096685647964, 0.007203578483313322, 0.02871282584965229, 0.02143111452460289, -0.006140817888081074, 0.008024416863918304, 0.019494682550430298, -0.003879533614963293, -0.002280865330249071, 0.018724238499999046, -0.001021913019940257, 0.0020226361230015755, 0.03155060485005379, -0.014422564767301083, -0.018301231786608696, 0.01814938522875309, -0.025419043377041817, -0.013114940375089645, -0.03432229161262512, -0.02259550429880619, 0.008264116011559963, 0.03506506234407425, 0.016291581094264984, -0.008064325898885727, -0.031106138601899147, 0.022254765033721924, -0.002583851804956794, -0.02647991292178631, -0.024174395948648453, 0.023837853223085403, -0.019760839641094208, 0.013884518295526505, 0.03563203662633896, 0.013312594033777714, -0.023549992591142654, 0.020696349442005157, -0.003031244268640876, -0.01058951299637556, 0.013696601614356041, 0.0346108004450798, -0.01763133890926838, 0.014964031986892223, -0.016625111922621727, 0.005455065052956343, -0.010196968913078308, -0.011426749639213085, 0.0018257532501593232, 0.03496205434203148, -0.02999391220510006, -0.03224591538310051, -0.0030374666675925255, 0.008911950513720512, -0.01135096326470375, 0.0070384652353823185, 0.01605267822742462, 0.012197654694318771, -0.0017936284421011806, -0.010878263041377068, 0.028204916045069695, -0.010292069055140018, -0.03197435289621353, 0.022276947274804115, 0.025328706949949265, -0.019582269713282585, -0.00010829916573129594, -0.02039591409265995, 0.004405357874929905, -0.018587037920951843, -0.023937778547406197, -0.018054457381367683, 0.0007439312757924199, -0.030228354036808014, -0.007496006321161985, -0.016562189906835556, -0.0018852206412702799, -0.010804515331983566, -0.011016632430255413, 0.02739574760198593, -0.012893080711364746], [0.0008804498356766999, 0.023737851530313492, -0.0020780195482075214, 0.008149905130267143, 0.01127287745475769, -0.004907472990453243, 0.032003242522478104, -0.01985348016023636, -0.005485204979777336, -0.005089449696242809, -0.003053091000765562, -0.018181879073381424, 0.024379370734095573, 0.02845640853047371, 0.0010621151886880398, 0.03067023865878582, 0.018426233902573586, -0.02720651403069496, 0.0007993585313670337, -0.0011504266876727343, 0.030013933777809143, -0.004647367168217897, 0.03092905506491661, -0.012843545526266098, 0.02742750570178032, 0.016872240230441093, 0.012065923772752285, 0.03762544319033623, -0.02127476967871189, 0.025554554536938667, 0.015429271385073662, 0.0211618784815073, -0.032146189361810684, 0.011280637234449387, -0.020979007706046104, -0.020186567679047585, 0.0170479416847229, -0.01071944460272789, -0.018646113574504852, 0.008769884705543518, -0.021521341055631638, -0.016893606632947922, -0.013454936444759369, 0.029905132949352264, 0.0009314013295806944, 0.012724028900265694, 0.003495353041216731, 0.0252725537866354, -0.01561329048126936, 0.03591090068221092, -0.015753166750073433, -0.02587532252073288, 0.001620857510715723, 0.012598194181919098, -0.011294446885585785, -0.021722648292779922, 0.0017461625393480062, -0.010891634970903397, 0.004998359829187393, -0.00894318986684084, 0.031212354078888893, -0.0009237611084245145, 0.033000774681568146, 0.01060498133301735, -0.009454215876758099, 0.015095950104296207, 0.020333653315901756, -0.03732328489422798, 0.0253287386149168, -0.030093001201748848, -0.022483862936496735, -0.013077580370008945, -0.02310383878648281, -0.002096250420436263, -0.03435582295060158, -0.018413478508591652, 0.02442990057170391, 0.028764475136995316, -0.003640618408098817, -0.009558422490954399, -0.0316864550113678, 0.012884143739938736, 0.03361452743411064, -0.007586357649415731, -0.0002833444159477949, 0.0004956818884238601, -0.02373974770307541, 0.0016245252918452024, -0.0011055368231609464, 0.007484755478799343, 0.004543835297226906, -0.02406119368970394, 0.0209491029381752, 0.019910398870706558, -0.01028764434158802, -0.014659369364380836, -0.01938871294260025, -0.04520193114876747, 0.0006080832681618631, -0.04434863105416298, -0.023712871596217155, -0.04226990044116974, -0.04238244891166687, 0.029214462265372276, 0.025695528835058212, 0.023217925801873207, 0.03262234106659889, 0.023296944797039032, -0.027752339839935303, 0.006188882980495691, -0.021541763097047806, -0.005838171113282442, 0.02989386022090912, -0.007615031208842993, 0.007897746749222279, 0.030054952949285507, 0.0019345429027453065, 0.027553841471672058, 0.02409922145307064, 0.01245887577533722, -0.021036718040704727, -0.04023323580622673, 0.012596470303833485, -0.03230294585227966, -0.024057328701019287, 0.00080853485269472, -0.03811923786997795, -0.003750048577785492, -0.024643555283546448, -0.006332282908260822, -0.019964583218097687, 0.02784688211977482, -0.015352754853665829, 0.027774754911661148, 0.036112915724515915, -0.030486172065138817, -0.023852309212088585, -0.012276828289031982, -0.010051118209958076, -0.030935177579522133, 0.010136451572179794, 0.01503513939678669, -0.0074433316476643085, 0.03150695189833641, -0.012855186127126217, 0.03361518681049347, 0.03568609803915024, -0.016200432553887367, -0.00816310290247202, -0.015933344140648842, -0.03654498979449272, -0.007354999892413616, 0.0033251869026571512, 0.02156411111354828, -0.018573660403490067, 0.004513140302151442, -0.02274428866803646, -0.03965430706739426, -0.04950595274567604, -0.033686570823192596, 0.004413801245391369, -0.03285626694560051, 0.02629765495657921, -0.02734365686774254, 0.021867139264941216, 0.03881431743502617, 0.038333408534526825, 0.037849411368370056, -0.024284644052386284, -0.022977840155363083, 0.016721993684768677, -0.001816053525544703, -0.008029618300497532, 0.018190449103713036, -0.027615787461400032, -0.028219662606716156, 0.021312253549695015, -0.031158901751041412, -0.03733283653855324, -0.007746522780507803, 0.012035016901791096, 0.01851261407136917, -0.030797937884926796, -0.0049753133207559586, -0.025735046714544296, -0.025923144072294235, -0.042727500200271606, 0.018447989597916603, -0.021028706803917885, 0.024106090888381004, 0.0320160947740078, -0.013579389080405235, 0.021742990240454674, 0.0009865917963907123, -0.0002215198619524017, -0.008923327550292015, 0.011105995625257492, -0.029176916927099228, 0.03601745143532753, 0.012458400800824165, -0.005434250459074974, 0.0301827322691679, 0.00046048351214267313, -0.01007023174315691, -0.006543127819895744, -0.038815684616565704, -0.0278715118765831, -0.022657504305243492, -0.0044621960259974, -0.0350128635764122, -0.04506203532218933, -0.019352028146386147, -0.035893652588129044, -0.03412945196032524, 0.030867859721183777, -0.015158755704760551, -0.016824403777718544, -0.014716384001076221, -0.006982728373259306, -0.009873359464108944, 0.01960541307926178, -0.008258667774498463, 0.02025827392935753, 0.01484359335154295, -0.019668955355882645, -0.023732440546154976, 0.010491235181689262, 0.03527819365262985, 0.017427431419491768, 0.0007054770248942077, -0.021946532651782036, 0.007393387611955404, 0.008442388847470284, 0.031010061502456665, -0.04052984341979027, -0.027129577472805977, -0.0041511268354952335, 0.012512779794633389, -0.00972633808851242, -0.026408040896058083, 0.020879220217466354, 0.02146465703845024, 0.008673937059938908, -0.016055993735790253, 0.037416812032461166, 0.012330126017332077, 0.031179921701550484, -0.013242119923233986, -0.013850086368620396, -0.005064135417342186, 0.028627725318074226, 0.033459290862083435, -0.007658984512090683, 0.03660084307193756, 0.01865043118596077, 0.030818600207567215, 0.004591893870383501, -0.0024388148449361324, 0.02297235280275345, 0.004610779695212841, -0.021117519587278366, -0.012966682203114033, -0.006960377097129822, 0.01398122776299715, -0.026950208470225334, 0.029177581891417503, 0.011470426805317402, 0.01003392692655325, 0.035545844584703445, 0.02452225610613823, 0.03568984940648079, 0.042335592210292816, 0.013956104405224323, 0.006625630892813206, 0.02209284156560898, 0.007761738728731871, 0.011825165711343288, 0.024116823449730873, 0.03590605407953262, 0.031624432653188705, -0.02110542729496956, 0.03296082094311714, 0.03461594879627228, 0.002114564646035433, 0.03222738206386566, 0.00566091388463974, -0.005151563324034214, 0.01594291627407074, 0.0007201505941338837, -0.02513940818607807, -0.004138657357543707, 0.0328022837638855, -0.0024775764904916286, 0.01184097956866026, 0.03512504696846008, 0.04595133662223816, 0.00723712844774127, 0.01904154010117054, 0.018050888553261757, -0.011950191110372543, -0.013725792989134789, 0.011751577258110046, 0.012444437481462955, -0.0006328924791887403, 0.010692908428609371, -0.027475066483020782, 0.031001443043351173, -0.009528402239084244, 0.021634671837091446, -0.017369290813803673, -0.016934717074036598, -0.010150715708732605, -0.017365911975502968, 0.005018957890570164, 0.014750889502465725, 0.04109976813197136, 0.011899935081601143, 0.012364587746560574, -0.022194866091012955, 0.007095315959304571, 0.03708969056606293, 0.03085135668516159, -0.019796958193182945, 0.02878469228744507, 0.03154696524143219, 0.020960338413715363, -0.011707345023751259, 0.0017083568964153528, 0.01826953887939453, 0.035306334495544434, 0.007219972088932991, -0.01512774359434843, 0.029606452211737633, 0.03418170288205147, -0.013192557729780674, 0.02764097787439823, 0.017137736082077026, 0.013989340513944626, -0.014772985130548477, 0.0034476052969694138, -0.009235517121851444, 0.022221101447939873, 0.041416510939598083, -0.0008835827466100454, 0.018430449068546295, 0.04409658908843994, 0.01994244009256363, -0.02055741474032402, -0.012865466065704823, -0.017391853034496307, 0.02705327607691288, -0.01077041495591402, -0.02795243263244629, -0.018697509542107582, 0.013745668344199657, 0.0010060190688818693, 0.0030453656800091267, 0.005240758415311575, 0.019527459517121315, -0.026855986565351486, -0.0028416577260941267, 0.03364643454551697, 0.03709813579916954, 0.009264461696147919, -0.017153868451714516, 0.0107046440243721, 0.03239371255040169, -0.006643419619649649, 0.0018308297730982304, 0.04544908180832863, 0.0155233945697546, 0.023153021931648254, 0.003976294305175543, -0.027088018134236336, -0.00585953751578927, -0.010192625224590302, 0.028979510068893433, -0.01029213611036539, 0.00802859291434288, 0.007257892284542322, 0.008411373943090439, 0.0023012482561171055, -0.013446632772684097, 0.015718087553977966, -0.00887406524270773, 0.033025097101926804, 0.005205623805522919, -0.01913042552769184, 0.006307630799710751, -0.026346983388066292, -0.02811029739677906, -0.014248445630073547, 0.021466797217726707, -0.01984916627407074, -0.018730470910668373, 0.03372946381568909, 0.03018099255859852, 0.03988204523921013, -0.01539022009819746, -0.002820641966536641, 0.020325468853116035, -0.0200726967304945, -0.018451904878020287, -0.008800962939858437, -0.03659415990114212, 0.005584839731454849, 0.018872419372200966, 0.004491080064326525, -0.027180802077054977, 0.023955419659614563, 0.032591596245765686, -0.03274236246943474, 0.0013913830043748021, -0.0033633389975875616, -0.0016873546410351992, -0.028389906510710716, 0.005623195320367813, 0.03269508108496666, 0.03221882879734039, -0.004534776322543621, -0.013375621289014816, 0.02943347953259945, -0.0028785974718630314, -0.006360634695738554, -0.010299933142960072, -0.024578243494033813, -0.018885571509599686, -0.02566010132431984, -0.023432152345776558, 0.0038591623306274414, -0.008169004693627357, -0.03987547382712364, 0.005847563501447439, -0.007288438733667135, 0.0051049478352069855, 0.004514737986028194, -0.008425001055002213, -0.03033146634697914, 0.021050570532679558, -0.0021919324062764645, -0.03352006524801254, -0.008218550123274326, 0.006041703745722771, 0.024401620030403137, 0.0014763076324015856, -0.013742396607995033, 0.006145282182842493, -0.0010094988392665982, 0.0069792321883141994, 0.021461449563503265, 0.027035878971219063, 0.010760501958429813, -0.02004489302635193, 0.012455767020583153, 0.018478408455848694, 0.004898602608591318, 0.007441599853336811, -0.026293091475963593, -0.02282646670937538, 0.0029007771518081427, 0.00853405799716711, -0.012135379947721958, -0.007773802150040865, -0.03032209537923336, 0.0065444158390164375, 0.02267266809940338, 0.03351154550909996, 0.008189482614398003, -0.03838551416993141, -0.023295694962143898, -0.020649245008826256, -0.025430049747228622, 0.001150836469605565, -0.008325189352035522, 0.0017340258928015828, -0.02157793939113617, -0.0131223164498806, -0.026516087353229523, 0.024814171716570854, -0.009875851683318615, 0.02190481498837471, 0.014449549838900566, -0.019960220903158188, -0.005158032290637493, -0.026483260095119476, -0.0020280287135392427, 0.013276087120175362, 0.01076382864266634, -0.008509751409292221, -0.010286718606948853, -0.004509320016950369, 0.04023357108235359, -0.011166857555508614, 0.030786588788032532, 0.02297908440232277, 0.01878838986158371, -0.0004287461342755705, -0.032180096954107285, -0.01474884431809187, -0.018246011808514595, -0.013433377258479595, -0.03413325175642967, 0.03143526241183281, 0.026831014081835747, -0.020359065383672714, -0.016948789358139038, -0.007885774597525597, 0.0057825492694973946, -0.030052239075303078, -0.006980014964938164, 0.019666366279125214, 0.001410594442859292, 0.019670045003294945, 0.024816937744617462, -0.04079213738441467, -0.038788434118032455, -0.04565424844622612, -0.006750666070729494, -0.0213870108127594, 0.008776701986789703, 0.019884273409843445, -0.011449822224676609, -0.019647255539894104, 0.00031734342337585986, 0.01768685132265091, -0.02072187326848507, -0.0031056320294737816, 0.015313726849853992, -0.0006545594660565257, 0.002421045210212469, -0.005647995974868536, -0.03114941157400608, -0.030860496684908867, -0.0053566824644804, 0.015629014000296593, -0.009925148449838161, 0.01986977644264698, 0.019712718203663826, 0.014781968668103218, -0.000958953402005136, -0.024678051471710205, -0.027211105450987816, 0.005098842550069094, -0.03810065612196922, -0.00932586845010519, -0.036116525530815125, 0.007356890011578798, -0.030786490067839622, -0.020433057099580765, -0.03205292299389839, -0.03217146918177605, -0.04341255873441696, -0.03418302536010742, -0.02796490490436554, -0.02524598501622677, 0.029367953538894653, -0.004181060940027237, -0.008661340922117233, -0.005265171639621258, 0.022565564140677452, 0.022749558091163635, -0.014040558598935604, 0.03068995662033558, -0.01338459737598896, 0.00048434268683195114, -0.012906978838145733, 0.009679298847913742, 0.01178630068898201, 0.017450319603085518, -0.03801566734910011, -0.012540009804069996, -0.008750627748668194, -0.002530965954065323, -0.052378106862306595, -0.04303918778896332, -0.05476377531886101, -0.022612139582633972, -0.021613605320453644, -0.041425254195928574, -0.020037712529301643, -0.04408959299325943, -0.04263809695839882, -0.00022364479082170874, 0.02633196860551834, 0.023386092856526375, -0.02962837740778923, -0.010166355408728123, 0.014342333190143108, 0.005196877755224705, 0.01479837391525507, 0.003496041987091303, -0.013500244356691837, -0.019251186400651932, 0.0233443733304739, 0.025233058258891106, 0.02774842642247677, -0.021012844517827034, 0.0033676917664706707, -0.04916200041770935, -0.04086795449256897, -0.02414964698255062, -0.023907659575343132, -0.04036751389503479, 0.0111031299456954, -0.03362216427922249, -0.008847041986882687, -0.009896169416606426, 0.02663009986281395, -0.016408290714025497, 0.01578536629676819, -0.01548258401453495, 0.010677086189389229, -0.023695306852459908, 0.028818916529417038, 0.01858065463602543, 0.03283815085887909, -0.0300899650901556, 0.022291280329227448, 0.036523766815662384, 0.0065071177668869495, -0.010106089524924755, 0.02612357772886753, 0.0007322016172111034, 0.012385250069200993, 0.02054155059158802, 0.01843034289777279, 0.006559599656611681, -0.041370414197444916, -0.012896745465695858, -0.03629416972398758, 0.03069405071437359, -0.01068747416138649, -0.020411917939782143, 0.02269570156931877, -0.005204284097999334, -0.033844612538814545, 0.016468621790409088, 0.02004864625632763, 0.02215545065701008, -0.021729731932282448, 0.03554116562008858, -0.028767535462975502, 0.0050125159323215485, -0.008876876905560493, 0.012721986509859562, -0.014389900490641594, 0.010727761313319206, -0.004380953032523394, 0.020275011658668518, 0.007300287950783968, 0.015206785872578621, 0.007636494934558868, 0.029760563746094704, 0.009883446618914604, 0.025679081678390503, -0.00833628885447979, -0.003598751500248909, 0.006447620689868927, -0.01145983301103115, 0.030159953981637955, -0.015748221427202225, -0.02144530601799488, -0.017480941489338875, -0.018571242690086365, 0.008291395381093025, -0.0020523134153336287, 0.03280281275510788, 0.01411319337785244, -0.0007342590834014118, -0.01581127941608429, -0.026469988748431206, -0.02250915765762329, -0.004003876354545355, 0.021479293704032898, -0.027626672759652138, 0.020303303375840187, -0.015486665070056915, 0.02609928324818611, -0.0027417109813541174, 0.018566429615020752, 0.03339723125100136, -0.014130334369838238, -0.008010831661522388, 0.00836772657930851, -0.021277520805597305, -0.025644032284617424, -0.022627025842666626, 0.011700669303536415, -0.019325559958815575, -0.01912044733762741, -0.011228655464947224, -0.014971748925745487, 0.0081533407792449, -0.023145711049437523, -0.001938577159307897, -0.01092442125082016, 0.03238510712981224, 0.021908003836870193, 0.033079251646995544, 0.025915399193763733, 0.03132017329335213, -0.01944682188332081, -0.02471008338034153, 0.035316865891218185, 0.027700798586010933, 0.03673848137259483, 0.0031186221167445183, 0.0070218658074736595, 0.03052290715277195, 0.0011240439489483833, 0.021067891269922256, 0.015535174869000912, 0.00014031589671503752, 0.006685736123472452, -0.00665940809994936, 0.00454432750120759, 0.017777996137738228, -0.017604481428861618, -0.01896461844444275, 0.01771702617406845, 0.00132746621966362, -0.017695104703307152, -0.023797720670700073, -0.02078608050942421, 0.013297191821038723, -0.032407741993665695, -0.01834310032427311, 0.024430200457572937, 0.0005278741009533405, 0.032531075179576874, -0.017559697851538658, 0.013762685470283031, -0.0025922253262251616, -0.027704644948244095, 0.014725946821272373, -0.0006102145416662097, 0.013691754080355167, -0.02135889045894146, 0.034157104790210724, -0.008243470452725887, -0.027516277506947517, -0.018766554072499275, -0.02495179884135723, 0.005950457416474819, -0.007913409732282162, -0.023703113198280334, 0.011277531273663044, -0.0018287001876160502, 0.005677493289113045, -0.01822751574218273, -0.016484642401337624, -0.008997772820293903, 0.018756436184048653, -0.027957100421190262, 0.0008874906925484538, -0.0013717844849452376, -0.0072235786356031895, 0.018487101420760155, -0.001398596097715199, -0.020806601271033287, 0.027419421821832657, -0.02000424452126026, 0.03354042023420334, 0.03718993067741394, 0.0011255356948822737, 0.03816792368888855, -0.005677949637174606, -0.003763761604204774, -0.0017227811040356755, -0.025239665061235428, -0.010532509535551071, 0.019621016457676888, -0.0028236990328878164, 0.01545571070164442, 0.03811493515968323, 0.018332818523049355, 0.015268943272531033, 0.027398981153964996, -0.017062397673726082, -0.008193224668502808, 0.03000369481742382, 0.0036288790870457888, 0.03739715367555618, 0.03712674230337143], [-0.023516593500971794, -0.01033119298517704, -0.022678228095173836, -0.0030906349420547485, -0.008695784956216812, 0.006511756218969822, 0.022127443924546242, -0.002046804176643491, 0.021542035043239594, 0.006069626193493605, -0.00885202456265688, -0.03349464386701584, -0.03086327388882637, -0.02719755470752716, 0.02610345371067524, 0.02228720486164093, -0.03937148302793503, -0.01660631038248539, -0.02816465124487877, -0.002528365235775709, 0.02162034995853901, -0.041020844131708145, 0.024508720263838768, -0.04019860178232193, -0.00120690802577883, -0.015285083092749119, 0.021113958209753036, -0.03843396529555321, 0.020717933773994446, -0.030811522156000137, 0.007342959754168987, -0.007615666836500168, -0.012233811430633068, -0.00988058838993311, -0.007649781182408333, 0.0008779268246144056, -0.037293486297130585, -0.023511357605457306, 0.005559137091040611, -0.005514455959200859, -0.034972090274095535, -0.03772979974746704, -0.008658214472234249, -0.03674765303730965, -0.017224740236997604, -0.0017286206129938364, 0.006328301969915628, -0.04253220930695534, -0.027938244864344597, 0.01155611127614975, -0.000853904290124774, -0.007172561716288328, 0.023532617837190628, -0.013313917443156242, -0.010595697909593582, -0.023609153926372528, -0.007160227745771408, 0.0013955887407064438, 0.022006453946232796, 0.014660380780696869, -0.03711814805865288, 0.01705288141965866, -0.0004147152358200401, 0.01683211140334606, -0.016224350780248642, 0.0028268760070204735, 0.02237199805676937, -0.0454835370182991, -0.017615705728530884, -0.008011795580387115, -0.02754410170018673, -0.03418772667646408, -0.0406443290412426, -0.034533582627773285, -0.028896890580654144, -0.02033642865717411, -0.007575162686407566, -0.0004967451677657664, -0.007347730454057455, -0.02396026812493801, -0.03545007109642029, -0.01650472916662693, -0.02647612802684307, -0.008899235166609287, 0.021095911040902138, -0.01970113068819046, 0.026217123493552208, 0.005691433325409889, -0.03648918867111206, -0.019244875758886337, -0.035815734416246414, -0.03884994238615036, -0.011673536151647568, -0.023535653948783875, 0.005966736003756523, 0.004692125599831343, -0.02111951820552349, -0.03504718467593193, -0.0012578621972352266, -0.011907867155969143, -0.014327602460980415, -0.020062552765011787, 0.02152886614203453, 0.0215692650526762, -0.009082469157874584, 0.02129177562892437, -0.016659030690789223, 0.020063038915395737, -0.005680699832737446, 0.02106054313480854, -7.675969754927792e-06, 0.02370353974401951, -0.017357703298330307, -0.04145412519574165, -0.03424720838665962, 0.005241589620709419, -0.0324883908033371, 0.014005822129547596, 0.010256899520754814, -0.010731006972491741, 0.008949204348027706, 0.023124288767576218, 0.033321626484394073, 0.016193825751543045, -0.009532785043120384, 0.012741126120090485, 0.026910731568932533, -0.0018626345554366708, -0.004993845243006945, 0.009438306093215942, -0.03087952546775341, 0.005339573137462139, -0.028774145990610123, -0.026678912341594696, -0.007134806364774704, 0.0192653127014637, 0.02811633236706257, 0.0060537587851285934, -0.006765986327081919, 0.020958174020051956, 0.00253839953802526, 0.011507739312946796, 0.0038669812493026257, -0.0006531359977088869, -0.0074601382948458195, -0.03313770145177841, -0.007860144600272179, -0.02566997893154621, 0.010657267645001411, 7.428646767948521e-06, 0.0013773735845461488, -0.03164944052696228, -0.009182755835354328, 0.018145108595490456, -0.015402298420667648, -0.01204356737434864, 0.008235370740294456, -0.042032379657030106, -0.007100265938788652, -0.002592075616121292, -0.031174659729003906, -0.017979785799980164, -0.03659050539135933, -0.032172076404094696, -0.043106600642204285, 0.003916652407497168, 0.014198007993400097, -0.01463282946497202, -0.043470244854688644, 0.019247934222221375, 0.00716699892655015, -0.038478538393974304, 0.0036411392502486706, 0.007770849857479334, 0.030403269454836845, -0.010324222035706043, 0.03690042719244957, 0.0041738697327673435, -0.0015193561557680368, -0.011242760345339775, -0.0024229888804256916, -0.024536574259400368, 0.007701806258410215, 0.016104688867926598, -0.01926329731941223, 0.03125865012407303, -0.021812977269291878, -0.02501898817718029, -0.027507726103067398, -0.011946388520300388, -0.016271382570266724, 0.00542661314830184, -0.0008281625341624022, 9.484984911978245e-05, -0.03566412255167961, -0.040765564888715744, -0.028263116255402565, 0.0033875841181725264, 0.020071115344762802, 0.004106755368411541, -0.02170432172715664, 0.02193300426006317, 0.002785410499200225, 0.04199166223406792, 0.037541814148426056, 0.014229497872292995, 0.03801549971103668, 0.051895007491111755, 0.03119717910885811, 0.07728491723537445, 0.04918878898024559, 0.043364267796278, 0.026160642504692078, 0.029653357341885567, 0.012980769388377666, -0.005719812586903572, 0.049289800226688385, -0.031593043357133865, -0.03748885542154312, -0.011549612507224083, -0.02828710526227951, -0.004956928081810474, 0.008918730542063713, 0.02657843381166458, -0.03942038118839264, 0.006647943053394556, 0.012544012628495693, -0.011953934095799923, 0.00839983019977808, -0.017673315480351448, 0.00461408868432045, 0.013181435875594616, 0.03018283098936081, -0.004056629259139299, 0.022365909069776535, 0.01914891228079796, 0.035802263766527176, 0.08582338690757751, 0.0421704426407814, 0.05790000036358833, 0.05982889607548714, 0.04991205036640167, 0.0010638266103342175, 0.028392614796757698, 0.04233650863170624, 0.023508910089731216, 0.020314719527959824, -0.0028951335698366165, 0.012683416716754436, 0.00783785805106163, -0.035592976957559586, -0.003983034752309322, -0.009110862389206886, 0.009976274333894253, 0.004241444170475006, 0.015991421416401863, 0.02478785812854767, 0.006842693779617548, 0.027134593576192856, 0.01277917716652155, 0.04952896013855934, 0.04746990278363228, 0.07402533292770386, 0.009692625142633915, 0.07187149673700333, 0.036967407912015915, 0.04403957724571228, 0.0033419341780245304, 0.007470245938748121, 0.040646642446517944, 0.044808290898799896, -0.009035656228661537, 0.0008078422397375107, 0.041348330676555634, -0.010664003901183605, 0.013515030033886433, 0.010058937594294548, 0.01570933125913143, 0.008513201959431171, -0.002373290015384555, -0.013197019696235657, 0.005017785355448723, -0.015166060999035835, -0.029707232490181923, -0.016009487211704254, -0.027260037139058113, 0.04288298636674881, 0.0046341391280293465, 0.006317252293229103, 0.01194254495203495, 0.018192172050476074, 0.01551485899835825, 0.00040855538100004196, 0.04586169868707657, 0.00962975062429905, 0.04576387628912926, 0.05801583454012871, 0.05501271039247513, -0.019445834681391716, 0.04325263947248459, 0.004508667159825563, 0.027901308611035347, -0.015395131893455982, -0.027529750019311905, -0.03076382540166378, -0.0207842830568552, 0.015336740761995316, 0.008603033609688282, 0.017835404723882675, -0.03108908236026764, 0.02661958895623684, -0.03231673315167427, 0.028189877048134804, -0.03302477300167084, 0.02292644791305065, 0.005606350488960743, -0.005504093132913113, -0.02759944275021553, 0.014315891079604626, 0.013519386760890484, -0.012659170664846897, 0.009442613460123539, 0.0015218243934214115, 0.008880159817636013, 0.047954458743333817, 0.00921160914003849, -0.0070727006532251835, 0.004621198400855064, 0.004413946997374296, 0.03391605243086815, -0.009981339797377586, 0.004219607450067997, 0.005569459404796362, -0.0014540242264047265, 0.013723206706345081, -0.015869027003645897, 0.008261663839221, -0.011700068600475788, -0.015694309026002884, -0.007621590048074722, 0.03222915530204773, -0.029080679640173912, -0.03223700821399689, -0.0067566935904324055, 0.03295544534921646, 0.027337385341525078, -0.0045669227838516235, -0.055427469313144684, -0.015487748198211193, 0.012372735887765884, 0.005557074211537838, 0.0032600564882159233, 0.018298041075468063, 0.044043101370334625, 0.03770620748400688, 0.03902924060821533, -0.0026378657203167677, -0.038266923278570175, -0.0374332070350647, -0.0050615970976650715, 0.00045378252980299294, -0.0336545966565609, -0.03303871676325798, -0.034828681498765945, -0.04045465961098671, -0.032771337777376175, 0.004293953068554401, 0.0019976571202278137, 0.015112075954675674, 0.005173375830054283, -0.03781081736087799, -0.014243816025555134, -0.0008612531237304211, -0.0035357046872377396, -0.020233899354934692, 0.002028742805123329, -0.009601903147995472, -0.010937925428152084, 0.003365803277119994, -0.0028598736971616745, 0.03714638203382492, 0.01425151340663433, 0.016079867258667946, 0.035782113671302795, 0.03258579969406128, 0.032849617302417755, -0.004766559693962336, -0.004529557190835476, -0.007077031768858433, -0.013307093642652035, -0.035751309245824814, -0.014745976775884628, -0.0018897155532613397, 0.0260937362909317, -0.025973426178097725, -0.019805941730737686, -0.002407849533483386, -0.04333562031388283, 0.011641464196145535, -0.008355051279067993, -0.03463227301836014, -0.007674847729504108, -0.05586959794163704, -0.03330500051379204, -0.0011455643689259887, -0.04419838264584541, 0.003076905617490411, 0.005121057387441397, 0.04034743830561638, 0.048497460782527924, 0.03315655142068863, 0.008579357527196407, 0.01320012379437685, -0.013340027071535587, -0.0240379236638546, -0.03636990860104561, -0.03955341503024101, -0.042415861040353775, -0.026972686871886253, -0.025061802938580513, -0.0406474731862545, 0.023832716047763824, 0.0249843280762434, -0.003583003534004092, 0.019619164988398552, 0.0045866635628044605, -0.028996268287301064, -0.055840857326984406, -0.03329417482018471, -0.023204348981380463, -0.03733344003558159, -0.05626419559121132, -0.0005607016501016915, 0.036392126232385635, 0.037415243685245514, 0.01277195941656828, 0.033530596643686295, -0.007910347543656826, -0.01288656610995531, 0.030826475471258163, 0.038121987134218216, -0.02041132003068924, 0.02056213840842247, -0.04464474692940712, 0.0022875661961734295, 0.01129938568919897, 0.015115938149392605, -0.01176358200609684, -0.002003447385504842, 0.003992502111941576, -0.031402505934238434, 0.014909481629729271, 0.023350801318883896, -0.03687911480665207, -0.0420866385102272, -0.0021043478045612574, -0.04701131582260132, -0.029000286012887955, -0.018746379762887955, -0.03141020983457565, -0.019135097041726112, 0.022013263776898384, 0.03332413733005524, 0.005485257599502802, 0.04031960666179657, 0.006828152574598789, 0.04844081774353981, 0.0289296917617321, -0.026007359847426414, 0.03843667358160019, 0.01693914830684662, 0.013327259570360184, -0.01937863416969776, -0.01090967282652855, -0.03663211315870285, 0.00787634402513504, 0.023189494386315346, -0.02655474655330181, -0.009150698781013489, -0.030303698033094406, 0.019878307357430458, -0.03781130537390709, 0.024323076009750366, -0.016261985525488853, -0.01722724363207817, 0.018625279888510704, -0.0017489733872935176, 0.0003601171774789691, -0.029432525858283043, -0.020113052800297737, -0.015047978609800339, 0.009770345874130726, 0.04154599457979202, 0.02823338471353054, 0.04860461875796318, 0.031593259423971176, 0.0070448690094053745, 0.03328058868646622, 0.021057523787021637, 0.029062585905194283, -0.020803267136216164, -0.009097056463360786, 0.016638509929180145, -0.018643086776137352, -0.04092041403055191, -0.039526745676994324, -0.018448203802108765, 0.008644197136163712, -0.00972035527229309, 0.02072780951857567, -0.00983466301113367, -0.03220228850841522, 0.012066496536135674, -0.008639806881546974, 0.014614005573093891, 0.02217867411673069, 0.010421935468912125, 0.017639145255088806, 0.0068960776552557945, 0.032012224197387695, -0.006160910241305828, 0.04408546909689903, 0.011640484444797039, 0.0009399923146702349, 0.030824655666947365, 0.023629719391465187, -0.023269884288311005, 0.0240869652479887, 0.0021382805425673723, 0.0004718932614196092, -0.037258878350257874, -0.004340134561061859, 0.0021423313301056623, 0.010117610916495323, 0.015590468421578407, -0.004657032899558544, 0.004807104356586933, -0.02051156759262085, 0.03202255442738533, -0.02922055311501026, -0.025852905586361885, 0.019614122807979584, 0.005302222911268473, -0.005289580672979355, 0.035488326102495193, 0.022389138117432594, 0.022340649738907814, 0.021958837285637856, 0.0035639735870063305, -0.013170304708182812, 0.029977910220623016, -0.019894694909453392, 0.0072206780314445496, 0.017676176503300667, 0.031670235097408295, -0.006565581541508436, -0.006038013845682144, -0.02325212024152279, 0.026229405775666237, -0.03444993868470192, -0.03515782952308655, -0.04218640550971031, -0.023509500548243523, -0.015320236794650555, -0.016786526888608932, -0.01336752250790596, 0.027590526267886162, 0.024315757676959038, 0.02294214628636837, -0.019912010058760643, -0.023741161450743675, 0.015240625478327274, 0.011407698504626751, -0.02232910506427288, 0.007788977585732937, 0.013004413805902004, -0.014817784540355206, 0.02116449922323227, 0.020646532997488976, 0.031150035560131073, -0.013339255936443806, 0.01894918829202652, -0.009675138629972935, -0.008231077343225479, 0.007663963828235865, 0.018886763602495193, -0.023190898820757866, -0.0237759780138731, 0.0232784952968359, -0.03385879844427109, -0.03489821404218674, 0.002236571628600359, -0.017692388966679573, 0.033720098435878754, -0.033621303737163544, 0.033218782395124435, 0.008182077668607235, -0.020958909764885902, -0.005304038990288973, -0.02931610494852066, 0.004528399091213942, 0.03813770040869713, 0.011264307424426079, 0.04508199542760849, -0.021613791584968567, -0.017142359167337418, -0.0012995904544368386, 0.03630246967077255, 0.01003822311758995, -0.01593308337032795, 0.016764765605330467, 0.002624001121148467, -0.023507077246904373, 0.01079542376101017, -0.039185602217912674, -0.011589279398322105, -0.01842179335653782, 0.016979828476905823, -0.02065221779048443, -0.03417222201824188, -0.025839250534772873, 0.0324028842151165, 0.015884000808000565, 0.024078669026494026, 0.03690158203244209, 0.002855738392099738, -0.010657762177288532, 0.02180752158164978, 0.03588499501347542, 0.011247251182794571, -0.003336105030030012, 0.015625575557351112, -0.012936201877892017, -0.012494306080043316, 0.010367236100137234, 0.008586252108216286, 0.00042413128539919853, -0.019320152699947357, -0.03875702619552612, 0.00042172265239059925, 0.021634716540575027, 0.025988368317484856, 0.0056289006024599075, -0.022996552288532257, -0.02293718047440052, 0.023115787655115128, -0.030535763129591942, -0.0030935730319470167, -0.0013760835863649845, 0.01762445457279682, -0.02964388206601143, 0.005144820548593998, 0.03157137706875801, 0.03165742754936218, 0.035307396203279495, 0.009366758167743683, 0.029411645606160164, 0.015172852203249931, 0.022349169477820396, 0.010278263129293919, 0.034843768924474716, -0.004759497474879026, 0.015371068380773067, -0.02662247233092785, -0.04454940930008888, -0.03482593968510628, 0.0025873633567243814, -6.790315092075616e-05, -0.041296087205410004, -0.017322884872555733, 0.008376987650990486, 0.013358539901673794, 0.015235278755426407, 0.01085038110613823, -0.020575882866978645, 0.007759660482406616, -0.009288136847317219, -0.031179551035165787, 0.034136127680540085, 0.004850771743804216, 0.016999738290905952, 0.03956582397222519, -0.0064199273474514484, -0.0167015939950943, 0.02076561190187931, -0.005759254563599825, 0.0552305169403553, -0.008984136395156384, -0.0016922838985919952, -0.007224909495562315, 0.0008627633797004819, -0.04659482464194298, -0.021686779335141182, 0.009274238720536232, 0.00740980776026845, -0.04499439522624016, -0.016916999593377113, 0.024889325723052025, -0.034452855587005615, 0.02379581891000271, 0.01542387343943119, 0.017637353390455246, 0.025846339762210846, -0.030296113342046738, -0.009115501306951046, 0.016490595415234566, 0.01631833240389824, 0.027275754138827324, 0.041277989745140076, 0.04271623492240906, 0.003059822367504239, 0.0022975399624556303, 0.04145607724785805, 0.017027728259563446, -0.00972728617489338, 0.030579714104533195, -0.0033766375854611397, 0.0217359010130167, -0.007469188421964645, -0.03138143941760063, -0.03540719673037529, 0.01421352382749319, 0.0015629157423973083, -0.015647992491722107, -0.0020410597790032625, 0.01548988837748766, 0.02034364640712738, -0.03241603821516037, -0.00762335816398263, -0.04283839464187622, -0.03542930632829666, -0.022027138620615005, 0.008571791462600231, -0.022265944629907608, -0.015080364421010017, -0.013742790557444096, 0.017790308222174644, -0.00961124338209629, -0.025932366028428078, 0.017702875658869743, 0.017981600016355515, -0.007857521064579487, 0.01624499447643757, 0.007799840532243252, -0.01795772649347782, -0.0173634123057127, 0.007167471572756767, 0.022530168294906616, -0.009490652941167355, 0.013915818184614182, -0.014581567607820034, -0.007073929533362389, 0.019199732691049576, -0.024438055232167244, 0.015836695209145546, -0.023262470960617065, -0.027289891615509987, -0.019534125924110413, 0.019147325307130814, -0.012885482050478458, -0.004251500125974417, -0.0030423279386013746, -0.0058412509970366955, 0.004072537645697594, -0.03383961692452431, -0.01847062259912491, -0.03953276202082634, -0.013984954915940762, -0.02761826477944851, -0.04139089211821556, -0.01072224136441946, -0.006027061492204666, -0.04114079475402832, -0.042241960763931274, -0.013370494358241558, 0.013473411090672016, -0.01549466885626316, 0.02439691312611103, -0.003901093266904354, -0.006891132332384586, -0.028208119794726372, -0.035156767815351486, -0.025844519957900047, -0.03287949785590172], [-0.004919260274618864, 0.030573377385735512, -0.012082910165190697, -0.01976432092487812, -0.018779374659061432, 0.029080864042043686, -0.011217190884053707, 0.023707136511802673, 0.03320826590061188, 0.0032676418777555227, 0.021659983322024345, -0.010891196317970753, -0.0038971572648733854, 0.0038058359641581774, 0.016951145604252815, -0.02407250367105007, -0.022501135244965553, -0.019191943109035492, 0.022309552878141403, 0.003295251866802573, -0.01010711956769228, 0.02276996150612831, 0.023526659235358238, 0.0012639898341149092, 0.011910240165889263, -0.013705834746360779, -0.019503278657794, -0.01975577510893345, 0.019538534805178642, 0.03946905583143234, 0.03905418515205383, 0.0097357127815485, -0.002082760678604245, 0.007268832065165043, -0.021779920905828476, -0.025417348369956017, 0.023006046190857887, 0.01442689634859562, 0.0027368590235710144, 0.01856173947453499, -0.010294431820511818, -0.012876514345407486, 0.011584125459194183, 0.04003474861383438, 0.026301968842744827, 0.01571560464799404, 0.005964261945337057, 0.012971977703273296, 0.03652577102184296, -0.0031455201096832752, 0.03622059524059296, -0.018250999972224236, -0.01944810152053833, 0.017522267997264862, -0.024206940084695816, 0.0009530780371278524, 0.031944990158081055, 0.011845116503536701, 0.01753922924399376, 0.041603848338127136, 0.008755774237215519, 0.043544817715883255, 0.03481581062078476, 0.01610702835023403, 0.017465513199567795, 0.030997585505247116, -0.024147816002368927, -0.016274897381663322, 0.03294133022427559, -0.01723376102745533, 0.030086930841207504, 0.03713960573077202, 0.016293661668896675, 0.04229266569018364, -0.003793328767642379, 0.032744016498327255, -0.006063391454517841, -0.00990515947341919, 0.03900571167469025, 0.028200043365359306, 0.04283112660050392, 0.018541883677244186, 0.02639554813504219, 0.00048438212252222, 0.03343837708234787, -0.02473447285592556, 0.02295699529349804, 0.04425911605358124, 0.03483369201421738, 0.012149845249950886, -0.016656454652547836, 0.03450779616832733, 0.027808714658021927, 0.029931778088212013, -0.022390790283679962, -0.011663411743938923, 0.0006155538721941411, 0.035249728709459305, 0.005351896397769451, 0.018034150823950768, 0.040656909346580505, 0.01937604509294033, 0.04088398814201355, 0.008543170988559723, 0.035946767777204514, 0.014629172161221504, -0.0011867224238812923, 0.028456605970859528, 0.018502619117498398, -0.02871464006602764, -0.0030487787444144487, 0.020416254177689552, 0.024528922513127327, -0.020506320521235466, -0.02135467529296875, 0.02445063367486, 0.000662803475279361, 0.0216352641582489, 0.04392446577548981, 0.036270420998334885, 0.0406024344265461, 0.01140030287206173, 0.012502910569310188, 0.028096094727516174, 0.030176153406500816, 0.03546448424458504, 0.0038820267654955387, 0.02150535024702549, -0.016072744503617287, 0.0038940103258937597, 0.01017224695533514, -0.025892850011587143, 0.022773856297135353, -0.007330849766731262, 0.015812024474143982, -0.026892125606536865, -0.00376331084407866, 0.03533469885587692, -0.004549398086965084, -0.011781563982367516, 0.0090566361322999, 0.03038819693028927, -0.021814264357089996, 0.03352516517043114, 0.003663152689114213, -0.0033492811489850283, -0.009519439190626144, 2.129286076524295e-05, -0.000658230041153729, 0.029132334515452385, -0.03062223456799984, 0.019268125295639038, -0.016642261296510696, -0.025226900354027748, -0.00016410413081757724, -0.012438098900020123, -0.017729638144373894, -0.02061009220778942, -0.03306301683187485, 0.024007506668567657, -0.026199422776699066, -0.0008744017104618251, -0.010940575040876865, -0.012067379429936409, -0.00978788547217846, 0.009623490273952484, 0.012066979892551899, -0.00787390861660242, 0.03922956809401512, 0.041141144931316376, -0.020099377259612083, 0.04023975878953934, 0.006945915520191193, -0.02320314757525921, 0.03647138178348541, 0.029429232701659203, 0.012786906212568283, -0.008089174516499043, -0.01643986441195011, 0.028941724449396133, 0.0003292220935691148, 0.02485332265496254, -0.03239377215504646, 0.03211256489157677, -0.024703754112124443, 0.023439200595021248, -0.02752922661602497, 0.020263617858290672, -0.02323617972433567, -0.002481592819094658, -0.009265489876270294, -0.023016681894659996, -0.002695853356271982, -0.017578091472387314, -0.0110325887799263, 0.009080125950276852, 0.014623490162193775, 0.01715949922800064, 0.025414343923330307, 0.029480233788490295, 0.027553582563996315, -0.011988918296992779, 0.047263458371162415, 0.006429128348827362, -0.032625190913677216, -0.031801775097846985, 0.0053495545871555805, -0.03727853298187256, -0.03975626081228256, -0.007778709754347801, -0.024988610297441483, 0.01108324434608221, 0.003439303021878004, 0.01729562319815159, -0.004690774250775576, 0.025326354429125786, -0.025707803666591644, -0.024093283340334892, -0.04722187668085098, -0.03716040030121803, -0.03085475228726864, -0.027491820976138115, -0.0061887106858193874, -0.024769077077507973, -0.004814323969185352, 0.02353324182331562, 0.02849189005792141, -0.013859055936336517, 0.03451353311538696, -0.017241239547729492, -0.015545651316642761, 0.006654734257608652, -0.003286348655819893, 0.005959599744528532, -0.03611763194203377, -0.009427431039512157, 0.028663093224167824, 0.025038234889507294, 0.00726774288341403, 0.03003060817718506, 0.03203090280294418, -0.013697504997253418, -0.02789040096104145, -0.010520621202886105, -0.03992661088705063, -0.011501709930598736, -0.03836226835846901, -0.03825034201145172, -0.024687325581908226, -0.012858284637331963, 0.04221772775053978, -0.0031931137200444937, 0.020812517032027245, 0.031088391318917274, -0.014277337118983269, 0.01385331992059946, -0.017504693940281868, 0.0335657112300396, -0.027013324201107025, -0.04278962314128876, -0.04410233348608017, -0.018638264387845993, -0.023469125851988792, -0.00351277575828135, 0.018729763105511665, -0.025539923459291458, 0.013474740087985992, -0.00492429081350565, 0.026135850697755814, 0.02776973694562912, -0.027386333793401718, 0.013364356011152267, 0.0036687857937067747, -0.028957141563296318, -0.020066941156983376, -0.047060683369636536, -0.03575800731778145, -0.011952613480389118, 0.03225342184305191, 0.03391113877296448, 0.030532971024513245, 0.03833012282848358, 0.00044615697697736323, 0.01460552029311657, 0.0006018419517204165, 0.005018652882426977, 0.02715732902288437, -0.04727567359805107, 0.008705281652510166, -0.011257459409534931, -0.014660218730568886, -0.006957413163036108, -0.0003521058533806354, -0.025807948783040047, 0.029710320755839348, 0.017422929406166077, 0.030166003853082657, 0.002189154736697674, 0.01745658367872238, 0.039809875190258026, -0.008656410500407219, 0.040194857865571976, -0.006551788188517094, 0.017170988023281097, 0.023313241079449654, -0.012949422001838684, 0.018803905695676804, -0.016965355724096298, 0.013526291586458683, 0.013806791976094246, -0.012122671119868755, 0.005310871638357639, -0.01135856844484806, -0.01947292871773243, -0.039334140717983246, -0.014166782610118389, -0.03509310260415077, -0.024635206907987595, -0.04019918665289879, -0.02738919109106064, -0.07462790608406067, -0.013371972367167473, 0.018514255061745644, 0.00948952417820692, -0.010176853276789188, 0.03652635216712952, 0.040466733276844025, 0.0324721597135067, 0.0016391093377023935, 0.016782255843281746, -0.02377605065703392, 0.03317134082317352, -0.008568215183913708, -0.02159462869167328, 0.013039570301771164, -0.025083165615797043, 0.0333753302693367, -0.0017479670932516456, 0.04437990114092827, 0.004218233283609152, 0.018472079187631607, 0.017174972221255302, -0.049027036875486374, -0.015707580372691154, -0.024143196642398834, 0.006347090005874634, -0.05286083370447159, -0.014493515715003014, -0.04667062684893608, -0.06208143010735512, 0.00896456278860569, -0.03178753703832626, 0.011851311661303043, 0.0009315325296483934, -0.017983460798859596, 0.035586196929216385, 0.0351962111890316, 0.04436302185058594, 0.023429999127984047, 0.01670309528708458, -0.010842285118997097, 0.007526677567511797, 0.005299746058881283, -0.024871109053492546, -0.0074029117822647095, 0.008299223147332668, -0.023120533674955368, -0.021740125492215157, 0.007961386814713478, -0.002904054243117571, -0.015696905553340912, -0.049376655369997025, -0.04099826142191887, -0.030394135043025017, -0.022343261167407036, -0.05937129631638527, -0.013158136047422886, -0.041214119642972946, 0.020059263333678246, -0.02310374565422535, -0.025792237371206284, -0.03303295746445656, -0.04475034400820732, -0.02900492213666439, 0.024834919720888138, -0.014373819343745708, -0.01834658347070217, 0.021112509071826935, 0.037050701677799225, 0.00211842218413949, 0.0315556600689888, 0.03529716283082962, -0.012433287687599659, -0.024149049073457718, 0.019757000729441643, -0.012904084287583828, 0.03159691393375397, -0.013376105576753616, -0.016021274030208588, 0.016582941636443138, -0.04281029850244522, -0.04880712553858757, -0.054582323879003525, -0.04832085594534874, -0.053684256970882416, -0.05009706690907478, -0.045845817774534225, 0.013262858614325523, -0.02757037989795208, -0.03729046508669853, 0.015543604269623756, -0.028362518176436424, -0.008966895751655102, 0.013651927933096886, -0.028685802593827248, 0.0006983429775573313, 0.008468731306493282, 0.031104007735848427, 0.030461691319942474, 0.03872212395071983, -0.02527061104774475, 0.017759326845407486, -0.026049360632896423, 0.021579844877123833, -0.0006993493880145252, 0.01922057941555977, -0.0169359277933836, 0.008386462926864624, -0.01263467688113451, -0.03888370841741562, 0.001608850434422493, -0.04872160777449608, -0.058554988354444504, -0.02422315999865532, 0.005060001742094755, -0.03439437597990036, -0.04289480671286583, -0.03648877143859863, -0.04122214764356613, 0.02154657244682312, 0.012248525395989418, -0.02113989368081093, -0.028517547994852066, -0.0013977005146443844, 0.04071563854813576, -0.001195736462250352, 0.0341697558760643, -0.011627836152911186, 0.02473234012722969, -0.018017735332250595, 0.017299635335803032, -0.005790125112980604, 0.037755440920591354, 0.013416208326816559, 0.02896968089044094, -0.0341622419655323, 0.006687598768621683, 0.007428527809679508, 0.01140398159623146, 0.022143101319670677, -0.039224136620759964, -0.0026768248062580824, -0.030213940888643265, 0.00045574401156045496, 0.017260905355215073, 0.017366185784339905, 0.02441444806754589, 0.025686100125312805, 0.03517972677946091, -0.026388389989733696, 0.027485636994242668, 0.004552995320409536, -0.01472148485481739, 0.025687694549560547, 0.02996707521378994, 0.032151613384485245, -0.004259625915437937, 0.010505209676921368, 0.042834360152482986, 0.027496039867401123, 0.025970879942178726, -0.009782134555280209, 0.01712825708091259, -0.0018080631271004677, 0.03547528386116028, 0.0058091431856155396, 0.03308028355240822, 0.009841809049248695, -0.016135547310113907, -0.03572036325931549, -0.012510274536907673, -0.022930756211280823, -0.022379601374268532, 0.019478056579828262, 0.009545383974909782, -0.008481545373797417, -0.017099060118198395, 0.03497316315770149, -0.005001553799957037, -0.01036461628973484, -0.00024515832774341106, -0.007602794095873833, 0.02325982227921486, 0.021072011440992355, 0.005185759626328945, -0.0017033765325322747, 0.007368090562522411, 0.042670417577028275, 0.008635567501187325, 0.029044583439826965, 0.004698959644883871, 0.0035690367221832275, 0.0020961808040738106, -0.00424546143040061, -0.031823791563510895, -0.03510904312133789, -0.015675008296966553, -0.01528224628418684, -0.06079574674367905, -0.006831356789916754, -0.006447474006563425, 0.015294983983039856, -0.022766737267374992, -0.007946334779262543, -0.022116918116807938, 0.03605889156460762, 0.01758122257888317, -0.015160332433879375, 0.02797197364270687, -0.0006710087182000279, 0.03248322382569313, 0.02209855057299137, 0.027428174391388893, -0.019775783643126488, 0.0017408650601282716, -0.008350244723260403, 0.03619570657610893, 0.02841190993785858, -0.025144198909401894, -0.004328332841396332, 0.004321172367781401, -0.03232906013727188, 0.01613440550863743, 0.006868863943964243, -0.014102503657341003, 0.019369861111044884, 0.010653313249349594, 0.0008096683886833489, -0.0025491537526249886, 0.012824679724872112, -0.0009368163300678134, 0.03391242027282715, -0.0026434597093611956, 0.00024138759181369096, 0.00430825212970376, -0.025151390582323074, 0.0027058483101427555, 0.0335061252117157, -0.0022403618786484003, 0.00860060565173626, 0.020079776644706726, -0.018212905153632164, -0.02592509798705578, 0.03402605652809143, -0.011969320476055145, -0.0024115811102092266, -0.018783360719680786, -0.030474795028567314, 0.00222246372140944, -0.009774772450327873, -0.004618364851921797, -0.012205693870782852, 0.005679963156580925, -0.0014973068609833717, 0.0016671664780005813, -0.046635400503873825, 0.02308862842619419, -0.051610369235277176, 0.016769234091043472, -0.026571890339255333, -0.0257552657276392, 0.01765090972185135, 0.010006165131926537, 0.02892066165804863, 0.007509271614253521, 0.012871266342699528, 0.01102075818926096, 0.0009790421463549137, -0.011788376607000828, 0.01969047263264656, 0.0224754735827446, 0.01985665038228035, 0.03454497456550598, 0.0274716354906559, 0.015200487338006496, -0.007751195225864649, 0.0041904873214662075, 0.002333912067115307, 0.006319738458842039, -0.0074943965300917625, 0.016792811453342438, 0.005829836241900921, -0.050220638513565063, -0.0208393894135952, 0.012521433643996716, 0.016898641362786293, 0.01109551265835762, -0.0279413890093565, -0.020036322996020317, -0.018716197460889816, -0.02685772441327572, -0.01712658628821373, -0.008907984010875225, 0.01174286101013422, -0.007825972512364388, 0.03978487104177475, 0.00597924692556262, -0.018331272527575493, 0.021840328350663185, -0.001765592722222209, 0.03924116864800453, 0.034320469945669174, 0.030885769054293633, 0.019745752215385437, -0.0336729921400547, -0.03613605722784996, 0.018161769956350327, 0.007007212843745947, -0.03831421956419945, -0.00954773835837841, -0.040481556206941605, -0.037914372980594635, -0.009294240735471249, -0.02925734780728817, -0.015073118731379509, 0.024386286735534668, -0.021540146321058273, -0.021587613970041275, 0.016074299812316895, 0.011164170689880848, 0.007153229787945747, 0.027282394468784332, 0.04211531579494476, -0.004796572960913181, 0.03926350548863411, -0.007197223603725433, -0.0015629080589860678, -0.0201199222356081, 0.008770172484219074, 0.017065588384866714, 0.017769409343600273, 0.0064988345839083195, 0.03202815353870392, -0.008319170214235783, 0.006080469582229853, -0.011536557227373123, 0.0004062146763317287, -0.0038628806360065937, -0.03514091297984123, -0.02052142098546028, -0.019700385630130768, -0.01954122632741928, 0.029323985800147057, 0.0191818680614233, -0.003542795777320862, 0.03262058645486832, 0.04211638495326042, 0.014517118223011494, 0.02935577929019928, 0.03876110538840294, 0.010848287492990494, -0.017524689435958862, -0.022803591564297676, -0.012138458900153637, -0.02643837220966816, 0.01187081541866064, -0.017093030735850334, -0.0007800303283147514, 0.023027323186397552, -0.014789082109928131, -0.00482794689014554, -0.017937596887350082, -0.027321213856339455, -0.03011833317577839, 0.0027833362109959126, -0.017716925591230392, -0.004429835360497236, -0.0029782208148390055, 0.022435937076807022, -0.020991602912545204, -0.0007014692528173327, -0.006518256850540638, -0.0026653895620256662, 0.04492638260126114, 0.024152301251888275, 0.0030529045034199953, 0.017636902630329132, 0.042834945023059845, -0.004474143963307142, 0.03562161698937416, 0.0018468601629137993, 0.025971338152885437, -0.01461771223694086, 0.03572317585349083, 0.018974844366312027, 0.014955930411815643, -0.0035910382866859436, 0.006653313525021076, 0.032584868371486664, -0.017233936116099358, -0.000981788500212133, 0.03508464992046356, -0.007734181825071573, -0.014428333379328251, 0.015836698934435844, -0.011579416692256927, 0.00657081650570035, 0.03328648582100868, -0.02962200902402401, 0.014649448916316032, -0.01994127780199051, 0.008314907550811768, -0.01022166945040226, 0.027080368250608444, -0.025819120928645134, 0.02840089239180088, -0.003003307618200779, 0.004830281250178814, 0.04303870350122452, 0.0007498720078729093, 0.008090287446975708, 0.03539211302995682, 0.015992294996976852, 0.027117690071463585, -0.008930009789764881, 0.018979787826538086, -0.013605336658656597, 0.01121059525758028, -0.01683717779815197, 0.02257280796766281, 0.030061986297369003, 0.0052246591076254845, -0.022591087967157364, -0.023784371092915535, 0.017095454037189484, -0.009670371189713478, 0.03971409425139427, 0.011062299832701683, 0.014881609939038754, 0.02049991860985756, 0.03199169039726257, -0.025528069585561752, -0.0059632835909724236, -0.019009161740541458, 0.010678389109671116, 0.04134855791926384, -0.004915433470159769, 0.01028593722730875, -0.01488188561052084, 0.023384256288409233, 0.021640799939632416, -0.026334652677178383, -8.784097008174285e-05, 0.042294878512620926, 0.036951206624507904, 0.014980264008045197, -0.003743781242519617, -0.0044612702913582325, 0.04191569238901138, 0.04361856356263161, -0.005420390982180834, -0.010798295959830284, 0.008895795792341232, 0.005852199159562588, 0.033240485936403275, -0.02379409223794937, 0.009951453655958176, -0.014893713407218456, 0.005093904212117195, -0.007107069715857506, -0.01768781989812851, -0.00922517478466034, 0.038532957434654236, 0.03325449302792549], [0.003834605449810624, 0.0321853905916214, -0.021741939708590508, 0.02942598983645439, -0.01299681980162859, 0.03863704577088356, 0.0293427761644125, -0.026657475158572197, 0.038902267813682556, -0.0005048137390986085, -0.018632126972079277, 0.029330777004361153, 0.021370457485318184, 0.013392371125519276, 0.008370677940547466, 0.00786901731044054, 0.00782423373311758, 0.03716171905398369, 0.01546475850045681, -0.02240457758307457, -0.016876043751835823, -0.014712638221681118, 0.0019205238204449415, -0.005394222214818001, -0.00919413659721613, -0.013234284706413746, -0.017807966098189354, -0.0024177669547498226, -0.010150483809411526, -0.005182771943509579, 0.009831562638282776, 0.03390268236398697, -0.01343689113855362, -0.009740754961967468, 0.024541515856981277, 0.003943175543099642, 0.004556023050099611, 0.029730990529060364, 0.038132086396217346, -0.01831805892288685, -0.028616931289434433, 0.014493023045361042, -0.013972805812954903, 0.007629508152604103, 0.026604944840073586, -0.006467705126851797, 0.007992355152964592, 0.03693593665957451, 0.0018676052568480372, 0.04014678671956062, 0.004645558539777994, -0.008723306469619274, 0.005774128250777721, -0.02337365783751011, 0.02179492637515068, 0.0406830795109272, -0.02286306396126747, -0.028419513255357742, 0.0221541840583086, -0.027340156957507133, 0.011022166348993778, 0.009849049150943756, 0.04044623300433159, -0.00038736534770578146, 0.02963453158736229, 0.015611317940056324, -0.028076812624931335, -0.006481544114649296, 0.02960224822163582, -0.01041360106319189, 0.03906036168336868, 0.006766302045434713, 0.0008812161395326257, -0.020259544253349304, -0.019631430506706238, 0.0047528743743896484, -0.020575128495693207, 0.025252103805541992, -0.003783171996474266, 0.01661830209195614, -0.01535748690366745, 0.035173170268535614, 0.038977622985839844, 0.029145844280719757, -0.006828392390161753, -0.019855428487062454, -0.00938678439706564, 0.027150833979249, 0.011453121900558472, -0.026960376650094986, 0.00033046037424355745, 0.011971925385296345, 0.026997549459338188, -0.01756628230214119, -0.02496735379099846, 0.030915113165974617, -0.02129250392317772, 0.007286119274795055, 0.01142651867121458, 0.02657906524837017, -0.018030202016234398, 0.026262428611516953, 0.033001162111759186, -0.02695511467754841, -0.01660408265888691, 0.01164908055216074, 0.010756171308457851, -0.010151934809982777, 0.014634639956057072, 0.029493391513824463, 0.026864223182201385, 0.000536807463504374, -0.003921637777239084, -0.00198495970107615, -0.005034340545535088, -0.0030314328614622355, -0.020419631153345108, -0.019849488511681557, -0.025290271267294884, -0.029575563967227936, 0.032951679080724716, 0.02440493553876877, -0.03850376233458519, 0.012065018527209759, -0.030421584844589233, -0.024783624336123466, -0.020599499344825745, -0.05144313722848892, 0.0024290941655635834, 0.019963601604104042, -0.021208129823207855, -0.02169102057814598, -0.007563326042145491, -0.002836566185578704, -0.03490256518125534, 0.02616342529654503, 0.036964550614356995, 0.011367963626980782, -0.008101939223706722, 0.0022575457114726305, -0.0017512495396658778, 0.015331342816352844, 0.0011704706121236086, 0.03529514744877815, 0.0030533650424331427, -0.018524911254644394, -0.029315035790205002, 0.00632499298080802, -0.014166578650474548, -0.01938517764210701, -0.024171408265829086, -0.03608237951993942, -0.013459041714668274, 0.00858308095484972, 0.0062383743934333324, -0.04080037772655487, -0.05010666325688362, -0.04187646135687828, 0.002606909954920411, -0.022841114550828934, 0.009731456637382507, -0.024837331846356392, -0.02849842794239521, -0.030565587803721428, 0.02790834940969944, 0.00396732147783041, -0.01600751094520092, -0.01801123097538948, 0.0026633141096681356, 0.039023928344249725, -0.013264890760183334, -0.003993588965386152, -0.012529391795396805, -0.009563074447214603, -0.014065442606806755, -0.02922080084681511, -0.04318568855524063, -0.006441126111894846, 0.02434416301548481, 0.0014138540718704462, -0.02412489615380764, -0.014190806075930595, -0.04167350381612778, 0.0033108266070485115, -0.03540759161114693, 0.0017722516786307096, -0.052428390830755234, -0.010611624456942081, -0.02986273542046547, -0.03300679847598076, -0.038043905049562454, 0.009338411502540112, -0.03214407339692116, 0.039152856916189194, 0.01734866574406624, -0.016910476610064507, 0.027618970721960068, 0.01680988073348999, 0.03654436022043228, 0.018032757565379143, -0.031406719237565994, -0.0168727096170187, -0.03382463380694389, 0.006669561844319105, -0.001668822835199535, 0.0341961495578289, 0.020786546170711517, -0.03808525577187538, -1.808009619708173e-05, 0.001852144137956202, -0.027803922072052956, -0.008281241171061993, -0.0050201923586428165, -0.013179333880543709, -0.044857241213321686, -0.021065838634967804, -0.013099927455186844, -0.015226811170578003, 0.015702445060014725, -0.0010800894815474749, 0.02512785978615284, 0.01019225176423788, 0.01995827816426754, 0.036461908370256424, 0.03760365769267082, 0.02500240132212639, -0.025678686797618866, 0.0037681979592889547, -0.03196270391345024, -0.03761136531829834, 0.007819892838597298, -0.019920937716960907, 0.011848179623484612, -0.0009263362735509872, 0.013669587671756744, -0.03389567881822586, 0.0340937115252018, -0.02703791670501232, 0.016097715124487877, -0.002645605243742466, 0.012582601048052311, -0.04721701890230179, -0.009245866909623146, 0.015377528965473175, -0.023334460332989693, -0.008685564622282982, -0.019943775609135628, 0.03034396842122078, 0.027972429990768433, 0.028526511043310165, 0.011591791175305843, -0.025937428697943687, -0.015604641288518906, 0.0339047908782959, -0.017501261085271835, 0.01635771058499813, 0.03376001864671707, 0.004467627499252558, 0.028078602626919746, 0.03393062949180603, -0.0007372750551439822, 0.010773129761219025, 0.01167464628815651, 0.03335592895746231, 0.046195629984140396, 0.024434542283415794, -0.02417285554111004, -0.020843733102083206, -0.027418481186032295, 0.0200479906052351, -0.01100133452564478, -0.006601123139262199, 0.008898146450519562, -0.023959143087267876, 0.0321073941886425, 0.014496434479951859, -0.01076601818203926, -0.016286112368106842, 0.012358239851891994, -0.010669576935470104, -0.009173935279250145, -0.01325006689876318, -0.02651563473045826, 0.010801558382809162, -0.035175081342458725, -0.029160119593143463, -0.014114053919911385, 0.005585174076259136, 0.04243093729019165, 0.03426952287554741, 0.020410841330885887, -0.002078410005196929, 0.039194777607917786, -0.013645283877849579, -0.03661753609776497, -0.0019244693685323, -0.034084755927324295, 0.025843800976872444, 0.0069625587202608585, -0.007958553731441498, 0.03280772641301155, -0.007819096557796001, 0.025020238012075424, 0.022751914337277412, 0.029926229268312454, -0.026424899697303772, -0.009797374717891216, 0.023722227662801743, -0.020960289984941483, -0.002125037368386984, 0.013893666677176952, 0.028805512934923172, 0.0039016224909573793, -0.02966051921248436, 0.03033682517707348, 0.02733588218688965, 0.03461357578635216, 0.019173646345734596, -0.017303982749581337, -0.0062981112860143185, 0.002648209687322378, -0.008006823249161243, -0.025194820016622543, 0.0030679889023303986, -0.02958831563591957, -0.004516398534178734, 0.022428389638662338, 0.021723834797739983, 0.015314370393753052, -0.00450174231082201, 0.043591685593128204, 0.027945013716816902, -0.003472339129075408, -0.00927751138806343, -0.01377212442457676, 0.014476918615400791, 0.03538937494158745, 0.02622593194246292, -0.021422307938337326, 0.004345794674009085, 0.032958924770355225, -0.0011387350969016552, -0.017558416351675987, 0.030176814645528793, 0.01173518504947424, -0.0031680434476584196, 0.007986689917743206, -0.03176360949873924, 0.011264888569712639, -0.04806587100028992, 0.005447452422231436, -0.008680599741637707, -0.015618237666785717, -0.005637375172227621, -0.011474214494228363, 0.029694313183426857, 0.017377184703946114, 0.046432290226221085, 0.02821114845573902, -0.0034057055599987507, -0.01730789616703987, 0.01214768085628748, -0.00789687130600214, 0.012549333274364471, -0.022963283583521843, 0.03197197616100311, 0.016530470922589302, 0.03260494023561478, 0.03761376440525055, 0.03846351057291031, 0.003993304446339607, -0.018625175580382347, 0.01968436874449253, -0.006436938885599375, 0.0007648979662917554, -0.021444715559482574, -0.04521553963422775, -0.0102448221296072, -0.04805802181363106, -0.008167780935764313, -0.025915171951055527, -0.026730934157967567, 0.015656311064958572, -0.0123043954372406, 0.04041283205151558, -0.0029244106262922287, -0.016038501635193825, 0.018711209297180176, -0.014229790307581425, 0.02604200877249241, 0.007466637063771486, 0.012622329406440258, 0.03663557767868042, -0.0011602963786572218, 0.0277401190251112, 0.005306812934577465, 0.03263320401310921, 0.01405384298413992, 0.029507290571928024, 0.02952245995402336, 0.03735644742846489, 0.0075905825942754745, -0.013350649736821651, 0.02173679508268833, 0.010882456786930561, 0.008731096982955933, -0.01164192520081997, -0.019459616392850876, 0.007538157049566507, -0.02185538224875927, -0.031055379658937454, 0.012036490254104137, -0.005208194721490145, -0.01914893090724945, -0.03161218762397766, 0.01784234493970871, 0.038714390248060226, 0.008745938539505005, 0.0050187180750072, -0.026412472128868103, 0.03120332583785057, -0.010843965224921703, -0.018086547031998634, -0.01802109181880951, 0.0372391976416111, 0.007382565643638372, 0.03392399847507477, 0.037581972777843475, -0.0112050985917449, -0.0024681519716978073, 0.02680118754506111, 0.014541029930114746, -0.01044035330414772, -0.029038896784186363, -0.010644308291375637, -0.010428491048514843, -0.03431479632854462, 0.002038799924775958, -0.011861013248562813, 0.0006101771141402423, 0.02646920084953308, -0.023224635049700737, 0.019947299733757973, 0.02517075277864933, -0.02762310951948166, -0.012351887300610542, -0.013409319333732128, 0.029780516400933266, -0.02879432775080204, 0.030810775235295296, 0.0076485276222229, 0.038720205426216125, 0.028705645352602005, 0.020001664757728577, 0.03698711842298508, 0.04295611381530762, 0.043405864387750626, 0.031961601227521896, -0.016486961394548416, -0.02173002064228058, 0.04149999842047691, 0.01660020276904106, -0.024390829727053642, -0.008951463736593723, -0.020118676126003265, 0.001488379668444395, -0.005309895146638155, -0.02498173899948597, -0.02129472978413105, -0.020687289535999298, -0.002861383371055126, 0.000982186058536172, 0.029779532924294472, -0.015522654168307781, 0.01921231672167778, 0.025341486558318138, -0.00585622014477849, -0.02610734850168228, 0.02281675860285759, -0.00915084220468998, -0.009914333000779152, -0.008520655333995819, 0.002078337362036109, -0.0011693709529936314, -0.016761623322963715, 0.022098956629633904, 0.0308243241161108, -0.004561023321002722, 0.030865373089909554, -0.01549391821026802, 0.021916266530752182, -0.003101694630458951, -0.030110353603959084, -0.0029704440385103226, -0.041053373366594315, -0.009425796568393707, -0.04580550268292427, -0.01276456005871296, 0.031884245574474335, 0.016013190150260925, 0.012896391563117504, 0.03132989630103111, 0.02119884453713894, -0.007925068959593773, -0.023683715611696243, -0.00033905167947523296, 0.00553469080477953, -0.013806922361254692, -0.026693344116210938, -0.03091791272163391, -0.03578033298254013, -0.014766031876206398, -0.010192245244979858, 0.024219565093517303, 0.029771219938993454, -0.0020745934452861547, -0.015248601324856281, 0.01253876369446516, -0.005112797487527132, -0.034556079655885696, 0.0023760732728987932, -0.04338044673204422, -0.06157655268907547, -0.04676751047372818, -0.026895536109805107, -0.006109559442847967, -0.018265005201101303, 0.00869727972894907, -0.02332444116473198, -0.01718379557132721, -0.0002988707274198532, -0.02939612790942192, -0.010052354075014591, 0.007587243802845478, -0.022178126499056816, -0.007306585554033518, 0.004601695109158754, -0.02691245824098587, 0.004578492138534784, -0.05198841914534569, -0.021243257448077202, 0.015857361257076263, -0.019976381212472916, -0.01250088308006525, -0.000730138155631721, -0.024288060143589973, 0.0005406882264651358, -0.026374205946922302, -0.04354650154709816, -0.0011597024276852608, -0.023019712418317795, 0.008396686054766178, -0.010710724629461765, -0.045033715665340424, 0.0027851383201777935, 0.024577487260103226, 0.024553554132580757, 0.03440169617533684, 0.019920729100704193, 0.027212059125304222, -0.01863117516040802, 0.010215825401246548, 0.031336747109889984, 0.013890101574361324, 0.0226738341152668, 0.01323038712143898, -0.030061883851885796, -0.02294180355966091, -0.04368904232978821, 0.0002523006696719676, -0.04285816103219986, 0.0003389780467841774, -0.036536265164613724, 