{"fc1.weight": [[0.026423120871186256, 0.01818518154323101, 0.035316552966833115, 0.02304120734333992, -0.015666071325540543, 0.019302738830447197, 0.013309296220541, 0.01254359632730484, 0.00042256739106960595, -0.027392854914069176, -0.005022289231419563, -0.025772584602236748, 0.008677665144205093, 0.0011822318192571402, -0.004095430951565504, 0.0007341347518377006, 0.006349516566842794, 0.013296464458107948, 0.03191573545336723, -0.009518906474113464, 0.017125483602285385, 0.03837238997220993, 0.001820579869672656, -0.007265436463057995, 0.010955466888844967, 0.0359458364546299, -0.0018883071606978774, -0.018825743347406387, -0.013631339184939861, 0.029100961983203888, 0.027516808360815048, 0.010411613620817661, -0.0021816063672304153, -0.002070737536996603, 0.028652912005782127, 0.03651084378361702, 0.0310345571488142, 0.028652535751461983, 0.0022053613793104887, -0.023152286186814308, -0.025491198524832726, 0.0068414402194321156, -0.006042265333235264, -0.0265524759888649, -0.0072465152479708195, -0.007255480624735355, -0.006226565223187208, -0.01612369529902935, -0.029815057292580605, 0.01974814385175705, 0.008068746887147427, -0.0016560846706852317, -0.010540374554693699, 0.02925270050764084, -0.02643948793411255, -0.028581341728568077, 0.02339952066540718, 0.01294674351811409, 0.013709872029721737, 0.0048400540836155415, 0.031361836940050125, -0.004075698554515839, -0.009966472163796425, 0.036371417343616486, -0.02906956523656845, 0.007073457818478346, -0.012626775540411472, 0.013412709347903728, 0.017590032890439034, -0.024595698341727257, 0.027412502095103264, -0.018544699996709824, -0.022752931341528893, 0.026973193511366844, 0.022567864507436752, 0.02435329556465149, -0.011023747734725475, 0.004951790906488895, 0.020676782354712486, -0.03258693963289261, -0.030124805867671967, 0.029604187235236168, -0.011498176492750645, 0.005541082005947828, -0.019001156091690063, -0.02954980917274952, -0.02891131490468979, 0.0078217051923275, 0.03343098238110542, 0.0318138562142849, 0.010045687668025494, 0.03775881975889206, -0.017058566212654114, 0.01160910353064537, 0.03542086482048035, -0.02208448387682438, -0.029142526909708977, 0.011694847606122494, -0.0011521194828674197, -0.02559644728899002, 0.010269545949995518, 0.0314636267721653, -0.021267933771014214, -0.022658709436655045, 0.02677752822637558, -0.023752739652991295, 0.02241208590567112, 0.002042264910414815, -0.013874759897589684, 0.010441846214234829, -0.027208618819713593, 0.0022040405310690403, -0.010403973050415516, 0.029302679002285004, 0.034403834491968155, 0.035066116601228714, 0.01618042029440403, -0.0284117441624403, -0.013734813779592514, 0.03436294198036194, -0.02102615311741829, 0.03817469999194145, 0.015554837882518768, 0.003965397831052542, 0.03574962168931961, 0.034697387367486954, -0.021958861500024796, 0.03041835129261017, -0.03099706768989563, 0.0003803956788033247, -0.025346867740154266, -0.02671956829726696, -0.002238857327029109, -0.021348722279071808, 0.020713644102215767, 0.031922802329063416, -0.03017674945294857, 0.0029856478795409203, 0.009070097468793392, -0.007952045649290085, 0.0038446481339633465, -0.018209567293524742, 0.011609991081058979, -0.029892966151237488, 0.01877831667661667, 0.015584439970552921, 0.01876368559896946, 0.03591315820813179, 0.03704417124390602, 0.025219358503818512, -0.024996325373649597, -0.020147792994976044, 0.002152510453015566, -0.01264616847038269, 0.027788707986474037, 0.00822422280907631, -0.014576495625078678, 0.0006009101052768528, 0.027552947402000427, 0.008853058330714703, -0.03005347214639187, 0.031815435737371445, -0.0017567048780620098, 0.02619357220828533, 0.016779232770204544, 0.02961130253970623, -0.0009560479666106403, 0.0060227676294744015, -0.030010931193828583, -0.005681609734892845, -0.03136010468006134, 0.009126540273427963, 0.03734287992119789, 0.024225786328315735, -0.00868990458548069, -0.005414794664829969, 0.04250156506896019, 0.01321652065962553, 0.0037850551307201385, -0.01195858046412468, -0.019389964640140533, -0.011219511739909649, 0.008440911769866943, 0.00013963282981421798, 0.008528574369847775, -0.016132494434714317, -0.026327628642320633, 0.020413557067513466, -0.02721644937992096, 0.006306528113782406, -0.030964935198426247, 0.008800063282251358, -0.02625211700797081, -0.013385452330112457, 0.029388917610049248, 0.0035608182661235332, -0.02117638662457466, -0.010617861524224281, 0.00019633593910839409, -0.0189434252679348, -0.007438762113451958, 0.03327513858675957, 0.007020249962806702, -0.013427446596324444, -0.02084430120885372, 0.0024010255001485348, -0.029416972771286964, 0.0274055153131485, -0.016469694674015045, 0.03371327742934227, -0.008207199163734913, -0.010423524305224419, 0.015320413745939732, -0.013385017402470112, 0.0008289828547276556, 0.02468312345445156, -0.00010726894106483087, 0.019974594935774803, 0.0017010384472087026, -0.013670484535396099, -0.010287112556397915, 0.03428255766630173, 0.03493970260024071, 0.025493241846561432, 0.0031682620756328106, 0.01247419510036707, -0.02759077586233616, -0.027415893971920013, -0.005950107239186764, -0.0017666391795501113, 0.026402980089187622, -0.002667527412995696, 0.019749151542782784, 0.0059906370006501675, -0.02247645892202854, -0.02277594618499279, 0.018149573355913162, 0.03259110078215599, 0.01793254353106022, 0.02915544994175434, 0.03113962709903717, -0.006180573254823685, 0.014077804051339626, -0.017944078892469406, 0.027973400428891182, -0.01389602292329073, -0.004158026073127985, 0.0034970026463270187, 0.027251040562987328, 0.014616388827562332, -0.00788842886686325, -0.02338697575032711, 0.00684245815500617, 0.03577305004000664, 0.03190452978014946, 0.005534801632165909, -0.018017295747995377, -0.0035901854280382395, 0.009913182817399502, -0.0015624782536178827, -0.0012064772890880704, 0.005653053056448698, -0.034622274339199066, -0.028235042467713356, 0.009923704899847507, -0.031233036890625954, 0.007131731603294611, 0.011580627411603928, -0.020495399832725525, 0.0055350144393742085, 0.005589643027633429, 0.030324256047606468, 0.02111317217350006, 0.01029675267636776, 0.013037314638495445, 0.028287695720791817, -0.02499217353761196, 0.007677357643842697, 0.02709699049592018, -0.023964066058397293, -0.01818070001900196, -0.0007396926521323621, 0.020323235541582108, 0.03344730660319328, -0.027552856132388115, -0.02108454890549183, 0.0241213571280241, 0.023120196536183357, -0.024166367948055267, 0.00023842720838729292, -0.003605113597586751, -0.04504451900720596, 0.00460976455360651, -0.034535232931375504, 0.03415796905755997, 0.01691599376499653, -0.006007254123687744, -0.007992968894541264, 0.029154030606150627, 0.014734967611730099, 0.01659487560391426, -0.018435688689351082, 0.03110305219888687, 0.005227229557931423, -0.015788976103067398, 0.03716162592172623, 0.019688373431563377, -0.02239987440407276, -0.03145860508084297, 0.0129455691203475, -0.00983202364295721, -0.016406746581196785, 0.016460364684462547, -0.006355315446853638, 0.012612925842404366, -0.015688050538301468, -0.013335532508790493, -0.02892683818936348, -0.033231355249881744, -0.02638353779911995, 0.026036204770207405, -0.03344649076461792, -0.0036432743072509766, 0.03454742208123207, -0.023748762905597687, -0.0076162745244801044, 0.0004116189666092396, -0.0342620387673378, 0.016378220170736313, 0.02422778122127056, -0.042427826672792435, -0.01835634373128414, 0.02699187956750393, 0.009134066291153431, -0.031641848385334015, -0.018335364758968353, 0.00037431385135278106, 0.03722793981432915, -0.003376422682777047, -0.0289076529443264, 0.017016472294926643, -0.018932834267616272, -0.008869385346770287, 0.005080854520201683, -0.0263424813747406, -0.023617399856448174, -0.04711487516760826, -0.04641461744904518, -0.0015538904117420316, -0.016836803406476974, 0.019648948684334755, -0.01966097764670849, 0.007706125266849995, -0.004054065328091383, -0.013607918284833431, -0.01033712923526764, 0.018717102706432343, -0.007490065880119801, -0.03587096184492111, -0.0007061028154566884, -0.03330480307340622, 0.022234154865145683, -0.018804388120770454, 0.005955105647444725, -0.009847798384726048, -0.011957989074289799, -0.007128146942704916, 0.01563175395131111, 0.021688828244805336, 0.0238582082092762, 0.026030447334051132, 0.01045331172645092, 0.0015322556719183922, -0.041580233722925186, -0.005251901689916849, 0.013486354611814022, -0.03596384450793266, -0.010278135538101196, 0.010762646794319153, 0.008955269120633602, -0.04329174757003784, -0.03369254991412163, -0.014468287117779255, -0.0376388281583786, -0.0419902503490448, -0.006380559876561165, 0.006115559488534927, 0.00036110379733145237, 0.025045637041330338, 0.003076966153457761, 0.003394031897187233, 0.002947491127997637, 0.016153737902641296, 0.009820561856031418, 0.02241765335202217, 0.03150690719485283, -0.001787251909263432, -0.030147220939397812, -0.004004208836704493, 0.016564976423978806, 0.029971418902277946, 0.00447941105812788, 0.007511689327657223, -0.03554676100611687, 0.004482171032577753, -0.01990845799446106, -0.0042631677351891994, -0.03551182523369789, -0.0005202458123676479, -0.03104383684694767, -0.01606650836765766, -0.010213757865130901, -0.019087685272097588, -0.0106156961992383, -0.026696616783738136, 0.001970048528164625, 0.02932998165488243, 0.008490691892802715, -0.010859334841370583, -0.025371981784701347, 0.03389425575733185, 0.011262389831244946, 0.006803281605243683, -0.019102120772004128, -0.014295125380158424, -0.0025008537340909243, 0.040671318769454956, 0.0014430099399760365, 0.02074909582734108, -0.005955214146524668, 0.015873156487941742, -0.02990451268851757, 0.0025477425660938025, -0.016666144132614136, 0.0007061497308313847, -0.005929911974817514, -0.02098887413740158, -0.028545694425702095, 0.012154493480920792, 0.03200088068842888, -0.028364021331071854, -0.021197350695729256, 0.013417279347777367, 0.01347386371344328, 0.04075714573264122, 0.0029429032001644373, 0.011767365969717503, -0.02947482094168663, 0.005012286826968193, 0.024868149310350418, 0.0008064904250204563, -0.02800813876092434, 0.022957829758524895, -0.02466338314116001, 0.02748768776655197, 0.04554857313632965, 0.0167740099132061, 0.00876332726329565, -0.041849274188280106, -0.02110043540596962, 0.014613321982324123, -0.017101939767599106, -0.026893531903624535, -0.014893898740410805, -0.012006907723844051, -0.008960834704339504, 0.01182116474956274, 0.03015715256333351, 0.020710254088044167, 0.0018490171059966087, -0.013103321194648743, -0.0016344686737284064, 0.015130280517041683, 0.00963292084634304, 0.021291812881827354, 0.011181242763996124, -0.029613520950078964, -0.018509861081838608, 0.021591270342469215, 0.01677076146006584, 0.0183181744068861, 0.030028225854039192, -0.020977957174181938, 0.021100802347064018, -0.006074401084333658, -0.0228181891143322, 0.005838099867105484, -0.024519292637705803, -0.04132623225450516, 0.004583027679473162, -0.01392568089067936, -0.013908197171986103, 0.017892153933644295, -0.02998550608754158, -0.009393000975251198, -0.004808313678950071, 0.0035867367405444384, 0.03627662733197212, -0.0075373100116848946, -0.02480970323085785, -0.0006085513741709292, 0.038974326103925705, 0.02361329458653927, 0.005802583415061235, 0.036992140114307404, 0.016970470547676086, 0.0383911170065403, 0.02749723009765148, 0.01791984960436821, 0.009727981872856617, 0.03381336107850075, 0.011234664358198643, 0.0335506908595562, -0.009324362501502037, -0.02671419456601143, -0.0511041097342968, -0.011377960443496704, -0.01962100714445114, -0.02285379357635975, -0.02634936384856701, -0.023281391710042953, 4.4976535718888044e-05, -0.0040130093693733215, 0.009203772991895676, 0.035084210336208344, 0.04223919287323952, 0.04512919485569, 0.02871285192668438, 0.0011035655625164509, 0.008321505039930344, -0.012911414727568626, 0.004555121064186096, 0.02875429578125477, 0.009019160643219948, 0.014523391611874104, 0.03141738101840019, -0.0191036444157362, 0.00310823367908597, -0.01640554890036583, -0.0034477298613637686, 0.021988384425640106, -0.04073650389909744, -0.03529994934797287, -0.012854631058871746, -0.010397271253168583, 0.01723380759358406, 0.003069558646529913, 0.009586845524609089, -0.03390553593635559, 0.015990713611245155, -0.02157730609178543, -0.012425890192389488, 0.006184639409184456, 0.011860642582178116, -0.021135414019227028, 0.0005079962429590523, 0.01077296957373619, -0.018600549548864365, 0.022898603230714798, 0.03709704056382179, 0.0021749932784587145, -0.02480604127049446, -0.015213237144052982, -0.009663035161793232, 0.002693824702873826, 0.015642110258340836, 0.009195101447403431, 0.01903863623738289, -0.025336740538477898, 0.011923681944608688, -0.02654966711997986, -0.031943950802087784, -5.446800423669629e-05, 0.01349303312599659, 0.008437354117631912, -0.037718165665864944, 0.010455886833369732, 0.029682639986276627, 0.003327001351863146, -0.030985673889517784, -0.020797686651349068, 0.037631805986166, -0.025999771431088448, -0.02529209852218628, -0.019153384491801262, 0.03703061118721962, 0.0381963811814785, 0.029975656419992447, -0.018276052549481392, 0.012456652708351612, -0.005335720255970955, -0.01904766634106636, 0.00606832280755043, 0.00809414777904749, -0.018951544538140297, 0.035433292388916016, 0.024567145854234695, -0.021456493064761162, 0.02495643123984337, -0.039240479469299316, 0.02382708713412285, -0.004212195985019207, -0.03343208134174347, 0.002763056429103017, -0.022082731127738953, 0.01403668150305748, -0.019981320947408676, 0.028796527534723282, 0.0035846373066306114, -0.0038458905182778835, -0.011698889546096325, 0.0354650504887104, -0.022274166345596313, -0.028193959966301918, 0.011325708590447903, 0.03543739393353462, -0.01180684007704258, -0.007442336995154619, -0.006744513288140297, -0.02875332348048687, 0.015339450910687447, -0.01576123759150505, 0.01950901187956333, -0.02747105062007904, 0.01884199120104313, -0.007930224761366844, 0.027610935270786285, 0.020864883437752724, -0.0031145147513598204, -0.02385392226278782, -0.006033341865986586, -0.023435065522789955, -0.011842629872262478, -0.0236870925873518, 0.0023897322826087475, 0.03343518450856209, -0.014049035497009754, 0.03312019631266594, -0.01159591879695654, 0.009917575865983963, -0.019673367962241173, 0.032707393169403076, 0.009842346422374249, 0.014873500913381577, -0.031734973192214966, 0.03423454612493515, 0.007161599583923817, -0.021486487239599228, 0.01902730204164982, -0.0022581657394766808, 0.02200360596179962, -0.01982436701655388, -0.029346419498324394, -0.009378219954669476, -0.013748872093856335, -0.0019447396043688059, -0.03512740135192871, -0.04467311128973961, -0.013040482066571712, -0.0005906294682063162, 0.03406976908445358, 0.005537280347198248, 0.04097405821084976, -0.018837396055459976, 0.007750720717012882, 0.00584599981084466, 0.019342757761478424, 0.030496250838041306, 0.03626198694109917, -0.0030846274457871914, 0.03527794033288956, 0.013858646154403687, 0.006026021670550108, 0.01713714562356472, -0.0076721166260540485, -0.014263118617236614, -0.030818050727248192, 0.036256253719329834, -0.005586729850620031, 0.036467164754867554, 0.02153984270989895, 0.005188664887100458, -0.013568121939897537, -0.012591217644512653, -0.030968554317951202, 0.009373464621603489, -0.02739127352833748, 0.011279779486358166, 0.018421977758407593, -0.015694649890065193, 0.025977950543165207, 0.029840005561709404, -0.01124555990099907, 0.015198150649666786, 0.02136659435927868, -0.030372604727745056, 0.005497470498085022, 0.005236136261373758, 0.03292200714349747, -0.013295652344822884, 0.030962327495217323, 0.025349773466587067, 0.0066003985702991486, -0.009971539489924908, 0.00931617897003889, -0.010142950341105461, -0.005061483941972256, 0.029652748256921768, 0.015666067600250244, 0.03358151391148567, -0.009700862690806389, -0.015242899768054485, 0.013325869105756283, 0.004691558890044689, 0.007932648062705994, -0.0003607971011660993, 0.022164776921272278, -0.004940478131175041, 0.022075176239013672, 0.01825457625091076, -0.03334103152155876, 0.018469009548425674, 0.023213215172290802, -0.023091472685337067, 0.0035469087306410074, -0.011080542579293251, 0.02894570305943489, -0.0021847751922905445, 0.010288592427968979, 0.0301731675863266, -0.026039451360702515, -0.0034469538368284702, -0.02559487707912922, 0.009504103101789951, 0.008115104399621487, 0.023070290684700012, 0.001717760693281889, -0.025014705955982208, 0.03384983539581299, 0.014580579474568367, 0.019452692940831184, -0.035395801067352295, -0.03262829780578613, 0.007596348877996206, -0.023914571851491928, 0.009667523205280304, 0.013601213693618774, -0.007791351992636919, 0.017602358013391495, -0.008389133960008621, -0.019626343622803688, 0.0008120891870930791, 0.019114883616566658, -0.0032144892029464245, -0.02657799981534481, 0.02323770523071289, -0.024379653856158257, 0.011760741472244263, 0.0035620282869786024, 0.0028203963302075863, -0.011650186963379383, 0.01542441826313734, 0.013283737935125828, -0.004725581966340542, 0.009448626078665257, 0.03038974292576313, -0.02785707637667656, 0.0007153894403018057, 0.020677095279097557, -0.02501954510807991, -0.0029783593490719795, 0.012035987339913845, 0.0300272349268198, -7.560198719147593e-05, 0.008962609805166721, -0.016155915334820747, 0.0072979675605893135, 0.02232428267598152, -0.015227974392473698, 0.014433318749070168, -0.014603093266487122, -0.012566122226417065, 0.036930762231349945, 0.02352859638631344], [-0.011209560558199883, -0.007630086038261652, 0.011848395690321922, 0.009601420722901821, 0.01783437840640545, -0.0223905760794878, 0.007764026056975126, 0.031558528542518616, -0.01935754530131817, 0.03017510287463665, 0.021318411454558372, -0.018212802708148956, -0.020058220252394676, 0.020123884081840515, -0.015759097412228584, 0.0225211288779974, 0.02377287857234478, 0.029112834483385086, 0.013909803703427315, -0.016464106738567352, 0.037550974637269974, -0.010882828384637833, -0.009469354525208473, -0.014694726094603539, 0.010112143121659756, -0.0019736033864319324, -0.012265224941074848, 0.023752816021442413, 0.01420987956225872, 0.03150934353470802, -0.021669382229447365, 0.013433813117444515, -0.026894567534327507, -0.012380913831293583, -0.025315692648291588, 0.02619078941643238, 0.023624591529369354, 0.019882947206497192, -0.009799783118069172, -0.02504628710448742, -0.024386761710047722, 0.025102578103542328, 0.02254815772175789, 0.02286449819803238, 0.027343356981873512, -0.01301709283143282, 0.029938407242298126, 0.011930469423532486, -0.0009221489308401942, -0.02363271452486515, 0.006495452485978603, 0.01692109741270542, -0.017917439341545105, 0.03269496187567711, -0.013995537534356117, 0.0020023249089717865, -0.0163413193076849, 0.038465045392513275, -0.024684220552444458, -0.005586344748735428, -0.007776888553053141, 0.017770713195204735, -0.009825711138546467, -0.015632368624210358, -0.00032668508356437087, 0.009153056889772415, -0.007353547960519791, -0.03044167533516884, 0.00658105593174696, -0.027440236881375313, 0.014413788914680481, -0.0045814914628863335, -0.023127775639295578, 0.029833892360329628, 0.03348618373274803, -0.024641547352075577, -0.031030457466840744, -0.005656065884977579, -0.0015837224200367928, 0.03451186791062355, -0.011800329200923443, 0.007019573822617531, -0.007422039285302162, 0.03132081776857376, -0.03162778168916702, 0.0070845927111804485, -0.006151560228317976, 0.028993157669901848, 0.02815566025674343, 0.038182035088539124, 0.014110686257481575, -0.023485783487558365, 0.015466243959963322, -0.0016277754912152886, 0.003596122609451413, -0.002556734485551715, -0.007067131344228983, 0.037133120000362396, 0.0010845257202163339, -0.021907471120357513, -0.025851182639598846, -0.03431352600455284, 0.020115947350859642, -0.027077920734882355, -0.0008109677582979202, -0.016630282625555992, 0.03404197841882706, -0.030246354639530182, 0.013179064728319645, -0.006441805511713028, -0.0031670709140598774, 0.034118007868528366, 0.029668116942048073, 0.019759023562073708, 0.03271031007170677, -0.016630714759230614, 0.02001827396452427, 0.033178433775901794, 0.006213212385773659, 0.004590700846165419, -0.006797321606427431, 0.022180210798978806, 0.0356968529522419, 0.008153229020535946, 0.0029794760048389435, -0.011657288298010826, -0.008915884420275688, 0.022612247616052628, -0.024428388103842735, 0.030271347612142563, 0.013313673436641693, -0.01441858895123005, -0.024090830236673355, -0.03283335641026497, 0.00921241007745266, 0.025362052023410797, 0.0014542110729962587, -0.009452041238546371, -0.022286731749773026, -0.025474080815911293, 0.017315920442342758, -0.021915122866630554, 0.030397804453969002, 0.03002607263624668, 0.02523062191903591, 0.024795478209853172, 0.01052030734717846, 0.0011705755023285747, 0.021961087360978127, 0.022445756942033768, -0.004856194835156202, -0.01999036967754364, 0.02450709603726864, 4.648250251193531e-05, -0.01162949949502945, 0.015164629556238651, -0.027966206893324852, 0.030532564967870712, -0.026812581345438957, -0.003172029973939061, 0.03362317755818367, 0.0258339811116457, -0.010768157429993153, 0.012051984667778015, -0.007124744821339846, -0.01617576740682125, 0.010067084804177284, 0.038027964532375336, 0.0011717426823452115, -0.01229418907314539, 0.03065514750778675, 0.035986144095659256, -0.029812240973114967, 0.002194869564846158, 0.015985289588570595, -0.015346079133450985, -0.01801452599465847, -0.02632039599120617, -0.018540233373641968, -0.02418522723019123, 0.014882933348417282, -0.01879618503153324, -0.02805650234222412, 0.017633594572544098, -0.008717704564332962, 0.024989286437630653, 0.020685451105237007, -0.03647993505001068, -0.006181848701089621, -0.033189013600349426, 0.023336730897426605, 0.027991674840450287, 0.031358856707811356, 0.014473682269454002, -0.01828289031982422, -0.012159186415374279, 0.02085549756884575, 0.030328497290611267, 0.0029307077638804913, 0.021398598328232765, 0.0007506123511120677, 0.02974293753504753, -0.00894870050251484, 0.03242062032222748, -0.013351254165172577, -0.012494394555687904, -0.016117407009005547, -0.02729550376534462, -0.04056442901492119, 0.01248682476580143, -0.04661855101585388, 0.0033545689657330513, 0.018563570454716682, -0.015186167322099209, -0.001172384130768478, -0.02853414975106716, 0.017929738387465477, 0.010651173070073128, 0.01853383332490921, -0.029051532968878746, -0.003877718700096011, -0.020898601040244102, 0.03724578768014908, -0.0003855300310533494, 0.035445332527160645, 0.011554548516869545, -0.015502502210438251, -0.03134523704648018, -0.010468530468642712, 0.03155306354165077, 0.032784536480903625, -0.0007251905044540763, 0.03566477447748184, 0.01478029415011406, -0.029365360736846924, -0.020564306527376175, -0.010699134320020676, -0.035129379481077194, -0.00014495718642137945, 0.02588031440973282, -0.027296826243400574, 0.02942272461950779, -0.03035541996359825, -0.028353970497846603, -0.01160538662225008, -0.03506113216280937, -0.03187154233455658, -0.017590990290045738, 0.018393103033304214, -0.01617307960987091, 0.005096405278891325, 0.030353127047419548, 0.019878264516592026, 0.03289620205760002, -0.012750259600579739, -0.006029440090060234, -0.019557323306798935, -0.018734140321612358, -0.0098948385566473, 0.012939559295773506, 0.023847050964832306, -0.0129643389955163, 0.004042629152536392, -0.012122595682740211, 0.026500945910811424, -0.03806014731526375, 0.009901274926960468, -0.03178134560585022, -0.03043682873249054, -0.025600509718060493, -0.021233052015304565, -0.01998216286301613, 0.027187831699848175, -0.0012217990588396788, 0.008921422995626926, 0.010433629155158997, 0.016853200271725655, -0.02121385559439659, -0.028565432876348495, -0.005725543014705181, -0.006285345181822777, -0.02070847526192665, 0.02441222593188286, 0.016941720619797707, 0.0019683579448610544, 0.031425591558218, -0.019689612090587616, -0.02129475399851799, 0.015014552511274815, -0.019917504861950874, -0.015086956322193146, 0.021101562306284904, -0.016575785353779793, -0.015403869561851025, -0.03703068569302559, -0.017313368618488312, 0.027996599674224854, -0.0015107657527551055, -0.007294083945453167, -0.019285054877400398, 0.009616623632609844, -0.014297965914011002, -0.018731096759438515, 0.017574071884155273, 0.020743582397699356, -0.022929731756448746, -0.02336955815553665, 0.00033366127172484994, 0.024270150810480118, 0.018750915303826332, 0.005706979893147945, -0.011404803022742271, -0.006444932892918587, 0.03274461627006531, 0.027259893715381622, -0.012995976023375988, 0.00938939768821001, -0.02660050429403782, -0.005858543794602156, 0.023245926946401596, -0.03398754447698593, -0.04984699934720993, -0.027874311432242393, -0.0399186909198761, 0.024601131677627563, -0.022369008511304855, 0.03694465011358261, -0.009076947346329689, 0.0007341622840613127, 0.022947128862142563, 0.0386253222823143, -0.0012408378534018993, 0.0310352873057127, -0.006988184526562691, -0.007489931304007769, 0.024055102840065956, -0.0003945962234865874, 0.03685760125517845, -0.027169950306415558, -0.030712777748703957, 0.02771127037703991, 0.011721569113433361, -0.015618893317878246, 0.014629213139414787, 0.00792609341442585, -0.011737002059817314, 0.009720130823552608, -0.020925454795360565, -0.0008318785694427788, -0.008315406739711761, -0.00021992766414768994, -0.00343722733668983, 0.005075652152299881, -0.005771825555711985, 0.007539700251072645, -0.0007023400976322591, 0.02993560954928398, 0.02374875359237194, -0.010292833670973778, 0.003424024907872081, 0.013919941149652004, -0.021195316687226295, -0.01351985428482294, 0.019800376147031784, 0.03422938287258148, 0.018124233931303024, -0.024867309257388115, -0.02007146365940571, 0.032377757132053375, -0.023896317929029465, 0.041160114109516144, 0.008684264495968819, -0.0023637842386960983, -0.016902724280953407, 0.003781962674111128, 0.00025440595345571637, -0.028449339792132378, 0.02935846894979477, 0.016965927556157112, -0.02104759030044079, 0.0152980862185359, 0.012089592404663563, -0.02342207357287407, -0.020376533269882202, 0.022259969264268875, 0.036349669098854065, 0.04477521777153015, 0.03345542401075363, 0.012485983781516552, 0.014546169899404049, -0.030430631712079048, 0.009280544705688953, 0.0071035949513316154, -0.019647786393761635, -0.01641407050192356, 0.017584936693310738, -0.008954559452831745, 0.0036819647066295147, 0.041938770562410355, -0.015599162317812443, -0.010291798040270805, -0.02824469283223152, -0.006252910941839218, 0.01923339255154133, 0.00907852966338396, -0.023990586400032043, 0.0014503467828035355, -0.015688767656683922, -0.010852666571736336, 0.020743222907185555, 0.0033812476322054863, -0.014679286628961563, 0.012755956500768661, -0.02033417299389839, 0.03939933702349663, 0.036328401416540146, 0.03659476712346077, -0.007012824062258005, 0.03888077288866043, 0.009448866359889507, 0.016620995476841927, -0.017189722508192062, 0.025505907833576202, 0.022498050704598427, -0.025558099150657654, 0.00874749943614006, 0.024475621059536934, 0.03744594380259514, 0.021901916712522507, 0.027591479942202568, 0.0021186370868235826, 0.009898434393107891, 0.007252003997564316, 0.014380904845893383, 0.019911613315343857, -0.023930460214614868, -0.014064009301364422, 0.01472727581858635, -0.03447974845767021, 0.02746361680328846, -0.021831991150975227, 0.04008782282471657, -0.019312400370836258, 0.016539616510272026, -0.010809668339788914, 0.01499739196151495, 0.02686949633061886, 0.022052479907870293, 0.000656510004773736, -0.01435956172645092, -0.01134573109447956, -0.02309083379805088, -0.011143510229885578, -0.01783563941717148, 0.028308935463428497, 0.021998709067702293, -0.0011596068507060409, 0.019167201593518257, -0.009076290763914585, 0.029364313930273056, 0.004028222523629665, 0.025067107751965523, -0.01171050500124693, -0.016057120636105537, 0.002449423773214221, -0.0017504049465060234, -0.03180082514882088, -0.034466274082660675, 0.0002618750440888107, -0.020674409344792366, -0.013762249611318111, -0.020401936024427414, -0.02507052570581436, 0.02627655677497387, -0.02797027863562107, 0.004465307109057903, -0.009010040201246738, -0.005651027895510197, 0.01487432699650526, 0.03827202320098877, -0.008046411909162998, -0.018890874460339546, 0.007816199213266373, 0.014189468696713448, 0.02090490609407425, 0.04779450595378876, 0.045053765177726746, -0.011173373088240623, 0.044275764375925064, 0.007480994798243046, -0.018698440864682198, -0.026866858825087547, 0.01782553270459175, 0.01952255703508854, 0.013123725540935993, -0.027883820235729218, -0.010018226690590382, -0.0027102031745016575, 0.007211800664663315, 0.017149128019809723, -0.0011348368134349585, 0.036827389150857925, 0.02830141969025135, 0.027716586366295815, 0.026690850034356117, -0.006981997285038233, 0.02531234733760357, 0.036035727709531784, -0.02777870185673237, 0.030896693468093872, 0.036002885550260544, -0.006374238524585962, 0.018702587112784386, -0.01317881140857935, 0.02078418806195259, -0.003094213781878352, 0.036192815750837326, -0.011374624446034431, -0.032778795808553696, 0.0092835184186697, -0.03401513025164604, -0.01792074367403984, 0.01293177343904972, -0.01406912598758936, 0.0038466218393296003, 0.0011911767069250345, -0.0035116947256028652, -0.012102131731808186, -0.010037722997367382, -0.010556773282587528, 0.026526285335421562, 0.03091577999293804, -0.02563420496881008, 0.013950384221971035, -0.024922197684645653, 0.006234270986169577, -0.02413424476981163, 0.041037239134311676, 0.0172825139015913, -0.02869752235710621, 0.008589455857872963, -0.0029261538293212652, 0.011075585149228573, 0.042034320533275604, 0.02318955957889557, -0.0032011279836297035, -0.02268131822347641, 0.017869289964437485, 0.010178898461163044, -0.029257452115416527, -0.01938704214990139, -0.008531087078154087, -0.0078002396039664745, 0.002421710640192032, -0.015171810984611511, -0.022735942155122757, 0.005345085170120001, -0.002007936593145132, 0.01773904636502266, -0.026087475940585136, 0.012581546790897846, -0.004691786598414183, 0.017930809408426285, 0.021593235433101654, 0.03212850168347359, -0.03022255003452301, -0.03182167932391167, -0.03394832834601402, 0.02200731448829174, -0.012735174968838692, -0.026355287060141563, 0.005638406611979008, -0.0030659264884889126, 0.03235740587115288, -0.04150499403476715, -0.015864217653870583, -0.04340402036905289, 0.010570036247372627, 0.000935444375500083, 0.03167665749788284, 0.015396601520478725, -0.009123616851866245, -0.026526425033807755, 0.0345783494412899, 0.014687358401715755, 0.019894426688551903, -0.0234768595546484, -0.00702421460300684, 0.031801238656044006, -0.023985520005226135, -0.004351448733359575, 0.004132658708840609, -0.0017802563961595297, 0.013845028355717659, 0.0030202786438167095, -0.032388415187597275, 0.023300541564822197, 0.016803286969661713, -0.027907682582736015, 0.0010946269612759352, -0.02911168895661831, -0.023631509393453598, -0.01952165924012661, 0.01234275009483099, -0.03303518891334534, -0.011206354945898056, -0.02123234048485756, -0.031083740293979645, 0.0282299742102623, 0.017725570127367973, -0.011587962508201599, -0.0005980980349704623, 0.011341830715537071, 0.009600790217518806, 0.03053174912929535, -0.0054169585928320885, -0.0039979941211640835, 0.0013996859779581428, 0.008899211883544922, -0.029738882556557655, 0.017445124685764313, -0.02271314337849617, -0.019624602049589157, -0.03392374515533447, -0.02620707079768181, -0.004175263457000256, -0.025693261995911598, 0.024296624585986137, -0.0009116955916397274, -0.007249933201819658, -0.0024060027208179235, -0.013797476887702942, -0.01836332678794861, -0.02543720044195652, -0.02924085035920143, 0.018370183184742928, -0.028280453756451607, 0.02790534496307373, -0.02864830195903778, 0.008094019256532192, -0.017405200749635696, 0.008698808960616589, 0.03143215924501419, -0.007044163998216391, -0.012175866402685642, 0.017332490533590317, -0.028213610872626305, 0.030633162707090378, 0.011335227638483047, -0.015941444784402847, -0.03375706076622009, -0.0018093202961608768, -0.02152273617684841, -0.04766053333878517, -0.024458933621644974, -0.0009983241325244308, 0.015220771543681622, -0.02998398244380951, 0.0013388337101787329, -0.01595548912882805, -0.013384007848799229, -0.025076257064938545, 0.014531142078340054, 0.016426127403974533, 0.014555051922798157, -0.028354382142424583, -0.022687768563628197, 0.004929227754473686, -0.015776462852954865, 0.009042411111295223, -0.006334361154586077, -0.023236555978655815, 0.003111919155344367, -0.008534464985132217, -0.01693732477724552, -0.01964578591287136, -0.026984168216586113, -0.024030987173318863, 0.029024869203567505, -0.0036183386109769344, 0.01857980340719223, 0.020725160837173462, 0.017327819019556046, 0.004296969622373581, -0.0036871067713946104, -0.009163563139736652, -0.03484461084008217, -0.013392557390034199, 0.01815624348819256, -0.0005811994196847081, -0.008736970834434032, 0.025440581142902374, -0.006101430859416723, -0.015639934688806534, -0.027421969920396805, 0.027664612978696823, 0.036585550755262375, -0.014536879025399685, 0.013244944624602795, 0.00829431414604187, -0.02070467732846737, -0.030162425711750984, 0.005060121417045593, -0.0064374422654509544, 0.003013027599081397, -0.009063533507287502, 0.01868591643869877, 0.010947628878057003, 0.019625619053840637, 0.029205631464719772, -0.007108368445187807, -0.007550958544015884, -0.035815440118312836, -0.012493753805756569, -0.026219695806503296, -0.02150619775056839, 0.03444631025195122, -0.0071856314316391945, -0.021555796265602112, 0.01000905130058527, 0.03128349035978317, 0.037607915699481964, -0.017151130363345146, -0.020815344527363777, -0.016581697389483452, 0.026685215532779694, 0.024158844724297523, -0.010106783360242844, 0.02732628770172596, 0.027463342994451523, 0.0022908872924745083, -0.02818981185555458, -0.029200246557593346, 0.0004893330042250454, 0.026860840618610382, 0.010229327715933323, 0.024635635316371918, 0.03615543991327286, -0.01724112592637539, 0.02351183444261551, 0.006249955389648676, -0.01327697467058897, -0.003924589604139328, -0.015600384213030338, 0.038564883172512054, 0.02277946285903454, 0.03236990422010422, 0.020986385643482208, -0.017086757346987724, -0.026244357228279114, -0.016905151307582855, -0.008186127990484238, 0.02133982628583908, -0.017158931121230125, -0.013561123050749302, 0.0363776721060276, 0.00356287625618279, -0.023647045716643333, -0.0159832164645195, -0.010616624727845192, 0.0123224426060915, 0.033768873661756516, -0.01504281535744667, -0.01669769175350666, 0.017684295773506165, 0.008189046755433083, 0.016234038397669792, 0.01818869635462761, 0.03844621032476425, 0.01754252426326275, -0.01313120499253273, -0.0013501555658876896, 0.012843385338783264, -0.012788743712008, 0.03112836182117462, 0.002936838660389185, -0.006124044302850962, -0.02269693650305271, -0.029795750975608826, 0.022349901497364044, -0.02506307326257229, 0.02123214304447174, -0.012958540581166744, 0.028521277010440826], [0.030059995129704475, 0.01787778176367283, -2.7664566005114466e-05, 0.01695665903389454, -0.0017008187714964151, -0.03619268909096718, -0.01786499097943306, -0.00018011641805060208, 0.023513207212090492, -0.015959998592734337, 0.023640865460038185, -0.017091747373342514, 0.0189518965780735, 0.0036874590441584587, -0.014453943818807602, 0.01541939191520214, -0.02435705065727234, -0.0023202949669212103, -0.022630704566836357, -0.023041637614369392, 0.002727809129282832, -0.024073809385299683, 0.03350116312503815, -0.024362770840525627, -0.012558947317302227, 0.009118448942899704, 0.017710236832499504, 0.00995710864663124, 0.0012826239690184593, -0.024813704192638397, 0.02820906788110733, 0.025468118488788605, -0.03514322265982628, -0.008481661789119244, 0.0018750265007838607, 0.031833622604608536, 0.018933163955807686, 0.02564723789691925, -0.024994276463985443, -0.029330817982554436, 0.02150166779756546, -0.01662726327776909, -0.00277377525344491, 0.006202517542988062, -0.020940912887454033, 0.0165556613355875, -0.01798243634402752, 0.022393295541405678, 0.005685498937964439, 0.033841803669929504, -0.010971001349389553, 0.03003729321062565, -0.03563125431537628, -0.014544015750288963, 0.03185280039906502, -0.02697300910949707, 0.0020221667364239693, -0.020210260525345802, 0.029464978724718094, -0.011677675880491734, 0.006887832656502724, 0.009120739996433258, -0.022295398637652397, 0.0031536901369690895, -0.022208990529179573, 0.0010494582820683718, -0.03504587337374687, -0.019096260890364647, -0.03230803832411766, 0.016394726932048798, -0.030198179185390472, 0.03218133747577667, 0.026417141780257225, 0.032435785979032516, -0.01850193925201893, -0.020238859578967094, 0.016622496768832207, 0.003926432225853205, -0.025029901415109634, -0.02244408242404461, -0.017227236181497574, -0.0319022499024868, 0.01650935970246792, -0.017138078808784485, -0.02726290002465248, 0.013323723338544369, 0.00983971543610096, 0.025113724172115326, 0.027166448533535004, 0.0242447592318058, -0.0059595112688839436, -0.023237232118844986, 0.02778523601591587, -0.014206616207957268, -0.0038801152259111404, -0.005328182131052017, 0.0037982973735779524, 0.02144606225192547, 0.008186468854546547, 0.00022566159896086901, 0.03434780612587929, -0.0018922961317002773, 0.014654964208602905, -0.001129325944930315, -0.009614679031074047, 0.01752142235636711, 0.01114259660243988, -0.015331447124481201, -0.014260866679251194, 0.025811439380049706, 0.011400636285543442, 0.03380735591053963, -0.02726805955171585, -0.0001859601034084335, -0.0025139914359897375, -0.0016341886948794127, -0.010058151558041573, -0.011362185701727867, 0.0022469940595328808, 0.029681097716093063, 0.029785269871354103, 0.008487950079143047, 0.021713916212320328, -0.037766583263874054, 0.00710694445297122, -0.0280052088201046, 0.0068323626182973385, -0.024818524718284607, 0.008267894387245178, 0.03246992453932762, -0.017809104174375534, 0.03359173238277435, 0.026495791971683502, 0.02919207699596882, -0.02320321649312973, 0.0007605074788443744, 0.02910182811319828, -0.035830117762088776, 0.020813001319766045, -0.016022557392716408, 0.026889193803071976, -0.00424185348674655, 0.02184331603348255, -0.0073119341395795345, -0.024901531636714935, -0.002394863171502948, 0.010187909938395023, 0.02303507924079895, -0.01581326685845852, 0.015237199142575264, 0.01810407266020775, 0.01288070622831583, -0.038425784558057785, -0.03547267988324165, 0.03280296549201012, 0.03812801092863083, 0.02345605380833149, 0.017574334517121315, 0.029051482677459717, 0.014568469487130642, -0.014316203072667122, -0.0219227634370327, 0.020274769514799118, 0.017069147899746895, 0.010402020066976547, -0.00793832540512085, 0.009219355881214142, 0.028327295556664467, -0.0162014402449131, 8.449426968581975e-05, -0.013989726081490517, -0.02088465541601181, 0.0060836318880319595, -0.02204303815960884, 0.012943085283041, -0.021804291754961014, -0.03675125539302826, -0.003977341111749411, 0.005277118645608425, 0.021135974675416946, 0.014101656153798103, -0.026045193895697594, 0.024221062660217285, -0.00983422715216875, 0.028918763622641563, 0.02957933209836483, 0.02563507854938507, -0.010992744006216526, 0.03842128440737724, 0.037017904222011566, 0.02462216094136238, -0.002943803556263447, -0.00431568780913949, 0.009553149342536926, 0.018645044416189194, -0.0162893608212471, -0.03599604219198227, -0.018456585705280304, 0.03309032320976257, 0.029504993930459023, 0.021018952131271362, 0.011641059070825577, 0.010019268840551376, -0.01760047860443592, 0.0260394848883152, -0.020962167531251907, -0.010257936082780361, 0.013552787713706493, 0.010523023083806038, -0.014174401760101318, 0.0197291299700737, 0.028858399018645287, -0.016811972483992577, -0.009427341632544994, 0.01720057614147663, -0.0004961814265698195, 0.008573784492909908, 0.022729799151420593, -0.003322229254990816, 0.03805151209235191, -0.028529789298772812, 0.015624923631548882, 0.027771787717938423, -0.016208287328481674, -0.02212684601545334, -0.017280368134379387, 0.003959108609706163, -0.0012845461023971438, 0.0233689583837986, -0.024925710633397102, 0.02475784905254841, -0.024937063455581665, 0.005753458943217993, -0.02041381597518921, 0.03165055811405182, -0.012988617643713951, -0.0014850302832201123, 0.02730976603925228, 0.030647292733192444, -0.022588372230529785, 0.023230232298374176, -0.014093540608882904, 0.0048659625463187695, -0.012243648990988731, 0.012968477793037891, -0.02887488342821598, -0.018470900133252144, 0.036751456558704376, 0.0037472122348845005, -0.002568054711446166, 0.02139078825712204, -0.017948685213923454, -0.004950339440256357, -0.008860941044986248, 0.03186347708106041, -0.00723927840590477, -0.00024181602930184454, 0.013710296712815762, -0.010421630926430225, -0.023974673822522163, 0.02500079944729805, 0.036105476319789886, -0.0006798693793825805, 0.03458647429943085, 0.031142575666308403, 0.007662612944841385, -0.030283566564321518, 0.024007132276892662, 0.004024801310151815, 0.011949806474149227, -0.027611874043941498, -0.030552607029676437, 0.005584363825619221, 0.0031228908337652683, 0.0005587898776866496, 0.016567356884479523, 0.013763155788183212, -0.018417177721858025, 0.024517735466361046, 0.01026708073914051, -0.032811395823955536, 0.02249070256948471, 0.022903908044099808, 0.006897230166941881, 0.01843803934752941, 0.027989981696009636, 0.005956989713013172, 0.013778512366116047, 0.019349800422787666, 0.02896151691675186, 0.0053163934499025345, 0.0028531288262456656, 0.03942488878965378, 0.023071814328432083, 0.030765537172555923, 0.02844318374991417, -0.029906094074249268, -0.01996537670493126, 0.013964538462460041, 0.01483696699142456, -0.014735570177435875, 0.034203484654426575, -0.007155308034271002, -0.01663065515458584, -0.019053639844059944, -0.020082766190171242, -0.03268793597817421, 0.014576643705368042, -0.008642501197755337, -0.02729327417910099, -0.024882223457098007, 0.0034699372481554747, 0.022406160831451416, 0.012001099064946175, 0.018089378252625465, -0.03132752701640129, -0.03623636066913605, 0.03675104305148125, -0.010072406381368637, 0.015379046089947224, 0.029804887250065804, 0.0077947573736310005, -0.004683892708271742, -0.0003945524513255805, 0.021830840036273003, -0.008158924989402294, 0.012022576294839382, 0.02006843313574791, 0.00018228607950732112, -0.031352683901786804, 0.0025880897883325815, 0.0037998452316969633, -0.021328052505850792, -0.03444879129528999, 0.017589306458830833, -0.029840026050806046, -0.018906431272625923, -0.004166820552200079, 0.012670023366808891, 0.0108277453109622, -0.021330926567316055, -0.02707717753946781, 0.0017403658712282777, -0.021463872864842415, 0.012792375870049, -0.027708426117897034, 0.007307249121367931, 0.026809116825461388, 0.02385384775698185, -0.0029039871878921986, 0.02838752791285515, -0.0012622117064893246, 0.03307501971721649, -0.03200141713023186, -0.013194012455642223, -0.009723333641886711, -0.041772909462451935, -0.02773636393249035, -0.028018943965435028, -0.038700833916664124, 0.01218482293188572, 0.010733447037637234, 0.0035298101138323545, 0.026014437898993492, -0.029160600155591965, 0.03074784018099308, -0.0230453759431839, 0.0064343661069869995, -0.022084755823016167, 0.028396300971508026, 0.0019072372233495116, -0.017503637820482254, -0.0004004698421340436, -0.015303496271371841, -0.023646963760256767, 0.03365611657500267, -0.02211516536772251, -0.005809416063129902, 0.026528192684054375, 0.007623537443578243, 0.00542732048779726, -0.027143403887748718, 0.0011580710997805, 0.02384817786514759, -0.009240641258656979, -0.02285599149763584, -0.029767483472824097, -0.024778656661510468, 0.01704365946352482, -0.03390773385763168, 0.020166967064142227, 0.021730687469244003, 0.004740385804325342, 0.022796355187892914, -0.019681040197610855, 0.003213541815057397, 0.011454648338258266, 0.011707378551363945, -0.022678546607494354, -0.023680148646235466, -0.005083906929939985, 0.030410293489694595, 0.005121616180986166, -0.016873780637979507, 0.009354486130177975, -0.010344945825636387, -0.027746979147195816, 0.0028274934738874435, 0.029721036553382874, 0.03333904966711998, 0.013896634802222252, -0.02799435891211033, 0.006797163747251034, 0.019427554681897163, -0.01259623933583498, -0.023417634889483452, -0.03987542539834976, 0.028814267367124557, -0.014886029995977879, 0.004003761801868677, -0.023938149213790894, 0.03364923968911171, -0.024977371096611023, -0.03292715176939964, 0.01737578958272934, -0.014605725184082985, -0.03801792487502098, -0.01764335110783577, -0.019240623340010643, 0.016792429611086845, -0.021324554458260536, -0.010858029127120972, 0.016339486464858055, -0.002242444781586528, -0.017969472333788872, 0.01833002269268036, 0.011430603452026844, 0.011668241582810879, 0.03857974335551262, -0.027931569144129753, 0.014172930270433426, 0.015951870009303093, 0.031002262607216835, -0.006582050584256649, 0.004718792624771595, 0.022430168464779854, -0.02968018315732479, -0.013807309791445732, -0.024771178141236305, -0.02692495286464691, -0.012719959020614624, -0.011865708976984024, 0.02584759145975113, -0.01644798181951046, 0.013464083895087242, 0.016080301254987717, -0.016049712896347046, 0.012121325358748436, 0.011992793530225754, 0.010816482827067375, 0.002577509731054306, 0.03241254389286041, 0.002143595600500703, -0.004721265286207199, 0.03799654170870781, 0.017692571505904198, 0.017939547076821327, 0.018662309274077415, -0.006451872177422047, -0.015353845432400703, -0.011196509934961796, -0.03041238710284233, -0.0179597120732069, 0.00520096393302083, -0.020199457183480263, -0.0064880684949457645, -0.02131900191307068, 0.007924849167466164, 0.028463104739785194, 0.012669450603425503, 0.0076418351382017136, -0.031995903700590134, 0.019840793684124947, -0.016658194363117218, -0.03075983002781868, 0.006938789039850235, 0.028586121276021004, -0.02121506817638874, 0.010965537279844284, -0.00011907257430721074, 0.01608479581773281, 0.018728651106357574, 0.0015896557597443461, -0.014267069287598133, 0.01416473463177681, 0.03543912619352341, 0.0014084341237321496, -0.008932585828006268, -0.013531512580811977, -0.0047426591627299786, -0.03502369672060013, -0.026676861569285393, -0.013136759400367737, 0.03260491043329239, 0.012911966070532799, -0.02047928422689438, -0.004799156449735165, 0.029601575806736946, 0.01167087722569704, -0.028384611010551453, -0.001264156075194478, -0.02144613303244114, 0.03354794159531593, 0.02982928603887558, 0.03807453066110611, -0.0074234092608094215, 0.010052953846752644, -0.04103492200374603, 0.003351506544277072, -0.011287684552371502, 0.03756735473871231, 0.022106772288680077, 0.015791703015565872, -0.027664601802825928, -0.028692929074168205, -0.018966762349009514, 0.010745146311819553, -0.023260660469532013, -0.028862973675131798, 0.0018904436146840453, -0.030164381489157677, 0.022482002153992653, -0.034114256501197815, -0.004085150547325611, 0.02706877514719963, -0.029875678941607475, -0.006796829402446747, -0.019524801522493362, -0.015456408262252808, -0.006279955618083477, 0.01722579076886177, -0.02306237630546093, 0.015500323846936226, -0.030273741111159325, -0.043174222111701965, -0.01954559050500393, 0.02017839625477791, -0.020850753411650658, 0.01804114505648613, -0.023930728435516357, 0.009629088453948498, -0.031495850533246994, -0.009100701659917831, 0.007560791447758675, -0.017279718071222305, -0.02999415621161461, 0.025239013135433197, 0.021972624585032463, 0.004587905015796423, 0.0041861701756715775, -0.024171341210603714, 0.005417950451374054, -0.008072617463767529, -0.03592156618833542, -0.03578301891684532, 0.0030468101613223553, -0.02445605956017971, 0.010584954172372818, -0.007530077826231718, -0.022093748673796654, 0.007136689033359289, 0.02417648211121559, -0.0038792265113443136, -0.010223659686744213, -0.0278692077845335, 0.01963304728269577, -0.024767452850937843, -0.0251424890011549, -0.026523243635892868, -0.03290725126862526, -0.023391118273139, 0.01036103069782257, 0.011130306869745255, 0.01085620280355215, 0.010892549529671669, -0.004944817628711462, -0.020402146503329277, -0.023028168827295303, -0.016005778685212135, -0.02012898214161396, 0.0024329829029738903, 0.00941411405801773, 0.0266132652759552, 0.03012549877166748, -0.030358871445059776, -0.02260815165936947, 0.02699064090847969, -0.0016702603315934539, 0.04075692221522331, -0.013554072007536888, 0.040562793612480164, -0.008214656263589859, 0.001084121991880238, -0.014259441755712032, -0.014354323968291283, -0.014805714599788189, -0.020524021238088608, -0.0149082001298666, -0.008342825807631016, 0.01358795166015625, -0.017112972214818, 0.007996227592229843, 0.03253567963838577, -0.022968878969550133, -0.02563176117837429, 0.007825192995369434, 0.013437830843031406, 0.03025737963616848, -0.015664275735616684, 0.027018006891012192, -0.017853861674666405, 0.029399892315268517, 0.016982777044177055, -0.02139855921268463, 0.02690761350095272, -0.01816576160490513, 0.010349616408348083, -0.026230407878756523, 0.0351950004696846, 0.009988485835492611, -0.011219506151974201, 0.014882286079227924, -0.007912904024124146, -0.01827782578766346, 0.029281429946422577, -0.03126931190490723, -0.03141004219651222, -0.03788261115550995, -0.011285027489066124, 0.013855714350938797, -0.0022520581260323524, 0.006596931256353855, -0.006179440766572952, 0.015032739378511906, -0.03530082106590271, 0.013253271579742432, 0.015147334896028042, -0.03597443550825119, -0.032532330602407455, -0.008428176864981651, -0.010110652074217796, -0.0016877508023753762, 0.014038720168173313, -0.01515598502010107, -0.010738921351730824, 0.036363888531923294, 0.039047181606292725, 0.01952272839844227, -0.010842991061508656, 0.029025690630078316, -0.025655601173639297, 0.029765039682388306, 0.02432994544506073, -0.016637103632092476, 0.006344655994325876, -0.0010821380419656634, -0.009634478017687798, -0.01843583956360817, -0.03425576165318489, -0.01619819551706314, -0.0005894904024899006, -0.019783711060881615, 0.00015172985149547458, 0.009003848768770695, 0.03260457143187523, 0.014824770390987396, -0.025769222527742386, -0.030332056805491447, 0.002294697565957904, 0.026376646012067795, -0.027730358764529228, -0.023751188069581985, 0.014729666523635387, -0.020461110398173332, 0.032040614634752274, 0.021047770977020264, -0.011001158505678177, 0.01218282338231802, 0.010205693542957306, 0.028323039412498474, 0.023086948320269585, -0.0213384497910738, 0.03025839664041996, 0.0154744703322649, -0.030735783278942108, 0.021483417600393295, 0.027239225804805756, -0.004868641961365938, -0.027224814519286156, 0.019233912229537964, -0.008839200250804424, 0.025661377236247063, -0.02080753818154335, 0.018770748749375343, -0.01937953382730484, 0.013433035463094711, -0.0018727246206253767, 0.019435297697782516, 0.01763419434428215, -0.021065089851617813, 0.025084130465984344, -0.03531404584646225, -0.008111145347356796, -0.02926703914999962, -0.027656475082039833, -0.016597745940089226, 0.021679798141121864, -0.018037045374512672, -0.017546433955430984, 0.0078050848096609116, -0.002887202426791191, -0.009143572300672531, 0.007617201190441847, -0.012815646827220917, 0.02303684502840042, -0.01889406517148018, -0.008046997711062431, 0.030283242464065552, 0.02158603072166443, -0.0033072619698941708, 0.032852135598659515, 0.02378924749791622, -0.014669539406895638, 0.018912645056843758, -0.03572152554988861, 0.0037481789477169514, -0.028398796916007996, 1.4719761566084344e-05, -0.02490554004907608, -0.005588550586253405, -0.025976691395044327, 0.013676955364644527, -0.008607987314462662, 0.014992006123065948, -0.03190010413527489, -0.00785535667091608, -0.030550295487046242, 0.02461690828204155, 0.021351240575313568, 0.019486138597130775, -0.016331609338521957, -0.030145475640892982, 0.002286534057930112, -0.016736095771193504, 0.01610674150288105, 0.024176569655537605, 0.029109003022313118, -0.025176284834742546, 0.02864071913063526, -0.0007950132712721825, -0.017580119892954826, 0.0033444694709032774, -0.004152115900069475, 0.019529812037944794, 0.025342386215925217, 0.025660410523414612, 0.03150774911046028, -0.014426132664084435, 0.01930646225810051, -0.030140751972794533, 0.02252267487347126, -0.011097659356892109, -0.005953439977020025, -0.02997691184282303, 0.02240161970257759, 0.022949382662773132, 0.009615705348551273, 0.011518496088683605, -0.03405165672302246, 0.021726932376623154, 0.0069461907260119915, -0.011575541459023952, 0.02105041965842247, -0.002477627247571945], [-0.018420718610286713, -0.0013770678779110312, 0.026815734803676605, 0.017030883580446243, 0.020725106820464134, 0.006508303806185722, 0.038262225687503815, 0.03273303806781769, -0.030224550515413284, -0.010186972096562386, 0.036326710134744644, -0.005204567685723305, 0.025385446846485138, -0.011533014476299286, 0.027662554755806923, 0.030488306656479836, 0.03361193463206291, 0.020971208810806274, -0.005103705450892448, 0.020324263721704483, -0.024728015065193176, -0.0008712398703210056, -0.0065767113119363785, 0.037886328995227814, -0.0008491947082802653, -0.023355819284915924, 0.015184646472334862, 0.029569201171398163, 0.008431493304669857, -0.015569668263196945, 0.02999511919915676, 0.009854085743427277, 0.0008085802546702325, 0.02506813406944275, 0.03839779272675514, -0.025691648945212364, 0.03410054370760918, 0.036057744175195694, -0.02136564813554287, 0.023124242201447487, -0.027071407064795494, 0.019225090742111206, 0.010640349239110947, -0.006137957330793142, 0.03749607875943184, 0.013817718252539635, 0.023523099720478058, 0.0055007329210639, -0.011616615578532219, -0.004348005633801222, -0.0010481796925887465, -0.007917691953480244, -0.021485941484570503, -0.005079989787191153, -0.011149895377457142, -0.01014476828277111, -0.008873152546584606, 0.014202194288372993, 0.03876839205622673, 0.018341699615120888, 0.03727174922823906, -0.02731934003531933, 0.0332878977060318, 0.029012059792876244, 0.038007400929927826, 0.03257391229271889, 0.010035007260739803, -0.004458136856555939, 0.021961664780974388, -0.017561953514814377, 0.0036251707933843136, 0.042930178344249725, -0.00294357817620039, -0.005337144248187542, 0.029792694374918938, 0.03249981254339218, 0.02164437435567379, 0.025001447647809982, 0.0008210625383071601, -0.02045777067542076, -0.029813285917043686, 0.010165926069021225, -0.02194857783615589, 0.004512008745223284, -0.006610415410250425, 0.022682370617985725, -0.005610420368611813, 0.014137912541627884, -0.001703318441286683, -0.006595990154892206, -0.021735556423664093, 0.009733282029628754, -0.028131606057286263, 0.005158009938895702, 0.004249719437211752, 0.017170539125800133, 0.017515001818537712, 0.0019268409814685583, -0.005017794203013182, 0.0008496189839206636, 0.026994474232196808, -0.010373948141932487, 0.03967653959989548, 0.025553738698363304, 0.01680726557970047, 0.025679543614387512, -0.004892722237855196, -0.028957409784197807, -0.0179146695882082, 0.006789406295865774, -0.026162492111325264, -0.03108694963157177, 0.028177296742796898, 0.01365081500262022, -0.03065657429397106, 0.035730164498090744, -0.030231919139623642, 0.024529851973056793, 0.015758061781525612, -0.025035900995135307, 0.03454964980483055, 0.032035283744335175, -0.024135105311870575, 0.0011218409053981304, -0.022704627364873886, 0.03351692110300064, -0.0034778679255396128, -0.001622627954930067, 0.009244046173989773, 0.0042303455993533134, -0.035996049642562866, 0.030695440247654915, -0.020475950092077255, 0.01640661433339119, -0.0026231526862829924, -0.02443046122789383, 0.019062181934714317, 0.03010241501033306, -0.02976183220744133, 0.03178080543875694, 0.003335134359076619, -0.008066851645708084, 0.03137895092368126, 0.03947047144174576, 0.004949030000716448, -0.01402711495757103, -0.022350355982780457, 0.040980324149131775, 0.02328689768910408, 0.01857704669237137, 0.015456543304026127, -0.0028379452414810658, -0.001992005156353116, 0.01674538664519787, -0.0281884353607893, -0.024057729169726372, 0.010152206756174564, -0.011956383474171162, -0.009397715330123901, -0.03831828013062477, 0.027735134586691856, -0.024087978526949883, 0.0005382586386986077, -0.00979267992079258, -0.007623710669577122, 0.019337020814418793, -0.022533519193530083, 0.019358761608600616, 0.011441048234701157, 0.03501817211508751, -0.015021286904811859, 0.005120564717799425, -0.011734443716704845, 0.0346316359937191, 0.023897983133792877, 0.019971083849668503, 0.06208415329456329, 0.04577193781733513, 0.018150383606553078, 0.01846030168235302, -0.017263200134038925, -0.018043631687760353, -0.04095788300037384, 0.007541574537754059, 0.013486062176525593, 0.029692957177758217, 0.03465063124895096, -0.02094619907438755, -0.017985841259360313, 0.03763106092810631, 0.0027803799603134394, 0.03335249051451683, 0.006389133166521788, 0.004867649171501398, 0.0009398559341207147, 0.02692304365336895, -0.015331180766224861, -0.004230057820677757, -0.006046860013157129, -0.024226000532507896, -0.02254573069512844, 0.00949301477521658, 0.0022420038003474474, 0.03710368275642395, 0.013705303892493248, 0.001908373087644577, 0.007529865950345993, 0.020013395696878433, -0.003146241419017315, 0.015470443293452263, -0.013149688020348549, -0.023989230394363403, 0.03020709566771984, -0.008497864939272404, -0.027681250125169754, -0.014585061930119991, 0.029003020375967026, 0.0019008131930604577, 0.023112012073397636, 0.001227830769494176, 0.029896900057792664, 0.015269710682332516, -0.005656326189637184, 0.010908124968409538, 0.00217717164196074, 0.02365555614233017, 0.01818922534584999, -0.0285053513944149, 0.020486608147621155, 0.021005021408200264, 0.0066828979179263115, 0.01083329413086176, -0.010330413468182087, 0.021796060726046562, -0.0022019175812602043, -0.011283399537205696, 0.0019959001801908016, -0.028556520119309425, -0.0689796507358551, -0.01027809176594019, -0.022516386583447456, 0.029392780736088753, 0.022277403622865677, -0.01628389023244381, -0.0033927590120583773, 0.030841585248708725, 0.040253646671772, 0.01478506438434124, 0.016433104872703552, 0.03141704201698303, -0.022029787302017212, 0.020204104483127594, -0.017847873270511627, 0.0017062209080904722, 0.010040800087153912, 0.024029139429330826, -0.02440633624792099, 0.01627659797668457, 0.015078670345246792, 0.03325868770480156, -0.01586250774562359, -0.018400706350803375, 0.0053289784118533134, -0.02975349873304367, -0.02581166848540306, -0.06064105033874512, -0.02237159200012684, 0.0034736343659460545, -0.009957773610949516, 0.007361923344433308, 0.0026492930483072996, 0.009614898823201656, -0.00610923720523715, 0.027525676414370537, 0.018859881907701492, 0.040987882763147354, -0.008962234482169151, -0.028272327035665512, -0.009621437638998032, 0.013521688990294933, 0.01630260981619358, 0.005151195451617241, -0.01114360149949789, 0.012950544245541096, 0.009992840699851513, 0.009271425195038319, 0.02316676452755928, -0.0024718253407627344, -0.018525397405028343, -0.011835779063403606, -0.03806869685649872, -0.02441159263253212, -0.009636572562158108, -0.008889352902770042, -0.010015623643994331, -0.016291344538331032, -0.0096870893612504, -0.025972390547394753, -0.02205861732363701, 0.018365826457738876, -0.003908778540790081, -0.026701390743255615, -0.0038497108034789562, -0.016265176236629486, 0.016075508669018745, -0.009104087017476559, -0.007653265725821257, -0.02612781710922718, 0.01986926980316639, 0.014928785152733326, -0.02389528602361679, -0.00760123785585165, 0.007485897745937109, 0.011712278239428997, 0.009923005476593971, -0.0287023913115263, -0.023383498191833496, 0.002171673346310854, -0.009634383954107761, -0.013029489666223526, -0.05547655001282692, -0.04198232665657997, -0.017142904922366142, -0.04744903743267059, -0.016615210101008415, 0.002811464248225093, -0.015977051109075546, -0.0457250140607357, 0.0039130509831011295, -0.006337400525808334, -0.0004063257365487516, -0.008407346904277802, 0.02821030281484127, 0.036115746945142746, 0.032236844301223755, -0.010113847441971302, 0.036362189799547195, 0.03406126797199249, -0.020671403035521507, -0.010358303785324097, -0.020689966157078743, 0.00034927763044834137, -0.013277752324938774, -0.0031880128663033247, -0.030390318483114243, -0.024713639169931412, -0.018081817775964737, -0.047432202845811844, -0.02137140929698944, -0.04098527505993843, -0.04247767850756645, -0.06569236516952515, -0.05597905069589615, -0.047954101115465164, -0.050322212278842926, 0.0004326826601754874, 0.015806004405021667, -0.03861084580421448, 0.020788708701729774, -0.0030283951200544834, 0.03006402961909771, -0.00427526468411088, -0.010322071611881256, 0.02860887721180916, 0.02693689428269863, 0.026476524770259857, -0.012122039683163166, 0.03428896144032478, -0.017580978572368622, -0.01843559928238392, 0.00529208080843091, -0.015780555084347725, 0.0010082732187584043, 0.015684079378843307, 0.014652861282229424, 0.0013047257671132684, -0.019327383488416672, -0.06986027210950851, -0.10957995057106018, -0.08692149817943573, -0.0303743164986372, -0.061556074768304825, -0.060242243111133575, -0.012614641338586807, 0.00651478162035346, -0.01117799337953329, 0.030663082376122475, 0.023160303011536598, 0.04314940422773361, -0.0058299703523516655, 0.026857933029532433, 0.015109268017113209, 0.030446693301200867, 0.021750465035438538, -0.016103703528642654, 0.009598630480468273, 0.006248505786061287, -0.01524524949491024, -0.036028604954481125, 0.01673821732401848, 0.0009648697450757027, -0.008425590582191944, -0.009386954829096794, -0.001180293271318078, 0.00896836444735527, -0.07874801009893417, -0.06006794050335884, -0.08717864006757736, -0.050624869763851166, -0.011236142367124557, 0.007918791845440865, -0.004920243751257658, 0.03054848127067089, 0.04308134317398071, -0.004251203034073114, 0.027105795219540596, -0.0017526426818221807, 0.02147340588271618, 0.03490513190627098, 0.017060386016964912, -0.011721793562173843, 0.009240134619176388, 0.011790063232183456, 0.0009210290154442191, -0.0269607100635767, -0.00023226258053909987, -0.0015459356363862753, 0.03849314898252487, -0.023790882900357246, -0.025800269097089767, 0.026182152330875397, 0.013103870674967766, -0.02500375173985958, -0.025460325181484222, -0.10243023931980133, -0.04746570810675621, -0.00411422410979867, -0.025792891159653664, 0.05164032429456711, 0.036247748881578445, 0.05473952740430832, -0.014537293463945389, -0.0060602049343287945, 0.04470529407262802, 0.0045552668161690235, -0.007565024774521589, -0.025635836645960808, 0.030834853649139404, -0.03146972134709358, 0.026459217071533203, 0.0118908965960145, 0.01259114034473896, -0.019539078697562218, -0.012495370581746101, -0.0004531566228251904, 0.01731608249247074, -0.01809113658964634, 0.008256790228188038, 0.0017284827772527933, 0.00018415537488181144, -0.040615346282720566, -0.0614284947514534, -0.03796147555112839, -0.011537586338818073, -0.03681105375289917, 0.0038757859729230404, 0.044736023992300034, 0.049275144934654236, 0.04377039894461632, 0.013348293490707874, 0.04787546768784523, 0.04560225456953049, 0.024396438151597977, 0.034587960690259933, 0.003320150775834918, 0.015264706686139107, -0.012486927211284637, -0.004721878096461296, -0.009498454630374908, 0.025738747790455818, -0.002536541083827615, 0.032451651990413666, 0.005774579476565123, 0.027658896520733833, 0.028873169794678688, 0.0050745271146297455, 0.02941332757472992, -0.03140217438340187, -0.06610516458749771, -0.011422455310821533, -0.017588114365935326, 0.010351997800171375, -0.02968582697212696, -0.00381488841958344, 0.012637478299438953, 0.0175816360861063, 0.012390070594847202, 0.04160897433757782, -0.0020449720323085785, 0.008544654585421085, 0.03973126411437988, -0.02073829621076584, 0.011258675716817379, 0.02673920802772045, 0.023577356711030006, -0.005526920780539513, 0.016054479405283928, 0.016360066831111908, -0.02222585864365101, -0.014826553873717785, 0.044820960611104965, 0.04170328378677368, 0.04913133382797241, -0.018177032470703125, 0.017180146649479866, 0.008227093145251274, -0.004244375973939896, -0.03252082318067551, -0.03977714106440544, 0.018235422670841217, -0.01768302731215954, 0.04093194752931595, 0.014389258809387684, 0.0352543480694294, 0.05237475782632828, -0.004498536232858896, -0.01786276511847973, 0.0031617549248039722, 0.022952506318688393, 0.022767072543501854, 0.02997758239507675, -0.018051590770483017, -0.014200754463672638, -0.017893031239509583, -0.005750681273639202, -0.020303959026932716, 0.03520696610212326, 0.037190597504377365, 0.02635856159031391, 0.0238180048763752, 0.01736738719046116, 0.030976882204413414, 0.04044909402728081, 0.01046161912381649, -0.001619986491277814, -0.01994502544403076, -2.4276312160509406e-06, -0.006634801626205444, 0.006343957036733627, 0.004426927305757999, -0.03144659101963043, -0.017372936010360718, 0.025214945897459984, -0.006815643981099129, -0.00526587525382638, -0.014619716443121433, 0.03676261380314827, 0.00037635545595549047, 0.03691551089286804, -0.006176378112286329, -0.019918613135814667, 0.006119470577687025, -0.012213475070893764, -0.020305264741182327, -0.0015957443974912167, -0.012480054050683975, -0.0005115063395351171, -0.010881965979933739, 0.03668375685811043, -0.0013867149828001857, 0.046411603689193726, 0.032791294157505035, -0.0022809170186519623, 0.05389519780874252, 0.0372803658246994, -0.014734075404703617, 0.028341099619865417, 0.02503276616334915, 0.017041334882378578, -0.0013147399295121431, -0.017850780859589577, 0.017532287165522575, -0.03471916541457176, 0.0011008980218321085, 0.01476626843214035, 0.02181989699602127, 0.030769994482398033, 0.02861720509827137, 0.038279157131910324, -0.017645180225372314, -0.018490871414542198, -0.0005508611211553216, -0.0032135641667991877, 0.03300286456942558, -0.03561931103467941, 0.015436121262609959, -0.04545847699046135, -0.004505779128521681, -0.0008291766862384975, -0.01766102761030197, 0.01843651942908764, -0.003197750775143504, 0.005661048926413059, 0.013795663602650166, -0.04029201343655586, -0.01699008420109749, -0.022553207352757454, 0.00321209873072803, -0.0025928132236003876, 0.015939051285386086, 0.020212505012750626, 0.01069147139787674, 0.0021829523611813784, -0.016877969726920128, 0.03100687265396118, 0.03887762501835823, -0.01053860317915678, 0.035845041275024414, -0.020811377093195915, 0.02820117026567459, -0.021358326077461243, -0.005572889931499958, 0.0003241946396883577, -0.013613034971058369, -0.030941149219870567, 0.0022664128337055445, -0.012703416869044304, -0.03201404586434364, 0.027013322338461876, -0.027248233556747437, -0.004953597206622362, 0.01759832724928856, -0.02284591645002365, -0.004764330107718706, -0.0177119430154562, -0.019492588937282562, -0.005062590353190899, -0.010230732150375843, 0.0015116897411644459, -0.023916546255350113, -0.021901842206716537, -0.006435464136302471, 0.02825876697897911, -0.024270055815577507, -0.01019572839140892, -0.027393145486712456, 0.0304516963660717, 0.01762482523918152, 0.014183520339429379, 0.012941403314471245, 0.031311485916376114, -0.01033039391040802, -0.009862620383501053, 0.013885047286748886, 0.003657060209661722, -0.0004517427005339414, -0.04099934920668602, -0.03531745448708534, -0.012723125517368317, -0.03348677605390549, 0.011116995476186275, -0.023225490003824234, 0.0017279500607401133, 0.029058372601866722, -0.021490950137376785, -0.016314897686243057, 0.014275705441832542, 0.007743275724351406, -0.011502536945044994, 0.018567925319075584, -0.007692638784646988, 0.018966447561979294, 0.031799398362636566, 0.009725017473101616, -0.022078366950154305, 0.03891906142234802, -0.01830928772687912, -0.00824833195656538, 0.011500010266900063, 0.04039338603615761, -0.009862536564469337, -0.014045779593288898, 0.014367579482495785, 0.018621711060404778, 0.03209719806909561, -0.00264158146455884, -0.022349903360009193, 0.01179373450577259, -0.018113968893885612, 0.04212982580065727, -0.036580950021743774, 0.027436697855591774, 0.004890866577625275, -0.0070382533594965935, 0.0361725389957428, -0.020586449652910233, 0.032583221793174744, 0.03435808792710304, 0.03590354323387146, -0.00652284687384963, 0.0141191016882658, -0.01751113310456276, 0.03181523457169533, 0.036410633474588394, -0.021110795438289642, 0.027655823156237602, -0.002089437562972307, 0.02221626788377762, 0.03993881866335869, 0.030244294553995132, -0.008196532726287842, 0.03949672728776932, -0.008971091359853745, -0.00566846365109086, 0.0006456049741245806, 0.01320595946162939, -0.022118736058473587, 0.02299409732222557, -0.035313479602336884, 0.024822089821100235, -0.02762354351580143, 0.019836055114865303, -0.027195239439606667, -0.03252169489860535, -0.015385505743324757, -0.024087034165859222, 0.031727135181427, -0.016060130670666695, -0.016952740028500557, 0.03044024668633938, 0.009224025532603264, 0.0024591763503849506, 0.008096323348581791, -0.015016021206974983, -0.03269458934664726, 0.0358688160777092, 0.018720561638474464, 0.009573173709213734, 0.025232860818505287, 0.00643897382542491, 0.015265137888491154, 0.0061035496182739735, -0.01202374417334795, 0.005990741774439812, 0.002472767373546958, 0.0037254441995173693, -0.03327249363064766, 0.01896049827337265, 0.01789991371333599, 0.02319013886153698, 0.03258844465017319, -0.02803322672843933, -0.0274495966732502, 0.0013931265566498041, -0.00036554093821905553, 0.03701776638627052, 0.030559811741113663, 0.03252039849758148, 0.03173399716615677, -0.007401688490062952, 0.01697923056781292, -0.018085192888975143, -0.011809326708316803, 0.025026796385645866, 0.02718774974346161, 0.007538227364420891, 0.034374918788671494, 0.01709059067070484, -0.020939253270626068, 0.017938347533345222, 0.027203088626265526, -0.017581230029463768, 0.027761252596974373, -0.0014322823844850063, 0.008001664653420448, -0.026325536891818047, 0.0169677697122097, 0.016694191843271255, 0.024891620501875877, 0.03118201531469822, 0.010342222638428211, -0.004030281212180853, -0.021289106458425522, 0.01662110909819603], [0.014701098203659058, 0.019901536405086517, 0.003100281348451972, -0.012316731736063957, -0.028732305392622948, 0.0038574119098484516, 0.02987283281981945, -0.0010156806092709303, -0.032959118485450745, -0.0142683619633317, 0.019697893410921097, -0.003438069950789213, -0.00395156117156148, 0.014618443325161934, -0.021372081711888313, 0.00742569612339139, -0.024921346455812454, 0.034376535564661026, -0.01727638766169548, 0.03480451926589012, -0.029655180871486664, 0.0332840271294117, -0.03278113156557083, -0.025494763627648354, -0.021326756104826927, 0.006708473898470402, -0.01349336002022028, 0.010714768432080746, -0.03125327453017235, -0.022871222347021103, 0.025248609483242035, -0.024658678099513054, 0.024053705856204033, -0.021506216377019882, -0.035745617002248764, 0.027276836335659027, 0.014658543281257153, 0.013731527142226696, -0.008756430819630623, 0.007006132509559393, -0.007750015705823898, 0.0257102157920599, 0.02793111652135849, -0.005882426630705595, -0.02076171152293682, 0.013975944370031357, -0.035512760281562805, 0.016876963898539543, -0.0161917544901371, -0.009156846441328526, -0.026520077139139175, 0.007983118295669556, -0.024272393435239792, -0.02507968246936798, -0.015959152951836586, -0.031972531229257584, -0.00801805779337883, -0.03306805342435837, -0.004632288124412298, -0.0170204509049654, -0.01436211634427309, -0.026221582666039467, -0.021763214841485023, -0.003790074260905385, -0.01735011860728264, 0.02441375143826008, -0.015512046404182911, -0.010098110884428024, -0.0006557049346156418, 0.005382348783314228, 0.030826129019260406, 0.025869378820061684, 0.01835549995303154, -0.012646959163248539, 0.004203360062092543, -0.009910677559673786, -0.012164008803665638, -0.02694355510175228, -0.007607458624988794, -0.002039544517174363, 0.005359205417335033, -0.03445737063884735, -0.029455134645104408, -0.01969924569129944, 0.033759985119104385, -0.03414083644747734, 0.0172172412276268, 0.007735657971352339, 0.007555527612566948, -0.019104858860373497, 0.005494465585798025, 0.009279577061533928, -0.03553216904401779, -0.014979664236307144, -0.00800381787121296, 0.009111537598073483, 0.03261922672390938, 0.01232118159532547, 0.004539972636848688, 0.029934793710708618, -0.017466166988015175, -0.0015998012386262417, 0.015476982109248638, -0.008867218159139156, 0.009677614085376263, 0.0212606992572546, 0.006672308314591646, -0.012665464542806149, 0.030268726870417595, 0.029724493622779846, -0.012545141391456127, 0.01659119874238968, 0.025845007970929146, -0.005051754880696535, 0.0010338665451854467, -0.026260174810886383, 0.006036229431629181, -0.025195287540555, 0.022077281028032303, 0.02466590143740177, 0.003827356267720461, 0.0034975663293153048, -0.033835481852293015, 0.0033549785148352385, 0.030169345438480377, 0.010632445104420185, 0.021052610129117966, 0.007311039604246616, 0.027751270681619644, -0.026678714901208878, -0.0008704066858626902, -0.013395285233855247, -0.028543898835778236, -0.007640076335519552, 0.02301083877682686, 0.03259041905403137, 0.0320986770093441, -0.01095192227512598, 0.006065006367862225, -0.01704901084303856, -0.019106412306427956, -0.01644992083311081, -0.0116385193541646, 0.0062926216050982475, -0.008832594379782677, 0.0328579880297184, 0.0016290262574329972, 0.008583315648138523, -0.024745864793658257, -0.015790553763508797, -0.033326003700494766, -0.024691017344594002, -0.04160212352871895, 0.01217986922711134, 0.024761129170656204, -0.017895376309752464, 0.01819588430225849, 0.009369239211082458, -0.019365500658750534, -0.00600018072873354, 0.02895538881421089, -0.03469966724514961, 0.011325553059577942, -0.0005055009969510138, 0.017071440815925598, -0.0008507920429110527, -0.014901760965585709, 0.016819724813103676, 0.021146830171346664, 0.008662966080009937, -0.007688482291996479, 0.013473398052155972, -0.03251374140381813, 0.03540298342704773, 0.03501627594232559, 0.027273034676909447, 0.01630379445850849, 0.01850685477256775, 0.026637829840183258, -0.03515016287565231, 0.0073804473504424095, -0.025622650980949402, -0.039585813879966736, 0.02301052212715149, -0.030911093577742577, -0.01371643878519535, 0.007574659306555986, 0.008291917853057384, -0.016878359019756317, -0.023637745529413223, -0.001301874523051083, 0.002704175654798746, -0.014404005371034145, -0.008094800636172295, -0.03367156162858009, 0.025516346096992493, -0.024362774565815926, 0.004800767637789249, -0.00847338791936636, 0.003363278228789568, -0.00017522509733680636, 0.02749616652727127, -0.0029663790483027697, 0.024305138736963272, 0.020450161769986153, 0.029252341017127037, -0.03906190022826195, 0.002068219007924199, 0.0011557627003639936, -0.028528302907943726, 0.035591885447502136, 0.002949873451143503, -0.019208874553442, 0.0071350703947246075, -0.01697879657149315, 0.019994549453258514, 0.004475087858736515, 0.03434815630316734, 0.03906669840216637, 0.026271330192685127, -0.02376362308859825, 0.024659963324666023, -0.024452121928334236, -0.02641591988503933, -0.029686681926250458, 0.03420381620526314, -0.007984272204339504, 0.028604498133063316, -0.025554277002811432, 0.002148896921426058, 0.0033711527939885855, 0.03502326458692551, -0.013067074120044708, -0.01670203171670437, -0.043956588953733444, -0.02839839644730091, -0.028224527835845947, -0.0030964738689363003, -0.025436168536543846, -0.013150840066373348, -0.022386346012353897, -0.005428176373243332, 0.0444718636572361, 0.011517863720655441, -0.012575674802064896, 0.00644219946116209, 0.014636054635047913, -0.026639826595783234, 0.021990127861499786, -0.010515394620597363, -0.005412427708506584, 0.0017114171059802175, -0.008334708400070667, -0.03591598942875862, -0.014431026764214039, 0.009725440293550491, -0.031244460493326187, 0.004638653714209795, 0.03116239793598652, -0.009814715944230556, -0.006535939872264862, 0.016353115439414978, -0.004594499710947275, 0.006346355192363262, -0.0013613703195005655, -0.0007149537559598684, -0.011832205578684807, 0.004977350123226643, 0.037052545696496964, 0.019995076581835747, 0.018663957715034485, 0.028175709769129753, 0.005638738162815571, -0.010479344986379147, 0.010300294496119022, 0.034968890249729156, 0.03875025361776352, 0.028071168810129166, 0.0037610335275530815, -0.021063795313239098, 0.033369604498147964, 0.004744186997413635, 0.006783181801438332, -0.006851387210190296, 0.02335491217672825, -0.011402043513953686, -0.01964528113603592, 0.01046647597104311, 0.028280071914196014, -0.03614373877644539, -0.023152831941843033, -0.038734644651412964, -0.02481616474688053, 0.02325386367738247, 0.01446371991187334, 0.01896321214735508, -0.0157740730792284, 0.047422073781490326, 0.009928527288138866, 0.0004287829215172678, 0.0296507366001606, -0.006517745554447174, 0.036316849291324615, -0.025816205888986588, -0.003232231829315424, -0.0044174520298838615, -0.01521763764321804, 0.005192237440496683, 0.03337718918919563, 0.002044985769316554, -0.0014408990973606706, 0.00681350938975811, -0.0004909588024020195, 0.036557577550411224, -0.015492625534534454, 0.017411230131983757, -0.003553246846422553, 0.009508829563856125, -0.021855764091014862, 0.008930438198149204, -0.012121782638132572, 0.01465407945215702, 0.017653608694672585, 0.030914533883333206, 0.017470428720116615, -0.013617463409900665, -0.00026814505690708756, 0.03911580890417099, -0.014258877374231815, -0.023280197754502296, 0.02417956292629242, -0.022539619356393814, 0.020362360402941704, -0.0351380929350853, 0.019363556057214737, 0.01396955456584692, -0.0022848995868116617, 0.02829313650727272, -0.02105344645678997, 0.031710878014564514, 0.03498128429055214, -0.01556029450148344, 0.02781212329864502, -0.00831037200987339, 0.0065831998363137245, 0.031074123457074165, 0.01563854143023491, -0.028030091896653175, 0.02671011909842491, -0.027778908610343933, -0.008128954097628593, 0.0001497326884418726, 0.013438950292766094, 0.024326646700501442, -0.020679760724306107, 0.017924049869179726, 9.308592416346073e-05, -0.00116503715980798, -0.029374072328209877, 0.023034779354929924, -0.015808681026101112, 0.009783678688108921, 0.010521667078137398, -0.03540673851966858, -0.022668754681944847, 0.016338258981704712, -0.029201945289969444, 0.002627237932756543, -0.02754938043653965, -0.020553477108478546, 0.039113208651542664, 0.02429424226284027, 0.019963601604104042, 0.02488708682358265, 0.009240766987204552, 0.025826705619692802, 0.018527572974562645, -0.03383077681064606, 0.026894938200712204, -0.01931384764611721, 0.010495386086404324, -0.010643142275512218, 0.020037131384015083, -0.028550511226058006, -0.0021020828280597925, -0.005997715517878532, 0.003159312764182687, -0.0005286422674544156, 0.016007091850042343, -0.028070766478776932, -0.022870773449540138, 0.02085196040570736, -0.0048296209424734116, 0.016635196283459663, -0.014085893519222736, -0.02710602432489395, 0.02240457758307457, -0.01378073263913393, -0.014697003178298473, 0.027602914720773697, 0.019807934761047363, -0.006251449231058359, 0.02111417055130005, -0.012299569323658943, -0.002588023664429784, -0.02556859329342842, -0.029468534514307976, 0.0002724019286688417, -0.023572301492094994, -0.02972550503909588, -0.02751365676522255, -0.00035940244561061263, -0.007204817607998848, -0.029318930581212044, -0.030732501298189163, 0.01628989540040493, 6.045903137419373e-05, 0.022544825449585915, 0.03273269906640053, 0.010551651939749718, 0.026668798178434372, 0.024768082424998283, 0.016971983015537262, -0.0039678639732301235, -0.0022416943684220314, 0.0141047528013587, 0.025011155754327774, 0.006528202909976244, 0.01040739007294178, 0.01779666729271412, 0.00797757413238287, -5.922124910284765e-05, 0.025210268795490265, 0.0064566670916974545, 0.031717851758003235, 0.0003898987779393792, 0.014558094553649426, -0.025326106697320938, -0.02378194034099579, -0.012803169898688793, -0.0042842053808271885, -0.025321543216705322, 0.02912897989153862, 0.00989848468452692, -0.02322271838784218, -0.0272193793207407, 0.01957806758582592, 0.019034234806895256, 0.0027941858861595392, 0.0017610957147553563, 0.030883653089404106, 0.017457539215683937, -0.02994415909051895, 0.03539154678583145, 0.0016387425130233169, 0.013516700826585293, -0.014759826473891735, 0.010298071429133415, 0.03617057949304581, 0.023720528930425644, 0.02657402493059635, -0.007598961237818003, 0.010107188485562801, 0.032505493611097336, -0.02332090027630329, -0.027524935081601143, 0.03276088833808899, -0.02046887017786503, 0.003216831013560295, -0.005274395924061537, -0.021256228908896446, 0.029147351160645485, -0.009166102856397629, 0.018974915146827698, 0.03414277359843254, 0.029721001163125038, 0.015317752957344055, -0.006299564614892006, 0.010132585652172565, 0.0050208596512675285, -0.026280250400304794, -0.0038812842685729265, 0.012221732176840305, -0.01355251856148243, -0.01986437477171421, 0.004416351672261953, 0.008481008000671864, 0.004928220063447952, 0.03983977437019348, -0.0035380697809159756, 0.023259494453668594, 0.0351339653134346, 0.007493149489164352, -0.009855307638645172, -0.03701958432793617, -0.007294796872884035, -0.013360553421080112, 0.002194272354245186, -0.02071896567940712, -0.023342182859778404, -0.034204330295324326, 0.0010037505999207497, -0.03351202607154846, -0.027770809829235077, -0.024274222552776337, -0.02672279067337513, -0.02452397160232067, 0.009781835600733757, 0.02360309660434723, 0.031116312369704247, -0.00961469765752554, 0.01200413890182972, 0.03884086385369301, -0.01861671730875969, 0.026512492448091507, 0.018339497968554497, -0.01835961453616619, 0.015524258837103844, -0.0018781807739287615, -0.01773759350180626, 0.020000552758574486, -0.016614673659205437, -0.022175123915076256, 0.011128631420433521, -0.01756851188838482, 0.0047002434730529785, -0.03817059099674225, -0.00729060173034668, 0.030290376394987106, 0.011986653320491314, 0.030291706323623657, -0.025133049115538597, 0.01812027208507061, 0.027178023010492325, -0.01499289833009243, -0.032419588416814804, 0.02093157358467579, 0.026979496702551842, -0.0320206880569458, 0.011860591359436512, 0.008823062293231487, 0.02499036118388176, 0.016730865463614464, 0.01912781037390232, -0.021605586633086205, 0.037751343101263046, 0.01327378861606121, -0.022643595933914185, 4.560119123198092e-05, 0.007468310184776783, -0.041062138974666595, 0.019322000443935394, -0.0025607601273804903, -0.020631279796361923, 0.023959554731845856, 0.006259388290345669, -0.017117762938141823, -0.025063252076506615, -0.028363462537527084, 0.027129707857966423, -0.004348312970250845, -0.018063491210341454, 0.0348501093685627, 0.006990843452513218, 0.02190207690000534, -0.021825704723596573, -0.03148720785975456, -0.02908681333065033, 0.013208672404289246, -0.01225458737462759, -0.00878089014440775, 0.02413993887603283, 0.015802908688783646, 0.019577573984861374, -0.04015514999628067, 0.011368782259523869, 0.01984664611518383, -0.027571067214012146, -0.008857078850269318, 0.017798591405153275, -0.01288305502384901, -0.005269703455269337, 0.03610473498702049, -0.023596417158842087, 0.020714106038212776, -0.01962781324982643, -0.025895563885569572, -0.03099348582327366, -0.017610536888241768, 0.02912847511470318, 0.017924275249242783, -0.035149261355400085, -0.017471587285399437, 0.011925775557756424, 0.02510238252580166, -0.037536654621362686, -0.01922733336687088, -0.03028002753853798, 0.03241157904267311, -0.016867782920598984, 0.01741798035800457, -0.04712608829140663, 0.008622413501143456, -0.02089165896177292, 0.006993556395173073, -0.005164335481822491, -0.009312065318226814, -0.034341003745794296, 0.009120376780629158, -0.026918504387140274, 0.036126747727394104, 0.006589776370674372, -0.007278512232005596, -0.03372087702155113, 0.009790713898837566, -0.0014177701668813825, 0.021082935854792595, -0.01846691220998764, 0.011288492009043694, 0.03274033963680267, 0.022796932607889175, 0.026005005463957787, -0.005203276872634888, 0.003892285283654928, -0.01303618960082531, -0.01833200454711914, -0.0054687694646418095, -0.02903893031179905, 0.0037253666669130325, 0.01871633715927601, 0.026498522609472275, -0.0379570834338665, 0.0012838878901675344, -0.03608570247888565, 0.02339620143175125, -0.006838121917098761, -0.00945243239402771, 0.016590755432844162, 0.014246071688830853, -0.0005917855305597186, 0.009554525837302208, -0.033354636281728745, 0.026074571534991264, -0.010789947584271431, 0.02544558048248291, -0.016552699729800224, 0.01836918294429779, -0.033049508929252625, 0.00919396709650755, -0.029161613434553146, -0.011121048592031002, 0.005724456626921892, -0.022447193041443825, -0.0041280328296124935, -0.027067385613918304, 0.0005699658067896962, 0.03118487447500229, -0.005141435191035271, -0.02698451280593872, 0.0022797780111432076, -0.02542700432240963, -0.012032623402774334, -0.0011512039927765727, -0.023636601865291595, -0.014383379369974136, -0.02739041857421398, 0.0037000197917222977, 0.012558861635625362, -0.008892553858458996, -0.01935078762471676, 0.026960080489516258, -0.01849978417158127, -0.010093141347169876, 0.007816696539521217, 0.0018879093695431948, -0.02220240980386734, -0.030336055904626846, -0.014377123676240444, -0.011580846272408962, 0.0014113334473222494, 0.01406065933406353, -0.0007510972209274769, 0.003596122143790126, 0.030345497652888298, -0.012713688425719738, -0.0008405979024246335, -0.013679314404726028, 0.0313684418797493, 0.01996508613228798, -0.0008952520438469946, 0.024218091741204262, -0.008404815569519997, -0.025291452184319496, -0.01624288409948349, 0.01893954910337925, 0.021431555971503258, 0.011090627871453762, 0.002216763561591506, -0.01707114838063717, 0.00815765094012022, -0.020519237965345383, -0.024811839684844017, 0.010842360556125641, -0.02298237942159176, -0.03566157817840576, 0.022233886644244194, -0.01637178286910057, 0.011251385323703289, 0.018946489319205284, 0.012686640955507755, 0.015789490193128586, 0.01457764208316803, 0.024235166609287262, 0.006653021089732647, 0.028580140322446823, 0.005261422134935856, -0.01563098467886448, 0.03313556686043739, 0.00728638656437397, 0.009484851732850075, 0.026954693719744682, -0.009759162552654743, 0.02339201793074608, -0.004198859911412001, 0.00636807968840003, -0.018586330115795135, 0.03359261527657509, -0.011207250878214836, -0.015230598859488964, -0.02861805632710457, -0.028962399810552597, 0.007292757276445627, 0.01772725023329258, -0.020479770377278328, 0.0221710167825222, -0.03003329038619995, 0.031265318393707275, -0.02812923491001129, 0.018912510946393013, -0.03491630405187607, 0.023936187848448753, -0.011612673290073872, 0.011128991842269897, 0.020737238228321075, 0.0036061364226043224, -0.0053296261467039585, -0.024457033723592758, 0.013653408735990524, 0.0036172124091535807, 0.011412008665502071, -0.002434865804389119, -0.032595451921224594, -0.025177016854286194, -0.02994582988321781, 0.024784881621599197, 0.028122667223215103, 0.024488842114806175, -0.012960867024958134, -0.02476247027516365, -0.014311598613858223, -0.005801135208457708, -0.03554419428110123, -0.015367286279797554, -0.02382989041507244, 0.02655591070652008, 0.03062506392598152, 0.013068007305264473, 0.01986893266439438, -0.02552075870335102, 0.03323517367243767, -0.02923857793211937, -0.03214351832866669, -0.019605642184615135, 0.005889387801289558, 0.0316879078745842, -0.014842886477708817, -0.004033950157463551, 0.01815955899655819, 0.0334663987159729, -0.012765783816576004, 0.005552584771066904, 0.0013881797203794122, 0.006125470623373985, 0.023291651159524918], [0.036407675594091415, 0.003921573981642723, 0.02305728755891323, 0.027314618229866028, 0.004318718798458576, 0.012907181866466999, -0.008894127793610096, 0.00996488705277443, 0.013427505269646645, 0.005814645905047655, 0.027461685240268707, 0.0211640652269125, 0.007023796904832125, -0.024538559839129448, 0.032476529479026794, 0.0011135382810607553, 0.03429196774959564, 0.01508146058768034, -0.016629990190267563, -0.008051734417676926, 0.029140233993530273, -0.010731561109423637, -0.029430340975522995, 0.025249797850847244, 0.010031895712018013, -0.006432001478970051, 0.020024139434099197, -0.011697922833263874, 0.03775770962238312, 0.036582306027412415, 0.021344156935811043, 0.00856374017894268, -0.014606578275561333, 0.014198039658367634, -0.016469545662403107, -0.023752324283123016, 0.006373723037540913, -0.0007214687066152692, -0.011694253422319889, 0.021916145458817482, 0.03698236122727394, -0.01552543230354786, 0.028219686821103096, 0.015417315065860748, 0.00756559893488884, -0.009905881248414516, -0.01901635341346264, 0.025468185544013977, 0.031659554690122604, 0.04009680449962616, -0.004476340487599373, -0.018453598022460938, -0.013113884255290031, -0.024111418053507805, 0.027845242992043495, -0.0117878383025527, -0.02225390262901783, -0.02863626927137375, 0.016361333429813385, 0.029228786006569862, 0.003290327498689294, 0.016764149069786072, 0.022311115637421608, 0.029911495745182037, -0.0036449641920626163, 0.007721500936895609, 0.02640494704246521, -0.020866956561803818, -0.018833395093679428, -0.026222648099064827, -0.021319327875971794, 0.005988980643451214, 0.020344724878668785, 0.009255645796656609, -0.016454314813017845, -0.008663011714816093, 0.04089321941137314, 0.0151155274361372, -0.012314564548432827, 0.024630799889564514, 0.009952330961823463, 0.028306709602475166, 0.019173653796315193, 0.02137555181980133, 0.03664889559149742, 0.021115364506840706, -0.025502093136310577, -0.02887061983346939, 0.018044771626591682, -0.00109933502972126, 0.022210244089365005, 0.006451778579503298, -0.030965672805905342, -0.015958735719323158, 0.028647655621170998, 0.022676708176732063, -0.010971534065902233, 0.027112234383821487, -0.011710284277796745, 0.01754780299961567, 0.010989341884851456, 0.004697534721344709, 0.037008434534072876, 0.01945706456899643, -0.0172976553440094, -0.004914682824164629, -0.005502854939550161, -0.019164491444826126, -0.0018440772546455264, 0.024564161896705627, -0.004203801974654198, 0.006833977065980434, 0.034386005252599716, 0.027308352291584015, -0.02940167300403118, -0.0006121936021372676, 0.005582817830145359, 0.0312822051346302, 0.009172678925096989, -0.022826028987765312, 0.027918552979826927, -0.023530559614300728, 0.02052207663655281, 0.01603468507528305, -0.011814523488283157, -0.04763804376125336, 0.01103427354246378, -0.042094141244888306, 0.019467826932668686, 0.01568063721060753, 0.018753252923488617, -0.0030985658522695303, -0.01525288075208664, -0.007527004461735487, 0.022382827475667, -0.006979196332395077, -0.027829265221953392, -0.007182728964835405, -0.010641773231327534, -0.02101275324821472, -0.004884727764874697, -0.023433053866028786, 0.001547166146337986, 0.006280605215579271, -0.02019694447517395, 0.020401086658239365, 0.01346157118678093, 0.031084228307008743, -0.02292332984507084, 0.0034850211814045906, 0.005403023678809404, 0.008434051647782326, -0.000665023981127888, -0.029965650290250778, -0.04922506958246231, -0.02899906225502491, -0.004955403972417116, 0.024167407304048538, -0.0271894633769989, 0.033484771847724915, 0.025389699265360832, 0.030915826559066772, 0.01424913015216589, -0.002646623644977808, 0.03282824903726578, -0.014098160900175571, -0.006226796656847, 0.029874306172132492, -6.249550642678514e-05, -0.013413523323833942, 0.020668447017669678, 0.0012152533745393157, 0.037278104573488235, 0.0007805048953741789, 0.0077264802530407906, -0.019500160589814186, -0.00474198441952467, 0.012625719420611858, -0.011279239319264889, 0.01793752983212471, -0.007190501317381859, -0.025564061477780342, -0.05676863715052605, -0.06090792641043663, -0.017519183456897736, -0.03700035437941551, 0.017433898523449898, 0.011741101741790771, -0.027143342420458794, -0.0034434390254318714, 0.013925831764936447, -0.012222664430737495, -0.029500285163521767, 0.02161852829158306, -0.02904577925801277, -0.02022821269929409, 0.03561218082904816, 0.03739796206355095, 0.028297066688537598, -0.029965199530124664, -0.02368498034775257, -0.01977888122200966, -0.008716493844985962, -0.02312205731868744, -0.007780545391142368, -0.03280424699187279, 0.02902710624039173, -0.04052922502160072, -0.014763681218028069, -0.019556190818548203, -0.03243936970829964, -0.034193914383649826, -0.024458348751068115, -0.023387281224131584, -0.0027272170409560204, -0.018100595101714134, -0.03567870333790779, -0.016576088964939117, 0.0038619423285126686, -0.03444294258952141, -0.03560763970017433, -0.025422807782888412, -0.0011184441391378641, 0.013455170206725597, 0.0017875073244795203, -0.023112565279006958, 0.004232900217175484, -0.026402533054351807, 0.03470458835363388, -0.0023462013341486454, -0.03251740336418152, 0.02287362888455391, 0.013071244582533836, -0.005433429032564163, 0.011800666339695454, -0.023811588063836098, -0.026645975187420845, 0.006090713664889336, -0.037894051522016525, -0.031089700758457184, -0.012027079239487648, -0.007540333550423384, 0.00936909206211567, -0.024147946387529373, -0.05998007953166962, -0.03982497379183769, -0.04109755903482437, 0.009827048517763615, 0.008810271508991718, -0.00988229364156723, 0.017665909603238106, -0.009428772144019604, -0.02468103915452957, 0.03878612071275711, 0.01138442661613226, 0.027664968743920326, 0.03436356410384178, 0.040086954832077026, 0.03267296776175499, -0.007314105052500963, -0.02045331709086895, -0.016365259885787964, -0.027335861697793007, -0.020985828712582588, -0.029541630297899246, 0.025616420432925224, -0.0016849689418449998, 0.009800918400287628, 0.00587074737995863, -0.015585292130708694, 0.019356360659003258, -0.011882822960615158, -0.04141036421060562, 0.007511940319091082, -0.011837160214781761, -0.015210962854325771, -0.018102172762155533, -0.024999475106596947, -0.0007883448270149529, 0.004770937375724316, 0.02172764204442501, 0.04023763909935951, 0.00013622287951875478, -0.016128817573189735, 0.03648403286933899, -0.015406872145831585, 0.008353575132787228, 0.04095590487122536, -0.016136931255459785, -0.032373324036598206, -0.03063288889825344, 0.020936081185936928, 0.020828086882829666, 0.007379494141787291, -0.019193293526768684, 0.0022003354970365763, -0.02347148396074772, -0.0320531502366066, -0.0335284098982811, -0.02236032858490944, -0.03228752687573433, 0.026045188307762146, -0.02815748192369938, 0.0010065280366688967, 0.016988832503557205, -0.004464843776077032, 0.010539818555116653, -0.004701585043221712, 0.011866736225783825, -0.015067624859511852, 0.02358812466263771, -0.02663598023355007, -0.02008284628391266, 0.027934588491916656, -0.010346426628530025, -0.018183741718530655, -0.01355794444680214, 0.01048213616013527, 0.028447158634662628, -0.019741229712963104, -0.03189171478152275, -0.029929684475064278, -0.030660707503557205, -0.021838374435901642, -0.037323858588933945, -0.04604845121502876, -0.015187476761639118, -0.02938973531126976, 0.005002940073609352, -0.00987081415951252, -0.018721116706728935, 0.008623747155070305, 0.031293388456106186, -0.01694253459572792, 0.003936006687581539, 0.031026849523186684, 0.010689759626984596, 0.007860022597014904, 0.027319030836224556, 0.010041107423603535, 0.014346998184919357, 0.010405147448182106, 0.006502592004835606, 0.0031585940159857273, 0.03581814467906952, -0.004141584038734436, -0.02297915704548359, -0.01739973947405815, -0.0025827446952462196, -0.03127475827932358, -0.0476326085627079, 0.005529235117137432, -0.02605380490422249, 0.01702052168548107, -0.002574994694441557, 0.021580465137958527, -0.017043421044945717, 0.02948768436908722, 0.02942744456231594, 0.0013840034371241927, -0.0012531281681731343, 0.031756605952978134, 0.005710187833756208, -0.028599124401807785, 0.018414994701743126, 0.005801655352115631, -0.007204393856227398, 0.007326895371079445, -0.013583721593022346, 0.02565966360270977, 0.03504372388124466, 0.04177621379494667, -0.0024505755864083767, 0.04003795236349106, -0.02258605882525444, -0.03210005909204483, -0.02473325841128826, -0.05511452257633209, -0.057117756456136703, -0.0026789859402924776, -0.0362384170293808, 0.003901675110682845, -0.029376374557614326, -0.027565792202949524, 0.029265115037560463, -0.02149701863527298, -0.0057310848496854305, 0.015939099714159966, 0.0006904237670823932, 0.030728762969374657, 0.023760678246617317, -0.02129087597131729, -0.01756010390818119, 0.034629322588443756, 0.019663576036691666, -0.02087748609483242, 0.014975972473621368, -0.007162495516240597, 0.02980184368789196, -0.004894488025456667, -0.014438130892813206, 0.035687316209077835, 0.01856626756489277, 0.005302671808749437, 0.0004931938019581139, -0.059330474585294724, -0.054525621235370636, 0.003780033439397812, 0.018861476331949234, 0.0193711556494236, 0.030763672664761543, -0.023571284487843513, -0.0011586342006921768, 0.026229428127408028, 0.002323847496882081, 0.025875769555568695, 0.003518821904435754, 0.03706381469964981, 0.01341833546757698, 0.0001036469911923632, -0.008800395764410496, -0.02073812112212181, 0.003566447179764509, 0.0323341004550457, 0.0012274805922061205, 0.006316789425909519, 0.05056725814938545, -0.009763699024915695, 0.004407160449773073, 0.017257701605558395, 0.002292645163834095, 0.0022817952558398247, -0.008266055025160313, -0.005915499292314053, -0.03752028942108154, -0.04294322058558464, 0.022666580975055695, -0.0315462164580822, 0.030485043302178383, 0.015313362702727318, 0.0131634920835495, 0.05070047453045845, 0.04304196685552597, -0.018851937726140022, 0.0013622044352814555, 0.0035247488413006067, -0.019203826785087585, 0.004500614479184151, 0.016889851540327072, -0.009503079578280449, -0.0188832376152277, 0.006737019866704941, -0.00935638789087534, -0.0016939115012064576, 0.03304213285446167, 0.043239131569862366, 0.010746476240456104, 0.03717787563800812, -0.007012004964053631, 0.009896223433315754, -0.037850867956876755, -0.007261311169713736, 0.013010209426283836, 0.014881376177072525, -0.03582756221294403, 0.009651933796703815, -0.018990807235240936, -0.011453354731202126, 0.001943647745065391, -0.010189362801611423, -0.02599535696208477, -0.02662496827542782, 0.005387462675571442, 0.014516775496304035, 0.03249076381325722, 0.007157689891755581, 0.0071351719088852406, 0.015964003279805183, 0.028395462781190872, 0.012272574938833714, 0.03919616714119911, -0.026180636137723923, 0.010120267048478127, 0.014980030246078968, -0.004510055296123028, -0.004549157340079546, -0.0030977120622992516, 0.011557350866496563, 0.015844831243157387, -0.01735536754131317, 0.020606743171811104, 0.009750290773808956, -0.024128157645463943, -0.010647313669323921, -0.04125606641173363, -0.018693415448069572, 0.029610952362418175, 0.009104466997087002, 0.011034784838557243, 0.011354196816682816, -0.0038512793835252523, -0.00485044764354825, 0.011310640722513199, 0.030410561710596085, -0.0157729871571064, -0.02821509540081024, -0.01622685231268406, 0.029089948162436485, 0.0025922779459506273, -0.010443287901580334, -0.028700120747089386, 0.006131724454462528, -0.032085780054330826, -0.030501998960971832, -0.0271882526576519, 0.0005978111876174808, 0.016633659601211548, 0.03569133207201958, -0.01830456592142582, 0.022594232112169266, -0.032558590173721313, -0.021041404455900192, -0.005385426804423332, -0.015610442496836185, 0.01036036666482687, -0.01876170001924038, 0.02613518387079239, -0.01774398796260357, -0.023838073015213013, 0.03471365571022034, 0.02122143842279911, 0.03319865092635155, 0.03676360473036766, 0.0029313352424651384, -0.02389802597463131, 0.0298782866448164, -0.029068585485219955, -0.020284689962863922, -0.009545709006488323, 0.018008355051279068, -0.03452848643064499, 0.0034622380044311285, -0.027682412415742874, 0.01481060590595007, -0.014991361647844315, -0.007115142419934273, -0.01899569481611252, -0.023818066343665123, -0.050929196178913116, -0.0003843814483843744, -0.039099838584661484, -0.02714730240404606, -0.025766968727111816, -0.02078070119023323, 0.020366426557302475, 0.023709047585725784, -0.003001515520736575, -0.011526710353791714, 0.02268398553133011, -0.011747295968234539, 0.009113472886383533, 0.0379837341606617, 0.03692634031176567, 0.02286306396126747, -0.024360867217183113, -0.014967666007578373, -0.013492484577000141, -0.006115657277405262, -0.028053998947143555, -0.035416413098573685, -0.021190863102674484, 0.02784518152475357, 0.036120012402534485, 0.010096373967826366, 