{"fc1.weight": [[0.005310542415827513, 0.029508283361792564, -0.006786230020225048, 0.002021003281697631, 0.028032807633280754, 0.01309884712100029, -0.014371359720826149, -0.002929064678028226, 0.007050949148833752, -0.011996185407042503, -0.0031721938867121935, -0.01967880129814148, 0.016305746510624886, 0.02397879771888256, 0.033040717244148254, 0.007001464255154133, 0.009480193257331848, 0.02272336371243, -0.02850962057709694, 0.03390597552061081, 0.02216876670718193, -0.023188283666968346, 0.026011761277914047, 0.03475421667098999, -0.015405177138745785, -0.010778611525893211, -0.024226058274507523, -0.0024678006302565336, 0.028996475040912628, -0.023111529648303986, -0.023519109934568405, 0.025464989244937897, -0.0018295241752639413, 0.024783601984381676, -0.017074551433324814, 0.02455294504761696, -0.032514143735170364, 0.0326676107943058, -0.009836183860898018, 0.03543548285961151, 0.021089749410748482, 0.004687768407166004, -0.008544166572391987, 0.02427719160914421, 0.0046420032158494, -0.022318463772535324, 0.021308185532689095, 0.00022587001149076968, -0.01443580910563469, 0.033906612545251846, 0.03612149879336357, -0.0015020141145214438, 0.03550848737359047, -0.01887279562652111, 0.02150738798081875, 0.011471524834632874, -0.005639540031552315, 0.010071973316371441, -0.020182544365525246, -0.01553304586559534, 0.02001352235674858, 0.013944221660494804, -0.006149918772280216, 0.032528456300497055, 0.013067379593849182, 0.03583407402038574, 0.004984480328857899, -0.009670690633356571, 0.0021598665043711662, -0.00988792348653078, 0.00034681925899349153, -0.007502981927245855, 0.017310654744505882, -0.030852148309350014, -0.005878352094441652, -0.018223362043499947, -0.0003398192347958684, 0.013110901229083538, 0.020200567319989204, -0.012982114218175411, -0.009516225196421146, -0.0023047016002237797, -0.020337868481874466, -0.029970435425639153, 0.01803794503211975, 0.01192760095000267, 0.020703546702861786, 0.026134483516216278, -0.006252726074308157, 0.032567981630563736, 0.020214760676026344, -0.025504274293780327, -0.022062940523028374, 0.004091356415301561, 0.035468053072690964, 0.023632077500224113, 0.004067602101713419, -0.02275208942592144, 0.008157890290021896, -0.022464986890554428, -0.0005519308615475893, -0.01020065974444151, -0.03230789676308632, 0.005963340867310762, 0.004311506170779467, -0.018912844359874725, 0.03331844136118889, 0.025604750961065292, -0.006791881285607815, -0.02514759823679924, 0.015360930003225803, -0.0052489941008389, -0.030094387009739876, 0.00682241702452302, 0.030476126819849014, -0.005769690498709679, -0.01812266930937767, -0.028514424338936806, -0.007703561335802078, 0.029790783300995827, -0.026391921564936638, 0.02050144411623478, -0.030314253643155098, 0.03510070964694023, -0.00331272860057652, 0.026413969695568085, -0.00464811222627759, -0.018871599808335304, -0.017627619206905365, -0.01654028333723545, -0.00934803206473589, 0.012477746233344078, -0.010061324574053288, -0.008995088748633862, -0.013919726014137268, 0.0032192280050367117, -0.019582824781537056, -0.015356323681771755, -0.027218973264098167, -0.021314935758709908, -0.028891606256365776, -0.03441554680466652, 0.0343211404979229, 0.007170998025685549, 0.03451114520430565, 0.016360994428396225, -0.034329380840063095, 0.021782400086522102, 0.010051727294921875, -0.030508317053318024, 0.01578066125512123, -0.01946888118982315, -0.025324616581201553, -0.031089983880519867, 0.029428161680698395, -0.03413332626223564, 0.021397314965724945, 0.006988603621721268, 0.019811170175671577, 0.018517164513468742, 0.027126580476760864, -0.005804148036986589, -0.012372815981507301, 0.033575333654880524, 0.01475362479686737, -0.021489301696419716, -0.03166203945875168, -0.033110566437244415, 0.007921651937067509, -0.021673787385225296, -0.021415309980511665, -0.027255237102508545, -0.014359003864228725, 0.029148630797863007, -0.02013586461544037, -0.0006920031155459583, 0.019442709162831306, 0.009905596263706684, -0.024522677063941956, 0.011553054675459862, -0.025149619206786156, -0.000512541679199785, 0.008590866811573505, -0.0004914365708827972, -0.03147568553686142, -0.020804809406399727, -0.028913671150803566, -0.0066446526907384396, 0.024404261261224747, -0.02782294899225235, 0.0014384282985702157, 0.006565906573086977, 0.006225869059562683, 0.033515144139528275, -0.031174829229712486, 0.01832740008831024, -0.001331582316197455, 0.035711415112018585, 0.011130653321743011, 0.00800651591271162, -0.016947917640209198, -0.0032536464277654886, 0.03013114631175995, -0.027467571198940277, -0.003479297971352935, -0.02368849329650402, 0.0024313724134117365, 0.003283420344814658, -0.02682901732623577, -0.043994687497615814, -0.04001445323228836, -0.04127577319741249, -0.02449178695678711, -0.02336660400032997, 0.02668517827987671, -0.02028987742960453, 0.001864314777776599, 0.006699210498481989, 0.017850587144494057, -0.021187035366892815, -0.028663234785199165, -0.025358151644468307, -0.002592756412923336, -0.006965578068047762, 0.0032571081537753344, 0.0017086403677240014, -0.03260553628206253, 0.021212318912148476, 0.0062383380718529224, -0.03408614173531532, -0.011241916567087173, -0.01437687873840332, 0.027398360893130302, 0.0020174274686723948, -0.035048097372055054, -0.00026785480440594256, -0.0314386747777462, 0.015076830051839352, 0.006355975288897753, -0.0044251419603824615, 0.017237728461623192, 0.006625141482800245, 0.012169473804533482, 0.01618264988064766, -0.024549439549446106, -0.036473214626312256, -0.005380903370678425, -0.02591598965227604, -0.030699357390403748, 0.0005798848578706384, 0.010369820520281792, -0.0006899067084304988, -0.008037813007831573, 0.008509143255650997, -0.012887824326753616, -0.025695085525512695, 0.019374582916498184, 0.007346129976212978, -0.031590137630701065, -0.03488298878073692, 0.027596568688750267, -0.03179054334759712, -0.002581989858299494, -0.02255159802734852, -0.032334063202142715, -0.03373398631811142, 0.004504867363721132, 0.022337589412927628, -0.01241118460893631, -0.02048466168344021, -0.00589981023222208, 0.006122273858636618, 0.004420436453074217, 0.011715752072632313, 0.026954032480716705, -0.035657916218042374, -0.034912511706352234, 0.015601279214024544, -0.009873757138848305, -0.016830051317811012, -0.010582955554127693, -0.007772254757583141, -0.010183163918554783, -0.02014516294002533, 0.018326256424188614, 0.02698623575270176, -0.009595196694135666, -0.010459892451763153, 0.0015121069736778736, -0.022637097164988518, -0.015050085261464119, 0.0023916135542094707, 0.007234462536871433, -0.009634005837142467, -0.029877856373786926, -0.019350245594978333, 0.037396229803562164, 0.01335503812879324, -0.010635360144078732, 0.030066385865211487, -0.005880208685994148, -0.034765906631946564, 0.007376361172646284, 0.00989084504544735, -0.026351185515522957, -0.02592042088508606, 0.013414577580988407, -0.033186424523591995, 0.009823454543948174, 0.020177148282527924, -0.010031376034021378, 0.022167395800352097, 0.013322337530553341, 0.023569172248244286, 0.02178693562746048, 0.03296445310115814, -0.0005440630484372377, 0.014197900891304016, -0.03652992099523544, 0.020987048745155334, 0.0022458103485405445, -0.008583012968301773, 0.01894698292016983, 0.014951729215681553, -0.008406883105635643, 0.034713320434093475, 0.04175011068582535, -0.0033959525171667337, -0.029975101351737976, 0.0026551405899226665, -0.012747183442115784, 0.021826246753335, -0.034763991832733154, 0.03192172199487686, -0.02239537611603737, 0.021272413432598114, 0.01274761650711298, -0.004741061944514513, 0.006185880862176418, -0.00767616368830204, 0.028570467606186867, -0.028477752581238747, -0.017664872109889984, 0.017767295241355896, -0.02406696230173111, -0.030735693871974945, -0.03572354465723038, -0.005339614115655422, -0.01294979639351368, -0.0227256678044796, -0.015008307062089443, -0.010655713267624378, 0.02611985243856907, 0.02007885091006756, -0.018522286787629128, 0.013868192210793495, 0.009947210550308228, -0.039773229509592056, 0.011627028696238995, 0.011932743713259697, 0.005734137259423733, -0.010938484221696854, 0.007886504754424095, 0.033621616661548615, 0.026683954522013664, -0.007364243734627962, 0.013724898919463158, 0.03081362321972847, -0.02422383241355419, 0.021956128999590874, -0.0011424863478168845, -0.0039605204947292805, -0.03852223604917526, 0.021358057856559753, -0.012930999509990215, -0.018398549407720566, 0.005058574955910444, 0.01131746731698513, 0.04955373704433441, 0.05442185699939728, 0.004639681428670883, -0.021166427060961723, -0.02644670009613037, -0.014332045800983906, -0.03126128390431404, -0.025485502555966377, -0.010458105243742466, -0.023688092827796936, 0.027917971834540367, -0.0011976690730080009, 0.024039769545197487, -0.026175299659371376, 0.022456111386418343, 0.02149183675646782, -0.0017301258631050587, 0.030947484076023102, -0.019762327894568443, -0.041697368025779724, 0.002965753898024559, -0.0020190624054521322, -0.023185165598988533, 0.008752943947911263, 0.017945704981684685, -0.013987287878990173, 0.042857006192207336, 0.007532073184847832, 0.03529364988207817, -0.01794765144586563, -0.003230010624974966, 0.04130326583981514, -0.002684486098587513, -0.03517990931868553, 0.015612765215337276, -0.033212244510650635, -0.04109741002321243, -0.034166134893894196, 0.01710829697549343, -0.028683006763458252, -0.009986234828829765, 0.02741812728345394, 0.024745335802435875, 0.031390298157930374, 0.0008557052933610976, -0.007794555742293596, 0.014463694766163826, -0.018292371183633804, -0.002185916993767023, -0.03103557787835598, -0.04572950303554535, -0.002745141973719001, -0.005472004879266024, 0.004165406338870525, -0.012928585521876812, 0.04974615201354027, 0.02841893956065178, -0.018508294597268105, 0.04125045984983444, 0.03644578158855438, -0.0006261786329559982, -0.0028137299232184887, 0.005148758180439472, -0.020644092932343483, -0.03366382420063019, 0.003707997966557741, 0.006696942262351513, 0.03426424786448479, 0.025982653722167015, -0.0242304727435112, 0.022627169266343117, 0.02626420184969902, 0.005198307801038027, 0.010515888221561909, 0.01996147260069847, -0.04204787313938141, -0.0198077205568552, 0.005129298660904169, -0.03471517562866211, -0.016088681295514107, -0.004075236152857542, -0.014622463844716549, 0.03990226238965988, -0.018090251833200455, -0.010621689260005951, 0.020839005708694458, 0.0240635983645916, -0.03501100093126297, 0.005528975743800402, -0.00520732905715704, -0.0005543839070014656, 0.02138391323387623, -0.02759052999317646, 0.00035917520290240645, -0.0027298748027533293, -0.03250402957201004, 0.011651206761598587, -0.0059608821757137775, 0.008341369219124317, 0.008084049448370934, -0.024911457672715187, 0.02023952268064022, -0.01026147324591875, -0.019331669434905052, -0.0055073900148272514, -0.02836846001446247, 0.020504523068666458, 0.029481610283255577, -0.009392124600708485, 0.03260284289717674, 0.0020937235094606876, 0.016803579404950142, 0.04451568052172661, -0.025453729555010796, -0.029600676149129868, -0.006232622545212507, -0.03994188830256462, -0.03869984298944473, -0.03758659213781357, -0.034077249467372894, 0.030066050589084625, -0.0283516775816679, -0.0175662562251091, -0.0006983575294725597, -0.02292262203991413, 0.024798117578029633, -0.012253264896571636, 0.004853381309658289, -0.021466419100761414, 0.030854636803269386, 0.00010915767052210867, 0.01615091972053051, -0.03886852785944939, 2.331921859877184e-05, -0.004490358754992485, 0.012964408844709396, -0.02170369029045105, 0.035025354474782944, 0.03750988468527794, 0.038856036961078644, -0.003268843749538064, -0.023216918110847473, 0.020707715302705765, -0.025219371542334557, -0.031235016882419586, -0.037375617772340775, -0.041072167456150055, 0.02156698703765869, 0.008574857376515865, -0.002499440684914589, 0.03361959382891655, 0.005313224624842405, 0.01744730770587921, 0.028166422620415688, 0.008851295337080956, -0.012562312185764313, -0.0008198762661777437, -0.017175156623125076, 0.004439834505319595, -0.03235703706741333, -0.02098231203854084, -0.005990458652377129, 0.005783820990473032, -0.0032812231220304966, 0.03624066337943077, 0.03664470091462135, 0.02568317949771881, 0.04473529011011124, -0.020868178457021713, -0.011191250756382942, 0.026794789358973503, -0.018958553671836853, -0.01986525021493435, 0.018091237172484398, 0.01925080642104149, -0.03433585539460182, 0.02641819417476654, -0.02185462974011898, 0.03126043453812599, -0.027408698573708534, -0.01794539764523506, -0.015085497871041298, 0.005272092297673225, -0.034393560141325, -0.029982689768075943, -0.009752155281603336, -0.012906859628856182, -0.024250363931059837, 0.009630907326936722, -0.02992144227027893, -0.012209397740662098, 0.013234719634056091, 0.012301858514547348, 0.016574295237660408, 0.02661019377410412, 0.006748218089342117, 0.015510167926549911, -0.025552988052368164, -0.03471364080905914, -0.047476284205913544, -0.009281323291361332, -0.03381222113966942, -0.028177889063954353, -0.020541174337267876, 0.01226293295621872, 0.011529878713190556, 0.001060279319062829, 0.0178361963480711, 0.033549387007951736, 0.00630423566326499, -0.013464697636663914, -0.01668018288910389, 0.01795695163309574, -0.02989945560693741, 0.01080434862524271, -0.017500439658761024, -0.01878073439002037, -0.022975275292992592, -0.009177137166261673, -0.0007441272027790546, 0.008054487407207489, 0.00045916918315924704, -0.0303603895008564, 0.003929181024432182, -0.017146412283182144, 0.001562926801852882, 0.006171477492898703, 0.0016124946996569633, 0.004810874350368977, -0.0339338593184948, 0.017338324338197708, -0.02031642571091652, 0.02741892822086811, -0.013081296347081661, 0.0013852673582732677, 0.00261112442240119, -0.0032742838375270367, -0.010060491040349007, -0.021406855434179306, 0.007701364811509848, 0.0272146537899971, -0.009379946626722813, 0.021909059956669807, 0.012987998314201832, 0.02719532698392868, 0.024218549951910973, -0.015640711411833763, 0.011534801684319973, -0.02237221971154213, 0.024930251762270927, 0.0026257468853145838, 0.0075471000745892525, -0.015327881090342999, 0.01277129352092743, -0.030535319820046425, 0.01869434304535389, -0.03694743290543556, -0.023815082386136055, -0.025101931765675545, 0.02259964682161808, 0.01857348531484604, 0.009781183674931526, 0.024231327697634697, -0.025750089436769485, 0.008661274798214436, 0.02375304140150547, 0.024681895971298218, 0.006257364526391029, 0.01745752803981304, 0.022133074700832367, -0.025909900665283203, 0.0021253968589007854, -0.024182109162211418, -0.028566397726535797, -0.010108942165970802, -0.008517357520759106, -0.03318183124065399, -0.035113751888275146, -0.04926648363471031, -0.04372604936361313, -0.018446749076247215, 0.009076735936105251, -0.01111347321420908, -0.030033083632588387, -0.0012149777030572295, -0.001349761849269271, -0.010853176936507225, -0.024579230695962906, -0.02388676442205906, 0.03656177595257759, -0.022982478141784668, -0.02380048856139183, 0.011906672269105911, 0.022780509665608406, 0.01213793270289898, -0.01676197350025177, 0.01129513792693615, -0.014552473090589046, 0.029651304706931114, -0.016357067972421646, 0.036161307245492935, 0.0050042904913425446, 0.007651617284864187, 0.0004967519198544323, 0.03352415934205055, -0.010549325495958328, -0.03034418635070324, 0.023481132462620735, 0.029274657368659973, 0.005972566548734903, 0.019960539415478706, 0.0039400821551680565, 0.00904110912233591, 0.026045294478535652, -0.035225361585617065, 0.013500869274139404, 0.0327281653881073, 0.00738449627533555, -0.026631731539964676, -0.028671639040112495, 0.024219635874032974, -0.01607944816350937, -0.0015920390142127872, -0.025481130927801132, 0.002334164222702384, 0.033305734395980835, -0.03036334179341793, -0.0030341162346303463, -0.015657929703593254, 0.007577056530863047, -0.026956554502248764, -0.010353791527450085, -0.01364180538803339, -0.005388414021581411, -0.023747192695736885, -0.012646152637898922, -0.004594513215124607, 0.005000028293579817, -0.01666051335632801, 0.026929058134555817, -0.021573791280388832, -0.007669440936297178, -0.00177684985101223, 0.03491101413965225, -0.026273265480995178, -0.005987852346152067, 0.02099527046084404, 0.019871696829795837, 0.03615040332078934, 0.0147706875577569, 0.001680987305007875, 0.030297400429844856, -0.02338981255888939, 0.01936453953385353, 0.0031614890322089195, 0.013468100689351559, 0.0362817719578743, -0.02958635613322258, -0.026465607807040215, -0.026705780997872353, -0.0007499914499931037, -0.007807127665728331, 0.018711239099502563, -0.0038283872418105602, -0.01971726305782795, 0.0347803570330143, -0.005271835718303919, 0.012042108923196793, 0.01982985809445381, 0.02575398050248623, -0.01916857250034809, -0.011831337586045265, -0.020839693024754524, 0.003018275834619999, 0.029924215748906136, -0.019098151475191116, -0.026789015159010887, 0.03137997165322304, 0.02211427502334118, 0.006453323177993298, 0.009829976595938206, 0.002474319189786911, 0.035167988389730453, 0.024148816242814064, 0.024627670645713806, -0.02853749319911003, 0.01495417021214962, -0.01974399760365486, 0.01933395490050316, -0.022690530866384506, 0.018209801986813545, -0.017199892550706863, 0.029781008139252663, 0.011116964742541313, 0.01792866364121437, -0.01619781367480755, 0.005584722384810448, 0.016942676156759262, -0.02444380149245262, 0.013646232895553112, -0.0038380802143365145, -0.027396390214562416, -0.032843217253685, -0.008065534755587578, -0.001822975231334567, 0.012413781136274338], [0.027232911437749863, -0.028589079156517982, 0.006394163239747286, -0.012605581432580948, -0.02724112756550312, 0.017681226134300232, -0.03163808211684227, 0.018283290788531303, -0.030914805829524994, 0.028476450592279434, -0.0011977937538176775, 0.00904944259673357, -0.00044382381020113826, 0.008695925585925579, -0.034417133778333664, 0.02288091741502285, 0.010877645574510098, -0.008591996505856514, 0.008912601508200169, 0.006935372948646545, 0.0026306447107344866, 0.03306743502616882, 0.025650424882769585, -0.009484677575528622, -0.01734631322324276, 0.022695392370224, -0.004762107972055674, 0.028901999816298485, 0.012473701499402523, 0.009214247576892376, 0.006160259712487459, -0.0008024225244298577, 0.016650058329105377, -0.023414136841893196, -0.009916828945279121, -0.024903519079089165, -0.015723301097750664, 0.018611403182148933, -0.032728563994169235, 0.03199135139584541, 0.020992431789636612, -0.012935382314026356, -0.026885053142905235, -0.015699071809649467, -0.01882140338420868, 0.021188197657465935, 0.008146722801029682, -0.027506694197654724, 0.016298353672027588, -0.013760235160589218, 0.029030397534370422, 0.0025227556470781565, -0.008761725388467312, 0.033960971981287, 0.029840640723705292, 0.029814379289746284, -0.009859600104391575, -0.029457150027155876, -0.0039051712956279516, 0.009988936595618725, 0.005543612875044346, 0.03456669673323631, 0.028633464127779007, -0.02554805763065815, 0.036302126944065094, -0.025289976969361305, 0.010570628568530083, -0.0011714162537828088, 0.01788143813610077, -0.031226858496665955, -0.03241227939724922, -0.007763795554637909, 0.013021505437791348, 0.024595677852630615, -0.026014288887381554, 0.034562937915325165, -0.0027887290343642235, -0.0036790878511965275, -0.019345678389072418, 0.03462493047118187, 0.004082870204001665, -0.02766326256096363, 0.02112457901239395, 0.02382497303187847, -0.02113409899175167, 0.0019918016623705626, -0.013687552884221077, 0.028257761150598526, -0.01659952662885189, -0.0014802220975980163, 0.007242002058774233, -0.005622401367872953, -0.005705372430384159, -0.030718861147761345, -0.008292562328279018, 0.014685327187180519, 0.03361121937632561, 0.00943345483392477, 0.03580942749977112, -0.02696356549859047, 0.015859119594097137, 0.022252731025218964, -0.0235369261354208, 0.0357736311852932, -0.007455207873135805, -0.02977675572037697, 0.001906817895360291, 0.01774534024298191, 0.0320611335337162, -0.028876181691884995, 0.011927197687327862, 0.014887220226228237, 0.0327327623963356, -0.0026747717056423426, 0.007049439940601587, 0.026907624676823616, -0.005036569200456142, -0.027943948283791542, -0.022361429408192635, 0.010546056553721428, -0.004057214595377445, -0.011969986371695995, 0.017641665413975716, -0.010762160643935204, -0.028996100649237633, 0.013489069417119026, 0.028680646792054176, 0.013021498918533325, -0.014823053032159805, 0.011293916031718254, 0.01886819675564766, 0.0027630506083369255, -0.0002768459962680936, 0.009876664727926254, -0.01422076765447855, -0.014267190359532833, 0.010889447294175625, -0.03159814327955246, -0.011830844916403294, -0.018585341051220894, 0.03001030534505844, 0.029702825471758842, -0.020661797374486923, -0.012159787118434906, 0.02139524556696415, 0.028140561655163765, -0.0028204123955219984, 0.03133373335003853, 0.01843639276921749, -0.03215969353914261, -0.021605730056762695, -0.00957293901592493, -0.03521183133125305, 0.021108822897076607, 0.02885124273598194, -0.020336907356977463, 0.0313478522002697, -0.013890452682971954, -0.005649922415614128, 0.012788988649845123, -0.018186472356319427, 0.005035180598497391, 0.01224913913756609, -0.007589004468172789, 0.005054162349551916, -0.01536959782242775, -0.01695161871612072, 0.01483082678169012, -0.016039011999964714, 0.01614942029118538, 0.02900826744735241, -0.023259829729795456, -0.012007923796772957, -0.0005028849118389189, -0.022212691605091095, -0.011399130336940289, 0.024041613563895226, -0.018981201574206352, 0.010303552262485027, -0.033629160374403, -0.024243831634521484, 0.03317011520266533, -0.009446628391742706, -0.024147262796759605, -0.029393348842859268, -0.023657288402318954, -0.010014902800321579, -0.008579257875680923, -0.014649742282927036, 0.013759240508079529, 5.574154056375846e-05, -0.023378845304250717, 0.011111370287835598, 0.014611146412789822, -0.0238273236900568, -0.016845235601067543, -0.028639446943998337, 0.009965116158127785, -0.02662704326212406, -0.01590154506266117, -0.0009553360869176686, 0.021476104855537415, 0.0012819834519177675, -0.04364905133843422, -0.016091996803879738, -0.00756272254511714, 0.031158460304141045, 0.00413855817168951, -0.014374678023159504, -0.021801363676786423, -0.006490024738013744, 0.021996600553393364, -0.028190651908516884, 0.03274106979370117, -0.0070886448957026005, -0.011942610144615173, -0.01988322101533413, 0.031589191406965256, 0.0016563512617722154, 0.03292664885520935, -0.019746584817767143, 0.02982582524418831, 0.026029162108898163, 0.03677814081311226, 0.003941947594285011, -0.007861481979489326, -0.014759750105440617, 0.02091257832944393, -0.004896444268524647, 0.009003418497741222, -0.03187990561127663, -0.04416007548570633, -0.004570493008941412, 0.002483550226315856, 0.02137291617691517, 0.01887671649456024, -0.036617211997509, 0.025280730798840523, -0.031399257481098175, 0.003105117939412594, -0.0339525043964386, -0.018022213131189346, -0.03863484784960747, -0.0007915723253972828, -0.018785858526825905, -0.027320221066474915, -0.021287666633725166, 0.00793889444321394, 0.016077127307653427, 0.022923672571778297, 0.016238369047641754, -0.022689294070005417, -0.013933026231825352, 0.027292612940073013, -0.00035055619082413614, 0.0249984972178936, 0.012593727558851242, -0.0016034076688811183, 0.020686574280261993, -0.00027781931567005813, -0.011556750163435936, -0.009970753453671932, -0.02420942857861519, 0.03038194589316845, -0.007390856277197599, -0.021179625764489174, -0.04005848616361618, 0.02271505817770958, -0.017191309481859207, -0.03128257766366005, -0.000304904009681195, -0.03722231835126877, -0.028186652809381485, 0.010924451053142548, 0.0332164391875267, -0.025929471477866173, 0.034941937774419785, -0.002340030623599887, 0.008517892099916935, 0.021014465019106865, -0.007447198033332825, 0.023893611505627632, 0.0365353599190712, -0.027379831299185753, -0.007611408364027739, 0.00888779666274786, 0.009399814531207085, -0.0069692544639110565, 0.02221313677728176, 0.032153379172086716, 0.027191830798983574, 0.03005029447376728, -0.0006258453940972686, -0.029648667201399803, -0.038254331797361374, -0.005610479041934013, 0.0076192766427993774, -0.009968160651624203, -0.02195805311203003, -0.019371531903743744, -0.002890875330194831, 0.031312089413404465, 0.013877401128411293, 0.02178591676056385, -0.020757218822836876, 0.008697385899722576, 0.014881848357617855, -0.0110622001811862, 0.005933365318924189, 0.0074567366391420364, -0.02709558792412281, -0.018797868862748146, 0.028785457834601402, -0.020655905827879906, 0.025577928870916367, 0.009301891550421715, 0.03249548375606537, 0.030841222032904625, 0.036360181868076324, -0.011257818900048733, -0.003514013020321727, -0.03223657235503197, -0.001941227470524609, -0.03953311964869499, 0.014497319236397743, 0.004377624485641718, 0.02420363388955593, -0.013121143914759159, -0.01359645090997219, 0.035407181829214096, -0.02183070406317711, -0.007071156054735184, -0.007869608700275421, -0.030436469241976738, -0.032662440091371536, -0.024655312299728394, -0.0040384698659181595, -0.02591787464916706, -0.0022581948433071375, 0.020417964085936546, -0.026363523676991463, -0.02432055026292801, 0.008826865814626217, -0.009641190059483051, -0.0049637374468147755, -0.013648093678057194, -0.021783197298645973, -0.010202479548752308, -0.03344276547431946, 0.007012245710939169, 0.012513295747339725, -0.013017259538173676, -0.02043180912733078, -8.810588769847527e-05, -0.036461424082517624, 0.01522205863147974, 0.009798859246075153, -0.004628443159162998, -0.016340963542461395, 0.001409029820933938, 0.022843273356556892, -0.005078699439764023, 0.012167596258223057, -0.01203149650245905, 0.0367007777094841, 0.026424044743180275, -0.015219074673950672, 0.027767613530158997, -0.02377890981733799, 0.030695870518684387, 0.028726179152727127, -0.0220952108502388, 0.003359148744493723, 0.017598947510123253, -0.011325894854962826, -0.016980601474642754, -0.044164787977933884, -0.0408284068107605, -0.021526576951146126, -0.03370184078812599, -0.028142577037215233, 0.009914649650454521, -0.030481595546007156, 0.014760322868824005, 0.022847725078463554, 0.00989433005452156, -0.0029975196812301874, -0.0022650491446256638, 0.03185746446251869, 0.030358929187059402, 0.015374957583844662, 0.03244577348232269, 0.017143264412879944, 0.034923892468214035, -0.031759560108184814, -0.021909844130277634, -0.013865065760910511, 0.005057239439338446, -0.004694564733654261, 0.0383780300617218, -0.021152248606085777, -0.02053581364452839, 0.017813436686992645, 0.01487721037119627, -0.012079424224793911, -0.035428233444690704, 0.0019399765878915787, -0.02914583683013916, -0.04216723516583443, 6.37697521597147e-05, 0.024381423369050026, 0.006191338412463665, -0.02551724575459957, 0.011142147704958916, 0.004656958393752575, 0.007425522431731224, 0.03473365679383278, 0.024293046444654465, -0.0089353546500206, 0.015160725452005863, -0.006367236841470003, -0.030199110507965088, -0.012232864275574684, 0.007767412345856428, 0.019843686372041702, 0.00122732762247324, -0.004928805865347385, -0.0032733308617025614, -0.009642072021961212, -0.02173958718776703, 0.009388688020408154, -0.013908574357628822, -0.030553322285413742, 0.01609536074101925, 0.011249005794525146, 0.000366128864698112, 0.02395002357661724, -0.027505213394761086, -0.01839325577020645, -0.019171465188264847, -0.008083044551312923, -0.0153165552765131, 0.01584434136748314, -0.027267765253782272, -0.006451874040067196, 0.0272480808198452, -0.013955092057585716, -0.01792779751121998, -0.03132958710193634, -0.017945831641554832, 0.017242563888430595, -0.018177689984440804, 0.015624002553522587, 0.009163296781480312, -0.0026540327817201614, 0.0059992545284330845, 0.03223728761076927, -0.004522145725786686, 0.02184508927166462, 0.021570678800344467, -0.0033539331052452326, -0.027941856533288956, 0.03555350378155708, 0.003707197727635503, -0.02809855155646801, -0.005912642925977707, -0.0055780294351279736, -0.034298162907361984, -0.040709689259529114, 0.009297547861933708, 0.00555666396394372, -0.016727125272154808, 0.03396119922399521, -0.009962675161659718, 0.009422813542187214, 0.0034454732667654753, -0.018447525799274445, 0.025750096887350082, 0.013702822849154472, -0.03335665911436081, 0.03134302422404289, -0.019027791917324066, 0.037794481962919235, -0.02055051364004612, 0.017605802044272423, 0.0037672058679163456, -0.017170263454318047, 0.015183677896857262, 0.030896563082933426, -0.005261126905679703, 0.03913550823926926, -0.012574383988976479, -0.01052462961524725, 0.025583617389202118, -0.02182837948203087, -0.03537529334425926, -0.018812144175171852, -0.007041262928396463, 0.022929534316062927, -0.016223298385739326, 0.028981875628232956, -0.010954141616821289, -0.0016185275744646788, -0.024597210809588432, -0.029080558568239212, 0.0028951058629900217, -0.02956276386976242, 0.03508153185248375, 0.022698022425174713, 0.009409776888787746, -0.002491807797923684, -0.015128066763281822, -0.01439062599092722, -0.0029295245185494423, -0.01233229972422123, -0.002393875038251281, 0.036037225276231766, -0.018655849620699883, 0.028479764237999916, -0.02012072317302227, -0.015622388571500778, 0.01813001185655594, -0.000353516690665856, -0.03615161404013634, 0.0015270865987986326, -0.007069118320941925, -0.006758154835551977, -0.005732819437980652, 0.00394595880061388, -0.018293902277946472, 0.03510742262005806, 0.0005897291703149676, 0.011996871791779995, 0.00039084424497559667, -0.025024769827723503, 0.020112929865717888, 0.012945565395057201, 0.02738356404006481, 0.02313428930938244, -0.0077525535598397255, -0.014236502349376678, 0.0041031199507415295, 0.00829733069986105, -0.012065938673913479, 0.04500637948513031, 0.005028042942285538, 0.041403863579034805, -0.007432951126247644, 0.01549626886844635, 0.013976473361253738, -0.016956916078925133, -0.04953461512923241, -0.043594613671302795, -0.00046912350808270276, 0.0042162868194282055, 0.01885879598557949, 0.03838856890797615, 0.005603434052318335, 0.02244611270725727, -0.014691011048853397, 0.026429636403918266, -0.003286907449364662, -0.03357500582933426, -0.03461451455950737, 0.008417385630309582, -0.017213968560099602, -0.028824513778090477, 0.0015149187529459596, 0.024060415104031563, -0.018083978444337845, 0.015292394906282425, -0.0037782578729093075, 0.022092770785093307, 0.007228003349155188, -0.029717840254306793, 0.02878371812403202, -0.0024740302469581366, -0.035683561116456985, -0.05320421978831291, 0.009187331423163414, -0.005310270003974438, 0.0061766235157847404, 0.01005035825073719, 0.04085133597254753, -0.008670976385474205, -0.027982644736766815, -0.016961490735411644, -0.033347174525260925, -0.029872899875044823, 0.017033923417329788, -0.026326630264520645, -0.011945368722081184, 0.0225964467972517, 0.0185483880341053, -0.011409016326069832, -0.014692449010908604, -0.00014201135491020977, -0.013180592097342014, -0.007960550487041473, 0.0025712300557643175, 0.0036544334143400192, 0.013600273057818413, -0.020400555804371834, -0.030319254845380783, 0.006416143849492073, -0.040048349648714066, 0.014758181758224964, -0.005826120264828205, -0.020472483709454536, 0.04037362337112427, -0.02189597114920616, 0.029585277661681175, -0.0299033485352993, -0.006239038426429033, 0.036051299422979355, -0.00784180499613285, 0.022868992760777473, -0.031713780015707016, 0.009759996086359024, -0.0023518018424510956, -0.02984716184437275, -0.019202636554837227, 0.012175526469945908, -0.027489356696605682, -0.00019528240954969078, 0.0004456918977666646, -0.003999680280685425, 0.020320149138569832, 0.0311022587120533, 0.023092301562428474, -0.0292272437363863, -0.03262739256024361, -0.01516060158610344, 0.02703205868601799, -0.03713034465909004, -0.02068164385855198, 0.03064027614891529, -0.018909946084022522, -0.03024318628013134, -0.01002969779074192, 0.004990058019757271, 0.032900236546993256, 0.018109561875462532, -0.0015637953765690327, -0.030118031427264214, 0.00275153829716146, -0.023466486483812332, -0.02549663558602333, -0.03271356597542763, 0.00984524842351675, 0.015379609540104866, -0.021246585994958878, 0.01281579490751028, 0.01995387300848961, -0.0133194075897336, 0.028703071177005768, 0.014044374227523804, -0.029357528313994408, -0.02910689450800419, -0.02504630759358406, -0.0038516640197485685, -0.01835535652935505, -0.024791209027171135, 0.02981593646109104, 0.0003796221863012761, 0.033585138618946075, 0.013075247406959534, -0.028070557862520218, 0.026448087766766548, -0.02293417975306511, -0.030526617541909218, -0.013826262205839157, -0.01634335331618786, 0.015471315011382103, 0.03203963860869408, -0.0009724427945911884, 0.023188866674900055, 0.007431465666741133, -0.03772394731640816, -0.023379547521471977, 0.002067198045551777, 0.026517026126384735, -0.008795585483312607, 0.011788604781031609, -0.0007195670041255653, -0.009866326116025448, 0.0062315198592841625, -0.021227138116955757, -0.03217189013957977, 0.025629347190260887, -0.0020745329093188047, 0.0018206710228696465, -0.02838558703660965, 0.014986301772296429, -0.0065840971656143665, -0.027250999584794044, -0.007041366305202246, -0.011212085373699665, -0.0013990235747769475, 0.017525868490338326, 0.015417702496051788, 0.010792168788611889, 0.027582524344325066, -0.03236306458711624, 0.0018789474852383137, -0.027788883075118065, -0.032518420368433, -0.016637751832604408, -0.03615536168217659, -0.003130036173388362, -0.017606914043426514, -0.009975219145417213, -0.006731500383466482, 2.6369967599748634e-05, -0.032900769263505936, -0.030766179785132408, 0.02656179666519165, -0.017675984650850296, 0.02831987850368023, 0.025904234498739243, 0.03333145007491112, 0.007887063547968864, 0.02501739002764225, -0.023476511240005493, -0.02824581041932106, 0.018139628693461418, -0.0010965841356664896, -0.012587900273501873, -0.006377446465194225, 0.03183300048112869, -0.012204821221530437, -0.022182239219546318, -0.011193281970918179, 0.027195243164896965, -0.033682793378829956, 0.030123615637421608, -0.02147197537124157, 0.001684602815657854, -0.002226083306595683, -0.025849593803286552, -0.00419397559016943, 0.016734175384044647, -0.019350890070199966, 0.0018684678943827748, -0.010932504199445248, -0.012197667732834816, 0.0118862334638834, 0.0037378731649369, 0.023643262684345245, -0.02518569491803646, 0.0319087840616703, 0.007122340612113476, 0.018442898988723755, -0.015575661323964596, -0.030723534524440765, 0.02819083072245121, 0.019742915406823158, 0.03214401379227638, 0.020930541679263115, -0.005169824697077274, 1.5165279592110892e-06, -0.03051007352769375, -0.015391119755804539, 0.003527658060193062, -0.008540806360542774, -0.010624215006828308, -0.007321570068597794, -0.028834598138928413, 0.014185525476932526, 0.0048125144094228745, 0.023126062005758286, -0.012924774549901485, 0.024324115365743637, 0.014166447333991528, 0.015447412617504597, 0.03140326589345932, 0.009156121872365475, -0.02584189362823963, -0.02556946873664856, 0.03570559620857239, -0.03329044207930565, -0.0010585261043161154, 0.005607535596936941, -0.008907136507332325], [-0.0035441184882074594, 0.021688837558031082, -0.026814764365553856, 0.0031713247299194336, 0.018218865618109703, -0.03138623386621475, -0.020633447915315628, -0.03332017734646797, 0.017974743619561195, 0.0031603712122887373, -0.002331214491277933, -0.023313991725444794, -0.024708854034543037, 0.007001225836575031, 0.019093776121735573, 0.007466582115739584, -0.017069850116968155, -0.02574252523481846, 0.018191907554864883, -0.009893545880913734, -0.019301872700452805, 0.015141507610678673, -0.004093187395483255, 0.023463601246476173, 0.02113799750804901, -0.03388971462845802, -0.01694731041789055, -0.015457980334758759, -0.01605217158794403, -0.025920957326889038, -0.007521640509366989, -0.018440477550029755, 0.030990948900580406, -0.011994944885373116, 0.021374570205807686, -0.03262138366699219, 0.01385574508458376, -0.0019956412725150585, -0.0189417265355587, -0.02265436202287674, 0.0007146780262701213, -0.03146837279200554, 0.02974635548889637, -0.00333734811283648, -0.012724034488201141, 0.01362023875117302, 0.0019205970456823707, -0.005844671744853258, 0.03385651111602783, 0.01686418615281582, 0.0003703314869198948, -0.028687696903944016, -0.006645682733505964, 0.002273314632475376, -0.008430707268416882, 0.02816036157310009, -0.01947932504117489, -0.005722608882933855, -0.008943327702581882, -0.0015558834420517087, 0.02099096029996872, 0.011416240595281124, -0.023110635578632355, 0.022639986127614975, 0.01274043694138527, 0.020975828170776367, 0.006909841205924749, 0.03053739108145237, -0.010714493691921234, -0.03165558725595474, -0.021246232092380524, -0.023591436445713043, -0.027362411841750145, 0.01966211386024952, 0.010571973398327827, 0.005520880222320557, -0.027491288259625435, -0.021791236475110054, 0.00520862964913249, 0.010905979201197624, 0.008202037774026394, 0.002108104294165969, 0.008190436288714409, -0.023456530645489693, -0.031677018851041794, 0.009546655230224133, 0.03262660652399063, 0.015581882558763027, -0.024925027042627335, -0.02067875675857067, 0.02576453611254692, 0.020544201135635376, -0.013085877522826195, 0.014376268722116947, -0.011466534808278084, 0.021013662219047546, 0.006020169239491224, -0.004212922416627407, -0.01914975978434086, 0.020216617733240128, -0.0383395180106163, -0.035391852259635925, 0.01608414016664028, -0.035993076860904694, 0.015627365559339523, -0.03083650954067707, -0.011266989633440971, -0.025513850152492523, 0.034816328436136246, -0.015913184732198715, -0.028337065130472183, 0.01407875120639801, 0.005424192640930414, 0.007759184576570988, -0.017558421939611435, 0.03480890765786171, 0.025465328246355057, -0.014176858589053154, 0.010163865983486176, -0.022975901141762733, -0.011858266778290272, 0.018975351005792618, -0.0177800003439188, 0.005927132908254862, -0.0031783543527126312, -0.015828197821974754, -0.007952037267386913, 0.02811526507139206, -0.019520029425621033, 0.01841137744486332, -0.023737259209156036, 0.010491554625332355, -0.007723493035882711, -0.02881852351129055, -0.023540839552879333, 0.0054174489341676235, 0.025605686008930206, 0.007920914329588413, -0.0013575974153354764, -0.001494046300649643, 0.02753656916320324, -0.0007837287266738713, -0.017314016819000244, -0.031380098313093185, 0.018515266478061676, -0.023767465725541115, 0.031215179711580276, 0.0049586850218474865, 0.010720387101173401, -0.02189852111041546, -0.019550835713744164, -0.018419655039906502, -0.03573543205857277, -0.018842970952391624, -0.011287660337984562, 0.029365120455622673, -0.014916954562067986, 0.020000698044896126, -0.01246058288961649, 0.0053817108273506165, 0.02468499168753624, -0.00619394239038229, -0.028922775760293007, 0.009399712085723877, 0.007528346497565508, 0.013707662001252174, 0.015598908998072147, -0.013161280192434788, 0.0003785677836276591, -0.0014428376452997327, 0.001829973654821515, 0.02477024309337139, -0.029462454840540886, 0.016953425481915474, 0.01146883424371481, 0.01895783096551895, -0.01493685320019722, 0.01036879699677229, 0.021628202870488167, -0.022851254791021347, -0.028636159375309944, 0.01879005692899227, 0.03670704364776611, -0.01503925584256649, -0.016003016382455826, 6.0600410506594926e-05, 0.02531209960579872, -0.026271717622876167, -0.007165203802287579, 0.007388978265225887, -0.012247140519320965, -0.013449965976178646, 0.02570098266005516, -0.03265083581209183, -0.012035760097205639, 0.008078444749116898, 0.03143467381596565, 0.020233651623129845, 0.004786244127899408, 0.032322466373443604, 0.03599146008491516, -0.005467806477099657, -0.027583833783864975, -0.026047777384519577, 0.03241850808262825, 0.01491477806121111, -0.035296935588121414, -0.02358241379261017, -0.026377854868769646, 0.005607407074421644, 0.004168586805462837, 0.02865002490580082, 0.0060743605718016624, 0.038407906889915466, -0.01498687919229269, 0.000787639815825969, 0.036548368632793427, 0.0192252304404974, -0.004716676194220781, 0.036577168852090836, -0.0032815556041896343, -0.03021477349102497, 0.02991226501762867, 0.008677071891725063, 0.02276790700852871, -0.028108056634664536, 0.026621386408805847, -0.009586242027580738, -0.015460231341421604, 0.031156260520219803, -0.023560572415590286, 0.02328462339937687, 0.03043578751385212, 0.008520320989191532, -0.024153854697942734, -0.023159435018897057, -0.03001508116722107, 0.014796681702136993, -0.013277760706841946, -0.0294965710490942, 0.027049046009778976, 0.01843605935573578, 0.04281999170780182, -0.008347741328179836, 0.037689417600631714, 0.005371037870645523, 0.03488868847489357, -0.0039239260368049145, -0.014804110862314701, -0.03219618648290634, 0.0030540823936462402, 0.03290767967700958, 0.013437226414680481, -0.002330036601051688, -0.015924880281090736, -0.005674462765455246, -0.02656589075922966, -0.013649281114339828, 0.030427252873778343, -0.02042761631309986, -0.03804415836930275, 0.018193667754530907, 0.014048612676560879, 0.0029011834412813187, -0.03216185420751572, 0.005365470889955759, 0.02565530128777027, -0.021316558122634888, -0.017896302044391632, 0.023383449763059616, -0.017741389572620392, 0.0029831156134605408, 0.01936991512775421, 0.014313126914203167, -0.0336746871471405, 0.013585308566689491, -0.02112751454114914, 0.010712087154388428, -0.010582977905869484, -0.02739410661160946, -0.030182313174009323, 0.03647388145327568, -0.00016854525892995298, -0.006079253274947405, -0.020886145532131195, 0.017317598685622215, -0.019123515114188194, -0.015448621474206448, -0.030664006248116493, -0.0003449911891948432, -0.042496148496866226, 0.011369846761226654, -0.004729378968477249, -0.04099755361676216, -0.03289579227566719, 0.0026878726202994585, -0.03224378824234009, -0.02808551676571369, -0.024938484653830528, -0.014627558179199696, -0.005915696267038584, -0.013978210277855396, 0.0203419029712677, -0.01014727633446455, 0.03243304044008255, -0.03482089191675186, -0.017039740458130836, -0.020452529191970825, 0.02840280719101429, 0.012867421843111515, -0.0031840268056839705, -0.001901947776786983, 0.0011297158198431134, 0.011063453741371632, -0.03468431159853935, -0.013431228697299957, 0.018587002530694008, -0.02601604536175728, -0.030856596305966377, 0.019964003935456276, -0.024334754794836044, 0.024845244362950325, 0.021342085674405098, 0.006039971020072699, -0.030999911949038506, 0.03088492527604103, -0.0009950402891263366, -0.0017017379868775606, -0.011669577099382877, 0.0012212382862344384, 0.008618258871138096, 0.029298564419150352, -0.027392186224460602, -0.027738522738218307, 0.029429668560624123, 0.022295888513326645, 0.03297601640224457, -0.02005144953727722, 0.022503312677145004, -0.022028723731637, 0.014346577227115631, 0.0034644415136426687, 0.016337981447577477, -0.02845892310142517, 0.005375945474952459, -0.021042875945568085, 0.024139966815710068, -0.027596937492489815, 0.009161077439785004, -0.006486407946795225, 0.03167309612035751, 0.025775225833058357, 0.021332193166017532, -0.026266979053616524, 0.018419377505779266, 0.0003757980011869222, 0.024358045309782028, 0.005658313632011414, 0.025774147361516953, 0.032332830131053925, 0.02724568545818329, -0.02652653306722641, -0.007249821908771992, -0.005683913826942444, -0.0003719727392308414, -0.017003674060106277, 0.0007629175088368356, 0.032022420316934586, 0.02772117219865322, 0.009053364396095276, -0.018942466005682945, -0.027132179588079453, -0.039218783378601074, -0.0006696939235553145, -0.006482701748609543, -0.01154813077300787, 0.0329807847738266, -0.028279932215809822, -0.029995037242770195, 0.03767971694469452, 0.015927443280816078, 0.0054627456702291965, -0.012118889018893242, 0.009536538273096085, -0.018135376274585724, -0.012630188837647438, 0.024041641503572464, 0.007756873499602079, 0.027349725365638733, 0.02909145876765251, 0.016251327469944954, -0.006194372661411762, -0.001945819123648107, 0.00994832906872034, 0.006510600913316011, 0.008123449049890041, 0.01444326713681221, -0.03179851174354553, -0.030788270756602287, -0.02934706211090088, -0.005346598569303751, -0.0407075472176075, -0.009968198835849762, -0.02763923443853855, 0.014295539818704128, 0.028439976274967194, -0.009775511920452118, -0.01362732332199812, 0.011328022927045822, -0.03021799959242344, -0.0037603601813316345, -0.016555238515138626, -0.026244085282087326, -0.012501358054578304, -0.02635626494884491, -0.020076019689440727, 0.008715242147445679, 0.030908804386854172, -0.033479709178209305, 0.018027951940894127, 0.012283788993954659, -0.0007126200944185257, 0.02072640135884285, 0.019789420068264008, 0.0075054531916975975, -0.02181767299771309, -0.02276420034468174, -0.011662711389362812, -0.026260383427143097, -0.026142125949263573, 0.010776523500680923, -0.016345301643013954, 0.020070746541023254, -0.0004910179413855076, 0.0239988062530756, -0.02519741840660572, -0.014744414947926998, -0.011994524858891964, -0.021769098937511444, 0.009075707755982876, -0.02908973954617977, -0.023870354518294334, 0.009459624998271465, 0.00227701966650784, 0.026434127241373062, -0.01926621049642563, -0.025093166157603264, 0.036429740488529205, 0.03597391024231911, 0.0031072725541889668, 0.015424482524394989, 0.03432063013315201, -0.006447972264140844, 0.038336943835020065, -0.002431177766993642, 0.020118942484259605, 0.01673220843076706, 0.03539193421602249, -0.02851100265979767, 0.02244749292731285, 0.02308005467057228, -0.02726656384766102, 0.014328747987747192, -0.0033887829631567, 0.028565263375639915, -0.011698978021740913, 0.010065133683383465, 0.012414979748427868, -0.0292388666421175, 0.026197265833616257, -0.026980584487318993, 0.015591277740895748, -0.028994601219892502, -0.021099545061588287, 0.032299723476171494, -0.010216609574854374, 0.007033141329884529, 0.018569741398096085, -0.00161136279348284, 0.014894803054630756, 0.025091050192713737, -0.024396641179919243, 0.01902220956981182, -0.001859655138105154, 0.014965200796723366, 0.0113603500649333, 0.032479092478752136, 0.015189561992883682, -0.017439840361475945, 0.003718291874974966, -0.017275746911764145, 0.0060605378821492195, 0.024270975962281227, 0.01020126324146986, -0.011173256672918797, 0.023852074518799782, 0.03160270303487778, -0.037910621613264084, -0.007402571849524975, 0.010677248239517212, -0.00970190204679966, -0.004710864741355181, -0.03038700297474861, 0.027344640344381332, -0.02549048326909542, -0.029706710949540138, 0.02230643294751644, -0.016333460807800293, 0.0368330255150795, 0.0014070586767047644, -0.031895894557237625, -0.003739953273907304, 0.01031779870390892, -0.025939149782061577, -0.021456537768244743, 0.011085287667810917, -0.03715832903981209, 0.001709909993223846, 0.02020244300365448, 0.011524937115609646, -0.029524635523557663, 0.015400176867842674, -0.00012188524851808324, -0.002804224146530032, 0.0060119167901575565, 0.0020125089213252068, 0.02649718150496483, 0.012929344549775124, 0.023746324703097343, 0.009563043713569641, 0.012361528351902962, 0.006155927199870348, 0.01702677458524704, -0.0038657360710203648, 0.02593171037733555, 0.01242173183709383, 0.03160397335886955, 0.02608770877122879, 0.031922295689582825, 0.030267246067523956, 0.004626431968063116, -0.022524593397974968, -0.0034332475624978542, -0.006451425142586231, -0.003946264274418354, -0.02436523512005806, -0.013008762151002884, 0.0023861941881477833, -0.0065941885113716125, 0.019751612097024918, 0.00806335173547268, 0.011647915467619896, -0.03574245423078537, 0.0045503233559429646, -0.038563478738069534, 0.0266948863863945, -0.033313509076833725, 0.0030981649179011583, 0.03008902259171009, 0.029880113899707794, -0.012160456739366055, 0.027768367901444435, -4.5862860133638605e-05, 0.027660731226205826, -0.015204195864498615, -0.030766291543841362, 0.013925766572356224, -0.001423529116436839, 0.013096967712044716, -0.00798503216356039, -0.03927234187722206, -0.009451443329453468, -0.011755288578569889, -0.02191823348402977, -0.007078169845044613, -0.051677968353033066, -0.029712582007050514, -0.02168583683669567, -0.005524598527699709, -0.015102829784154892, -0.0379163958132267, 0.010423555038869381, -0.017750611528754234, -0.016955960541963577, -0.022189727053046227, -0.03273293003439903, -0.003015605267137289, 0.005161200650036335, 0.009018823504447937, 0.027415571734309196, 0.00016522331861779094, 0.02070755697786808, 0.03136056661605835, -0.021979227662086487, -0.023867301642894745, -0.017789507284760475, 0.010227044112980366, -0.009718518704175949, -0.0003975746512878686, -0.045056525617837906, -0.03937235102057457, 0.010348016396164894, -0.03826801851391792, 0.00935477577149868, 0.021656032651662827, -0.019832327961921692, 0.005774707533419132, 0.013835317455232143, -0.028731569647789, -0.030991798266768456, 0.03239251673221588, 0.012480164878070354, -0.0013119737850502133, 0.035105783492326736, -0.011844933032989502, 0.006348087452352047, 0.03337819129228592, -0.031828779727220535, -0.02680565044283867, 0.022942978888750076, 0.010062464512884617, 0.008537852205336094, -0.006159966345876455, 0.0003508984809741378, -0.024158135056495667, -0.0020036057103425264, -0.0392957404255867, -0.030041836202144623, -0.02601173147559166, 0.012805831618607044, -0.02636852115392685, 0.028904400765895844, -0.027067333459854126, 0.015633992850780487, 0.002140931785106659, 0.02412635087966919, 0.018355052918195724, 0.013745306991040707, -0.029891151934862137, -0.008690417744219303, 0.008713409304618835, -0.003788246074691415, -0.0128482012078166, 0.014120427891612053, 0.02158959209918976, -0.011969429440796375, 0.006269871257245541, 0.00021518731955438852, 0.026384200900793076, -0.01741096004843712, -0.031269222497940063, 0.0009763870621100068, -0.006055938079953194, 0.0065865968354046345, 0.02334994450211525, -0.023337604478001595, -0.012378120794892311, 0.03403070941567421, -0.02801939658820629, 0.02097826451063156, 0.03849928081035614, -0.01790672354400158, 0.038991570472717285, -0.023702019825577736, -0.03041328489780426, -0.01951652392745018, 0.004828510340303183, -0.009064425714313984, -0.0033872746862471104, 0.031126555055379868, 0.011601349338889122, -0.017834298312664032, -0.01883399859070778, -0.028837498277425766, -0.010432836599647999, 0.03152274340391159, 0.03333796560764313, -0.033187706023454666, 0.023812467232346535, -0.02313627302646637, 0.031416330486536026, 0.012267066165804863, 0.02394852228462696, 0.012210553511977196, 0.017333056777715683, 0.015637435019016266, -0.010745042935013771, 0.022886842489242554, -0.017826374620199203, 0.005592425353825092, 0.013634503819048405, -0.02275877632200718, -0.008020690642297268, -0.013576935976743698, -0.029707027599215508, -0.0007740353466942906, 0.03701352700591087, 0.02001376263797283, 0.003161369590088725, 0.034048452973365784, 0.03268821910023689, -0.03284852206707001, 0.014335139654576778, 0.034381840378046036, -0.029064003378152847, 0.013915566727519035, 0.03359341248869896, -0.002879873849451542, 0.008412029594182968, -0.006714166142046452, -0.016543833538889885, 0.023722471669316292, -0.015241551212966442, -0.0014109775656834245, 0.004708892200142145, 0.006011961027979851, -0.030017031356692314, -0.032569896429777145, 0.014117020182311535, -0.014298377558588982, -0.02205115556716919, 0.00815297570079565, -0.020169515162706375, 0.02105187624692917, -0.008382901549339294, 0.00565877603366971, 0.006600969471037388, 0.034838199615478516, 0.020137954503297806, -0.03023100085556507, -0.027270007878541946, 0.00986458919942379, 0.027657706290483475, -0.009896140545606613, 0.03503812476992607, 0.010320230387151241, 0.0074445940554142, -0.002246241318061948, 0.00557672418653965, 0.013006165623664856, -0.026482220739126205, -0.015312598086893559, -0.010210922919213772, 0.019937638193368912, -0.009941767901182175, 8.842761599225923e-05, 0.03198346868157387, 0.03561951592564583, -0.019657358527183533, -0.0036181267350912094, -0.010642815381288528, -0.021056877449154854, 0.015460580587387085, 0.0231928788125515, -0.0122481444850564, 0.03551500290632248, 0.027992678806185722, 0.03684965521097183, -0.0024799632374197245, 0.028220023959875107, -0.00968716200441122, -0.02116674743592739, -0.013753443956375122, -0.032116495072841644, -0.008796806447207928, -0.01914115622639656, -0.020155664533376694, -0.01143321767449379, 0.031222354620695114, -0.0109486049041152, 0.012443765066564083, 0.007666465826332569, -0.03214418888092041, 0.006570972502231598, -0.024749668315052986, 0.0022894875146448612, 0.019961070269346237, -0.006649114191532135, -0.016939815133810043, -0.0016952392179518938, -0.020689615979790688, 0.030718736350536346, -0.0035412204451858997, -0.0055392091162502766], [0.02182712033390999, -0.02847975306212902, 0.007001475431025028, -0.017576245591044426, -0.015167773701250553, -0.008078912273049355, -0.012050061486661434, 0.010674186050891876, 0.01342743169516325, -0.010679119266569614, -0.029436277225613594, 0.016673477366566658, -0.023328879848122597, 0.03138861805200577, 0.03288859501481056, 0.02155662514269352, -0.028994429856538773, -0.02152935601770878, -0.03113527037203312, 0.00186947884503752, -0.005126817151904106, -0.020131664350628853, 0.012244191952049732, 0.0021518096327781677, 0.029361791908740997, -0.025003397837281227, -0.010717990808188915, 0.0032783919014036655, 0.02162868157029152, 0.0017600913997739553, -0.013349169865250587, 0.002649464877322316, 0.02656088024377823, 0.011338778771460056, 0.00916263461112976, 0.03291879594326019, 0.030052755028009415, 0.014462918043136597, 0.0009315229253843427, 0.020383087918162346, -0.014222581870853901, -0.03204680606722832, -0.007626179605722427, -0.018851984292268753, 0.01474318653345108, -0.032779477536678314, 0.031515806913375854, 0.018153609707951546, -0.016855154186487198, 0.03379489481449127, -6.119846511865035e-05, -0.03615792095661163, -0.01570579595863819, -0.010501646436750889, -0.023869847878813744, 0.03360063210129738, 0.009599379263818264, -0.009231951087713242, -0.014448367990553379, -0.023957384750247, -0.018848346546292305, -0.027241462841629982, 0.00939745083451271, 0.009927729144692421, -0.004492767620831728, 0.020869893953204155, 0.0033888339530676603, -0.03833340108394623, -0.0008049464086070657, 0.00016224526916630566, -0.011529491282999516, -0.006347757298499346, 0.022573266178369522, -0.02277306094765663, -0.015585353597998619, -0.035294923931360245, -0.020929500460624695, 0.01182276289910078, 0.02212510071694851, -0.012877173721790314, -0.014033323153853416, -0.008992546238005161, -0.00026114637148566544, -0.019092867150902748, 0.011414449661970139, -0.016614092513918877, -0.021166019141674042, -0.015099423006176949, 0.023665525019168854, 0.031718529760837555, -0.017211852595210075, -0.01567361131310463, 0.020015297457575798, 0.01834549382328987, 0.003983884584158659, 0.008654864504933357, -0.04396063834428787, 0.023779185488820076, 0.01969384215772152, -0.023872559890151024, 0.01962796412408352, -0.009590009227395058, -0.023010514676570892, 0.027360698208212852, -0.0010382264154031873, -0.003926935140043497, -0.022717179730534554, -0.03308523818850517, -0.022356031462550163, -0.028814928606152534, -0.03211989253759384, -0.02587256208062172, -0.0030458129476755857, -0.016479989513754845, -0.03642839565873146, -0.014143314212560654, -0.02545062080025673, -0.005002851132303476, -0.020457297563552856, 0.007315917406231165, -0.014502123929560184, -0.031992483884096146, -0.02579369582235813, 0.016975030303001404, 0.021438026800751686, -0.037441499531269073, 0.007011928129941225, -0.004529925528913736, -0.009893035516142845, 0.015743130818009377, -0.0024824724532663822, -0.0329667404294014, 0.012410733848810196, -0.029225021600723267, -0.025285206735134125, -0.00043668493162840605, -0.03535662963986397, -0.024018462747335434, 0.00792679749429226, -0.019057484343647957, -0.01992891915142536, -0.006274670362472534, -0.01149474736303091, -0.034311212599277496, -0.003607760649174452, 0.028828449547290802, 0.0002231746184406802, -0.005183593835681677, -0.00870558526366949, -0.021179165691137314, -0.00852289516478777, -0.03653521463274956, -0.02041018381714821, -0.03721795231103897, -0.0436999648809433, 0.023249313235282898, 0.006587482988834381, 0.018250389024615288, 0.02152077853679657, 0.015311183407902718, 0.004235402215272188, -0.013786790892481804, 0.003175487043336034, 0.00038308624061755836, -0.01367454044520855, -0.0306641086935997, 0.011053343303501606, 0.02324862964451313, 0.02309969626367092, 0.016383325681090355, 0.011562655679881573, -0.00944240391254425, -0.01979304663836956, 0.028561105951666832, -0.00539711769670248, -0.019625093787908554, -0.0038836058229207993, 0.01272717583924532, -0.02022307738661766, 0.02545527182519436, 0.00899629108607769, -0.02696293778717518, 0.029658062383532524, 0.031770724803209305, -0.008201390504837036, 0.0042170253582298756, -0.01382487639784813, 0.01685706153512001, 0.009336225688457489, -0.015168581157922745, 0.016742661595344543, 0.024973588064312935, -0.006491153035312891, -0.03065207414329052, 0.0016837510047480464, 0.020372293889522552, 0.0242928359657526, 0.005431046709418297, -0.01433612685650587, 0.026071667671203613, -0.016353534534573555, -0.020194072276353836, -0.021216191351413727, -0.016940496861934662, 0.026152318343520164, 0.03356540575623512, -0.02165401540696621, -0.0001745761837810278, 0.01810106262564659, -0.026308903470635414, -0.030214611440896988, -0.0417298786342144, -0.00862213410437107, 0.026414930820465088, -0.026704154908657074, 0.0013041238998994231, -0.01888340711593628, 0.003112840000540018, 0.0007072473526932299, -0.0031893840059638023, 0.008888062089681625, -0.01789584569633007, -0.012568222358822823, -0.00035939214285463095, 0.029528584331274033, -0.019195837900042534, -0.014555714093148708, 0.024474363774061203, -0.021169139072299004, -0.013288856483995914, -0.021461905911564827, -0.02185678854584694, 0.011041542515158653, -0.02651275508105755, 0.012609144672751427, 0.016874121502041817, -0.024632427841424942, 0.03536681830883026, 0.02570604905486107, -0.020435675978660583, -0.0303883645683527, -0.022153053432703018, 0.009293260052800179, 0.0140433544293046, -0.005972810555249453, -0.009878821671009064, 0.0019159638322889805, -0.028078189119696617, 0.025543835014104843, -0.030882351100444794, 0.002969304798170924, -0.032972127199172974, -0.034334633499383926, -0.025331905111670494, 0.034320395439863205, -0.007473981473594904, 0.03200993314385414, -0.02226967364549637, -0.008358078077435493, 0.002867564558982849, 0.030081164091825485, 0.031624164432287216, -0.006554468534886837, 0.027078820392489433, -0.014211945235729218, -0.010772403329610825, -0.02697686292231083, 0.02425859495997429, 0.02284049428999424, 0.04301659017801285, -0.021413369104266167, -0.022926270961761475, 0.014984529465436935, 0.004543709103018045, 0.030519330874085426, -0.00021635316079482436, 0.010318055748939514, -0.034304242581129074, -0.01509279664605856, 0.005367761477828026, -0.014293665997684002, -0.01617194339632988, 0.034131478518247604, -0.008214162662625313, -0.03046669252216816, 0.010221971198916435, -0.02248796634376049, -0.03154247999191284, 0.011915791779756546, 0.014763332903385162, 0.024389371275901794, -0.014727638103067875, 0.007175826467573643, 0.01379232108592987, 0.02967645786702633, 0.035193029791116714, 0.04354741424322128, 0.030853068456053734, 8.923916175263003e-05, 0.018654661253094673, 0.028047624975442886, 0.024667154997587204, -0.030533328652381897, -0.03492284566164017, -0.02085837721824646, 0.021725259721279144, -0.03652394190430641, -0.02716529741883278, -0.006801395211368799, -0.017075341194868088, -0.01662582717835903, 0.03429450839757919, 0.003671331098303199, -0.008576950058341026, 0.007098310627043247, -0.0036783001851290464, -0.01990480162203312, -0.018331481143832207, -0.008491969667375088, 0.021741162985563278, -0.007004457525908947, -0.0026026545092463493, 0.05267103761434555, 0.028367703780531883, 0.05231146514415741, 0.05013414844870567, 0.024915071204304695, 0.004905402660369873, -0.03222602605819702, -0.001110796700231731, -0.01835102215409279, 0.00443678256124258, -0.027991564944386482, 0.025880329310894012, 0.007412417326122522, -0.035314515233039856, 0.002105410909280181, 0.00956773292273283, -0.035989709198474884, -0.03545010834932327, 0.029864557087421417, -0.03556991368532181, -0.034959156066179276, 0.02130594290792942, 0.00031193328322842717, -0.01150087732821703, 0.018975676968693733, -0.0373508557677269, 0.012384089641273022, 0.007093849591910839, 0.01847393810749054, 0.06523577123880386, 0.05244123935699463, 0.011965852230787277, 0.021900685504078865, -0.031094707548618317, -0.01050889678299427, 0.0030242595821619034, -0.0002359702775720507, 0.0010530092986300588, 0.004424036480486393, 0.0024303486570715904, -0.0019697132520377636, -0.027412550523877144, 0.016874760389328003, -0.00034131627762690187, 0.007366089150309563, -0.019741373136639595, -0.015712086111307144, -0.021580887958407402, -0.00047032421571202576, -0.017954498529434204, -0.02427702024579048, -0.017016498371958733, 0.009543469175696373, -0.010033056139945984, -0.012316194362938404, 0.025054484605789185, -0.004179904703050852, 0.007029392756521702, 0.04144081100821495, -0.020586716011166573, 0.01862799935042858, 0.01915895566344261, -0.0018073279643431306, -0.008136622607707977, -0.024940738454461098, 0.015739314258098602, 0.025421177968382835, -0.0051605552434921265, -0.014205892570316792, -0.03155328333377838, -0.035039272159338, -0.025063851848244667, -0.02207508496940136, -0.005615999456495047, 0.013638822361826897, -0.02836580015718937, 0.03515006601810455, 0.004317543935030699, 0.02520579844713211, -0.008067400194704533, -0.0113723985850811, 0.028116583824157715, 0.011424591764807701, 0.011311361566185951, 0.04062442108988762, 0.06250252574682236, 0.00800465140491724, 0.040248822420835495, 0.030922891572117805, 0.026187052950263023, 0.01613677106797695, -0.009929371997714043, 0.018681688234210014, -0.013823984190821648, -0.023996490985155106, 0.007632673252373934, 0.008421397767961025, 0.0009747868170961738, 0.025489233434200287, -0.03740373253822327, 0.016720931977033615, 0.005114412400871515, 0.020338138565421104, -0.0013168075820431113, -0.019900256767868996, -0.011272500269114971, 0.0051932972855865955, -0.00028232784825377166, 0.024777792394161224, -0.01940055564045906, -0.01800680160522461, 0.04060780256986618, 0.06106283888220787, 0.019777467474341393, 0.02758036181330681, 0.006080256309360266, 0.042295902967453, -0.019954068586230278, 0.04058298096060753, -0.012044208124279976, 0.026319503784179688, -0.032735247164964676, 0.010900159366428852, -0.026211975142359734, 0.031217290088534355, -0.00971086136996746, 0.025827180594205856, 0.005464564077556133, 0.022049449384212494, -0.032618314027786255, 0.029193412512540817, 0.007132002618163824, 0.0007272894727066159, -0.005659985356032848, -0.02979356423020363, -0.004442863166332245, -0.02143177203834057, 0.006981461774557829, -0.027734501287341118, 0.03132029250264168, 0.026815669611096382, 0.053920213133096695, -0.005995807703584433, -0.017297307029366493, 0.007925345562398434, 0.00957445427775383, 0.0036926164757460356, 0.022135263308882713, -0.03088306449353695, 0.00030981656163930893, 0.02936842106282711, 0.012935384176671505, -0.01120087318122387, -0.028067665174603462, 0.03164370730519295, -0.018071835860610008, -0.029616810381412506, 0.01598532311618328, -0.00957495253533125, -0.030119074508547783, -0.034305643290281296, -0.0028818375431001186, -0.027460681274533272, -0.01740572415292263, -0.028950896114110947, -0.04776966944336891, 0.01794571988284588, 0.02516343630850315, 0.0486174076795578, 0.052064407616853714, 0.017566505819559097, 0.01069805957376957, 0.0016847962979227304, -0.025214355438947678, 0.008723430335521698, -0.02689252234995365, -0.00796924252063036, -0.04058931767940521, 0.024902664124965668, -0.030387571081519127, -0.009277031756937504, 0.02616932801902294, 0.03259081393480301, -0.013363045640289783, -0.013501998037099838, -0.006154054310172796, -0.036200255155563354, 0.0034239445813000202, -0.0003750167088583112, -0.03215248882770538, -0.01950758881866932, -0.012758083641529083, -0.016993241384625435, -0.008639156818389893, 0.012301769107580185, 0.000991604756563902, 0.03460285812616348, 0.029204098507761955, -0.00012672871525865048, -0.03056889772415161, -0.01421245839446783, -0.016057172790169716, -0.04241280257701874, -0.012470354326069355, 0.012347005307674408, 0.012104417197406292, 0.020676707848906517, -0.005993164610117674, -0.021403154358267784, 0.013656861148774624, 0.021503787487745285, 0.028312211856245995, -0.01900549978017807, 0.01305289939045906, 0.015439478680491447, 0.016896773129701614, -0.013073972426354885, -0.035644836723804474, -0.024264633655548096, -0.0010786287020891905, -0.015617556869983673, -0.015438001602888107, -0.017916204407811165, 0.025291820988059044, 0.0352913923561573, 0.026699524372816086, 0.011599713936448097, 0.023540576919913292, 0.018509523943066597, -0.02580542117357254, -0.016953151673078537, 0.014923157170414925, -0.008859255351126194, 0.012364329770207405, -0.009040014818310738, -0.028303423896431923, 0.016461053863167763, -0.021743547171354294, 0.008348515257239342, 0.01462368294596672, 0.01991874724626541, -0.01336573250591755, 0.008036037907004356, -0.00389463035389781, 0.005937243811786175, 0.01430918462574482, 0.00430457154288888, -0.008314752019941807, -0.00033268547849729657, -0.024690872058272362, -0.022213656455278397, 0.04098925739526749, 0.03733835369348526, -0.022745545953512192, 0.012075516395270824, -0.021527210250496864, 0.009618325158953667, -0.0039028546307235956, -0.014463686384260654, -0.025620881468057632, -0.0066257668659091, -0.007287977263331413, 0.021298324689269066, -0.0027903385926038027, -0.011781063862144947, -0.01702701859176159, 0.006857586093246937, -0.020507514476776123, -0.018597804009914398, -0.005689121782779694, -0.03355587273836136, 0.0319657139480114, 0.0009217957849614322, 0.007803803309798241, 0.0015200212365016341, -0.03225025534629822, -0.009639082476496696, -0.04302601143717766, 0.023507053032517433, -0.028699751943349838, -0.00311523349955678, 0.035199157893657684, 0.01031532697379589, -0.03153993934392929, 0.021265296265482903, 0.024236368015408516, -0.006439543329179287, 0.009369687177240849, -0.01741914078593254, -0.03113231062889099, 0.010113549418747425, 0.021120427176356316, 0.02377132885158062, 4.885065936832689e-05, -0.03408385068178177, -0.03583449125289917, 0.017547164112329483, -0.035376086831092834, -0.016821570694446564, 0.023219190537929535, 0.008181838318705559, -0.01816295087337494, -0.021308088675141335, -0.03646521642804146, -0.024150365963578224, -0.007122396025806665, 0.03454337269067764, 0.03617667406797409, 0.01593402586877346, 0.04041309282183647, 0.036237332969903946, 0.012876482680439949, 0.0012275198241695762, 0.0027324894908815622, -0.04015059769153595, -0.004479226656258106, 0.012588223442435265, -0.025810042396187782, -0.0005545777385123074, -0.03447207435965538, -0.020801497623324394, -0.034027162939310074, 0.0202065147459507, 0.014480626210570335, -0.029228052124381065, 0.00588319031521678, -0.010132146999239922, 0.03076418675482273, -0.004520307295024395, -0.01894751377403736, -0.014102403074502945, -0.0024414986837655306, -0.029546670615673065, 0.03678211569786072, 0.0265821423381567, -0.0026676112320274115, 0.04094140976667404, 0.028782932087779045, -0.00551861384883523, -0.0009725881973281503, 0.0015591370174661279, -0.017000216990709305, 0.025670388713479042, 0.031697362661361694, -0.033713098615407944, 0.019406232982873917, -0.029557524248957634, -0.004955272190272808, -0.036509718745946884, -0.029270028695464134, -0.028198638930916786, -0.011288932524621487, -0.006821453105658293, 0.031861189752817154, 0.0017172801308333874, 0.014258384704589844, -0.018240341916680336, 0.014199082739651203, -0.027895649895071983, -0.0308760404586792, -0.0360407754778862, 0.02922721765935421, 0.028040805831551552, -0.016347305849194527, 0.03006501868367195, 0.025852523744106293, -0.02013915218412876, -0.019310127943754196, -0.0053593614138662815, -0.028352556750178337, 0.019736111164093018, 0.03155984729528427, 0.010342900641262531, -0.033726878464221954, -0.018047766759991646, 0.0003946340293623507, 0.02484067529439926, -0.024189727380871773, -0.018098346889019012, -0.01982291042804718, 0.018466869369149208, -0.007500232197344303, -0.02755836956202984, -0.026798661798238754, -0.03348447382450104, -0.024465462192893028, 0.030232980847358704, -0.0011171798687428236, -0.017917660996317863, 0.03230111673474312, 0.022732213139533997, 0.006370518822222948, 0.01428853441029787, -0.01080782525241375, -0.024097474291920662, -0.004016565158963203, -0.02170676179230213, 0.013691466301679611, -0.035771362483501434, -0.0105521185323596, 0.0035369882825762033, -0.029165353626012802, -0.030515942722558975, -0.011694055050611496, -0.01002686657011509, 0.030279813334345818, -0.02793709933757782, -0.02597062475979328, -0.026703231036663055, -0.022873593494296074, -0.036175064742565155, 0.00933917984366417, 0.03325638920068741, 0.022562075406312943, -0.018096694722771645, -0.021508177742362022, -0.025983793660998344, 0.0032429296988993883, -0.030091188848018646, 0.024388223886489868, -0.027249298989772797, 0.014561021700501442, 0.015436883084475994, 0.011199701577425003, 0.00846150703728199, 0.004297997336834669, 0.029479200020432472, -0.005073131527751684, -0.03258826583623886, 0.009708734229207039, -0.021599814295768738, 0.0002644440100993961, -0.011242850683629513, 0.03268725052475929, 0.023573361337184906, 0.009266063570976257, -0.01455247774720192, 0.009698423556983471, -0.025466766208410263, 3.890141670126468e-05, 0.008959060534834862, -0.008194981142878532, 0.006643286440521479, -0.03540859743952751, 0.007787055801600218, -0.028142130002379417, -0.029902318492531776, 0.008993641473352909, -0.007041842211037874, -0.007274121046066284, -0.01566162332892418, -0.031514402478933334, 0.008837947621941566, -0.023827526718378067, -0.029477087780833244, -0.018210601061582565, 0.010119874961674213, 0.012110183946788311, -0.03184208646416664, 0.006808145437389612, 0.018782971426844597, -0.012631062418222427], [-0.019116204231977463, -0.013458754867315292, -0.025590721517801285, -0.010013453662395477, -0.003634518012404442, -0.01339681912213564, 0.018851136788725853, -0.019982092082500458, 0.0034515270963311195, 0.033318471163511276, 0.037107352167367935, 0.010670218616724014, -0.01776273548603058, 0.03727218136191368, -0.020217759534716606, 0.020525692030787468, -0.029073113575577736, -0.014738080091774464, -0.023364458233118057, -0.007394731510430574, 0.027645466849207878, -0.01899799145758152, -0.0069501050747931, -0.028824403882026672, 0.01500708144158125, -0.006801596377044916, 0.022469742223620415, 0.020208360627293587, -0.03245518356561661, 0.031737327575683594, -0.025185177102684975, -0.03177282214164734, -0.0023947013542056084, -0.024635156616568565, 0.020044676959514618, -0.017457302659749985, -0.002621011110022664, -0.018311727792024612, -0.0315442830324173, -0.014578625559806824, -0.001646439777687192, 0.01298295333981514, 0.003153757192194462, 0.006300000008195639, -0.010975067503750324, 0.006876995787024498, -0.010021476075053215, -0.00041611489723436534, 0.009063241071999073, 0.01479706447571516, 0.01657971739768982, 0.013328483328223228, 0.03169255331158638, -0.020788108929991722, 0.016425270587205887, -0.004888660274446011, 0.002285664901137352, 0.014059420675039291, 0.0028146132826805115, 0.03446664661169052, 0.018815115094184875, 0.03658250719308853, 0.025026433169841766, -0.003348542610183358, -0.030499067157506943, -0.004742546007037163, -0.015722960233688354, 0.016785532236099243, -0.029583873227238655, -0.030580749735236168, 0.019587473943829536, -0.003103205468505621, -0.019470952451229095, 0.021668892353773117, 0.028776951134204865, 0.011047919280827045, 0.028963051736354828, -0.005587265361100435, -0.02043234184384346, -0.008822336792945862, 0.031202204525470734, -0.011605699546635151, -0.027137495577335358, -0.0017061065882444382, 0.008066746406257153, 0.032479993999004364, -0.013342664577066898, 0.030506383627653122, -0.011133193969726562, -0.011793062090873718, -0.03011028654873371, -0.019630378112196922, -0.010348633863031864, 0.02799210697412491, -0.025548230856657028, -0.028527148067951202, 0.01578734628856182, 0.026236874982714653, 0.02939663827419281, 0.00134086434263736, -0.024136466905474663, 0.03660742938518524, 0.011816499754786491, 0.020303325727581978, -0.013302893377840519, 0.021506337448954582, 0.03462126478552818, -0.028537726029753685, -0.006127782166004181, 0.03234478458762169, 0.016309602186083794, -0.03181607648730278, -0.032374005764722824, -0.029267072677612305, -0.0010078224586322904, 0.013087174855172634, 0.036386311054229736, 0.010983575135469437, 0.036948367953300476, -0.008045555092394352, -0.024674495682120323, 0.013015135191380978, 0.03527618572115898, -0.01100859884172678, 0.018310818821191788, 0.023070786148309708, 0.020539283752441406, -0.005864777602255344, 0.024259470403194427, -0.003332702210173011, 0.00041716062696650624, -0.02147107943892479, 0.0008483597193844616, 0.01553766056895256, 0.008269806392490864, 0.02418236993253231, 0.0293593630194664, 0.0034568847622722387, -0.016590146347880363, -0.010249046608805656, 0.017650915309786797, -0.004562075715512037, -0.01845114678144455, 0.004540255293250084, -0.006450867746025324, 0.0024976206477731466, -0.014268686063587666, 0.016466429457068443, 0.019928475841879845, -0.02287825010716915, 0.016161823645234108, -0.02475416660308838, -0.03652084246277809, -0.026455072686076164, 0.0015523347537964582, 0.008596169762313366, -0.01993107795715332, -0.031917754560709, -0.03425489366054535, 0.024788873270154, -0.010553726926445961, 0.030573904514312744, 0.021118206903338432, -0.017529819160699844, 0.00018545539933256805, 0.03318310156464577, -0.0182452704757452, -0.028466904535889626, -0.03225867450237274, 0.0181021336466074, -0.00019426147628109902, -0.012157863937318325, 0.011731112375855446, -0.02989991568028927, -0.012515749782323837, 0.03586609661579132, -0.010977263562381268, -0.007235223893076181, 0.029633019119501114, -0.028609884902834892, -0.021100299432873726, -0.026515567675232887, -0.03140620142221451, 0.023075981065630913, -0.02982410416007042, 0.01122895535081625, 0.010410546325147152, -0.011160170659422874, 0.008718566037714481, -0.008726455271244049, 0.02869129739701748, 0.013416172936558723, 0.023303167894482613, 0.033024467527866364, -0.023075664415955544, -0.01894194446504116, 0.01593356393277645, 0.021674206480383873, 0.005935052875429392, 0.03572158142924309, -0.012142278254032135, -0.019549384713172913, -0.007545331493020058, 0.02541351318359375, 0.02765512280166149, -0.007718799170106649, -0.0037382044829428196, 0.014836646616458893, 0.006918673869222403, 0.01689760386943817, -0.006143723614513874, -0.03755480796098709, -0.035433847457170486, -0.031168663874268532, -0.009165286086499691, -0.018963880836963654, -0.006517922505736351, 0.03255945071578026, 0.009197714738547802, 0.019310899078845978, 0.016354715451598167, 0.003128943732008338, 0.012288139201700687, 0.02300337329506874, -0.030738238245248795, 0.028958760201931, 0.03880299627780914, 0.00847611017525196, 0.028272058814764023, -0.011477801948785782, 0.038026079535484314, 0.006986899301409721, -0.009592967107892036, -0.012357239611446857, -0.014938969165086746, 0.00044444212107919157, 0.020513130351901054, 0.013784649781882763, -0.03321773558855057, 0.007168588228523731, -0.003612753003835678, 0.019660189747810364, -0.024768101051449776, 0.021791504696011543, -0.001440102350898087, 0.0315304659307003, 0.008916710503399372, 0.020566105842590332, 0.01012758631259203, -0.0021798452362418175, -0.02458229288458824, 0.01156790740787983, 0.037372902035713196, -0.03128180652856827, 0.032931674271821976, 0.018521159887313843, -0.028480982407927513, -0.030595388263463974, -0.007003854960203171, -0.03241477534174919, 0.02255345694720745, -0.001607544138096273, 0.013610456138849258, -0.01972460374236107, 0.025513365864753723, -0.015107439830899239, -0.009765192866325378, 0.02920033037662506, -0.02490108460187912, -0.03562341257929802, 0.00017601782747078687, 0.006216245703399181, 0.011558526195585728, -0.009939183481037617, 0.02741566114127636, -0.0004058000340592116, -0.010047505609691143, -0.02002810128033161, 0.011896602809429169, -0.012189031578600407, 0.011856955476105213, -0.003806550055742264, 0.007427780888974667, -0.0190294086933136, -0.009603985585272312, 0.008975344710052013, 0.03194728121161461, -0.022118352353572845, -0.02686377801001072, 0.012438124045729637, -0.01942611299455166, -0.031124670058488846, -0.023595210164785385, -0.013065841980278492, 0.027125874534249306, -0.02941797859966755, -0.01090292353183031, -0.017028726637363434, -0.03748716413974762, -0.011893393471837044, 0.0010981607483699918, 0.03250502422451973, 0.018826229497790337, 0.015843035653233528, 0.026735428720712662, -0.011068924330174923, 0.002788746962323785, 0.021613741293549538, 0.028604593127965927, 0.026096975430846214, -0.00745705422013998, 0.030990883708000183, 0.011766337789595127, 0.027505451813340187, -0.021154940128326416, -0.034796979278326035, 0.01279479917138815, -0.020126154646277428, -0.018262425437569618, -0.03781648725271225, -0.011988386511802673, -0.009915751405060291, -0.029481833800673485, -0.011966465041041374, -0.018015284091234207, -0.01712934300303459, 0.021971341222524643, -0.0045297713950276375, -0.032516174018383026, 0.00334577145986259, -0.011620698496699333, -0.006022877059876919, 0.0050523169338703156, -0.0007424663053825498, 0.008120966143906116, 0.03772813454270363, 0.0181456059217453, -0.018427690491080284, 0.031276002526283264, 0.0017295775469392538, -0.014824170619249344, -0.033311374485492706, -0.033623334020376205, 0.022636884823441505, -0.006220026407390833, -0.03266974166035652, -0.03524252027273178, -0.03493095561861992, -0.01901923678815365, 0.021626556292176247, -0.02889162115752697, -0.005467598792165518, -0.03493078425526619, -0.03079405426979065, 0.0028578557539731264, 0.003906796220690012, 0.008588292635977268, -0.003969576675444841, -0.011331148445606232, 0.02259613201022148, -0.021759476512670517, 0.03197728469967842, 0.0245427954941988, 0.037859752774238586, -0.014293629676103592, -0.01357908733189106, -0.019242973998188972, 0.01632043719291687, 0.0332619771361351, -0.011284239590168, 0.032845623791217804, -0.0038443109951913357, -0.03486688807606697, 0.021123094484210014, -0.02374306321144104, -0.012192860245704651, -0.03718208521604538, -0.011067426763474941, -0.03936231881380081, -0.0037691215984523296, 0.001306109712459147, -0.033123597502708435, -0.02408437989652157, -0.0255755465477705, -0.027759183198213577, -0.012323837727308273, -0.008041654713451862, -0.026999780908226967, 0.03593593090772629, -0.010033088736236095, 0.006462320685386658, 0.030279798433184624, 0.009066707454621792, 0.026661904528737068, 0.026329804211854935, 0.033663440495729446, 0.01856932044029236, -0.009646939113736153, 0.022388871759176254, 0.01278329361230135, 0.01981717348098755, -0.020683161914348602, -0.03324611857533455, 0.0027450101915746927, -0.02901971898972988, -0.03826052322983742, -0.029624301940202713, 0.002345401793718338, -0.010062485933303833, -0.04131070151925087, 0.0012306547723710537, 0.030406290665268898, 0.015754573047161102, 0.01776386983692646, -0.016542837023735046, 0.008480522781610489, -9.254430915461853e-05, -0.01367893535643816, 0.02845829725265503, 0.008662590757012367, 0.017982596531510353, -0.02456759288907051, 0.024035723879933357, -0.013062269426882267, -0.007516523357480764, 0.04268980771303177, 0.008088146336376667, -0.02852237969636917, -0.00652969628572464, 0.029492532834410667, -0.011603089049458504, 0.0014637309359386563, 0.01138045359402895, 0.025800684466958046, 0.01489859726279974, -0.031127098947763443, -0.0334378182888031, 0.009360149502754211, -0.01257371623069048, -0.01134516205638647, -0.008871182799339294, -0.030748065561056137, 0.009039869531989098, -0.023975877091288567, -0.025436554104089737, 0.007503032218664885, -0.02439727820456028, 0.002614345634356141, 0.006366267800331116, 0.007895569317042828, 0.032339081168174744, -0.029662106186151505, -0.009833341464400291, -0.019935613498091698, 0.016389358788728714, 0.012926642782986164, -0.006477068178355694, 0.0025915715377777815, -0.002392187248915434, -0.039381541311740875, 0.005955316126346588, -0.032664623111486435, -0.026186199858784676, 0.0007239958504214883, -0.03691163659095764, -0.04450152441859245, 0.024984085932374, -0.007150515913963318, 0.017572855576872826, 0.03689590096473694, 0.033353373408317566, -0.017314136028289795, 0.03561335429549217, 0.03465450927615166, 0.001196870463900268, -0.015146116726100445, 0.018163485452532768, -0.0021651224233210087, 0.002498401328921318, -0.014756981283426285, -0.023030253127217293, -0.009192573837935925, 0.018259664997458458, 0.029938803985714912, 0.030465146526694298, 0.00391411641612649, -0.02324073761701584, 0.009925350546836853, -0.02576490491628647, -0.02033221162855625, 0.011999578215181828, -0.007638498209416866, -0.04647194966673851, -0.006653411779552698, -0.012241188436746597, -0.005498675629496574, 0.010438437573611736, -0.001440999680198729, -0.0011022225953638554, 0.002176706213504076, -0.02081354148685932, 0.034734271466732025, 0.02334577590227127, 0.011798679828643799, 0.03415680676698685, 0.0287264883518219, 0.012802941724658012, -0.0021342728286981583, 0.029708312824368477, 0.017074141651391983, -0.0048773582093417645, -0.005162171088159084, 0.005005968268960714, 0.039374105632305145, -0.026276350021362305, -0.018329016864299774, 0.022454500198364258, 0.0013064539525657892, -0.04305509105324745, 0.026639191433787346, 0.02477828785777092, 0.026055118069052696, -0.018130075186491013, 0.022691333666443825, 0.024166718125343323, 0.017825402319431305, -0.017583759501576424, 0.02967914380133152, -0.02395481802523136, 0.01499546691775322, -0.008376621641218662, -0.03168148174881935, -0.020521992817521095, 0.018133290112018585, -0.005187065340578556, 0.018261762335896492, 0.03125099092721939, 0.014451619237661362, -0.0017101233825087547, -0.021349841728806496, -0.023355752229690552, 0.027551433071494102, -0.0021859104745090008, 0.037033405154943466, 0.00759270740672946, -0.0027396187651902437, 0.012897043488919735, 0.01697828434407711, -0.01335098221898079, -0.018646784126758575, -0.03908170759677887, -0.02851881831884384, 0.006474704016000032, -0.004118047654628754, 0.006727771833539009, 0.009397760964930058, -0.005658055655658245, -0.014721090905368328, 0.017149440944194794, 0.011052320711314678, -0.024050313979387283, 0.03730495646595955, 0.025819482281804085, -0.02480083890259266, -0.022780532017350197, 0.007479616906493902, -0.024605240672826767, 0.007807982619851828, 0.00869071576744318, 0.0018843004945665598, 0.027186118066310883, -0.009157336317002773, -0.006909495685249567, -0.01838678866624832, -0.002645237371325493, 0.018031246960163116, -0.017892761155962944, 0.02974032610654831, 0.016205349937081337, -0.010424158535897732, 0.021992765367031097, -0.02366994135081768, 0.00222234008833766, -0.00032524100970476866, -0.01832498423755169, 0.01494945865124464, -0.018555745482444763, 0.035384487360715866, 0.003043650183826685, 0.02548568695783615, 0.025529062375426292, 0.012255743145942688, -0.022078758105635643, 0.013662956655025482, -0.018335239961743355, -0.028453100472688675, 0.01588587649166584, -0.009662959724664688, 0.035371631383895874, -0.004173322580754757, 0.02493426203727722, 0.013929483480751514, 0.013438355177640915, 0.01792917028069496, -0.02818203903734684, -0.008736375719308853, 0.02969374880194664, -0.031499043107032776, -0.0012605389347299933, 0.000851508229970932, 0.01817418448626995, -0.011503470130264759, 0.0016450787661597133, -0.010766451247036457, -0.006647179834544659, 0.01967982016503811, -0.018697302788496017, 0.0370706208050251, 0.01788613200187683, 0.03574182093143463, -0.0016128224087879062, -0.014142547734081745, 0.023046273738145828, 0.014758370816707611, 0.033592142164707184, 0.007973789237439632, -0.0015005411114543676, 0.016185954213142395, 0.01872381381690502, -0.011118612252175808, -0.005256698001176119, 0.006384972482919693, 0.023170143365859985, -0.03045162372291088, -0.009477854706346989, -0.028539137914776802, 0.03498661518096924, -0.0009490191587246954, 0.020655963569879532, -0.004144452046602964, 0.009401082992553711, -0.014189661480486393, -0.03181501477956772, -0.031356655061244965, 0.012629682198166847, 0.026986924931406975, 0.00771586038172245, 0.016180751845240593, -0.02553301490843296, 0.022787323221564293, -0.008773686364293098, 0.007110146339982748, 0.007091425824910402, 0.016393564641475677, 0.029127707704901695, -0.028109056875109673, -0.014493847265839577, -0.017856406047940254, -0.005144813098013401, 0.012086031027138233, 0.017891498282551765, -0.029253339394927025, -0.045575253665447235, -0.01853051595389843, -0.019853975623846054, 0.0035209432244300842, -0.015287866815924644, -0.015743013471364975, 0.003552613314241171, -0.03171800076961517, -0.010230869054794312, -0.005653194151818752, 0.021759046241641045, -0.01097145490348339, 0.005164635833352804, -0.0013316874392330647, -0.005051909945905209, -0.01061445102095604, -0.003984455950558186, -0.0027968690264970064, 0.013560104183852673, -0.0231095552444458, 0.01797533966600895, -0.01770624704658985, 0.02576727606356144, 0.010080739855766296, 0.01935485564172268, 0.03897344693541527, 0.025355730205774307, -0.019121507182717323, -0.009603181853890419, -0.0067298454232513905, -0.017586028203368187, 0.012226210907101631, -0.028075721114873886, -0.008804160170257092, 0.01077167596668005, -0.01663017086684704, 0.0124138705432415, 0.022519458085298538, -0.02180977165699005, 0.022007687017321587, 0.02318805828690529, 0.02236110158264637, 0.027945881709456444, 0.034692998975515366, 0.01869770511984825, -0.02000805176794529, 0.029844671487808228, 0.004055398516356945, -0.006971503142267466, -0.01735464669764042, 0.007698758505284786, -0.00886815320700407, -0.007243141997605562, -0.028176074847579002, -0.01732187718153, 0.0033505538012832403, -0.03585445508360863, 0.009115183725953102, 0.02017892524600029, -0.032977741211652756, -0.01507590152323246, -0.019052788615226746, 0.00519193708896637, 0.032756682485342026, 0.01526118628680706, -0.01318503450602293, -0.013718094676733017, 0.008389678783714771, -0.022009463980793953, -0.029755135998129845, -0.027405088767409325, 0.021412203088402748, -0.008140400052070618, 0.010781865566968918, -0.01830461248755455, -0.028622478246688843, 0.01088892575353384, -0.015154092572629452, -0.008543277159333229, -0.01609671674668789, 0.023342924192547798, -0.008910421282052994, 0.022148318588733673, -0.029186001047492027, 0.01747978664934635, 0.0324472114443779, 0.015111899003386497, 0.008820596151053905, -0.006486175116151571, -0.016983497887849808, 0.0006123391794972122, -0.026756780222058296, -0.00573381083086133, -0.015372124500572681, 0.02696370519697666, 0.027429763227701187, -0.009705151431262493, 0.01215865183621645, 0.009262137115001678, 0.02837180718779564, -0.0059738741256296635, -0.018738510087132454, -0.023332631215453148, -0.032694216817617416, 0.029287707060575485, -0.027134649455547333, 0.014406784437596798, -0.023118605837225914, 0.014142881147563457, -0.02804579585790634, -0.01951555535197258, 0.02589637041091919, 0.03218567371368408, -0.0058651333674788475, 0.009867694228887558, -0.005967027507722378, -0.02083440311253071, 0.023633049800992012, 0.03474464267492294, -0.0013945476384833455, -0.01190182100981474, 0.020510409027338028], [0.029165972024202347, -0.030428661033511162, -0.009537266567349434, 0.01288176141679287, -0.019531359896063805, 0.01726900041103363, 0.004539291840046644, -0.0056700133718550205, -0.010200929827988148, 0.013184020295739174, 0.015930820256471634, 0.01680094562470913, 0.02547348663210869, -0.01837681233882904, -0.038526009768247604, 0.01339414156973362, -0.03418775647878647, 0.026876019313931465, -0.007247117348015308, 0.018868254497647285, 0.031100356951355934, 0.015200137160718441, -0.003202343126758933, -0.007738444954156876, -0.000703107041772455, 0.0021122118923813105, 0.01226741448044777, 0.0016125929541885853, -0.002191979205235839, -0.017226992174983025, -5.82621360081248e-05, -0.017033373937010765, -0.03624485060572624, -0.03131018579006195, 0.012729586102068424, 0.032094262540340424, 0.0037415402475744486, 0.002072291448712349, -0.019131258130073547, -0.03714379668235779, -0.02260364033281803, 0.003551153000444174, 0.029583940282464027, -0.016594205051660538, -0.023281045258045197, -0.0004183592682238668, -0.0056566959246993065, -0.010451097041368484, -0.02400270849466324, -0.02147865481674671, -0.006876083556562662, -0.007816302590072155, 0.026487082242965698, -0.027856815606355667, -0.027024539187550545, -0.008436944335699081, -0.007282644044607878, 0.026145750656723976, 0.005129374563694, 0.002522807801142335, 0.0202326700091362, 0.012394687160849571, -0.009703232906758785, 0.014198129065334797, -0.00929888803511858, 0.003417080268263817, 0.016462823376059532, 0.022513175383210182, 0.006014121230691671, 0.022074390202760696, -0.0018094051629304886, 0.005405241623520851, -0.032233525067567825, 0.03134474158287048, -0.004414662253111601, -0.020792189985513687, 0.007923298515379429, 0.024192148819565773, -0.013166405260562897, -0.03852033242583275, -0.03225976973772049, 0.02370707504451275, 0.03147980198264122, -0.02330591529607773, -0.011632907204329967, -0.038571566343307495, -0.013918470591306686, -0.020035959780216217, -0.015168506652116776, 0.01673930138349533, -0.02563929371535778, 0.019502859562635422, -0.026906317099928856, -0.01524119358509779, 0.009957595728337765, 0.006786344572901726, 0.0038000778295099735, 0.029309257864952087, 0.02290969528257847, -0.005958696361631155, 0.02213958464562893, -0.02428274415433407, 0.010194742120802402, -0.02742614410817623, 0.023018265143036842, -0.017615636810660362, 0.025521036237478256, -0.004500549286603928, 0.014861734583973885, 0.0026069306768476963, -0.018012918531894684, -0.011647656559944153, 0.0009647905826568604, 0.014453460462391376, 0.029611580073833466, -0.0245963204652071, -0.01622016727924347, 0.0004039377672597766, 0.002820392372086644, -0.008981538005173206, 0.02885567583143711, 0.004711381159722805, -0.011741104535758495, -0.016591718420386314, 0.018219107761979103, -0.015827041119337082, -0.028187718242406845, 0.003336602821946144, -0.031147263944149017, 0.0004675713134929538, 0.017035502940416336, 0.015134964138269424, 0.005766802933067083, -0.006512435618788004, -0.01180680189281702, 0.030805058777332306, -0.009804286062717438, -0.0071102324873209, 0.017167817801237106, -0.03347310423851013, 0.022931182757019997, 0.01842717081308365, -0.026620425283908844, -0.016584917902946472, 0.023233935236930847, -0.030601611360907555, -0.01271071657538414, 0.019379667937755585, -0.012393425218760967, 0.0079902159050107, 0.0029557719826698303, 0.027078725397586823, -0.02988007850944996, 0.033631812781095505, 0.04061562195420265, -0.01737806759774685, 0.03986439108848572, 0.039709750562906265, 0.0229880940169096, 0.016223056241869926, 0.027819283306598663, -0.026718255132436752, 0.018731597810983658, -0.027084538713097572, -0.030601076781749725, -0.03281025215983391, 0.02480461820960045, -0.037033721804618835, -0.019994115456938744, -0.022438745945692062, 0.017280925065279007, 0.012960054911673069, 0.004738975781947374, 0.019161738455295563, -0.014786678366363049, 0.0017420750809833407, 0.03230903670191765, 0.009141788817942142, -0.009880410507321358, -0.00844098161906004, 0.043485406786203384, 0.02424275130033493, 0.04725547507405281, 0.006281708832830191, 0.01759224385023117, 0.04158021882176399, 0.006994007620960474, 0.016539666801691055, -0.0012203305959701538, 0.021670101210474968, -0.013646014966070652, 0.002703416394069791, 0.018236717209219933, -0.010553211905062199, 0.016162656247615814, 0.01121141854673624, 0.005189490970224142, -0.034445542842149734, -0.008212707005441189, -0.03540479764342308, 0.0022667746525257826, 0.021818580105900764, 0.018552860245108604, 0.015235940925776958, -0.003904346376657486, 0.041773129254579544, 0.03971688821911812, 0.042929913848638535, -0.011559147387742996, 0.03750591352581978, -0.026954345405101776, 0.0293081346899271, 0.037082489579916, 0.012662701308727264, 0.016650445759296417, 0.021030744537711143, 0.032678935676813126, 0.025271505117416382, 0.004141137003898621, -0.02403440698981285, -0.019612638279795647, -0.02755199372768402, -0.015269211493432522, 0.02347375452518463, 0.006569665390998125, 0.026317337527871132, 0.008117728866636753, 0.013667996041476727, 0.03223155811429024, 0.025071337819099426, 0.029973674565553665, 0.01144289132207632, 0.04453560709953308, -0.010636180639266968, 0.03177345544099808, -0.010993048548698425, 0.008818268775939941, 0.011104441247880459, 0.025471962988376617, 0.02195867709815502, 0.02401723898947239, 0.012068625539541245, 0.01465023122727871, -0.01796281710267067, 0.010250312276184559, -0.022370118647813797, 0.02793779782950878, 0.03829634189605713, 0.03696567565202713, 0.007298797369003296, -0.011873926967382431, 0.008470832370221615, -0.037475764751434326, -0.02315322682261467, -0.01987091265618801, 0.01217277068644762, 0.025480641052126884, -0.007922884076833725, -0.025718044489622116, 0.03036610037088394, 0.01676424965262413, 0.02082466334104538, 0.019082028418779373, 0.03646092861890793, 0.008998378179967403, 0.03988852724432945, 0.028008952736854553, -0.029540011659264565, 0.01571357063949108, 0.02327585779130459, -0.015520001761615276, -0.02202734909951687, -0.011004364117980003, 0.005274047609418631, -0.006725246086716652, -0.022542793303728104, 0.024906571954488754, -0.022904688492417336, -0.0015325419371947646, -0.02410498633980751, -0.028269721195101738, 0.013593034818768501, 0.01732248067855835, -0.027361245825886726, -0.0024291365407407284, -0.018313229084014893, 0.003918146714568138, 0.023431546986103058, 0.01006403286010027, 0.04143260419368744, -0.020584186539053917, 0.03698871284723282, -0.0005539152771234512, -0.02109462209045887, -0.022264711558818817, 0.019823914393782616, -0.0045030126348137856, -0.03114328533411026, -0.006604117341339588, -0.03769225254654884, 0.016371440142393112, 0.01231394987553358, -0.022409379482269287, 0.025424057617783546, -0.036854058504104614, -0.014516210183501244, 0.017003608867526054, 0.0007589228334836662, -0.03259091079235077, -0.03649182245135307, -0.0010187161387875676, -0.016611818224191666, -0.03760994225740433, -0.00588363828137517, -0.012262149713933468, 0.04385418817400932, 0.022702902555465698, 0.022513773292303085, 0.03774648159742355, 0.016703302040696144, -0.016729939728975296, 0.04628355801105499, 0.037907879799604416, -0.021852480247616768, 0.0012563656782731414, 0.03785527125000954, -0.0069916085340082645, -0.03277736157178879, -0.018160512670874596, 0.0012015238171443343, -0.021621376276016235, -0.03857792913913727, -0.005347140599042177, -0.032829005271196365, -0.000972370442468673, -0.030337601900100708, 0.018677271902561188, 0.017287924885749817, -0.005397952161729336, 0.014035276137292385, 0.026625728234648705, 0.00017867160204332322, -0.035647470504045486, 0.004990831948816776, 0.046155136078596115, 0.02925596572458744, 0.005980504211038351, 0.021866874769330025, -0.011815612204372883, 0.014079018495976925, 0.030635500326752663, -0.011318257078528404, 0.03742741793394089, 0.01981431618332863, -0.01446100976318121, 0.004342271946370602, -0.03924140706658363, -0.011026534251868725, -0.0353824645280838, 0.023481572046875954, 0.018042584881186485, 0.018885603174567223, 0.017406001687049866, 0.0013724763412028551, -0.034787241369485855, 0.016934210434556007, -0.03510953485965729, 0.024311309680342674, -0.007708680350333452, -0.010096906684339046, 0.007745854556560516, -0.021778566762804985, -0.0007239815313369036, 0.021556291729211807, -0.016199517995119095, 0.0075383116491138935, 0.0011481818510219455, 0.035781826823949814, -0.001235840143635869, -0.027201106771826744, 0.00699567561969161, 0.010591949336230755, -0.015979554504156113, 0.02739991806447506, -0.031008616089820862, -0.03971854969859123, -0.031137272715568542, -0.030673902481794357, -0.0022968510165810585, 0.02960284985601902, 0.01946198381483555, 0.012291435152292252, 0.014632856473326683, 0.01941191777586937, 3.7896224966971204e-05, -0.006007990334182978, -0.03295009210705757, 0.013951452448964119, 0.016322972252964973, 0.0020158197730779648, -0.012708833441138268, 0.01493288017809391, -0.008187171071767807, 0.02493613213300705, -0.025287097319960594, -0.007886582985520363, 0.03038203716278076, -0.029726672917604446, 0.01700396090745926, 0.014877243898808956, 0.03703268617391586, 0.01869778335094452, -0.0036984654143452644, 0.007916071452200413, 0.005905982572585344, 0.022526651620864868, 0.0296645388007164, 0.016043532639741898, -0.00904169399291277, -0.006656358949840069, -0.012158142402768135, -0.02846178039908409, -0.005288674030452967, -0.03226335719227791, -0.03647931292653084, -0.005501073785126209, -0.02147243171930313, 0.0020833665039390326, 0.022393696010112762, 0.008670602925121784, -0.03323160856962204, -0.01648302935063839, -0.008742952719330788, -0.024959653615951538, 0.02233659289777279, -0.02602102980017662, -0.013629568740725517, -0.026309190317988396, 0.03587046638131142, 0.03263547644019127, -0.01878095418214798, -0.015032858587801456, -0.0026807680260390043, 0.006684927735477686, -0.030079247429966927, -8.64483299665153e-05, -0.012582596391439438, -0.0007089415448717773, 0.022197339683771133, 0.0007347106002271175, 0.031165579333901405, -0.03839350864291191, 0.01476179901510477, 0.019281959161162376, -0.010856324806809425, -0.009998059831559658, -0.0012261579977348447, 0.01552790217101574, 0.013115870766341686, 0.02952113002538681, 0.016998739913105965, -0.009652949869632721, 0.03241746500134468, 0.012254094704985619, 0.018873823806643486, -0.004199531394988298, 0.012025603093206882, -0.008809982798993587, 0.006474829278886318, -0.00976540520787239, 0.030836069956421852, -0.005364804994314909, -0.028242778033018112, 0.018257418647408485, 0.013814881443977356, 0.014287814497947693, 0.0060927956365048885, 0.012077678926289082, -0.025058165192604065, 0.002459958428516984, 0.005439663305878639, -0.008208523504436016, 0.016682298853993416, 0.0009938091970980167, -0.02687935344874859, 0.02527858130633831, -0.008431822061538696, -0.007635020185261965, -0.006481720134615898, -0.038534145802259445, -0.00585929537191987, -0.007956182584166527, -0.03439800813794136, 0.019490601494908333, 0.0011085562873631716, 0.04401682689785957, 0.031822141259908676, 0.01896100491285324, 0.005143828224390745, 0.004706909414380789, 0.033116213977336884, -0.011787684634327888, 0.004927705507725477, -0.029403269290924072, -0.01764705218374729, 0.016768967732787132, -0.03589341416954994, -0.03016955591738224, 0.018097611144185066, -0.014179353602230549, 0.012969392351806164, -0.03932582214474678, -0.0028198440559208393, 0.003757509170100093, -0.02824993245303631, 0.006904968060553074, -0.011204621754586697, -0.00912026222795248, 0.026129934936761856, 0.0034625797998160124, 0.01443978026509285, -0.0016426335787400603, 0.021450085565447807, 0.03160113841295242, -0.030685828998684883, 0.01390860415995121, -0.0055137877352535725, -0.030352193862199783, 0.033282868564128876, -0.02560756355524063, -0.023929908871650696, -0.019774362444877625, -0.037039730697870255, 0.025753341615200043, 0.017361033707857132, 0.028513256460428238, 0.011463779024779797, 0.03294401615858078, 0.025918154045939445, -0.013850773684680462, 0.029501967132091522, -0.008794440887868404, 0.016411136835813522, 0.024126900359988213, 0.013399938121438026, 0.019379906356334686, 0.022386016324162483, 0.017870008945465088, 0.011564908549189568, -0.023409582674503326, -0.011261681094765663, 0.0292709581553936, 0.026150142773985863, -0.002202397445216775, 0.0012178461765870452, 0.00913732498884201, 0.025525642558932304, -0.001037242473103106, -0.03224056959152222, 0.024275342002511024, 0.0257952231913805, 0.011446995660662651, 0.025414444506168365, 0.020786667242646217, -0.03287981078028679, 