{"fc1.weight": [[-0.011658701114356518, -0.03623269870877266, 0.0325080044567585, -0.026406938210129738, 0.002085905522108078, -0.03214741870760918, -0.00042952477815560997, -0.01856842078268528, 0.025824876502156258, -0.03524765744805336, -0.007083430886268616, -0.035719238221645355, -0.031466178596019745, 0.008620715700089931, -0.02345406636595726, -0.008158746175467968, -0.0017066497821360826, 0.01403169147670269, 0.0012575709261000156, 0.02920341305434704, 0.02084551379084587, -0.009606193751096725, -0.036331161856651306, 0.01090172678232193, 0.007004451472312212, 0.01249020453542471, -0.03352300077676773, 0.022189032286405563, -0.01579776220023632, -0.037037443369627, -0.019250566139817238, 0.03168903663754463, 0.02731822058558464, -0.027066916227340698, 0.029984984546899796, 0.01120673306286335, 0.02454272471368313, 0.014767108485102654, -0.022476468235254288, 0.010212626308202744, -0.01840209774672985, -0.025699136778712273, -0.03506099060177803, -0.031759731471538544, -0.013855294324457645, -0.0018028916092589498, 0.018139073625206947, 0.009582026861608028, -0.016376806423068047, -0.025311920791864395, 0.03217734768986702, 0.02189427614212036, 0.030224712565541267, -0.029902957379817963, -0.0035332017578184605, -0.018875302746891975, 0.03295441344380379, -0.015359894372522831, 0.03312293812632561, 0.01063790637999773, 0.021361110731959343, -0.011131802573800087, -0.006638543214648962, -0.02214956097304821, 0.017494140192866325, 0.010917255654931068, -0.010527078993618488, -0.036018114537000656, 0.005844705738127232, -0.037343837320804596, -0.02439459227025509, -0.02992347627878189, -0.008076371625065804, 0.003870816435664892, 0.013174418359994888, 0.027770962566137314, -0.01640455238521099, -0.018355989828705788, 0.020845985040068626, 0.007731480058282614, 0.013044814579188824, 0.023423874750733376, -0.03523549064993858, 0.0014208904467523098, -0.0029080307576805353, -0.02761881984770298, -0.020121943205595016, -0.022099874913692474, 0.01642877236008644, -0.03387351334095001, -0.01627412624657154, -0.029967404901981354, 0.006084998603910208, -0.0272153839468956, 0.024885831400752068, -0.016728004440665245, 0.01246353518217802, -0.027951912954449654, -0.009711920283734798, -0.025420311838388443, -0.026940645650029182, -0.03239494189620018, -0.03163479268550873, -0.023009447380900383, 0.017881838604807854, -0.024031173437833786, -0.02654205821454525, 0.005240870174020529, -0.011519895866513252, -0.01987001858651638, -3.3739361242624e-05, 0.02150283008813858, -0.025136234238743782, -0.02750645950436592, -0.03223269432783127, -0.028925057500600815, -0.011948342435061932, -0.004061822313815355, 0.022550445050001144, -0.00837620534002781, -0.01175703201442957, 0.004314486403018236, 0.004055148456245661, -0.033618684858083725, 0.03276883810758591, 0.032984472811222076, 0.017306387424468994, 0.008590798825025558, 0.025312410667538643, -0.028977151960134506, -0.010467403568327427, 0.0329655185341835, -0.03471700847148895, 3.627767728175968e-05, -0.031015748158097267, -0.001956638880074024, -0.0376039482653141, -0.028614284470677376, 0.011859769932925701, 0.013098347000777721, 0.02447436936199665, -0.017531830817461014, 0.008004686795175076, -0.009141054004430771, 0.029167095199227333, 0.011604413390159607, 0.028810402378439903, 0.0051420885138213634, -0.022578367963433266, 0.01834217645227909, -0.006898804567754269, 0.005357558373361826, 0.006804581731557846, -0.010482510551810265, -0.019346507266163826, -0.026315202936530113, -0.004202289041131735, 0.008863484486937523, 0.008285065181553364, -0.02490776777267456, 0.02189243957400322, 0.025676706805825233, 0.021779309958219528, 0.01551659032702446, 0.02100571058690548, 0.026054559275507927, 0.024040093645453453, 0.017253991216421127, 0.0036460214760154486, 0.030113499611616135, 0.030503390356898308, 0.004123919643461704, 0.029931332916021347, 0.009488881565630436, 0.015573435463011265, 0.024960791692137718, -0.019513392820954323, 0.0016790847294032574, -0.0031578554771840572, -0.02712024189531803, -0.013059458695352077, -0.019035041332244873, -0.007887409068644047, 0.0166182741522789, -0.014069066382944584, 0.0398380309343338, 0.007728613913059235, 0.005757183767855167, 0.002133176662027836, 0.031724266707897186, 0.02409621886909008, 0.028353214263916016, 0.006632976233959198, 0.03131522238254547, -0.036975160241127014, -0.03660336509346962, -0.0034311856143176556, -0.012481474317610264, -0.03122488223016262, -0.02295115776360035, -0.03703857213258743, 0.018644772469997406, -0.0003909603401552886, -0.01433058362454176, -0.03306202590465546, -0.026236381381750107, 0.01302262768149376, 0.025812895968556404, -0.004330839030444622, 0.011027371510863304, 0.046867553144693375, 0.015025687403976917, 0.0007073539891280234, 0.010882558301091194, -0.002288710791617632, 0.043396927416324615, 0.03166474401950836, -0.00848675798624754, 0.00890855398029089, -0.004719714634120464, -0.00021111626119818538, -0.022074980661273003, 0.028842562809586525, -0.028946302831172943, -0.022610964253544807, 0.0038903404492884874, -0.008435514755547047, -0.010962037369608879, -0.016286542639136314, 0.013789469376206398, 0.023777266964316368, -0.03450332209467888, 0.009818511083722115, 0.022770099341869354, -0.019066862761974335, 0.029894685372710228, 0.03763926029205322, 0.01606159843504429, 0.007820882834494114, -0.010642429813742638, -0.016848739236593246, -0.02624485455453396, 0.016776571050286293, 0.028119001537561417, 0.0037917050067335367, -0.023055549710989, -0.0020705333445221186, 0.030703941360116005, 0.03319799154996872, -0.027405552566051483, 0.00919165275990963, -0.019680272787809372, 0.02215653657913208, 0.015781160444021225, 0.022937914356589317, -0.0065657226368784904, -0.026289936155080795, 0.024881554767489433, 0.0246867798268795, -0.01154814288020134, -0.02405526116490364, 0.030567960813641548, -0.01140052080154419, -0.026561837643384933, 0.003331286832690239, 0.03729328140616417, -0.019751984626054764, 0.020996730774641037, 0.02943459339439869, 0.03656066954135895, -0.02929137647151947, -0.01682804897427559, 0.013926105573773384, 0.03259880095720291, 0.01148951519280672, 0.029727164655923843, -0.02696901559829712, 0.03175747022032738, 0.0234797615557909, -0.020277174189686775, -0.000154026216478087, -0.013917735777795315, -0.009324350394308567, -0.009414137341082096, -0.01930849812924862, -0.002797554014250636, -0.025611048564314842, -0.02753560245037079, 0.011248786933720112, 0.02265460230410099, 0.008024838753044605, -0.007398113142699003, -0.013526489958167076, -0.01395188644528389, -0.020484594628214836, 0.005452893674373627, -0.008054581470787525, 0.02349814772605896, 0.02215380035340786, 0.03453344106674194, 0.0262102372944355, -0.02020471915602684, -0.022815918549895287, -0.02387273870408535, 0.010009362362325191, -0.0070698936469852924, -0.004931462928652763, -0.01906997337937355, 0.015934310853481293, 0.011325133964419365, -0.03735756501555443, -0.018280144780874252, -0.036695994436740875, -0.0032735089771449566, 0.028006168082356453, -0.014361763373017311, 0.0307946614921093, -0.029365526512265205, 0.015524045564234257, 0.0341654047369957, -0.002936100820079446, 0.03708459064364433, -0.018869560211896896, -0.015228711999952793, 0.0033825989812612534, -0.02962290123105049, 0.003533045994117856, -0.01735783740878105, 0.008398372679948807, 0.0007575496565550566, 0.027288809418678284, -0.020341433584690094, -0.026475248858332634, 0.023862937465310097, -0.032121751457452774, 0.017219675704836845, 0.01434226706624031, -0.035521250218153, 0.008221681229770184, -0.031146053224802017, -0.0029551340267062187, -0.0063262442126870155, -0.017835775390267372, 0.014052278362214565, -0.009321862831711769, 0.008974914439022541, 0.033357832580804825, -0.02087259665131569, -0.004142570309340954, -0.02502119168639183, 0.027687357738614082, -0.020832806825637817, 0.01232370175421238, -0.0291304774582386, -0.026440221816301346, 0.024939142167568207, 0.006138598546385765, 0.010657085105776787, 0.017181983217597008, -0.011376905255019665, 0.027160905301570892, 0.025888018310070038, -0.036283187568187714, -0.022340528666973114, 0.02204287424683571, 0.013233304023742676, -0.008960148319602013, 0.0010868014069274068, 0.026535876095294952, 0.0038184211589396, 0.017839103937149048, -0.02703869715332985, 0.01852601394057274, 0.00043187252595089376, -0.015221891924738884, 0.042132824659347534, -0.02629614621400833, -0.018767882138490677, 0.00815708190202713, 0.02292386069893837, -0.0321807786822319, 0.0033909985795617104, -0.03009331040084362, 0.0050705415196716785, 0.02158413454890251, 0.02897525392472744, 0.02290779910981655, -0.00402156263589859, -0.005310805980116129, 0.0019804625771939754, 0.03175238519906998, -0.011828746646642685, 0.015210040844976902, 0.020932398736476898, 0.028879385441541672, 0.018316593021154404, -0.013179304078221321, -0.02163953147828579, 0.03394792973995209, 0.026729818433523178, 0.009356888942420483, -0.027493001893162727, -0.015505028888583183, -0.023090776056051254, 0.013013742864131927, 0.028025656938552856, -0.013046189211308956, -0.004434382542967796, -0.003384585492312908, -0.009180212393403053, 0.03314478322863579, 0.0027551273815333843, -0.014669491909444332, 0.01322527602314949, -0.017640726640820503, -0.024027900770306587, -0.013272368349134922, 0.01291883084923029, 0.013734488748013973, 0.005780243314802647, 0.022890200838446617, -0.022950589656829834, -0.004603170324116945, 0.022249406203627586, -0.016409857198596, -0.0015393218491226435, -0.023314550518989563, 0.014249028638005257, -0.003944788593798876, 0.018689442425966263, 0.04325113072991371, 0.03234848380088806, -0.0037421376910060644, -0.005944473668932915, -0.015441005118191242, -0.02843552827835083, -0.008256489410996437, 0.02692790888249874, -0.014428490772843361, 0.003939680755138397, 0.03297000378370285, -0.020411891862750053, 0.014068746007978916, -0.03284052759408951, -0.0218564011156559, 0.0058407229371368885, -0.022489389404654503, 0.024386314675211906, -0.0218666959553957, -0.015172853134572506, -0.010851162485778332, 0.0031554107554256916, -0.0281029362231493, -0.029151568189263344, -0.005630228668451309, 0.010953723452985287, 0.03726370260119438, 0.02873191609978676, 0.025145286694169044, 0.030253108590841293, -0.010929659008979797, 0.03830869123339653, 0.002544417977333069, -0.02743750996887684, 0.016918035224080086, -0.0007027877145446837, 0.029861288145184517, 0.030127061530947685, -0.02266840636730194, 0.018399739637970924, 0.026282334700226784, 0.008781961165368557, 0.029286548495292664, 0.03157232701778412, 0.020815012976527214, -0.01763932593166828, 0.02840074896812439, 0.019287269562482834, 0.029806051403284073, 0.015811312943696976, 0.0031811415683478117, -0.027775868773460388, 0.02684992551803589, 0.0037572754081338644, -0.015580564737319946, 0.026818759739398956, 0.04099505767226219, -0.027633491903543472, -0.029089707881212234, 0.003858458949252963, -0.0070112282410264015, 0.019336307421326637, 0.02109699323773384, -0.006620888132601976, 0.0013273877557367086, 0.02009696327149868, -0.030036628246307373, -0.011200503446161747, -0.0032007405534386635, -0.006433808244764805, 0.030005747452378273, 0.008367096073925495, 0.016600999981164932, 0.01363794319331646, 0.031250983476638794, 0.029139449819922447, -0.027250004932284355, -0.007416103966534138, 0.02587168477475643, -0.03537142276763916, -0.02126801759004593, -0.02382093109190464, -0.007559861987829208, 0.002878097351640463, -0.003511856310069561, -0.0020368925761431456, 0.02370494417846203, -0.005322338081896305, 0.027383262291550636, -0.02161138318479061, 0.02248058281838894, 0.022117627784609795, -0.02449788711965084, 0.003411591285839677, 0.005460765678435564, 0.02486426755785942, -0.01189220231026411, -0.02361193485558033, -0.0008707664674147964, -0.01777610182762146, 0.027212439104914665, 0.0021735485643148422, -0.029590681195259094, 0.006754790898412466, -0.003194168210029602, -0.03513529896736145, 0.007735912222415209, -0.010196751914918423, 0.033942341804504395, 0.0033923531882464886, 0.02180972695350647, 0.02490858919918537, 0.006916622631251812, 0.013966783881187439, -0.02073826640844345, -0.007167642004787922, 0.028068898245692253, 0.034932173788547516, -0.017450179904699326, 0.0007937189657241106, 0.03734564781188965, 0.008475597947835922, 0.006725657265633345, -0.010599734261631966, -0.03037361055612564, -0.006122148130089045, -0.018073750659823418, -0.03456047922372818, 0.00010521461808821186, -0.019618378952145576, 0.0018084453186020255, -0.013571873307228088, 0.015047472901642323, -0.010066268034279346, -0.014152969233691692, -0.020383790135383606, 0.018346097320318222, 0.021027160808444023, -0.028288261964917183, -0.021740593016147614, -0.02134084329009056, 0.021306563168764114, -0.004396369680762291, 0.03649267181754112, 0.004598752595484257, -0.018586374819278717, 0.014860126189887524, 0.03816227614879608, 0.03744678571820259, -0.004272500053048134, -0.018379583954811096, 0.00318335322663188, -0.03626270592212677, 0.0025829188525676727, -0.03706018626689911, 0.025971559807658195, 0.02195158042013645, -0.014138366095721722, -0.005374998785555363, 0.00014351434947457165, -0.0010279802372679114, -0.013354837894439697, 0.00728929229080677, -0.015789011493325233, -0.029257144778966904, -0.006782562006264925, 0.0007585107232443988, -0.0014697994338348508, 0.022291073575615883, 0.03724917396903038, -0.010351927019655704, -0.02329724095761776, -0.003710953751578927, -0.019396448507905006, 0.03799900412559509, 0.01998208649456501, 0.012602483853697777, -0.01527408417314291, 0.003051549894735217, 0.009743878617882729, -0.021782254800200462, 0.0024208067916333675, 0.0030501042492687702, -0.03311249986290932, -0.03148220479488373, -0.01711876317858696, 0.0053439270704984665, 0.005785940680652857, -0.008552025072276592, -0.02354765683412552, 0.02881423942744732, 0.021703600883483887, -0.01589859090745449, -0.01583193615078926, 0.022387227043509483, 0.03404305502772331, 0.01953905075788498, -0.006740582175552845, -0.0002742412907537073, 0.00830216147005558, 0.039082251489162445, 0.0019436919828876853, -0.0069139087572693825, 0.015344968065619469, -0.029185380786657333, -0.017017042264342308, 0.006100115831941366, 0.015373514965176582, -0.03582296893000603, 0.018936121836304665, -0.01517984177917242, -0.020827092230319977, 0.011390505358576775, -0.003241301514208317, -0.0027917104307562113, 0.006405466701835394, -0.02015545964241028, -0.031278181821107864, 0.0015048917848616838, 0.025124331936240196, 0.018501244485378265, -0.03189822658896446, 0.008873896673321724, -0.005598841700702906, -0.01922796107828617, -0.01733662188053131, 0.022076932713389397, 0.034766245633363724, 0.02377326227724552, -0.029836861416697502, 0.011546098627150059, -0.01161298155784607, -0.03179903328418732, -0.019763529300689697, 0.020237792283296585, 0.01235172152519226, -0.02244756370782852, 0.002874453319236636, -0.036584753543138504, 0.0001022835131152533, 0.0015959902666509151, -0.010472770780324936, 0.031605567783117294, -0.017911264672875404, -0.0058065736666321754, -0.03682903200387955, 0.02213774435222149, 0.0137097779661417, -0.03341042622923851, -0.034417297691106796, -0.025964874774217606, 0.007481564301997423, -0.03563259169459343, -0.00612006988376379, -0.015222681686282158, -0.01305834949016571, -0.015856996178627014, 0.011957120150327682, -0.022296423092484474, 0.018855614587664604, 0.027576593682169914, -0.01518129650503397, -0.015802299603819847, -0.02081611566245556, -0.013940095901489258, -0.008173429407179356, -0.017335938289761543, 0.011177388951182365, -0.03459346666932106, -0.01575024053454399, 0.033707935363054276, 0.009472932666540146, -0.02053682878613472, 0.014145242981612682, 0.02998874895274639, 0.016315674409270287, -0.0006653834134340286, -0.0035436954349279404, -0.003106179181486368, 0.017100803554058075, -0.031606998294591904, 0.00791102834045887, -0.0035149590112268925, -0.0031219315715134144, -0.02258479967713356, -0.036694806069135666, 0.025430945679545403, 0.02227705903351307, -0.014907828532159328, 0.01737227477133274, 0.025736309587955475, 0.012407064437866211, -0.022302456200122833, 0.008243702352046967, 0.005224775057286024, -0.02053816430270672, -0.01773645170032978, -0.02330595813691616, -0.027087626978754997, 0.03079836629331112, 0.029085839167237282, 0.013029243797063828, 0.02953997254371643, 0.02888569049537182, 0.022968553006649017, 0.01961563527584076, 0.014061235822737217, -0.03307133913040161, 0.02422012761235237, -0.033241156488657, 0.0006542944465763867, 0.03312164545059204, -0.015066551975905895, 0.02017558366060257, -0.022703872993588448, 0.01787646673619747, 0.02752039209008217, -0.024807758629322052, -0.0018252566223964095, 0.024876220151782036, 0.02279312163591385, -0.016575230285525322, 0.003802861087024212, -0.023628877475857735, 0.006636065896600485, -0.031092828139662743, -0.016251234337687492, 0.027430174872279167, 0.0148282740265131, -0.007699017878621817, -0.014549437910318375, 0.005390866659581661, -0.005483968649059534, 0.010448821820318699, -0.022638872265815735, -0.007083972450345755, 0.0025657981168478727, -0.007279132027179003, 0.02003655955195427, -0.00665299454703927, -0.03408711403608322, -0.02746814675629139, 0.02804499678313732, 0.030280498787760735, 0.006170359905809164, -0.03097783960402012, -0.013131661340594292, -0.01432735100388527, 0.03019944205880165, 0.001931375009007752, 0.01318682823330164, 0.009394540451467037, -0.014896254986524582, 0.03187200054526329], [-0.012411967851221561, 0.030924595892429352, -0.010069351643323898, -0.027134926989674568, 0.02235843800008297, 0.008438749238848686, -0.021291105076670647, 0.03473677113652229, 0.024179838597774506, 0.0063171773217618465, -0.017406558617949486, 0.008508187718689442, 0.01347718108445406, -0.030684735625982285, -0.008592584170401096, -0.018444286659359932, 0.010633242316544056, -0.007457516621798277, 0.005269198212772608, 0.002293172525241971, 0.00431656651198864, -0.02890964224934578, -0.022075479850172997, 0.015279026702046394, -0.026923570781946182, 0.02053806371986866, -0.034392911940813065, -0.006159719545394182, 0.013822110369801521, 0.0056582908146083355, -0.034859493374824524, 0.011441949754953384, -0.0332673080265522, -0.019870825111865997, 0.01905863918364048, -0.019871924072504044, -0.029653534293174744, -0.02238534949719906, 0.030113331973552704, 0.034655310213565826, -0.005692833568900824, -0.015314043499529362, 0.006228865589946508, 0.0072600082494318485, 0.03224828466773033, 0.016993694007396698, 0.018803419545292854, -0.021220725029706955, 0.022886618971824646, -0.03382514789700508, -0.015149151906371117, 0.0010653272038325667, -0.03410421684384346, -0.027247294783592224, -0.01454701367765665, -0.027931446209549904, -0.026846230030059814, -0.027982359752058983, 0.0020262314938008785, -0.028607970103621483, 0.035195574164390564, -0.001993581186980009, -0.007041465491056442, 0.03091697208583355, -0.02000494860112667, -0.0003362386196386069, -0.033822108060121536, -0.03257271647453308, -0.0069095236249268055, -0.03311270475387573, 0.025132615119218826, 0.02788277342915535, 0.007517135702073574, 0.018805617466568947, -0.010747745633125305, -0.03396172076463699, -0.01099860668182373, 0.03528129309415817, 9.855718235485256e-05, 0.007217035163193941, 0.026349257677793503, -8.268382953247055e-05, -0.03353993222117424, -0.02261504717171192, 0.026537692174315453, 0.028200043365359306, 0.025090914219617844, -0.0275375135242939, 0.03338596224784851, -0.005587398074567318, 0.028850119560956955, 0.01877339743077755, -0.017901115119457245, -0.0357573926448822, -0.026282519102096558, -0.029450763016939163, 0.007757093757390976, 0.00234199408441782, -0.02793269418179989, -0.005168436095118523, 0.01606769673526287, -0.030111752450466156, -0.029325352981686592, -0.013283565640449524, 0.014424285851418972, -0.018578004091978073, 0.01895509660243988, 0.003979864064604044, 0.012696974910795689, -0.030614856630563736, -0.012510968372225761, -0.02213122695684433, -0.0349295549094677, 0.026511473581194878, 0.018058771267533302, 0.005693134851753712, -0.024504801258444786, -0.013925560750067234, -0.014022485353052616, -0.035478442907333374, -0.028494955971837044, 0.007999999448657036, -0.021949833258986473, 0.010665057227015495, -0.010346672497689724, -0.027846047654747963, -0.035894278436899185, -0.01048059482127428, 0.006372570991516113, 0.001132171368226409, -0.011111675761640072, -0.025282584130764008, 0.007856667973101139, 0.032504815608263016, 0.00294725620187819, 0.010134478099644184, 0.034182388335466385, 0.033004049211740494, 0.009583080187439919, -0.019763365387916565, 0.03235689178109169, -0.0057557919062674046, -0.018694529309868813, -0.008984982036054134, 0.02878449857234955, -0.018345842137932777, 0.03406572714447975, 0.0013268301263451576, -0.007065939251333475, -0.008277462795376778, 0.025442494079470634, -0.0240944791585207, 0.028457365930080414, 0.00987940188497305, 0.03135242685675621, 0.010816913098096848, -0.020955340936779976, -0.027651071548461914, -0.004428481683135033, -0.004857184831053019, 0.021760322153568268, -0.0047920215874910355, -0.015594113618135452, 0.01113217230886221, 0.01871367171406746, -0.016403816640377045, -0.019397856667637825, 0.018321748822927475, -0.03046303056180477, 0.006436677649617195, -0.014115498401224613, -0.0030035991221666336, 0.023057837039232254, 0.013188436627388, 0.011351777240633965, -0.009313071146607399, 0.031116560101509094, -0.005662471987307072, 0.013797396793961525, -0.023163743317127228, -0.01985456421971321, 0.011571061797440052, -0.00889637228101492, -0.018858641386032104, 0.0012862192234024405, -0.02378534898161888, 0.019935008138418198, -0.0031468078959733248, 0.009925751946866512, -0.021200470626354218, 0.0204696673899889, 0.009353685192763805, 7.093989552231506e-05, 0.034515898674726486, -0.0034244961570948362, 0.023860624060034752, -0.021690893918275833, 0.008925438858568668, 0.022105831652879715, 0.006482042837888002, -0.007037227042019367, 0.0068414476700127125, 0.01127602718770504, -0.026067296043038368, -0.019093459472060204, 0.011088558472692966, -0.003300379030406475, 0.009785162284970284, 0.004736689850687981, 0.03500496596097946, 0.017108546569943428, 0.016704577952623367, -0.01913505420088768, 0.013438951224088669, 0.02304081991314888, -0.005714020226150751, 0.006281792651861906, 0.021156856790184975, 0.03204217553138733, -0.03086964599788189, -0.030520964413881302, 0.03069373033940792, -0.0072494312189519405, 0.0020698849111795425, -0.030850719660520554, 0.01857449859380722, -0.0030557471327483654, -0.0138541329652071, 0.03280419111251831, -0.02984459511935711, -0.01947655901312828, 0.015340091660618782, -0.020722487941384315, -0.025151345878839493, 0.023352252319455147, -0.0039799269288778305, 0.028820322826504707, -0.021615441888570786, -0.016375966370105743, 0.020862679928541183, -0.01040166150778532, 0.0279232207685709, -0.01566455513238907, 0.023760419338941574, -0.02612082101404667, 0.036315351724624634, -0.03157970681786537, 0.008841786533594131, -0.027834229171276093, 0.0007109928992576897, 0.03464340418577194, -0.0017411281587556005, 0.018793554976582527, -0.004378265235573053, 0.02161301299929619, 0.012961572967469692, 0.010311925783753395, 0.03569963946938515, 0.027511047199368477, 0.00782077293843031, 0.02920137718319893, -0.014303225092589855, -0.036944687366485596, -0.019979001954197884, 0.026238804683089256, -0.005026038270443678, -0.006243373733013868, 0.024044131860136986, -0.00369513058103621, 0.023224448785185814, 0.02617485448718071, 0.025664955377578735, 0.017777465283870697, 0.03738076612353325, 0.006728127598762512, 0.015577639453113079, 0.019557518884539604, 0.021392973139882088, 0.0293576680123806, 0.00615311972796917, 0.009848663583397865, 0.026066511869430542, 0.026062054559588432, -0.03258024901151657, -0.03197363764047623, -0.02729092910885811, 0.025713978335261345, -0.02597736567258835, -0.0024040460120886564, -0.035291172564029694, -0.029365889728069305, 0.02395511418581009, -0.029728898778557777, -0.029875444248318672, 0.024832559749484062, 0.036799754947423935, 0.02451183833181858, -0.019071832299232483, 0.015496412292122841, -0.0017647536005824804, 0.006129961460828781, 0.03456012159585953, -0.029752492904663086, 0.0006702251848764718, 0.027632782235741615, 0.0036999203730374575, 0.02351832203567028, -0.014234893955290318, -0.004586734808981419, 0.02031877264380455, -0.016627216711640358, 0.03490631654858589, 0.01656278781592846, -0.022762242704629898, 0.016123613342642784, 0.00959870871156454, 0.034125108271837234, -0.02668297104537487, -0.00826217234134674, -0.0007359479204751551, 0.023884592577815056, 0.007387797348201275, 0.03057912550866604, 0.025244688615202904, -0.012983485125005245, -0.009803885594010353, 0.026568720117211342, 0.008676974102854729, 0.023669203743338585, -0.010106781497597694, 0.03581826016306877, 0.011659903451800346, -0.012836475856602192, 0.014635828323662281, -0.015106484293937683, -0.02012985572218895, -0.0050459918566048145, -0.0025435322895646095, 0.0029924341943114996, -0.032014500349760056, -0.024777568876743317, -0.00972291175276041, -0.024216333404183388, -0.0035689568612724543, 0.027219384908676147, 0.00018595023720990866, -0.009258083067834377, -0.012145509012043476, 0.005733176600188017, -0.01771637238562107, -0.01876489631831646, -0.0035863416269421577, 0.0025634344201534986, -0.02848155051469803, -0.004470637999475002, 0.011019976809620857, -0.014327215030789375, 0.03191915899515152, -0.010223216377198696, 0.011813361197710037, 0.031667690724134445, 0.03562593832612038, -0.010358594357967377, 0.03572170063853264, -0.006577868014574051, -0.031118914484977722, -0.005987708922475576, 0.03282797709107399, -0.007039217744022608, -0.01840844377875328, 0.013513874262571335, 0.007930267602205276, -0.026474876329302788, -0.008253431878983974, 0.016099315136671066, 0.025777561590075493, -0.03782913088798523, -0.030899183824658394, -0.0034364559687674046, -0.011054517701268196, -0.011551406234502792, -0.023501018062233925, -0.03747370466589928, -0.0018540503224357963, -0.016619311645627022, -0.020055724307894707, -0.02443258836865425, 0.037122659385204315, 0.027721308171749115, -0.029476294293999672, -0.021347425878047943, 0.01556741539388895, 0.01104008685797453, 0.014914510771632195, -0.016763750463724136, -0.0028419289737939835, 0.004803432617336512, 0.01827433332800865, 0.01199532300233841, -0.0028667764272540808, -0.027212228626012802, -0.007005713414400816, 0.009435588493943214, 0.0029803153593093157, 0.005501268897205591, -0.027819965034723282, -0.025020141154527664, -0.027357129380106926, 0.011028161272406578, -0.04009013622999191, -0.0033923531882464886, -0.0047128391452133656, 0.021201282739639282, -0.01758536323904991, 0.036798715591430664, -0.02640477754175663, 0.024795396253466606, -0.0036545528564602137, -0.018789932131767273, 0.024426564574241638, -0.02013474702835083, -0.02841009572148323, 0.02664470113813877, -0.010067258030176163, -0.026173245161771774, 0.0051842727698385715, -0.02415507473051548, -0.02801521122455597, 0.034497298300266266, 0.01875709742307663, -0.0027726106345653534, -9.004390449263155e-06, 0.00016152812168002129, -0.010404332540929317, -0.018081584945321083, -0.04067568853497505, 0.003163700457662344, -0.0055458080023527145, -0.02142266556620598, -0.010693639516830444, -0.02630041167140007, 0.02702595666050911, 0.02007218264043331, 0.031984228640794754, -0.01855172961950302, 0.014299527741968632, 0.017274921759963036, 0.027991032227873802, 0.02316724695265293, -0.028585776686668396, -0.019273418933153152, 0.018480131402611732, 0.0068870121613144875, -0.009961009956896305, 0.004020932130515575, 0.00257781776599586, 0.006560329347848892, -0.01119404286146164, -0.005562280770391226, 0.01732088439166546, -0.03878320753574371, -0.03763432428240776, -0.026766162365674973, 0.0006169773987494409, -0.00013768835924565792, -0.00031281355768442154, 0.03066258877515793, -0.02466045692563057, -0.011021710000932217, -0.008007596246898174, -0.03136570006608963, 0.028507478535175323, 0.007477635517716408, -0.026496004313230515, -0.0027267332188785076, -0.005660811439156532, 0.007566788699477911, -0.0304038655012846, 0.01832994818687439, 0.01969536766409874, 0.02942810021340847, 0.014356521889567375, 0.02042878419160843, 0.02155849151313305, -0.024923836812376976, -0.01595749333500862, -0.02113998308777809, 0.002339736558496952, -0.014957952313125134, -0.013878146186470985, -0.014235395938158035, 0.013104329816997051, 0.01900305040180683, 0.0005630567320622504, -0.008557640016078949, -0.03335454687476158, -0.013073652982711792, -0.02344559133052826, 0.013248765841126442, -0.026657385751605034, 0.0286052618175745, -0.021265504881739616, 0.030122319236397743, -0.003841861616820097, -0.01024792529642582, 0.029569122940301895, -0.0047130342572927475, -0.0014520565746352077, -0.011798493564128876, 0.009288853965699673, 0.013691168278455734, -0.001571962609887123, 0.02007271535694599, 0.013519342988729477, -0.028729554265737534, -0.04546019807457924, 0.011198298074305058, 0.007994591258466244, 0.0017248267540708184, 0.0019398335134610534, -0.012978517450392246, 0.009065523743629456, -0.028338449075818062, -0.026968887075781822, -0.018898330628871918, 0.009922563098371029, 0.020743058994412422, 0.027299676090478897, 0.03001234121620655, 0.02854231558740139, -0.026193436235189438, 0.028455929830670357, 0.02899106591939926, -0.021265549585223198, 0.013125486671924591, 0.010382209904491901, 0.0028714474756270647, 0.034510090947151184, -0.028634734451770782, 0.02647351287305355, 0.01806236058473587, -0.036676183342933655, -0.020573779940605164, 0.0044734301045536995, 0.021263130009174347, -0.035538770258426666, 0.025947924703359604, -0.03340675309300423, -0.035123057663440704, 0.027058104053139687, 0.011374300345778465, -0.017666099593043327, 0.02440338395535946, -0.00571911595761776, 0.0017791989957913756, 0.029610130935907364, -0.030922522768378258, -0.025193292647600174, 0.01725388504564762, -0.020843904465436935, -0.034193255007267, -0.017673281952738762, 0.01161892432719469, -0.007517465390264988, -0.03170836344361305, -0.01688964292407036, 0.019827213138341904, 0.03228051960468292, 0.018198806792497635, 0.009845121763646603, -0.037049923092126846, -0.018589476123452187, -0.018017414957284927, -0.037219125777482986, -0.0028146877884864807, 0.005231271497905254, -0.025280440226197243, 0.00818374752998352, -0.019506165757775307, 0.013368292711675167, -0.01867915503680706, -0.02441311813890934, -0.014590260572731495, 0.007759843487292528, 0.03305283561348915, -0.0018902563024312258, -0.003752275137230754, -0.00767192617058754, 0.03277833014726639, 0.002299688523635268, 0.0051375566981732845, -0.001427303534001112, 0.0003555459843482822, 0.027357717975974083, -0.006891264580190182, -0.0021755420602858067, 0.007345881778746843, 0.02751508541405201, 0.03574855625629425, -0.007372816558927298, 0.020558102056384087, -0.0275610089302063, 0.02427816390991211, 0.01807192899286747, -0.02011239342391491, 0.03278209641575813, 0.012887591496109962, 0.03310803696513176, 0.027073662728071213, 0.027438975870609283, -0.022641541436314583, -0.005432519130408764, 0.019837481901049614, 0.03244514763355255, 0.02861880511045456, -0.03046952746808529, -0.0001577470829943195, 0.029482845216989517, -0.024555720388889313, -0.03401841223239899, -0.005925760138779879, 0.03710727021098137, 0.021419411525130272, -0.01984543353319168, 0.02393253892660141, -0.00021579711756203324, -0.006614123471081257, 0.02896757423877716, -0.025941742584109306, -0.028610430657863617, 0.02464776672422886, -0.007269690744578838, -0.02983734756708145, -0.012353461235761642, 0.020746557042002678, -0.015014469623565674, -0.016049325466156006, 0.001963281072676182, -0.0017302322667092085, 0.01991960220038891, 0.032177627086639404, -0.0076895467936992645, 0.00854581780731678, 0.0070135826244950294, 0.017976904287934303, 0.021680748090147972, -0.029402608051896095, -0.03299436718225479, -0.030731435865163803, -0.020394055172801018, 0.0020197993144392967, 0.009057643823325634, 0.027691306546330452, 0.025189101696014404, 0.01159200444817543, 0.03162534534931183, 0.006101573351770639, -0.027792682871222496, 0.017369499430060387, 0.03715680167078972, 0.031610243022441864, -0.030476806685328484, -0.023239172995090485, 0.025694306939840317, 0.024287430569529533, -0.0021585659123957157, -0.028109125792980194, -0.030209047719836235, -0.028683211654424667, 0.01736721396446228, 0.03173575922846794, -0.03338250517845154, -0.022383032366633415, -0.019643371924757957, 0.008873066864907742, 0.006880316883325577, 0.032526470720767975, 0.0228427741676569, 0.025601420551538467, 0.033044375479221344, -0.029142916202545166, 0.019546078518033028, -0.013545343652367592, 0.010474824346601963, -0.027059044688940048, -0.003456076607108116, 0.02180931530892849, -0.02365056611597538, 0.00451401574537158, 0.003512832336127758, -0.02274920791387558, 0.03373997285962105, -0.03043491020798683, 0.013168673031032085, -0.006951200310140848, 0.033888351172208786, -0.022935420274734497, -0.0035234522074460983, -0.021279864013195038, -0.0213181022554636, 0.03129938989877701, 0.024806661531329155, -0.006853423546999693, 0.010026116855442524, -0.0007757025887258351, 0.020477592945098877, -0.029513899236917496, 0.01739068515598774, 0.025018831714987755, 0.03372618556022644, 0.008974202908575535, -0.0029831314459443092, -0.02164224535226822, 0.00718179764226079, 0.0095540015026927, 0.003460997249931097, 0.004809309728443623, 0.017341164872050285, 0.02660122513771057, 0.02347542718052864, -0.03113327920436859, -0.01560918428003788, -0.010605873540043831, -0.03272043913602829, 0.03435162082314491, 0.020562047138810158, 0.022444631904363632, 0.016888584941625595, 0.009488584473729134, -0.012316604144871235, -0.03310691937804222, 0.005326868966221809, -0.01823187805712223, -0.019792376086115837, 0.02508557215332985, 0.029702728614211082, -0.030245335772633553, -0.03223950415849686, 0.004800624214112759, 0.020959580317139626, -0.015233579091727734, -0.023514674976468086, 0.022785373032093048, -0.017296794801950455, -0.032459866255521774, 0.018254995346069336, -0.017614059150218964, -0.006056910380721092, 0.016854887828230858, -0.0271193478256464, 0.021910768002271652, 0.002584104659035802, -0.022619685158133507, -0.017612023279070854, -0.002735911635681987, 0.030047396197915077, 0.03158895671367645, 0.029417086392641068, 0.025083288550376892, -0.011474089697003365, -0.012715921737253666, 0.0023114276118576527, -0.005409311968833208, -0.020314104855060577, -0.014890013262629509, 0.03140774369239807, -0.012341151013970375, 0.029523350298404694, -0.034893814474344254, 0.015808355063199997, -0.011873872019350529, 0.008252779021859169, 0.026566268876194954, -0.013152172788977623, 0.011391346342861652, -0.034964751452207565, 0.014800370670855045, 0.019990840926766396, 0.03387933969497681, 0.01955316588282585, 0.028332512825727463, 0.005957604851573706, -0.01621881313621998, 0.023697173222899437], [-0.00046764695434831083, 0.021529581397771835, -0.018123207613825798, -0.021214935928583145, -0.030708368867635727, -0.014585385099053383, 0.03044932335615158, 0.026204561814665794, 0.02040802501142025, 0.024444065988063812, -0.03234312683343887, -0.01322844997048378, -0.026206793263554573, 0.005771791562438011, 0.02636110968887806, 0.028304127976298332, 0.013286670669913292, -0.00980700459331274, 0.027608662843704224, -0.0060241264291107655, 0.0019732913933694363, 0.0006729111191816628, -0.013857313431799412, -0.016664691269397736, -0.00954010896384716, -0.018955860286951065, -0.0061583672650158405, -0.011198355816304684, 0.02583446353673935, 0.02371027134358883, 0.012763729318976402, -0.014363887719810009, -0.03550615906715393, -0.02164214849472046, 0.02143286168575287, -7.572605682071298e-05, -0.021072695031762123, -0.02971089631319046, 0.019523300230503082, 0.030192358419299126, 0.013530625961720943, 0.024374371394515038, 0.0024226547684520483, -0.018961969763040543, 0.024956971406936646, 0.03175343573093414, -0.018339982256293297, -0.024314993992447853, 0.018823791295289993, -0.03504093363881111, -0.030046796426177025, -0.024090757593512535, 0.029751086607575417, 0.010868782177567482, -0.030350835993885994, 0.01620635576546192, -0.006766487844288349, -0.018582213670015335, -0.01465761847794056, 0.007955447770655155, -0.011660872027277946, 0.003759357612580061, 0.015093204565346241, -0.01890803873538971, 0.022693872451782227, -0.014740144833922386, -0.017094457522034645, 0.03126620873808861, -0.011153589934110641, 0.031928133219480515, -0.025222979485988617, 0.025539878755807877, -0.017070962116122246, 0.009630752727389336, 0.019510403275489807, 0.029056096449494362, -0.02653147652745247, -0.0018466967158019543, -0.02058250457048416, -0.012880631722509861, -0.030630987137556076, -0.02810133434832096, 0.017416158691048622, -0.013156790286302567, -0.03040226362645626, 0.023468874394893646, -0.02418561466038227, -0.015834776684641838, -0.033441927284002304, 0.021961461752653122, 0.000509825476910919, 0.01840284839272499, 0.012582918629050255, 0.008033259771764278, -0.002796282758936286, 0.010235177353024483, -0.03746454790234566, -0.02034745179116726, -0.026107732206583023, -0.018137028440833092, 0.017699601128697395, -0.0018944813637062907, -0.0026672394014894962, -0.027668634429574013, -0.028833163902163506, 0.01907808519899845, -0.010965646244585514, 0.024887096136808395, -0.025846803560853004, 0.03341611102223396, -0.003686347045004368, -0.01022803783416748, 0.002717067254707217, 0.020121634006500244, 0.002023708075284958, -0.005623376928269863, -0.00901635643094778, -0.018712874501943588, -0.009312612935900688, 0.026041127741336823, -0.016784578561782837, 0.011874347925186157, -0.003481596941128373, 0.0023469491861760616, -8.907285518944263e-05, -0.016486983746290207, -0.02110237069427967, -0.022189849987626076, 0.0019702718127518892, -0.013054032810032368, -0.02728363312780857, -0.013775315135717392, -0.03187142685055733, 0.0223833117634058, -0.013651174493134022, 0.032898206263780594, -0.002091585658490658, 0.006440317258238792, 0.014568942598998547, -0.0034384438768029213, 0.0021206510718911886, 0.02664823643863201, -0.017055761069059372, -0.03333409130573273, -0.02915871888399124, 0.02188163809478283, -0.002850643126294017, 0.015260854735970497, 0.020942160859704018, -0.023234937340021133, -0.008430540561676025, 0.009328686632215977, 0.0036017324309796095, -0.009933291003108025, -0.01804490014910698, -0.013984503224492073, 0.00292791286483407, 0.02367619052529335, 0.028334058821201324, -0.00611112592741847, 0.007062696386128664, -0.022418739274144173, 0.004251414444297552, -0.0007816092111170292, 0.00914357602596283, 0.004310971591621637, 0.01506452914327383, 0.007604797370731831, 0.026700496673583984, -0.014524836093187332, -0.02791202813386917, -0.01210814155638218, -0.000911185285076499, -0.03545260429382324, -0.009403998032212257, -0.01730511151254177, -0.03622383624315262, 0.02099551260471344, -0.025150109082460403, -0.02527739852666855, -0.0009682200034148991, 0.0007061865762807429, 0.014222756028175354, -0.029385041445493698, 0.021359119564294815, 0.0018698907224461436, 0.02244430221617222, -0.012330721132457256, -0.03308495879173279, 0.028777414932847023, 0.020613880828022957, 0.029060499742627144, 0.024661047384142876, -0.027930814772844315, -0.0077170575968921185, -0.004372528754174709, 0.005872646812349558, 0.007140629459172487, -0.028647618368268013, 0.02303180657327175, -0.03689436987042427, -0.012481323443353176, 0.003496169811114669, -0.034026917070150375, -0.025778375566005707, 0.026888646185398102, 0.003171425312757492, -0.004350282717496157, 0.02547992579638958, -0.02021314762532711, 0.0009200693457387388, 0.03398851677775383, -0.0032996705267578363, 0.032692380249500275, 0.03146684169769287, -0.03126787766814232, 0.03118218295276165, 0.002475610002875328, 0.014333650469779968, -0.017801064997911453, 0.01667468622326851, -0.017392940819263458, 0.008381233550608158, -0.002115431008860469, -0.007412939332425594, -0.011188484728336334, -0.00835415255278349, 0.020002314820885658, -0.021073460578918457, -0.015419872477650642, 0.004550330340862274, 0.03292692080140114, 0.0005830241716466844, -0.010673318058252335, -0.02809191308915615, 0.012411022558808327, 0.02039235271513462, 0.008748436346650124, 0.03063652291893959, -0.0002405325067229569, 0.015747565776109695, 0.011374659836292267, -0.026363849639892578, 0.0012935349950566888, -0.030223459005355835, 0.020108573138713837, 0.0007762296590954065, -0.023685675114393234, 0.02680027298629284, -0.009351863525807858, 0.003101218491792679, -0.020697487518191338, -0.019853772595524788, -0.010133241303265095, 0.010194296017289162, -0.000937095086555928, 0.00925197172909975, -0.011547167785465717, -0.005627404898405075, 0.013307812623679638, -0.012035512365400791, 0.031199777498841286, -0.025744251906871796, -0.012409482151269913, 0.021845601499080658, 0.011426870711147785, -0.027277030050754547, -0.025338064879179, -0.02375059388577938, 0.015591293573379517, -0.02312283217906952, 0.020715337246656418, -0.01268925704061985, -0.0014385186368599534, 0.03145632520318031, -0.031909018754959106, 0.011227556504309177, -0.018935812637209892, -0.008873490616679192, 0.012958463281393051, -0.0053566694259643555, -0.02954830788075924, 0.02201097458600998, -0.0013328491477295756, 0.0011278589954599738, 0.0038107235450297594, -0.030886586755514145, 0.012204489670693874, 0.007376726716756821, 0.02862969972193241, 0.005325783509761095, 0.016762971878051758, -0.020582204684615135, 0.018214724957942963, -0.024985890835523605, -0.013009162619709969, -0.01598973758518696, 0.01176499668508768, -0.020519038662314415, 0.008427784778177738, -0.027333902195096016, -0.02858561836183071, -0.018885064870119095, -0.017275268211960793, 0.03317376598715782, 0.008601820096373558, -0.02060370333492756, 0.008710923604667187, 0.006672731600701809, 0.009735518135130405, -0.02300299145281315, -0.017771447077393532, -0.03149867430329323, -0.031357407569885254, -0.035683371126651764, 0.0007275912212207913, 0.012621238827705383, 0.03338664397597313, -0.007644932251423597, 0.01431276835501194, 0.032291658222675323, -0.01286369375884533, 0.0019957455806434155, 0.03729582950472832, -0.019443927332758904, 0.014453116804361343, -0.0023246449418365955, 0.008036565035581589, 0.02795565500855446, 0.00839248113334179, 0.026018701493740082, 0.0003123669303022325, -0.013506113551557064, -0.02451608143746853, -0.001280047814361751, -0.03776739165186882, -0.019307229667901993, 0.017013266682624817, -0.02601572684943676, 0.00511983223259449, 0.0017933622002601624, -0.009288894012570381, 0.01821288652718067, -0.013940161094069481, -0.021497178822755814, -0.025166794657707214, -0.012865212745964527, -0.02134738303720951, -0.011965787969529629, 0.02895415388047695, 0.038819920271635056, 0.02242630533874035, 0.022839238867163658, 0.027345122769474983, -0.00978474598377943, 0.003685498610138893, 0.015328903682529926, -0.02772977203130722, 0.02914491668343544, -0.024394884705543518, -0.01270020380616188, 0.011113747023046017, 0.01825469173491001, -0.03714755177497864, -0.01921193115413189, -0.020943379029631615, -0.034677717834711075, -0.021695714443922043, 0.0064101326279342175, 0.03495725616812706, -0.005905758123844862, 0.027860039845108986, -0.011344367638230324, 0.028582317754626274, 0.03383161500096321, -0.026059992611408234, -0.007526399102061987, 0.011268253438174725, -0.005313084460794926, 0.02582605555653572, 0.01615651696920395, -0.004550077952444553, -0.016712479293346405, -0.01492347102612257, -0.014630581252276897, -0.005092005245387554, -0.019702639430761337, 0.010380410589277744, -0.03401610627770424, 0.0034012391697615385, 0.008296694606542587, -0.03716965764760971, -0.015591656789183617, 0.003003019141033292, -0.01842200942337513, -0.007044273428618908, 0.005237755365669727, -0.023120341822504997, -0.0006250143051147461, 0.02713417261838913, -0.00894913263618946, 0.036091867834329605, 0.03031489998102188, 0.02941589429974556, -0.008552160114049911, 0.04268401488661766, 0.010203289799392223, 0.04103934392333031, -0.0037015180569142103, -0.013879694975912571, 0.033427800983190536, 0.019485177472233772, -0.015129745937883854, 0.013085773214697838, 0.03269731253385544, -0.008378026075661182, -0.00510037038475275, 0.018372047692537308, -0.02199821174144745, 0.02453347109258175, -0.032863494008779526, -0.027694331482052803, 0.02885483205318451, 0.017970960587263107, -0.0298449769616127, 0.008979201316833496, 0.03256748244166374, 0.003846692154183984, -0.009530843235552311, 0.005183203611522913, 0.02223953790962696, 0.009812231175601482, 0.004733989480882883, -0.0021117939613759518, -0.010788251645863056, 0.030890299007296562, 0.024727070704102516, 0.014114012010395527, -0.005390423350036144, 0.008436481468379498, 0.002028785413131118, -0.0050333235412836075, -0.007288763299584389, -0.030013712123036385, -0.010720890946686268, -0.01854768954217434, 0.01474042795598507, 0.013093396089971066, 0.005539008416235447, -0.02648746967315674, 0.032081834971904755, -0.0051917121745646, -0.010657579638063908, 0.02266119420528412, -0.0009598126052878797, -0.010640422813594341, 0.0331842266023159, 0.004394154064357281, -0.02286365069448948, 0.018606094643473625, 0.0008295526495203376, 0.02025960013270378, 0.01490787137299776, 0.00463011022657156, 0.013459880836308002, -0.011002304032444954, -0.020168891176581383, -0.02673446200788021, 0.02697400562465191, 0.003292700042948127, 0.00924818217754364, -0.000557352730538696, -0.00595297385007143, 0.03224657475948334, 0.018696436658501625, 0.027286337688565254, -0.022131983190774918, -0.027324054390192032, 0.0014537994284182787, -0.0028878487646579742, -0.028941547498106956, -0.012405960820615292, -0.0004607520822901279, 0.0076226177625358105, -0.023971835151314735, 0.01735903136432171, 0.012500793673098087, -0.0012859946582466364, 0.0014257954899221659, 0.0052055129781365395, 0.044737622141838074, 0.017257047817111015, -0.002262379741296172, -0.0015744951087981462, 0.01906939037144184, -0.0006169419502839446, -0.02122160978615284, -0.02948882058262825, 0.01564904674887657, -0.00816589780151844, 0.0038316764403134584, -0.0036864387802779675, -0.01773971877992153, -0.022293591871857643, 0.014272782951593399, -0.011636892333626747, -0.031008001416921616, 0.028759298846125603, -0.031285159289836884, 0.029965093359351158, -0.037545740604400635, 0.01374410092830658, -0.011447486467659473, -0.01642078347504139, 0.023966116830706596, -0.0028178461361676455, -0.026104440912604332, 0.010844849050045013, -0.017790216952562332, 0.02521832287311554, 0.029223447665572166, -0.020062433555722237, -0.024036811664700508, 0.009878686629235744, -0.03108406625688076, 0.013044859282672405, -0.004253252409398556, -0.037030961364507675, -0.014671381562948227, -0.037623897194862366, 0.01891668140888214, -0.017249073833227158, -0.02743867225944996, -0.013366462662816048, 0.03286714851856232, 0.019463224336504936, 0.01624736562371254, -0.004570796620100737, -0.006706686224788427, 0.010725332424044609, 0.021615682169795036, -0.03309837356209755, 0.028542790561914444, 0.013432423584163189, -0.020011086016893387, 0.025801748037338257, -0.013268164359033108, -0.02727985754609108, -0.016621140763163567, -0.030398692935705185, 0.014677870087325573, -0.034311775118112564, 0.03131712228059769, 0.01491096056997776, -0.025197604671120644, 0.02631324529647827, -0.008671053685247898, -0.031694598495960236, -0.029645612463355064, -0.007311616558581591, 0.004740472882986069, 0.005326732527464628, 0.026462949812412262, 0.00767147820442915, 0.029856251552700996, 0.0035648257471621037, 0.02784406766295433, 0.009816572070121765, -0.0273982472717762, -0.03632715344429016, -0.03382665291428566, 0.030449530109763145, 0.02564799040555954, -0.01885875128209591, -0.03552071005105972, -0.0066648367792367935, -0.00014968501636758447, 0.007938156835734844, 0.02715557999908924, -0.002521912567317486, 0.010222082957625389, -0.01723690703511238, 0.03144732117652893, -0.02114756964147091, -0.029120130464434624, -0.024098144844174385, 0.001074397936463356, -0.028121354058384895, -0.022376613691449165, 0.016440318897366524, 0.030611209571361542, -0.010001043789088726, 0.021129636093974113, -0.003654315834864974, -0.031714003533124924, 0.007339475676417351, 0.006066396366804838, -0.011923324316740036, 0.00447283498942852, 0.027738863602280617, 0.026681942865252495, -0.02996368147432804, -0.01047577615827322, -0.018624089658260345, -0.016193924471735954, 0.0038783627096563578, 0.0305637214332819, -0.006901134271174669, -0.0369160920381546, 0.005853311158716679, 0.017970586195588112, 0.024042554199695587, -0.007034506648778915, 0.006151725072413683, 0.003715171478688717, 0.00786714069545269, 0.009128281846642494, -0.022819839417934418, 0.03203223645687103, 0.012117690406739712, -0.01528971828520298, -0.00757716316729784, -0.03758420795202255, 0.032994307577610016, 0.014412234537303448, -0.008030937053263187, -0.007341478951275349, 0.007840239442884922, 0.030206233263015747, 0.021872373297810555, -0.03215229511260986, -0.004484026692807674, 0.03539504110813141, 0.017353108152747154, -0.002004726557061076, 0.008473469875752926, 0.017489135265350342, 0.0008064754656516016, -0.01228394452482462, 0.024684589356184006, -0.00874082650989294, 0.002867403207346797, 0.0046893828548491, -0.00038450065767392516, -0.02343667484819889, 0.03294204920530319, 0.02335795946419239, -0.02384362556040287, 0.03088507615029812, 0.016520151868462563, 0.03280651196837425, 0.02953292615711689, -0.005515494849532843, -0.0017441835952922702, 0.02854997292160988, 0.03105216473340988, -0.02657484821975231, -0.028154395520687103, -0.006081878207623959, 0.010974016971886158, 0.0261938888579607, -0.006933683063834906, 0.02383558638393879, 0.013957710936665535, -0.034555528312921524, 0.027878882363438606, 0.0022647716104984283, -0.021061446517705917, 0.01940147392451763, 0.018584661185741425, -0.01676240749657154, 0.01547070499509573, -0.0014721292536705732, -0.00950921606272459, -0.002698743948712945, 0.00785380695015192, 0.007240045815706253, 0.01916136033833027, 0.0007597103831358254, -0.019478270784020424, 0.001616444904357195, -0.017133217304944992, 0.002120204269886017, -0.03122016042470932, 0.0011305842781439424, -0.02391582354903221, -0.010706561617553234, 0.031746793538331985, -0.006362296175211668, 0.006963335908949375, -0.012289331294596195, -0.024847017601132393, 0.0036722237709909678, -0.004042768385261297, -0.03701039031147957, -0.01501826848834753, -0.020272595807909966, 0.02860833704471588, 0.014838162809610367, -0.021493302658200264, 0.02355467714369297, -0.019966691732406616, -0.03224186971783638, 0.030298562720417976, -0.02690480649471283, -0.023672688752412796, 0.011904618702828884, -0.009831941686570644, -0.03397867828607559, 0.0157327763736248, -0.025444205850362778, 0.013032699935138226, -0.020703859627246857, 0.014522978104650974, -0.022596094757318497, 0.015116916969418526, 0.015152937732636929, -0.025413522496819496, -0.023137537762522697, 0.017549052834510803, 0.03377658128738403, -0.024757372215390205, 0.02267356403172016, -0.012115197256207466, -0.033270251005887985, 0.014521791599690914, -0.034975815564394, -0.025305038318037987, -0.017514383420348167, 0.008015892468392849, -0.019766630604863167, 0.02477502077817917, -0.025878919288516045, 0.007929646410048008, -0.025176530703902245, 0.010162824764847755, 0.020717985928058624, 0.003347462974488735, -0.0008067607413977385, -0.01365758664906025, 0.02791544236242771, 0.010507090948522091, -0.020172197371721268, 0.0017745576333254576, -0.025298045948147774, -0.0023010587319731712, -0.028967099264264107, 0.009561247192323208, 0.029929423704743385, -0.014496431685984135, 0.008155151270329952, -0.028657974675297737, 0.0015494887484237552, -0.03494593873620033, 0.020135724917054176, -0.03472007066011429, 0.008307348005473614, -0.034517962485551834, 0.018054796382784843, -0.035413410514593124, 0.031437650322914124, 0.028779523447155952, 0.03118104860186577, -0.0009208997362293303, -0.031046545132994652, 0.019533058628439903, -0.029488565400242805, -0.0043532815761864185, -0.028817815706133842, 0.0241925697773695, -0.026415178552269936, 0.025458302348852158, -0.01870596595108509, -0.03476575389504433, 0.002290822332724929, 0.027271579951047897, 0.01538886409252882, -0.013267816044390202, -0.022137997671961784, 0.014113782905042171, 0.006813699845224619, 0.0032484366092830896, -0.02349577099084854, 0.03265588358044624], [-0.017018213868141174, 0.007321182172745466, 0.02019674889743328, -0.03430961072444916, -0.0030391174368560314, 0.0003846930048894137, -0.03154872730374336, -0.013354717753827572, -0.02531125769019127, -0.012381583452224731, 0.02439519390463829, -0.0030416706576943398, -0.004054524935781956, 0.00020174910605419427, 0.009192042052745819, 0.019043363630771637, 0.007326337043195963, -0.012669838033616543, -0.025707509368658066, -0.017277631908655167, -0.017410896718502045, -0.01925424113869667, -0.006202407646924257, -0.030537547543644905, -0.024217594414949417, 0.004758537281304598, 0.012735013850033283, 0.008480916731059551, 0.01598374918103218, 0.004547920078039169, 0.0033931212965399027, -0.004327659495174885, 0.004676799289882183, -0.0014281246112659574, -0.02592530846595764, 0.010640503838658333, -0.030821647495031357, 0.030996602028608322, 0.031666629016399384, -0.010389083996415138, 0.012970789335668087, 0.020279817283153534, -0.028203336521983147, 0.029591992497444153, 0.011859060265123844, 0.012106078676879406, 0.02791481651365757, 0.027327213436365128, 0.022015942260622978, -0.033716991543769836, -0.015080196782946587, 0.009248013608157635, -0.010546796955168247, 0.005839976016432047, -0.026222720742225647, -0.0035430844873189926, -0.0029907480347901583, -0.002686689607799053, -0.007189844269305468, 0.032858408987522125, -0.0172383151948452, -0.011986524797976017, -0.012420617043972015, 0.031912852078676224, 0.01949334889650345, 0.007146663963794708, -0.025153720751404762, -0.030361974611878395, -0.03534500673413277, -0.004876594990491867, 0.005787109490483999, 0.023218408226966858, 0.018631355836987495, -0.008392373099923134, 0.011456340551376343, -0.0048507144674658775, 0.019596591591835022, 0.023886069655418396, -0.03230031952261925, -0.015812870115041733, 0.021185455843806267, -0.010187645442783833, 0.027090977877378464, 0.026103002950549126, 0.023027872666716576, 0.027841493487358093, -0.02895762398838997, 0.016705436632037163, -0.0030409644823521376, 0.016518497839570045, 0.014880688861012459, 0.02242165431380272, -0.002741975476965308, -0.007033847738057375, 0.008594722487032413, -0.03130583465099335, -0.03173336386680603, -0.013925331644713879, -0.020097641274333, 0.022912781685590744, 0.0011652110842987895, -0.011862059123814106, -0.0032433047890663147, -0.010235256515443325, -0.0062298462726175785, 0.009578545577824116, -0.013168013654649258, -0.031678974628448486, -0.014113442040979862, 0.013600938022136688, 0.001129364245571196, 0.017981616780161858, 0.030650511384010315, -0.0064384606666862965, -0.022229183465242386, -0.02893209271132946, -0.01409157644957304, 0.025544356554746628, -0.0307769775390625, -0.010565715841948986, 0.010289033874869347, 0.027132965624332428, 0.014118882827460766, -0.00659911660477519, -0.007800611667335033, 0.008584008552134037, 0.018234239891171455, -0.011592120863497257, 0.0039842152036726475, 0.02211763523519039, -0.007744540926069021, -0.015955869108438492, 0.031174907460808754, -0.003546795342117548, 0.013917913660407066, -0.01800277642905712, 0.0005186817143112421, -0.008888661861419678, 0.019168013706803322, 0.0043747941963374615, 0.03466370329260826, -0.005839966703206301, 0.010820488445460796, -0.034312210977077484, -0.004489651415497065, 0.02915433794260025, -0.022868435829877853, -0.03411667421460152, 0.018961988389492035, 0.0037332132924348116, -0.017834104597568512, -0.019060559570789337, 0.006768140941858292, 0.029452797025442123, -0.0008017118670977652, -0.03347669169306755, -0.03858722373843193, -0.03904576599597931, -0.02766774222254753, 0.004417725373059511, 0.029017595574259758, -0.0018653118750080466, 0.016954943537712097, 0.005998640321195126, -0.0012394528603181243, -0.019071359187364578, 0.0022373893298208714, -0.009867263957858086, -0.017302552238106728, -0.019582856446504593, 0.020522093400359154, -0.004803481511771679, 0.024493368342518806, -0.03202209994196892, -0.03182828053832054, 0.00986081175506115, -0.018144024536013603, 0.03511187806725502, -0.009770533069968224, -0.009345159865915775, 0.023557646200060844, -0.01429400872439146, 0.01643620803952217, 0.0041839671321213245, -0.012511822395026684, 0.025410156697034836, -0.011985145509243011, 0.021790139377117157, -0.03462141752243042, -0.016147341579198837, -0.004462842363864183, 0.01965179294347763, -0.03456726297736168, 0.031250398606061935, -0.03351970389485359, -0.00863777194172144, 0.010700876824557781, -0.0003900976153090596, 0.015853673219680786, -0.026089414954185486, 0.00013853951531928033, 0.031115107238292694, -0.02250540442764759, -0.008021782152354717, -0.007829546928405762, 0.019585391506552696, -0.020834779366850853, -0.021212534978985786, 0.036610547453165054, -0.014785719104111195, 0.019578995183110237, 0.034426212310791016, -0.03190864995121956, -0.004153118934482336, -0.030494315549731255, 0.0011147207114845514, -0.031375378370285034, 0.00948989950120449, -0.02112407423555851, -0.01016679685562849, 0.03395877778530121, -0.02055545151233673, -0.013461021706461906, 0.019178612157702446, -0.006886201445013285, -0.006144196726381779, 0.00984829943627119, 0.02540550008416176, -0.015442186035215855, 0.011388328857719898, 0.030637923628091812, -0.02229122444987297, 0.004510174039751291, 0.017906682565808296, 0.01608792319893837, 0.005352746695280075, 0.00926539022475481, 0.005409945268183947, -0.03126522898674011, 0.018158627673983574, -0.02071096934378147, -0.01951364427804947, 5.049991887062788e-05, -0.01746184751391411, 0.025256600230932236, 0.02432658150792122, 0.02417908050119877, 0.020928191021084785, -0.03033670410513878, 0.03420764207839966, 0.0296330563724041, -0.02098706178367138, 0.03329314664006233, 0.0019520638743415475, 0.01800466887652874, -0.025043591856956482, 0.028425216674804688, -0.02508135512471199, 0.022553173825144768, -0.021228043362498283, 0.006778523325920105, -0.0019770581275224686, 0.018796153366565704, -0.026669930666685104, -0.027498194947838783, -0.013164673931896687, 0.028354885056614876, -0.01332777552306652, -0.008414534851908684, 0.012782986275851727, 0.004495691973716021, -0.023129194974899292, -0.03291001543402672, -0.031272318214178085, -0.013966781087219715, -0.011840718798339367, -0.02310662344098091, 0.028216635808348656, -0.015611676499247551, 0.006744790356606245, -0.03538544476032257, -0.0029910586308687925, -0.03343100845813751, -0.024239016696810722, -0.02028874307870865, 0.0329262875020504, 0.025419767946004868, -0.022900542244315147, 0.02195858210325241, -0.03374125435948372, -0.017634332180023193, 0.0040106503292918205, 0.023566408082842827, 0.0341629721224308, -0.02505037933588028, -0.03071771189570427, -0.03791959211230278, 0.020508507266640663, 0.03346243500709534, -0.009699149988591671, -0.03186565637588501, 0.02849256433546543, 0.025654789060354233, 0.013202662579715252, -0.008057422935962677, 0.03508376330137253, -0.01489868201315403, 0.03294442966580391, 0.033993687480688095, -0.0005919461837038398, 0.011911061592400074, 0.0004373673291411251, -0.0024495001416653395, 0.022455455735325813, -0.024514000862836838, -0.02564520761370659, 0.03472711518406868, -0.00013961378135718405, 0.008841510862112045, -0.022834371775388718, 0.0244407020509243, 0.020645154640078545, 0.03040805645287037, -0.02695351094007492, 0.024895604699850082, -0.0036292518489062786, -0.01914188079535961, -0.03287980332970619, -0.023070313036441803, 0.01651446893811226, 0.024548910558223724, 0.005471038166433573, 0.025925178080797195, 0.024854842573404312, 0.02789648249745369, -0.02470872737467289, -0.008858672343194485, -0.019190087914466858, -0.026228561997413635, -0.014441430568695068, 0.03208620846271515, 0.035012852400541306, -0.021752873435616493, 0.004780784249305725, 0.02619541808962822, 0.026564452797174454, -0.0034680154640227556, 0.016062026843428612, 0.033003874123096466, -0.01911516673862934, -0.0171644389629364, 0.01485463511198759, -0.02201762981712818, -0.0003898697323165834, -0.03226407989859581, -0.007944758981466293, -0.02367595210671425, 0.014614885672926903, -0.019827235490083694, -0.02551412582397461, -0.010758246295154095, 0.03413011506199837, -0.014948504976928234, 0.03315967693924904, 0.004719684366136789, -0.026337364688515663, -0.017338326200842857, 0.017519643530249596, 0.028508635237812996, -0.034212298691272736, 0.03166471794247627, 0.019525792449712753, -0.021311232820153236, -0.0341302752494812, 0.01280066929757595, -0.02298743464052677, 0.032495103776454926, 0.00928032398223877, 0.022565875202417374, -0.01041275542229414, 0.00934933964163065, -0.0036037908867001534, -0.015429124236106873, 0.008860807865858078, 0.019292734563350677, -0.01589704491198063, 0.007160712964832783, 0.02944546937942505, 0.012338935397565365, 0.03308877348899841, -0.030989374965429306, -0.0029448203276842833, -0.03393704071640968, -0.007781547959893942, -0.025156745687127113, 0.01643635332584381, -0.019621850922703743, 0.030672766268253326, -0.009743459522724152, -0.012537484988570213, 0.015933556482195854, -0.016966436058282852, 0.009261911734938622, 0.008120700716972351, 0.002852751174941659, -0.01179894246160984, 0.015862254425883293, 0.029078444465994835, -0.023484406992793083, 0.02206837199628353, 0.029276277869939804, -0.0003010002546943724, 0.017468685284256935, -0.007034448906779289, 0.001960782101377845, 0.002517836168408394, 0.029850974678993225, 0.011976650916039944, -0.015938378870487213, 0.007296992000192404, 0.035831134766340256, -0.01303180679678917, -0.027112171053886414, -0.02965604141354561, -0.029714109376072884, 0.02842285856604576, 0.01770109310746193, -0.03296317160129547, -0.02340635098516941, 0.0047263712622225285, 0.0238041989505291, -0.016316311433911324, 0.029366230592131615, 0.03158673271536827, 0.017300831153988838, -0.0005206582136452198, 0.008417977020144463, -0.027664396911859512, -0.035871997475624084, -0.03671541064977646, 0.018558725714683533, -0.018910521641373634, -0.019560042768716812, -0.031958770006895065, 0.03340496867895126, -0.01590454764664173, -0.022405127063393593, 0.0045518395490944386, 0.0009773439960554242, 0.032858189195394516, -0.02115008607506752, 0.018847553059458733, 0.0009659588686190546, 0.03136615827679634, 0.006942114792764187, 0.019815508276224136, -0.02517864853143692, 0.03448164090514183, 0.01674416847527027, -0.010228252969682217, -0.032004065811634064, -0.03180452436208725, -0.03021118976175785, 0.013832822442054749, -0.015942919999361038, 0.006813887972384691, -0.0017015247140079737, -0.02764018066227436, 0.007967581041157246, 0.028367280960083008, 0.02842957340180874, -0.029157884418964386, 0.027918651700019836, 0.00470566563308239, -0.02043190598487854, -0.005129736848175526, -0.029765209183096886, 0.010987912304699421, -0.03441029414534569, -0.022190526127815247, 0.016708461567759514, 0.009743684902787209, 0.033310845494270325, -0.027093814685940742, 0.02124164253473282, 0.03296675533056259, -0.015772240236401558, 0.03200706094503403, -0.02661108411848545, -0.0024921451695263386, -0.02057434432208538, 0.0015016163233667612, -0.0027243071235716343, 0.015179591253399849, 0.0215049646794796, 0.01287686824798584, 0.007235592231154442, -0.02733379602432251, 0.014104663394391537, -0.00955149345099926, -0.006231045350432396, 0.025083394721150398, -0.0309200007468462, 0.0266572292894125, -0.030421815812587738, 0.02435503527522087, -0.019375283271074295, -0.0289972722530365, 0.014494439586997032, -0.008718893863260746, -0.0025289247278124094, -0.011676912195980549, 0.028706233948469162, -0.029184795916080475, 0.005520300008356571, -0.03177892416715622, 0.02982049621641636, -0.005829830653965473, -0.026518890634179115, -0.007168140262365341, 0.010046014562249184, -0.022703951224684715, 0.007227650843560696, 0.033432796597480774, 0.018791435286402702, -0.026566514745354652, -0.01428380236029625, 0.018001796677708626, 0.002828015713021159, -0.01038573868572712, 0.014510169625282288, -0.016888398677110672, 0.005751856602728367, -0.021639591082930565, -0.020955726504325867, 0.005513284355401993, -0.031009674072265625, 0.02409558929502964, 0.00853122491389513, -0.00048582631279714406, 0.032503802329301834, -0.023012440651655197, -0.0066254716366529465, 0.014714924618601799, -0.03832221403717995, 0.015211135149002075, -0.00637151999399066, 0.013735064305365086, 0.0017135380767285824, 0.015651440247893333, 0.02169974334537983, -0.02856183424592018, 0.01912854053080082, 0.01735744997859001, 0.03260751813650131, 0.0011810892028734088, 0.013757025822997093, -0.007156915497034788, -0.012565487064421177, 0.028736598789691925, 0.01316807884722948, 0.01878257282078266, 0.007185054011642933, 0.012278741225600243, -0.007419447414577007, -0.01803775690495968, 0.027404865249991417, -0.005374398548156023, 0.025353578850626945, -0.026648210361599922, -0.020030025392770767, -0.030751166865229607, 0.025987517088651657, -0.0162956565618515, 0.012446507811546326, 0.00827756803482771, -0.0067865289747715, -0.005751058459281921, 0.030538318678736687, -0.014757710509002209, 0.018884487450122833, 0.01858084835112095, 0.03466566279530525, 0.021928614005446434, 0.0014438274083659053, 0.014740475453436375, -0.02596176043152809, 0.0002476499357726425, 0.018619365990161896, -0.01670556515455246, -0.0024304043035954237, 0.004976404365152121, 0.009821481071412563, 0.03066290356218815, 0.02589893527328968, -0.01702272891998291, -0.02622561901807785, -0.0014344954397529364, -0.015584704466164112, -0.009814110584557056, -0.013008229434490204, -0.024151314049959183, 0.02487899735569954, -0.01089919451624155, 0.033968038856983185, -0.026394709944725037, 0.03486054390668869, 0.0022711826022714376, 0.03404368832707405, 0.011305728927254677, 0.03442427143454552, 0.008317654021084309, 0.01836571842432022, -0.024078713729977608, 0.005822708830237389, 0.02912577986717224, 0.014853822067379951, 0.003724842332303524, -0.02839946374297142, 0.018397938460111618, 0.0339994877576828, -0.004033316858112812, -0.0017475393833592534, -0.010274828411638737, -0.030769499018788338, -0.011611475609242916, -0.03024560958147049, 0.015626611188054085, -0.03571411594748497, 0.007721984758973122, 0.029590729624032974, -0.02303634025156498, 0.010753712616860867, -0.0309709794819355, -0.007289664354175329, -0.02666904591023922, -0.00552233075723052, -0.007424015551805496, 0.007075544446706772, 0.024933889508247375, 0.014136133715510368, -0.021006552502512932, 0.02853238210082054, -0.008793030865490437, -0.03503566235303879, 0.009647738188505173, 0.0034165624529123306, 0.007001414895057678, -0.007065445184707642, 0.00641585374251008, -0.01790386438369751, -0.024171805009245872, 0.026377910748124123, -0.03470228612422943, -0.0005772772710770369, 0.02582636848092079, -0.021443592384457588, 0.00491217290982604, -0.00224437122233212, 0.03202642872929573, 0.0076803360134363174, -0.0011713553685694933, 0.013757581822574139, -0.0031281837727874517, 0.01793031394481659, 0.020758841186761856, -0.029233237728476524, 0.015101724304258823, -0.029376260936260223, 0.00791552010923624, -0.0315733440220356, 0.0031367961782962084, 0.016483431681990623, 0.022869553416967392, 0.008335995487868786, -0.026276733726263046, 0.004661384038627148, 0.017961980774998665, -0.030236482620239258, -0.025724079459905624, -0.028615577146410942, 0.007898824289441109, 0.015499426051974297, 0.02058148756623268, -0.017179016023874283, -0.02351405657827854, 0.026249678805470467, -0.008582256734371185, -0.0018382457783445716, -0.03048603981733322, -0.034458909183740616, 0.032274942845106125, -0.011248575523495674, -0.02205802872776985, -0.026855850592255592, 0.032618552446365356, 0.01718500442802906, -0.00752119068056345, -0.00690159248188138, 0.006744275335222483, 0.02938605658710003, -0.0067069255746901035, -0.0036990956868976355, -0.00011999953130725771, -0.004086779896169901, -0.013137077912688255, 0.02196863293647766, -0.03487701341509819, 0.0012382868444547057, -0.019722728058695793, 0.015543974936008453, 0.007696161512285471, -0.03394636884331703, -0.02511719986796379, -0.012788147665560246, -0.032471854239702225, -0.017274729907512665, 0.013985401950776577, 0.012681456282734871, -0.0050821444019675255, -0.028210660442709923, -0.00842177215963602, 0.03130490332841873, 0.015980331227183342, -0.03166375309228897, -0.028948668390512466, -0.030629804357886314, -0.027242258191108704, 0.03366367518901825, 0.017872897908091545, -0.013248003087937832, 0.006269183475524187, 0.00428041210398078, -0.018145516514778137, -0.026117408648133278, -0.0010870384285226464, -0.008216610178351402, 0.03114042617380619, 0.010610007680952549, -0.009534784592688084, -0.011196394450962543, 0.0325164869427681, 0.002558153122663498, 0.013955777511000633, 0.021761011332273483, 0.008750195614993572, -0.023760313168168068, -0.008817068301141262, -0.019287513568997383, -0.019785312935709953, 0.004801453556865454, -0.01908399723470211, 0.00759208993986249, -0.02556929923593998, -0.01411923673003912, 0.011135884560644627, 0.0058298553340137005, 0.03366194665431976, 0.02318596839904785, -0.0005262938211672008, -0.028149688616394997, 0.031246397644281387, 0.035506464540958405, -0.014031474478542805, 0.00527936639264226, 0.029043899849057198, -0.011040069162845612, -0.0049146618694067, -0.001980936387553811, -0.002152472035959363, -0.008410267531871796, 0.01930229924619198, 0.004778990522027016, 0.001627999939955771, -0.030655421316623688, -0.03484420105814934, -0.0013159934896975756, -0.03424657881259918, 0.00678484421223402, -0.013736017979681492, -0.004268699325621128, 0.029699577018618584, 0.012728042900562286, -0.031037580221891403], [-0.0030351332388818264, 0.03484044596552849, 0.009353543631732464, -0.020860441029071808, 0.031574636697769165, -0.02407177723944187, -0.032935723662376404, -0.016883065924048424, 0.028831975534558296, 0.02617422677576542, 0.013999066315591335, 0.02616923116147518, 0.027935350313782692, -0.0001450136915082112, -0.031446024775505066, -0.010620925575494766, -0.011678498238325119, -0.03190906345844269, 0.03166630491614342, 0.002369663445279002, -0.010030665434896946, -0.010475500486791134, 0.015124486759305, -0.032107412815093994, -0.010122343897819519, -0.023601790890097618, -0.016612645238637924, -0.023820331320166588, 0.02021569013595581, 0.011855932883918285, 0.006929452531039715, -0.00876319594681263, 0.03305479884147644, 0.024225488305091858, 0.020391235128045082, -0.012328407727181911, 0.008295722305774689, -0.025308379903435707, -0.031958214938640594, 0.016841141507029533, 0.025247307494282722, -0.017018094658851624, -0.028681747615337372, 0.010201173834502697, -0.015190770849585533, 0.02838674932718277, 0.019349487498402596, 0.0346335805952549, -0.0004539517394732684, -0.00018971890676766634, -0.015300379134714603, -0.03387335687875748, -0.023688865825533867, 0.03240496292710304, -0.02790652960538864, -0.028405755758285522, -0.023328937590122223, 0.0022312167566269636, 0.03368895500898361, 0.025585604831576347, 0.005686791613698006, 0.020713821053504944, 0.011158125475049019, 0.009896624833345413, 0.0028159338980913162, 0.03383685648441315, -0.022022180259227753, 0.0354730561375618, 0.025527145713567734, 0.00027234447770752013, -0.014284234493970871, 0.0339260995388031, 0.00792556069791317, 0.012057056650519371, 0.03429371863603592, -0.009942959994077682, 0.02020920254290104, 0.009655274450778961, 0.01616242155432701, -0.012987800873816013, -0.02185824327170849, -0.016609584912657738, 0.00013355794362723827, -0.008639439940452576, -0.011102315038442612, 0.00306487618945539, 0.01908133178949356, -0.031108146533370018, -0.007110397331416607, -0.021657926961779594, 0.021040312945842743, 0.008756867609918118, 0.00909601803869009, -0.035221196711063385, -0.014327112585306168, -0.023556310683488846, 0.034633249044418335, -0.02183445543050766, 0.022232411429286003, -0.011629358865320683, 0.010671575553715229, 0.015163641422986984, -0.029544413089752197, 0.011479956097900867, 0.006022445857524872, -0.02275850810110569, 0.01607135869562626, -0.02081919088959694, -0.0179644376039505, 0.021898115053772926, 0.007104295771569014, -0.0005124887102283537, -0.003849517088383436, -0.009396541863679886, 0.017882579937577248, 0.01208366360515356, 0.00851529836654663, 0.025268832221627235, -0.034852854907512665, -0.0014614240499213338, 0.0008834972395561635, -0.019671175628900528, 0.019764121621847153, 0.034470412880182266, 0.02977435663342476, 0.03321284428238869, -0.02792719565331936, -0.026817433536052704, -0.012866904959082603, 0.012978934682905674, 0.01467700581997633, -0.0015553985722362995, 0.0038542249239981174, -0.019363069906830788, 0.0014626712072640657, 0.0247378908097744, 0.03298090398311615, -0.010819078423082829, 0.0033128985669463873, 0.007309467997401953, 0.02793857827782631, 0.019984759390354156, -0.030576519668102264, -0.013780818320810795, 0.025727691128849983, -0.007555171847343445, -0.02131805382668972, -0.033022426068782806, 0.021880891174077988, -0.03305033594369888, 0.03360690921545029, -0.018254205584526062, 0.022698242217302322, 0.0029965010471642017, 0.02021382562816143, -0.022081749513745308, -0.02840210497379303, -0.005821313243359327, -0.005228749942034483, -0.0046478151343762875, -0.011089818552136421, 0.012574531137943268, 0.021487891674041748, 0.027619484812021255, 0.009633205831050873, -0.02831730991601944, -0.010225949808955193, 0.017422661185264587, -0.034477703273296356, -0.007322791963815689, -0.00544767128303647, 0.026815567165613174, -0.027469726279377937, 0.026057180017232895, -0.029739724472165108, -0.0012087043141946197, 0.02260054089128971, 0.0244655292481184, 0.010686470195651054, 0.03309645503759384, 0.008362364955246449, -0.019847944378852844, -0.022355234250426292, 0.016882697120308876, -0.03848527371883392, 0.02038687840104103, 0.001878261216916144, 0.0278172567486763, 0.020306646823883057, -0.005952481180429459, -0.0239850003272295, 0.031090769916772842, -0.016600793227553368, 0.01841544546186924, 0.010308447293937206, -0.017910942435264587, 0.012735574506223202, 0.01959884911775589, -0.02408449538052082, -0.03186475858092308, -0.032879747450351715, 0.006079610902816057, 0.030066747218370438, -0.00422069663181901, -0.0340195968747139, -0.003035949310287833, 0.03436984121799469, 0.026923734694719315, -0.001853295834735036, 0.03257732838392258, -0.01615779660642147, 0.009170608595013618, -0.03933512046933174, 0.006209840066730976, 0.018809987232089043, -0.012008294463157654, 0.004850985482335091, 0.029063569381833076, 0.008545849472284317, 0.010333145968616009, -0.01183254737406969, 0.02132786251604557, 0.0071214535273611546, -0.0003195553144905716, -0.0037681944668293, -0.015070661902427673, -0.010025424882769585, -0.016004027798771858, -0.02910495363175869, 0.01024845615029335, -0.028922034427523613, -0.014984820038080215, 0.016562847420573235, -0.02023894526064396, -0.00820695236325264, -0.00818084180355072, 0.028012681752443314, -0.013582207262516022, -0.00044742433237843215, 0.0038771573454141617, -0.002480095252394676, 0.005589110776782036, -0.0026432755403220654, 0.011872578412294388, 0.016047494485974312, -0.029802411794662476, 0.02963929995894432, -0.01823832094669342, -0.01829022541642189, 0.02825130894780159, -0.030908353626728058, -0.002248984994366765, 0.02052726037800312, 0.0023832181468605995, 0.001962638460099697, 0.028811747208237648, 0.03131246194243431, -0.02222290448844433, -0.027595018967986107, 0.014289099723100662, -0.009652449749410152, 0.015183829702436924, -0.008330726996064186, 0.019078342244029045, 0.025897866114974022, 0.016893435269594193, 0.011624455451965332, 0.004421835299581289, 0.021287167444825172, -0.006597458850592375, -0.007514224387705326, 0.00014062314585316926, -0.013735933229327202, -0.015805331990122795, 0.012018832378089428, -0.008714718744158745, -0.005892644170671701, 0.005306459963321686, -0.03478772193193436, -0.03583443909883499, 0.03297149017453194, -0.03194405511021614, 0.01417460385710001, -0.006308272015303373, 0.028015144169330597, -0.0027564188931137323, -0.010829108767211437, -8.986733155325055e-05, 0.018416699022054672, 0.004269902128726244, 0.0019897478632628918, 0.02122463658452034, -0.022717682644724846, -0.020301682874560356, -0.0019121182849630713, 0.01008995808660984, 0.010373023338615894, -0.028274403885006905, -0.008809635415673256, -0.0071755279786884785, 0.022069493308663368, 0.024126309901475906, 0.01407883781939745, -0.013937870971858501, -0.023886194452643394, 0.02221347950398922, -0.028379468247294426, 0.02523149363696575, 0.006097925826907158, -0.020435286685824394, 0.006934490520507097, 0.029018176719546318, -0.03473133593797684, -0.029005665332078934, -0.026342863216996193, -0.0019251591293141246, -0.0187518373131752, 0.0076971803791821, -0.00997478049248457, 0.004985349718481302, -0.006557540502399206, 0.013661399483680725, 0.022330285981297493, 0.021940067410469055, 0.03574462980031967, 0.013113590888679028, 0.0030352165922522545, 0.03492903709411621, -0.03385826200246811, -0.012090010568499565, -0.0397547222673893, 9.812786447582766e-05, 0.006542747374624014, -0.004966001957654953, -0.027470164000988007, 0.027617065235972404, -0.01573595032095909, -0.03101835586130619, 0.0019055474549531937, -0.020325226709246635, 0.035103097558021545, -0.01711731031537056, 0.008124442771077156, 0.019081564620137215, -0.01864779181778431, -0.020274363458156586, -0.03880758211016655, 0.02813643030822277, 0.014781979843974113, -0.0027228412218391895, 0.020195599645376205, -0.027608102187514305, 0.01782918907701969, 0.012516159564256668, 0.01958267018198967, 0.017855117097496986, -0.023971546441316605, 0.014551104046404362, -0.004895828198641539, 0.009165695868432522, 0.001415163278579712, 0.0021234103478491306, -0.012228099629282951, -0.018946494907140732, 0.009948428720235825, -0.030911415815353394, -0.009884215891361237, -0.030946927145123482, -0.022180838510394096, 0.002622082596644759, 0.03160862997174263, -0.0023311441764235497, -0.013510065153241158, -0.03602294623851776, 0.03228234127163887, 0.018737783655524254, -0.03083759732544422, 0.00880200881510973, 0.01669536903500557, -0.027943693101406097, 0.01079566776752472, -0.01947654038667679, 0.01679033599793911, 0.02443215437233448, -0.025766458362340927, 0.011564288288354874, 0.0006842708680778742, -0.02342778630554676, 0.03016612119972706, 0.029955442994832993, -0.027887782081961632, 0.016781387850642204, 0.006282204762101173, 0.008461656048893929, -0.004850949160754681, -0.028875136747956276, -0.028835194185376167, -0.02722596935927868, 0.026168080046772957, 0.031029799953103065, -0.03783906623721123, -0.028423920273780823, -0.017377162352204323, -0.010273353196680546, -0.03431166335940361, 0.03171462565660477, 0.024691138416528702, 0.0074723283760249615, -0.02452998049557209, 0.022600797936320305, -0.02637631632387638, -0.035334136337041855, 0.02477743849158287, 0.01644262857735157, 0.014984184876084328, -0.03315824642777443, -0.005127326585352421, 0.01095603872090578, 0.01563367061316967, -0.031544361263513565, -0.01146335992962122, 0.033304426819086075, -0.027255944907665253, -0.0242015291005373, 0.03034575842320919, 0.025002114474773407, 0.01739933155477047, -0.03793959319591522, 0.013491709716618061, -0.010651676915585995, 0.017570849508047104, -0.014993970282375813, -0.00690448796376586, 0.0062054661102592945, 0.021354926750063896, 0.03527245670557022, -0.028667360544204712, 0.007471625693142414, -0.028902364894747734, -0.014498152770102024, 0.02946172095835209, 0.01892075501382351, -0.0375574454665184, 0.017223352566361427, 0.014468192122876644, -0.014666559174656868, -0.020011546090245247, 0.019245432689785957, -0.022270428016781807, -0.02841934934258461, -0.03012673743069172, 0.010736698284745216, -0.029375068843364716, -0.0342826321721077, 0.00722532020881772, 0.015458794310688972, 0.026564618572592735, 0.008878571912646294, -0.0318470299243927, -0.014121122658252716, -0.029770158231258392, -0.02611722983419895, -0.028524961322546005, -0.014927412383258343, 0.03376799449324608, -0.025310972705483437, -0.03262956067919731, -0.013668252155184746, 0.026418013498187065, 0.01597817987203598, -0.02946259081363678, -0.03289161995053291, -0.034721728414297104, -0.030637942254543304, -0.03352809697389603, -0.016828853636980057, 0.020208068192005157, -0.024392323568463326, -0.03579084575176239, -0.0237756185233593, 0.0008408370777033269, -0.013248171657323837, -0.018037673085927963, 0.023622842505574226, -0.013723164796829224, 0.0005402287351898849, -0.03037034161388874, -0.014909637160599232, 0.01548252534121275, -0.00967053510248661, 0.009855633601546288, 0.01468265987932682, -0.005100007634609938, 0.015840686857700348, -0.020396744832396507, -0.012811352498829365, -0.015758799389004707, -0.03443102166056633, -0.00107864779420197, 0.03060808777809143, -0.025572644546628, 0.033297426998615265, -0.03031822480261326, -0.01702312007546425, -0.017377927899360657, 0.009382562711834908, 0.0220845565199852, -0.004094511270523071, -0.027112437412142754, 0.026490727439522743, -0.02947915904223919, 0.004765538033097982, 0.00805080309510231, 0.029940670356154442, -0.006131494417786598, 0.01350824348628521, 0.026452990248799324, -0.01955939084291458, -0.00047039310447871685, -0.0219480749219656, 0.01786772534251213, -0.031755004078149796, 0.014529047533869743, 0.01977074332535267, -0.002430371241644025, -0.019869184121489525, -0.016891350969672203, -0.02308628149330616, 0.014920699410140514, -0.02905893139541149, -0.035671669989824295, -0.007314760237932205, -0.0033674242440611124, 0.004338229075074196, -0.01596951112151146, 0.024185985326766968, 0.026452036574482918, 0.025068538263440132, 0.02770320512354374, 0.005516702309250832, 0.010241290554404259, -0.029903260990977287, -0.03403972089290619, 0.011604745872318745, 0.023936111479997635, -0.02525363303720951, 0.02159614861011505, 0.03237451985478401, 0.00655038096010685, -0.007896531373262405, 0.03231117129325867, -0.023095278069376945, -0.017561934888362885, -0.028623810037970543, 0.0038841667119413614, 0.008640401065349579, 0.024366384372115135, 0.014811666682362556, 0.02915034629404545, -0.031632669270038605, 0.005714477971196175, -0.00199149246327579, -0.012755559757351875, -0.019821207970380783, 0.006985870189964771, -0.015147230587899685, -0.002450551837682724, 0.015288068912923336, -0.013236083090305328, 0.001155095873400569, 0.0009812230709940195, 0.03439444676041603, -0.01001323014497757, -0.017246823757886887, 0.02294856123626232, 0.008976438082754612, -0.001490461640059948, -0.02493821270763874, 0.0010861142072826624, -0.03305121511220932, -0.027612661942839622, 0.01712144911289215, 0.01594865322113037, 0.02957603521645069, -0.010871906764805317, 0.027837218716740608, -0.007387679535895586, 0.0012044502655044198, 0.030747834593057632, -0.004655883647501469, 0.02606193721294403, -0.0005344143719412386, -0.01583469659090042, 0.02610405907034874, -0.029850389808416367, 0.012708618305623531, 0.020934274420142174, -0.013511424884200096, 0.02512919157743454, -0.022396942600607872, -0.027426185086369514, 0.0141542823985219, -0.00040495136636309326, 0.011205424554646015, 0.0019346978515386581, 0.029354648664593697, -0.017531370744109154, -0.017690472304821014, 0.004754926078021526, 0.01548745483160019, 0.02726450376212597, 0.033137209713459015, -0.03532004356384277, -0.010668806731700897, -0.034613288938999176, 0.03178773447871208, 0.02376818098127842, 0.0008449125452898443, 0.024921072646975517, -0.020683152601122856, 0.016568623483181, -3.388362529221922e-06, 0.02216174080967903, 0.01912466436624527, -0.018592799082398415, 0.0232523363083601, 0.022740395739674568, -0.028408316895365715, -0.034662410616874695, 0.007335719186812639, -0.01258303876966238, 0.0012454885290935636, 0.0015796385705471039, -0.023943934589624405, 0.006273550447076559, -0.035031095147132874, 0.004692793823778629, 0.011952577158808708, 0.0067063383758068085, -0.014415799640119076, -0.02723304182291031, -0.002754089655354619, 0.015399420633912086, -0.030789649114012718, -0.03425993770360947, -0.03148113936185837, -0.013025246560573578, 0.02991556189954281, -0.02157958224415779, -0.01932382769882679, -0.006047888658940792, -0.033311862498521805, 0.003091589780524373, -0.022002670913934708, 0.007369748316705227, -0.018443714827299118, 0.01570969820022583, 0.006155429873615503, 0.004969053436070681, 0.00017876960919238627, 0.013006352819502354, 0.01257862988859415, -0.0018655789317563176, 0.013155828230082989, -6.857182597741485e-05, 0.002124906051903963, -0.030447646975517273, -0.016537627205252647, 0.029881391674280167, -0.011007079854607582, 0.0039033617358654737, -0.019069351255893707, 0.02078026719391346, 0.034871477633714676, -0.005319481249898672, 0.025032898411154747, 0.017436906695365906, 0.015290023759007454, 0.019904762506484985, -0.005604766774922609, -0.00983534287661314, -0.033156029880046844, -0.00902582798153162, -0.014980536885559559, -0.03292044252157211, -0.017285453155636787, -0.009265877306461334, -0.024286072701215744, -0.0281277596950531, -0.01391261350363493, -0.030795758590102196, 0.001760425977408886, -0.001549776759929955, -0.02466779761016369, 0.0029647015035152435, -0.013210628181695938, -0.0055404650047421455, 0.009363497607409954, 0.030200012028217316, 0.033240124583244324, -0.013087732717394829, 0.008834658190608025, -0.0040102871134877205, -0.03591946139931679, -0.03015623614192009, -0.02606962062418461, 0.022811787202954292, -0.021147236227989197, -0.022717539221048355, -0.01085612177848816, -0.010594414547085762, -0.02999286539852619, 0.015996035188436508, -0.004740810487419367, 0.0031575083266943693, -0.0018320644740015268, -0.014671504497528076, -0.017501186579465866, -0.002892922842875123, 0.007318100892007351, 0.005135617684572935, -0.01804186776280403, -0.0012749540619552135, 0.0024918345734477043, 0.01990778185427189, -0.007953195832669735, 0.010551984421908855, 0.034255627542734146, -0.035902246832847595, 0.005278824362903833, 0.010884932242333889, -0.021049873903393745, -0.01568077690899372, 0.02390711009502411, -0.00041255043470300734, -0.03338739275932312, -0.022195924073457718, 0.010478013195097446, 0.022390777245163918, -0.019216569140553474, 0.028688788414001465, -0.02695700339972973, 0.026592649519443512, 0.010164933279156685, -0.02350577712059021, -0.033697985112667084, 0.030950134620070457, -0.013428865000605583, 0.017652442678809166, -0.03495907410979271, -0.030692460015416145, 0.01645517349243164, 0.026568425819277763, -0.016697460785508156, 0.020523805171251297, 0.025115791708230972, 0.008858831599354744, 0.023571942001581192, 0.029248297214508057, -0.0053496896289289, -0.011726661585271358, -0.018329273909330368, -0.009292780421674252, 0.030413378030061722, 0.009838367812335491, 0.024432986974716187, 0.008712004870176315, -0.011600919999182224, -0.023309731855988503, 0.007157908286899328, -0.015946216881275177, 0.012639769352972507, -0.018101638182997704, 0.022546762600541115, -0.03499088063836098, -0.033831529319286346, 0.00769203994423151, -0.021401681005954742, 0.003259254153817892, 0.01806509681046009, -0.003055417910218239, 0.032448478043079376, 0.026505349203944206, 0.013835189864039421], [-0.030146649107336998, -0.024718185886740685, 0.016897469758987427, -0.0005583534366451204, 0.004625547211617231, -0.017792126163840294, 0.025221839547157288, -0.01906720921397209, 0.027161553502082825, -0.029349559918045998, -0.023344922810792923, -0.020764784887433052, -0.029210034757852554, -0.016262074932456017, -0.020852375775575638, 0.01926727034151554, -0.020983880385756493, -0.008373280055820942, -0.004941745661199093, -0.02129603922367096, -0.022151531651616096, 0.009427560493350029, 0.020454132929444313, 0.005707445088773966, -0.015233299694955349, -0.027567876502871513, 0.019930027425289154, 0.0011971998028457165, 0.020528139546513557, 0.025484241545200348, 0.010465411469340324, 0.028818009421229362, 0.020799756050109863, -0.02929103560745716, -0.02763255313038826, -0.003692972008138895, -0.025986287742853165, -0.02428705058991909, -0.022051433101296425, -0.010094592347741127, -0.0012671984732151031, -0.032785505056381226, 0.0132113853469491, -0.027272777631878853, 0.024769727140665054, 0.008539574220776558, 0.03509608283638954, 0.02220091223716736, 0.021053649485111237, -0.015523788519203663, -0.007792353164404631, -0.019965481013059616, 0.013409459963440895, -0.032086823135614395, -0.007358077447861433, 0.03506777063012123, 0.016048798337578773, -0.011536511592566967, 0.0074141062796115875, 0.029096294194459915, 0.022549821063876152, 0.01872188411653042, 0.026019442826509476, -0.01952022686600685, -0.03335760906338692, 0.023749303072690964, -0.012387207709252834, 0.013470836915075779, -0.021021835505962372, -0.011589905247092247, -0.010193596594035625, 0.03310693800449371, 0.03232092410326004, -0.03615669161081314, -0.0040440671145915985, -0.007331270258873701, -0.02031133882701397, 0.004635124001652002, -0.019762039184570312, -0.014081274159252644, 0.000789737852755934, -0.028156569227576256, -0.009253821335732937, 0.024345966055989265, -0.006822248455137014, -0.008991669863462448, 0.020651347935199738, 0.0128261037170887, -0.026248667389154434, -0.0012844349257647991, 0.019487733021378517, 0.018789131194353104, 0.026039188727736473, -0.020306434482336044, -0.014232861809432507, -0.002221114467829466, -0.029413258656859398, -0.0029653103556483984, -0.008464114740490913, -0.01882060430943966, -0.028624283149838448, 0.0033370943274348974, -0.00169666251167655, -0.030274448916316032, 0.026531541720032692, -0.026117853820323944, 0.010340393520891666, 0.008488685823976994, 0.016378015279769897, -0.0340835377573967, 0.021056434139609337, 0.008596916683018208, -0.023108476772904396, 0.03203381597995758, -0.01513162162154913, 0.009234352968633175, 0.015176733024418354, 0.02636232040822506, -0.022608846426010132, 0.009088866412639618, 0.0023780965711921453, -0.019921692088246346, 0.027502723038196564, -0.008897465653717518, 0.0016983153764158487, -0.025093350559473038, 0.0015427104663103819, 0.00862367544323206, 0.011082988232374191, -0.03210657835006714, -0.0020688194781541824, -0.00046606193063780665, 0.015524706803262234, -0.030753720551729202, -0.0351773239672184, 0.00014370263670571148, 0.005494508892297745, -0.013166322372853756, 0.02506542205810547, 0.007942568510770798, 0.023248283192515373, -0.03262071684002876, -0.01566755399107933, -0.006500725634396076, 0.005256916396319866, -0.03604308143258095, 0.02350570075213909, 0.033420175313949585, 0.016853952780365944, 0.005812694318592548, 0.02584315463900566, 0.013736755587160587, 0.033931080251932144, -0.029370466247200966, -0.033007826656103134, -0.021671125665307045, 0.02725585550069809, 0.0356467142701149, 0.015368029475212097, 0.02775457873940468, 0.005158806685358286, 0.01858113706111908, -0.02342645451426506, -0.015184312127530575, -0.026933202520012856, 0.019329970702528954, 0.007381290663033724, 0.018760578706860542, 0.029071077704429626, 0.033400047570466995, 0.03378517925739288, -0.03265383467078209, 0.032647792249917984, 0.03063489869236946, 0.02165985107421875, 0.011477897875010967, -0.021952718496322632, -0.03587954118847847, -0.02912251092493534, -0.011615061201155186, -0.022498661652207375, 0.011639758013188839, 0.033420342952013016, -0.010464546270668507, -0.030114125460386276, 0.003641469171270728, 0.0035550103057175875, -0.03197846561670303, -0.028023578226566315, 0.018151966854929924, -0.02660287357866764, -0.0034224276896566153, -0.006832159589976072, -0.020244520157575607, 0.027715643867850304, 0.006595209706574678, -0.007209115661680698, -0.004951532930135727, 0.008864262141287327, 0.033878471702337265, 0.005231304559856653, 0.033934954553842545, 0.029415596276521683, 0.034177444875240326, 0.03390355780720711, 0.01907765306532383, -0.03511840105056763, -0.010122515261173248, 0.033517394214868546, -0.031984198838472366, -0.010179613716900349, -0.011067068204283714, 0.02099035680294037, 0.025845902040600777, -0.031861815601587296, -0.002307114889845252, -0.01801258698105812, -0.023340141400694847, 0.0037785989698022604, -0.0021424393635243177, -0.023587873205542564, -0.02989744022488594, -0.00040325726149603724, -0.027213672176003456, 0.01609657146036625, 0.01848297193646431, -0.021246854215860367, 0.03226596489548683, 0.009935238398611546, -0.015896687284111977, 0.027936656028032303, 0.008316636085510254, 0.02228682115674019, 0.02312931790947914, -0.001149575924500823, -0.014055348001420498, -0.015818439424037933, -0.0036562925670295954, -0.026753494516015053, -0.01576906442642212, -0.03069097176194191, -0.016665924340486526, -0.013879841193556786, -0.015920966863632202, -0.0045997751876711845, 0.025144100189208984, 0.029274826869368553, 0.025680605322122574, 0.011771835386753082, 0.01747388392686844, -0.02038167230784893, -0.00862699095159769, 0.02139655128121376, 0.014812363311648369, -0.0003698589571285993, 0.011175223626196384, 0.006277750711888075, 0.03377305716276169, 0.0019905995577573776, 0.01432184036821127, 0.0050709485076367855, -0.03269229456782341, 0.01426804717630148, -0.022065339609980583, 0.024290069937705994, -0.01808842644095421, -0.010923025198280811, 0.002695048926398158, -0.009690830484032631, -0.030033787712454796, -0.03301271051168442, -0.01338896807283163, -0.011940798722207546, 0.011970811523497105, 0.02015964314341545, 0.0010186671279370785, 0.034312110394239426, -0.013607661239802837, 0.011209008283913136, -0.02047935500741005, 0.032720502465963364, -0.014603972434997559, 0.013897424563765526, 0.019407907500863075, -0.008899086154997349, -0.010916254483163357, 0.01958432048559189, 0.0014558150433003902, -0.009343767538666725, 0.01924937218427658, -0.005571640096604824, 0.012239753268659115, 0.02976081520318985, 0.023822396993637085, 0.03487931564450264, 0.018112942576408386, 0.01902521215379238, -0.009648098610341549, 0.03521614149212837, 0.0009628009865991771, -0.019617566838860512, -0.019707154482603073, -0.015094619244337082, 0.014919358305633068, 0.028106389567255974, 0.029112929478287697, 0.0034564377274364233, -0.030299454927444458, -0.005155541002750397, 0.0014299947069957852, -0.006673820782452822, 0.003622598946094513, 0.03265820071101189, 0.03383861482143402, -0.0067213475704193115, -0.003105130512267351, 0.020408129319548607, 0.02535553276538849, 0.016598064452409744, -0.010441786609590054, -0.016610370948910713, 0.023378312587738037, 0.03217480331659317, 0.005086770746856928, 0.018093200400471687, 0.0337928831577301, 0.005646784324198961, -0.02529492788016796, 0.024264976382255554, 0.014235328882932663, 0.00403475621715188, -0.007760504726320505, -0.014140281826257706, 0.025159453973174095, -0.021232757717370987, 0.019732363522052765, -0.010026435367763042, -0.028028452768921852, -0.005540906451642513, -0.01496728602796793, 0.016336871311068535, 0.010735328309237957, -0.023497162386775017, -0.02452806383371353, -0.033305101096630096, -0.027506953105330467, -0.014577888883650303, -0.008011469617486, -0.022348318248987198, -0.017655430361628532, -0.020721523091197014, -0.013590582646429539, 0.03398752585053444, -0.021800924092531204, 0.028371430933475494, -0.02484702505171299, -0.012063913978636265, -0.0007747664931230247, -0.03355136141180992, 0.03355765715241432, 0.010364334098994732, -0.01839902251958847, -0.03507445380091667, 0.0020230761729180813, 0.006012278608977795, -0.011148521676659584, -0.011506753042340279, -0.018391812220215797, 0.03144681453704834, 0.007314005866646767, 0.021987395361065865, 0.022185135632753372, -0.012594033032655716, -0.022487495094537735, 0.029484547674655914, -0.004405654035508633, -0.030665738508105278, 0.018655603751540184, 0.0036512005608528852, -0.018012458458542824, 0.011897111311554909, 0.01035618782043457, 0.017970340326428413, 0.004735549446195364, 6.266985565162031e-06, -0.0366387702524662, -0.033253107219934464, 0.002615432720631361, -0.005926540121436119, 0.0042106881737709045, 0.024857722222805023, 0.0276587326079607, 0.015162261202931404, -0.01630566455423832, -0.022847017273306847, 0.023028012365102768, 0.01779223419725895, 0.031146463006734848, -0.00688243517652154, 0.0024172617122530937, 0.018174922093749046, 0.0012762469705194235, -0.006456007249653339, -0.008440259844064713, -0.009061858989298344, 0.004991774447262287, -0.00736903166398406, 0.016318710520863533, -0.005343284923583269, -0.005511801689863205, -0.013466372154653072, -0.00952074769884348, 0.025756482034921646, -0.015726055949926376, -0.008880327455699444, 0.016076885163784027, 0.01087153796106577, 0.033053670078516006, -0.015439330600202084, 0.005840707570314407, 0.012424103915691376, -0.012397616170346737, -0.0243962574750185, 0.01972607523202896, -0.025709200650453568, -0.020700853317975998, -0.007200221996754408, 0.0186564102768898, -0.036198921501636505, -0.000855846970807761, -0.021013958379626274, -0.022379742935299873, 0.024702874943614006, 0.01763252168893814, -0.0038136388175189495, 0.02868177928030491, -0.03584921360015869, 0.021295305341482162, 0.030562806874513626, 0.023310964927077293, -0.011458491906523705, -0.038345009088516235, -0.011468857526779175, 0.02551445923745632, 0.0016059890622273088, 0.008162068203091621, 0.025388579815626144, 0.010400415398180485, 0.016017703339457512, -0.011960826814174652, -0.020453540608286858, -0.021683847531676292, 0.010326849296689034, -0.0309765562415123, -0.020637281239032745, 0.023659981787204742, 0.011013967916369438, -0.014927452430129051, -0.03943122550845146, 0.013917193748056889, 0.0043919808231294155, -0.0022789461072534323, -0.0252543818205595, 6.173017027322203e-05, 0.025894828140735626, 0.014862606301903725, -0.02023584209382534, -0.024483880028128624, -0.008770092390477657, -0.008853869512677193, 0.0019924347288906574, 0.004951224196702242, -0.007171289529651403, 0.0008237241418100893, -0.0019331807270646095, 0.027504291385412216, 0.0027821268886327744, -0.021258311346173286, -0.012330648489296436, 0.018339460715651512, 0.0012002438306808472, -0.03168053552508354, -0.013309968635439873, 0.02890539914369583, 0.008089425042271614, -0.03437817469239235, 0.005246185697615147, 0.007021438330411911, -0.027398880571126938, 0.0038350867107510567, 0.007219543214887381, 0.021456222981214523, -0.03317558765411377, 0.026845259591937065, -0.01393532007932663, -0.003078144509345293, 0.02287997119128704, 0.02445785328745842, 0.00205467501655221, -0.0071051595732569695, -0.027230946347117424, -0.007714832201600075, 0.0021825768053531647, 0.007514752447605133, -0.03212208300828934, -0.035793934017419815, 0.02922532893717289, -0.016170863062143326, 0.01695123314857483, 0.030805308371782303, 0.0005165726761333644, -0.012563246302306652, -0.006472891196608543, -0.02722780592739582, -0.03169925510883331, 0.006203681696206331, -0.013591565191745758, 0.012617435306310654, -0.030351312831044197, 0.025354214012622833, 0.01147717610001564, -0.004880107007920742, -0.012442244216799736, -0.0013401559554040432, -0.007913652807474136, -0.03588058426976204, -0.013466786593198776, 0.026571843773126602, 0.0054529281333088875, 0.009905105456709862, 0.023355336859822273, 0.02075028605759144, -0.009535267017781734, 0.011921585537493229, -0.008972563780844212, -0.02785935439169407, 0.008146936073899269, 0.01036166399717331, 0.0013405694626271725, 0.00987325794994831, -0.01311110332608223, 0.022374961525201797, -0.020007731392979622, -0.015478668734431267, 0.00026998319663107395, -0.02685617096722126, -0.021154072135686874, -0.036636024713516235, 0.02104215882718563, 0.028594274073839188, -0.007758843246847391, -0.015112875029444695, 0.005839945748448372, 0.009572048671543598, -0.03458848595619202, 0.005992924328893423, -0.0017207213677465916, -0.003986533265560865, 0.011629866436123848, -0.035079535096883774, -0.016183024272322655, -0.002200575079768896, -0.009950084611773491, 0.012271508574485779, -0.034328486770391464, 0.02098574861884117, 0.03349874168634415, 