{"conv_params": {"kernels": [[0.1273641437292099, -0.3613564074039459, 0.2718735337257385, -0.1795201301574707], [0.2903423607349396, 0.2643588185310364, 0.23189698159694672, 0.3092450499534607], [0.05848222225904465, -0.5017662048339844, -0.2019525170326233, -0.5739536285400391], [0.13190233707427979, -0.4790445864200592, -0.3957332968711853, 0.5461768507957458]], "bias": [0.4030086100101471, 0.23802272975444794, 0.853705108165741, 0.2881135642528534]}, "fc1.weight": [[-0.003844756633043289, -0.03175974264740944, 0.02658834122121334, 0.011153834871947765, -0.0010467757238075137, 0.0075333938002586365, 0.02514716610312462, 0.01344623975455761, 0.007509956136345863, -0.029054351150989532, -0.009424502961337566, 0.0265512578189373, -0.010235163383185863, -0.02008468471467495, -0.013460838235914707, -0.005544612649828196, -0.011104111559689045, 0.012505404651165009, -0.03398323804140091, 0.0027508449275046587, 0.03213346749544144, 0.019691314548254013, -0.01790216751396656, -0.018162069842219353, 0.009955608285963535, -0.021565085276961327, 0.028615061193704605, 0.020241526886820793, -0.027245281264185905, -0.006791466381400824, -0.028708279132843018, -0.022589484229683876, -0.012019768357276917, -0.033533137291669846, -0.007133304141461849, -0.02404622547328472, -0.013721490278840065, -0.002461779862642288, 0.023807141929864883, -0.02679518237709999, 0.023433508351445198, -0.012071655131876469, -0.016331210732460022, -0.007882682606577873, -0.016466766595840454, -0.02748364768922329, 0.02513589709997177, -0.0031670720782130957, 0.020636675879359245, -0.0018523430917412043, -0.016117259860038757, -0.0006065764464437962, -0.029769036918878555, -0.030464407056570053, 0.009010017849504948, 0.029647476971149445, -0.026531772688031197, -0.004591289907693863, -0.020074788480997086, -0.005262278486043215, 0.026380687952041626, -0.030043868348002434, -0.0026287164073437452, 0.02892705798149109, -0.029867684468626976, -0.02739325538277626, 0.02410254254937172, -0.03599591925740242, -0.030923033133149147, -0.023403674364089966, 0.030024005100131035, 0.02502279542386532, 0.009841233491897583, -0.018242251127958298, -0.019044850021600723, 0.022908026352524757, 0.004034976474940777, 0.02310275472700596, -0.013415523804724216, 0.007681002840399742, -0.022343074902892113, -0.016918091103434563, 0.026078922674059868, 0.026145488023757935, 0.013597551733255386, 0.0033455132506787777, 0.024799233302474022, 0.011709650978446007, 0.03336890786886215, 0.016036268323659897, -0.017592325806617737, 0.012011061422526836, 0.02988002821803093, -0.002255681436508894, 0.03352393954992294, -0.03366243839263916, -0.030753806233406067, 0.0021085061598569155, 0.028979020193219185, -0.02180652879178524, 0.014843222685158253, 0.016746530309319496, 0.03532370179891586, 0.03573956713080406, -0.017807090654969215, -0.01187550276517868, 0.026174180209636688, -0.004627455957233906, 0.034212876111269, -0.017414307221770287, -0.013236461207270622, 0.029814621433615685, 5.766869435319677e-05, 0.006537142209708691, -0.027059953659772873, -0.010112215764820576, -0.0318671353161335, 0.03466281294822693, -0.0379168726503849, -0.024357842281460762, 0.012454872019588947, -0.002257879823446274, -0.017152421176433563, -0.033073991537094116, 0.0019008887466043234, -0.0017904780106619, -0.012397895567119122, 0.01062608603388071, 0.024782462045550346, -0.027951356023550034, -0.0012110840762034059, 0.005446548108011484, -0.03137354180216789, 0.0301570575684309, 0.003283242927864194, 0.006295701488852501, 0.013736448250710964, -0.029530787840485573, -0.007405065465718508, 0.0352243110537529, -0.015843648463487625, -0.024046586826443672, 0.016247181221842766, -0.00992604997009039, -0.0036242101341485977, 0.029334211722016335, 0.002019534818828106, -0.022419698536396027, 0.02825085259974003, 0.01518570352345705, 0.024810969829559326, 0.03444942831993103, 0.002664638217538595, 0.025293339043855667, -0.002126258099451661, 0.009631576016545296, -0.013253690674901009, 0.0014361559879034758, -0.01713411509990692, 0.007509404793381691, -0.03266041725873947, -0.014874988235533237, 0.0005933390348218381, 0.017906103283166885, 0.008895587176084518, -0.024210959672927856, -0.013782535679638386, -0.022287920117378235, -0.010078482329845428, 0.02725045196712017, -0.0038334501441568136, 0.007491139695048332, -0.025136444717645645, -0.004606163594871759, 0.026800621300935745, 0.017828691750764847, 0.005437569227069616, -0.01660013757646084, 0.03351756930351257, 0.03542963042855263, 0.010951501317322254, -0.00901249423623085, 0.013051732443273067, -0.0009634185116738081, -0.011225576512515545, -0.002599209314212203, -0.01575266197323799, -0.011962322518229485, -0.015817437320947647, -0.028463546186685562, -0.02350037358701229, -0.034262921661138535, -0.0010625720024108887, 0.03337591141462326, 0.023521261289715767, 0.025019101798534393, 0.02532200887799263, 0.031649213284254074, 0.02516266331076622, -0.020312612876296043, -0.0004741592856589705, -0.025459695607423782, -0.040942881256341934, -0.014375691302120686, -0.0343761183321476, 0.03338829055428505, -0.028094545006752014, 0.03229174017906189, -0.024838989600539207, -0.0006847800104878843, 0.002759398892521858, -0.008268835954368114, 0.008832572028040886, -0.020784366875886917, 0.04128837212920189, 0.014843931421637535, -0.01035982184112072, -0.021306023001670837, -0.026331892237067223, -0.01683664508163929, 0.010508948005735874, -0.011964554898440838, 0.01862706057727337, 0.022873690351843834, -0.010644162073731422, -0.020757291465997696, 0.018283359706401825, 0.012503555044531822, -0.009912226349115372, 0.004835551138967276, -0.03822960704565048, 0.01651041954755783, 0.027627622708678246, -0.006380812264978886, -0.03421377018094063, -0.014019345864653587, -0.011075695045292377, -0.006333514582365751, -0.03350194916129112, -0.01980656385421753, -0.01321906317025423, -0.019054122269153595, -0.008577602915465832, -0.008252497762441635, 0.017647571861743927, -0.03218456730246544, 0.012480344623327255, -0.02748275175690651, -0.018187517300248146, -0.01735851541161537, 0.025384221225976944, 0.023413464426994324, 0.02985702082514763, 0.01087590679526329, -0.00814980361610651, 0.006624942645430565, 0.006518989335745573, -0.019308404996991158, -0.007152467500418425, -0.022508693858981133, -0.009630485437810421, 0.004477032460272312, 0.009724680334329605, -0.03587609902024269, -0.015323030762374401, 0.004764638841152191, 0.010298077948391438, -0.029208626598119736, 0.012488752603530884, -0.03184543922543526, -0.00941411592066288, 0.03687907010316849, -0.02786475606262684, -0.020383195951581, 0.03485545143485069, 0.025439323857426643, -0.019782641902565956, -0.02931509166955948, -0.0019284752197563648, -0.02734365500509739, -0.0004588542797137052, -6.23117302893661e-05, 0.010186395607888699, 0.02864895947277546, 0.006647240370512009, -0.014303455129265785, -0.002242046408355236, 0.014060518704354763, 0.04069491848349571, 0.03925148397684097, -0.024310287088155746, 0.006825254764407873, 0.016997290775179863, 0.032240722328424454, 0.010247335769236088, -0.013677705079317093, 0.011880787089467049, 0.005903237033635378, 0.008516685105860233, 0.034960877150297165, -0.010005660355091095, 0.03549796715378761, 0.04850872978568077, 0.03126874566078186, -0.019193710759282112, 0.025496121495962143, -0.020869651809334755, 0.027689989656209946, 0.03651844337582588, 0.0165090411901474, 0.036339953541755676, -0.03109263814985752, 0.01744605228304863, 0.00738278916105628, -0.022325243800878525, 0.03795536980032921, -0.01659696362912655, 0.0019860360771417618, 0.007462093140929937, 0.013314644806087017, 0.02816353179514408, 0.004726490005850792, 0.011130345985293388, 0.014751401729881763, 0.010736226104199886, 0.0017159802373498678, -0.010475264862179756, 0.015957726165652275, -0.0228754673153162, -0.005520797334611416, 0.0108942911028862, 0.024438045918941498, 0.01696651615202427, -0.025909457355737686, -0.003082189243286848, 0.025634044781327248, -0.028273478150367737, -0.0008435146301053464, -0.02753717638552189, -0.04572886601090431, 0.03030398301780224, 0.04003319889307022, 0.025416696444153786, 0.02916988916695118, 0.022314945235848427, 0.012194698676466942, -0.030609525740146637, 0.0022642018739134073, -0.014858768321573734, -0.032921575009822845, -0.01205392088741064, -0.013392428867518902, 0.016696376726031303, -0.036095499992370605, 0.008555753156542778, 0.010084863752126694, 0.006461873650550842, 0.03371540457010269, 0.022409068420529366, 0.0066560120321810246, -0.0005936917150393128, -0.010635718703269958, 0.01750906929373741, -0.03222048655152321, -0.011241559870541096, 0.017537899315357208, -0.016342706978321075, -0.025173993781208992, 0.011371598578989506, -0.008216215297579765, 0.011007370427250862, 0.011237855069339275, -0.016073007136583328, 0.026570472866296768, -0.024068953469395638, 0.02757205069065094, 0.022793661803007126, 0.028363650664687157, -0.018533853814005852, 0.031488317996263504, 0.020318903028964996, -0.007800593506544828, 0.02044529654085636, 0.005906078033149242, 0.023959046229720116, 0.015533809550106525, 0.02919856086373329, 0.026629073545336723, -0.02412503771483898, -0.010859869420528412, 0.010009079240262508, -0.025890860706567764, 0.0280666071921587, 0.035671573132276535, 0.026018759235739708, 0.028494317084550858, -0.009623067453503609, 0.03947460278868675, 0.027288993820548058, 0.03952326625585556, -0.00949090626090765, -0.03708904981613159, 0.018920017406344414, -0.026276400312781334, 0.022887030616402626, 0.019593002274632454, 0.023165132850408554, -0.010671141557395458, 0.01995817758142948, -0.026324473321437836, 0.014090605080127716, -0.014078643172979355, -0.002992782276123762, 0.03200065717101097, -0.0141803789883852, -0.01741572842001915, -0.030012669041752815, -0.0340728797018528, -0.01925521157681942, 0.0038806998636573553, -0.031804755330085754, -0.009085450321435928, -0.003772010328248143, 0.0008400900405831635, 0.006395129952579737, -0.035837527364492416, 0.00452293548732996, -0.010547982528805733, 0.03352299705147743, 0.03225347399711609, -0.021254301071166992, -0.004522062372416258, 0.001497446559369564, -0.019914938136935234, -0.028830543160438538, 0.006770524196326733, 0.041254907846450806, -0.03254780173301697, -0.0202142633497715, -0.011787733994424343, 0.029797252267599106, -0.017129503190517426, -0.00394698278978467, -0.01787114143371582, 0.015175940468907356, -0.026509687304496765, -0.030118552967905998, -7.992923929123208e-05, -0.006005553994327784, -0.00022261835692916065, -0.01810454949736595, -0.021070759743452072, 0.009381492622196674, -0.008391368202865124, -0.02190832793712616, -0.00919443741440773, -0.008885864168405533, 0.014378612861037254, -0.03449755162000656, -0.02728193812072277, -0.024182815104722977, -0.03781464695930481, 0.015450638718903065, -0.03873719647526741, -0.03776874020695686, -0.029088303446769714, -0.008927729912102222, -0.02881026268005371, -0.008240770548582077, 5.616058115265332e-05, 0.009182506240904331, 0.01963225193321705, 0.02653312496840954, -0.01982857659459114, 0.02763889543712139, -0.02779649943113327, 0.029865819960832596, -0.03298556059598923, -0.03216532617807388, 0.022262509912252426, 0.006225773598998785, -0.01609279215335846, 0.005435002036392689, -0.015795445069670677, 0.043669674545526505, 0.03377483785152435, -0.0069470591843128204, 0.040036994963884354, 0.03540651127696037, 0.01875813864171505, -0.02660844475030899, -0.008056779392063618, 0.016415275633335114, -0.033673327416181564, -0.016542432829737663, -0.020558733493089676, -0.011679274030029774, 0.00017926270083989948, -0.0065510389395058155, -0.025134628638625145, -0.012843845412135124, 0.048806603997945786, 0.015968795865774155, 0.02102258801460266, -0.02277674712240696, 0.03124985098838806, -0.017022663727402687, -0.019244477152824402, -0.0069100321270525455, 0.006027240306138992, -0.020494844764471054, -0.035887688398361206, -0.023152951151132584, -0.03222067281603813, 0.010602863505482674, 0.009862140752375126, 0.021601255983114243, -0.002934471471235156, 0.00942573044449091, -0.03381176292896271, -0.005962801165878773, 0.00925014354288578, 0.0037306048907339573, 0.034568626433610916, -0.03865126520395279, -0.028481604531407356, 0.037378206849098206, -0.03541187569499016, 0.007369815371930599, -0.015786996111273766, -0.008745858445763588, 0.013694101013243198, -0.012397362850606441, 0.012821274809539318, -0.00935840792953968, 0.015336607582867146, -0.0071755386888980865, -0.03496003895998001, 0.019160661846399307, -0.01253244187682867, -0.02158057875931263, -0.0346607081592083, 0.035975467413663864, 0.003552946960553527, -0.011229138821363449, 0.023306390270590782, -0.021680748090147972, 0.02627108246088028, 0.01273901667445898, -0.03312826156616211, 0.0127645805478096, -0.03487492352724075, -0.005750001408159733, -0.040288157761096954, 0.023761682212352753, -0.011132249608635902, -0.03431633487343788, -0.020138923078775406, -0.036930836737155914, 0.02956201694905758, 0.021768594160676003, -0.026403700932860374, 0.02342369593679905, -0.01375583652406931, -0.05030224844813347, -0.029296021908521652, -0.00022648501908406615, -0.014984887093305588, -0.02804654650390148, -0.01422849204391241, 0.0216622706502676, -0.026491129770874977, 0.023363346233963966, -0.017492249608039856, -0.0272031519562006, 0.0012935508275404572, -0.006497806403785944, 0.011315222829580307, 0.011834920383989811, 0.01068626157939434, -0.05033845826983452, -0.012814018875360489, 0.0062837060540914536, -0.019916381686925888, 0.02672555483877659, 0.03881305828690529, 0.0055148000828921795, -0.023505056276917458, -0.031446415930986404, 0.01822599768638611, 0.010241447947919369, 0.021620554849505424, -0.024793287739157677, -0.0010785151971504092, 0.009512434713542461, 0.006649332586675882, 0.012249687686562538, 0.025155507028102875, 0.028582502156496048, -0.026509596034884453, -0.015388211235404015, 0.0016552152810618281, -0.02666100487112999, 0.024959463626146317, -0.023965759202837944, -0.018958402797579765, -0.014427277259528637, -0.004300158470869064, -0.019752489402890205, -0.033504076302051544, -0.010251044295728207, -0.006174642592668533, -0.012782546691596508, -0.018267568200826645, -0.022175513207912445, -0.030183052644133568, -0.002345276763662696, -0.0156630240380764, -0.0034393449313938618, -0.02064368687570095, 0.013376138173043728, 0.03479279577732086, 0.023736104369163513, 0.004760801792144775, 0.01219246257096529, 0.025883106514811516, -0.00955962110310793, -0.014031663537025452, -0.013864589855074883, -0.01174203958362341, 0.005376006010919809, -0.02266582101583481, 0.007797624450176954, 0.006183163728564978, 0.0069308774545788765, 0.003882113378494978, 0.016565844416618347, -0.030382243916392326, 0.028979850932955742, 0.02713865414261818, -0.0014937222003936768, -0.03062053583562374, 0.030291786417365074, -0.013830631040036678, -0.016475657001137733, 0.015289107337594032, -0.017566177994012833, 0.02318749949336052, -0.02477162703871727, -0.031143678352236748, -0.03156305104494095, 0.013778287917375565, 0.00481032719835639, 0.015651745721697807, -0.028838036581873894, -0.01454866398125887, -0.020806699991226196, 0.0030068897176533937, -0.030753951519727707, 0.02257963828742504, -0.025664420798420906, -0.028490275144577026, 0.008902100846171379, -0.025073392316699028, 0.010114055126905441, 0.002604535548016429, 0.012568579986691475, -0.008606304414570332, 0.011750292964279652, 0.004304863046854734, -0.0270749069750309, 0.019646598026156425, 0.017289290204644203, -0.026717502623796463, -0.025897881016135216, -0.0063459258526563644, 0.016738245263695717, -0.01139829121530056, 0.027003347873687744, 0.025912726297974586, 0.018117457628250122, 0.03456774726510048, 0.013477020896971226, -0.0069001056253910065, -0.03398668393492699, -0.006461259443312883, -0.020735202357172966, -0.003595930291339755, 0.011567189358174801, 0.005616778042167425, 0.015264301560819149, 0.02983182668685913, 0.03493102267384529, -0.026092292740941048, -0.020760737359523773, 0.009146489202976227, 0.02972547896206379, -0.005289166234433651, -0.03375929594039917, -0.009654325433075428, -0.0015315549680963159, -0.020088424906134605, 0.008390950039029121, 0.025099433958530426, -0.001290618791244924, -0.02599109336733818, -0.01992097869515419, 0.01715570129454136, -0.0054603032767772675, 0.00807840097695589, -0.008956518024206161, -0.0008634499390609562, 0.031794048845767975, 0.021676000207662582, -0.0053015416488051414, -0.03191741183400154, 0.01953982375562191, -0.022424308583140373, -0.02184870094060898, 0.019423790276050568, 0.03515222296118736, 0.005804145243018866, 0.018958544358611107, -0.01594734936952591, 0.03429364785552025, 0.011461082845926285, -0.010198157280683517, -0.013945854268968105, -0.006507592741400003, 0.03143426030874252, 0.021715106442570686, 0.029978711158037186, 0.0027127654757350683, -0.011031792499125004, -0.018651999533176422, -0.009356505237519741, 0.029765136539936066, 0.035168420523405075, -0.02271261252462864, 0.014034882187843323, -0.032708097249269485, -0.022785909473896027, 0.003980366978794336, 0.008075893856585026, 0.03079499676823616, 0.003249331610277295, 0.034306637942790985, -0.007899176329374313, 0.032442428171634674, -0.029052939265966415, -0.007078296970576048, 0.005575265269726515, -0.02439809963107109, 0.023422596976161003, 0.0060271876864135265, -0.010846204124391079, 0.03112279251217842, 0.006277727894484997, -0.03308843821287155, 0.022083576768636703, 0.03196348994970322, 0.016067374497652054, 0.004560457542538643, -0.004250903148204088, -0.003909251652657986, 0.030603956431150436, 0.029979491606354713, -0.03173475340008736, 0.028186513110995293, -0.007630114443600178, 0.01716897450387478, -0.024432409554719925, 0.02278399094939232, -0.0037069281097501516, 0.014325342141091824, 0.032753586769104004, -0.01648181863129139, 0.03154223412275314, 0.03474636748433113, 0.02360067516565323, 0.019194377586245537, -0.0143326036632061, -0.030482133850455284, -0.01665559411048889], [-0.029152311384677887, -0.02142941765487194, 0.03185850754380226, 0.028560101985931396, 0.02565781958401203, 0.014783567748963833, -0.023494824767112732, -0.013467277400195599, 0.032488029450178146, 0.013507090508937836, 0.022858884185552597, -0.0037854830734431744, -0.02245580404996872, 0.01533468533307314, 0.0014591272920370102, -0.01676211506128311, -0.019852174445986748, 0.034358490258455276, -0.004136584233492613, 0.023290541023015976, -0.003853988368064165, -0.006285248324275017, 0.006578040309250355, 0.029958827421069145, -0.037042371928691864, 0.021100323647260666, 0.009315071627497673, -0.010548471473157406, 0.03371243178844452, -0.02141105756163597, -0.012183766812086105, -0.01091992948204279, 0.006767429411411285, 0.012189345434308052, 0.007880712859332561, 0.019464712589979172, -0.009701581671833992, 0.02592642232775688, -0.008576189167797565, -0.034750040620565414, -0.03239459544420242, -0.00612887367606163, -0.005426183808594942, 0.03232372924685478, -0.0038320475723594427, -0.008703476749360561, -0.008441575802862644, -0.02638360671699047, 0.0330650769174099, -0.004002541769295931, 0.01728617586195469, 0.03136446326971054, -0.011106493882834911, 0.028037816286087036, 0.030872909352183342, -0.006206131540238857, 0.016707267612218857, 0.010233656503260136, -0.0037662829272449017, 0.024814534932374954, -0.03623954579234123, -0.00620524724945426, -0.01424325816333294, -0.027569372206926346, -0.003367295488715172, 0.015894558280706406, 0.02471706084907055, 0.03227686136960983, 0.005828629247844219, 0.002082914812490344, 0.01529986597597599, -0.007079361937940121, 0.027171460911631584, -0.010420124046504498, -0.034405194222927094, 0.01963651180267334, -0.01229899749159813, 0.023570585995912552, -0.029505589976906776, -0.03669939190149307, 0.00968223623931408, -0.016490450128912926, -0.02962321601808071, 0.031106650829315186, -0.02061711996793747, 0.0015873516676947474, -0.0150576988235116, -0.02950524538755417, 0.011994007043540478, 0.015702443197369576, -0.02003183588385582, 0.028066441416740417, -0.03531935065984726, -0.029934613034129143, -0.012660174630582333, -0.016980519518256187, -0.01793801039457321, 0.029752466827630997, -0.00919826328754425, 0.006721511483192444, -0.018329037353396416, -0.03556135296821594, 0.019358888268470764, 0.013595636934041977, 0.002249261597171426, -0.015976684167981148, -0.03740459308028221, 0.02266627922654152, -0.020756784826517105, 0.014482308179140091, -0.016121143475174904, -0.030897844582796097, -0.008695167489349842, -0.030463766306638718, 0.017317023128271103, -0.022872233763337135, -0.027934342622756958, 0.005611439701169729, 0.013844207860529423, 0.017067600041627884, 0.025712821632623672, -0.03217301145195961, -0.012374402955174446, -0.0266761165112257, 0.0013253435026854277, 0.009155010804533958, -0.02157856710255146, 0.0014868141151964664, -0.01206350326538086, 0.0004923640517517924, 0.017509419471025467, -0.014441118575632572, -0.02747003547847271, -0.02630041167140007, 0.022099705412983894, 0.014980659820139408, -0.005856792442500591, -0.0023739151656627655, 0.025057636201381683, 0.023241130635142326, -0.03253067657351494, -0.007538581732660532, 0.006141327321529388, -0.039054155349731445, 0.028630781918764114, 0.0083833122625947, -0.02660190500319004, -0.026884380728006363, -0.009861798025667667, 0.008294276893138885, 0.00673453975468874, -0.004287342075258493, -0.0187234990298748, -0.015878602862358093, 0.019973674789071083, 0.02284061722457409, 0.0012803307035937905, -0.031446319073438644, 0.017935127019882202, -0.008390062488615513, 0.026977084577083588, 0.012815349735319614, 0.006925807800143957, 0.018022768199443817, -0.018352549523115158, -0.008090081624686718, -0.01933465152978897, 0.005718205589801073, -0.001293984241783619, -0.01996805891394615, 0.0060318270698189735, -0.006973333191126585, -0.007063268218189478, 0.03139851242303848, 0.04162883386015892, 0.011476714164018631, 0.0034854174591600895, 0.006969960872083902, 0.009977107867598534, 0.028842054307460785, -0.005842508282512426, 0.023599376901984215, 0.0038723109755665064, -0.025319823995232582, -0.02734021656215191, 0.015195226296782494, -0.014956416562199593, -0.0035464325919747353, 0.013435613363981247, 0.010031727142632008, -0.006642036605626345, 0.03153374791145325, -0.000546337803825736, -0.012745958752930164, 0.017258916050195694, 0.006777991075068712, 0.00416999775916338, -0.0126776322722435, 0.0356687568128109, -0.015901247039437294, -0.016656966879963875, 0.0022367238998413086, 0.007946549914777279, 0.036516666412353516, -0.015482078306376934, -0.017716169357299805, 0.042297929525375366, -0.028573906049132347, 0.012682968750596046, 0.03240654245018959, 0.014298179186880589, -0.029309207573533058, 0.023647403344511986, -0.017360884696245193, -0.02811623550951481, 0.020375235006213188, 0.009812560863792896, 0.01266555581241846, -0.033532533794641495, -0.028220366686582565, -0.03347959369421005, -0.007647255901247263, -0.01486162468791008, 0.037744782865047455, -0.014607459306716919, 0.026613498106598854, 0.021471228450536728, 0.03412691131234169, -0.005921437405049801, -0.01866759918630123, 0.023936228826642036, -0.003044823883101344, -0.010500160045921803, -0.011970480903983116, -0.02539948932826519, 0.0008890799945220351, 0.039940886199474335, -0.014740712940692902, 0.03227439522743225, -0.02471849136054516, -0.011974859982728958, 0.03234134614467621, -0.00022534377058036625, 0.01456052903085947, -0.016939613968133926, 0.03171969950199127, -0.013252650387585163, -0.009288251399993896, -0.011898393742740154, 0.027750875800848007, -0.026164013892412186, -0.018030080944299698, 0.014377004466950893, -0.019662529230117798, 0.022001562640070915, 0.03804058954119682, -0.0031379086431115866, 0.03299030289053917, -0.021467136219143867, 0.019706368446350098, -0.0008774857851676643, 0.0011285590007901192, 0.009763113223016262, 0.003428906202316284, 0.012373151257634163, -0.0017222940223291516, 0.010838918387889862, 0.0275945533066988, 0.032540399581193924, 0.017279621213674545, 0.030591025948524475, 0.03384655714035034, -0.006318419706076384, -0.037558745592832565, 0.008286512456834316, -0.012334929779171944, 0.01889105886220932, 0.0391835980117321, 0.0082637257874012, -0.027640534564852715, 0.02659786120057106, -0.01762651465833187, -0.02430313266813755, 0.0022927243262529373, -0.024686003103852272, 0.004057973623275757, 0.012934841215610504, -0.02050114795565605, 0.0283119585365057, 0.043369464576244354, -0.030150538310408592, -0.007757282815873623, 0.021281573921442032, -0.0033902411814779043, -0.0016717382241040468, 0.025835227221250534, 0.01721540279686451, 0.0032884234096854925, -0.008462687954306602, 0.024575695395469666, -0.029189156368374825, -0.0023916508071124554, -0.03299497440457344, -0.01696564443409443, 0.011213583871722221, -0.019512280821800232, -0.011186208575963974, -0.01609584130346775, 0.012134196236729622, -0.022876694798469543, 0.029456250369548798, 0.011037429794669151, 0.01162649691104889, 0.013287781737744808, -0.03223516419529915, -0.003356232773512602, 0.011979515664279461, -0.006447998806834221, -0.0068059018813073635, 0.03289740905165672, -0.029080403968691826, 0.02687712199985981, -0.005606683436781168, -0.001055508153513074, 0.0088003259152174, -0.007597421761602163, 0.040295202285051346, -0.024840695783495903, -0.029904650524258614, 0.016576003283262253, -0.01237022876739502, 0.004467450547963381, -0.003990665543824434, 0.00032801515772007406, -0.014038455672562122, 0.01743331179022789, 0.0038028014823794365, -0.0012082223547622561, -0.02984572760760784, 0.014985802583396435, 0.004056112375110388, -0.03093484230339527, -0.0160274188965559, -0.0036662970669567585, 0.002345082815736532, -0.03066728450357914, 0.04539494961500168, 0.01822190172970295, 0.011236620135605335, 0.01844550482928753, 0.03350193798542023, 0.007183003704994917, 0.006196531001478434, -0.02723355032503605, -0.024523358792066574, 0.023789819329977036, 0.02097013220191002, 0.004137108568102121, -0.035190630704164505, -0.005622013006359339, 0.00645312899723649, 0.03469729423522949, -0.01876003108918667, -0.022422444075345993, 0.03684353455901146, -0.0130156846717, 0.018005771562457085, -0.007074588909745216, -0.002169256331399083, -0.02583293989300728, -0.016504239290952682, -0.017806245014071465, -0.02380440942943096, 0.007434397470206022, 0.02324754372239113, 0.0019268516916781664, -0.005402440205216408, -0.022979771718382835, -0.004269671626389027, -0.009634659625589848, -0.017469706013798714, -0.0026702226605266333, -0.016055278480052948, 0.010721969418227673, 0.01988520286977291, 0.006724486127495766, -0.026703745126724243, 0.011177978478372097, -0.01730557158589363, 0.009434212930500507, -0.007387487683445215, 0.02325744740664959, -0.012167053297162056, 0.017764169722795486, -0.0033731746952980757, 0.04685092344880104, 0.02089303731918335, 0.02449849806725979, -0.01302198227494955, 0.011888016015291214, 0.0005895206122659147, 0.008423195220530033, 0.010512500070035458, -0.026287393644452095, -0.02316475100815296, -0.025180872529745102, 0.015449738129973412, 0.03482963889837265, -0.0016758826095610857, 0.004002217669039965, -0.0007136504864320159, 0.02947726659476757, -0.023989416658878326, -0.007862502709031105, 0.009562038816511631, -0.010530935600399971, 0.0345814973115921, 0.02654770202934742, 0.01873032934963703, 0.035728324204683304, -0.027863018214702606, 0.035179588943719864, 0.010850385762751102, -0.008077763020992279, 0.02329721301794052, 0.022687507793307304, 0.007172724697738886, 0.02687903679907322, 0.008797434158623219, 0.021842118352651596, -0.02359117940068245, -0.0357985757291317, 0.010440182872116566, -0.01461845077574253, 0.0014907675795257092, -0.03497463837265968, -0.024920249357819557, 0.020227639004588127, 0.01674654893577099, 0.012037882581353188, 0.01149513479322195, 0.03131411224603653, -0.0019521486246958375, 0.006838726811110973, 0.01984105072915554, -0.04204130917787552, 0.006737186573445797, 0.0017536839004606009, 0.009291392751038074, 0.020636772736907005, 0.014347966760396957, 0.029867397621273994, 0.028594940900802612, -0.014514475129544735, -0.014375061728060246, 0.0034702892880886793, -0.027803268283605576, -0.04630965366959572, -0.010374540463089943, -0.02604527585208416, -0.005524215754121542, -0.019616639241576195, 0.0044436329044401646, 0.0193532295525074, -0.042110856622457504, -0.01955549605190754, -0.03589816391468048, -0.008566893637180328, 0.017234113067388535, 0.023954076692461967, -0.038007330149412155, -0.032929301261901855, -0.04029395803809166, 0.014302960596978664, -0.022884294390678406, 0.0037158627528697252, -0.020451867952942848, -0.01799698732793331, 0.028694262728095055, 0.0013822675682604313, 0.026267902925610542, -0.01728598214685917, -0.0017022883985191584, 0.03357013687491417, 0.027594661340117455, -0.01730768010020256, 0.018883150070905685, 0.01615903526544571, 0.014063803479075432, 0.024119140580296516, 0.018068229779601097, -0.0038566424045711756, -0.0010474345181137323, -0.013347163796424866, 0.02724967710673809, -0.027460852637887, -0.003902408294379711, 0.029254959896206856, -0.008866469375789165, -0.028695261105895042, -0.04230203106999397, 0.013864099979400635, 0.0017081567784771323, 0.013172997161746025, 0.03636222705245018, 0.026736678555607796, 0.030262449756264687, 0.0036375722847878933, -0.001354367472231388, 0.031249307096004486, 0.011353014968335629, -0.02488008886575699, -0.010195053182542324, -0.010852748528122902, 0.02812914364039898, 0.02635989338159561, 0.024869093671441078, -0.034709520637989044, 0.019444158300757408, 0.028925416991114616, 0.03213011100888252, 0.021115105599164963, -0.020365534350275993, -0.024622945114970207, 0.004335555713623762, 0.013481460511684418, -0.00855590496212244, 0.0145037192851305, 0.001243873848579824, 0.018677247688174248, -0.009893560782074928, -0.010528700426220894, -0.025310279801487923, 0.021095117554068565, 0.0019009478855878115, 0.024894768372178078, -0.017397873103618622, -0.04093538597226143, 0.029852233827114105, 0.00411194795742631, 0.009488421492278576, -0.005615814123302698, -0.00550716882571578, 0.012164176441729069, 0.005358310882002115, 0.006473872344940901, 0.014262767508625984, -0.048878125846385956, -0.004562961403280497, 0.012713389471173286, 0.03782831132411957, 0.031204577535390854, 0.011285233311355114, 0.0027572743128985167, 0.004727849271148443, 0.031249796971678734, 0.023976357653737068, 0.008516956120729446, -0.0013511471915990114, -0.029357437044382095, -0.02712971344590187, -0.03138912096619606, -0.028601082041859627, -0.02784295566380024, 0.02298606187105179, 0.01667971909046173, 0.010473031550645828, -0.018680213019251823, 0.0340956412255764, -0.014637552201747894, -0.0325249582529068, -0.00345894624479115, 0.027928980067372322, 0.009894747287034988, 0.0023799962364137173, 0.024273326620459557, -0.03924792632460594, -0.014283031225204468, -0.02307121641933918, -0.0022404526825994253, 0.04550532251596451, 0.013133463449776173, 0.05579503998160362, 0.027721460908651352, -0.004860848654061556, 0.022170033305883408, 0.032520245760679245, -0.011677470989525318, -0.015820637345314026, 0.009380677714943886, -0.02555215172469616, -0.034967560321092606, -0.011875689961016178, 0.0015901456354185939, 0.01141421776264906, -0.034456055611371994, -0.029912542551755905, -0.015258398838341236, 0.03358222171664238, -0.029282713308930397, 0.017387520521879196, -0.032252583652734756, 0.028346696868538857, 0.003434881567955017, 0.01973181962966919, 0.03487252816557884, -3.4189630241598934e-05, 0.019881460815668106, 0.004200710449367762, 0.034665610641241074, -0.007289157249033451, -0.02321096509695053, -0.02532600797712803, 0.025933364406228065, -0.01391392108052969, 0.02200951799750328, -0.02681458555161953, -0.034135833382606506, 0.002772469539195299, 0.011078313924372196, -0.012581812217831612, -0.014231414534151554, 0.015239751897752285, 0.02299617789685726, 0.011532400734722614, 0.016534095630049706, 0.0044234758242964745, 0.032379668205976486, -0.029733123257756233, -0.010225503705441952, -0.0035331775434315205, -0.008418909274041653, 0.012226000428199768, -0.019744163379073143, -0.0042543187737464905, -0.023041442036628723, 0.005428976844996214, -0.02290962263941765, 0.02203616499900818, -0.005057470872998238, -0.01613452471792698, 0.013604565523564816, 0.009123696945607662, -0.010178654454648495, 0.004378985613584518, 0.012351645156741142, -0.020873431116342545, 0.03139277175068855, -0.03077786974608898, -0.006443343590945005, 0.03045058436691761, 0.03522217273712158, 0.014544520527124405, -0.021119598299264908, 0.02721359394490719, 0.008428078144788742, -0.022801654413342476, -0.016101356595754623, 0.01011933758854866, 0.035916801542043686, 0.008391409181058407, 0.017560359090566635, 0.016996385529637337, -0.00822853296995163, -0.028859566897153854, -0.004050809424370527, -0.010234704241156578, 0.029838718473911285, 0.0008494374342262745, 0.010504485107958317, 0.03253725543618202, -0.008310742676258087, -0.015978524461388588, 0.026994990184903145, -0.030605832114815712, 0.033708274364471436, 0.004557623993605375, -0.02488427236676216, -0.023766571655869484, -0.003994520753622055, -0.029960330575704575, -0.01978684775531292, -0.02037348598241806, -0.013225803151726723, -0.02447422593832016, -0.021150385960936546, -0.006277885288000107, -0.0006853229133412242, 0.004414340015500784, 0.021050263196229935, -0.01313988771289587, -0.03160853311419487, 0.024312563240528107, -0.012762175872921944, 0.013584304600954056, -0.011566347442567348, -0.0063928766176104546, -0.01403973251581192, 0.029659375548362732, -0.005441471468657255, 0.007026616018265486, -0.027829814702272415, -0.025807783007621765, 0.004654187709093094, -0.01959182880818844, -0.03537711128592491, -0.001402403344400227, -0.01557522639632225, 0.032293833792209625, 0.018960367888212204, -0.008310024626553059, 0.019692914560437202, -0.021644603461027145, -0.01856689341366291, -0.03287632390856743, 0.008543727919459343, 0.01317696925252676, 0.005896241404116154, 0.013739419169723988, -0.011328309774398804, -0.0020885462872684, 0.00506372656673193, 0.0033444419968873262, -0.03149952366948128, -0.020803850144147873, -0.013553868047893047, -0.03498181700706482, 0.023012319579720497, 0.010692473500967026, -0.03278255835175514, 0.029056793078780174, 0.013872590847313404, 0.01725897192955017, 0.03279225528240204, -0.016451390460133553, -0.02776193432509899, 0.012181991711258888, -0.006415220908820629, 0.020702537149190903, 0.00979157630354166, -0.02663741633296013, 0.003711751429364085, 0.020116418600082397, 0.00011113543587271124, 0.013462522998452187, -0.014368105679750443, 0.0010519744828343391, -0.02138209342956543, -0.012324894778430462, 0.0018353670602664351, -0.01482413336634636, 0.03061787225306034, 0.026331111788749695, 0.021647078916430473, -0.03165135160088539, 0.0002914552460424602, 0.017107512801885605, -1.846100713009946e-05, 0.011550065129995346, 0.022388262674212456, -0.024157250300049782, -0.0008060143445618451, -0.017731672152876854, 0.028341202065348625, -0.007838137447834015, 0.03495035693049431, 0.028285661712288857, -0.01661815121769905, -0.009955239482223988, -0.026048235595226288, 0.006079054903239012, 0.01770145446062088, 0.034207578748464584, -0.024202663451433182, 0.032713424414396286, -0.0223236083984375, 0.008494330570101738, 0.029064135625958443, -0.03210889920592308, 0.021529853343963623, 0.022912796586751938, -0.02871493622660637, -0.0019198741065338254, 0.004545234609395266], [0.0075792428106069565, -0.0035957996733486652, 0.012733791023492813, -0.02966286987066269, -0.035140905529260635, -0.01230896357446909, 0.013074359856545925, -0.021717311814427376, -0.01657579466700554, -0.0018137098522856832, -0.016577262431383133, 0.010105996392667294, -0.004709233529865742, -0.0009424682939425111, -0.02442868985235691, 0.016465218737721443, 0.025669174268841743, 0.005003050435334444, 0.01704285480082035, -0.013882175087928772, 0.00045728261466138065, -0.016752658411860466, -0.028693923726677895, -0.013842815533280373, -0.019258614629507065, 0.004642917308956385, 0.025154195725917816, -0.02816297858953476, -0.01534203439950943, -0.009920048527419567, 0.033836714923381805, 0.020674806088209152, 0.009123518131673336, 0.0008724218932911754, -0.0163494274020195, -0.010228639468550682, 0.021664543077349663, 0.014235044829547405, 0.03570248931646347, -0.010063635185360909, 0.026109205558896065, -0.0022162653040140867, 0.018053319305181503, -0.02550967037677765, -0.032900601625442505, 0.013065172359347343, -0.022955557331442833, 0.01653958298265934, 0.026896534487605095, -0.029561927542090416, -0.020469002425670624, -0.013210033997893333, -0.00195281021296978, 0.019745053723454475, -0.009032032452523708, 0.010419949889183044, -0.0327584408223629, 0.003912847489118576, 0.0015212317230179906, -0.030225975438952446, 0.027876315638422966, 0.02992989681661129, -0.03628728538751602, 0.004404634702950716, 0.0022570474538952112, 0.022048713639378548, -0.0016683910507708788, 0.0071201263926923275, 0.002601920859888196, -0.011012783274054527, -0.030134759843349457, 0.00896377768367529, 0.03013153001666069, -0.03276991471648216, -0.01255159080028534, -0.029888922348618507, 0.02529645711183548, 0.01910117082297802, 0.030970999971032143, 0.005517388228327036, -0.011071684770286083, -0.004450885578989983, -0.0024157518055289984, 0.00943507719784975, -0.004535529296845198, -0.00580960139632225, -0.01276637427508831, 0.0030753803439438343, -0.025242023169994354, 0.008344904519617558, -0.007704257033765316, 0.005026904866099358, -0.0002141371078323573, -0.008851955644786358, -0.005472290329635143, -0.0205561313778162, 0.029471637681126595, -0.016376281157135963, -0.022219356149435043, 0.005909946747124195, -0.019312113523483276, -0.021927597001194954, 0.011255230754613876, -0.01951175555586815, 0.010719127021729946, -0.0252301637083292, -0.028993116691708565, 0.012437292374670506, -0.010247359983623028, -0.006610173732042313, 0.02927030809223652, -0.02148851752281189, -0.03080594167113304, 0.03008294105529785, 0.024831071496009827, -0.01599898561835289, 0.032859038561582565, -0.012661246582865715, 0.017348041757941246, 0.01083461195230484, 0.018467625603079796, 0.0013306033797562122, -0.007433069404214621, 0.023685665801167488, -0.018846586346626282, 0.009901766665279865, 0.020846493542194366, 0.025632038712501526, -0.007692552171647549, -0.024059811607003212, 0.020817792043089867, 0.016415951773524284, -0.010527736507356167, -0.02875794842839241, 0.02192547358572483, -0.000997244263999164, -0.006654319819062948, 0.024639660492539406, 0.011358634568750858, -0.01439579389989376, -0.018582230433821678, -0.029827436432242393, 0.007960827089846134, 0.029464740306138992, -0.006350500043481588, -0.03584938123822212, 0.019182130694389343, -0.017103128135204315, 0.010349693708121777, 0.010263181291520596, -0.010601669549942017, 0.022252893075346947, 0.024139247834682465, 0.02047475427389145, 0.03405065834522247, 0.006139124743640423, -0.00989630725234747, -0.02874113619327545, 0.02647845447063446, -0.018973853439092636, 0.01689857989549637, -0.033262014389038086, -0.0009911457309499383, 0.0050168829038739204, 0.02042696252465248, 0.029105650261044502, -0.008060161955654621, -0.035810790956020355, -0.018465818837285042, -0.007931042462587357, -0.004615659359842539, 0.029822463169693947, 0.0003010668442584574, 0.021295711398124695, 0.015218071639537811, -0.00628280732780695, -0.014194164425134659, 0.03602505102753639, -0.02234586514532566, -0.02510102652013302, 0.00425785593688488, 0.001469686976633966, 0.007690192200243473, -0.03217771276831627, 0.012192289344966412, 0.011238290928304195, 0.0055641490034759045, 0.033445607870817184, 0.006534908432513475, 0.005810433533042669, 0.004683483857661486, 0.0033666975796222687, 0.02556546777486801, 0.033512312918901443, 0.0019114578608423471, 0.005930210929363966, -0.005039063282310963, -0.01202061865478754, -0.014512145891785622, -0.013373912312090397, 0.004758732859045267, -0.03093416802585125, -0.01448886375874281, -0.009133928455412388, 0.013818524777889252, -0.029085831716656685, -0.01960582844913006, -0.010775433853268623, -0.0009562377235852182, 0.028974147513508797, 0.011819379404187202, 0.020199265331029892, 0.004892234690487385, -0.0007993813487701118, -0.029394110664725304, 0.023195134475827217, 0.027436502277851105, -0.018616322427988052, 0.02015046775341034, 0.006044259760528803, 0.01737629435956478, 0.007153955288231373, -0.02888582833111286, 0.03092626854777336, -0.005197467282414436, 0.02643212117254734, 0.020301705226302147, -0.03406183794140816, 0.006258518900722265, -0.02990482561290264, 0.0008056100341491401, 0.004275824874639511, -8.6514963186346e-05, -0.028388215228915215, -0.017439551651477814, 0.016952740028500557, -0.022227102890610695, 0.007409190759062767, 0.001246942556463182, 0.025837743654847145, -0.023684073239564896, -0.030532898381352425, 0.013349601067602634, 0.015629110857844353, 0.007079572882503271, -0.024667657911777496, -0.03772612661123276, 0.020420793443918228, 0.024810969829559326, -0.026856549084186554, -0.0040928334929049015, -0.016662560403347015, -0.012737158685922623, -0.019280187785625458, -0.030217930674552917, -0.006183028686791658, -0.028813710436224937, 0.0243278369307518, 0.002585705602541566, -0.01628524623811245, 0.016465244814753532, 0.004978667013347149, 0.007360511925071478, -0.01353148091584444, -0.009579953737556934, -0.019107311964035034, 0.016003768891096115, 0.006561150308698416, 0.030080653727054596, -0.029364904388785362, 0.0330999419093132, 0.021791672334074974, 0.029790179803967476, 0.006729790009558201, 0.0032591132912784815, -0.016156813129782677, -0.00462410319596529, 0.02804318629205227, 0.02340458706021309, -0.02223559096455574, 0.014691333286464214, -0.017693545669317245, -0.025789448991417885, 0.019861210137605667, -0.030870787799358368, -0.03491298481822014, 0.00039249935070984066, 0.017872348427772522, 0.012632718309760094, -0.0023487373255193233, -0.023020274937152863, 0.027468454092741013, 0.017782680690288544, -0.011517580598592758, -0.01343004684895277, -0.01859956979751587, 0.011645982973277569, 0.03345491364598274, 0.017788728699088097, 0.011477888561785221, -0.01705947518348694, -0.0212485920637846, -0.00910896621644497, -0.028482750058174133, -0.013899981044232845, 0.005429164040833712, 0.022469470277428627, -0.015413688495755196, 0.0013922719517722726, -0.014666909351944923, 0.004967192653566599, 0.012523259967565536, -0.015877768397331238, -0.008056018501520157, 0.019745029509067535, 0.028013553470373154, 0.005629183724522591, -0.0064402692951262, 0.023242883384227753, -0.010477988049387932, 0.0015992583939805627, 0.001244299695827067, -0.021321142092347145, -0.03043283522129059, -0.01155406329780817, -0.020372841507196426, 0.031144535169005394, 0.02984766662120819, 0.0254425760358572, 0.0023144471924751997, 0.027887877076864243, -0.01437512505799532, -0.013636928051710129, 0.001887752441689372, -0.026272136718034744, 0.008662502281367779, 0.013921726495027542, 0.012885220348834991, 0.010268161073327065, 0.017038993537425995, 0.029087629169225693, -0.01629786379635334, -0.01146073080599308, 0.007852941751480103, 0.03275950253009796, -0.022479407489299774, 0.006739527452737093, 0.01208179909735918, -0.03467163071036339, -0.01990317925810814, 0.00792081467807293, 0.026805177330970764, 0.004182177130132914, -0.023743679746985435, -0.001977296778932214, 0.0159507617354393, -0.0021219723857939243, 0.03143610805273056, -0.02569502219557762, -0.007883686572313309, 0.03373268246650696, 0.02071738988161087, -0.011331945657730103, 0.009628667496144772, 0.018645018339157104, -0.014044160023331642, 0.02705427259206772, -0.034070078283548355, 0.0012155513977631927, 0.019164105877280235, 0.032031990587711334, -0.0026412587612867355, -0.02172126993536949, 0.021735243499279022, -0.019737236201763153, 0.027198363095521927, 0.0008305475348606706, -0.01740073971450329, 0.007469142787158489, 0.01222031470388174, 0.029217373579740524, 0.009260314516723156, 0.009880117140710354, 0.02015276625752449, -0.017965266481041908, 0.022852886468172073, -0.023944111540913582, -0.0006015338003635406, -0.009229685179889202, 0.01792130619287491, 0.005289015825837851, 0.033479955047369, -0.011962290853261948, -0.016597911715507507, 0.008188142441213131, 0.03407860919833183, 0.024555006995797157, -0.021426530554890633, -0.039367493242025375, 0.023540543392300606, -0.0026279797311872244, 0.014907476492226124, -0.004824166186153889, -0.011090276762843132, -0.01827557198703289, 0.019293498247861862, 0.027609487995505333, -0.03865855559706688, 0.03261026740074158, 0.006009996403008699, 0.024294748902320862, 0.0006017829291522503, 0.007866280153393745, -0.005527910310775042, 0.02357548102736473, 0.03399896249175072, 0.02612764574587345, -0.004434096161276102, 0.021382654085755348, -0.025445671752095222, -0.018833203241229057, -0.03977726772427559, -0.014548040926456451, 0.021634232252836227, 0.0071230377070605755, -0.019742311909794807, -0.02863043174147606, -0.022192370146512985, -0.025588905438780785, 0.006847314536571503, 0.03574153408408165, -0.016865253448486328, -0.022337941452860832, 0.0174695011228323, 0.027273420244455338, 0.027103152126073837, -0.024159075692296028, -0.025964904576539993, -0.01870833896100521, 0.01479419507086277, 0.00452736672013998, 0.028733542189002037, 0.026122791692614555, -0.03232423588633537, -0.006742982659488916, 0.03400745615363121, 0.02366602048277855, -0.03141340613365173, -0.03416469320654869, 0.007878577336668968, -0.040647562593221664, 0.018895188346505165, 0.0006491854437626898, 0.012101932428777218, -0.03031117655336857, -0.0121901985257864, -0.003886540187522769, 0.006785177625715733, 0.010688948445022106, -0.029051318764686584, -0.02982054278254509, -0.00300302030518651, -0.022644253447651863, 0.026242200285196304, 0.0005127704353071749, -0.04168863594532013, -0.025835610926151276, -0.03376316651701927, -0.018658528104424477, -0.011164438910782337, 0.01022353395819664, -0.009673187509179115, 0.00655231811106205, -0.004439760465174913, -0.017428843304514885, 0.013645388185977936, -0.0016694533405825496, 0.02883032150566578, -0.02100006677210331, 0.027070922777056694, 0.02442074567079544, -0.017409417778253555, -0.007252968847751617, -0.0041736941784620285, -0.01979875937104225, -0.022476159036159515, -0.0022260500118136406, -0.026917429640889168, -0.028720268979668617, -0.01374700665473938, 0.0029236895497888327, -0.02185843139886856, -0.024958552792668343, -0.020158452913165092, -0.03495227172970772, -0.01651431992650032, 0.0020341977942734957, -0.0012936913408339024, -0.02744324505329132, -0.0004351819516159594, 0.01625654101371765, -0.0019216982182115316, 0.021984558552503586, -0.02776094153523445, -0.0028079417534172535, 0.021863099187612534, 0.004281277302652597, -0.03181944787502289, -0.008542134426534176, 0.0330578051507473, 0.004893056582659483, 0.014419040642678738, -0.011173536069691181, 0.0345461405813694, 0.0230515506118536, 0.012074904516339302, 0.034015949815511703, 0.02718115597963333, -0.008438259363174438, 0.020798685029149055, 0.009487914852797985, 0.02638481929898262, -0.02279495820403099, 0.03203480318188667, -0.037734255194664, -0.027772903442382812, -0.020187873393297195, -0.031886808574199677, -0.03686549887061119, -0.016353033483028412, 0.007042100187391043, -0.025936316698789597, 0.001654133666306734, 0.011649648658931255, 0.017719993367791176, 0.013226315379142761, -0.02215920388698578, 0.006472279783338308, 0.019826587289571762, 0.024735605344176292, 0.00908175203949213, -0.028469564393162727, 0.026739148423075676, 6.899837171658874e-05, 0.010332688689231873, 0.010260334238409996, -0.03003709949553013, -0.025249602273106575, -0.031658850610256195, -0.02423122152686119, 0.006968791130930185, -0.025477131828665733, 0.03286859765648842, -0.018654560670256615, 0.004826679825782776, 0.026816578581929207, 0.025627179071307182, 0.008233201690018177, 0.015558036044239998, -0.02462068758904934, 0.022651201114058495, -0.007032851222902536, 0.010958760045468807, 0.005177701357752085, 0.0004009380063507706, 0.029873378574848175, 0.008961321786046028, -0.026452025398612022, 0.026721013709902763, -0.03230758011341095, -0.019560517743229866, 0.0321635864675045, 0.014604097232222557, 0.01743687316775322, -0.01372461300343275, 0.00381682557053864, 0.0037827545311301947, -0.031949788331985474, 0.014052175916731358, 0.03441724181175232, 0.0014372760197147727, 0.019106656312942505, 0.013678931631147861, 0.03327945992350578, 0.013529897667467594, 0.011264276690781116, -0.00899663195014, -0.017266688868403435, -0.003561632242053747, -0.032642342150211334, 0.009301033802330494, 0.02578704059123993, -0.015924256294965744, 0.03020196035504341, -0.0279111098498106, 0.03240334987640381, 0.03278851881623268, -0.027090419083833694, -0.03161078691482544, 0.0026630761567503214, -0.029390104115009308, -0.016127822920680046, 0.002944913227111101, -0.01031365804374218, -0.007027416955679655, -0.01203384529799223, -0.03371584042906761, -0.016479913145303726, 0.015744725242257118, -0.014082135632634163, -0.020706741139292717, 0.004210643004626036, -0.019569022580981255, -0.0014785109087824821, -0.029533537104725838, 0.004219329450279474, -0.005648982245475054, 0.003170393407344818, 0.020315159112215042, 0.0040123010985553265, -0.009390933439135551, -0.012808161787688732, 0.01727382466197014, -0.002940711099654436, 0.021368106827139854, -0.022201817482709885, 0.015803750604391098, -0.019192345440387726, 0.033833667635917664, -0.02088068053126335, -0.030740605667233467, -0.028241291642189026, -0.011574862524867058, 0.008708342909812927, 0.03433886170387268, -0.012032625265419483, -0.00024508271599188447, -0.028446432203054428, 0.016991443932056427, -0.012099516578018665, -0.011768677271902561, 0.026274031028151512, -0.02027689293026924, -0.02187163755297661, 0.019257497042417526, -0.02106303721666336, -0.021537259221076965, 0.018819788470864296, 0.0033780999947339296, -0.004356500692665577, 0.025173820555210114, 0.019099915400147438, 0.006843664683401585, 0.03440173342823982, -0.0027687784750014544, -0.009528218768537045, -0.02136727049946785, -0.027472974732518196, 0.035390257835388184, -0.030015278607606888, -0.024113399907946587, 0.033067572861909866, -0.015389000065624714, 0.022609375417232513, 0.010338633321225643, 0.030027687549591064, 0.025901764631271362, 0.021611135452985764, -0.005678958725184202, -0.016610413789749146, -0.031429555267095566, 0.02922937460243702, -0.02586538717150688, -0.02873970754444599, -0.012046677060425282, 0.006407571956515312, -0.03588555380702019, -0.020244402810931206, 0.006519594695419073, 0.019882503896951675, -0.010207920335233212, 0.004851968958973885, 0.005549654830247164, 0.03397823125123978, -0.005357236135751009, -0.0010763590689748526, 0.014263160526752472, -0.034659888595342636, -0.011850942857563496, 0.0025368414353579283, -0.022855158895254135, 0.0029350165277719498, 0.019531534984707832, 0.03341614454984665, 0.0033048989716917276, 0.019146861508488655, 0.026804065331816673, 0.0035612517967820168, 0.003090300364419818, -0.01709095388650894, 0.004403964150696993, 0.008675049990415573, -0.003860519267618656, -0.0020341475028544664, -0.0017468803562223911, 0.02684164233505726, 0.02189030312001705, 0.00663783447816968, -0.013086938299238682, -0.005039521027356386, -0.024436956271529198, -0.029341688379645348, 0.03433525562286377, 0.009144271723926067, -0.001580192823894322, 0.029326755553483963, 0.022982444614171982, 0.006779166404157877, 0.028810320422053337, -0.013078244403004646, 0.02173157036304474, 0.02386547438800335, -0.008737817406654358, 0.0337170735001564, 0.0016173593467101455, 0.006477688439190388, 0.019913602620363235, 0.0023627702612429857, 0.012438626028597355, 0.005904268007725477, -0.02504492551088333, -0.02310791425406933, 0.0045035299845039845, -0.03174644336104393, -7.46871592127718e-05, -0.007839648053050041, -0.014298371970653534, 0.017361246049404144, -0.03525473177433014, 0.0026763027999550104, -0.008594305254518986, 0.018893558531999588, -0.02257884293794632, -0.01515820249915123, -0.004996960517019033, 0.018860993906855583, 0.012997200712561607, -0.016322925686836243, 0.006057100370526314, 0.029404686763882637, 0.024178365245461464, 0.011209303513169289, -0.011891570873558521, -0.016344038769602776, -0.017555227503180504, 0.028014758601784706, -0.019019531086087227, 0.007406414020806551, -0.01584901101887226, 0.01666085422039032, -0.003907524514943361, -0.00771015789359808, 0.027141693979501724, 0.030158568173646927, 0.012796548195183277, 0.024689018726348877, -0.011510937474668026, 0.014915689826011658, 0.023667629808187485, 0.035223156213760376, 0.01573329232633114, -0.020964063704013824, 0.03283112123608589, 0.02704458497464657, -0.034580960869789124, 0.02976118214428425, 0.006917370017617941, -0.011629174463450909, -0.0031787364277988672, 0.009048482403159142, -0.013495777733623981, -0.015222473070025444, -0.034099798649549484, -0.01983421854674816], [0.023366203531622887, -0.03226426616311073, -0.025520652532577515, 0.003275506431236863, -0.007925362326204777, 0.011448286473751068, 0.02896919474005699, 0.028667477890849113, 0.006530561484396458, -0.04106835275888443, -0.00434055645018816, -0.01650194637477398, 0.0004624058201443404, -0.030221033841371536, 0.0008353791199624538, -0.01852574199438095, -0.028621556237339973, -0.018419107422232628, -0.015586234629154205, 0.029733141884207726, -0.001342299859970808, 0.0020486207213252783, 0.02725633978843689, -0.015953343361616135, 0.003023580415174365, -0.004959492478519678, 0.029931742697954178, 0.028904542326927185, -0.014264339581131935, -0.02484673447906971, 0.02584107592701912, -0.008638761006295681, -0.02106481045484543, 0.019353868439793587, 0.01328791119158268, 0.012413515709340572, -0.0227944478392601, -0.026610655710101128, 0.0365261547267437, -0.03302791714668274, 0.0049880375154316425, -0.023175116628408432, -0.028751423582434654, -0.01304294727742672, -0.0016287481412291527, 0.0018481600563973188, 0.004838667344301939, 0.026984797790646553, 0.01994178257882595, -0.03880872204899788, 0.009160508401691914, 0.02114853635430336, 0.003735082922503352, 0.004930321127176285, -0.014778032898902893, -0.014379087835550308, 0.01783982291817665, -0.016473527997732162, -0.0038814456202089787, -0.012874972075223923, -0.007621968165040016, -0.027886029332876205, -0.017246602103114128, 0.02358364127576351, -0.027751678600907326, -0.008721726946532726, -0.018735596910119057, 0.04083683714270592, -0.022307399660348892, 0.021732568740844727, 0.022566409781575203, 0.0328226238489151, 0.003422321053221822, 0.019443858414888382, 0.030367543920874596, 0.024398209527134895, -0.0125889852643013, 0.017606684938073158, 0.01154166366904974, -0.020068177953362465, 0.017892412841320038, -0.025010287761688232, 0.027005989104509354, -0.013759818859398365, 0.018687814474105835, 0.004744353238493204, 0.034162286669015884, -0.027812713757157326, 0.013552910648286343, -0.0014792528236284852, 0.013481062836945057, -0.026734361425042152, 0.016409626230597496, -0.01495838537812233, 0.03576718643307686, -0.017507946118712425, -0.027257392182946205, 0.03669324144721031, 0.003907724749296904, -0.02240961231291294, 0.024901187047362328, 0.01907939277589321, -0.01723640225827694, -0.03407951816916466, -0.028301212936639786, -0.007377485744655132, -0.0005255652358755469, 0.01848737522959709, -0.02775002084672451, -0.0015352613991126418, -0.03864560276269913, -0.02548871375620365, -0.004986308515071869, -0.004155130125582218, 0.00599321536719799, 0.029775116592645645, -0.007442711386829615, 0.019026905298233032, -0.004348898306488991, -0.0004239777335897088, -0.013342279009521008, -0.012318432331085205, -0.020701434463262558, 0.021344950422644615, -0.038747429847717285, 0.012189047411084175, -0.0026900304947048426, -0.03662548586726189, -0.011950363405048847, -0.036282479763031006, 0.030589234083890915, -0.019484248012304306, 0.009381613694131374, -0.02642051689326763, 0.013756789267063141, -0.00930139608681202, -0.01732027158141136, -0.026158543303608894, 0.022650061175227165, 0.02316635474562645, 0.025109924376010895, -0.010116273537278175, 0.012884358875453472, 0.006155773065984249, 0.02910774201154709, 0.006963035091757774, 0.022666826844215393, -0.0330376923084259, -0.0004904862144030631, -0.005577969364821911, -0.01655646786093712, 0.008323006331920624, 0.007732176687568426, 0.009518652223050594, 0.00745790358632803, -0.02342194691300392, -0.008929060772061348, -0.03271143138408661, -0.021494608372449875, 0.02674311026930809, 0.020393073558807373, -0.00990128330886364, -0.036297135055065155, 0.0011236111167818308, -0.019114911556243896, -0.030319008976221085, -0.0016375751001760364, -0.03504043444991112, 0.02500816062092781, -0.03086690790951252, -0.007058998569846153, -0.009391622617840767, -0.012430551461875439, 0.003765350440517068, -0.013881015591323376, 0.02338717132806778, 0.03283200412988663, 0.02468147873878479, 0.016102198511362076, -0.007174885831773281, -0.0317709743976593, -0.007448581978678703, 0.024730104953050613, -0.01577041670680046, -0.014586375094950199, 0.02734820917248726, -0.015730345621705055, 0.004012278746813536, -0.029300417751073837, -0.026583457365632057, -0.019211554899811745, 0.024903474375605583, -0.007580104749649763, 0.02628721296787262, 0.009462393820285797, -0.029771454632282257, -0.018736999481916428, -0.041918426752090454, -0.026188168674707413, -0.03526453301310539, 0.024142637848854065, -0.014321780763566494, -6.095784192439169e-05, 0.005770193412899971, 0.03695979341864586, -0.03250561282038689, -0.0029882092494517565, -0.03713330626487732, 0.017034363001585007, 0.01957172341644764, -0.030186135321855545, 0.003220765618607402, -0.035103850066661835, 0.029976939782500267, 0.049250874668359756, 0.009657981805503368, -0.04772632196545601, -0.05335771292448044, 0.013227399438619614, 0.017669232562184334, -0.008822355419397354, -0.004097812809050083, -0.0352981761097908, -0.028237760066986084, -0.020334187895059586, -0.017132649198174477, -0.017492983490228653, 0.011130272410809994, 0.03974698856472969, -0.016622893512248993, -0.03761168569326401, -0.012744976207613945, -0.0010434763971716166, 0.01208969671279192, 0.00729511259123683, 0.02894301898777485, 0.008376496843993664, 0.02454223297536373, 0.014838922768831253, 0.029716195538640022, 0.028677353635430336, 0.029263997450470924, 0.023884139955043793, -0.005212950985878706, -0.01838032342493534, -0.011652735061943531, -0.04394874721765518, 0.01478863786906004, 0.014240588061511517, -0.038608476519584656, -0.014395018108189106, 0.01651621051132679, -0.021682433784008026, 0.024011721834540367, -0.029602615162730217, -0.026209846138954163, 0.01184012833982706, 0.006248649209737778, 0.019020317122340202, 0.028463933616876602, 0.02448025904595852, 0.019303929060697556, -0.01957683637738228, -0.027814574539661407, -0.001942683244124055, 0.01853848434984684, -0.0009089703089557588, 0.008070682175457478, -0.028109395876526833, -0.02608776092529297, -0.02051485702395439, -0.006542506627738476, -0.00900975614786148, 0.009595231153070927, 0.0002157734998036176, 0.0018080254085361958, -0.020582981407642365, -0.025799868628382683, -0.004277235362678766, 0.005180799402296543, -0.03510349243879318, -0.033842865377664566, -0.036630455404520035, -0.017817633226513863, 0.011279984377324581, 0.015132187865674496, -0.010625231079757214, 0.033377449959516525, 0.01889418438076973, 0.02779645472764969, -0.015477580018341541, -0.029215088114142418, 0.04213131591677666, 0.003929015714675188, 0.01103789173066616, -0.01761559210717678, -0.00767495995387435, 0.003653057850897312, 0.0026504413690418005, 0.03715646266937256, -0.0027049891650676727, -0.013106981292366982, -0.029445350170135498, 0.023734241724014282, -0.027334466576576233, -0.011367334052920341, 0.024743614718317986, -0.022442109882831573, 0.0161642674356699, 0.0033776252530515194, -0.011633926071226597, 0.001603114535100758, -0.01744922809302807, 0.03011360764503479, -0.009878920391201973, 0.036091383546590805, -0.00416022352874279, 0.00625118613243103, -0.03151955083012581, 0.033547356724739075, -0.001954456092789769, -0.027660897001624107, 0.006352151744067669, -0.0088224858045578, -0.01572631485760212, -0.02825118973851204, 0.015656238421797752, -0.021020611748099327, 0.0074000791646540165, 0.017708048224449158, 0.03918270766735077, 0.029252784326672554, -0.03988391160964966, 0.008354121819138527, -0.0252614114433527, -0.006163920741528273, -0.017504112794995308, 0.020792324095964432, 0.014902996830642223, -0.052172787487506866, -0.02523326314985752, 0.012614569626748562, -0.027639223262667656, 0.021259265020489693, 0.01357614528387785, 0.0014402172528207302, -0.0011053013149648905, -0.023674972355365753, -0.040651846677064896, 0.01351094152778387, -0.022647906094789505, -0.029070522636175156, -0.01992366649210453, 0.01485708262771368, -0.017473312094807625, 0.015087190084159374, -0.030973438173532486, 0.024492422118782997, 0.03813280910253525, 0.005651623476296663, -0.029775207862257957, -0.03802429139614105, 0.007991032674908638, 0.002980770543217659, -0.008048689924180508, 0.0020303400233387947, -0.01157720573246479, 0.018020257353782654, -0.0018824816215783358, -0.01853157766163349, -0.004076689016073942, 0.013170748017728329, -0.01381616573780775, 0.018975520506501198, 0.022735996171832085, 0.0237498227506876, -0.026595614850521088, -0.03040698729455471, 0.004394922871142626, -0.00477286521345377, -0.02765924111008644, -0.03376192972064018, 0.008700159378349781, 0.01694015972316265, 0.027644608169794083, 0.018938466906547546, -0.000725285557564348, -0.0365050807595253, -0.01792941242456436, -0.03961508721113205, -0.003238360397517681, 0.011350495740771294, -0.0264295507222414, -0.043056972324848175, -0.04577755555510521, -0.0377771370112896, -0.01648036576807499, 0.0025280630216002464, 0.042529117316007614, 0.04048122465610504, 0.019920486956834793, -0.046237267553806305, -0.0005049814935773611, 0.01808997057378292, -0.0008467886946164072, 0.018308116123080254, 0.01362625788897276, 0.01911095529794693, -0.018080471083521843, -0.03728744760155678, 0.028130292892456055, -0.007792079355567694, 0.023753942921757698, 0.022384652867913246, 0.000813507882412523, -0.012162341736257076, -0.02297254651784897, -0.03953215479850769, -0.01805093325674534, -0.0012502522440627217, -0.017379535362124443, -0.04022843763232231, 0.021881479769945145, 0.004917907528579235, -0.031288594007492065, -0.006983814295381308, 0.00938811618834734, -0.0051523903384804726, 0.0011583848390728235, -0.032861657440662384, -0.019503649324178696, 0.017141219228506088, 0.023938195779919624, 0.009793668054044247, -0.005761292297393084, 0.016852203756570816, -0.0033060128334909678, 0.054481420665979385, 0.028099577873945236, -0.03364567831158638, -0.025004511699080467, -0.020335491746664047, -0.036134928464889526, 0.028375141322612762, 0.04460732266306877, -0.002485051052644849, 0.02201906219124794, -0.03626847267150879, 0.013005606830120087, -0.017671851441264153, 0.04750426486134529, 0.05794479325413704, 0.008078310638666153, 0.011211896315217018, -0.011202353984117508, -0.023201854899525642, -0.004113947041332722, 0.025935044512152672, 0.007226395420730114, -0.0117915915325284, -0.023271646350622177, -0.03604748472571373, 0.01541069895029068, -0.012466774322092533, 0.049244895577430725, 0.0038756271824240685, -0.013463808223605156, -0.047652240842580795, -0.020467981696128845, -0.03695641830563545, -0.036622416228055954, 0.033765699714422226, 0.045197535306215286, 0.024870773777365685, -0.006833826191723347, -0.019825318828225136, -0.020632268860936165, -0.012331858277320862, 0.01401090994477272, 0.010603397153317928, 0.03928703814744949, -0.005155830644071102, 0.011299476958811283, -0.01849774643778801, -0.04893571510910988, 0.030079735442996025, -0.021404825150966644, 0.00505469273775816, -0.022341180592775345, -0.029411062598228455, 0.015277992002665997, 0.007951796986162663, -0.005083833821117878, -0.0024402113631367683, -0.0009875252144411206, -0.0034936771262437105, -0.02709309756755829, -0.009104383178055286, -0.009930488653481007, 0.006776590831577778, 0.015227503143250942, 0.006861022207885981, -0.027439091354608536, -0.020314063876867294, -0.05873061344027519, -0.02557351253926754, 0.018548326566815376, -0.017169607803225517, 0.02262413501739502, 0.007701303344219923, 0.02113594114780426, -0.009485121816396713, 0.029703784734010696, 0.031140688806772232, 0.01613999716937542, 0.02386082150042057, -0.016249697655439377, -0.03609270229935646, -0.016366014257073402, 0.005552991293370724, -0.01929370127618313, 0.026306133717298508, -0.000833636149764061, 0.027092471718788147, 0.011007810942828655, -0.030456213280558586, 0.004471284803003073, -0.03734521567821503, -0.013644244521856308, 0.022400178015232086, -0.0024452321231365204, -0.01940406858921051, -0.04702026769518852, -0.026351742446422577, 0.0023780909832566977, 0.04446883499622345, -0.007477486971765757, 0.015260090120136738, -0.02776569128036499, -0.007886698469519615, -0.005505154374986887, -0.026422737166285515, 0.023130157962441444, 0.05693918466567993, 0.0001475493045290932, 0.02552167885005474, -0.014260570518672466, 0.031135404482483864, 0.03360674902796745, 0.025782348588109016, -0.023785214871168137, -0.03041989356279373, -0.0413639210164547, -0.01958436146378517, -0.025750944390892982, -0.0014182851882651448, 0.03441088646650314, 0.034274596720933914, 0.018405482172966003, 0.004964946769177914, 0.004248952958732843, -0.005190668627619743, -0.002050701528787613, -0.013309351168572903, 0.023762697353959084, -0.037445325404405594, 0.0034602293744683266, -0.014210624620318413, 0.01860637404024601, -0.04512687399983406, 0.021252186968922615, 0.03218776732683182, -0.030447227880358696, -0.023024624213576317, -0.011267355643212795, 0.0218589399009943, -0.000511277059558779, 0.007037000264972448, 0.010122976265847683, -0.014899495989084244, -0.03631895035505295, -0.04445532709360123, -0.025251053273677826, 0.014580250717699528, 0.01066557876765728, -0.013072267174720764, 0.026268666610121727, -0.05019261687994003, 0.027862410992383957, 0.024972928687930107, -0.025669142603874207, -0.01243875827640295, 0.019635764881968498, 0.0004021454369649291, 0.00782017968595028, 0.039801862090826035, -0.016698241233825684, -0.03247835487127304, 0.0171359870582819, -0.027563031762838364, -0.03141423687338829, -0.009757260791957378, -0.009208610281348228, 0.0033306691329926252, -0.015506179071962833, 0.0221110749989748, -0.04250842705368996, -0.02109566144645214, -0.02873709611594677, 0.012200896628201008, -0.02492840774357319, 0.015967311337590218, -0.011374158784747124, 0.0072699557058513165, -0.000992694403976202, 0.009538405574858189, -0.02549503557384014, 0.02818926051259041, 0.0022682962007820606, -0.03258182108402252, -0.007149074226617813, -0.003827603766694665, 0.008379645645618439, 0.003989384975284338, 0.034073371440172195, -0.009094609878957272, -0.030793288722634315, -0.007717623375356197, 0.018222060054540634, 0.0005644342163577676, 0.008814223110675812, -0.024935798719525337, -0.039952848106622696, -0.01382356509566307, 0.03132539615035057, -0.006217141170054674, 0.014820108190178871, -0.023277629166841507, 0.029757579788565636, 0.009612218476831913, -0.023886296898126602, 0.007085668388754129, 0.02893085777759552, -0.023596758022904396, 0.025564799085259438, -0.01776631362736225, 0.024970073252916336, 0.03268741816282272, 0.014514002948999405, -0.011707756668329239, -0.0067919460125267506, -0.03432628512382507, 0.017558274790644646, -0.01437447126954794, -0.009482038207352161, 0.009219445288181305, -0.0006470319931395352, 0.018361849710345268, -0.012836731970310211, -0.037685576826334, 0.001499644247815013, 0.00787461455911398, 0.013744885101914406, 0.012397652491927147, -0.0020712483674287796, -0.019478611648082733, 0.008506910875439644, 0.033972594887018204, 0.03082248754799366, -0.01683007925748825, -0.0205832589417696, -0.014658504165709019, -0.02992771938443184, 0.030015505850315094, -0.019427666440606117, 0.03269656375050545, -0.0009182553621940315, -0.014766102656722069, -0.013431854546070099, 0.005364301148802042, -0.02417442947626114, -0.010068965144455433, -0.012554973363876343, -0.017271369695663452, -0.02390422113239765, 0.02341732755303383, -0.006635488010942936, -0.022084567695856094, 0.0011546449968591332, 0.021467380225658417, 0.009031258523464203, -0.0077177188359200954, 0.03174293413758278, -0.002210052451118827, 0.013998003676533699, 0.02953542210161686, -0.015790516510605812, -0.002388055669143796, -0.027007557451725006, -0.02192779630422592, -0.03369996324181557, 0.009655104018747807, 0.03897342085838318, 0.03182336315512657, -0.0019902039784938097, -0.029240909963846207, -0.02536824159324169, 0.003194549586623907, -0.0030351171735674143, -0.0017704321071505547, 0.020821118727326393, -0.0046696169301867485, 0.02547469548881054, 0.027968691661953926, -0.0002579516149125993, 0.018617622554302216, -0.018504859879612923, -0.009132828563451767, -0.02896665781736374, -0.02158743515610695, -0.015283080749213696, 0.018419770523905754, -0.0254997406154871, 0.021132925525307655, 0.0035277458373457193, 0.01795870251953602, -0.018779700621962547, 0.01880745030939579, 0.006183713208884001, -0.016080139204859734, -0.03398522362112999, -0.022129060700535774, 0.02678690291941166, -0.026021698489785194, 0.005779685452580452, 0.02615712769329548, -0.030620070174336433, -0.00537874735891819, 0.02752978913486004, 0.02555745653808117, 0.020818239077925682, 0.009142057038843632, 0.004859269596636295, -0.022002460435032845, 0.03100929781794548, 0.03577347472310066, 0.010565787553787231, 0.03162691369652748, 0.030843542888760567, -0.009690355509519577, -0.013017416931688786, 0.029023682698607445, 0.03065570443868637, 0.03831948712468147, 0.005710285156965256, 0.026683684438467026, 0.004207678139209747, 0.018201716244220734, 0.023936280980706215, 0.011307664215564728, 0.01912718079984188, -0.032797083258628845, -0.03283664211630821, 0.011204861104488373, 0.006110179238021374, -0.0018648982513695955, -0.022887038066983223, 0.01666591502726078, -0.018298497423529625, 0.012763858772814274, 0.032087452709674835, -0.01854885183274746, -0.008088046684861183, -0.0020104420837014914, -0.0319126658141613, 0.035030514001846313, 0.00048821556265465915, 0.010122324340045452, 0.00147894152905792, -0.020714905112981796, 0.02719506248831749, 0.016632219776511192, -0.008185993880033493, 0.022992484271526337], [-0.0040553268045187, -0.021303748711943626, 0.01166094746440649, -0.027231017127633095, 0.03916469216346741, -0.027991605922579765, -0.01910862699151039, 0.0012685797410085797, -0.008921810425817966, -0.008603798225522041, 0.016444901004433632, 0.007701547350734472, -0.008593618869781494, -0.010620742104947567, -0.00567769818007946, 0.003863533493131399, -0.006213463377207518, -0.019026046618819237, 0.024872051551938057, 0.024751823395490646, 0.016504812985658646, -0.027211319655179977, -0.014669287949800491, 0.007645982783287764, 0.0016978215426206589, -0.03231041878461838, -0.008233493193984032, 0.024840058758854866, -0.014186031185090542, -0.027386344969272614, 0.02924095280468464, -0.014128750190138817, 0.015710104256868362, -0.003796612611040473, 0.024312296882271767, -0.0202956423163414, -0.030054690316319466, 0.020650917664170265, 0.00900989305227995, 0.006412305403500795, -0.03660372272133827, 0.03392336517572403, -0.019616274163126945, -0.03194168210029602, 0.0301123708486557, 0.015044578351080418, -0.008223352953791618, -0.01511238794773817, 0.021776651963591576, 0.02207390032708645, 0.01893003098666668, -0.008595669642090797, 0.02189239114522934, -0.016438862308859825, -0.010785400867462158, -0.016203615814447403, 0.005491870921105146, -0.0062568397261202335, -0.03196226805448532, -0.03594648092985153, -0.0011203375179320574, -0.007796501275151968, -0.022954337298870087, 0.02867530845105648, 0.02536497451364994, -0.0402059368789196, -0.014903364703059196, -0.033602435141801834, 0.021635297685861588, -0.030305450782179832, 0.0037343373987823725, 0.010043472051620483, -0.010919659398496151, -0.009192642755806446, -0.028875594958662987, 0.027812300249934196, -0.03199354186654091, 0.017669497057795525, 0.011394182220101357, -0.019715389236807823, 0.004591146484017372, 0.01431083120405674, 0.0332665853202343, 0.0052508395165205, -0.03248726204037666, 0.02093871682882309, -0.0019192685140296817, -0.033221740275621414, -0.03368493914604187, -0.010731267742812634, 0.0013665823498740792, -0.03569422662258148, 0.0019183920230716467, -0.012604152783751488, -0.010936101898550987, -0.016116948798298836, -0.012223673053085804, 0.00917495135217905, 0.023180950433015823, -0.033527616411447525, -0.028744488954544067, 0.02230577915906906, -0.00902443565428257, 0.022664712741971016, -0.023776216432452202, 0.025447610765695572, 0.002118630101904273, -0.02737625315785408, 0.006122765596956015, -0.012733970768749714, 0.017208455130457878, -0.0035708548966795206, -0.004565147683024406, 0.0249051284044981, -0.02423027530312538, -0.03371042758226395, 0.01584884710609913, -0.02487301453948021, -0.006083240732550621, 0.019241349771618843, 0.016933295875787735, -0.023842303082346916, -0.02864372357726097, 0.02206796407699585, 0.02835758775472641, -0.0029459602665156126, 0.0059375641867518425, -0.0016192407347261906, 0.029046831652522087, 8.560383867006749e-05, -0.0034034582786262035, -0.036232590675354004, 0.02492525242269039, -0.00671636825427413, -0.01343872956931591, -0.015541678294539452, -0.036725372076034546, -0.009706487879157066, -0.02282274141907692, 0.022986816242337227, 0.028722548857331276, 0.022809214890003204, -0.03237773850560188, 0.03480291739106178, -0.025765158236026764, -0.0022943567018955946, -0.03619169071316719, 0.028250379487872124, 0.024806251749396324, 0.009564444422721863, -0.012448381632566452, -0.02178828790783882, 0.0011202514870092273, 0.01115975808352232, 0.023404808714985847, 0.019424010068178177, -0.03128371760249138, -0.0179977435618639, 0.01207097340375185, 0.008080669678747654, 0.023017000406980515, 0.023465007543563843, 0.020861882716417313, 0.013635617680847645, 0.0027346452698111534, 0.01844058930873871, 0.002306732116267085, 0.02152482606470585, 0.015117435716092587, 0.007175177335739136, -0.005438708234578371, -0.028313864022493362, 0.012021394446492195, -0.03501339256763458, -0.010731164366006851, -0.010391331277787685, -0.03042118065059185, 0.017752591520547867, 0.022735342383384705, 0.01993819884955883, -0.021103518083691597, -0.007230531424283981, -0.004440825432538986, -0.02416795678436756, 0.034519415348768234, -0.0023684408515691757, 0.022463612258434296, 0.015441929921507835, -0.02156386338174343, -0.005272690672427416, -0.0258956216275692, -0.003232751740142703, 0.018197519704699516, -0.006771663669496775, 0.007431923411786556, 0.019315315410494804, 0.02750815823674202, -0.007277038414031267, 0.01549912802875042, -0.02483716979622841, -0.029644349589943886, -0.04504517838358879, 0.006439887452870607, -0.03377203643321991, -0.04517902806401253, -0.01269868016242981, -0.03182601556181908, -0.006226082798093557, 0.027140282094478607, 0.02263522520661354, -0.014453154988586903, 0.000594023207668215, 0.022016627714037895, 0.011530679650604725, -0.024454589933156967, 0.005419328808784485, -0.015234538353979588, -0.00973218958824873, 0.013527498580515385, -0.019573109224438667, 0.02461046166718006, -0.004608386196196079, 0.024265922605991364, -0.035228077322244644, 0.006814960390329361, -0.03478623926639557, -0.032678354531526566, 0.0007768493960611522, 0.0017547736642882228, -0.01780976913869381, -0.02581753395497799, 0.01731877401471138, 0.032115817070007324, 0.01390987727791071, -0.02614522911608219, -0.0095802778378129, 0.009936857037246227, 0.019092345610260963, -0.019081903621554375, -0.008260798640549183, 0.010390862822532654, -0.027345294132828712, 0.00273711746558547, -0.0028524543158710003, 0.01305371429771185, -0.03557124733924866, 0.02265712060034275, 0.04035419970750809, 0.0027072036173194647, -0.00927004311233759, -0.033672742545604706, 0.02216421253979206, 0.013219691812992096, 0.02517356351017952, -0.012883128598332405, 0.017007453367114067, 0.014435412362217903, -0.021123060956597328, 0.020435836166143417, 0.0005506174638867378, -0.028439762070775032, 0.032182950526475906, 0.009584473446011543, 0.015666235238313675, 0.004491733852773905, 0.006279885768890381, 0.027837466448545456, 0.02238127775490284, 0.004740581847727299, 0.015893371775746346, 0.043003227561712265, 0.005494632758200169, 0.012290977872908115, 0.011846033856272697, 0.015977948904037476, -0.01603350043296814, -0.011849126778542995, -0.005223559215664864, 0.015005223453044891, 0.010752156376838684, -0.008021571673452854, 0.018936339765787125, -0.01771441474556923, -0.03195226192474365, 0.04472387209534645, -0.011337170377373695, -0.0030097293201833963, 0.03970526158809662, -0.006938116159290075, 0.01944989711046219, 0.017209172248840332, 0.028537176549434662, -0.02722993679344654, -0.021726910024881363, 0.0034182975068688393, -0.018518267199397087, 0.014129411429166794, 0.0036795828491449356, 0.008719803765416145, 0.01553478091955185, 0.002763916039839387, 0.03730669990181923, 0.018183769658207893, -0.0035314648412168026, -0.03176485747098923, -0.007076984271407127, 0.03213469684123993, -0.0148460753262043, -0.009274858050048351, 0.02113930694758892, -0.016731340438127518, -0.01727568358182907, 0.035160183906555176, 0.02056841365993023, 0.029395151883363724, 0.028062382712960243, -0.007055743597447872, 0.03404024615883827, -0.0366118848323822, -0.0022478310856968164, -0.024793608114123344, 0.008541055954992771, -0.0006011951481923461, -0.01677091047167778, 0.023898981511592865, 0.019112292677164078, 0.002585476031526923, -0.02536989562213421, 0.040416520088911057, 0.006143779493868351, 0.022593555971980095, -0.006096652243286371, -0.010406017303466797, -0.013622804544866085, -0.04865683242678642, -0.03137354925274849, 0.03036060556769371, 0.003219726961106062, 0.00781706441193819, 0.02069826051592827, -0.021500801667571068, -0.03194275498390198, -0.01836182363331318, 0.01622556895017624, 0.028788365423679352, -0.013987946324050426, 0.03655606508255005, -0.01891111396253109, -0.00046023394679650664, -0.0132471714168787, 0.027611033990979195, 0.01390160620212555, -0.03475480154156685, -0.011941899545490742, 0.013427692465484142, 0.013800145126879215, -0.012143266387283802, 0.007332737557590008, -0.032914623618125916, -0.022369571030139923, 0.014107738621532917, -0.029489725828170776, -0.01249389536678791, 0.021561920642852783, -0.023400679230690002, -0.014182193204760551, 0.025804739445447922, -0.0026725155767053366, 0.0007429172983393073, -0.015945279970765114, 0.03215019404888153, 0.028746552765369415, -0.009959280490875244, 0.0011517052771523595, -0.02454002946615219, -0.03169320523738861, 0.019642839208245277, -0.02366402931511402, 0.009427083656191826, -0.0035453217569738626, 0.0174148827791214, -0.028661655262112617, 0.010933678597211838, -0.00427201995626092, 0.028811056166887283, -0.011894763447344303, -0.021278370171785355, 0.00944003090262413, -0.00801960751414299, 0.029384903609752655, -0.006004010327160358, 0.010020755231380463, 0.01879255101084709, 0.03905215486884117, -0.028113707900047302, -0.006934902630746365, -0.005701722111552954, -0.009414191357791424, -0.014051266014575958, -0.044448502361774445, -0.029993169009685516, -0.008195188827812672, -0.0002672697009984404, 0.017664030194282532, -0.0062853312119841576, 0.018251890316605568, 0.006130583584308624, -0.03129040449857712, -0.010049778036773205, 0.0014802535297349095, 0.019524946808815002, -0.014623983763158321, -0.009057657793164253, 0.041095808148384094, -0.008499130606651306, -0.01630236767232418, 0.004447089042514563, 0.005238187499344349, 0.00220503774471581, -0.017544925212860107, -0.012130171991884708, 0.008539283648133278, -0.022934572771191597, -0.004097508266568184, 0.00878862477838993, -0.006043245084583759, 0.032957445830106735, 0.010537607595324516, 0.010818884707987309, -0.02984888292849064, 0.013380654156208038, -0.024602370336651802, -0.007376241032034159, 0.020851369947195053, 0.018251026049256325, -0.008179927244782448, -0.03464480862021446, 0.00661530252546072, 0.03443794324994087, -0.023489538580179214, 0.023469718173146248, 0.016632188111543655, 0.03765317425131798, -0.027339458465576172, -0.017242513597011566, 0.016787366941571236, 0.027311576530337334, 0.0345241017639637, -0.012830840423703194, -0.028546061366796494, -0.03230743482708931, -0.0038192446809262037, 0.02618521638214588, 0.025544892996549606, 0.03385065123438835, 0.039113614708185196, -0.0032689482904970646, -0.027164464816451073, -0.029340900480747223, 0.019018733873963356, 0.016755256801843643, -0.01782364584505558, -0.02316400595009327, -0.024093495681881905, -0.046646349132061005, 0.0031123198568820953, -0.04625904932618141, 0.04263487085700035, -0.005562681704759598, 0.014385317452251911, -0.02856975980103016, 0.004981091246008873, 0.034720733761787415, -0.02792215719819069, -0.00962820090353489, 0.0012161509366706014, -0.02503274381160736, -0.01287725381553173, -0.029518472030758858, -0.02419685758650303, -0.02155696414411068, -0.0020953540224581957, -0.018748939037322998, -0.043172840029001236, -0.03574133664369583, -0.0493692122399807, -0.05993900075554848, -0.045146021991968155, -0.04723777994513512, -0.014516863040626049, 0.006967490538954735, -0.03850819543004036, 0.035209689289331436, -0.032107822597026825, -0.022815417498350143, -0.03199682757258415, -0.03482667729258537, -0.02582823485136032, 0.03212198615074158, -0.02597879245877266, -0.016550876200199127, -0.026164967566728592, -0.02202969789505005, -0.01180823240429163, 0.005699730943888426, -0.03333337977528572, 0.019308146089315414, -0.013693197630345821, -0.015785541385412216, -0.0021191113628447056, 0.013227417133748531, 0.027146920561790466, 0.0067541878670454025, -0.0013645710423588753, -0.0402248315513134, 0.020133472979068756, 0.03325255215167999, 0.043685182929039, -0.011716744862496853, -0.017653461545705795, 0.01915527693927288, -0.02922922559082508, -0.0017494745552539825, 0.02375565469264984, -0.003195340745151043, -0.030779147520661354, 0.005762791261076927, -0.02540876343846321, -0.03180909901857376, -0.02265389822423458, 0.040401410311460495, -0.002600737614557147, 0.00625786604359746, 0.025599705055356026, -0.020804084837436676, 0.012033243663609028, 0.0016533411107957363, -0.003987484611570835, 0.00023986410815268755, -0.037372887134552, -0.028740594163537025, -0.06148150935769081, -0.05940605700016022, -0.005597684066742659, 0.040431223809719086, -0.019546398892998695, -0.016383951529860497, 0.029847390949726105, -0.032176122069358826, -0.014760470949113369, -0.007404881063848734, 0.0386175736784935, -0.004579909145832062, -0.009063360281288624, 0.007390233688056469, -0.029435260221362114, -0.04270431399345398, 0.010669982992112637, 0.050117649137973785, 0.008324965834617615, 0.002140659838914871, -0.02408238686621189, 0.03163870796561241, 0.017940005287528038, 0.036698900163173676, -0.009278800338506699, 0.015538905747234821, -0.039696790277957916, -0.020292190834879875, -0.03032652474939823, -0.011417785659432411, 0.004731778521090746, 0.014824512414634228, 0.035174086689949036, -0.0009877636330202222, 0.010641960427165031, 0.004657230339944363, 0.02646799199283123, 0.008008425123989582, -0.0068389009684324265, 0.030912695452570915, -0.020981639623641968, 0.04455234110355377, -0.012903913855552673, -0.013134868815541267, -0.00469047948718071, 0.017009520903229713, -0.01908409222960472, -0.02537408098578453, 0.017278866842389107, -0.012496665120124817, 0.02436227723956108, 0.022308990359306335, -0.00010784389451146126, 0.022033939138054848, -0.010862290859222412, 0.008793128654360771, -0.020357994362711906, 0.008753931149840355, 0.007681258488446474, 0.02583306096494198, -0.009981974959373474, -0.002607945818454027, -0.02243638038635254, -0.025827830657362938, -0.02896289713680744, 0.0286116860806942, -0.008117977529764175, -0.02229212410748005, 0.0328318327665329, 0.03863115608692169, -0.02366420440375805, 0.01805633306503296, -0.0119226248934865, -0.016324307769536972, 0.010724497959017754, -0.023509817197918892, 0.013263839296996593, -0.02556050755083561, 0.033048514276742935, -0.020221654325723648, 0.032957930117845535, -0.005996737629175186, -0.007576930336654186, 0.01021400187164545, -0.023751312866806984, -0.027963683009147644, 0.015994753688573837, -0.024510158225893974, 0.0006494769477285445, 0.026112422347068787, 0.028288451954722404, -0.005866887979209423, -0.022248810157179832, -0.027627840638160706, 0.002556056482717395, 0.005155833903700113, 0.013524070382118225, -0.005149126052856445, 0.001747554517351091, 0.022285213693976402, 0.0315580852329731, -0.010499904863536358, 0.004176770336925983, 0.03148416057229042, 0.0038519552908837795, 0.017866909503936768, 0.006318485829979181, 0.011864813975989819, 0.020688140764832497, 0.03500225022435188, -0.0016831925604492426, -0.007072905544191599, -0.038878701627254486, -0.012875917367637157, 0.017620261758565903, -0.027024732902646065, 0.017818843945860863, -0.025508057326078415, 0.02816636674106121, -0.011743040755391121, 0.005209749564528465, 0.004566751886159182, 0.031247392296791077, -0.01299955602735281, -0.03309644013643265, -0.016696007922291756, 0.019899088889360428, 0.03367776423692703, -0.030761970207095146, 0.032346583902835846, 0.02232082188129425, 0.0027946976479142904, -0.020559942349791527, 0.028498461470007896, 0.006009185221046209, -0.027812611311674118, 0.029220715165138245, 0.024959728121757507, -0.020802244544029236, -0.029901845380663872, -0.021298723295331, -0.01671188697218895, 0.030459145084023476, 0.004362583160400391, -0.03039991669356823, -0.03258607164025307, 0.03520461544394493, -0.012301024049520493, -0.029960276558995247, 0.001261489000171423, 0.009531649760901928, -0.031089309602975845, -0.0117263188585639, 0.008026053197681904, -0.029658004641532898, 0.010234671644866467, -0.032388001680374146, -0.0265517421066761, 0.027634352445602417, 0.016893135383725166, -0.00849803164601326, -0.032975077629089355, -0.027996599674224854, 0.004334514494985342, -0.019175544381141663, 0.03074384108185768, 0.018501747399568558, -0.03082255646586418, -0.01687479577958584, 0.0055376640520989895, -0.014026441611349583, -0.014909652061760426, -0.014207237400114536, 0.01246532890945673, -0.02833079732954502, -0.00660663889721036, 0.0019651770126074553, 0.016439924016594887, 0.010975977405905724, 0.021569866687059402, 0.020430047065019608, -0.017763692885637283, 0.004512552637606859, -0.0041184150613844395, -0.018522512167692184, 0.002415240975096822, -0.0020379074849188328, -0.030507942661643028, -0.030727308243513107, -0.019015289843082428, -0.038418613374233246, -0.006784315686672926, -0.002311517484486103, -0.0215922761708498, -0.01915661245584488, -0.018661580979824066, -0.004228465259075165, -0.010310842655599117, -0.014383729547262192, -0.028014568611979485, -0.02742886357009411, -0.013204989954829216, -0.03440010920166969, 0.005349501967430115, -0.03456534072756767, -0.029585925862193108, 0.029368197545409203, -0.01759684830904007, -0.018716320395469666, 0.013105756603181362, 0.016588887199759483, -0.01986822299659252, 0.03132979944348335, -0.009876839816570282, 0.0030583052430301905, 0.011164008639752865, -0.015929097309708595, 0.006788034923374653, -0.011355697177350521, -0.017856262624263763, -0.006859696935862303, -0.023716745898127556, -0.030775824561715126, 0.018555080518126488, -0.01945648528635502, 0.025386398658156395, 0.0327136293053627, -0.029563182964920998, 0.0032730719540268183, -0.03067922778427601, 0.028559036552906036, -0.020681116729974747, 0.010952925309538841, 0.03260213881731033, 0.00048761366633698344, -0.0004192736523691565, 0.001737586804665625, 0.012707943096756935, -0.026779578998684883, 0.0339009091258049, -0.002711819251999259, 0.03183714672923088, 0.009151021018624306], [-0.0011313519207760692, 0.0021908245980739594, 0.019230488687753677, 0.031569600105285645, -0.013552853837609291, 0.004714660812169313, 0.029160626232624054, 0.008514640852808952, 0.01826256699860096, 0.005487476941198111, 0.01437806710600853, -0.0024705601390451193, 0.012122965417802334, -0.020147252827882767, 0.004254546016454697, -0.02569822408258915, 0.006816498003900051, -0.02153717912733555, 0.024090398102998734, -0.01999785751104355, 0.0279966089874506, 0.00024239756749011576, 0.012249106541275978, 0.0041948300786316395, -0.009538467042148113, 0.02919837273657322, -0.02416975051164627, -0.00500478595495224, -0.009950272738933563, 0.028627172112464905, 0.008675573393702507, -0.02874220907688141, 0.00417872192338109, -0.0007746474002487957, -0.013911607675254345, -0.02384009212255478, -0.02718961052596569, 0.002381141996011138, -0.03248318284749985, -0.004350489936769009, 0.0007303068996407092, -0.012458700686693192, 0.028191078454256058, 0.005159469787031412, 0.0036608166992664337, -0.011120067909359932, -0.010111652314662933, -0.02660476416349411, -0.006688016001135111, -0.019418448209762573, 0.01035074982792139, 0.023899421095848083, -0.006124763283878565, 0.015062692575156689, 0.01611601933836937, 0.02451557107269764, 0.009048795327544212, 0.005656668450683355, 0.0005327363032847643, -0.004050592426210642, -0.02308010123670101, 0.026827819645404816, -0.006167547777295113, 0.012309818528592587, -0.03446910157799721, 0.023285064846277237, 0.0018921472365036607, -0.029259510338306427, 0.01534605398774147, 0.011915323324501514, -0.005279262084513903, 0.023428143933415413, 0.007511819712817669, 0.029069263488054276, 0.03405028209090233, 0.022793583571910858, -0.007902566343545914, 0.01374462153762579, 0.006208819802850485, -0.002957357792183757, 0.01768687553703785, -0.009930681437253952, 0.013101785443723202, 0.036625124514102936, 0.03376833349466324, -0.024411680176854134, 0.0033043124713003635, -0.014020857401192188, 0.010663258843123913, -0.012499949894845486, 5.290430999593809e-05, 0.00375391636043787, -0.015968965366482735, -0.033292368054389954, 0.017477070912718773, 0.027073679491877556, 0.01279432699084282, -0.01523611880838871, -0.016897782683372498, -0.02768182009458542, 0.008869392797350883, -0.015599900856614113, -0.027891431003808975, 0.0212831050157547, 0.014432153664529324, -0.003540565725415945, 0.0026733942795544863, 0.03340374678373337, -0.02648676559329033, 0.01648712530732155, 0.02294653281569481, 0.032275669276714325, 0.026816189289093018, -0.032120879739522934, 0.005684273317456245, -0.00891385693103075, -0.03502371162176132, 0.0051299287006258965, 0.007903185673058033, 0.011667449958622456, -7.980559166753665e-05, 0.02036537602543831, -0.01122964359819889, 0.020652620121836662, 0.007322303485125303, 0.0008410466834902763, 0.004899541847407818, -0.002838707296177745, 0.012389265932142735, -0.03481733053922653, 0.014962798915803432, 0.03505159914493561, 0.006173369940370321, -0.01285141333937645, 0.0099298395216465, -0.02669660560786724, 0.006833328399807215, -0.029825029894709587, 0.017096150666475296, -0.03309022635221481, -0.014608836732804775, 0.025925738736987114, 0.033554259687662125, 0.01808738149702549, -0.021912362426519394, -0.009015354327857494, -0.029554633423686028, 0.011900080367922783, -0.014391577802598476, -0.0338565967977047, 0.028924250975251198, 0.024427250027656555, -0.013684616424143314, 0.028486095368862152, 0.026043865829706192, 0.010251494124531746, -0.011769796721637249, -0.00950713362544775, 0.015053682960569859, -0.01630953513085842, -0.028433403000235558, -0.0029416552279144526, 0.00826705526560545, 0.0038563860580325127, 0.035948753356933594, 0.013015974313020706, -0.006716209929436445, 0.01378943957388401, -0.033698469400405884, 0.011605513282120228, -0.002884001936763525, -0.021184032782912254, 0.03600955381989479, -0.03280052915215492, -0.012814134359359741, 0.009139942936599255, -0.02332882024347782, -0.026775971055030823, 0.005656733643263578, 0.013339466415345669, -0.012519406154751778, -0.028110181912779808, 0.013225290924310684, 0.011839489452540874, 0.01305894460529089, 0.026986215263605118, 0.022873584181070328, -0.019671134650707245, -0.0008158916025422513, 0.01772976666688919, -0.007305874954909086, 0.02496095933020115, -0.02615191787481308, 0.009467851370573044, -0.01919472962617874, 0.00605347752571106, 0.010672399774193764, -0.03147684037685394, 0.002143478486686945, 0.02101260796189308, 0.0004465855599846691, 0.009044190868735313, -0.01967482641339302, 0.02211611531674862, 0.03380802273750305, 0.0013131042942404747, 0.029866080731153488, -0.02511669136583805, -0.03133457899093628, -0.017050577327609062, -0.01899372600018978, -0.004119175486266613, 0.014467467553913593, -0.005825182888656855, -0.005040676798671484, 0.020909825339913368, -0.04079798609018326, 0.009899754077196121, -0.014911521226167679, 0.020358679816126823, 5.5425934988306835e-05, 0.011799232102930546, 0.011541785672307014, -0.02078588493168354, 0.018152844160795212, 0.014308293350040913, -0.035205498337745667, -0.002594037912786007, 0.03198464959859848, 0.01663024351000786, -0.035394590348005295, -0.020112203434109688, -0.029179662466049194, -0.011965439654886723, 0.00905048381537199, -0.016830123960971832, -0.012078294530510902, -0.03641166538000107, 0.02306770719587803, -0.02988942712545395, 0.023603398352861404, 0.03485454246401787, 0.033515721559524536, -0.0013528938870877028, 0.02334153652191162, 0.006219839211553335, 0.011062655597925186, 0.011537300422787666, -0.0008299457840621471, -0.01251964084804058, 0.020638925954699516, -0.03578096628189087, 0.03069993667304516, -0.023622844368219376, -0.013913224451243877, 0.00036769782309420407, -0.003498348407447338, 0.004726960323750973, 0.023984020575881004, -0.013514667749404907, 0.02648317627608776, -0.011745262891054153, -0.022800272330641747, -0.013568838126957417, 0.0275033637881279, -0.005609775893390179, 0.023780811578035355, -0.03177175298333168, 0.020815428346395493, -0.014567825943231583, 0.016409000381827354, -0.0289452001452446, 0.034362271428108215, 0.01888475939631462, -0.013431192375719547, 0.0036029121838510036, -0.025583455339074135, 0.018458763137459755, -0.006923471577465534, -0.010923086665570736, -0.0033547203056514263, 0.008560501970350742, -0.03456001356244087, 0.0017061092657968402, -0.022760234773159027, 0.010730170644819736, -0.0059856753796339035, -0.01049693301320076, -0.0028043740894645452, -0.03282744437456131, 0.03215603902935982, -0.008785487152636051, 0.01730542629957199, 0.010141465812921524, -0.023259524255990982, 0.004651203751564026, 0.027151234447956085, -0.006290726363658905, -0.03403642773628235, -0.000442580902017653, -0.0047737532295286655, -0.0005935216322541237, -0.00907582975924015, -0.031097788363695145, 0.025353210046887398, 0.01019823644310236, 0.009844976477324963, -0.03438260033726692, -0.031635675579309464, 0.020970294252038002, -0.0306816678494215, 0.008145340718328953, 0.0026799223851412535, 0.024179374799132347, 0.008058710023760796, 0.0025114631280303, 0.010892864316701889, -0.003869299776852131, -0.007076912559568882, -0.0005742749781347811, 0.008561857044696808, -0.006714989431202412, 0.027146218344569206, 0.007378883194178343, -0.0369202122092247, -0.02826903760433197, -0.007857803255319595, 0.010347211733460426, 0.016056474298238754, 0.006112835835665464, 0.026701370254158974, -0.03130147606134415, -0.0008954653749242425, 0.0271785706281662, -0.015049670822918415, 0.022342879325151443, 0.00725853256881237, 0.005208676215261221, 0.029136287048459053, -0.030196042731404305, 0.004987179767340422, 0.008205980993807316, 0.026881558820605278, -0.02670295350253582, 0.00015857740072533488, -0.040775902569293976, -0.03881332650780678, -0.022055435925722122, 0.02935332991182804, 0.015459937043488026, -0.0021729557774960995, 0.0046745059080421925, 0.006881667301058769, 0.009540244936943054, 0.0024811902549117804, 0.02428639493882656, 0.013834022916853428, 0.01387947890907526, 0.01714552566409111, 0.018711309880018234, -0.02133260853588581, 0.015628792345523834, -0.03440503403544426, 0.024865981191396713, -0.033336181193590164, -0.026767898350954056, 0.0050081294029951096, 0.032064493745565414, -0.010471966117620468, 0.0012191514251753688, -0.0331384651362896, 0.020942747592926025, 0.023434551432728767, -0.013784948736429214, 0.027592329308390617, 0.0012913969112560153, 0.01266300305724144, -0.015533051453530788, -0.004168943036347628, -0.01250323187559843, 0.004217186942696571, 0.0021085496991872787, -0.02541412226855755, 0.026976045221090317, -0.021717960014939308, 0.009390120394527912, -0.003808272536844015, -0.02292238548398018, 0.0070807430893182755, -0.020685795694589615, -0.006884143687784672, 0.014789299108088017, 0.018284454941749573, 0.010289928875863552, 0.030697405338287354, 0.02466772310435772, -0.026769578456878662, 0.0018376128282397985, 0.009113945066928864, 0.0029155141673982143, -0.0006932493997737765, -0.012000889517366886, 0.005945813376456499, 0.003098126268014312, 0.01313738338649273, -0.0058083245530724525, -0.021988067775964737, 0.0063115740194916725, -0.02918756939470768, 0.005811047274619341, -0.025727249681949615, 0.0024664520751684904, -0.004283824935555458, 0.02356804721057415, -0.013116506859660149, -0.02377413399517536, -0.03772393614053726, 0.0034338764380663633, 0.00937473215162754, -0.023945137858390808, 0.004856843966990709, 0.022096464410424232, -0.026146886870265007, 0.016816360875964165, -0.01695195399224758, 0.009786921553313732, -0.003133387304842472, 0.030047908425331116, 0.040041279047727585, 0.013266509398818016, -0.011699637398123741, 0.0008279871544800699, -0.015113363042473793, -0.026546750217676163, 0.012347073294222355, 0.013110673986375332, -0.022647906094789505, -0.014985266141593456, -0.0036181670147925615, 0.013019036501646042, 0.005047756712883711, 0.015522120520472527, 0.028834791854023933, 0.03171878680586815, -0.024290651082992554, 0.006130050867795944, 0.025764958932995796, -0.03464231267571449, -0.03292053937911987, 0.013966865837574005, 0.004085938911885023, 0.02215050347149372, -0.013386307284235954, -0.009454973973333836, 0.030801275745034218, 0.01911398395895958, 0.028400251641869545, 0.033314261585474014, 0.03153664618730545, -0.016927437856793404, -0.03473808988928795, -0.008443238213658333, 0.02873455174267292, 0.015359730459749699, -0.03819931298494339, -0.025238772854208946, -0.02253887429833412, -0.024861454963684082, -0.01086355559527874, 0.017937876284122467, 0.005441088695079088, 0.03748702257871628, 0.014224208891391754, 0.0054817795753479, 0.02745828405022621, -0.028662890195846558, 0.02502450905740261, -0.024291522800922394, -0.02321496047079563, -0.00955123733729124, 0.005666686687618494, 0.018924258649349213, -0.00848935917019844, 0.010895498096942902, 0.020458314567804337, 0.027469852939248085, 0.010596808977425098, 0.0015509945806115866, 0.01163620874285698, -0.03815595433115959, -0.03825635835528374, -0.029856912791728973, 0.0028335931710898876, -0.006222354248166084, -0.03375345468521118, 0.0047584157437086105, 0.005405358970165253, 0.018911048769950867, -0.005774639081209898, 0.02446332946419716, -0.026427721604704857, 0.025035377591848373, 0.028428643941879272, -0.012728748843073845, -0.010583363473415375, -0.03734642267227173, -0.01622583158314228, -0.004225749988108873, 0.02331753633916378, 0.028807329013943672, 0.013964954763650894, -0.019884837791323662, 0.018129555508494377, 0.03333330526947975, 0.01700328104197979, -0.02879740297794342, 0.020449422299861908, 0.006938865873962641, -0.02326187677681446, -0.003992196172475815, 0.01897594891488552, -0.03258783742785454, 0.0021656015887856483, -0.023990903049707413, 0.010179568082094193, 0.013427860103547573, -0.0020523748826235533, 0.001090522506274283, 0.030908260494470596, -0.033430907875299454, 0.011038947850465775, 0.0026132266502827406, -0.018373779952526093, 0.008797353133559227, 0.008810173720121384, -0.01744387298822403, 0.02500593662261963, -0.026780709624290466, 0.001714904559776187, 0.014488467015326023, 0.033860474824905396, 0.002918020822107792, 0.01866145431995392, -0.007704569026827812, 0.0014502349076792598, 0.021537313237786293, -0.032182566821575165, 0.023386770859360695, -0.023910071700811386, 