{"fc1.weight": [[0.024032048881053925, -0.03182661533355713, 0.016717825084924698, 0.005272346548736095, 0.014242780394852161, 0.031453780829906464, -0.034610435366630554, 0.02955765463411808, -0.019324153661727905, 0.016476985067129135, 0.008924389258027077, 0.010828305035829544, 0.007119777612388134, -0.009147743694484234, -0.014311562292277813, -0.004973897244781256, -0.018557261675596237, -0.008225697092711926, -0.0341380275785923, 0.03209194913506508, 0.022404609248042107, -0.01288224570453167, -0.027165306732058525, -0.014326659962534904, -0.025186071172356606, -0.03648378327488899, 0.0061641293577849865, -0.025141160935163498, -0.02305218018591404, 0.0055616023018956184, -0.019168566912412643, -0.015303202904760838, -0.02566833421587944, -0.028619728982448578, -0.013375273905694485, 0.01368806418031454, -0.032062020152807236, 0.01599697768688202, 0.008787056431174278, 0.0008956728270277381, 0.009754002094268799, -0.030043017119169235, -0.019379494711756706, -0.019606642425060272, 0.0011893105693161488, 0.015072530135512352, -0.012829910963773727, -0.00428715581074357, -0.012585888616740704, -0.01383913028985262, -0.012241803109645844, 0.01796376146376133, 0.017380358651280403, 0.0034256496001034975, -0.023855341598391533, 0.01667327806353569, 0.019458146765828133, 0.024975253269076347, -0.022729724645614624, -0.004458870738744736, 0.02505316026508808, -0.029647991061210632, -0.02302508056163788, 0.004266649018973112, -0.0007289960631169379, -0.0068214344792068005, 0.0035224759485572577, 0.009641245938837528, -0.01880430430173874, -0.013378692790865898, -0.0089208809658885, 0.028900641947984695, -0.012138464488089085, 0.03478821739554405, -0.01774679869413376, -0.03033209592103958, -0.007153712213039398, 0.022720620036125183, 0.014786824584007263, 0.018435677513480186, 0.009930318221449852, 0.027582291513681412, 0.024948284029960632, 0.030034055933356285, 0.0011089224135503173, -0.017921244725584984, 0.018641510978341103, 0.024827202782034874, 0.029124533757567406, -0.016190869733691216, 0.011480280198156834, 0.02409377507865429, -0.03151867538690567, -0.03198246285319328, -0.031427036970853806, -0.008299393579363823, -0.0036284769885241985, 0.013023033738136292, 0.03433873876929283, 0.01755611225962639, -0.004643096122890711, 0.00595109723508358, 0.010572274215519428, 0.017182644456624985, -0.004253946710377932, 0.012133225798606873, 0.0174866933375597, -0.01043070200830698, 0.01944519765675068, -0.007681639865040779, 0.03176456689834595, 0.010894330218434334, 0.02166145294904709, -0.011062968522310257, -0.019879411906003952, -0.032586824148893356, -0.008380820043385029, -0.02117796428501606, -0.014613823965191841, 0.011285737156867981, -0.023008838295936584, 0.03596492111682892, 0.02831505425274372, -0.00514434976503253, 0.013664975762367249, -0.01741345226764679, 0.026832694187760353, -0.034844543784856796, 0.0006481305463239551, 0.015049518086016178, -0.001040628645569086, 0.009124161675572395, 0.019355004653334618, 0.013507787138223648, 0.01844828575849533, -0.019971657544374466, -0.001304391655139625, -0.007331268396228552, 0.011446266435086727, 0.016460668295621872, -0.019560465589165688, -0.03358035162091255, -0.012619526125490665, -0.001225856365635991, 0.004507256671786308, -0.026694273576140404, -0.028513217344880104, 0.02962351031601429, -0.020099058747291565, -0.024905040860176086, -0.03297622129321098, -0.005738719832152128, -0.025355808436870575, -0.00946024525910616, 0.005575570743530989, -0.045553870499134064, -0.0020764837972819805, 0.0064397393725812435, -0.01775273121893406, -0.0019092164002358913, -0.027974413707852364, -0.020701592788100243, 0.021497976034879684, -0.020419523119926453, -0.035956744104623795, 0.0019104729872196913, -0.0031695279758423567, -0.006779068149626255, 0.004748053383082151, 0.005080587696284056, 0.015626665204763412, 0.004374039359390736, -0.025236250832676888, -0.02987651899456978, 0.005335857626050711, -0.0009760427637957036, -0.03832067921757698, 0.02092832140624523, -0.007352639455348253, -0.03997219726443291, -0.04745728522539139, -0.02423262968659401, -0.03419305011630058, 0.005026876460760832, -0.013249742798507214, 0.015890318900346756, -0.011513193137943745, 0.011400945484638214, 0.01601080410182476, 0.013545605354011059, 0.03226768597960472, -0.03625563532114029, 0.018716957420110703, -0.021836817264556885, -0.03077702410519123, -0.016746187582612038, -0.020929595455527306, -0.024024518206715584, 0.0034874293487519026, 0.02131432481110096, -0.012087822891771793, 0.01974516175687313, -0.04089735448360443, -0.007629085797816515, 0.021220579743385315, 0.009643221274018288, -0.04861375316977501, -0.02050696685910225, -0.012510333210229874, -0.020516423508524895, 0.01815943233668804, 0.01430582907050848, 0.003482365282252431, 0.023043332621455193, 0.011786220595240593, -0.03546590358018875, 0.016314156353473663, -0.022044260054826736, 0.018504079431295395, -0.021534673869609833, 0.00741431163623929, -0.01734478771686554, -0.01878766342997551, -0.019483184441924095, -0.03129579499363899, 0.032380495220422745, 0.003054917324334383, -0.03187555819749832, -0.015821672976017, -0.011467872187495232, 0.020264528691768646, -0.03252900019288063, -0.019622795283794403, -0.04439498484134674, -0.027080567553639412, 0.02174006588757038, -0.004428443964570761, -0.0006081988685764372, 0.03680335357785225, 0.01353496965020895, 0.015361296012997627, 0.015650872141122818, -0.015620779246091843, -0.014474094845354557, 0.01654909923672676, -0.030782068148255348, 0.013460015878081322, 0.015620194375514984, 0.011556508019566536, -0.007433063816279173, 0.031932443380355835, -0.00033092082594521344, 0.0320737361907959, -0.025695495307445526, -0.02361219935119152, -0.013757221400737762, 0.004177472088485956, -0.03632059693336487, 0.025455446913838387, -0.014685499481856823, -0.043052803725004196, 0.025368181988596916, -0.010984920896589756, 0.021406227722764015, -0.023371892049908638, 0.012764980085194111, 0.004259224981069565, 0.007075869012624025, 0.0026501535903662443, -0.011266245506703854, 0.01184081844985485, -0.011814229190349579, -0.03049144707620144, 0.02132590487599373, 0.0003917271096725017, -0.01612335629761219, -0.006751064211130142, -0.027349166572093964, -0.03340698778629303, 0.00804968737065792, -0.030167492106556892, -0.008077445439994335, -0.016453338786959648, 0.01884573884308338, -0.007250441703945398, -0.016726380214095116, 0.030766690149903297, -0.03523896262049675, -0.022797642275691032, 0.008050166070461273, 0.00400395505130291, -0.024717198684811592, 0.009949769824743271, -0.0032064621336758137, -0.017179181799292564, -0.011246751993894577, -0.01528539601713419, -0.022417966276407242, -0.008120040409266949, 0.026012618094682693, -0.02647814154624939, -0.024863386526703835, 0.025325875729322433, -0.0019427818479016423, -0.0021345154382288456, -0.030436864122748375, -0.028898349031805992, -0.007829833775758743, 0.030624138191342354, -0.0037144257221370935, -0.03324383124709129, 0.0013191220350563526, 0.010962910950183868, -0.02673001028597355, -0.02527245506644249, -0.016354383900761604, 0.018191657960414886, 0.010864193551242352, -0.015238113701343536, 0.02453397586941719, -0.02123200334608555, -0.014876380562782288, -0.023064712062478065, 0.021449415013194084, 0.015940940007567406, -0.030372198671102524, -0.025210997089743614, -0.009079504758119583, 0.016831275075674057, 0.006572758313268423, 0.007911164313554764, -0.01951906830072403, 0.03278479352593422, -0.0018850329797714949, 0.022469112649559975, -0.020883994176983833, -0.008197247982025146, -0.02873986028134823, 0.021042248234152794, 0.03121906891465187, 0.0210736021399498, -0.0246655885130167, -0.00586125859990716, 0.0011076965602114797, -0.009649737738072872, 0.026199638843536377, 0.035077422857284546, 0.024987338110804558, 0.03694494068622589, -0.015821928158402443, -0.011341206729412079, -0.023722711950540543, 0.0035524466075003147, 0.021442368626594543, 0.02411946840584278, -0.012972511351108551, -0.0026116499211639166, 0.01680419035255909, 0.015276070684194565, 0.02623480185866356, -0.004236074164509773, -0.03352750092744827, 0.012861018069088459, -0.006006354466080666, 0.022442102432250977, 0.03332364186644554, 0.025670703500509262, 0.024092920124530792, 0.034747667610645294, -0.025413772091269493, 0.0170466136187315, -0.003005470149219036, -0.003575114533305168, -0.018843818455934525, 0.03115561418235302, 0.026669280603528023, -0.017253119498491287, 0.044300418347120285, 0.017276937142014503, -0.02444559521973133, 0.016912413761019707, 0.03737714886665344, 0.02859465405344963, 0.0017877885838970542, -0.013916244730353355, 0.014142683707177639, 0.016533400863409042, 0.01483064889907837, -0.02517995983362198, -0.000962516525760293, 0.014456457458436489, 0.026147188618779182, 0.028469162061810493, -0.02050408162176609, -0.013434330001473427, 0.019612090662121773, 0.026864292100071907, -0.022103309631347656, -0.0020862247329205275, -0.006666762754321098, 0.02591792121529579, -0.02451012097299099, 0.0220904853194952, 0.01834602653980255, 0.005908871069550514, 0.045762576162815094, -0.015271875075995922, 0.032799143344163895, -0.011437474749982357, -0.024740127846598625, -0.0008445318671874702, 0.02315971441566944, 0.0009204585221596062, 0.005727436859160662, 0.006201609969139099, 0.03349079191684723, -0.009604972787201405, 0.03132133558392525, 0.030857356265187263, -0.034454453736543655, -0.012017476372420788, 0.006816768553107977, 0.012782982550561428, -0.012356124818325043, -0.02131924405694008, -0.020809603855013847, -0.02832956053316593, 0.03050309419631958, 0.02989848703145981, 0.047334518283605576, -0.019881758838891983, 0.028433989733457565, -0.003596913069486618, -0.016511423513293266, 0.021995989605784416, 0.03153809532523155, 0.006321612745523453, 0.011965400539338589, 0.022027941420674324, 0.00011624849867075682, 0.034787483513355255, 0.021388238295912743, -0.018237827345728874, -0.013035904616117477, -0.019643710926175117, 0.025823814794421196, 0.015557214617729187, -0.005966300144791603, 0.016363393515348434, 0.01804935187101364, -0.0028158107306808233, 0.00847969576716423, -0.002713672583922744, -0.0021207828540354967, 0.03702390193939209, 0.01962617039680481, -0.0027864454314112663, -0.014632255770266056, -0.019069554284214973, -0.023173362016677856, -0.019015515223145485, 0.04599495604634285, 0.009016510099172592, -0.009225092828273773, 0.006868159398436546, 0.02874169684946537, 0.032225728034973145, -0.032876014709472656, 0.007687195669859648, -0.029816333204507828, -0.008046785369515419, 0.03302663564682007, -0.011065850034356117, -0.01657618023455143, -0.02247532457113266, 0.0014625206822529435, 0.029996279627084732, 0.02368941903114319, 0.01744968257844448, 0.021625688299536705, -0.023780647665262222, 0.034383006393909454, -0.007365802302956581, -0.02681080251932144, -0.008670122362673283, 0.023237131536006927, -0.014972137287259102, 0.006869649048894644, 0.020611070096492767, -0.004689485300332308, 0.00871956441551447, -0.013980463147163391, 0.008984575048089027, 0.002385255414992571, 0.03344501182436943, 0.021154804155230522, 0.01001159381121397, 0.015307777561247349, 0.024233385920524597, -0.03240671008825302, -0.034492723643779755, 0.021106800064444542, -0.03339376673102379, -0.0009077638969756663, 0.0327000766992569, 0.022502398118376732, -0.02915201708674431, -0.011334868147969246, -0.00972704403102398, -0.013868187554180622, -0.018567079678177834, -0.025836840271949768, 0.019637934863567352, 0.001016466412693262, -0.021659936755895615, -0.02971941977739334, -0.015503562986850739, 0.018538299947977066, 0.03806937858462334, 0.05297849699854851, 0.04965057596564293, 0.04118271544575691, 0.005054451059550047, -0.014280539005994797, 0.018263138830661774, -0.007814344950020313, -0.035359304398298264, 0.009122646413743496, 0.016555892303586006, 0.019332820549607277, 0.00618232786655426, -0.01098576094955206, -0.022580239921808243, 0.030234353616833687, 0.016446679830551147, -0.026305506005883217, 0.015080999583005905, -0.0015310607850551605, -0.009255287237465382, 0.009888652712106705, 0.012917513027787209, 0.031594954431056976, 0.02704937942326069, -0.023177307099103928, 0.02704036794602871, -0.01701638475060463, -0.009742749854922295, 0.04557618126273155, 0.0011513764038681984, -0.009583208709955215, -0.014218668453395367, 0.00907286535948515, -0.02020537294447422, 0.029512690380215645, 0.013555588200688362, 0.013944152742624283, 0.03102705627679825, -0.017419734969735146, -0.0064085726626217365, 0.02512213960289955, 0.03199434652924538, -0.012583748437464237, -0.01323940884321928, -0.021319415420293808, 0.032308582216501236, -0.030693640932440758, -0.012254521250724792, -0.032196104526519775, -0.012238562107086182, 0.02098367176949978, 7.760996231809258e-05, -0.01103023812174797, -0.025275835767388344, 0.017342671751976013, 0.040299903601408005, 0.008886933326721191, -0.03249485418200493, -0.028226617723703384, 0.018571658059954643, 0.02451474778354168, -0.004316715057939291, 0.022409891709685326, 0.027306320145726204, -0.025535626336932182, 0.03400639072060585, -0.021222388371825218, -0.009864671155810356, 0.0030264428351074457, -0.023770220577716827, 0.02660580724477768, 0.004163908772170544, 0.012640387751162052, 0.021475866436958313, -0.01862167753279209, 0.02068677730858326, -0.021550558507442474, -0.018947040662169456, -0.028890062123537064, 0.015367483720183372, 0.01835375837981701, -0.013689926825463772, -0.004269038327038288, 0.006348575931042433, -0.006415563635528088, -0.023746639490127563, -0.013576583936810493, -0.038687657564878464, -0.0018003127770498395, 0.018168754875659943, 0.025267483666539192, 0.01961667835712433, 0.035041794180870056, -0.0028560420032590628, -0.02813715860247612, -0.013798759318888187, 0.0021933200769126415, 0.029199544340372086, 0.031791411340236664, -0.03113720938563347, 0.006629296112805605, -0.03637101873755455, -0.0033831936307251453, -0.030694948509335518, -0.03349753096699715, -0.012216099537909031, 0.0035008355043828487, -0.017281264066696167, -0.03768477588891983, -0.02969331108033657, 0.023785244673490524, -0.03087487258017063, -0.04152630642056465, -0.027086840942502022, -0.045927006751298904, -0.030072081834077835, 0.0219196155667305, -0.007825619541108608, -0.005014218855649233, -0.023250728845596313, 0.017543813213706017, -0.00426944624632597, 0.030003290623426437, 0.011899027973413467, 0.029724370688199997, 0.006971612572669983, -0.019314272329211235, -0.006270099431276321, 0.0030327315907925367, -0.024266382679343224, 0.005363081581890583, -0.03846405819058418, -0.0012430762872099876, 0.0038945109117776155, -0.006763177458196878, 0.004031889606267214, 0.025296445935964584, -0.018401548266410828, 0.01815985143184662, -0.025344565510749817, -0.0158632043749094, 0.01960083469748497, -0.044060103595256805, -0.046914901584386826, -0.0023127214517444372, -0.03575590252876282, -0.004601962398737669, -0.034300509840250015, -0.01318474393337965, -0.006474729627370834, -0.005379279609769583, -0.02311267890036106, -0.029730090871453285, 0.007341213058680296, -0.022901011630892754, -0.023053433746099472, 0.030586883425712585, -0.015184062533080578, 0.03243181109428406, 0.017247848212718964, -0.007929841987788677, -0.03427303582429886, 0.005269572138786316, -0.02142188511788845, -0.01559484377503395, -0.028332214802503586, 0.025793511420488358, 0.014744832180440426, -0.009001169353723526, 0.01571473479270935, 0.02086862362921238, 0.0032660155557096004, -0.03707022964954376, -0.00890597328543663, 0.018973613157868385, -0.01003966387361288, 0.018396390601992607, -0.01760467141866684, -0.017380883917212486, -0.016994696110486984, 0.012366869486868382, -0.0239134319126606, 0.015314613468945026, 0.01081480085849762, -0.0141892796382308, 0.02359808050096035, 0.01979486085474491, 0.016002580523490906, 0.02002406120300293, -0.00979265570640564, -0.02680276334285736, 0.01259290799498558, 0.0051323422230780125, 0.012873993255198002, -0.031910866498947144, 0.029653577134013176, -0.02955458126962185, 0.028279336169362068, -0.021898731589317322, 0.026170603930950165, 0.0007610189495608211, 0.03087785467505455, -0.012096376158297062, 0.002676168689504266, 0.03196367248892784, -0.00676776422187686, 0.022566715255379677, -0.007813312113285065, 0.012566749937832355, -0.026338815689086914, -0.003800563048571348, 0.032311465591192245, -0.01650901883840561, 0.005081106908619404, -0.021607302129268646, -0.022419452667236328, 0.032794199883937836, -0.021757513284683228, 0.00664824154227972, -0.0031188956927508116, 0.01684718206524849, -0.02885172888636589, 0.03115719184279442, -0.02503965049982071, -0.028946902602910995, -0.004674862138926983, 0.027146141976118088, -0.00028502492932602763, 0.003752252086997032, -0.02980358526110649, -0.0016139817889779806, 0.023941321298480034, -0.0012294441694393754, 0.0050415112636983395, -0.014967648312449455, -0.006808536592870951, 0.0275729950517416, -0.009171666577458382, -0.03422066569328308, 0.020600372925400734, 0.0051346030086278915, -0.0033909082412719727, -0.004217248875647783, -0.02386588230729103, -0.028316497802734375, 0.021490616723895073, -0.02940666303038597, 0.021009454503655434, 0.003612370463088155, -0.03488219156861305, -0.014713902957737446, 0.012764500454068184, -0.03280673548579216, -0.03321586176753044, 0.002388587687164545, -0.0026485752314329147, 0.005839091259986162, 0.006051336415112019, -0.0011643898906186223, -0.007712026126682758, -0.020819487050175667, 0.02698889560997486, -0.01645868830382824, -0.03081323578953743, 0.015029588714241982], [-0.013942781835794449, -0.019711531698703766, 0.026242045685648918, 0.013180524110794067, 0.024706309661269188, 0.015944398939609528, -0.01259220577776432, 0.02847895212471485, 0.0015029722126200795, 0.016688179224729538, -0.03506511449813843, 0.03036770038306713, 0.011082244105637074, -0.03166265785694122, 0.019844815135002136, -0.0025538094341754913, 0.011615356430411339, 0.009338376112282276, -0.02142477035522461, -0.03012906201183796, 0.028264818713068962, -0.03244733810424805, -0.020488830283284187, -0.001881887554191053, 0.008184648118913174, 0.02945960871875286, -0.028471218422055244, -0.028073245659470558, 0.01892603561282158, 0.004466786980628967, 0.009059643372893333, -0.027298199012875557, 0.005204076878726482, -0.025287248194217682, -0.010297943837940693, -0.004420080687850714, -0.030682986602187157, -0.02488953061401844, 0.02352077327668667, -0.02064521051943302, -0.037892475724220276, 0.0012396239908412099, 0.0014233605470508337, 0.024459542706608772, 0.008036752231419086, -0.02587265707552433, 0.0190422385931015, 0.0009292613249272108, 0.030269205570220947, -0.024362310767173767, 0.012746743857860565, 0.007006684318184853, -0.025025349110364914, -0.011311834678053856, 0.012513807974755764, 0.023123156279325485, 0.02779184840619564, 0.028158875182271004, 0.022712795063853264, 0.0010514822788536549, 0.02687094360589981, 0.010234485380351543, -0.018301326781511307, -0.021393051370978355, -0.02382715791463852, -0.024415217339992523, 0.00030433389474637806, 0.031904205679893494, -0.03146154060959816, 0.02651100791990757, 0.01974763348698616, 0.004160564858466387, -0.020216671749949455, 0.03444742411375046, -0.016195910051465034, -0.008858888410031796, -0.01030762493610382, 0.0019099322380498052, 0.01417788490653038, 0.012808739207684994, 0.004293908830732107, 0.0291628148406744, 0.004015694838017225, -0.027316810563206673, 0.006146993953734636, 0.0013380700256675482, 0.009207000955939293, -0.007888062857091427, -0.008094299584627151, 0.0018692916492000222, 0.008547528646886349, -0.028681619092822075, -0.019612519070506096, 0.014193904586136341, 0.012855978682637215, 0.0166954156011343, 0.036977313458919525, -0.01647496409714222, 0.025030191987752914, -0.024745678529143333, -0.015975801274180412, 0.00043356555397622287, 0.00043759605614468455, 0.014354207552969456, -0.013621339574456215, -0.02156117372214794, -0.03841274604201317, 0.0012218212941661477, -0.03049861453473568, -0.019405243918299675, -0.013667052611708641, -0.02618630789220333, 0.028701169416308403, -0.0001423000794602558, -0.011788157746195793, 0.024761777371168137, -0.005627331789582968, 0.033342648297548294, 0.011419514194130898, -0.01469453051686287, 0.03118482045829296, -0.013734407722949982, 0.017215082421898842, 0.031145485118031502, -0.007428619544953108, 0.017681527882814407, 0.050079070031642914, 0.020323818549513817, -0.01949246972799301, 0.02030426636338234, 0.018266737461090088, -0.00410974957048893, -0.016556626185774803, -0.0003618382615968585, -0.04098891094326973, 0.013378776609897614, -0.01691412553191185, 0.0005276228184811771, -0.029360082000494003, -0.018953891471028328, -0.024653781205415726, 0.02121693082153797, -0.02831220254302025, 0.00926837045699358, -0.019701259210705757, -0.005080122966319323, 0.02431369014084339, -0.016175925731658936, 0.013387945480644703, 0.02759578265249729, -0.018081355839967728, 0.016826746985316277, 0.0023404685780406, 0.015715118497610092, -0.027836531400680542, -0.021405061706900597, 0.015839368104934692, -0.012581804767251015, -0.0012401135172694921, 0.03830370306968689, 0.018086882308125496, 0.009081704542040825, 0.029272988438606262, -0.017168372869491577, 0.01291187759488821, -0.017834985628724098, 0.014901205897331238, -0.03954552859067917, -0.013253379613161087, -0.03355134278535843, -0.0374084897339344, -0.010859410278499126, 0.008184983395040035, 0.008475059643387794, 0.009828871116042137, -0.02979116700589657, 0.013024402782320976, -0.014033177867531776, 0.00796552374958992, -0.03934966027736664, -0.0273490808904171, -0.03430798277258873, -0.005929854698479176, 0.007243910804390907, -0.0298645980656147, 0.02070033550262451, -0.023472296074032784, 0.014919617213308811, -0.015510321594774723, -0.0048266807571053505, -0.002151013817638159, -0.021933333948254585, 0.028129268437623978, 0.01762087456882, -0.014895495027303696, -0.039730511605739594, 0.0231566671282053, -0.037690989673137665, 0.016232797876000404, 0.030552539974451065, -0.02450789324939251, -0.015157436020672321, 0.00651615671813488, 0.01820342056453228, 0.01589309796690941, -0.0179404579102993, -0.0015708768041804433, 0.002345630433410406, -0.010999569669365883, -0.009551425464451313, -0.03373561426997185, -0.0022830383386462927, -0.019437728449702263, -0.037274204194545746, 0.0209259781986475, -0.03326140344142914, -0.0034955893643200397, -0.015113016590476036, 0.005340722855180502, -0.006770984269678593, 0.013804043643176556, -0.028756313025951385, 0.008375205099582672, -0.004291284829378128, -0.012805728241801262, -0.03734249249100685, 0.005056042689830065, 0.005206435453146696, -0.03457040339708328, 0.020348407328128815, -0.003011293476447463, 0.028833411633968353, -0.0003977217711508274, 0.0007383818738162518, 0.016407659277319908, 0.0053911516442894936, 0.004996605217456818, -0.013734678737819195, -0.0184119064360857, -0.02338547445833683, -0.019624266773462296, -0.035666655749082565, 0.015309023670852184, -0.008027838543057442, 0.002297839615494013, 0.02799808606505394, -0.023205211386084557, -0.01817149482667446, -0.0027255911845713854, -0.020061127841472626, 0.001614206936210394, -0.008550889790058136, -0.02391616813838482, -0.03858207166194916, 0.03032280132174492, -0.025045858696103096, -0.017052996903657913, 0.025488322600722313, 0.02402862347662449, -0.013159248977899551, 0.017113927751779556, 0.04250042513012886, -0.02114742435514927, -0.011387966573238373, 0.028668100014328957, 0.024132512509822845, -0.0005836026975885034, -0.007246233522891998, -0.017893895506858826, -0.014882965013384819, 0.030430277809500694, -0.00240102456882596, -0.00770927220582962, 0.022139642387628555, -0.028138937428593636, -0.03578265756368637, -0.025780128315091133, -0.03374441713094711, 0.03243280202150345, -0.0011228849180042744, -0.026261093094944954, -0.03191317617893219, -0.020209355279803276, -0.0157033558934927, -0.018954338505864143, -0.04039080813527107, 0.023901989683508873, 0.04000108316540718, -0.015836799517273903, 0.012779670767486095, 0.017400378361344337, -0.02069772779941559, 0.0021798668894916773, -0.03885061293840408, -0.012472795322537422, -0.010674325749278069, 0.025630660355091095, 0.039078447967767715, -0.02158290520310402, 0.017156289890408516, 0.005459175910800695, -0.022826744243502617, -0.025397397577762604, 0.008822598494589329, -0.009003418497741222, 0.012723645195364952, -0.020602429285645485, 0.012181551195681095, -0.022199813276529312, 0.02670239470899105, -0.017690621316432953, 0.027218539267778397, -0.044326841831207275, 0.0034472199622541666, 0.0007378357113339007, -0.025272458791732788, 0.02820836938917637, 0.021029388532042503, 0.03321830555796623, -0.03202279657125473, 0.013076002709567547, -0.025126297026872635, -0.0011811822187155485, -0.015389161184430122, -0.02619285136461258, 0.032275792211294174, 0.022521039471030235, 0.012523658573627472, 0.006009646225720644, 0.011020932346582413, -0.01036948524415493, 0.011261175386607647, 0.010866698808968067, -0.0032332800328731537, 0.0054362984374165535, 0.019920188933610916, -0.019791314378380775, -0.034801069647073746, -0.016394097357988358, 0.01759166270494461, 0.002060981933027506, 0.021288009360432625, -0.030186256393790245, 0.018610209226608276, -0.024831753224134445, 0.03404983878135681, -0.0050887661054730415, -0.008363811299204826, -0.005710718221962452, 0.04552071541547775, 0.016350511461496353, 0.029017124325037003, -0.002906201407313347, 0.004653906915336847, 0.02189389057457447, -0.006121498998254538, 0.027470555156469345, -0.004173203371465206, 0.04114808514714241, 0.005058548413217068, -0.0030439933761954308, -0.0022496329620480537, -0.013078472577035427, 0.028795156627893448, -0.00336908595636487, -0.0070661017671227455, 0.017573004588484764, -0.01988501474261284, -5.34657301614061e-05, -0.0023447168059647083, -0.02872863970696926, -0.035490043461322784, -0.02254270762205124, -0.019044682383537292, 0.02775898203253746, 0.02835894376039505, 0.006771385204046965, -0.009366876445710659, -0.007131529971957207, 0.003742540953680873, 0.03959182649850845, 0.020307384431362152, 0.03452156484127045, -0.001221752492710948, -0.011852501891553402, 0.007345428224653006, 0.030084660276770592, -0.01730102300643921, 0.03880707174539566, -0.02105771191418171, -0.0021316255442798138, 0.029250947758555412, -0.000695638416800648, -0.014726076275110245, -0.025811171159148216, -0.017001498490571976, -0.018760770559310913, -0.03786489740014076, 0.004521580412983894, -0.014670620672404766, -0.026341218501329422, -0.02833425998687744, -0.020109010860323906, 0.04473882541060448, 0.04856517165899277, 0.05765020102262497, 0.03039897046983242, 0.050863783806562424, 0.05691012740135193, 0.012779772281646729, -0.018461640924215317, 0.009203530848026276, -0.006039407569915056, 0.010975341312587261, -0.02075280249118805, 0.03589566797018051, 0.007567949127405882, 0.01530208345502615, -0.037144556641578674, -0.02327481471002102, 0.0023419582284986973, -0.029597848653793335, -0.02156219258904457, -0.0331837497651577, -0.008147675544023514, 0.02420441247522831, 0.02205802872776985, 0.013301476836204529, -0.039555903524160385, 0.026403021067380905, 0.03436129167675972, -0.00454792520031333, 0.02278742380440235, 0.046081867069005966, 0.05569182708859444, 0.062452033162117004, 0.003461900632828474, -0.04245414957404137, -0.0018895039102062583, -0.009456098079681396, -0.03496405854821205, -0.0008467329316772521, -0.03200451657176018, 0.007317809853702784, -0.013574586249887943, -0.03839036822319031, -0.038706038147211075, -0.03558586165308952, -0.037342619150877, 0.015561889857053757, 0.026651112362742424, 0.028982779011130333, -0.009292133152484894, -0.012535911053419113, -0.0291423462331295, -0.03169878199696541, 0.022495470941066742, 0.02150692604482174, 0.03511446341872215, 0.01766189932823181, 0.032165076583623886, 0.01813494600355625, 0.06588802486658096, -0.007350329775363207, -0.02514331415295601, -0.023965615779161453, -0.032681580632925034, -0.020267793908715248, -0.034322284162044525, 0.004296150989830494, -0.031741153448820114, 0.010597001761198044, 0.0004876459715887904, -0.037014082074165344, 0.008905438706278801, -0.03758426755666733, -0.009940612129867077, 0.010471003130078316, -0.026595840230584145, -0.020739858970046043, 0.012969202362000942, -0.021389318630099297, 0.01921953447163105, 0.0010699464473873377, 0.02254883199930191, 0.03294146806001663, 0.01139462273567915, 0.024170082062482834, 0.01023684348911047, 0.04056594520807266, 0.05329621583223343, -0.012353692203760147, -0.011121375486254692, 0.017310146242380142, 0.014003769494593143, -0.015083583071827888, 0.028921954333782196, 0.017586950212717056, 0.025602344423532486, -0.012376559898257256, 0.026205560192465782, -0.024663027375936508, -0.03210756927728653, 0.02268218994140625, -0.023429717868566513, -0.005435188766568899, -0.023608215153217316, 0.015301448293030262, 0.02919202856719494, -0.028207294642925262, -0.02738298662006855, 0.005883352365344763, 0.010991798713803291, -0.008212484419345856, -0.004355904180556536, 0.03298237547278404, 0.017631543800234795, -0.010139833204448223, -0.011096383444964886, 0.03408502787351608, 0.008898950181901455, 0.0294499509036541, 0.017705038189888, -0.008167291060090065, 0.021614110097289085, 0.001068593468517065, 0.002625064691528678, -0.019466275349259377, 0.015066998079419136, -0.021338850259780884, -0.016860295087099075, -0.016359800472855568, -0.025467148050665855, -0.0167424026876688, 0.026185167953372, -0.020669830963015556, -0.023063426837325096, 0.017056182026863098, 0.03376967832446098, -0.0014305190416052938, 0.030792882665991783, 0.02535185217857361, 0.050536878407001495, 0.027091026306152344, 0.03469203785061836, 0.03294668346643448, 0.0028781781438738108, 0.017998240888118744, 0.010913589969277382, 0.030054518952965736, 0.017223376780748367, -0.02788078598678112, 0.030332183465361595, -0.018800439313054085, -0.001411182340234518, -0.022989554330706596, -0.037136826664209366, 0.02876400202512741, -0.026501130312681198, -0.014618732035160065, 0.00200394494459033, -0.025268610566854477, 0.003084723837673664, 0.032393477857112885, 0.01094810850918293, -0.017874903976917267, 0.017056919634342194, 0.038116004317998886, -0.007978895679116249, 0.016153577715158463, 0.00349056045524776, -0.01657344587147236, -0.00907744187861681, 0.019221419468522072, 0.024294791743159294, 0.038075000047683716, -0.00043209109571762383, 0.008084233850240707, 0.018012478947639465, 0.016540860757231712, 0.009972349740564823, -0.012101944535970688, -0.02043944224715233, 0.03273696079850197, -0.03749370202422142, -0.0010171979665756226, 0.0067578209564089775, 0.0152743486687541, -0.019687078893184662, -0.008788833394646645, -0.01347396895289421, -0.011644666083157063, 0.0252414308488369, 0.00713230948895216, -0.021610494703054428, 0.032097384333610535, 0.02506146766245365, 0.03212180361151695, -0.01779366284608841, 0.00403594272211194, 0.022050125524401665, 0.022693142294883728, -0.00028743184520862997, 0.026599586009979248, 0.030568815767765045, 0.012632775120437145, 0.005647129844874144, 0.012584286741912365, 0.01589518040418625, -0.007476150989532471, -0.027695992961525917, 0.024135760962963104, -0.030147317796945572, -0.034296371042728424, -0.017054595053195953, -0.012507801875472069, -0.001557229901663959, 0.015035058371722698, -0.021810682490468025, -0.0013181021204218268, -0.002416760427877307, -0.026163863018155098, -0.00953302439302206, -0.015079787001013756, 0.021028239279985428, 0.006015397142618895, -0.008354567922651768, 0.02816062606871128, -0.002155078575015068, -0.012828073464334011, 0.04271440953016281, 0.005218221805989742, -0.012929639779031277, 0.027628961950540543, -0.021669063717126846, 0.02792636677622795, 0.020995333790779114, 0.009000851772725582, -0.02573288232088089, 0.024341870099306107, 0.004286544863134623, 0.030374564230442047, -0.022554930299520493, 0.025502964854240417, 0.017993208020925522, -0.032429639250040054, 0.028823593631386757, 0.014118886552751064, -0.030703017488121986, -0.004086770582944155, 0.00011857374920509756, 0.027836859226226807, 0.02199696935713291, -0.005741320550441742, 0.019165055826306343, 0.03427894413471222, -0.0025023184716701508, 0.026454996317625046, 0.011340074241161346, 0.013181612826883793, 0.043834712356328964, -0.019566483795642853, -0.017970822751522064, 0.006510930601507425, -0.03842126950621605, -0.004831499420106411, -0.03410004824399948, -0.005958144553005695, 0.025827383622527122, 0.0151838269084692, -0.030836865305900574, 0.020308099687099457, -0.03625771403312683, -0.005072828382253647, -0.007997481152415276, -0.01774805225431919, -0.023777855560183525, -0.03834781423211098, -0.04184772074222565, -0.0398385152220726, -0.02937130443751812, -0.046276941895484924, 0.017652545124292374, -0.0006193993613123894, 0.023173905909061432, 0.013263171538710594, 0.004799763206392527, -0.02452433854341507, -0.005488063208758831, 0.01309585478156805, -0.013098028488457203, 0.013644682243466377, 0.0038776255678385496, 0.00504331523552537, -0.01272483728826046, -0.008304251357913017, 0.010140021331608295, -0.009421250782907009, -0.007844778709113598, -0.03817449510097504, -0.018269140273332596, -0.025506703183054924, 0.030244823545217514, 2.85113765130518e-05, 0.027423454448580742, -0.009091120213270187, -0.035378191620111465, -0.0014775110175833106, -0.028522634878754616, -0.0027240533381700516, -0.03627790883183479, -0.03927295655012131, -0.0009838130790740252, 0.012484429404139519, -0.026451220735907555, -0.015049722045660019, -0.01936976984143257, 0.008392266929149628, -0.0279228612780571, -0.04238520562648773, 0.0031367915216833353, -0.030353443697094917, 0.02290053851902485, 0.01819346472620964, 0.0002503157302271575, -0.02780037559568882, 0.016925353556871414, -0.014009018428623676, 0.022475818172097206, -0.003831468988209963, 0.004219412337988615, 0.02826922945678234, -0.03903905674815178, -0.012703627347946167, -0.026343384757637978, 0.02200094796717167, 0.011896028183400631, -0.004354399163275957, -0.024900898337364197, -0.018527891486883163, -0.03992592170834541, -0.016931453719735146, -0.01488224882632494, 0.01712469942867756, -0.041897598654031754, -0.005014047492295504, 0.00831352174282074, -0.03898722305893898, -0.004222782328724861, -0.002815810265019536, -0.03487282618880272, 0.001682570669800043, -0.03808550536632538, -0.036804307252168655, 0.017025452107191086, 0.01773526519536972, 0.012184342369437218, -0.005079964641481638, -0.026960929855704308, -0.022728009149432182, 0.019858457148075104, 0.008786151185631752, 0.02415389195084572, -0.013368257321417332, -0.02453957311809063, -0.005890416447073221, 0.013599595054984093, -0.02660507708787918, -0.03537008538842201, 0.011312542483210564, -0.020975058898329735, -0.007829451002180576, -0.02975006215274334, -0.007971616461873055, 0.010499014519155025, -0.009710264392197132, 0.027182456105947495, 0.02524760738015175, -0.034243807196617126, 0.01718703657388687, -0.03246013820171356, -0.025211740285158157, -0.026738381013274193, -0.03275411203503609], [-0.014931499026715755, -0.019926462322473526, 0.03623885661363602, -0.019189072772860527, -0.0266431737691164, -0.023488890379667282, 0.029849518090486526, 0.03246418386697769, -0.020069723948836327, 0.025072487071156502, -0.031114425510168076, 0.008762804791331291, -0.027158383280038834, -0.007107306271791458, -0.007650615181773901, 0.03134097158908844, -0.005534806288778782, 0.013927948661148548, -0.03266459330916405, 0.014585361815989017, 0.008577178232371807, 0.019168585538864136, -0.011257842183113098, 0.022993870079517365, -0.021070074290037155, -0.02297121472656727, 0.030944909900426865, 0.012248257175087929, -0.026919012889266014, -0.016155263409018517, 0.01445486769080162, 0.03404660522937775, -0.013785540126264095, 0.018128545954823494, 0.005523042753338814, -0.012124691158533096, -0.027047373354434967, -0.01500312052667141, -0.027096133679151535, 0.014794849790632725, 0.010457864962518215, 0.006278189830482006, -0.007606937550008297, 0.00955296866595745, -0.02194385416805744, 0.0012571316910907626, -0.03337552025914192, 0.0024722348898649216, -0.02740362659096718, -0.024265456944704056, 0.009509093128144741, 0.03436046093702316, -0.006604799535125494, 0.0018738111248239875, 0.03186541423201561, -0.028428373858332634, -0.009191802702844143, 0.03364149108529091, -0.027196960523724556, 0.0004128734872210771, 0.022584037855267525, 0.01835428737103939, -0.0025491523556411266, -0.006059665698558092, 0.030739519745111465, -0.01905752345919609, -0.010401156730949879, 0.006337354891002178, 0.022471880540251732, 0.012477134354412556, -0.015305745415389538, -0.03353140875697136, 0.02141651138663292, -0.004973272792994976, -0.031197115778923035, 0.004972927272319794, 0.004450010601431131, 0.01661810278892517, 0.011168638244271278, 0.011343454010784626, 0.0036558506544679403, -0.02778712846338749, -0.013327671214938164, -0.03130665794014931, 0.006059105973690748, -0.023271197453141212, -0.031241247430443764, 0.0248429998755455, 0.024453043937683105, -0.008500616997480392, -0.02591426484286785, 0.024580093100667, 0.008944518864154816, 0.02019747532904148, 0.002208008198067546, -0.010570489801466465, 0.0211305171251297, 0.017247483134269714, 0.03295963630080223, -0.02699355036020279, 0.015891393646597862, 0.0043604206293821335, 0.01797647960484028, 0.01987648755311966, 0.013166049495339394, -0.008371665142476559, -0.002615198493003845, -0.008876343257725239, -0.01719176024198532, 0.011226707138121128, -0.024683412164449692, -0.033619560301303864, 0.03595516458153725, 0.031187035143375397, -0.03197925537824631, 0.0353039912879467, 0.002041897736489773, 0.024156976491212845, 0.018290912732481956, -0.02470000460743904, -0.0061902632005512714, -0.012949315831065178, -0.024361958727240562, -0.027074912562966347, 0.028972560539841652, 0.0006977381417527795, 0.026845337823033333, 0.01707758568227291, 0.02616153657436371, -0.009395340457558632, -0.03201257809996605, 0.03609532117843628, 0.028844153508543968, -0.015341686084866524, 0.0322837308049202, -0.029437728226184845, 0.0007970792357809842, 0.008674091659486294, -0.0014961590059101582, 0.021061304956674576, 0.00035676173865795135, 0.022832117974758148, 0.01011183112859726, -0.024446753785014153, 0.031327538192272186, -0.020279936492443085, -0.009855671785771847, 0.007823021151125431, 0.019222036004066467, 0.008464241400361061, 1.4736258890479803e-05, -0.009058563970029354, -0.03872569650411606, -0.007273791823536158, -0.03824114426970482, -0.04038583114743233, -0.009412853978574276, -0.03221776708960533, -0.00540454126894474, -0.01777372695505619, 0.0020319593604654074, 0.013467267155647278, 0.029000481590628624, -0.027415597811341286, 0.0062505449168384075, 0.022277234122157097, -0.028021235018968582, 0.012825468555092812, 0.02200360782444477, -0.032967884093523026, -0.007761175744235516, 0.004415059462189674, 0.014621655456721783, 0.011223885230720043, 0.017986489459872246, 0.013656026683747768, -0.020397594198584557, -0.013227179646492004, 0.02220909856259823, 0.020923882722854614, -0.0007190275355242193, -0.03148553892970085, -0.028522567823529243, 0.028577538207173347, 0.0099668949842453, 0.023192428052425385, -0.005211505573242903, -0.027566220611333847, 0.016853976994752884, -0.007188018411397934, -0.029181132093071938, 0.033080004155635834, -0.011166537180542946, -0.0062213740311563015, 0.00033469166373834014, 0.020826926454901695, 0.0072338576428592205, -0.02290690317749977, -0.030116049572825432, 0.034878287464380264, -0.008605102077126503, -0.029952459037303925, 0.03278541937470436, 0.014513680711388588, -0.03805641457438469, -0.030248062685132027, -0.013761006295681, -0.03749462217092514, 0.01797224022448063, 0.008075949735939503, 0.027965646237134933, 0.015081959776580334, -0.008708679117262363, 0.015364736318588257, 0.005457017105072737, 0.0004688891931436956, -0.02799048461019993, 0.01396139245480299, -0.006841100752353668, -0.029850423336029053, 0.015730300918221474, 0.023642919957637787, 0.037287406623363495, -0.030622655525803566, 0.02871748059988022, 0.023713359609246254, 0.02175993286073208, 0.026076819747686386, 0.030158327892422676, 0.009773291647434235, -0.016649194061756134, -0.027603082358837128, -0.029394669458270073, 0.00045584075269289315, -0.028741346672177315, -0.02106362208724022, -0.03060239367187023, 0.009365856647491455, -2.6940893803839572e-05, -0.033670809119939804, 0.006463183090090752, -0.019254857674241066, 0.020577916875481606, -0.03238433226943016, -0.02387758158147335, -0.027929728850722313, -0.031027089804410934, 0.03740592673420906, 0.03646748885512352, -0.02706528641283512, 0.017639750614762306, -0.015873825177550316, 0.00675824424251914, 0.02488514594733715, 0.0038983284030109644, -0.00443187914788723, 0.018802108243107796, 0.009675784967839718, -0.0027322403620928526, 0.007226760499179363, 0.017330529168248177, -0.03968513384461403, 0.02299603819847107, 0.005232791416347027, 0.007169282529503107, 0.027825484052300453, 0.001830431167036295, 0.011751141399145126, 0.0037070298567414284, 0.01668989285826683, 0.007361452095210552, -0.01580338180065155, -0.010339864529669285, -0.029192794114351273, 0.013102580793201923, 0.02438385970890522, -0.030345574021339417, 0.0319925956428051, -0.03049357421696186, -0.01621238887310028, -0.005013140384107828, 0.03352457657456398, 0.018277376890182495, 0.032723359763622284, -0.008787635713815689, 0.017094401642680168, 0.002623519627377391, -0.0269160196185112, -0.02298719808459282, 0.014040677808225155, -0.03757554665207863, -0.0008596430416218936, -0.0129367895424366, -0.008736779913306236, -0.037831030786037445, -0.03532189875841141, 0.015763990581035614, -0.011510580778121948, -0.014325089752674103, 0.015448762103915215, 0.020420566201210022, 0.002629769966006279, 0.021569812670350075, -0.020209316164255142, 0.008543255738914013, 0.027767451480031013, 0.014058866538107395, -0.00739743048325181, -0.0279440488666296, 0.030096597969532013, -0.013437536545097828, -0.015081245452165604, 0.0161873959004879, -0.012121913954615593, -0.005299645476043224, -0.015764610841870308, -0.014493443071842194, -0.01297812070697546, -0.007063102442771196, -0.03106513060629368, -0.009998676367104053, -0.029068173840641975, -0.044524163007736206, 0.013132238760590553, 0.006599565036594868, 0.02392427995800972, 0.008638938888907433, 0.032781828194856644, -0.02980836294591427, 0.011047493666410446, -0.02916073240339756, 0.001710859825834632, -0.015385322272777557, 0.027614757418632507, -0.01084387581795454, 0.029377903789281845, -0.03277285024523735, -0.008329594507813454, 0.0279417484998703, 0.028836403042078018, 0.024609189480543137, 0.02498304471373558, -0.010819360613822937, 0.020014259964227676, 0.02238496206700802, 0.021699482575058937, -0.006950742099434137, -0.009750587865710258, 0.001723863766528666, -0.04294368624687195, -0.03454900160431862, 0.007643432356417179, 0.008409825153648853, -0.0048764352686703205, 0.007266679313033819, 0.0029785933438688517, -0.013339960016310215, -0.0012808800674974918, -0.012749147601425648, 0.0015888880006968975, -0.03233832120895386, 0.008062702603638172, 0.02623085305094719, 0.025402219966053963, 0.0019254714716225863, -0.02376708574593067, -0.012604801915585995, 0.027449455112218857, -0.020830368623137474, 0.0025930628180503845, -0.03772616386413574, -0.018641270697116852, 0.03127509728074074, 0.020198138430714607, 0.02538670413196087, -0.019811756908893585, -0.0006403219304047525, -0.04166940972208977, 0.01488215196877718, -0.02549890987575054, -0.02708805911242962, -0.033144839107990265, 0.009011613205075264, 0.02558915689587593, -0.0044615608640015125, -0.00013495019811671227, -0.0169085543602705, 0.006255935877561569, -0.023107778280973434, 0.022697964683175087, 0.034565217792987823, -0.0002598461287561804, 0.01665833592414856, -0.03292001411318779, -0.019887207075953484, -0.0011223257752135396, -0.002856594743207097, 0.001233450137078762, 0.0072306497022509575, -0.017015988007187843, 0.0009194255108013749, 0.0044196355156600475, 0.030183756723999977, -0.036430541425943375, 0.01242383848875761, 0.007649843115359545, 0.006805868819355965, 0.030991822481155396, -0.0394829697906971, -0.036652036011219025, 0.013641168363392353, -0.01338261179625988, 0.019022781401872635, -0.029699942097067833, -0.012284154072403908, 0.03053387813270092, 0.024988166987895966, 0.025131594389677048, -0.005136670544743538, -0.007290591020137072, -0.013368011452257633, -0.004125815350562334, -0.018170475959777832, -0.022030921652913094, 0.03606298938393593, -0.0105467289686203, 0.01512834057211876, -0.009102251380681992, -0.001946931821294129, 0.013655271381139755, -0.011784357018768787, 0.019175756722688675, 0.003869403852149844, -0.032203514128923416, -0.02758014388382435, -0.001644393429160118, -0.027217155322432518, 0.012777264229953289, 0.0036127984058111906, 0.015688490122556686, 0.036143455654382706, 0.008860091678798199, -0.014176029711961746, -0.00284001138061285, -0.026962947100400925, -0.004911447409540415, -0.02385415881872177, 0.0050156693905591965, 0.02702261134982109, 0.027511227875947952, -0.00843647588044405, -0.02659600041806698, 0.020798325538635254, -0.03186091035604477, -0.023670686408877373, -0.018945520743727684, -0.024585727602243423, -0.03071761503815651, -0.020486151799559593, 0.017724113538861275, -0.011440715752542019, -0.002339834114536643, 0.03370039537549019, -0.01880483143031597, -0.0038702634628862143, -0.011298603378236294, -0.00830348301678896, -0.009140013717114925, -0.002600547391921282, 0.033132392913103104, 0.0019235786749050021, 0.016659032553434372, -0.035450279712677, 0.02586630918085575, -0.009852712973952293, -0.027686769142746925, 0.009512512013316154, 0.020341593772172928, 0.010563475079834461, -0.02365599200129509, -0.029148662462830544, 0.02585115283727646, -0.004615184385329485, -0.013537279330193996, -0.009195994585752487, -0.033627718687057495, -0.04321626201272011, 0.003447706578299403, 0.018617503345012665, 0.01844066008925438, -0.0036235011648386717, 0.019544463604688644, -0.029684357345104218, -0.02888663113117218, 0.008110149763524532, 0.02314392663538456, 0.025084996595978737, 0.00037979931221343577, -0.011150994338095188, 0.002371366834267974, 0.004034477286040783, 0.039216298609972, -0.002995047951117158, 0.01915239728987217, 0.015143250115215778, 0.008847234770655632, -0.02412710338830948, 0.007815896533429623, 0.025141865015029907, -0.02957436814904213, 0.0006715990602970123, -0.025494003668427467, -0.022742440924048424, 0.012058241292834282, -0.027330679818987846, -0.029580414295196533, -0.03441969305276871, 0.005888976622372866, 0.007524440530687571, -0.007984135299921036, 0.027161791920661926, 0.02653656341135502, -0.024426057934761047, -0.004986219573765993, 0.017541641369462013, 0.028325192630290985, 0.007022427394986153, 0.01814638450741768, 0.033468764275312424, -0.014712218195199966, -0.0050764684565365314, -0.0032164675649255514, 0.020030884072184563, -0.029544195160269737, 0.03518768399953842, 0.015938691794872284, -0.008272278122603893, 0.03374507650732994, -0.0031869253143668175, 0.005354545544832945, 0.026178212836384773, -0.04159175977110863, -0.04001463204622269, -0.004105306696146727, -0.011695781722664833, -0.01981082372367382, 0.024320736527442932, 0.013212154619395733, 0.007781844586133957, -0.01662650890648365, 0.017658649012446404, 0.006870970129966736, -0.03897998481988907, 0.026201842352747917, -0.024197176098823547, -0.02050698734819889, 0.035643789917230606, 0.028865192085504532, 0.023095013573765755, 0.03204345703125, 0.02816355787217617, -0.00967512559145689, 0.00969565100967884, -0.015202834270894527, 0.008977347984910011, -0.02168750762939453, 0.011928356252610683, 0.0032532685436308384, 0.007421697955578566, -0.009187733754515648, 0.023657767102122307, -0.035495925694704056, -0.002402779646217823, 0.03702715411782265, 0.018213067203760147, 0.012187552638351917, -0.02741817943751812, -0.03667745739221573, -0.006728305481374264, -0.0301887895911932, -0.0004983373219147325, -0.008806298486888409, -0.02032696083188057, 0.020305590704083443, -0.01749519072473049, -0.012388581410050392, 0.02811669372022152, -0.004554412793368101, -0.021290551871061325, -0.020899368450045586, 0.009649733081459999, 0.0012750283349305391, 0.027336502447724342, 0.028320133686065674, -0.025619544088840485, 0.014840648509562016, 0.0017210023943334818, 0.024989452213048935, 0.024309687316417694, -0.007896345108747482, -0.03985552489757538, 0.017612524330615997, -0.022751102223992348, -0.018153084442019463, -0.03192349523305893, -0.009970876388251781, -0.029096659272909164, 0.005941228941082954, -0.03356724604964256, 0.03474440798163414, -0.006777598522603512, 0.03759279102087021, 0.012853491120040417, -0.0013253225479274988, 0.0192714836448431, 0.03590007871389389, -0.016808273270726204, -0.01910981722176075, -0.007192925084382296, -0.012059695087373257, 0.02280118688941002, -0.011342634446918964, 0.026451515033841133, 0.025880785658955574, -0.01447858102619648, -0.01017221249639988, -0.029238412156701088, -0.034361910074949265, -0.04253428056836128, -0.018297139555215836, -0.010520214214920998, -0.014027914963662624, -0.023478282615542412, -0.028589541092514992, 0.03172440081834793, 0.015232423320412636, 0.005301780998706818, -0.024505870416760445, 0.010327466763556004, 0.028004886582493782, 0.007773310877382755, 0.020550986751914024, 0.0344192199409008, -0.027177391573786736, 0.017950590699911118, -0.012080484069883823, 0.03419603034853935, -0.03351105377078056, 0.01844581961631775, 0.018514063209295273, 0.02830425836145878, 0.014393680728971958, 0.03222675621509552, 0.0386948361992836, -0.018085118383169174, -0.010255420580506325, 0.00911423284560442, -0.015348223969340324, 0.022013669833540916, -0.024347994476556778, -0.035402774810791016, -0.007130682002753019, -0.013924782164394855, 0.03443339094519615, -0.01714589260518551, -0.006235058419406414, -0.03171822428703308, -0.014165729284286499, 0.02289142645895481, -0.025724638253450394, -3.823015049420064e-06, -0.004656434059143066, -0.02793305180966854, 0.016476016491651535, -0.021192191168665886, -0.015094890259206295, 0.01789407804608345, -0.03044079802930355, -0.002224166877567768, -0.002175470581278205, 0.023740828037261963, -0.01864178106188774, 0.006086622830480337, 0.021451614797115326, 0.025105616077780724, -0.022651297971606255, 0.018536850810050964, -0.009949042461812496, 0.025099115446209908, 0.035519231110811234, 0.0011472288751974702, -0.02377079613506794, 0.004509446676820517, 0.013680340722203255, 0.009952250868082047, -0.028489261865615845, -0.013246665708720684, 0.00738349137827754, -0.02117801643908024, -0.0063354820013046265, 0.021579714491963387, 0.007056496571749449, 0.031263820827007294, -0.024986255913972855, -0.016226131469011307, -0.0021592415869235992, -0.025804953649640083, -0.025784313678741455, -0.0313689224421978, 0.006495866924524307, -0.025705978274345398, 0.010581075213849545, -0.01886601932346821, -0.0065464298240840435, 0.029486389830708504, 0.027054397389292717, -0.025634756311774254, -0.014659514650702477, 0.01579747535288334, -0.02727343887090683, 0.007543851621448994, -0.0046748449094593525, 0.018848365172743797, -0.01033006701618433, -0.028730247169733047, 0.027456436306238174, -0.01816578581929207, -0.012129857204854488, -0.025713663548231125, -0.02953372709453106, -0.015684008598327637, -0.030679399147629738, 0.017097191885113716, 0.02503320202231407, 0.033785853534936905, 0.021767891943454742, 0.001230886671692133, 0.035757917910814285, 0.021347109228372574, 0.001907343976199627, -0.028601782396435738, 0.01627608761191368, -0.023844197392463684, -0.024911725893616676, 0.029403656721115112, 0.007974495179951191, 0.013873147778213024, 0.03246711567044258, -0.03364350646734238, -0.0005150533397682011, 0.03181861713528633, 0.0286902766674757, -0.021527845412492752, 0.024272406473755836, -0.007044405210763216, -0.03299953415989876, 0.001408951822668314, -0.0223831869661808, -0.016565188765525818, -0.013489603996276855, 0.025518732145428658, -0.029344255104660988, 0.020065773278474808, -0.022695686668157578, -0.0012068388750776649, 0.005709692370146513, 0.0004581359098665416, 0.007400697562843561, -0.02691405452787876, 0.013563470914959908, -0.0025812475942075253, 0.004761280957609415, -0.006078622303903103, -0.004462072160094976, -0.012110495939850807, 0.017772767692804337, 0.002519428264349699, 0.03170979022979736, -0.012134188786149025, 0.024327673017978668, 0.03658120334148407, 0.0264736395329237, -0.009210444986820221, -0.00015175824228208512], [0.012123686261475086, 0.03049539588391781, 0.03275743126869202, -0.02891402877867222, 0.007285379804670811, -0.01829923316836357, -0.016397513449192047, -0.00333639164455235, -0.03420841693878174, -0.014602495357394218, 0.015884194523096085, 0.03455035760998726, -0.03555253893136978, -0.015047215856611729, 0.03425831347703934, -0.0003354141372255981, 0.016889236867427826, -0.012626035138964653, -0.035502493381500244, 0.010595940053462982, 0.007630712818354368, -0.009750205092132092, -0.014989004470407963, -0.021957959979772568, 0.03267887979745865, 0.014646343886852264, -0.02915177494287491, 0.01631472073495388, 0.0010281573049724102, -0.03283283859491348, -0.014873442240059376, 0.00780472019687295, 0.0350789949297905, 0.01372447144240141, 0.011778291314840317, 0.003920762799680233, -0.004544114228338003, 0.02673567831516266, -0.005070543847978115, 0.0324128232896328, -0.01430250983685255, 0.016615130007267, -0.006665532011538744, -0.005553737748414278, 0.0016254812944680452, -0.01768648996949196, 0.024205561727285385, -0.009517594240605831, -0.005952809471637011, -0.02742653340101242, 0.03299552574753761, 0.02121705934405327, -0.016122890636324883, 0.03388303518295288, -0.008369628340005875, 0.01417052187025547, -0.000842952576931566, 0.028742697089910507, 0.009960191324353218, 0.010882318951189518, 0.0291812252253294, -0.026834815740585327, 0.02613186649978161, -0.0020393612794578075, 0.0007286831387318671, -0.0281184371560812, -0.02313585951924324, 0.011195635423064232, 0.008496291004121304, -0.00408224668353796, 0.01887996308505535, 0.0012548627564683557, -0.004620759282261133, 0.03317425400018692, -0.03355657681822777, -0.01927357167005539, -0.033393606543540955, -0.017809724435210228, -0.022598834708333015, -0.0287568811327219, -0.006454090122133493, -0.026795238256454468, 0.020445412024855614, -0.009351079352200031, -0.014815226197242737, -0.008692695759236813, 0.030269185081124306, 0.00997435674071312, -0.015982385724782944, 0.009397563524544239, 0.012536564841866493, -0.010442987084388733, -0.009371014311909676, 0.015525590628385544, 0.00337987020611763, -0.0318734236061573, 0.017968323081731796, -0.010950122959911823, 6.404647137969732e-05, 0.02165832743048668, 0.030774740502238274, -0.027457285672426224, -0.02121691405773163, 0.014018595218658447, 0.009542077779769897, -0.02929450012743473, -0.005765377543866634, 0.011217319406569004, 0.009511559270322323, 0.006566548254340887, -0.0007636015070602298, 0.011159011162817478, -0.012520547024905682, 0.020290471613407135, -0.009222698397934437, -0.01833098568022251, -0.030519472435116768, -0.008793912827968597, -0.021870654076337814, 0.025874044746160507, 0.01278601586818695, -0.005481126252561808, 0.026441659778356552, 0.007213499862700701, -0.0028676518704742193, -0.014114446006715298, -0.02169162593781948, -0.01677955687046051, -0.021895939484238625, 0.009164661169052124, -0.01997595839202404, 0.03151516243815422, -0.0032833025325089693, 0.033162061125040054, -0.0019242826383560896, 0.016561105847358704, 0.00829304289072752, 0.009174419566988945, 0.006329075433313847, -0.02125447429716587, -0.019552338868379593, -0.000603534746915102, -0.026251694187521935, 0.030345646664500237, 0.003236237447708845, -0.027687495574355125, -0.018519524484872818, -0.004452319350093603, -0.011338705196976662, -0.003019188065081835, 0.010473216883838177, 0.00011297166929580271, -0.03239867091178894, 0.0236899945884943, 0.0035270024091005325, 0.027443600818514824, -0.0018411792116239667, -0.012552733533084393, -0.02151983417570591, 0.01095681544393301, 0.013286382891237736, 0.00522674061357975, -0.023241577669978142, -0.0023281732574105263, -0.029292311519384384, 0.012901056557893753, -0.015546233393251896, -0.0034211028832942247, -0.019916335120797157, 0.02428756281733513, -0.02705559879541397, -0.0027176805306226015, 0.02345205284655094, -0.014226946979761124, 0.016513479873538017, 0.002650548703968525, -0.026296548545360565, 0.010195338167250156, -0.0013144129188731313, -0.013140588998794556, -0.02343619614839554, -0.013014322146773338, -0.0145392045378685, -0.008308771066367626, -0.009186812676489353, -0.014980698004364967, 0.022407827898859978, 0.012149278074502945, 0.03384339064359665, 0.00608594948425889, 0.029881596565246582, 0.026889311149716377, -0.027626167982816696, -0.019864168018102646, 0.015208479017019272, 0.026840291917324066, 0.015874477103352547, -0.007509148214012384, 0.02076585963368416, -0.002678151009604335, 0.03413189575076103, 0.00517540005967021, 0.009315635077655315, 0.017934143543243408, -0.0042518125846982, -0.024372337386012077, 0.02907220646739006, 0.023755913600325584, 0.025403907522559166, -0.028961481526494026, -0.005778621882200241, 0.038703709840774536, -0.007994716987013817, 0.012229307554662228, 0.030226003378629684, 0.004801558330655098, 0.027166038751602173, 0.00736949872225523, 0.008945797570049763, 0.006725231185555458, -0.01999206654727459, -0.009287036024034023, -0.03167293965816498, 0.02450723573565483, 0.009122227318584919, 0.010014322586357594, 0.029077643528580666, 0.017651168629527092, -0.030664226040244102, -0.013111665844917297, -0.02175281196832657, 0.01927887834608555, -0.04002658650279045, -0.03384725749492645, 0.028990749269723892, 0.012085587717592716, -0.016505787149071693, 0.0390806682407856, -0.02725299447774887, -0.012103614397346973, -0.0126070287078619, 0.01975036785006523, -0.005760239437222481, -0.012084613554179668, 0.015808256343007088, 0.023653212934732437, 0.01646415889263153, 0.010315260849893093, 0.03814230486750603, 0.017904022708535194, -0.02454029582440853, -0.0009761206456460059, -0.03488559648394585, 0.032703034579753876, 0.00160804926417768, -0.029387217015028, 0.01973775587975979, -0.0018726415000855923, -0.03150391951203346, 0.0006849465426057577, -0.021120373159646988, -0.013859903439879417, -0.008083924651145935, 0.039117563515901566, -0.010979405604302883, -0.02786298096179962, 0.015560196712613106, 0.01008701790124178, 0.011859007179737091, -0.015374163165688515, 0.028564386069774628, -0.0387955866754055, 0.027672160416841507, -0.029655300080776215, -0.029140138998627663, -2.5205779820680618e-05, 0.016438690945506096, 0.01856370083987713, 0.027142692357301712, 0.027105387300252914, -0.021386414766311646, -0.02034515142440796, -0.027415456250309944, 0.011371917091310024, 0.004979564808309078, -0.03231077268719673, -0.004860688000917435, -0.014116712845861912, -0.00822300836443901, -0.017806150019168854, -0.0008186718914657831, 0.03896172717213631, 1.3814854355587158e-05, 0.03166817128658295, 0.004643662832677364, -0.027577267959713936, -0.03308306634426117, -0.010916908271610737, 0.01992333121597767, -0.007026333827525377, -0.02318704128265381, -0.017101474106311798, 0.012343443930149078, -0.016931721940636635, 0.01800737902522087, -0.025513462722301483, -0.003414333797991276, -0.01284010149538517, 0.024995964020490646, -0.009343080222606659, -0.024553144350647926, 0.027801284566521645, -0.007158258464187384, 0.025011107325553894, 0.011170032434165478, 0.00712678162381053, -0.014445140957832336, -0.03514537960290909, 0.03438032045960426, 0.03938541188836098, -0.011262927204370499, 0.01753566414117813, 0.014190464280545712, -0.01684676669538021, 0.010128661058843136, 0.011427978053689003, -0.0301718320697546, 0.024829110130667686, -0.00822395272552967, 0.017962412908673286, -0.033130619674921036, -0.026330865919589996, -0.018498586490750313, 0.007880330085754395, 0.024863343685865402, -0.009775412268936634, 0.010903741233050823, -0.01802358403801918, -0.010350328870117664, -0.011384209617972374, 0.012402227148413658, 0.030052782967686653, -0.03409634530544281, -0.011107061058282852, -0.0027343076653778553, -0.03067709505558014, -0.01731416955590248, 0.03595583140850067, -0.027679961174726486, 0.0017500336980447173, -0.03399498015642166, 0.0010379856685176492, 0.006995011121034622, -0.028355378657579422, 0.009158539585769176, -0.014460915699601173, -0.006172120571136475, -0.03535725176334381, -0.016520103439688683, 0.008445839397609234, -0.03579317033290863, -0.011275123804807663, -0.011621842160820961, -0.028144370764493942, 0.033210378140211105, 0.030790843069553375, -0.015299797989428043, -0.008068999275565147, 0.03444451466202736, -0.01509675569832325, -0.026101129129529, -0.029351990669965744, 0.02469875104725361, 0.02479366958141327, 0.030262675136327744, -0.03271520882844925, 0.03421477973461151, 0.026466859504580498, -0.034877147525548935, 0.030072247609496117, 0.01725788787007332, -0.03373575955629349, 0.00163421465549618, -0.02406996116042137, 0.004126797895878553, 0.018049046397209167, -0.008917336352169514, -0.0367509163916111, 0.02364998497068882, 0.007790761534124613, -0.03554779291152954, -0.0153346573933959, -0.019598353654146194, 0.010981632396578789, -0.020427634939551353, -0.02405061200261116, -0.00667908601462841, -0.028453825041651726, -0.034485530108213425, -0.007467226590961218, -0.012753043323755264, -0.015255340375006199, 0.012460428290069103, -0.002470774808898568, -0.02883918769657612, -0.03598453849554062, 0.02853788062930107, -0.02182675153017044, -0.0002671155089046806, 0.016211770474910736, -0.008759232237935066, -0.02155398391187191, 0.00878645945340395, 0.006529801990836859, 0.012311527505517006, 0.019275538623332977, -0.014387739822268486, -0.0029095299541950226, -0.005658740643411875, 0.005397243890911341, 0.020472034811973572, 0.031422074884176254, 0.009457451291382313, -0.02553372085094452, 0.019872596487402916, -0.004959024488925934, 0.014180117286741734, -0.01882004924118519, -0.01615414395928383, 0.0303481575101614, -0.02948690392076969, 0.02009665220975876, -0.019115418195724487, -0.005636898335069418, 0.0007890094420872629, -0.034150466322898865, -0.017689542844891548, -0.008451128378510475, -0.00854941364377737, 0.019586021080613136, -0.028352923691272736, 0.003328068181872368, 0.01771578937768936, 0.02145353890955448, -0.0060477182269096375, -0.03449627012014389, -0.02666647732257843, -0.03303608298301697, 0.023249732330441475, -0.023484012112021446, 0.0028844336047768593, 0.0017733452841639519, -0.01524328999221325, 0.023144198581576347, -0.004931334406137466, -0.039664529263973236, -0.03310035169124603, 0.02249750681221485, 0.0008427755092270672, 0.01586483046412468, -0.03264731541275978, -4.337602149462327e-06, 0.021894680336117744, -0.01514798030257225, 0.0023226274643093348, -0.00976165197789669, 0.00583696598187089, 0.009183196350932121, 0.015649886801838875, -0.004537955857813358, -0.014576561748981476, 0.00915356632322073, 0.003770919982343912, 0.016984038054943085, 0.02264750562608242, -0.00013707693142350763, -0.020247681066393852, -0.03457734361290932, 0.012627735733985901, 0.014219554141163826, -0.0016606129938736558, 0.010369846597313881, 0.019055575132369995, 0.030545758083462715, -0.009154125116765499, -0.02489316835999489, -0.012659605592489243, 0.016429468989372253, 0.03170054033398628, -0.01261141523718834, -0.002664440544322133, -0.025995947420597076, -0.016922499984502792, 0.013843633234500885, 0.00037868355866521597, -0.03071948140859604, -0.015067516826093197, -0.031198745593428612, -0.0249793641269207, -0.02098209038376808, 0.022715965285897255, -0.01629708707332611, -0.006736141163855791, 0.009360793977975845, 0.003014572197571397, 0.023265695199370384, -0.00026659495779313147, 0.014127028174698353, -0.03155556321144104, -0.015426022000610828, -0.033812910318374634, 0.022133037447929382, -0.03474541753530502, 0.0011060730321332812, -0.014199540950357914, 0.02725427784025669, -0.022166363894939423, 0.029999447986483574, 0.003879525698721409, -0.011927071958780289, 0.03914002329111099, 0.03844131901860237, -0.02638530544936657, 0.0012565313372761011, 0.019969163462519646, -0.008022950030863285, -0.03507601469755173, 0.004737156443297863, -0.03113989345729351, -0.0035907025448977947, 0.02723405882716179, 0.004577664192765951, -0.033138494938611984, -0.029079796746373177, 0.01873895898461342, 0.0090266028419137, -0.026700489223003387, 0.022061310708522797, 0.017964961007237434, -0.013552485033869743, 0.0022078827023506165, 0.011583334766328335, 0.018036458641290665, 0.005470345728099346, 0.02866450697183609, 0.008133726194500923, -0.01920825056731701, 0.017277847975492477, 0.011735212057828903, -0.0219463799148798, 0.028386669233441353, 0.004827334079891443, -0.006151283159852028, -0.02161867916584015, 0.022809118032455444, -0.02840925194323063, -0.003134786384180188, 0.022154254838824272, 0.002544109243899584, -0.007553069852292538, -0.024466929957270622, -0.02988993190228939, 0.033718541264534, 0.02454032562673092, 0.016582027077674866, 0.006449361797422171, -0.01458226889371872, 0.001749575138092041, -0.03297143429517746, 0.02185562066733837, -0.02795165404677391, 0.0008150296052917838, 0.008621854707598686, -0.03245930373668671, 0.017838452011346817, -0.012946012429893017, -0.006707815919071436, -0.02756476402282715, -0.018614232540130615, 0.010313263162970543, 0.02011481113731861, -0.039860066026449203, -0.0009167800890281796, 0.029882896691560745, 0.019386891275644302, 0.03343567997217178, 0.0020573176443576813, -0.02996082231402397, 0.0020623747259378433, -0.022475561127066612, 0.024054380133748055, -0.008800912648439407, -0.010854902677237988, -0.011540851555764675, 0.01962408423423767, -0.033821698278188705, -0.029006294906139374, 0.006706324405968189, 0.007316922303289175, 0.006905515678226948, -0.031062772497534752, -0.027468781918287277, -0.0072271027602255344, -0.03127941116690636, 0.027877552434802055, -0.024412961676716805, 0.012315264903008938, -0.025042198598384857, -0.02799622341990471, 0.021538687869906425, -0.017545383423566818, 0.030466001480817795, -0.009171969257295132, 0.004964278545230627, 0.0069842711091041565, -0.019754426553845406, 0.02841637097299099, -0.033584121614694595, -0.032952237874269485, -0.0013469599653035402, 0.0054012746550142765, 0.009040935896337032, -0.029241066426038742, 0.026751920580863953, 0.008625504560768604, -0.023075537756085396, 0.01943892240524292, -0.00383054930716753, 0.022732285782694817, -0.010796413756906986, 0.011449879966676235, 0.0007198593229986727, -0.025691231712698936, -0.028100106865167618, -0.02151329815387726, -0.012849465943872929, -0.038442421704530716, -0.03772052004933357, -0.036088671535253525, -0.022401003167033195, -0.032457467168569565, -0.03446945920586586, -0.000486752949655056, -0.021431734785437584, 0.01419245358556509, -0.01228425931185484, 0.012337151914834976, -0.004548308439552784, -0.0348481647670269, 0.02297484502196312, -0.01724657230079174, 0.017758794128894806, 0.004889362491667271, 0.010148754343390465, 0.007043424062430859, 0.003516190219670534, -0.023873334750533104, 0.014289532788097858, 0.036062370985746384, 0.032724253833293915, -0.02909540757536888, -0.02449328638613224, 0.01602138765156269, -0.03323279693722725, -0.03606583923101425, 0.008696370758116245, 0.025609837844967842, 0.01758582890033722, 0.007046750281006098, -0.01805005595088005, -0.026089344173669815, -0.0059123169630765915, 0.03075234964489937, 0.016490774229168892, 0.007404977921396494, -0.021204564720392227, -0.014706240966916084, -0.012254863977432251, 0.016405994072556496, -0.0034350408241152763, -0.01922615058720112, -0.011913049966096878, 0.02166244015097618, 0.02139265090227127, -0.0233742855489254, -0.018424944952130318, 0.0030608305241912603, 0.016917411237955093, 0.005207913462072611, 0.0041097067296504974, 0.005648092832416296, -0.013468687422573566, 0.023189347237348557, 0.006487185601145029, 0.031734827905893326, -0.035374172031879425, 0.02757018618285656, 0.02655637264251709, 0.005558560602366924, -0.026692427694797516, 0.024981612339615822, 0.026289092376828194, -0.00965608935803175, -0.028943462297320366, 0.031039845198392868, -0.03557524457573891, -0.020674308761954308, -0.010281161405146122, -0.010609506629407406, 0.005738625302910805, -0.022911781445145607, -0.018281839787960052, 0.02819175459444523, 0.0012173595605418086, 0.012546610087156296, -0.009732977487146854, -0.0006486506317742169, -0.034488875418901443, 0.0026931778993457556, -0.0033953997772186995, -0.013007509522140026, -0.009484970010817051, 0.0035301130264997482, -0.03127676621079445, 0.0012007715413346887, 0.02836211584508419, -0.01423010602593422, -0.02480997145175934, -0.01957749016582966, -0.029570437967777252, -0.029915962368249893, -0.03044595941901207, -0.029317261651158333, -0.0010413560084998608, 0.011537427082657814, 0.016297217458486557, -0.03169988840818405, -0.006687209941446781, 0.013135502114892006, -0.01480771042406559, -0.00199693045578897, -2.7547141144168563e-05, 0.021862247958779335, 0.023793872445821762, 0.01566140726208687, -0.0034762846771627665, 0.03278571367263794, -0.004645116627216339, -0.011687403544783592, -0.008041840977966785, -0.0302281454205513, -0.01633472368121147, -0.00836007297039032, -0.013083470053970814, 0.018523933365941048, 0.005413753446191549, 0.01611863449215889, 0.034513767808675766, -0.018186544999480247, 0.022784516215324402, -0.009651278145611286, 0.00033375914790667593, -0.022406360134482384, -0.0023479682859033346, -0.005526632536202669, 0.0017083107959479094, 0.031765881925821304, 0.011855123564600945, -0.022617245092988014, 0.017757073044776917, -0.03276582807302475, 0.021729642525315285, -0.005562238395214081, -0.025300033390522003, -0.007680113427340984, -0.032834723591804504, 0.01686508022248745, 0.010148451663553715, -0.005251136142760515, -0.010567600838840008, -0.017008984461426735, -0.027611665427684784, 0.03472859039902687, 0.006319805514067411], [0.008019650354981422, -0.033638712018728256, -0.022721150889992714, -0.02107158675789833, -0.0089035015553236, -0.014747878536581993, -0.03653077781200409, -0.0074063558131456375, -0.021501461043953896, -0.004386155400425196, -0.037229377776384354, 0.0035783052444458008, 0.008500814437866211, -0.0022153728641569614, 0.021885359659790993, -0.04109799116849899, -0.023121139034628868, -0.01411131490021944, 0.003426344133913517, -0.03985029458999634, 0.018481483682990074, 0.017470035701990128, -0.0019893816206604242, 0.01618082821369171, 0.002248497912660241, 0.016386307775974274, 0.0003094192361459136, -0.020929735153913498, -0.027482889592647552, -0.030754175037145615, -0.020107146352529526, 0.011324149556457996, -0.040704164654016495, -0.0038197096437215805, -0.014192233793437481, 0.016038715839385986, 0.0038627171888947487, 0.021449461579322815, -0.00800027884542942, -0.0016470164991915226, -0.04109141603112221, 0.011607770808041096, -0.039155635982751846, 0.026460207998752594, 0.0178842656314373, -0.02753012627363205, -0.010362540371716022, -0.03173547983169556, 0.017648248001933098, -0.04195002466440201, -0.00620671920478344, 0.00455765426158905, -0.0035270911175757647, -0.04091617837548256, 0.0016892118146643043, 0.010249354876577854, -0.007768307346850634, -0.04127669334411621, -0.014265318401157856, -0.0016721788560971618, 0.0008875549538061023, 0.017534658312797546, 0.003397903870791197, -0.009466690942645073, 0.02624071016907692, -0.032949529588222504, 0.004865177907049656, 0.027545195072889328, -0.009100344963371754, -0.021778250113129616, 0.019753389060497284, -0.009703239426016808, -0.03445511683821678, -0.027831267565488815, -0.019768383353948593, -0.020031515508890152, 0.008661841042339802, -0.03142983838915825, 0.0006880263099446893, -0.036913804709911346, -0.02249932661652565, -0.003827417269349098, 0.0238344743847847, -0.023414064198732376, 0.008975479751825333, 0.01301343459635973, 0.005068423692137003, -0.026596620678901672, 0.013153081759810448, -0.02639835514128208, -0.018673550337553024, 0.012338461354374886, -0.016665054485201836, 0.023241179063916206, -0.01248029712587595, -0.019218137487769127, -0.024697966873645782, -0.019268663600087166, 0.022286085411906242, -0.01770809292793274, -0.006302235182374716, -0.0014170903014019132, 0.008268537931144238, -0.02588818594813347, 0.015378003008663654, 0.023164184764027596, -0.028460213914513588, -0.01436561532318592, -0.0010274304077029228, 0.006542376708239317, -0.004537902772426605, -0.021592983976006508, -0.01782876066863537, -0.042954303324222565, -0.018550368025898933, 0.01778860203921795, -0.038360968232154846, -0.03544317185878754, -0.0345754474401474, 0.014264429919421673, 0.03460503742098808, 0.009538644924759865, -0.015474078245460987, -0.00499333068728447, -0.0316864438354969, 0.022171057760715485, 0.0160053800791502, 0.015234007500112057, 0.0428619347512722, -0.016261298209428787, 0.0024832917843014, -0.005296006333082914, -0.03347283974289894, 0.015099549666047096, -0.026686638593673706, 0.006457079667598009, -0.03282642364501953, -0.031552720814943314, -0.009694055654108524, 0.007688229437917471, 0.004982230719178915, -0.038801174610853195, 0.008623446337878704, -0.03172973543405533, 0.011453771963715553, 0.004942990839481354, 0.01753826253116131, -0.02652851864695549, 0.02099912241101265, 0.03685026988387108, 0.02431493066251278, 0.03333839029073715, 0.01972627453505993, 0.03202779218554497, 0.0200478695333004, 0.010087219066917896, 0.034237608313560486, 0.03629361838102341, 0.02262311801314354, 0.0006747923907823861, 0.030519545078277588, -0.017824755981564522, -0.04748294875025749, -0.018371228128671646, -0.03928101435303688, 0.003950222861021757, -0.01143056619912386, 0.002241004491224885, -0.02564023993909359, -0.018559368327260017, -0.015030688606202602, 0.016853194683790207, 0.025918588042259216, -0.034909047186374664, -0.005358119495213032, -0.011828386224806309, 0.008286998607218266, 0.012579638510942459, -0.03671275079250336, 0.02356811612844467, 0.03187175095081329, -0.00204536784440279, -0.002271384932100773, 0.045382060110569, 0.0017040484817698598, 0.03945540264248848, 0.02901158481836319, -0.014126233756542206, 0.022890157997608185, 0.0023442343808710575, -0.009463150054216385, -0.031301215291023254, -0.01367697212845087, -0.035706330090761185, 0.023614507168531418, 0.006835483014583588, 0.02313585765659809, -0.02719275839626789, 0.011502791196107864, -0.029588663950562477, 0.00779897952452302, -0.007680937647819519, -0.029443396255373955, 0.02079569548368454, -0.001396905048750341, -0.02617795206606388, -0.008351885713636875, 0.010473120957612991, -0.0026101884432137012, 0.05176045373082161, -0.0017120704287663102, 0.0466802604496479, 0.04419945925474167, 0.009112298488616943, -0.009866825304925442, 0.04527372866868973, -0.0051857042126357555, 7.08671796019189e-05, -0.03814613074064255, 0.021615782752633095, -0.03404584527015686, 0.027988675981760025, 0.0037440434098243713, -0.04298024624586105, -0.02170875295996666, -0.01642036810517311, 0.012759686447679996, 0.02722138538956642, -0.006174655165523291, 0.025144632905721664, -0.029438206925988197, 0.00040180303039960563, -0.009800620377063751, 0.010275192558765411, 0.042982179671525955, 0.039052221924066544, 0.006394435651600361, 0.05414938926696777, 0.012154687196016312, -0.02045578882098198, -0.013456154614686966, -0.012450532987713814, 0.01902182772755623, -0.011738025583326817, 0.01431749016046524, 0.034383200109004974, -0.001881857868283987, -0.017249131575226784, 0.012003106065094471, -0.02792751044034958, -0.03370567411184311, -0.03494882583618164, 0.019226811826229095, -0.036904510110616684, -0.04114905372262001, 0.02309454046189785, 0.02470424585044384, -0.03686938434839249, -0.027859842404723167, 0.03400971740484238, 0.022871671244502068, 0.00014951849880162627, 0.005571498069912195, 0.027118002995848656, 0.025489909574389458, 0.015223965048789978, 0.019669029861688614, 0.012496712617576122, -0.014171572402119637, 0.0015433368971571326, -0.0012529505183920264, -0.012333392165601254, -0.020411033183336258, 0.02724529057741165, -0.012880216352641582, 0.03181563690304756, 0.024631205946207047, 0.03628789633512497, -0.03179442882537842, 0.007398020941764116, -0.035679180175065994, -0.019195321947336197, -0.007665862329304218, 0.007271894253790379, -0.008048845455050468, -0.033391643315553665, -0.001815860508941114, 0.017762111499905586, 0.03299019858241081, -0.004567667376250029, 0.020866023376584053, 0.017676666378974915, -0.017872804775834084, 0.006603562273085117, 0.010538043454289436, -0.027743831276893616, -0.02137652225792408, -0.02561826817691326, 0.0012999683385714889, 0.0059463693760335445, -0.03394290432333946, -0.0065701864659786224, -0.027501368895173073, 0.04457588866353035, 0.016124064102768898, 0.016066549345850945, -0.0028481825720518827, 0.009689300321042538, -0.00601782975718379, -0.01203856710344553, 0.02285260707139969, 0.009864960797131062, -0.005760973319411278, -0.03176014497876167, 0.02972167357802391, 0.002860827138647437, -0.01005515642464161, -0.02327667362987995, 0.005344023462384939, 0.021132439374923706, 0.030344590544700623, 0.04947253689169884, 0.055491067469120026, 0.021967627108097076, 0.0005030884058214724, 0.01917172782123089, -0.0036479930859059095, 0.006288313772529364, 0.0010007184464484453, -0.018985822796821594, -0.02595462091267109, 0.015896672382950783, -0.003468430833891034, -0.014147423207759857, 0.02681264653801918, -0.02205386757850647, -0.03662344068288803, -0.01847461238503456, -0.028563447296619415, 0.004242355935275555, -0.00297552184201777, -0.03107348084449768, 0.030951082706451416, 0.00306245987303555, 0.020287463441491127, 0.024043891578912735, 0.022316686809062958, 0.052196260541677475, 0.017279192805290222, 0.043313298374414444, 0.016701938584446907, 0.02595037966966629, 0.012813235633075237, -0.010945085436105728, -0.0014682271284982562, 0.002605802845209837, -0.001366314711049199, -0.013341694138944149, 0.002177966758608818, 0.021341631188988686, -0.007232719101011753, -0.039580851793289185, -0.004434867296367884, 0.025717051699757576, 0.010773886926472187, -0.011539347469806671, -0.0011696306755766273, -0.04421402886509895, -0.0032151229679584503, -0.00857539102435112, 0.003628188045695424, -0.030297299847006798, 0.016264615580439568, 0.003642692929133773, 0.011436838656663895, -0.00449695810675621, 0.04386297985911369, 0.03666100651025772, 0.05780758336186409, 0.008021953515708447, 0.023815669119358063, 0.02864958718419075, 0.036078255623579025, -0.018036557361483574, -0.02980613522231579, -0.04553212597966194, -0.018165791407227516, 0.025502895936369896, 0.025596803054213524, -0.020840605720877647, 0.021427031606435776, -0.04107389971613884, 0.00314303464256227, 0.021128207445144653, -0.0073160347528755665, -0.017710797488689423, -0.03896501287817955, -0.031662438064813614, -0.047743696719408035, 0.020194530487060547, -0.0030363937839865685, -0.00637444294989109, 0.014420192688703537, 0.027041412889957428, 0.033275142312049866, 0.043998487293720245, 0.030957380309700966, 0.05236391723155975, 0.047362156212329865, 0.03263138607144356, 0.00529231783002615, 0.011183634400367737, 0.004998608026653528, -0.02707403339445591, -0.019681500270962715, 0.008807116188108921, -0.022615786641836166, 0.0211016908288002, -0.0036072663497179747, -0.013923902064561844, -0.042697954922914505, -0.025731347501277924, -0.01693287491798401, -0.013578051701188087, -0.002282515401020646, -0.03786792606115341, -0.03969632461667061, -0.011966622434556484, -0.04035908728837967, 0.025525949895381927, -0.022602738812565804, -0.030122317373752594, 0.023689942434430122, 0.009687588550150394, 0.02849801443517208, 0.003955359570682049, 0.02063819393515587, -0.03529113903641701, 0.024981588125228882, -0.005420451983809471, -0.022288957610726357, -0.006397324614226818, -0.02487974800169468, 0.0066201467998325825, 0.019627638161182404, -0.007220285478979349, 0.010594171471893787, 0.007051156833767891, -0.039294417947530746, -0.016572091728448868, 0.006591007113456726, -0.013893459923565388, -0.012592448852956295, 0.014246216043829918, -0.030809465795755386, -0.03590099513530731, -0.012872882187366486, 0.007661691401153803, -0.03216387331485748, -0.003997575957328081, -0.0013428048696368933, 0.0484355092048645, 0.004616585560142994, 0.00870569609105587, -0.018476197496056557, -0.006750608328729868, 0.010244082659482956, -0.013193081133067608, 0.004925857298076153, 0.03344523906707764, 0.011524839326739311, 0.027941115200519562, 0.0004628579190466553, 0.013966673985123634, 0.005458032712340355, -0.004182836972177029, 0.02645770274102688, -0.02049286663532257, -0.03999163210391998, -0.03232363983988762, -0.011648912914097309, -0.010536844842135906, 0.013955933973193169, -0.02752760797739029, -0.03033796325325966, -0.013933665119111538, -0.032208021730184555, -0.02280396595597267, -0.00176708260551095, -0.006514322943985462, -0.0485478900372982, -0.010597137734293938, -0.015924392268061638, -0.013691524043679237, -0.027189144864678383, 0.034021444618701935, -0.012192457914352417, 0.04007556289434433, 0.008351870812475681, -0.007022789213806391, -0.02974398247897625, 0.002344468841329217, 0.0068773068487644196, -0.0019628573209047318, -0.01618507318198681, -0.007844126783311367, -0.02170136757194996, -0.027810601517558098, -0.029433948919177055, -0.01903512328863144, 0.052021175622940063, -0.021355601027607918, -0.013972952030599117, -0.01267404668033123, 0.0031439517624676228, 0.012667431496083736, 0.023267647251486778, -0.04680018872022629, -0.0158590879291296, -0.026989851146936417, 0.0033542809542268515, 0.012215043418109417, 0.004170512780547142, 0.027834424749016762, 0.022560063749551773, -0.004677437711507082, 0.018214810639619827, 0.0029783027712255716, -0.004824533127248287, -0.0023233979009091854, 0.019079018384218216, 0.0029228331986814737, 0.007367665413767099, -0.02613246440887451, -0.022088686004281044, -0.01517373789101839, 0.001759507111273706, -0.02275373786687851, -0.001013974193483591, 0.01944117806851864, -0.005900045856833458, -0.0021019005216658115, 0.009778528474271297, 0.012848992832005024, 0.022177571430802345, -0.006869777105748653, -0.0027389335446059704, -0.017905397340655327, 0.0074083078652620316, 0.024461057037115097, 0.03205409646034241, 0.039774343371391296, -0.0065844859927892685, 0.054086100310087204, 0.007149106357246637, 0.023523608222603798, -0.004324585199356079, 0.0009728395380079746, -0.00813198834657669, -0.038878921419382095, -0.04199310764670372, -0.028198208659887314, -0.022417187690734863, -0.0036708652041852474, 0.04362328350543976, 0.011326825246214867, 0.02420598454773426, 0.043578535318374634, -0.008135098032653332, 0.03858029097318649, -0.038788873702287674, 0.00751088373363018, 0.008797895163297653, 0.02575148455798626, 0.01019350066781044, 0.05148721858859062, 0.004262726288288832, 0.045572638511657715, 0.02327418327331543, 0.05877745524048805, 0.020869409665465355, -0.024519234895706177, -0.02581346035003662, 0.005661918316036463, 0.00998612679541111, -0.01925918459892273, 0.013037828728556633, 0.008026144467294216, -0.0052321297116577625, -0.04186863452196121, -0.01695282757282257, -0.009259245358407497, 0.029940035194158554, -0.007528470829129219, 0.020594725385308266, 0.005827483721077442, -0.022129148244857788, 0.032477088272571564, 0.011888150125741959, 0.0052476669661700726, 0.02564828470349312, -0.009382786229252815, 0.05506497621536255, 0.015823442488908768, 0.02743195928633213, -0.0045785680413246155, -0.02199692092835903, -0.004898909013718367, -0.023724250495433807, -0.008064473047852516, -0.0334756076335907, -0.038496654480695724, 0.013205260969698429, -0.04090594872832298, -0.0370236299932003, 0.013903852552175522, 0.003089616307988763, 0.012915512546896935, -0.012937957420945168, -0.029268017038702965, -0.004271363839507103, 0.013367395848035812, 0.018486393615603447, -0.042160000652074814, 0.01097057480365038, -0.004533115308731794, -0.012936821207404137, 0.046442661434412, 0.056591834872961044, 0.061287518590688705, 0.04799336567521095, 0.00989435613155365, 0.02819206565618515, 0.009291721507906914, 0.0156667809933424, -0.0008452054462395608, -0.022935742512345314, -0.014655645936727524, -0.03677477315068245, 0.0027075265534222126, 0.021558040753006935, -0.041896410286426544, -0.043363556265830994, -0.039387330412864685, -0.03153923898935318, 0.015256212092936039, -0.006055464502424002, -0.014493490569293499, 0.019359219819307327, 0.017757147550582886, -0.01566050574183464, -0.02382940798997879, 0.01765357330441475, 0.028029540553689003, -0.019676294177770615, 0.040151484310626984, 0.03555744141340256, 0.017959564924240112, 0.013274626806378365, 0.04956967383623123, 0.002062001498416066, 0.012263577431440353, -0.003891800995916128, -0.024520916864275932, 0.03109956532716751, -0.015736375004053116, 0.01617966778576374, -0.03905473276972771, 0.022317402064800262, 0.01943378522992134, -0.03835102170705795, 0.013203373178839684, -0.03546178713440895, -0.026960432529449463, -0.008753925561904907, 0.014691988006234169, -0.01814575307071209, -0.03464176133275032, 0.02488214336335659, 0.0031261916738003492, 0.01660553552210331, 0.010756637901067734, 0.0480845645070076, 0.017383679747581482, 0.01897098310291767, 0.03781118616461754, 0.05308976396918297, 0.04457118362188339, -0.022006262093782425, 0.012951874174177647, 0.014535733498632908, -0.02500409074127674, 0.014300116337835789, -0.04412781074643135, -0.042257197201251984, -0.009434593841433525, -0.00871353317052126, -0.018728479743003845, -0.005359860602766275, 0.001637025154195726, -0.0006216480396687984, 0.004895953461527824, -0.02824382111430168, 0.017345905303955078, 0.003520768601447344, 0.023671967908740044, -0.041989900171756744, -0.005840345751494169, 0.006459715776145458, 0.031063534319400787, 0.00770649453625083, 0.022150302305817604, 0.0396820567548275, 0.035152409225702286, -0.004283729009330273, 0.004117054399102926, -0.008070535957813263, -0.0043020411394536495, -0.02280500903725624, -0.023960860446095467, 0.01472195889800787, 0.010019970126450062, -0.006421391852200031, 0.002665711799636483, -0.012011154554784298, -0.0012636227766051888, 0.013374052941799164, -0.02672659233212471, 0.021663427352905273, 0.007864771410822868, 0.004635829944163561, -0.02026866376399994, -0.03777752071619034, -0.0038726036436855793, -0.0008802912780083716, 0.019260015338659286, -0.02929556556046009, 0.016005562618374825, -0.00014851278683636338, 0.012197960168123245, 0.017316117882728577, 0.01641054078936577, -0.03986380994319916, 0.023698655888438225, 0.011137963272631168, -0.008383204229176044, 0.005932394880801439, -0.004700980614870787, -0.02175147458910942, -0.022710934281349182, -0.01230344083160162, -0.019431134685873985, -0.02245154418051243, -0.03637035936117172, -0.004324367735534906, -0.027718454599380493, 0.002800273010507226, 0.02654368244111538, 0.019534172490239143, 0.0026793319266289473, 0.0013686638558283448, 0.009728682227432728, -0.014100240543484688, 0.0067954352125525475, 0.013378914445638657, -0.021356424316763878, 0.009378230199217796, 0.002428897190839052, -0.029668953269720078, -0.034059666097164154, -0.012642734684050083, -0.02998264506459236, 0.018480660393834114, -0.013474942184984684, -0.02654404006898403, -0.0018265044782310724, -0.04240963235497475, 0.012498465366661549, 0.01552585233002901, -0.02632916159927845, 0.018642539158463478, 0.010837513022124767, -0.003361326642334461, 0.02070808783173561], [-0.007849421352148056, 0.01202497910708189, 0.02843390218913555, -0.004698049742728472, 0.011633685790002346, 0.009874497540295124, 0.019257299602031708, 0.012869981117546558, 0.02205149456858635, -0.003567752428352833, -0.019300304353237152, 0.012008227407932281, 0.019055871292948723, -0.032015323638916016, -0.01570255123078823, -0.008698607794940472, -0.024867530912160873, 0.010192347690463066, -0.02964567393064499, -0.029944702982902527, -0.03471985459327698, -0.02164846658706665, 0.02815532498061657, 0.009177042171359062, 0.020572571083903313, 0.0036758282221853733, -0.005182652268558741, -0.012538701295852661, 0.030592603608965874, 0.019574765115976334, -0.03814827650785446, -0.016468370333313942, 0.004156228620558977, -0.03466883674263954, 0.02999802865087986, -0.023563150316476822, 0.011748877353966236, -0.008584870956838131, 0.031051160767674446, 0.025121845304965973, -0.0071371146477758884, -0.009867426007986069, -0.03305273875594139, 0.022386876866221428, -0.014767011627554893, 0.0037813526578247547, 0.025528406724333763, 0.009344629943370819, -0.03379166126251221, -0.027262674644589424, 0.007901196368038654, -0.016076013445854187, -0.023080669343471527, 0.013306736946105957, -0.011195102706551552, 0.013297801837325096, 0.029159527271986008, -0.01328841969370842, -0.03497704491019249, -0.006132305599749088, -0.023540738970041275, 0.014941700734198093, 0.007222291547805071, 0.022252541035413742, -4.031374555779621e-05, 0.007010884582996368, -0.0035702541936188936, -0.03553994372487068, -0.007225103210657835, 0.02861366607248783, -0.016049345955252647, -0.024763407185673714, -0.01194416731595993, -0.02040896937251091, -0.011900537647306919, -0.03512398526072502, -0.03500649333000183, 0.03150344640016556, -0.024315860122442245, -0.03823906183242798, -0.01672859862446785, -0.010808589868247509, -0.01957939937710762, 0.0179179348051548, 0.026630233973264694, 0.019451508298516273, 0.0272804144769907, -0.03237298130989075, -0.003204959910362959, -0.011072998866438866, -0.025240279734134674, 0.003591446904465556, -0.0003564491053111851, -0.004274372011423111, -0.040192607790231705, 0.02611040510237217, 0.006865335162729025, 0.02017703652381897, 0.004752565640956163, -0.0244282353669405, -0.006932815536856651, 0.012815844267606735, -0.008529219776391983, 0.001216859556734562, -0.020314868539571762, 0.009031404741108418, 0.00886247307062149, -0.02240888401865959, 0.007589039392769337, -0.026891903951764107, -0.02126235142350197, 0.023505473509430885, 0.028481634333729744, 0.01147898193448782, 0.005220216233283281, -0.036910515278577805, -0.02442258410155773, 0.010186593048274517, -0.03913731127977371, 0.011288403533399105, 0.028672384098172188, -0.002363173756748438, 0.01362539641559124, 0.01236417144536972, -0.032497212290763855, -0.030047379434108734, -0.009654578752815723, -0.02076766826212406, 0.008790127001702785, -0.003786105429753661, 0.003818980185315013, -0.02909933216869831, -0.004146671388298273, -0.000272998062428087, 0.005988707300275564, 0.002846351359039545, 0.0023269702214747667, -0.0018259758362546563, -0.022397473454475403, -0.025713715702295303, -0.020446129143238068, -0.03665127605199814, 0.014608320780098438, -0.021664461120963097, -0.03306411951780319, -0.02520679123699665, 0.0006395978853106499, -0.018862606957554817, -0.04098593816161156, 0.0033122850582003593, -0.03574194386601448, -0.03971455991268158, 0.005083002150058746, -0.007454679813235998, 0.01861930638551712, -0.010823508724570274, -0.008787497878074646, 0.020223280414938927, -0.021952904760837555, -0.017302902415394783, 0.01650344394147396, -0.021866416558623314, 0.02435009554028511, -0.019648408517241478, -0.007334071211516857, 0.03390898555517197, -0.01955559104681015, 0.031531427055597305, -0.021213306114077568, -0.0015579573810100555, 0.03150276839733124, -0.006891967263072729, 0.005417459178715944, 0.018039895221590996, 0.011781428009271622, -0.025324974209070206, -0.02183440700173378, -0.007856087759137154, -0.02720658853650093, 0.006027648691087961, 0.019345983862876892, -0.0011054823407903314, 0.027172690257430077, 0.0103958984836936, 0.028092026710510254, -0.02268216200172901, 0.019670944660902023, -0.0332842655479908, 0.005753341130912304, -0.02260320819914341, -0.0050507234409451485, 0.025148335844278336, -0.028141919523477554, -0.009569359943270683, 0.007626155856996775, 0.030459275469183922, 0.020929520949721336, 0.01834806054830551, -0.02131861075758934, 0.007305579725652933, -0.030555488541722298, -0.020920904353260994, -0.017894867807626724, -0.005114336032420397, 0.007390325423330069, 0.012075587175786495, -0.031788527965545654, -0.026158902794122696, -0.009303044527769089, -0.004363655112683773, 0.03345409408211708, -0.023780563846230507, -0.01839485578238964, 0.02704368159174919, -0.03384755924344063, 0.0021378358360379934, -0.011390137486159801, -0.027078093960881233, -0.01801403798162937, 0.03058215230703354, 0.011228160001337528, 0.03483401983976364, -0.031596582382917404, 0.02365402691066265, -0.01975654996931553, -0.0317559614777565, -0.003885414218530059, 0.02701464295387268, -0.017291434109210968, -0.013308901339769363, -0.021477093920111656, -0.023136388510465622, 0.022653553634881973, -0.02317235618829727, -0.0001409267570124939, 0.0013720194110646844, -0.0016600831877440214, -0.01989974081516266, -0.004139875993132591, 0.009537027217447758, 0.0030756567139178514, 0.027333654463291168, 0.014900690875947475, 0.01747586391866207, -0.01948654092848301, 0.03977791965007782, -0.018605368211865425, -0.028859056532382965, -0.011639473959803581, 0.018994634971022606, -0.007102455478161573, 0.00455973157659173, -0.02235768549144268, -0.026755468919873238, -0.031107505783438683, 0.022447213530540466, -0.01183947455137968, 0.002866880502551794, -0.02118370682001114, 0.0005178585997782648, 0.022801637649536133, 0.023624975234270096, 0.03412402421236038, 0.007776103913784027, 0.053548023104667664, 0.008794133551418781, -0.0054817209020257, 0.014665464870631695, 0.030414391309022903, -0.003636106150224805, -0.032185148447752, 0.0311047974973917, 0.019339801743626595, -0.018342090770602226, 0.023954445496201515, 0.020848507061600685, -0.013852729462087154, -0.024732589721679688, 0.031196605414152145, 0.013305338099598885, -0.036614228039979935, -0.008031018078327179, 0.03228043392300606, -0.027339007705450058, 0.014239279553294182, 0.0010024410439655185, 0.02218479849398136, 0.026999324560165405, 0.027986714616417885, 0.006277133245021105, 0.005325072444975376, 0.0013235211372375488, 0.05249692127108574, 0.054576240479946136, 0.04680919647216797, -0.013277044519782066, 0.013579405844211578, 0.03943242132663727, 0.023022811859846115, 0.016607461497187614, 0.008592654019594193, 0.005651682149618864, 0.0305276270955801, -0.028095906600356102, 0.009956994093954563, -0.018503371626138687, -0.01354668103158474, -0.034157250076532364, -0.021731389686465263, -0.010617201216518879, 0.004333446733653545, 0.028734397143125534, 0.0005166172632016242, -0.008376983925700188, -0.018575087189674377, 0.026575302705168724, 0.03233488276600838, 0.03547545149922371, 0.009275565855205059, 0.009416455402970314, 0.0444229394197464, 0.022465545684099197, -0.03153425455093384, 0.012591897509992123, 0.010369748808443546, 0.03493392840027809, 0.030404653400182724, -0.0070123374462127686, 0.009301145561039448, 0.03040814958512783, -0.035869795829057693, 0.029732156544923782, 0.0007606790750287473, 0.02903473563492298, -0.033704280853271484, -0.022633465006947517, -0.0030068724881857634, -0.035524699836969376, -0.03354284539818764, 0.008863258175551891, 0.017567535862326622, -0.014950397424399853, -0.034934282302856445, 0.03687397018074989, 0.008969967253506184, -0.004306444898247719, -0.013325447216629982, 0.044047124683856964, 9.535950084682554e-05, -0.030330533161759377, 0.01778937131166458, 0.014271306805312634, -0.0031411629170179367, 0.0071825603954494, 0.006867824587970972, -0.023305725306272507, 0.004411244764924049, 0.003153264056891203, -0.0017651396337896585, -0.003935337532311678, -0.026995643973350525, -0.015338679775595665, 0.008870517835021019, 0.022049155086278915, 0.02592560276389122, -0.024303192272782326, -0.025800665840506554, 0.03291863203048706, -0.0214921236038208, -0.008600255474448204, -0.002579998690634966, 0.011648504994809628, -0.0058616106398403645, 0.036455947905778885, 0.04355672001838684, 0.03115096129477024, 0.033892642706632614, 0.020003464072942734, 0.017391350120306015, -0.014556880109012127, -0.023493532091379166, 0.012358185835182667, 0.01548139937222004, -0.008774521760642529, 0.03150458261370659, -0.030098354443907738, -0.012378106825053692, 0.03352227434515953, 0.0065714092925190926, -0.025970399379730225, 0.012990487739443779, 0.006108682602643967, -0.03057105839252472, -0.018129028379917145, -0.025803279131650925, -0.02604602836072445, 0.02602175995707512, -0.024761566892266273, 0.00014470756286755204, -0.01681184209883213, 0.030869657173752785, 0.019824357703328133, 0.018970850855112076, -0.020724112167954445, -0.004981625359505415, 0.02214558608829975, -0.035134561359882355, -0.025322282686829567, 0.014064510352909565, -0.0153804374858737, -0.025522222742438316, 0.0172586590051651, 0.004121523816138506, 0.017390495166182518, 0.016895202919840813, 0.009581350721418858, 0.019603058695793152, -0.01702367328107357, 0.025390150025486946, 0.010217921808362007, -0.007824636995792389, 0.0072583905421197414, -0.021971583366394043, 5.114315717946738e-05, -0.011235921643674374, -0.028054142370820045, 0.0033155132550746202, 0.005964576732367277, 0.00671260105445981, 0.017190314829349518, 0.03502446785569191, 0.025063922628760338, -0.005212707445025444, -0.014180534519255161, -0.042265329509973526, 0.016391249373555183, 0.017173025757074356, 0.038872286677360535, -0.025701669976115227, 0.013406042940914631, 0.003996796905994415, 0.03764653205871582, -0.0012635240564122796, -0.036280665546655655, -0.01581074669957161, -0.00390997901558876, -0.025353264063596725, 0.023290175944566727, -0.023480894044041634, -0.03636695444583893, 0.00454027159139514, -0.02385198138654232, -0.007364714052528143, -0.0012518997536972165, 0.02952263318002224, 0.021911585703492165, -0.028939777985215187, 0.005887845531105995, -0.038865089416503906, -0.04624043405056, -0.007777628488838673, -0.05743378773331642, 0.0015662098303437233, 0.007948094978928566, -0.019334152340888977, 0.020837103947997093, 0.008551177568733692, 0.020144706591963768, -0.02526170201599598, -0.009777577593922615, 0.007227492984384298, -0.029544103890657425, 0.0066255489364266396, 0.0255554411560297, 0.01534082181751728, -0.019815007224678993, 0.017798827961087227, 0.019634122028946877, -0.021065065637230873, 0.0064984215423464775, 0.03173299506306648, -0.029424099251627922, -0.0061490400694310665, 0.022600550204515457, -0.03444913402199745, 0.016103463247418404, 0.008558004163205624, -0.0023472595494240522, -0.05662428215146065, -0.02886923961341381, 0.024812571704387665, -0.0015498894499614835, 0.0342695489525795, 0.038208115845918655, 0.00895904190838337, 0.02672969549894333, 0.028673984110355377, 0.02908678911626339, -0.014093202538788319, -0.03292021527886391, -0.005198637023568153, 0.014132634736597538, 0.028884369879961014, 0.02583334594964981, -0.027722381055355072, 0.030861878767609596, -0.003597466042265296, 0.0070596663281321526, -0.0023294046986848116, 0.019443567842245102, 0.02388627640902996, -0.016379231587052345, -0.02346956543624401, -0.04611898586153984, -0.00723329046741128, -0.005254959221929312, -0.01569872349500656, -0.03155647590756416, 0.008733578957617283, 0.01696755364537239, 0.033946797251701355, 0.006836507003754377, 0.018389150500297546, 0.005876350216567516, 0.007243959698826075, -0.012238219380378723, -0.038740724325180054, -0.03240285813808441, 0.004988798405975103, -0.032741136848926544, 0.02696935459971428, -0.006677953060716391, -0.013695516623556614, 0.0033269296400249004, 0.003298449330031872, 0.009626949205994606, 0.0008872741600498557, 0.004233119543641806, 0.015683172270655632, -0.009511001408100128, -0.019563326612114906, -0.047431107610464096, 0.018794843927025795, -0.030317086726427078, -0.033301111310720444, 0.012306918390095234, 0.029831156134605408, 0.03310766816139221, 0.03320284187793732, 0.04042353481054306, 0.027268394827842712, -0.011769450269639492, -0.020303256809711456, 0.014667227864265442, -0.006791810039430857, 0.009972257539629936, -0.014506567269563675, -0.02642112597823143, 0.031391970813274384, -0.0356915257871151, 0.023588433861732483, -0.03251628577709198, -0.005283470265567303, 0.018690548837184906, -0.0026022351812571287, 0.026844099164009094, -0.009714541025459766, 0.016513483598828316, -0.04621150344610214, 