[
    {
        "weights": [
            -0.32907279921079163,
            0.36414895214995396,
            -0.04296488831855353,
            -0.22590688820914193,
            0.2044599775808093,
            0.10899663013517313,
            0.41247262481083874,
            -0.11785895258727273
        ],
        "intercept": [
            -0.8066126045521865
        ]
    },
    {
        "weights": [
            0.664668066964495,
            0.7219807534162619,
            0.5470730387316752,
            -0.6862196635010472,
            0.8039338239157706,
            0.17059228255249373,
            0.5184597233871062,
            0.3942500836425997
        ],
        "intercept": [
            0.2346737674621287
        ]
    },
    {
        "weights": [
            -0.048864266053215234,
            0.3912959376697467,
            0.595369402349599,
            1.511665359656776e-05,
            8.130792936496037e-06,
            0.1190215222382574,
            0.059132419213211676,
            -0.08398930018002204
        ],
        "intercept": [
            0.7474562176929551
        ]
    },
    {
        "weights": [
            8.911945932838113e-07,
            -0.19333468420881378,
            -0.23531711765542712,
            -0.36710507484566485,
            0.05645995326117482,
            -0.05777227571037684,
            0.48997995148729706,
            -0.027663010463688995
        ],
        "intercept": [
            0.4449249054129511
        ]
    },
    {
        "weights": [
            0.12260160506699894,
            -0.33250134512606666,
            0.1279977481856482,
            0.18606239214985135,
            0.558421136682757,
            0.3338862514936658,
            0.2928817157181692,
            0.056580087305067694
        ],
        "intercept": [
            -0.44180507927585294
        ]
    },
    {
        "weights": [
            0.23637766979190744,
            0.4334606326215728,
            0.13168650330474305,
            0.26962540363179544,
            0.3386670636397579,
            0.1636615307163594,
            0.11539575762217424,
            0.20317982988980499
        ],
        "intercept": [
            -0.7527872292753547
        ]
    },
    {
        "weights": [
            -0.018877898748990887,
            1.137168150674027,
            -0.2497020703197375,
            0.24422140657542976,
            0.045347175717385765,
            0.3289711046961036,
            0.12316168423671492,
            0.5398253481609652
        ],
        "intercept": [
            -0.8589891177547841
        ]
    },
    {
        "weights": [
            -0.12395752796886794,
            0.0548680287469481,
            -0.1467414294632577,
            0.18327281628097555,
            0.12177289041694576,
            0.1854174916377081,
            0.5261986557630626,
            0.021306813768490987
        ],
        "intercept": [
            -1.4006385357390532
        ]
    },
    {
        "weights": [
            0.16921602884497766,
            0.3566288080163785,
            0.019645488664763636,
            0.5480070956074753,
            0.21437185794479793,
            0.16150345943534247,
            0.14626297957460144,
            -0.0323077699692202
        ],
        "intercept": [
            -0.23280206376876508
        ]
    },
    {
        "weights": [
            0.19954493651145885,
            0.2594084541633301,
            0.023171522641218446,
            -0.3653247699101341,
            -0.3986858707642316,
            0.35539027055575567,
            -0.1697934100616491,
            0.03809194908968924
        ],
        "intercept": [
            -0.6128520335911168
        ]
    },
    {
        "weights": [
            0.6437680665688695,
            0.30864055384136363,
            -0.027832172435898916,
            0.25181497434289,
            -0.11481662793766065,
            0.10808260994449365,
            -0.2863724823546632,
            0.15188279299998064
        ],
        "intercept": [
            -1.5838474865588112
        ]
    },
    {
        "weights": [
            -0.3429943506494091,
            0.021686196345994804,
            -0.5075302511834756,
            -0.23908352833285235,
            2.4025709466607534e-06,
            -0.14512382809257654,
            -0.0013928665304957343,
            -0.12775770988913912
        ],
        "intercept": [
            -0.4311244737798553
        ]
    },
    {
        "weights": [
            0.09866999705155832,
            -0.1871841617556174,
            0.24047595312297623,
            -0.20843013741347502,
            -0.2452278983822879,
            0.10542497891373132,
            -0.4666167626160273,
            0.1696251273707986
        ],
        "intercept": [
            -0.23911701246467953
        ]
    },
    {
        "weights": [
            -0.2423563397186352,
            0.24690442133071963,
            -0.0281280417999678,
            -0.4266095142123821,
            -0.18660401607207255,
            -0.044884533140435355,
            -0.42065057349656304,
            -0.13888112208727757
        ],
        "intercept": [
            -0.0014872388470306163
        ]
    },
    {
        "weights": [
            0.24959821410824828,
            0.05918591770805467,
            0.043451452117268,
            1.2867615665191582e-06,
            6.92110313249542e-07,
            -0.024000779853568934,
            0.045056990529074206,
            0.69727549462379
        ],
        "intercept": [
            -0.3040831905079468
        ]
    },
    {
        "weights": [
            -0.23194234078575043,
            0.42569295910284266,
            -0.24728919711786576,
            -0.42174088724039965,
            0.3997840271150539,
            0.26063951231240323,
            -0.030486033724899993,
            -0.010868708427055658
        ],
        "intercept": [
            0.5336628227555228
        ]
    },
    {
        "weights": [
            0.31145578516124917,
            -0.09300249670484001,
            0.03614565110215546,
            0.43859463736867094,
            1.4682391968779014e-06,
            0.27066054119237265,
            0.41230254205129696,
            -2.120185400833805e-06
        ],
        "intercept": [
            -0.7747992575560965
        ]
    },
    {
        "weights": [
            0.22508467946126087,
            1.0900380250554422,
            -0.3319755922470074,
            0.12321322430617618,
            -0.27866305850948525,
            0.9239884028342674,
            0.1863924878479606,
            0.4630051423575095
        ],
        "intercept": [
            -0.9373162695816604
        ]
    },
    {
        "weights": [
            0.5155186815684948,
            0.1679289165719588,
            0.09790348365392704,
            0.0494977942195593,
            0.2055414918147508,
            0.13019328180864032,
            0.26070860581701166,
            0.30884400568293263
        ],
        "intercept": [
            -0.45232449270372616
        ]
    },
    {
        "weights": [
            0.12304265874782282,
            0.3698735760904287,
            0.44157785989828874,
            -0.4410391678778256,
            -0.563640055534201,
            0.8028206688902024,
            0.44284874553943243,
            0.5910687443777618
        ],
        "intercept": [
            -1.7234130196160917
        ]
    }
]