[
    {
        "weights": [
            -0.09034357669845523,
            0.24967703022625196,
            0.364555482360511,
            0.13262076555151772,
            0.2253570212926262,
            -8.053960180585776e-06,
            0.23453411089596518,
            0.13259766458854283,
            0.24836521869560224,
            0.08042518598700399,
            4.386458494694552e-05,
            -1.3713961345733002e-05,
            0.24391823444199928
        ],
        "intercept": [
            -0.056037167146605164
        ]
    },
    {
        "weights": [
            0.19086437424730143,
            0.9981154732597681,
            0.207060461668286,
            0.037254567518413245,
            0.37683397414124775,
            -0.11177439870564065,
            0.09535526938672792,
            -0.0783151819239004,
            0.3378763005462548,
            0.5255482066617989,
            0.7512037053728005,
            1.0023652358077992,
            0.10416252344182862
        ],
        "intercept": [
            -0.3203554728769597
        ]
    },
    {
        "weights": [
            0.1449589170730111,
            -0.254894039528771,
            0.24811736225725475,
            -0.013535494686983325,
            -0.03220614437808379,
            3.7217946453645186e-07,
            -0.11971430995424957,
            -0.30201068798973724,
            0.2535400068846682,
            0.2051751382913149,
            0.19329257154390359,
            0.12747765440614484,
            0.24900420755532957
        ],
        "intercept": [
            0.10748410686157724
        ]
    },
    {
        "weights": [
            0.08560667644704381,
            -7.2996134709743635e-06,
            0.161180593414153,
            0.5627451946129387,
            0.10460723814630293,
            -2.091936631454793e-06,
            -4.99272953203081e-06,
            -0.10147644674076223,
            0.32940526778952073,
            -0.21325430377135401,
            3.2514163465141563e-06,
            -3.5620660467892984e-06,
            -4.361640661415623e-06
        ],
        "intercept": [
            -0.5382848063625982
        ]
    },
    {
        "weights": [
            0.018134714180800683,
            0.14074500253283068,
            0.2143265036735141,
            -0.012706024962434653,
            -0.09110680146732601,
            -1.5003779160152676e-05,
            0.3789629976010369,
            -0.21305457773033784,
            0.40131317567324987,
            0.3099670847589148,
            0.1312271323736531,
            0.5483991064086174,
            0.23076864695120858
        ],
        "intercept": [
            -2.073524155624853
        ]
    },
    {
        "weights": [
            0.1174350834796611,
            8.298938713548849e-06,
            -0.27638807329799275,
            -8.04614081369745e-06,
            0.13325698733727193,
            -5.05087597364948e-06,
            1.2295788697477882e-05,
            0.15080732056439627,
            -8.425056345380728e-06,
            0.319965319477629,
            7.85038153544316e-06,
            -8.60042964097947e-06,
            -0.554733806945882
        ],
        "intercept": [
            -0.2176723214912012
        ]
    },
    {
        "weights": [
            0.004821116808612209,
            0.541560643191919,
            0.46478181444550765,
            0.2655975318153654,
            0.3709296139847412,
            -0.3433647607433068,
            -0.0014466944865106019,
            -0.3553179506545025,
            0.4364047593833233,
            0.20809053076000353,
            0.36713901120794534,
            1.1903792740600478,
            0.8383241474137872
        ],
        "intercept": [
            -0.21117490280115553
        ]
    },
    {
        "weights": [
            0.216750592386662,
            -0.22062851858386634,
            0.10737469157172976,
            0.05859873148931971,
            0.17919364483473774,
            -0.2895020238413908,
            0.20725465424952377,
            -0.11273852274304073,
            2.6907494435352542e-05,
            -0.07102071645909387,
            -0.3346632818688565,
            2.746759228910749e-05,
            -0.2155516592224763
        ],
        "intercept": [
            0.49449427504505317
        ]
    },
    {
        "weights": [
            -0.16685881760628632,
            0.5378976887809575,
            -0.2617927789807276,
            0.2713518040035754,
            -0.09709210022744616,
            2.4905270324410652e-06,
            -6.062907562791216e-06,
            -0.08791137298637128,
            4.154295351545251e-06,
            5.3483564256949144e-06,
            5.822390607522851e-06,
            0.26901269459448,
            5.192692651254075e-06
        ],
        "intercept": [
            0.041682227820799236
        ]
    },
    {
        "weights": [
            0.2588272578182575,
            0.2289855741890756,
            0.2010514378798156,
            0.21935477533176734,
            0.10719339267118637,
            -5.087986974084411e-06,
            0.17292909614122282,
            0.06458065189918291,
            -8.486958928516602e-06,
            0.14420319255434946,
            0.3132441548791927,
            0.4131797724717656,
            0.4035340380933689
        ],
        "intercept": [
            -0.8031086131694183
        ]
    }
]