[
    {
        "weights": [
            0.4915213574186144,
            0.16616422271929454,
            0.12066569940322079,
            -0.017590528995291677,
            0.05568331485968337,
            0.5947070230944972,
            0.25527718244478614,
            -0.5063087506049372,
            0.4625904046804209,
            0.567425778332499,
            0.8963709582501046,
            0.3302448313462616,
            -0.29714721009800094
        ],
        "intercept": [
            -0.3400415226697295
        ]
    },
    {
        "weights": [
            -0.14060398111258235,
            0.7320458871284925,
            0.4098382965103976,
            0.5058813444190887,
            0.7743126618984719,
            -0.8051263833931778,
            0.5704576112496068,
            -0.35659331196785227,
            0.5190599847427952,
            0.3691600990276113,
            0.20358791577138977,
            1.136295264301145,
            0.0736728588410503
        ],
        "intercept": [
            -0.024185205395551725
        ]
    },
    {
        "weights": [
            -0.20760107085510052,
            0.35383016992769223,
            3.55365095783087e-06,
            0.28076478090138157,
            0.01328528794423246,
            0.19099064836588145,
            0.3323616959334114,
            0.00677391033276641,
            0.3519536048313489,
            0.11652430980029291,
            -3.951790479697141e-06,
            -0.10414517474171774,
            0.34565621236531685
        ],
        "intercept": [
            0.7832621344848468
        ]
    },
    {
        "weights": [
            0.2587587871912529,
            0.2780555393889331,
            -1.2340945813317044e-05,
            0.20672630208262113,
            -0.030116957297480058,
            5.870262331796229e-06,
            -0.2611785204544278,
            0.1249726033888548,
            0.2765678728669974,
            0.08952613033985203,
            -0.21084966772889835,
            0.1390605816746905,
            0.2716225492021955
        ],
        "intercept": [
            0.33396241694042345
        ]
    },
    {
        "weights": [
            0.35362266365315376,
            0.09132979361244524,
            0.7754962905223283,
            0.32222277689740175,
            0.08056759470481908,
            -0.13667068116443593,
            -0.5020475028411653,
            -0.9061548144963708,
            0.648210291147248,
            0.5756341146836461,
            -0.40997758211240265,
            1.4744638274020276,
            0.6941708918008863
        ],
        "intercept": [
            0.3482994844192415
        ]
    },
    {
        "weights": [
            0.18679449914012655,
            -0.3010872153611263,
            0.4396228285145034,
            -0.007994292645802835,
            -0.043478105998534106,
            1.0049177698041433e-08,
            -0.2828176218705504,
            0.06765792425085278,
            -3.4540737664382273e-08,
            -0.16965034821430705,
            0.22832155146079716,
            -0.150579407186142,
            2.0952308697654975e-08
        ],
        "intercept": [
            0.11528168518095602
        ]
    },
    {
        "weights": [
            -0.11576557337792522,
            1.09239390514651,
            0.3275926220971195,
            0.5645274716758231,
            0.6516287591259144,
            0.0074319629859077125,
            0.25315256972848216,
            -0.34797241396410744,
            0.14323209442396365,
            0.14655575968938456,
            0.865269003477088,
            0.7857690591386167,
            0.7733766744858204
        ],
        "intercept": [
            -0.1193817364404759
        ]
    },
    {
        "weights": [
            -0.20403661725374697,
            0.11836087874984436,
            0.32764368886682077,
            -0.18413795552044704,
            -0.19481657445003983,
            -0.15528122769761118,
            0.2605768773936238,
            -0.1406880405383973,
            0.39367000795546386,
            0.31857554150709927,
            0.08975514084050548,
            -0.05919249303109461,
            0.2511254325124886
        ],
        "intercept": [
            -1.5234622823652837
        ]
    },
    {
        "weights": [
            0.16727322986190565,
            0.367938429840302,
            0.315469682688339,
            -0.18506167475977572,
            -0.144642299344635,
            2.3018612104061477e-06,
            0.09912279105572154,
            -0.5278087439327335,
            0.39446206734190503,
            0.5258534762003781,
            0.13812296603129695,
            0.23763297234886865,
            0.44437417030197013
        ],
        "intercept": [
            -1.4510573614719995
        ]
    },
    {
        "weights": [
            0.19666100681490972,
            0.24808666348607908,
            0.1710471095551478,
            -0.9934172936120892,
            0.35486943432769286,
            -0.4896013378386228,
            -0.5203540045363825,
            -0.44098948241070796,
            0.002542589336464721,
            0.46939607702942865,
            -0.006263326278066009,
            0.6386148230403714,
            0.6297250244206317
        ],
        "intercept": [
            -1.2773965399250853
        ]
    }
]