[
    {
        "weights": [
            0.4693514492112334,
            0.5154428592672188,
            0.5273354884016731,
            0.32546641371339613,
            0.500718640988169,
            0.21266144125750863,
            0.5204315554286192,
            0.8440718955874936
        ],
        "intercept": [
            -1.5723037633371295
        ]
    },
    {
        "weights": [
            0.22859711023170343,
            1.353255749182271,
            -0.06166160857618616,
            -0.3295895638864125,
            0.37778125875142393,
            -0.06649063014215095,
            -0.10165885828732459,
            -0.35221540138421115
        ],
        "intercept": [
            -0.9692971362910495
        ]
    },
    {
        "weights": [
            -0.05461297123006689,
            0.028772318135546395,
            1.5386910841814785e-05,
            0.36909363485773006,
            0.23788946294792654,
            0.5717557840220041,
            0.006657112893527581,
            0.15644158220860468
        ],
        "intercept": [
            -0.803917887316187
        ]
    },
    {
        "weights": [
            0.18588625732380917,
            0.336954006491503,
            0.220049470453266,
            -0.03141103953154454,
            0.4728523414587513,
            0.09851071178843263,
            -0.07713130615460849,
            0.22369443355609564
        ],
        "intercept": [
            -0.5724916500848658
        ]
    },
    {
        "weights": [
            0.4521188246686623,
            0.4654754102690109,
            -0.1968455042712856,
            0.9456029045361439,
            -0.09387579751488735,
            1.0557102322834198,
            0.343947303360493,
            0.5453325885670481
        ],
        "intercept": [
            -0.5814425504125118
        ]
    },
    {
        "weights": [
            0.5524283686715942,
            -0.09703870696972129,
            -0.08548087265546557,
            0.2593058159443605,
            -0.11486181182436318,
            0.2728162461205177,
            0.008111126529327002,
            0.2813918337887528
        ],
        "intercept": [
            -0.5637032782538473
        ]
    },
    {
        "weights": [
            0.9437780806544094,
            0.5231397619637718,
            0.13041161939372148,
            -0.028066955556944703,
            -0.2518400178469125,
            0.9657996031681214,
            -0.05176818109593474,
            0.06052790617733066
        ],
        "intercept": [
            -0.7916372493480519
        ]
    },
    {
        "weights": [
            0.21693397691730318,
            0.17487626794497993,
            0.27022629958630173,
            0.3459753986695945,
            0.2946362226567628,
            0.46564117221417584,
            0.28486527382671234,
            0.3439648405440978
        ],
        "intercept": [
            0.9900115087665806
        ]
    },
    {
        "weights": [
            -0.0746818664926519,
            0.8963663718633388,
            -0.2068552887894536,
            0.07068856459714713,
            0.16859802444010355,
            0.7187360316370991,
            0.37932706203649125,
            -0.15930324699811899
        ],
        "intercept": [
            -0.664815298476966
        ]
    },
    {
        "weights": [
            0.35442698377449644,
            1.1457913269307387,
            -0.04892393146508551,
            0.11001611071831698,
            0.3960576490737266,
            0.7331882125599322,
            -0.6351754912337091,
            0.34169749795950133
        ],
        "intercept": [
            -0.9468994089736723
        ]
    },
    {
        "weights": [
            -0.3707717535289458,
            1.1484306970987506,
            -0.06592328255227807,
            -0.4889348757685339,
            -0.19034600429563314,
            0.3074035920935035,
            0.599580897083771,
            0.3336315240411169
        ],
        "intercept": [
            -0.3837103180902291
        ]
    },
    {
        "weights": [
            0.25454215719361806,
            0.5316004623567276,
            0.21027500155128453,
            0.26146223096276194,
            0.4640479270200316,
            0.04704948877292159,
            0.1313692528706759,
            0.45324129592564755
        ],
        "intercept": [
            -2.1819166042808473
        ]
    },
    {
        "weights": [
            0.5913285291116871,
            0.8135677552560068,
            0.6287971939089847,
            -1.0972816334898476,
            -0.20217906656078471,
            0.00865663333386553,
            -0.07093307117710748,
            0.007731391259885587
        ],
        "intercept": [
            -0.4581798327436344
        ]
    },
    {
        "weights": [
            0.5914054981341859,
            0.2724656233833663,
            0.1813777307081219,
            0.2121108887745013,
            0.26161635685456824,
            0.06245329265258258,
            0.009397320823425887,
            0.3910420729763158
        ],
        "intercept": [
            -0.9299660917723599
        ]
    },
    {
        "weights": [
            -0.05624621883449047,
            1.377805520923279,
            -0.3652075378941012,
            -0.1995253123432304,
            0.7193055006968221,
            0.6355283233232091,
            0.056039106822956854,
            0.2553474717459966
        ],
        "intercept": [
            -0.3678162130274423
        ]
    },
    {
        "weights": [
            -0.52137820041671,
            0.13344496559178493,
            0.15560581437868073,
            -0.2674697052383538,
            -0.23955712185801784,
            0.24828734573433892,
            0.2098272496280446,
            0.02133879693525058
        ],
        "intercept": [
            -0.3630484536991224
        ]
    },
    {
        "weights": [
            0.043011897925720084,
            1.3191018434022623,
            -0.4524722870088465,
            0.13033390910628542,
            -0.42760952461288976,
            0.8831077783152862,
            0.15511333727755278,
            0.49828652291155395
        ],
        "intercept": [
            -1.0070482039775939
        ]
    },
    {
        "weights": [
            0.13416670449084733,
            0.8214041468381391,
            -0.07387936213727013,
            -0.17215143982531061,
            0.5946103663088542,
            0.265462259196878,
            -0.4188836856926311,
            0.22903931858146603
        ],
        "intercept": [
            -1.1638070617472973
        ]
    },
    {
        "weights": [
            0.23687279637831876,
            0.39931190799857774,
            0.020749516564489395,
            -0.2367008429601827,
            -0.5422336210436435,
            1.1350173905911045,
            0.6478737752081462,
            1.0281764013887054
        ],
        "intercept": [
            -1.4990613529282546
        ]
    },
    {
        "weights": [
            0.011766240592225754,
            0.21173344509019365,
            0.5454650885431672,
            -0.31853225138023933,
            -0.4242301950655842,
            0.5239311801838971,
            0.5740608968793856,
            0.6083575981193546
        ],
        "intercept": [
            -1.4675750866755048
        ]
    }
]