[
    {
        "weights": [
            0.41208445988449255,
            0.43567315600520606,
            0.4001441337234695,
            0.3570578911241014,
            0.512030598881272,
            0.30443299997861784,
            0.35805590272678933,
            0.8378936722341178,
            0.3269398433972289,
            0.11973003377968278,
            0.4418273895146573,
            -0.057162414449199325,
            0.27198532756062127,
            0.3097946087945812,
            0.2888355127232696,
            -0.27651242473340676,
            -0.2819679127152734,
            0.326217229944403,
            0.24374977052173405,
            -0.4142345072075754,
            0.43252706641608074,
            0.31217868418910344,
            0.36903655158838183,
            0.37042237457493177,
            0.3244170996829175,
            0.08238847505535671,
            0.0622007032810627,
            0.6355858073789173,
            0.2996030455155555,
            -0.010589235275734729
        ],
        "intercept": [
            -1.225120697623183
        ]
    },
    {
        "weights": [
            0.31496776606694654,
            0.44174132346087225,
            0.3103916793202012,
            0.45705720183168047,
            -0.03057674772663716,
            -0.25498393126465785,
            0.6701716954957331,
            0.7133953411529688,
            0.16859190820128336,
            -0.1666250887444908,
            1.0865753167254242,
            0.390284414330492,
            0.7847965072920962,
            0.7479687550548997,
            -0.6509408634399362,
            -0.5951036360224843,
            -0.22436677234656988,
            0.22541963927791261,
            -0.5611463283695188,
            -0.605491038664236,
            0.6319290613094575,
            0.8664979239677443,
            0.5395334745095106,
            0.6734669130168645,
            0.5106300247705541,
            0.18379242213904226,
            0.7846546418502754,
            0.9260212373687253,
            0.9808282421706973,
            0.3620230201780926
        ],
        "intercept": [
            -0.5009799680223447
        ]
    },
    {
        "weights": [
            -0.09304671768414123,
            0.2205377204548197,
            -0.08650898879466543,
            -0.08556437166755936,
            0.28400177646027647,
            0.1077314042743504,
            0.21738861672851004,
            0.2291554094721047,
            0.14082310252103755,
            0.07336748171142976,
            0.22818886580347006,
            -0.13671448277477577,
            0.1733017088526237,
            0.08399044191232322,
            -0.013566584698302122,
            -0.14013993437049574,
            0.014440145425825777,
            0.04449581226825615,
            0.1323270394675725,
            -0.28424701958565846,
            0.06358115572301251,
            0.2073822044338657,
            0.04573577030168481,
            0.00386830718771469,
            0.5583519212838696,
            0.21483742878646286,
            0.2721632701211227,
            0.30949218706959003,
            0.5889694851287068,
            0.12882433259538206
        ],
        "intercept": [
            -1.3385346308703627
        ]
    },
    {
        "weights": [
            0.11183418877571355,
            0.10556368062595363,
            0.1254973169305747,
            0.11842249442882938,
            0.030394464019214154,
            0.1702234864298018,
            0.11465898527354995,
            0.14651462408681562,
            0.017941613754256982,
            0.047866828669245916,
            0.13199703662078213,
            -0.03886147730288592,
            0.15999361924281702,
            0.11840406717834386,
            0.018016448936415914,
            0.09577491779285989,
            0.04319745458093125,
            0.08983583292423217,
            0.008160629875358743,
            0.07854247629267155,
            0.14155503169647818,
            0.07253894773265003,
            0.16074629952112743,
            0.1445083794457919,
            0.038936331208745595,
            0.14676447921451852,
            0.0918517110760321,
            0.13234224936546204,
            0.018445816267943078,
            0.1184209113866122
        ],
        "intercept": [
            -1.3196873649101704
        ]
    },
    {
        "weights": [
            0.571212885013325,
            0.4298081640641899,
            0.550213938825875,
            0.5358777879799519,
            0.04466768131261943,
            -0.19125999296165694,
            0.5033643575957164,
            0.6301887668296793,
            -0.5233875010197806,
            -0.227521038675546,
            0.445290900875899,
            -0.4459166735297945,
            0.23830821706734878,
            0.40371060798197195,
            0.3324552854592681,
            -0.30260932532399154,
            0.17911647484609064,
            0.055682682488525675,
            -0.07219359530205964,
            -0.12153857092121151,
            0.8156592785927962,
            1.2875997640551635,
            0.6682146364985687,
            0.7200172302977058,
            0.6345779600107414,
            0.12080445045469515,
            0.7327612801299503,
            0.43719652847065926,
            0.5148279947875015,
            0.1434833496295987
        ],
        "intercept": [
            -0.4469659201837435
        ]
    }
]