[
    {
        "weights": [
            0.11000199301313546,
            1.0129587926669588,
            -0.5078571210899693,
            0.4350093971750996,
            0.22746464439243302,
            0.329938129225627,
            -0.1454272764255903,
            0.36202535077687403
        ],
        "intercept": [
            -0.9138799383078736
        ]
    },
    {
        "weights": [
            0.025001273403045664,
            1.1727884197074094,
            0.21453720408633212,
            -0.003991207502167424,
            0.16575037575881962,
            0.9811548238729092,
            -0.1550672921337458,
            0.35277111452267235
        ],
        "intercept": [
            -0.781562666349586
        ]
    },
    {
        "weights": [
            0.5641668313184268,
            0.563822746896784,
            -0.7133968194010296,
            0.49560291308269494,
            -0.13651985710778095,
            0.8861100402866605,
            0.3955999771839328,
            0.6921476051373395
        ],
        "intercept": [
            -0.8525908237907234
        ]
    },
    {
        "weights": [
            0.22058823890340926,
            1.128169266297493,
            0.1924990953637754,
            -0.14951991772185308,
            -0.21832335486772586,
            0.5793584139113024,
            0.18282119777240702,
            0.454415248060027
        ],
        "intercept": [
            -0.7020346990169097
        ]
    },
    {
        "weights": [
            0.05434318450177795,
            0.4590691222759355,
            0.05972495483583865,
            -0.21519031356030707,
            -0.011977251554183981,
            1.2410947282838773,
            0.21591435877615203,
            0.7439041406973227
        ],
        "intercept": [
            -0.6894194463319091
        ]
    },
    {
        "weights": [
            0.1576448281732872,
            1.6414227015719398,
            0.01923599674031566,
            0.674649393282086,
            -0.03436422142053622,
            0.5215660750194204,
            0.022154439398061707,
            0.42573634702899293
        ],
        "intercept": [
            -1.6696219242798698
        ]
    },
    {
        "weights": [
            0.02053698062623692,
            0.6751897032624481,
            -0.3256760022050559,
            -0.695069548110049,
            -0.3157124918393972,
            1.2118808690811549,
            0.5998412510446107,
            0.6921574935025842
        ],
        "intercept": [
            -0.8720071687856378
        ]
    },
    {
        "weights": [
            0.5551143786799947,
            1.4627371132853972,
            -0.1929299723235922,
            -0.4436724978545225,
            0.05219564382894767,
            -0.07820298047789674,
            0.9202728089383635,
            0.38599413825078166
        ],
        "intercept": [
            -1.086947652415446
        ]
    },
    {
        "weights": [
            0.1320532568785519,
            1.2394574898869595,
            -0.3857084301135819,
            0.4182879276948404,
            -0.35917351550437027,
            0.1447584835709256,
            0.12123436360615052,
            0.17768622182080882
        ],
        "intercept": [
            -1.053793616654912
        ]
    },
    {
        "weights": [
            0.09661716981396413,
            0.8737593472992116,
            0.29447397235585066,
            -0.13944531992785497,
            -0.13333805454891123,
            1.1820258366399428,
            0.499955636181514,
            0.7602677799281227
        ],
        "intercept": [
            -0.915421259686173
        ]
    }
]