[
    {
        "weights": [
            0.34816632626245025,
            0.9515987769395264,
            -0.40364880210964826,
            0.3293568577454718,
            0.6457535181458071,
            -0.19293547102416997,
            0.19487024665807248,
            0.7567011017775499
        ],
        "intercept": [
            -1.1061394333429824
        ]
    },
    {
        "weights": [
            -0.09696389014112847,
            0.9028087564884325,
            -0.637284378539459,
            0.2655268972985632,
            -0.13012152378331393,
            1.251795995429977,
            -0.41799425044251864,
            0.07813317095985738
        ],
        "intercept": [
            -0.8942964922084913
        ]
    },
    {
        "weights": [
            0.09129011396567865,
            0.6979348375176646,
            0.22016480697639776,
            -0.22736174386593394,
            0.38994836344420913,
            0.7975508607509011,
            -0.27985918669550086,
            -0.2383819088955798
        ],
        "intercept": [
            -0.6262136017987658
        ]
    },
    {
        "weights": [
            0.18096033122577235,
            1.4017177976276252,
            0.1982722698627421,
            0.017638548366787056,
            -0.09556134410717486,
            0.6276345529065583,
            0.07644052610344451,
            1.1728153268430015
        ],
        "intercept": [
            -0.5680364686212516
        ]
    },
    {
        "weights": [
            0.7429244083081019,
            0.934398643077074,
            -0.5522417944548103,
            0.5093460092113824,
            0.24851173285587322,
            0.1083821104990692,
            0.9388501279908362,
            1.0684242905503472
        ],
        "intercept": [
            -0.5653750372252542
        ]
    },
    {
        "weights": [
            0.564756901853719,
            0.19672227709413717,
            -0.9584198136018013,
            0.13740306809702854,
            -0.41613175629453,
            1.0059688625366134,
            0.1689565539079973,
            0.21679513667820025
        ],
        "intercept": [
            -0.9525621063577618
        ]
    },
    {
        "weights": [
            0.09458673453283602,
            0.9056872544920244,
            -0.006734357865264267,
            -0.13174087963069725,
            -0.521728901474335,
            0.6162292486692881,
            0.5858814617084925,
            0.07225169575034036
        ],
        "intercept": [
            -0.26605742872443355
        ]
    },
    {
        "weights": [
            0.2234163898599345,
            1.116288194397453,
            0.3503815756628616,
            -0.12168817419785365,
            0.3166660816875628,
            0.5732227821958964,
            -0.49510345936013184,
            0.6218056922377831
        ],
        "intercept": [
            -0.8799299519071762
        ]
    },
    {
        "weights": [
            -0.007458953748562344,
            0.18786336618320074,
            0.3084176145187904,
            -0.21107906726562514,
            -0.24328391085109996,
            0.9832286383925112,
            0.28416734350269873,
            0.7020713558381445
        ],
        "intercept": [
            -0.985270158447181
        ]
    },
    {
        "weights": [
            0.30134514971709575,
            0.8091029019892342,
            -0.04641068842820659,
            -0.004622819299950726,
            -0.35716688605607055,
            1.0496745580250377,
            -0.13947296707270435,
            0.7368209135445823
        ],
        "intercept": [
            -0.31340454849156346
        ]
    },
    {
        "weights": [
            0.07170213860034987,
            1.2818496908092025,
            -0.4935326700601763,
            0.8937683358787154,
            0.10342725528588441,
            0.46648280529361413,
            -0.14137394358916458,
            0.7484473319812135
        ],
        "intercept": [
            -1.4566260049084565
        ]
    },
    {
        "weights": [
            -0.05979858196991516,
            1.2898048495547607,
            0.6113023916674384,
            -0.010389448173255815,
            0.27593355272820685,
            1.247735985666973,
            0.3986402994797049,
            -0.5440057163446672
        ],
        "intercept": [
            -1.292686860875159
        ]
    },
    {
        "weights": [
            0.03463712357710527,
            0.6473459711250175,
            -0.3868025930542688,
            -0.2486788890010101,
            -0.3257534604298625,
            1.0746225333917792,
            -0.012222972208305875,
            0.5622778979010493
        ],
        "intercept": [
            -0.9759991256601789
        ]
    },
    {
        "weights": [
            -0.0325091961512227,
            1.179070341865425,
            0.018764739196355098,
            -0.8471318516112126,
            -0.40400902182391196,
            0.3365198373450854,
            0.6386831831593076,
            0.8540426909868273
        ],
        "intercept": [
            -0.6852125710507638
        ]
    },
    {
        "weights": [
            0.24587203659396858,
            1.2893726297705126,
            -0.12664538159085373,
            -1.153878777409791,
            0.026279397929609906,
            -0.19428616436682816,
            0.6912656396045525,
            0.8566363155331771
        ],
        "intercept": [
            -1.532159973406907
        ]
    },
    {
        "weights": [
            0.40914215735024995,
            1.0375105072202502,
            0.13022555622583856,
            -0.041771912142465055,
            0.3142042171941516,
            -0.12717012374709258,
            1.1325661026402916,
            0.3292578222580059
        ],
        "intercept": [
            -1.0633308625047173
        ]
    },
    {
        "weights": [
            0.3938545886658216,
            1.2902067418852765,
            -0.4919122720644239,
            0.4480424590314584,
            0.27728442466513714,
            0.0010461573973919855,
            0.5423439925002335,
            0.2233843449680784
        ],
        "intercept": [
            -1.5229443875747781
        ]
    },
    {
        "weights": [
            -0.36524416424298833,
            1.0038151248675597,
            -0.1373489368852011,
            -0.11020192361762907,
            -0.13023944795248837,
            0.8428158601589758,
            -0.33080726629369567,
            0.35747489551968764
        ],
        "intercept": [
            -0.8528946788667827
        ]
    },
    {
        "weights": [
            0.04731067754047359,
            0.48975168464825103,
            0.9520038344069643,
            -0.18063220910591207,
            0.31657109793839344,
            0.4264336934363587,
            0.472225952398138,
            1.2642004964203306
        ],
        "intercept": [
            -0.8604375905000864
        ]
    },
    {
        "weights": [
            0.03911588924363201,
            0.9339954829189325,
            -0.04272521209566085,
            -0.341472776865624,
            -0.33210651756401016,
            1.3081013937948502,
            0.356483349996383,
            0.17881165801587193
        ],
        "intercept": [
            -0.8741810292389851
        ]
    }
]