[
    {
        "weights": [
            0.4144345179957223,
            0.5476837301371436,
            0.07504563067954431,
            0.4924327761596912,
            1.0122294181351472,
            0.009926715689055956,
            0.5541070034154,
            -0.7722006012810589,
            0.5660127463885122,
            0.41553017622589616,
            -0.26924391935020353,
            0.8279924425211085,
            0.5063784046438274
        ],
        "intercept": [
            -0.854300380359358
        ]
    },
    {
        "weights": [
            -0.20479341069703513,
            0.5214361048734864,
            0.8053976388136901,
            1.0340550970272113,
            0.6425570167021982,
            -0.41956910879240356,
            -0.31935795820035445,
            -0.4497639931864927,
            -0.16475954500640574,
            0.49520767600769633,
            -0.26115174704049826,
            0.40400823853852597,
            0.22311787391324445
        ],
        "intercept": [
            -0.5206729510096091
        ]
    },
    {
        "weights": [
            0.1800331775386321,
            1.0332010596833756,
            0.6892439298585519,
            -0.3587766681743403,
            0.0021124893265113895,
            0.03326131991152874,
            -0.50275964632001,
            0.23334932112426898,
            0.5183130091128683,
            0.6668143770740697,
            0.7812258968318145,
            1.111242540336505,
            -0.05032137153450481
        ],
        "intercept": [
            0.5566172616278271
        ]
    },
    {
        "weights": [
            1.0705297993384004,
            0.6483463335136274,
            -0.19309402413643467,
            0.24508925057186118,
            -0.2917820946657046,
            0.6254738011466628,
            0.21650403742056804,
            0.06008100356087042,
            0.619157627354485,
            -0.44827276330126453,
            0.38553413425847993,
            1.224350817902845,
            -0.2602396323168137
        ],
        "intercept": [
            -0.39088564447898544
        ]
    },
    {
        "weights": [
            0.465409892412578,
            0.0502334322190994,
            1.1843016301884186,
            0.5432565086367972,
            0.5896194207833763,
            -9.523267397960775e-06,
            0.4631963666343943,
            0.01138845731935125,
            0.9724673473187415,
            0.4487953547833934,
            -0.17944789641801503,
            0.0892883007191984,
            0.399472374801696
        ],
        "intercept": [
            -0.28597400117430305
        ]
    },
    {
        "weights": [
            0.029343091833998376,
            0.43396087929342547,
            0.2171541468207742,
            -0.3236142986109404,
            0.29484827897415744,
            0.12575472786782074,
            -0.1581864721721137,
            -0.67471991774199,
            0.5631617008666013,
            0.424299768159846,
            0.7094426205026163,
            0.7301773502578698,
            1.04285438091256
        ],
        "intercept": [
            -0.28786666496940894
        ]
    },
    {
        "weights": [
            -0.1473612081281125,
            0.22645980732880444,
            0.9510793674870016,
            -0.28629111159311577,
            0.050987564364202285,
            -0.3702214614850571,
            0.4109728163967675,
            -0.22848339736060286,
            0.25697947065777743,
            0.8935647779607823,
            0.4081724948228204,
            0.7703436249574354,
            1.0180002598919549
        ],
        "intercept": [
            -0.05810666031510028
        ]
    },
    {
        "weights": [
            -0.0742288889708504,
            0.38476727116513676,
            0.3784364970034807,
            0.7923095010966484,
            -0.5710050092389354,
            0.16492332374647053,
            0.014722338793524577,
            0.01449328906832596,
            0.9293115272233332,
            0.16061307277917172,
            0.5609734540172646,
            0.4124144576006069,
            1.1080251316066048
        ],
        "intercept": [
            -0.228577877424532
        ]
    },
    {
        "weights": [
            0.4120947248316801,
            -0.2393836375934175,
            -0.34993902095739404,
            0.44253713204700795,
            0.6468181711034247,
            -0.47014581879992745,
            0.3748788418706827,
            -0.5279593330581136,
            -0.18409436429270934,
            0.7635606181713205,
            0.14828747264044506,
            -0.016894989400418083,
            0.7815366310190651
        ],
        "intercept": [
            -0.7817094771172975
        ]
    },
    {
        "weights": [
            -0.2919052385613634,
            0.5989513683004035,
            0.1636190864921102,
            0.06081650833118779,
            0.4985006219542587,
            -0.6491834632808193,
            0.85500329055253,
            -0.7613269645063279,
            0.30828361430039264,
            0.35011272134340765,
            0.46522063270743164,
            0.8149620007615507,
            0.7071930481497984
        ],
        "intercept": [
            -0.2568276262917529
        ]
    }
]