[
    {
        "weights": [
            0.5249425357978037,
            0.4329406457649446,
            -0.07706479862621904,
            0.3686243165589484,
            0.6620962820654024,
            -0.3738109369631592,
            0.5582583556464881,
            -0.5692956539378217,
            -0.07190903749271874,
            0.2526536211381065,
            0.635464504631381,
            0.20287914500272228,
            0.3946348807475214
        ],
        "intercept": [
            -0.449372495712526
        ]
    },
    {
        "weights": [
            0.05889864485315391,
            0.06055359750487311,
            0.26472178852720457,
            -0.12792335806362315,
            0.4818962742505753,
            0.4818102443535233,
            0.11562311153750443,
            -0.28508079593604807,
            0.8233781459645396,
            0.2467358379736495,
            -0.36835303678354264,
            0.8970532697950858,
            0.39979866673283476
        ],
        "intercept": [
            -0.7796003604541829
        ]
    },
    {
        "weights": [
            0.5641647693036839,
            0.547709315452975,
            0.8697408364068139,
            0.5847018232089216,
            0.4678010272091025,
            -0.5113463144026256,
            0.10136474317699588,
            -0.10022128586893364,
            0.266887162046943,
            0.34063444514824415,
            0.04438866432812218,
            0.08917880024230215,
            0.3867500294493023
        ],
        "intercept": [
            -0.45578171728178973
        ]
    },
    {
        "weights": [
            -0.5297846595341915,
            0.18253709808085447,
            0.2270557392887798,
            0.32545247652534864,
            0.4266962026247055,
            0.4436346021421723,
            -0.39337001289862966,
            -0.40649449460578163,
            -0.2878391572222991,
            0.4979594520146563,
            -0.6996577938699969,
            0.8722741358598894,
            0.2382073702416803
        ],
        "intercept": [
            0.2733911443082149
        ]
    },
    {
        "weights": [
            0.2258920978046727,
            0.8394971526983646,
            0.7733880935470541,
            -0.5255137782560307,
            0.15470582139158787,
            0.022956541438605805,
            0.09874775211432572,
            0.06280374588982589,
            -0.07712023210643139,
            0.2710598821734237,
            0.5265594135887546,
            0.5855934357879081,
            0.44797166362919183
        ],
        "intercept": [
            0.3097726610351981
        ]
    },
    {
        "weights": [
            0.20224713109065337,
            0.8222653575286947,
            0.2962194096492275,
            0.0807768486305162,
            -0.2356185522235257,
            -0.2805112272885175,
            -0.6682976680363196,
            -0.013649256287756251,
            0.87014547511385,
            0.5239363382338137,
            0.26113938955028515,
            0.6645240248406178,
            -0.27393614683851814
        ],
        "intercept": [
            -0.09269550406922326
        ]
    },
    {
        "weights": [
            0.5937636459338932,
            0.5496324670940489,
            -0.17147618366401723,
            0.09577406622550497,
            -0.12775660846579018,
            0.6543172014421458,
            0.40746782305205,
            -0.17157380352271154,
            0.6608102328210081,
            -0.33527734003490284,
            0.05564410656207243,
            0.8397703085864553,
            -0.04267602091437034
        ],
        "intercept": [
            0.032357722291092406
        ]
    },
    {
        "weights": [
            0.9660859270747384,
            0.34005497662427747,
            -0.12889888231816726,
            0.3427395541985055,
            0.17298053073817252,
            1.2824034604476187e-05,
            0.12737421764143872,
            0.043989267914831494,
            0.2996991112317487,
            0.1352976617168439,
            0.3539079805359722,
            1.0490647610421238,
            0.0948462999167728
        ],
        "intercept": [
            -0.35525466454417837
        ]
    },
    {
        "weights": [
            0.29722973052098245,
            0.017663549459980877,
            0.45040415483305135,
            0.6347468185475404,
            0.6780788969396524,
            7.594380628641367e-06,
            0.5809708417788884,
            0.39903315551320934,
            0.5537811373781134,
            0.26508771829277006,
            0.6185761598313425,
            -0.17388077803937044,
            0.47250368998567227
        ],
        "intercept": [
            -0.056995673337323936
        ]
    },
    {
        "weights": [
            0.25111381321308046,
            0.1469150710074154,
            1.063951262887077,
            -0.12535634098175982,
            -0.13674463699643566,
            -6.9974710306591505e-06,
            -0.14205566177311338,
            -0.772804655939104,
            0.4807177466518301,
            0.212251719908046,
            -0.26660412737830347,
            0.2910582958596196,
            0.10791336769567161
        ],
        "intercept": [
            -0.41493189037791695
        ]
    },
    {
        "weights": [
            0.03674396236542852,
            0.4140561115225902,
            0.5064103118501939,
            -0.23646333242940124,
            0.13323902955601405,
            0.2391868719527727,
            -0.04055011024100821,
            -0.24892098347465472,
            0.4444101507638118,
            0.6856894953678342,
            0.48466329590953516,
            0.2796727054774811,
            0.5714209178027007
        ],
        "intercept": [
            -0.49175457707874237
        ]
    },
    {
        "weights": [
            0.1480192055669666,
            0.35934882788778044,
            -0.10862182438621817,
            -0.20709020421153682,
            0.15082598524180962,
            0.19598110807970007,
            -0.08700043417319042,
            -0.5273770596888929,
            0.37332608141721596,
            -0.10981505195805139,
            0.49957271329451536,
            0.5729462764143443,
            1.100081527313443
        ],
        "intercept": [
            -0.24212330423900197
        ]
    },
    {
        "weights": [
            -0.10208996328062869,
            0.31742993867408537,
            0.7552104067499131,
            -0.26173828778683605,
            -0.31455005845316375,
            -0.3060624588792834,
            0.5013139395210061,
            -0.5179555659518366,
            0.1391901637646237,
            0.5947852730400041,
            0.15392480262163008,
            0.36357084741466295,
            0.6304708928228917
        ],
        "intercept": [
            -0.39645577552826916
        ]
    },
    {
        "weights": [
            -0.002744015364387646,
            0.015935393195387247,
            0.5224885867239588,
            -0.2288516545360329,
            -0.16487457638853187,
            -0.2786090008353386,
            0.038892598021964306,
            0.0859375246193261,
            0.2999697919443654,
            0.7531341736512247,
            0.10459047589801683,
            0.8899183790348978,
            0.7578917832752978
        ],
        "intercept": [
            -0.5371091502848254
        ]
    },
    {
        "weights": [
            -0.18499237417290962,
            0.3437467367163098,
            0.48693001294835825,
            0.45563547018050726,
            -0.1348962028023395,
            -0.06908037142356442,
            0.09746283219593588,
            -0.2258707653119053,
            1.1315296243661683,
            0.1288986140470924,
            0.3102646680010852,
            -0.04888100135013232,
            0.4710365385583874
        ],
        "intercept": [
            -0.6434346578192739
        ]
    },
    {
        "weights": [
            0.7784890830614049,
            0.1042112525686308,
            0.16844862471555067,
            0.49832155243683096,
            -0.2534622556358512,
            -0.12109903577452832,
            -0.035290116441478135,
            -0.2515073068036828,
            0.17688000025271694,
            0.32642438982033545,
            0.09442390378487137,
            0.8407550788578301,
            0.6877734519639817
        ],
        "intercept": [
            0.09866111556591707
        ]
    },
    {
        "weights": [
            0.5570323937296897,
            -0.21505077112694662,
            -0.8669488935613651,
            0.4385529330393449,
            0.2553558406526222,
            -0.253931881556739,
            0.4819392827350356,
            -0.025917904740750956,
            -0.006971638427284292,
            0.10113945651683831,
            0.3662073998619564,
            -0.5535157510540708,
            0.7222826726604008
        ],
        "intercept": [
            -0.8796894216665945
        ]
    },
    {
        "weights": [
            0.03329017734290711,
            0.27210388635857957,
            0.48201285557810997,
            0.11686308109929197,
            0.6222412364773372,
            -0.07926583347646565,
            0.040733760484470756,
            -0.7054337649558728,
            0.037475300512363086,
            0.6369136960673542,
            0.13019694574006865,
            0.38711249012633425,
            0.6266245305608064
        ],
        "intercept": [
            -0.7733629059659696
        ]
    },
    {
        "weights": [
            -0.09846859530590085,
            0.581471663015568,
            -0.06901740796244381,
            0.3850886063655374,
            0.05137932683078993,
            -0.554377821600388,
            0.4673268744046185,
            -0.6631808935236253,
            -0.38592720745517334,
            0.4400846179601482,
            0.5539807197046622,
            0.4362837972423327,
            0.36042899235661063
        ],
        "intercept": [
            0.18852097919263364
        ]
    },
    {
        "weights": [
            -0.31903584956278336,
            0.29264178896210713,
            0.34685423474608834,
            0.11842996490111272,
            0.38500566706605965,
            -0.13198911996707405,
            0.5703936894098774,
            -0.1878869712371597,
            0.7627525570069996,
            -0.13954402666346755,
            0.16998731782500787,
            0.5712041349196666,
            0.6218797155222724
        ],
        "intercept": [
            -0.38196266411246044
        ]
    }
]