[
    {
        "weights": [
            -0.4241053758986709,
            1.1544061098176095,
            0.15602622960073761,
            -0.14052307938631653,
            0.2302591317804811,
            0.18696092115886945,
            0.45425684982901365,
            -0.8532798856183869,
            0.4223158015973349,
            0.709948915347975,
            -0.11673859791189115,
            0.9757489142681629,
            -0.48474727309170446
        ],
        "intercept": [
            -0.6358826520526651
        ]
    },
    {
        "weights": [
            0.18428064278069511,
            0.6766932992577901,
            0.512396043590387,
            0.4939721135316189,
            0.5131040635422783,
            -0.22127267382476953,
            -0.22798015734173807,
            -0.357726092338111,
            0.30562155773014354,
            0.540763159431344,
            0.3566727743171859,
            1.2779056001954945,
            0.4379243424080887
        ],
        "intercept": [
            0.21989897758801621
        ]
    },
    {
        "weights": [
            0.09116632127412008,
            0.6253644870222946,
            0.2845374350685868,
            -0.2521149394198701,
            -0.10804163808209963,
            -8.571735903112289e-06,
            -0.03790772673723162,
            -0.041948644553434916,
            -1.429798679243279e-05,
            0.11130135873468194,
            0.25258021365409317,
            0.14618760320687985,
            0.6109251101419834
        ],
        "intercept": [
            0.10653238611206527
        ]
    },
    {
        "weights": [
            0.07705546458133809,
            1.0311987448359479e-05,
            -0.12091986617452334,
            0.4485521006540968,
            0.06278491885949562,
            -0.3258948667825692,
            0.23335029910085314,
            0.1015212856872072,
            -1.0468697056619235e-05,
            -1.3477694394209362e-05,
            -1.467224601424985e-05,
            -0.12422817272364803,
            0.24268636631714482
        ],
        "intercept": [
            -0.521574217621159
        ]
    },
    {
        "weights": [
            0.14060848936572265,
            0.43411753672254955,
            0.7557790644717747,
            -0.14619070650471783,
            0.26194211746230694,
            -0.2390805359041922,
            0.6955744410721113,
            -0.0522505567534252,
            0.2525370775007979,
            0.2657477334004299,
            0.257353152395246,
            1.0162982211086644,
            0.9909941155780311
        ],
        "intercept": [
            -0.6952297751706475
        ]
    }
]