[
    {
        "weights": [
            0.35148785499415763,
            -0.1104467247030086,
            0.2771147689308495,
            0.10262026112539975,
            0.011567616932270538,
            -0.3711623073525474,
            -2.813619235758619e-06,
            -0.006058200995314366,
            0.5663423715804315,
            0.2550076555801154,
            0.43176314196052107,
            0.08802053065229637,
            0.17193373812894255
        ],
        "intercept": [
            5.3720777831685015e-05
        ]
    },
    {
        "weights": [
            -0.758467323801911,
            -0.08527732671359145,
            1.29238474606622,
            -0.01919363896609922,
            0.6304002315587109,
            -0.03469039289974952,
            0.0677081235504004,
            0.4224280952130037,
            0.6454550771871034,
            0.7830227337364997,
            -0.14247906493247703,
            0.21953365003388098,
            -0.15717936888507875
        ],
        "intercept": [
            -0.400597437113448
        ]
    },
    {
        "weights": [
            0.24366398674453565,
            0.24805449333013993,
            -0.36219039536532616,
            0.21075802550514458,
            -0.06940131921566942,
            -5.405322627242027e-07,
            -0.2330033071481821,
            0.11654829729533586,
            -9.01628706325794e-07,
            0.19967042299278961,
            8.401284285619462e-07,
            0.2481144465632192,
            -1.1269975679212285e-06
        ],
        "intercept": [
            -0.007444299956129503
        ]
    },
    {
        "weights": [
            0.1267309515503053,
            0.35017639613615503,
            -0.34087891140594395,
            0.22315426522957652,
            0.24335292197612451,
            -3.442489093709538e-06,
            8.380351984670791e-06,
            -0.314759112275935,
            -5.7422048638953115e-06,
            -0.014100743506523723,
            -0.26555078331619186,
            -5.861732775656082e-06,
            -7.17751206313067e-06
        ],
        "intercept": [
            -0.5330276856644504
        ]
    },
    {
        "weights": [
            0.13239850690749208,
            0.19342700938238014,
            0.9874386634584202,
            0.143619264403734,
            -0.13510809842041266,
            0.07301015132915836,
            0.31325705257733427,
            -0.4670410745824966,
            0.583563547979572,
            -0.23513132823748062,
            0.15072968750435378,
            0.47586853681539304,
            0.12255054151166463
        ],
        "intercept": [
            -0.006203438497298224
        ]
    },
    {
        "weights": [
            -0.16410070694526638,
            7.94703769791663e-07,
            0.25747386005191714,
            -0.07023083145410025,
            -0.20291565952788074,
            -4.83670299963423e-07,
            0.24845685981594867,
            -0.18912102606931458,
            0.26310211366298786,
            0.26614088427587984,
            0.2005815556047325,
            -8.235744464898628e-07,
            0.25839486077882573
        ],
        "intercept": [
            -0.4507947554031389
        ]
    },
    {
        "weights": [
            0.4308880583701587,
            1.2678024537629518,
            -0.3097290796970276,
            1.1301718974740975,
            0.4375549770185068,
            -0.08512317396479825,
            0.33968338361649786,
            -0.6525977441173992,
            -0.09559554338308404,
            0.6336633605479876,
            0.12296146449068533,
            0.8405213764635302,
            0.7604099353620681
        ],
        "intercept": [
            -0.12921438668709997
        ]
    },
    {
        "weights": [
            0.2045895902405067,
            5.016399518289756e-06,
            0.17510037405732443,
            -0.04776261314422423,
            -0.006498618257488076,
            -3.05306650343637e-06,
            -0.3379309890405224,
            5.88766312399386e-06,
            -5.092632931801857e-06,
            -0.14479036937628237,
            -0.2728163855202501,
            0.35984910102213846,
            0.3514489594994191
        ],
        "intercept": [
            -0.07365757666853276
        ]
    },
    {
        "weights": [
            2.1357345988982777e-06,
            3.7137019767648734e-06,
            -6.540471652360995e-06,
            -0.06130011824770736,
            0.26669961179050905,
            -2.2602225097521417e-06,
            0.43370776357584023,
            0.15091699393496225,
            -3.7701385060931027e-06,
            0.2601632329163592,
            3.5129765904332634e-06,
            -3.848616511197976e-06,
            -0.4510542516908842
        ],
        "intercept": [
            -0.013676287384964146
        ]
    },
    {
        "weights": [
            0.35698933522291015,
            0.13844551479508413,
            0.1986090835973836,
            0.1313410855489405,
            0.05590699195379422,
            -1.9675219501094578e-05,
            0.2566686424704037,
            -0.2946132672610707,
            0.40588329497683795,
            0.3621661759492127,
            0.16119174704295658,
            0.20701882232387805,
            0.39861303637905465
        ],
        "intercept": [
            0.2116264008496931
        ]
    },
    {
        "weights": [
            0.0035223132611720944,
            0.1714138758670867,
            0.25296943138127526,
            -0.35548216029267854,
            0.5301641108360199,
            6.425207404595675e-06,
            -0.08686325694267996,
            -0.5188781665013025,
            0.5634143261628856,
            0.41793862752127814,
            0.6618040920863494,
            0.44675869302264104,
            0.6925273342190785
        ],
        "intercept": [
            0.014154980942771884
        ]
    },
    {
        "weights": [
            -0.15818969836931604,
            0.2549670580248744,
            0.12410936802748132,
            0.18953571299265537,
            -0.1426545704415109,
            0.3345355822256717,
            0.23950649685817413,
            -0.05208113937984438,
            0.25363392417096037,
            -2.5371029175601623e-05,
            -2.7619707852860834e-05,
            0.1275446704298435,
            0.24909099991315753
        ],
        "intercept": [
            -0.24610364010982758
        ]
    },
    {
        "weights": [
            0.18072701817834627,
            0.21378294294531716,
            0.3632146253477896,
            0.030057417798887983,
            0.06807301442048071,
            0.5581060033257077,
            0.03442814932502667,
            -0.34242798694262777,
            0.4654793320167594,
            0.24961774813902354,
            0.09936857493201295,
            0.4399597569472683,
            0.47173889410057257
        ],
        "intercept": [
            -1.8752399729194495
        ]
    },
    {
        "weights": [
            -0.29496365834734606,
            0.5705282196402682,
            -6.0454711122227606e-06,
            -0.18177400966694648,
            0.10813529074628542,
            2.8756711101650984e-06,
            6.863232786056626e-06,
            -0.0349682925815919,
            4.796730559304539e-06,
            6.175445542194795e-06,
            6.722786078120535e-06,
            0.28533182346003494,
            5.995709360440861e-06
        ],
        "intercept": [
            0.2871614218708753
        ]
    },
    {
        "weights": [
            0.7976128200041467,
            0.2035869165804083,
            -0.04085635275530864,
            -0.2554834996353841,
            0.021339128401746416,
            -0.16432011697853074,
            0.12261687418588658,
            -0.36901637229652684,
            0.5441158505157603,
            0.14549029897523696,
            0.4765397434485087,
            0.9231428092071295,
            0.19783446774363012
        ],
        "intercept": [
            -0.06221157668860504
        ]
    },
    {
        "weights": [
            -0.028131564207409233,
            1.7896619994115495e-06,
            0.3973011285883586,
            4.202169566750911e-06,
            0.12770208625038357,
            -0.3569719543188272,
            2.6515807076679454e-06,
            -0.1278518180085857,
            0.27065883485921977,
            0.15331857832637288,
            1.692930867545799e-06,
            0.2721717784519178,
            -2.2709967975116554e-06
        ],
        "intercept": [
            0.00828482354732368
        ]
    },
    {
        "weights": [
            0.25506880910511137,
            0.40623754476989576,
            0.3835396223595531,
            0.5587125560472608,
            0.5710155674779415,
            -0.05971848735920786,
            0.07303787599795414,
            -0.11842712658709027,
            0.5113132172483893,
            0.5791116263922373,
            0.6495623276243353,
            0.9321494300916222,
            0.7333719557391579
        ],
        "intercept": [
            -0.38078784978129626
        ]
    },
    {
        "weights": [
            -0.34592839884791843,
            -0.34448479672233007,
            0.09784860717319072,
            0.23787386666214558,
            0.014529396044590151,
            4.485983975411694e-06,
            0.1888508272427027,
            -0.39643213724145787,
            0.1999784413980726,
            -0.053183508963903836,
            0.4136884020373097,
            0.20108284573617738,
            -1.3138984405568286e-05
        ],
        "intercept": [
            0.5557704539685518
        ]
    },
    {
        "weights": [
            -0.0975521590483,
            0.8290442971031136,
            0.0994901168451362,
            -0.02870289616326113,
            -0.026577363970892717,
            0.2619954361049478,
            0.045152848327792275,
            -0.4817331794354668,
            -0.07312819233246771,
            0.08165831413958528,
            0.13181401008840196,
            0.7116460124748795,
            0.9177398931223859
        ],
        "intercept": [
            -0.20409509844253365
        ]
    },
    {
        "weights": [
            -0.033683119944454984,
            0.40120843051071703,
            0.3831332906190356,
            0.24162917394111114,
            0.07667850299827732,
            -0.38539123886069293,
            0.7967820542624804,
            -0.13892490806606192,
            0.1953653014751603,
            0.04541585535351322,
            0.5588115391266456,
            0.29430642473724383,
            0.625901334646219
        ],
        "intercept": [
            -1.2378222791276134
        ]
    }
]