[
    {
        "weights": [
            0.2850497494001049,
            0.39478380394747686,
            0.26607070010926304,
            0.28626077057224003,
            0.17531746085522282,
            0.05709554666995261,
            0.39608184442550554,
            0.5042732710780758,
            -0.09494540409260686,
            -0.15192822366051936,
            0.58647950437948,
            -0.0717667615596116,
            0.48824723676303566,
            0.45812006692468926,
            -0.05478939934873017,
            -0.29594160871746805,
            -0.08392920082854964,
            -0.1273104537413685,
            -0.11009548160499064,
            -0.2963821234659996,
            0.6780510224081197,
            0.6057302444139047,
            0.6241178745992711,
            0.6157608468164535,
            0.7049608270583281,
            0.08268852287103053,
            0.523972159308,
            0.5867137903458248,
            0.5112444469898353,
            0.14399515513911218
        ],
        "intercept": [
            -1.347393010262546
        ]
    },
    {
        "weights": [
            0.5752901344621528,
            0.6455910611475567,
            0.5850808645173202,
            0.5986092453346671,
            -0.015234424589772998,
            0.040899222238836734,
            0.5799500512441416,
            0.5025811300761803,
            0.03263745151580156,
            -0.432429240606877,
            0.19205652334713802,
            -0.5558869606152024,
            0.11966097962507496,
            0.28324187243084875,
            -0.036256689062769576,
            -0.3599746874639557,
            0.04636031349523837,
            -0.04421859711556814,
            -0.11840790040417822,
            -0.479587292610029,
            0.6136240645197998,
            0.7900670233986437,
            0.5759525049130922,
            0.5861160687574627,
            0.6467557895860515,
            0.16649445274369779,
            0.5737594563513249,
            0.600038665581728,
            0.44542582382533064,
            -0.0724110777389884
        ],
        "intercept": [
            -0.48414331247421233
        ]
    },
    {
        "weights": [
            0.3364307727456684,
            0.12056938285514102,
            0.30020999722898317,
            0.3836271305823414,
            0.18208459069317054,
            -0.23009058482589007,
            0.35242280669477655,
            0.3962931340198079,
            0.45839036361914764,
            0.28575009072859087,
            0.992960999319638,
            0.4691662654458975,
            0.6109553589764408,
            0.531102119504214,
            -0.6084078790852019,
            -0.650496746445688,
            -0.256997257574979,
            0.08066255041407377,
            -0.8783933552539044,
            -0.24185591123428365,
            0.6186079426990301,
            0.45480608902344466,
            0.48088283615447774,
            0.5708887808869093,
            0.11778874157766771,
            0.036079513968042105,
            0.6681938217308211,
            0.3786003871350002,
            0.6108152018951407,
            0.3898200968102321
        ],
        "intercept": [
            -0.6030660915408452
        ]
    },
    {
        "weights": [
            0.3780364550160686,
            0.5801785269324601,
            0.3686052185283001,
            0.33680950479382304,
            0.05434182591356326,
            -0.15499935662201106,
            0.6367957230467548,
            0.5789657176576685,
            -0.04114672451463448,
            -0.0877783936210872,
            0.43738452471310985,
            -0.312191303248897,
            0.18433583932435937,
            0.3889546647717452,
            0.08056731355279356,
            -0.4205634073925295,
            0.38647502224242347,
            0.15491141683520926,
            -0.2659625016849329,
            -0.24851806083941633,
            0.602928255153924,
            1.06193736435699,
            0.4834774470890172,
            0.5285603837807217,
            0.48341655948316553,
            -0.054623720050949405,
            0.735569184899029,
            0.640635722297055,
            0.4246374148063215,
            0.19183024040990065
        ],
        "intercept": [
            -0.5424199528009168
        ]
    },
    {
        "weights": [
            0.5444363257579244,
            0.16925356924319276,
            0.5012168790625607,
            0.509149149452031,
            0.2856549670885775,
            -0.0058709054404554,
            0.3938154552466163,
            0.7971739497273774,
            -0.1619832538771611,
            -0.3809333783715596,
            0.31428792268452643,
            0.38638064617050444,
            0.13315623993130848,
            0.29184857607256876,
            0.011658281811063598,
            -0.5072014512211488,
            -0.17662188892064418,
            0.15707726306066017,
            0.05936037755694173,
            -0.3233975337731736,
            0.6044466776265822,
            0.9367256097370671,
            0.4880897471055122,
            0.5257342159862666,
            0.6883109679996516,
            0.22196492274080942,
            0.3431012721527446,
            0.8391148104422713,
            0.7690118290201573,
            0.27278154863655757
        ],
        "intercept": [
            -0.9433720124951992
        ]
    }
]