[
    {
        "weights": [
            0.16179525250219273,
            0.33688592111894405,
            0.14232710869387494,
            0.18386460176656805,
            0.1496787447012376,
            -0.08666709968816806,
            0.34171161170249087,
            0.3956087753947956,
            -0.08139246528500962,
            -0.16707884179740132,
            0.5489329239148257,
            -0.06596432447337751,
            0.4445018360827025,
            0.42282809038089136,
            -0.052800638707777015,
            -0.22569568613426302,
            -0.0857604673292237,
            -0.19581368419830067,
            -0.05080406280991875,
            -0.25473171959154106,
            0.5830583005320854,
            0.5874442877551765,
            0.5282117681770329,
            0.5361528178795124,
            0.6542511365488863,
            0.07498353147058312,
            0.42667041034360603,
            0.4865157019711408,
            0.5867663003327293,
            0.16814635497238806
        ],
        "intercept": [
            -1.3463671492802145
        ]
    },
    {
        "weights": [
            0.4534871650983497,
            0.281600247561129,
            0.44790588227258626,
            0.42234666960938744,
            0.28420315007830105,
            0.296771821645809,
            0.2887951080225507,
            0.5291322119790731,
            0.07077640074195429,
            0.01777388996785791,
            0.28598059422952465,
            -0.007463638164691466,
            0.18922149509451155,
            0.2658735644406203,
            -0.06529042854436026,
            -0.22046167572629607,
            -0.1437528953381632,
            0.04045118115294006,
            -0.0805349458190522,
            -0.15208620141781568,
            0.46334464445598417,
            0.3086591272575776,
            0.43307983314344073,
            0.4244876820214962,
            0.34604790078647973,
            0.11608213788487502,
            0.23412099479734375,
            0.4590069333932705,
            0.1534797033070274,
            0.10839160889739645
        ],
        "intercept": [
            -1.266622001735622
        ]
    },
    {
        "weights": [
            0.399275880196991,
            0.5661005612551817,
            0.39616058819521066,
            0.35678068442209215,
            -0.037788234219583536,
            0.13633629739198652,
            0.3968901102048015,
            0.3347138004464721,
            0.21642853585598845,
            -0.3675382997644044,
            0.13056717382877409,
            0.023041504406474827,
            0.06551656759569535,
            0.14292549242126057,
            0.1983477362909097,
            -0.26573263080292525,
            0.06240015585966155,
            0.22774259749221684,
            0.36176854323377994,
            -0.35545428101224624,
            0.37709006415997437,
            0.5752448921113436,
            0.37412316264659795,
            0.31743482541945356,
            0.4244991858781217,
            0.25704276621320243,
            0.36960377349929247,
            0.3871327567549434,
            0.5574170557274454,
            -0.09953006143804459
        ],
        "intercept": [
            -0.9664712346950898
        ]
    },
    {
        "weights": [
            0.4283461855391857,
            0.4004664319184057,
            0.4396994060912765,
            0.458897352811193,
            -0.014119776210443965,
            -0.024200610173489883,
            0.4578917936009299,
            0.32783385688181516,
            0.13372772527280205,
            -0.3234674896602488,
            0.20583716495411739,
            -0.4355001282325907,
            0.2961925773253814,
            0.2505826905763133,
            -0.30545349360381174,
            -0.00021665228305663627,
            0.13728209248362783,
            -0.15939292713721895,
            -0.45009381676062354,
            -0.11856528954479607,
            0.5414950649231971,
            0.7592317164081103,
            0.580066758881334,
            0.515535992437707,
            0.39663137168934653,
            0.2547466062156338,
            0.6310892263866339,
            0.507700056944365,
            0.2567769351488491,
            0.18730851576463928
        ],
        "intercept": [
            -0.34987195506142743
        ]
    },
    {
        "weights": [
            0.32526352134798175,
            0.0255726075605186,
            0.2983793432653655,
            0.34616499968625114,
            0.32356342173440794,
            -0.1002292422254865,
            0.1883211253507305,
            0.2119420366471018,
            0.1980540192196617,
            0.3264416796251341,
            0.8286718436955933,
            0.3560987923903919,
            0.4646751056674279,
            0.4224348929404332,
            -0.8320170862274716,
            -0.5617304508933915,
            -0.20153064250275027,
            0.049087161200225486,
            -0.6308339176582921,
            -0.13815208459882114,
            0.558271258500505,
            0.35102570024303137,
            0.4234572627570679,
            0.5017306822154143,
            0.012551050346208249,
            -0.03875612319577684,
            0.5249036596551973,
            0.24993416902521642,
            0.49416281910229254,
            0.33296905935052296
        ],
        "intercept": [
            -0.5549328739115187
        ]
    },
    {
        "weights": [
            0.2795481188604364,
            0.43453624433421606,
            0.2831528743538489,
            0.28067748885458177,
            0.1867481483103228,
            0.16441197304168306,
            0.358638727503657,
            0.48889724181050026,
            0.505940782946771,
            -0.05555216331476691,
            0.752620386722859,
            0.13183010428762182,
            0.6357842856848724,
            0.48478273985454134,
            0.19239331970632603,
            -0.17426126641253212,
            -0.29602230994056444,
            0.21639586103400482,
            -0.4180952811988195,
            -0.15476471589962146,
            0.3446120930120211,
            0.22094986071932946,
            0.3223420066329542,
            0.31335511135250277,
            0.37542790352911565,
            0.27630912896633003,
            0.25799052301891223,
            0.35212236053201157,
            0.3334910984420504,
            0.2692215032182019
        ],
        "intercept": [
            -0.9674275302440765
        ]
    },
    {
        "weights": [
            0.25792039520719157,
            0.5371905515358721,
            0.25663022579086836,
            0.2222869157823808,
            -0.17910329797406263,
            -0.1966727713200626,
            0.6414883823018331,
            0.4936387001519439,
            0.02102135928502704,
            -0.04127871235223819,
            0.21922113700574028,
            -0.30598664605982107,
            0.1302725098782735,
            0.2325727278683703,
            0.04221667628886309,
            -0.2564939598735615,
            0.5066144162238196,
            0.06507777344570911,
            0.011390759462911744,
            -0.3625140442353329,
            0.3735451730031835,
            0.8807552320146489,
            0.31502491846277,
            0.3300888156404666,
            0.4271602643021923,
            -0.008212750201953953,
            0.8561298159113445,
            0.4901609980030044,
            0.3621421297774256,
            0.08163637129423686
        ],
        "intercept": [
            -0.2494239258174442
        ]
    },
    {
        "weights": [
            0.42165738409331055,
            0.5312805045594712,
            0.41153070257360513,
            0.39985902744444324,
            0.3791541045739118,
            0.13557554948110087,
            0.28574438634592275,
            0.40781741519041687,
            -0.056252312884894906,
            -0.24191699654126791,
            0.3596192780418022,
            -0.035645467232489854,
            0.20991725077334514,
            0.3014448535058331,
            -0.03016449300099743,
            -0.12797217147864454,
            -0.0006643216561921142,
            0.2003801405712971,
            -0.46928748539332044,
            0.05400360456798165,
            0.5695006147545472,
            0.6857122199815683,
            0.5015947543549986,
            0.5038922580853001,
            0.2637336032307994,
            0.13588195494557948,
            0.27848621779544047,
            0.5216049146156725,
            0.189390579747833,
            0.17242680722824646
        ],
        "intercept": [
            -0.7957356563221144
        ]
    },
    {
        "weights": [
            0.5156105382861055,
            0.2653381913712527,
            0.5028779682565673,
            0.5099801485947759,
            0.12952048703725688,
            0.010519099473598439,
            0.3989863264884499,
            0.5560479071462102,
            -0.12665118608400389,
            -0.3343960729361091,
            0.16796048151415205,
            0.36343046088754494,
            0.19274270019672196,
            0.20937408328215146,
            -0.03380155170269762,
            -0.07807164134030517,
            -0.09073545036046901,
            -0.15448014473844263,
            -0.24854058475943294,
            -0.02635678353727336,
            0.5401812052192926,
            0.7193292441768961,
            0.5118775161509603,
            0.4613497197212984,
            0.35726431633588496,
            0.2687019806991062,
            0.24550777933952067,
            0.4318999998408019,
            0.44915272561806174,
            0.31814923384064886
        ],
        "intercept": [
            -0.9375053811410159
        ]
    },
    {
        "weights": [
            0.42859132491741164,
            0.14437707481294063,
            0.3854215501728554,
            0.36608851866531544,
            0.4432591337074633,
            0.1749853840745667,
            0.2046966805242125,
            0.571473456439027,
            -0.030570346936244212,
            -0.20433149188402033,
            0.29881723333312743,
            0.1097164261094489,
            0.04780795846565349,
            0.24052166089428215,
            0.16476834963896206,
            -0.4237285273538811,
            -0.06887015644260143,
            0.3504242552400264,
            0.06750444119675876,
            -0.4104594067010775,
            0.4623099355036044,
            0.54802147733894,
            0.34881460801147346,
            0.3873036204623849,
            0.7903820047375419,
            0.164611145931588,
            0.3076976340617975,
            0.7503471177432285,
            0.4714524448956827,
            -0.0009079317769977769
        ],
        "intercept": [
            -0.22597266536906344
        ]
    }
]