{"fc1.weight": [[-0.00793310534209013, 0.02787623554468155, -0.0030967567581683397, 0.0076673878356814384, -0.03035360388457775, -0.024601269513368607, -0.023426195606589317, -0.005258481949567795, -0.029172873124480247, 0.02656310610473156, -0.03412025794386864, -0.018944786861538887, -0.03152453154325485, -0.014202642254531384, 0.018763814121484756, 0.007942067459225655, 0.006652254611253738, -0.016486525535583496, 0.022083217278122902, -0.01577875390648842, -0.01675543002784252, -0.030801163986325264, -0.01652458682656288, -0.012798930518329144, -0.029275620356202126, -0.01664193905889988, -0.006970734801143408, -0.022991303354501724, -0.0004201880074106157, -0.02159965969622135, -0.006260712165385485, 0.030127378180623055, 0.018640123307704926, 0.02042231149971485, 0.014278242364525795, -0.012790188193321228, -0.0005600390140898526, 0.024299196898937225, -0.011951335705816746, -0.014221700839698315, 0.001012707012705505, 0.020040931180119514, 0.016063615679740906, -0.026223400607705116, -0.0311146080493927, 0.022755982354283333, -0.037452515214681625, -0.026721954345703125, -0.016030840575695038, -0.003153192577883601, 0.02235283888876438, -0.038658175617456436, -0.022148551419377327, -0.012993759475648403, -0.029037535190582275, -0.03892325982451439, 0.005261449608951807, 0.019350554794073105, 0.02317175269126892, 0.02377769723534584, -0.037763871252536774, 0.009222262538969517, -0.015909599140286446, 0.024032700806856155, -0.03890199586749077, -0.017086578533053398, -0.004494405817240477, -0.01089489832520485, -0.03516928479075432, 0.01807289570569992, -0.01741068623960018, -0.021884860470891, -0.009515662677586079, -0.01590675674378872, -0.02947194129228592, 0.028733370825648308, -0.005502700340002775, -0.029338093474507332, -0.025320639833807945, -0.005402809474617243, -0.003042280673980713, 0.01467881165444851, -0.01821020059287548, -0.0038952575996518135, -0.012269646860659122, -0.001941230264492333, -0.00224989652633667, -0.03348750248551369, -0.022723926231265068, -0.030799629166722298, 0.023398296907544136, 0.012422014027833939, 0.021903811022639275, -0.01848345436155796, -0.004264851566404104, 0.018645253032445908, -0.004021955654025078, -0.012203304097056389, -0.032738327980041504, 0.018313581123948097, 0.01721959374845028, -0.04078197106719017, 0.008418449200689793, -0.022316420450806618, 0.015977678820490837, -0.008214198052883148, -0.03282328322529793, 0.0012242714874446392, -0.003986992873251438, -0.03731289133429527, -0.015164650045335293, 0.0008463331614620984, -0.023701418191194534, 0.027281833812594414, -0.027320504188537598, -0.006786760408431292, -0.014682434499263763, 0.012749195098876953, -0.01999032311141491, -0.011066383682191372, -0.03463325276970863, -0.033949024975299835, -0.04131787642836571, 0.011818328872323036, 0.01080694142729044, -0.03910810500383377, -0.02452877163887024, 0.011543885804712772, 0.006451813504099846, 0.006287696305662394, 0.003846490988507867, 0.0025684512220323086, -0.0004040572966914624, -0.026990216225385666, -0.030404670163989067, -0.011648483574390411, 0.020562106743454933, 0.030188435688614845, -0.022740082815289497, 0.020455429330468178, -0.030551014468073845, -0.014551631174981594, -0.013949249871075153, -0.01188232097774744, 0.020239708945155144, 0.026381254196166992, -0.00353474379517138, 0.024792326614260674, 0.00938138086348772, -0.03245352581143379, -0.046317845582962036, -0.002112666144967079, 0.032578371465206146, -0.023316936567425728, 0.022131336852908134, 0.022118965163826942, 0.021697208285331726, -0.008399570360779762, -0.014281879179179668, 0.006304084789007902, -0.00977074634283781, -0.031644608825445175, -0.020942172035574913, -0.02624674141407013, -0.029852909967303276, 0.011241762898862362, 0.0034471270628273487, 0.00394447660073638, -0.022824211046099663, 0.0062429229728877544, -0.014150233939290047, -0.03604576736688614, 0.007884693332016468, -0.012845535762608051, -0.042400725185871124, -0.04410337656736374, -0.026372795924544334, -0.004313276614993811, -0.009565056301653385, 0.04433390125632286, 0.02571718767285347, 0.013077972456812859, 0.01890108548104763, 0.025516333058476448, 0.06480108201503754, 0.027731427922844887, 0.03739899396896362, 0.01048177108168602, -0.0023762290365993977, -0.029150815680623055, -0.04064302146434784, -0.0453123077750206, -0.0065544405952095985, 0.0005572587251663208, 0.022326035425066948, 0.010115527547895908, 0.029038604348897934, -0.022871747612953186, -0.03662523627281189, 0.013604219071567059, -0.012495800852775574, -0.02136644534766674, -0.006380517967045307, -0.022053800523281097, 0.008088801987469196, 0.03757518157362938, 0.009960955008864403, -0.00112074613571167, -0.0002165418118238449, 0.021435389295220375, -0.021851422265172005, 0.030925557017326355, 0.038946039974689484, 0.02862807735800743, 0.010332003235816956, 0.002555822255089879, 0.03417990729212761, -0.010376852937042713, -0.013913690112531185, -0.006647433619946241, -0.005475649144500494, -0.03369422256946564, -0.028809575363993645, -0.02117788977921009, 0.02088083140552044, 0.02419520542025566, -0.03886967524886131, -0.016649967059493065, 0.007487404625862837, -0.04386625066399574, 0.0010982196545228362, -0.014072063378989697, 0.0023470683954656124, 0.01106771919876337, -0.020092010498046875, 0.014129883609712124, -0.029942607507109642, 0.02975110337138176, 0.03244755044579506, 0.00523985642939806, -0.007284192368388176, 0.04372171312570572, 0.011895363219082355, 0.044434163719415665, -0.013578454963862896, 0.01547129638493061, -0.014788568951189518, -0.01187497191131115, 0.006453846115618944, -0.018317025154829025, 0.024184776470065117, -0.028331896290183067, 0.026653071865439415, -0.017698945477604866, -0.012444831430912018, -0.027423866093158722, -0.004357967525720596, -0.0040025427006185055, -0.0054458025842905045, -0.016402192413806915, -0.0012016192777082324, 0.0228606965392828, 0.04551994800567627, -0.01787913218140602, 0.03321292623877525, -0.0036063946317881346, 0.016836684197187424, -0.002576527651399374, -0.0036486012395471334, -0.0009537726291455328, 0.047075990587472916, -0.0011703314958140254, 0.004137168638408184, 0.015889236703515053, -0.02894592471420765, -0.05331658199429512, -0.008499657735228539, -0.00794605165719986, 0.0018604991491883993, 0.018001863732933998, -0.0262933187186718, -0.005949909798800945, -0.013336488977074623, -0.024188589304685593, -0.00605309521779418, -0.013886887580156326, 0.03768255189061165, -0.013633615337312222, -6.140956247691065e-05, 0.010337085463106632, -0.003047839505597949, 0.03276706114411354, 0.0004744750331155956, 0.009577888064086437, 0.011877506971359253, 0.03538978099822998, -0.007543188985437155, -0.008875287137925625, 0.0293837022036314, 0.04168261960148811, 0.03619489446282387, -0.03628092631697655, -0.0042453850619494915, 0.009339052252471447, -0.010475700721144676, 0.007300300989300013, -0.02639804221689701, -0.03195452690124512, -0.027471881359815598, -0.03413345664739609, -0.031177943572402, 0.0077325571328401566, -0.03081733174622059, 0.02654416114091873, -0.022378114983439445, 0.011500748805701733, 0.023093635216355324, 0.007941801100969315, -0.016412748023867607, 0.02467947080731392, 0.014089259319007397, 0.013209925964474678, -0.021358828991651535, 0.019402718171477318, 0.01949547417461872, 0.006750594824552536, 0.003960616886615753, 0.009758546948432922, 0.05917727202177048, 0.03538452088832855, -0.014284989796578884, 0.02689795382320881, 0.012338574975728989, -0.034690745174884796, -0.015107969753444195, 0.022381387650966644, 0.026386482641100883, 0.021493779495358467, -0.01211803313344717, -0.01123735774308443, -0.01466357335448265, 0.009474978782236576, 0.021968083456158638, 0.0016244642902165651, -0.03053915873169899, 0.018372416496276855, 0.027509015053510666, 0.0051292190328240395, -0.044290006160736084, -0.023436330258846283, -0.023006010800600052, 0.013177688233554363, -0.01651984266936779, 0.024824921041727066, 0.010267420671880245, 0.03229909390211105, -0.0037731698248535395, 0.014551456086337566, 0.03091839887201786, 0.034656863659620285, -0.009574134834110737, -0.010348692536354065, 0.014454290270805359, 0.004252796992659569, -0.031627755612134933, -0.03114793822169304, 0.02030336670577526, 0.00666790222749114, 0.03982241079211235, -0.013465947471559048, -0.01666395552456379, 0.017286568880081177, -0.006853555794805288, -0.032253049314022064, 0.005110181402415037, -0.03235607594251633, -0.00809265673160553, -0.03242160752415657, -0.024064015597105026, -0.026026885956525803, 0.018913626670837402, 0.03193969279527664, 0.008933471515774727, 0.02807421237230301, 0.036940764635801315, 0.04496517777442932, -0.015001625753939152, -0.013787859119474888, 0.016501065343618393, 0.012717515230178833, 0.009691441431641579, 0.013475680723786354, -0.03848978504538536, -0.024702075868844986, -0.010479469783604145, 0.013485904783010483, -0.007629935629665852, -0.032071489840745926, 0.008652795106172562, -0.0195405762642622, -0.014072929508984089, 0.0005415189662016928, 0.006637075915932655, -0.023806439712643623, -0.02387620322406292, -0.005841370206326246, 0.016541650518774986, 0.012988870963454247, 0.01769627071917057, 0.04293936491012573, 0.037092406302690506, 0.016771085560321808, 0.009222852066159248, 0.009167414158582687, 0.0031072990968823433, -0.009125038050115108, -0.0515034981071949, -0.04012630879878998, -0.03043321892619133, -0.008952314965426922, -0.02632109634578228, -0.013955730944871902, 0.014440437778830528, 0.01899797096848488, 0.024017971009016037, -0.02999040298163891, -0.02212054841220379, 0.025552598759531975, 0.011491538025438786, -0.017997458577156067, -0.03924006596207619, -0.04092243313789368, -0.01810516230762005, 0.028685137629508972, 0.00698878476396203, -0.017817141488194466, 0.010013365186750889, 0.017430808395147324, 0.04078781232237816, 0.02606588788330555, 0.014453820884227753, 0.03478362038731575, 0.02242369018495083, -0.033335234969854355, 0.003299935255199671, -0.020899854600429535, -0.03949778899550438, 0.01754003018140793, -0.00531455222517252, -0.014081061817705631, -0.010288489982485771, -0.015940649434924126, 0.0191126000136137, 0.017024895176291466, -0.00391679722815752, -0.0453619584441185, 0.01921970769762993, 0.014988996088504791, 2.255793515359983e-05, -0.0159302931278944, -0.018536332994699478, 0.005903759505599737, -0.02976718172430992, -0.018097536638379097, -0.02668817527592182, 0.009318441152572632, 0.0330033153295517, -0.00039128720527514815, 0.023978473618626595, 0.0020866787526756525, -0.04028470069169998, 0.008264170028269291, 0.0019047567620873451, 0.006215989124029875, 0.03040516935288906, -0.011506464332342148, -0.03230686113238335, -0.03639015182852745, 0.014282618649303913, 0.018502967432141304, -0.014179285615682602, -0.0323055237531662, 0.0015241564251482487, -0.02286761999130249, -0.022768652066588402, 1.503107000644377e-06, 0.010537256486713886, 0.0008399408543482423, 0.006135147996246815, -0.026646113023161888, -0.015296691097319126, -0.008697312325239182, -0.021314973011612892, 0.032076649367809296, 0.035596948117017746, -0.010805124416947365, -0.02137364260852337, -0.03556079789996147, 0.006071864627301693, -0.05496402084827423, -0.04784416779875755, -0.025512514635920525, 0.021013502031564713, 0.0010012094862759113, -3.983497299486771e-05, 0.004204395692795515, 0.002114425180479884, 0.015600699931383133, -0.029942374676465988, -0.005569363012909889, 0.015389421954751015, 0.011839999817311764, 0.020937304943799973, 0.002824633615091443, 0.005361512769013643, 0.005836725700646639, -0.050152696669101715, -0.020550692453980446, 0.0053158351220190525, -0.0021175467409193516, -0.01611168682575226, 0.04511091113090515, 0.025969944894313812, 0.0016421505715698004, 0.004890517797321081, -0.004091779701411724, 0.009344693273305893, -0.0193888321518898, -0.0074845836497843266, -0.0015460826689377427, -0.00906284898519516, -0.014234116300940514, -0.03228693827986717, 0.009559469297528267, 0.015714194625616074, 0.02108500525355339, -0.031223278492689133, -0.0019808143842965364, -0.007811238057911396, -0.013183611445128918, -0.024414001032710075, -0.02298753894865513, -0.014152176678180695, 0.014387736096978188, -0.016536328941583633, -0.028042757883667946, -0.001782117411494255, -0.017958128824830055, 0.015928901731967926, 0.031476784497499466, -0.010392187163233757, 0.01100194826722145, 0.017072493210434914, 0.013346253894269466, 0.016566229984164238, 0.01726091280579567, 0.016202306374907494, 0.019872834905982018, 0.005197019781917334, 0.018405333161354065, 0.011023042723536491, -0.013992829248309135, -0.004383380524814129, 0.019733348861336708, 0.005774145945906639, 0.020011480897665024, 0.0018287764396518469, -0.02618822455406189, -0.020465780049562454, -0.03837087005376816, -0.035130999982357025, -0.012615278363227844, -0.030295558273792267, -0.026306288316845894, 0.013427948579192162, -0.017901087179780006, 0.0002818544744513929, 0.02892930433154106, 0.00420476496219635, 0.014916437678039074, 0.006539223715662956, -0.03934489190578461, -0.014734026044607162, 0.0011135396780446172, -0.007131658028811216, 0.018811127170920372, 0.018032051622867584, -0.03396996855735779, -0.039036236703395844, 0.02803843468427658, 0.014378597028553486, -0.038268402218818665, -0.023259038105607033, -0.03250638768076897, 0.002104774583131075, -0.01341641042381525, 0.02045579068362713, 0.0017984858714044094, -0.010739106684923172, -0.003256038064137101, 0.03315233811736107, 0.037593260407447815, 0.029436951503157616, 0.01246857549995184, 0.04620353505015373, -0.017017142847180367, 0.015127303078770638, -0.01857292838394642, -0.03854253515601158, -0.026375534012913704, 0.02162841148674488, -0.025178207084536552, -0.018383225426077843, -0.03559454530477524, -0.01050611399114132, 0.006760378368198872, -0.02353409118950367, 0.010402780026197433, 0.01135766040533781, 0.011735860258340836, 0.016527140513062477, -0.013339763507246971, -0.015316571108996868, -0.020776279270648956, 0.010932305827736855, -0.022451017051935196, 0.04303663596510887, 0.025951538234949112, 0.02414141409099102, 0.0273198913782835, 0.008734242990612984, 0.011827862821519375, 0.01136037427932024, -0.0042391386814415455, 0.008283358067274094, -0.021329114213585854, -0.020949823781847954, -0.036458663642406464, -0.026360366493463516, 0.03205334395170212, 0.012596187181770802, 0.008295894600450993, -0.02877384051680565, -0.036499541252851486, -0.038920748978853226, -0.004302377346903086, -0.034098077565431595, 0.010602584108710289, -0.007623701356351376, -0.007554071955382824, -0.011974025517702103, -0.02725110948085785, -0.016032125800848007, 0.0005749872070737183, -0.030944664031267166, 0.04009257256984711, -0.01148924045264721, 0.013707490637898445, -0.022101404145359993, -0.007583940401673317, 0.015971364453434944, -0.015102078206837177, 0.013304131105542183, -0.0069344001822173595, -0.010318590328097343, 0.02065427415072918, -0.005057176109403372, 0.034111179411411285, 0.024052293971180916, -0.02922583743929863, -0.029389256611466408, 0.03046325407922268, -0.03589499369263649, 0.009620928205549717, -0.008820708841085434, 0.017185891047120094, 0.028906147927045822, -0.01921806111931801, 0.03285597637295723, 0.04836658015847206, 0.012666537426412106, 0.013583795167505741, 0.024917995557188988, 0.024523938074707985, -0.003010818501934409, 0.01028452068567276, -0.030785730108618736, -0.010993578471243382, -0.015093978494405746, -0.032425783574581146, -0.02971748262643814, 0.01052585057914257, -0.029414553195238113, -0.014845077879726887, -0.006242194678634405, -0.026409557089209557, 0.01599651388823986, -0.009295509196817875, 0.02556767873466015, -0.008373086340725422, -0.0018748535076156259, -0.022894907742738724, -0.007726837880909443, -0.009036030620336533, -0.013609607703983784, -4.0188362618209794e-05, 0.023900151252746582, -0.017463143914937973, 0.0012052542297169566, 0.006508265621960163, 0.03432402014732361, -0.012502112425863743, 0.03179962560534477, 0.01686251349747181, -0.009558556601405144, 0.017979366704821587, 0.007155525963753462, 0.034410037100315094, 0.013894290663301945, 0.011242075823247433, 0.021858539432287216, 0.01949702948331833, -0.0021970635280013084, -0.03406038507819176, 0.029091672971844673, 0.025847136974334717, 0.0017676819115877151, 0.006171072367578745, 0.011670835316181183, -0.02583165466785431, 0.030765291303396225, -0.002984745195135474, -0.014134559780359268, -0.0027638075407594442, -0.012406743131577969, -0.02413957379758358, 0.007239672355353832, 0.00847390852868557, 0.0022364614997059107, -0.014652135781943798, 0.016087180003523827, -0.00019828770018648356, 0.06108270585536957, 0.007143250200897455, -0.020584281533956528, 0.05238218978047371, 0.03866511583328247, 0.029536189511418343, -0.0008076091180555522, -0.028033625334501266, 0.01993257738649845, 0.012331507168710232, 0.015444069169461727, 0.024110199883580208, -0.03881480544805527, 0.007575806695967913, -0.020233886316418648, 0.028483686968684196, -0.01756938174366951, 0.01501982007175684, -0.021750854328274727, -0.024355554953217506, -0.00961385015398264, -0.031394507735967636, 0.022169744595885277, -0.018852706998586655, 0.030635572969913483, -0.027333660051226616, 0.03290775418281555, -0.00682699354365468, 0.019968053326010704, 0.01461742166429758, 0.0057349493727087975, 0.028822898864746094, -0.00230332906357944, -0.02662019245326519, -0.0023930382449179888, -0.013186502270400524, -0.002038358012214303, 0.013193737715482712, -0.005034182220697403, 0.01928548887372017, -0.004679336678236723, -0.02159222401678562], [0.0020909872837364674, 0.012153309769928455, -0.008400104008615017, -0.027477072551846504, 0.006925356574356556, 0.009988510981202126, 0.007338464725762606, 0.03699740767478943, -0.001799956546165049, 0.03720386326313019, 0.00029406859539449215, 0.002341044135391712, -0.000312608404783532, -0.022050436586141586, -0.012041841633617878, 0.016431428492069244, -0.03187558054924011, -0.010689030401408672, -0.0317465178668499, 0.0197621937841177, -0.016173826530575752, 0.01764688454568386, -0.030532076954841614, -0.015306934714317322, 0.004913312382996082, 0.02811555005609989, -0.028620759025216103, -0.025473814457654953, 0.014616187661886215, -0.002551967278122902, 0.001954818144440651, 0.02258245274424553, 0.00563272787258029, 0.02387971617281437, 0.026948362588882446, 0.019544778391718864, -0.009232564829289913, 0.01950378157198429, -0.010555987246334553, 0.011275079101324081, -0.030033953487873077, 0.02408541925251484, -0.007650373037904501, -0.01830948144197464, -0.005911204032599926, 0.03315647318959236, 0.008971236646175385, -0.0010140686063095927, -0.029375573620200157, 0.017280641943216324, -0.021184880286455154, 0.0024038185365498066, 0.017346832901239395, 0.024136120453476906, 0.0015259732026606798, 0.03681868314743042, -0.002761560957878828, 0.007277039811015129, 0.01787208393216133, 0.018649186939001083, -8.77533238963224e-05, 0.02165147289633751, 0.008007929660379887, 0.007325571496039629, -0.02456487901508808, 0.03667297214269638, -0.018677115440368652, 0.02239615097641945, -0.023666255176067352, -0.022052541375160217, -0.004757179878652096, 0.031191736459732056, 0.002276230603456497, 0.028604090213775635, 0.016170917078852654, 0.003995334263890982, -0.03182646632194519, -0.032006192952394485, -0.027935463935136795, -0.005480414256453514, 0.028350235894322395, -0.004496323876082897, 0.02464447170495987, -0.026193002238869667, 0.0194834154099226, -0.01038453821092844, -0.011666604317724705, 0.012977763079106808, -0.004236419685184956, -0.006096497643738985, -0.010153803043067455, -0.019272098317742348, 0.03438158705830574, 0.01195286400616169, -0.01688091829419136, -0.032581087201833725, -0.027665497735142708, 0.012365510687232018, 0.0064005362801253796, 0.02318398654460907, 0.011073070578277111, 0.006605659145861864, -0.009358149021863937, -0.0019606067799031734, 0.015329322777688503, 0.019848449155688286, -0.0002883702691178769, 0.0076741366647183895, -0.026585446670651436, 0.03589513152837753, 0.02956806868314743, 0.01390063762664795, 0.031737037003040314, 0.03246504068374634, -0.02011781744658947, 0.0006574410945177078, 0.010475780814886093, -0.002231968566775322, 0.003494367701932788, 0.030631810426712036, 0.007830919697880745, 0.013594899326562881, 0.03250737488269806, 0.005324242170900106, -0.020982248708605766, -0.02193756215274334, 0.020265962928533554, 0.004151687026023865, -0.0057120551355183125, -0.03011457249522209, 0.018538199365139008, 0.004831608850508928, -0.004729761742055416, 0.016254961490631104, -0.01496910024434328, -0.008288509212434292, -0.003416501684114337, -0.02720831148326397, -0.0132288234308362, 0.003112080506980419, -0.010722401551902294, -0.01447414979338646, -0.004293080419301987, -0.028030985966324806, -0.017119083553552628, -0.0219485554844141, 0.010239649564027786, 0.026415357366204262, 0.022556306794285774, 0.020083310082554817, 0.007748762611299753, 0.013163198716938496, 0.03155699372291565, -0.018062137067317963, -0.02964644692838192, 0.022591471672058105, 0.003620192175731063, 0.016162773594260216, -0.009472369216382504, 0.0022036649752408266, 0.02769930101931095, -0.0025187928695231676, 0.0064310417510569096, 0.004560478031635284, 0.0025616674683988094, 0.026251908391714096, -0.015512283891439438, -0.015970220789313316, 0.0162094384431839, -0.02482631430029869, -0.02677058055996895, -0.02234656549990177, -0.025208722800016403, 0.016200900077819824, 0.02510441653430462, 0.03005325049161911, -0.005616909824311733, 0.024867966771125793, 0.0016988998977467418, 0.025538654997944832, -0.026111776009202003, 0.008874230086803436, 0.03333449736237526, -0.0065192291513085365, 0.02502772957086563, 0.023442044854164124, 0.008253926411271095, 0.015383023768663406, -0.001138345687650144, 0.0038819562178105116, -0.025109555572271347, -0.03332190215587616, 0.00546240946277976, -0.00769437151029706, 0.03598481044173241, 0.021132228896021843, -0.02087165229022503, -0.005154388025403023, 0.0017381272045895457, 0.02875657007098198, -0.01967126689851284, 0.014920559711754322, -0.012262285687029362, 0.0019419172313064337, -0.037808608263731, -0.03301725164055824, -0.01326399203389883, 0.0254746712744236, -0.026382962241768837, 0.014076328836381435, -0.005159288179129362, 0.010942949913442135, 0.015683358535170555, -0.006255610845983028, -0.007963305339217186, -0.011686138808727264, 0.003864622674882412, -0.029313724488019943, 1.7881382518680766e-05, 0.007935799658298492, -0.013030298054218292, -0.009843104518949986, -0.009537131525576115, 0.03219306096434593, 0.0012003873707726598, 0.019228823482990265, 0.012944571673870087, 0.013552049174904823, 0.030529126524925232, -0.014572562649846077, -0.027112223207950592, 0.0034584871027618647, -0.004087790846824646, 0.017392471432685852, 0.025535346940159798, -0.02679605409502983, 0.01644832454621792, 0.013189699500799179, 0.004508303944021463, -0.0239366814494133, -0.03385750949382782, -0.039759308099746704, 0.030019443482160568, -0.0033607310615479946, -0.025852639228105545, 0.0036642022896558046, 0.016359200701117516, -0.020875629037618637, 0.008458580821752548, -0.0016537620685994625, 0.010075829923152924, 0.035984307527542114, 0.027813510969281197, -0.030072815716266632, 0.010112537071108818, -0.005128052551299334, -0.009421812370419502, -0.025911174714565277, 0.0010659315157681704, 0.016604511067271233, -0.021708345040678978, -0.01703767292201519, 0.019412482157349586, 0.0028316890820860863, 0.033391520380973816, 0.01343030110001564, 0.03128333389759064, -0.0006664326647296548, -0.02283906750380993, -0.018094681203365326, -0.01624557189643383, 0.01183982752263546, 0.007067648693919182, -0.020721716806292534, -0.03265361487865448, 0.0036600937601178885, -0.016632627695798874, -0.025525346398353577, 0.010541819036006927, -0.014889175072312355, -0.025547003373503685, 0.0047686281614005566, 0.024024657905101776, -0.0077832709066569805, 0.015288439579308033, 0.025763988494873047, 0.004102007951587439, 0.029716286808252335, -0.019591601565480232, -0.011917687952518463, 0.008521518670022488, -0.006052254233509302, -0.02791127748787403, 0.008386223576962948, -0.03351443633437157, 0.032670214772224426, 0.029950661584734917, -0.02127409726381302, -0.009840414859354496, -0.015288990922272205, 0.010501655749976635, -0.016174228861927986, -0.022071337327361107, 0.009140039794147015, -0.03344852477312088, 0.006135826464742422, -0.004889767151325941, 0.010977736674249172, 0.004946376197040081, 0.021447395905852318, 0.028085993602871895, -0.0014470218447968364, 0.03032510355114937, 0.03118687868118286, 0.017739515751600266, 0.008509614504873753, 0.028421513736248016, -0.013255197554826736, 0.004270759876817465, 0.03177841380238533, 0.02863711677491665, 0.016069017350673676, 0.029335185885429382, 0.0155278779566288, 0.02012689784169197, -0.01649787276983261, -0.03402330353856087, 0.015207565389573574, -0.02878246270120144, -0.020975325256586075, -0.017527785152196884, -0.04019525647163391, -0.030018091201782227, 0.015331664122641087, -0.009236499667167664, -0.009044429287314415, -0.012238051742315292, 0.008339631371200085, -0.017009103670716286, 0.03676913306117058, 0.0383961945772171, -0.028262563049793243, -0.021036947146058083, 0.005378287751227617, 0.0007750435033813119, 0.006424919236451387, -0.024411283433437347, 0.02242378331720829, 0.0026762380730360746, -0.008021264337003231, -0.028656793758273125, -0.01694389432668686, -0.001975876512005925, -0.0014382502995431423, 0.0004149584856349975, 0.021920759230852127, 0.015008829534053802, -0.009843666106462479, 0.012759523466229439, -0.019002640619874, -0.024463186040520668, -0.013454088941216469, 0.020162636414170265, 0.025196924805641174, 0.0029221782460808754, 0.00670285802334547, 0.026181135326623917, 0.031072048470377922, -0.025660153478384018, -0.018815023824572563, 0.0031178933568298817, 0.0037634000182151794, 0.010020053014159203, -0.02477332204580307, 0.03339719772338867, -0.002364776097238064, -0.0363396592438221, -0.027713874354958534, -0.03236152231693268, 0.015847522765398026, 0.026550140231847763, 0.00423926766961813, -0.022046983242034912, 0.013383300974965096, 0.004950917325913906, 0.023471621796488762, -0.003050224157050252, 0.026293985545635223, -0.011016421020030975, 0.009591872803866863, 0.022014427930116653, -0.005452505312860012, 0.028805367648601532, 0.035222698003053665, 0.0055075278505682945, -0.020707642659544945, 0.034668028354644775, -0.00028174096951261163, -0.0034999395720660686, 0.018986763432621956, -0.026804937049746513, 0.008607674390077591, -0.0020920082461088896, -0.0044638183899223804, 0.0010687786852940917, 0.021628867834806442, 0.028407372534275055, -0.010675603523850441, 0.012701917439699173, 0.0026438883505761623, 0.022464390844106674, -0.020059309899806976, -0.027533581480383873, 0.026527447625994682, 0.01805836707353592, 0.014551051892340183, -0.0297385323792696, 0.03151388466358185, 0.014233437366783619, 0.024706965312361717, -0.030929163098335266, 0.018443716689944267, 0.0069460500963032246, 0.031640566885471344, 0.0340966135263443, 0.02270030789077282, -0.026020251214504242, 0.029645759612321854, -0.003955568186938763, -0.012992075644433498, -0.029758788645267487, -0.0444367416203022, -0.040559716522693634, -0.007356241811066866, -0.017239006236195564, 0.01920529082417488, 0.030692197382450104, 0.04140862822532654, -0.012571712024509907, 0.01582401618361473, 0.004453993868082762, 0.023141786456108093, -0.019474340602755547, -0.024325955659151077, 0.02400776743888855, 0.018679574131965637, -0.026293035596609116, -0.018708445131778717, -0.0055776177905499935, 0.03470801189541817, 0.024129539728164673, 0.011522355489432812, -0.005793367978185415, 0.01296916976571083, -0.01979093626141548, 0.02415602281689644, -0.014598844572901726, -0.007315660826861858, -0.025605620816349983, -0.03278524428606033, 0.012016571126878262, -0.010681649670004845, 0.007624143268913031, -0.0332079716026783, -0.035194024443626404, 0.020489292219281197, 0.04099182412028313, -0.021328812465071678, 0.025393515825271606, 0.008593165315687656, 0.0337158739566803, 0.01365920901298523, 0.03167485445737839, -0.006698393262922764, 0.004053344484418631, -0.014980128034949303, 0.03675936535000801, 0.027854392305016518, -0.0009787302697077394, 0.01576421409845352, 0.018470313400030136, -0.008474184200167656, -0.013634655624628067, -0.03366343304514885, -0.03293239697813988, -0.03888670727610588, -0.030976347625255585, -0.018552791327238083, 0.028262533247470856, 0.01221553049981594, 0.02477126754820347, -0.016373129561543465, 0.020906902849674225, 0.029527192935347557, 0.023236079141497612, 0.033296309411525726, -0.024864543229341507, 0.001273070927709341, 0.02533046156167984, -0.020374557003378868, -0.030092207714915276, 0.02397710643708706, -0.01636207476258278, 0.008946498855948448, 0.008701990358531475, 0.01908109150826931, -0.006611447781324387, -0.0051238336600363255, 0.02431538701057434, -0.02408381924033165, 0.02555210143327713, -0.04009786248207092, -0.036992572247982025, 0.009340869262814522, -0.026527149602770805, -0.021702155470848083, 0.009630363434553146, 0.009441590867936611, 0.00580904446542263, -0.017677132040262222, -0.00752891693264246, -0.0005248212837614119, -0.009784262627363205, 0.028906626626849174, -0.0220412015914917, -0.01031589973717928, 0.020428679883480072, -0.0031070003751665354, 0.02844235859811306, 0.000677425239700824, -0.01822769083082676, 0.03472914174199104, 0.01758049987256527, 0.021679528057575226, 0.025268441066145897, 0.032641131430864334, -0.03005708009004593, -0.022187495604157448, -0.028641730546951294, -0.00020323380886111408, 0.02232859656214714, -0.01780596561729908, -0.03396737948060036, -0.0037702894769608974, -0.019395755603909492, -0.022907478734850883, -0.016232816502451897, -0.02575702778995037, -0.0072487033903598785, -0.008253435604274273, 0.01889265514910221, -0.018691260367631912, -0.012938270345330238, -0.02132556401193142, -0.02777899242937565, -0.02807016670703888, -0.009405683726072311, -0.005701929796487093, 0.004803061485290527, -0.03188631683588028, -0.028296122327446938, 0.025237228721380234, 0.009206073358654976, 0.035763952881097794, 0.03136691451072693, -0.012325943447649479, 0.023184914141893387, -0.01795016974210739, 0.007516928482800722, -0.024414654821157455, 0.00621725944802165, 0.02230636216700077, 0.027878426015377045, -0.03389963507652283, -0.019347766414284706, 0.001193458097986877, -0.0007454504375346005, -3.6902432043461886e-07, 0.0008477961528114974, -0.010321308858692646, -0.02961263805627823, -0.021146927028894424, 0.017957672476768494, 0.011284147389233112, 0.028226086869835854, -0.021474678069353104, -0.03110400214791298, -0.010739585384726524, 0.008473965339362621, -0.024111099541187286, -0.024379050359129906, 0.01567910797894001, 0.018918009474873543, -0.0065293265506625175, 0.00041596253868192434, -0.003402386326342821, -0.016600556671619415, -0.008187461644411087, -0.016959933564066887, 0.022094575688242912, 0.01600102335214615, -0.011047673411667347, -0.0005803038366138935, -0.00038131471956148744, 0.011536725796759129, 0.0036548501811921597, 0.004766393452882767, -0.02278473600745201, -0.02552684210240841, 0.011332506313920021, 0.029591303318738937, 0.00047350069507956505, -0.030626332387328148, 0.036634448915719986, 0.034289974719285965, 0.034116413444280624, -0.030030934140086174, 0.022051021456718445, -0.014195587486028671, -0.007381381466984749, -0.0008433625916950405, -0.03069360740482807, -0.021131185814738274, -0.009344671852886677, 0.0002935673401225358, -0.03943859413266182, -0.01536758802831173, -0.004490255378186703, 0.007381938863545656, 0.003312758170068264, -0.04492606222629547, 0.015375531278550625, 0.026094507426023483, -0.03935297578573227, -0.020264577120542526, -0.025585349649190903, -0.012750620022416115, 0.03512030839920044, 0.016189420595765114, 0.023834697902202606, 0.009539269842207432, 0.027014870196580887, 0.017312534153461456, -0.019429130479693413, 0.034489043056964874, -0.009894744493067265, -0.02481793612241745, 0.020464275032281876, 0.027568191289901733, 0.0005241399048827589, 0.031057802960276604, -0.0026582295540720224, 0.01241177786141634, 0.0003698666987475008, 0.02579115331172943, -0.023148922249674797, -0.022618412971496582, 0.0013860895996913314, -0.021730618551373482, 0.022324519231915474, -0.012628642842173576, 0.002544782357290387, -0.03210239112377167, 0.004130263812839985, -0.015354754403233528, 0.002711327513679862, 0.021141614764928818, 0.014452032744884491, 0.012038039974868298, -0.010749252513051033, 0.03150903061032295, -0.007208730559796095, 0.01360742561519146, 0.014805644750595093, 0.007025045342743397, -0.026335276663303375, -0.02500736154615879, -0.02119467407464981, -0.022700874134898186, 0.02474074624478817, 0.014058282598853111, -0.029643824324011803, -0.026582349091768265, -0.01080136839300394, 0.03210311755537987, 0.012001926079392433, -0.0122069688513875, 0.0052421921864151955, 0.02902963198721409, 0.031498298048973083, -0.0031503045465797186, 0.02514847368001938, 0.024240365251898766, 0.011757179163396358, -0.015012450516223907, -0.029391614720225334, 0.018614565953612328, 0.013939718715846539, -0.026635661721229553, -0.006768505554646254, -0.0002588669303804636, -0.015672342851758003, -0.004752603359520435, -0.011117401532828808, 0.02812507189810276, 0.01849365048110485, 0.004561158828437328, 0.017496326938271523, 0.013845964334905148, 0.036033499985933304, 0.013460163958370686, 0.01056547462940216, 0.0016232416965067387, 0.00409551290795207, 0.025626901537179947, 0.0032670246437191963, 0.02860049158334732, 0.009417164139449596, 0.004705902189016342, -0.01862233690917492, -0.00046704302076250315, -0.004325480200350285, 0.012609134428203106, -0.029951557517051697, -0.008725445717573166, 0.01583155244588852, -0.031904444098472595, 0.03188154473900795, 0.0005525372107513249, 0.035505156964063644, -0.022252315655350685, 0.03600362315773964, 0.008520625531673431, -0.03118140809237957, 0.018539568409323692, -0.005852824077010155, 0.014669868163764477, -0.001914463471621275, -0.019228026270866394, -0.0013579833321273327, -0.017963901162147522, 0.019824502989649773, 0.034709881991147995, -0.00039161561289802194, -0.030240755528211594, 0.0058716461062431335, 0.036079272627830505, 0.031292762607336044, -0.02155439741909504, -0.025652246549725533, 0.028220297768712044, 0.022823112085461617, 0.016897844150662422, 0.017605813220143318, -0.005383085925132036, 0.03677917271852493, -0.03026907704770565, 0.000632374663837254, 0.0063684252090752125, -0.024456314742565155, -0.024147920310497284, 0.006660134997218847, 0.010378025472164154, -0.028197985142469406, 0.03682597726583481, 0.009332614950835705, -0.006351995747536421, -0.030772404745221138, 0.035672664642333984, 0.0211529191583395, -0.0007654144428670406, -0.021889187395572662, 0.015082577243447304, -0.027863169088959694, 0.00704707158729434, -0.004908362403512001, 0.029945818707346916, -0.027918264269828796, -0.006108495406806469, -0.005616682581603527, -0.016037290915846825, 0.011347848922014236, 0.0040368144400417805, -0.013375642709434032], [0.01199784129858017, -0.03405460715293884, -0.03190193697810173, -0.01471472904086113, 0.029381565749645233, 0.019672758877277374, 0.016789456829428673, -0.018207721412181854, 0.005619070027023554, -0.029261434450745583, -0.0034977085888385773, 0.021768419072031975, -0.007065326441079378, -0.01596430502831936, 0.008845173753798008, -0.010402684099972248, 0.017459334805607796, -0.029609257355332375, 0.031222011893987656, -0.0038073353935033083, -0.01972116157412529, 0.018348634243011475, -0.023207996040582657, 0.02734237350523472, -0.0313727930188179, 0.015437104739248753, 0.03177737444639206, -0.03439412638545036, 0.014315218664705753, -0.002339653903618455, 0.009031359106302261, 0.025802500545978546, 0.022647421807050705, -0.011070534586906433, -0.017912060022354126, 0.0038603234570473433, -0.024756189435720444, -0.027218161150813103, 0.01159120723605156, -0.028472546488046646, 0.01032954640686512, -0.009568946436047554, -0.022242974489927292, -0.01456261333078146, -0.032635364681482315, 0.006186495069414377, 0.009688557125627995, -0.0021622912026941776, 0.0072305635549128056, 0.03243418410420418, 0.005279839970171452, 0.019811751320958138, -0.02508615143597126, -0.0037317390087991953, -0.03542141988873482, 0.033817119896411896, -0.009067142382264137, 0.00842177215963602, 0.003287072293460369, 0.007185292895883322, 0.002283658366650343, 0.024213962256908417, 0.008374103344976902, -0.019516365602612495, 0.03115496225655079, 0.009666940197348595, 0.015539630316197872, 0.010058671236038208, -0.020519664511084557, -0.0008154500392265618, 0.02754984423518181, 0.031290169805288315, -0.022543052211403847, 0.01064363494515419, 0.0200006403028965, 0.0008283424540422857, 0.01631699688732624, 0.007100360933691263, -0.011341484263539314, -0.015839222818613052, -0.03174181655049324, -0.03497150167822838, 0.005132320336997509, 0.01584547758102417, 0.017611011862754822, -0.01752527244389057, 0.0013744398020207882, 0.02959311194717884, -0.002548979129642248, 0.022180357947945595, -0.011494610458612442, -0.03532664105296135, 0.02627585269510746, 0.025050846859812737, -0.004023431800305843, -0.01657731644809246, -0.0089847631752491, 0.0034827201161533594, 0.01861598901450634, -0.001803149818442762, -0.025176536291837692, -0.03407058119773865, -0.020243236795067787, 0.023162925615906715, -0.032248355448246, -0.013578723184764385, -0.018648603931069374, 0.0027823932468891144, 0.001301052630878985, -0.017538953572511673, 0.02324097603559494, -0.0012014613021165133, -0.00351535202935338, -0.028919676318764687, 0.001696984632872045, 0.0004904248053207994, 0.019538860768079758, -0.012393047101795673, -0.03271297737956047, -0.02943585254251957, 0.019578810781240463, -0.0246439166367054, -0.028536468744277954, 0.018513059243559837, 0.017591603100299835, -0.019878745079040527, -0.009109076112508774, -0.02382267266511917, -0.003013758221641183, 0.006834730505943298, 0.02005157247185707, 0.02242981642484665, -0.01518462784588337, -0.008204792626202106, 0.023178348317742348, 0.023350926116108894, -0.0075767505913972855, -0.009703157469630241, -0.004420122597366571, 0.010878919623792171, 0.03398234397172928, 0.029986217617988586, 0.02425055019557476, -0.0005588556523434818, -0.025350196287035942, -0.030304547399282455, -0.015651805326342583, -0.019269611686468124, -0.002516143722459674, 0.03112941049039364, -0.034161943942308426, 0.02104821242392063, 0.025733493268489838, -0.030149411410093307, -0.01395487505942583, 0.0005799367208965123, -0.02034858614206314, -0.015791816636919975, -0.026716042309999466, 0.006701835431158543, 0.020976083353161812, 0.002780505223199725, 0.0233208779245615, 0.006100950762629509, 0.01579035073518753, -0.013569578528404236, 0.02134021744132042, 0.01478353701531887, -0.0207312423735857, -0.0029370116535574198, 0.020925819873809814, 0.021576683968305588, 0.028950540348887444, -0.0009740209206938744, 0.027961397543549538, 0.0277827400714159, 0.009515509940683842, 0.03215799853205681, -0.0023739610332995653, 0.034944113343954086, -0.007615289185196161, 0.026779551059007645, -0.027140580117702484, 0.0327133871614933, -0.01659713126718998, -0.028145918622612953, -0.007240369450300932, 0.0056777591817080975, -0.03606821969151497, -0.03237239643931389, 0.02257453463971615, 0.004189802333712578, 0.008195768110454082, -0.023132214322686195, 0.03093266300857067, 0.009191160090267658, -0.00948902778327465, -0.03471580892801285, 0.011658239178359509, -0.026467973366379738, -0.004238712135702372, -0.025953376665711403, -0.030919095501303673, -0.0286557599902153, -0.027955982834100723, -0.020213719457387924, -0.014026214368641376, -0.010234418325126171, 0.005750216078013182, -0.021900609135627747, 0.034531380981206894, -0.012260097078979015, -0.0014000297524034977, -0.012572158128023148, 0.005422357004135847, -0.028805376961827278, 0.0028787171468138695, 0.017800236120820045, 0.00792868435382843, -0.010679982602596283, 0.0032743236515671015, 0.015559638850390911, 0.019165556877851486, -0.03427603840827942, -0.01764555461704731, -0.011117031797766685, 0.008406000211834908, 0.0069631850346922874, -0.001068243058398366, -0.006973118521273136, 0.008595597930252552, 0.012538186274468899, 0.011845587752759457, -0.0036471218336373568, 0.010062175802886486, 0.012610260397195816, 0.0329480804502964, 0.010895940475165844, 0.01354310568422079, 0.03441610187292099, -0.03168416768312454, -0.005079629831016064, -0.029961831867694855, 0.029444513842463493, -0.03267688676714897, 0.024123486131429672, -0.004528514575213194, -0.029409145936369896, 0.009019059129059315, 0.03284125775098801, -0.009487230330705643, -0.032142676413059235, -0.013695075176656246, 0.030226564034819603, -0.00455118203535676, 0.002997403498739004, -0.007581917569041252, -0.022262759506702423, 0.00018041192379314452, 0.022785188630223274, -0.005597304552793503, -0.008708231151103973, 0.0057963114231824875, 0.002868940820917487, 0.01812257058918476, 0.01038247998803854, 0.017060942947864532, 0.022942624986171722, -0.02926146797835827, 0.010602475143969059, -0.025856725871562958, 0.020552748814225197, 0.01765889674425125, 0.014688843861222267, -0.018115779384970665, -0.013858115300536156, -0.019717756658792496, -0.006432759575545788, 0.013455633074045181, 0.029915299266576767, -0.0024729976430535316, -0.012839299626648426, 0.024257473647594452, -0.013036064803600311, -0.02554115653038025, 0.023952031508088112, 0.017401767894625664, 0.008481556549668312, -0.02016102522611618, -0.00697729829698801, -0.008425872772932053, 0.036781009286642075, 0.014805491082370281, -0.028884407132864, 0.009179544635117054, -0.019148394465446472, -0.018177226185798645, 0.02412242814898491, 0.029240800067782402, -0.014111969619989395, -0.008760818280279636, 0.02741646207869053, -0.022650383412837982, 0.02821056917309761, 0.0012575071305036545, -0.0029332812409847975, -0.006248871795833111, -0.006143584381788969, 0.02057456225156784, 0.02875116467475891, -0.03307277709245682, 0.010162675753235817, 0.013293844647705555, 0.01690354198217392, 0.008740918710827827, -0.02969783917069435, -0.014050310477614403, 0.0061315977945923805, -0.01682700775563717, -0.014360340312123299, 0.036588456481695175, -0.031032821163535118, -0.025533514097332954, 0.024635260924696922, 0.007321047130972147, 0.0218361709266901, 0.029777487739920616, -0.008841810747981071, 0.021928468719124794, -0.006104458123445511, -0.000632209237664938, 0.02089748904109001, -0.030352454632520676, 0.0089579988270998, 0.01378086768090725, -0.019894933328032494, -0.026122484356164932, 0.029361044988036156, -0.004456964787095785, -0.009656108915805817, 0.0011607423657551408, -0.0199190191924572, 0.029800500720739365, -0.0015451537910848856, 0.03566039726138115, -0.0005492862546816468, -0.021437184885144234, -0.02868545986711979, 0.009334449656307697, -0.016564300283789635, 0.027740906924009323, 0.022731797769665718, 0.0023761121556162834, -0.0330098457634449, 0.028958110138773918, 0.03386044502258301, 0.017031103372573853, 0.009097596630454063, 0.031189339235424995, 0.02901552990078926, -0.020177464932203293, -0.02801605500280857, -0.013415524736046791, -0.011802922002971172, 0.029383638873696327, -0.0347297228872776, -0.016869643703103065, 0.004214907996356487, -0.028872357681393623, -0.03159765526652336, 0.006655105389654636, -0.00638303067535162, -0.029830943793058395, -0.022188303992152214, -0.021203532814979553, -0.004390777088701725, -0.0075895898044109344, -0.012507044710218906, 0.014460215345025063, -0.022639557719230652, -0.022667543962597847, 0.03321175277233124, -0.018408747389912605, -0.017857130616903305, -0.002627832116559148, -0.01882084459066391, -0.0036003084387630224, 0.025609388947486877, 0.025323882699012756, 0.03174181655049324, 0.012804687023162842, -0.02062673680484295, -0.010170821100473404, -0.026923296973109245, 0.021462857723236084, -0.02413203939795494, -0.015422385185956955, 0.0199021827429533, -0.01396859996020794, 0.0008484573336318135, 0.027264032512903214, 0.0020156935788691044, -0.01963801309466362, 0.029297787696123123, 0.012346358969807625, -0.033955562859773636, 0.02832646481692791, -0.011340427212417126, -0.009829004295170307, -0.03023078665137291, -0.00872026663273573, -0.012957492843270302, 0.0022393332328647375, 0.013903864659368992, 0.005919747985899448, 0.03249175474047661, -0.028254669159650803, 0.021788340061903, -0.019358789548277855, -0.006730738095939159, -0.025335481390357018, -0.030882425606250763, -0.007760637439787388, -0.01964707113802433, -0.027798699215054512, -0.006051429081708193, -0.022256139665842056, -0.014809075742959976, -0.011411329731345177, 0.010285098105669022, 0.01440811064094305, 0.015065154060721397, -0.003559322329238057, 0.021673444658517838, -0.007666644640266895, 0.0006003670278005302, -0.03299221768975258, -0.030190585181117058, -0.024115268141031265, -0.011649436317384243, -0.0012601324124261737, -0.03632524982094765, 0.007780996151268482, 0.031737275421619415, -0.030050206929445267, 0.020442720502614975, 0.009676073677837849, -0.0309098232537508, 0.004320814274251461, -0.028352875262498856, 0.004124400205910206, -0.014575357548892498, 0.0007400325266644359, -0.01324247196316719, -0.014406305737793446, 0.02360815927386284, 0.027877606451511383, 0.00880582444369793, 0.03041531704366207, -0.014139517210423946, 0.0015220523346215487, 0.023212533444166183, 0.009755675680935383, -0.02640397474169731, -0.00531683349981904, 0.0015378701500594616, -0.005929949227720499, -0.0017981703858822584, 0.034430742263793945, 0.013396771624684334, 0.011779083870351315, 0.03334081918001175, 0.023016000166535378, -0.007537134923040867, 0.027961857616901398, -0.034546464681625366, 0.02331322431564331, 0.026287373155355453, -0.02058001607656479, -0.0020695943385362625, 0.02208133600652218, -0.02208528108894825, -0.033991266041994095, -0.03436056151986122, -0.02878309041261673, 0.00569554977118969, -0.007691481150686741, -0.01632094569504261, 0.03018944151699543, -0.02086569555103779, -0.03377237170934677, 0.01270325854420662, -0.008849470876157284, 0.02437087707221508, 0.03350723162293434, 0.024093903601169586, -0.033096522092819214, -0.032149285078048706, 0.005598427262157202, -0.0013518455671146512, 0.031650155782699585, -0.016480665653944016, 0.01065608486533165, -0.022956017404794693, 0.004755576141178608, 0.03353269025683403, -0.002934420946985483, 0.0201663039624691, -0.023208055645227432, -0.008291536010801792, 0.020673861727118492, -0.011364368721842766, -0.032434675842523575, 0.018444491550326347, -0.013843378983438015, -0.02212715521454811, -0.021274102851748466, -0.021056363359093666, 0.02163025178015232, 0.0015453124651685357, 0.03633549436926842, 0.03616676107048988, 0.036023132503032684, 0.010911228135228157, 0.03180189058184624, 0.022954361513257027, 0.0028126684483140707, 0.02615003101527691, -0.013130145147442818, 0.001171511015854776, 0.026547254994511604, 0.023739833384752274, 0.0018380399560555816, -0.01913398504257202, 0.003589699976146221, 0.015261342748999596, 0.019413402304053307, 0.02664724737405777, -0.019778091460466385, 0.011484917253255844, -0.01944691501557827, -0.0043180217035114765, 0.01898440159857273, 0.028894323855638504, 0.03390458598732948, -0.015334065072238445, -0.030349355190992355, -0.009733195416629314, -0.02953515388071537, 0.038365643471479416, -0.007720752153545618, 0.008193695917725563, -0.026959817856550217, -0.03256051987409592, -0.009148595854640007, -0.03477881848812103, 0.03056950308382511, -0.0086238794028759, -0.012515065260231495, -0.013499856926500797, 0.009429770521819592, -0.020962130278348923, 0.016056625172495842, 0.01782294362783432, -0.01254125777631998, 0.01890869066119194, 0.01582583785057068, -0.033238887786865234, 0.011570161208510399, -0.020570702850818634, 0.014563421718776226, 0.0031565825920552015, -0.01605113595724106, 0.021144390106201172, 0.02210402488708496, 0.03142934665083885, -0.020022720098495483, -0.007620513439178467, 0.004711574409157038, 0.030593110248446465, -0.03301827609539032, 0.017706891521811485, 0.006078212056308985, 0.0032883761450648308, 0.030259964987635612, -0.029366159811615944, 0.005345613695681095, 0.01589418388903141, -0.015912923961877823, 0.03153080493211746, 0.006150525063276291, -0.007669714279472828, -0.0091388039290905, -0.007038642652332783, 0.024829501286149025, -0.00904980767518282, -0.020388683304190636, -0.03384990990161896, 0.009195348247885704, 0.00982419028878212, 0.012265977449715137, -0.012032091617584229, -0.013143724761903286, -0.03272140771150589, -0.02453019842505455, -0.018880365416407585, 0.02507414110004902, 0.03126901388168335, 0.002401581034064293, -0.011711560189723969, 0.011516934260725975, 0.023809464648365974, -0.008424361236393452, 0.02250686287879944, -0.019142616540193558, 0.014196427538990974, 0.028601089492440224, -0.017889000475406647, -0.019095923751592636, 0.032885849475860596, 0.031111519783735275, -0.021717529743909836, 0.005998763255774975, 0.023864759132266045, -0.018319323658943176, 0.020376315340399742, -0.007445345167070627, 0.02712000533938408, 0.02643074281513691, 0.009044971317052841, 0.020603517070412636, 0.037691839039325714, -0.013954672031104565, 0.013975976966321468, -0.019428720697760582, -0.019787553697824478, 0.000625146902166307, -0.03320111706852913, 0.0012882264563813806, 0.0235437024384737, -0.01019185408949852, -0.006511669605970383, -0.0032927202992141247, 0.010470518842339516, 0.00724003417417407, -0.028945494443178177, -0.011233219876885414, 0.0196190495043993, 0.024494735524058342, -0.011788347736001015, 0.010377158410847187, 0.010365310125052929, -0.035830702632665634, -0.01598803512752056, 0.026839248836040497, 0.007614561356604099, 0.010242873802781105, 0.006523983087390661, 0.029728958383202553, -0.028991108760237694, 0.009374470449984074, -0.021113058552145958, -0.01807205006480217, 0.003612137632444501, 0.0158400796353817, -0.0006102231564000249, -0.0006223441450856626, -0.016403593122959137, -0.008770374581217766, -0.01272416952997446, 0.003248471999540925, -0.02349434606730938, -0.012931925244629383, -0.03146178275346756, 0.0015197040047496557, -0.01493082195520401, -0.02316855639219284, 0.008520913310348988, -0.000564520014449954, 0.025279251858592033, -0.01226803194731474, 0.028940748423337936, 0.027188727632164955, -0.02727912925183773, -0.004141402430832386, -0.000249184638960287, 0.0010426510125398636, 0.02157530002295971, -0.010344482026994228, 0.0005473411292769015, 0.01657906360924244, 0.0041419873014092445, -0.008585920557379723, 0.011697964742779732, 0.03058777004480362, -0.02742813527584076, -0.008374241180717945, -0.004434516653418541, 0.010690214112401009, -0.0012534179259091616, 0.011042158119380474, -0.03381776437163353, 0.0273904986679554, 0.00021407200256362557, -0.03133648261427879, 0.0018479067366570234, 0.0033630100078880787, -0.025240175426006317, -0.0030972748063504696, -0.020806731656193733, 0.027221016585826874, -0.027804721146821976, 0.013747047632932663, 0.035213544964790344, -0.028745165094733238, 0.03147163614630699, -0.022655075415968895, 0.009838655591011047, 0.020794222131371498, -0.02235816791653633, -0.014743514358997345, -0.0024642033968120813, 0.009729078970849514, -0.018240131437778473, -0.028469575569033623, 0.023386063054203987, -0.013129035010933876, 0.021387340500950813, -0.012857886031270027, 0.015231992118060589, 0.008373713120818138, 0.015479056164622307, 0.008619091473519802, -0.017586693167686462, 0.029724031686782837, 0.03239773213863373, -0.006788639817386866, -0.016755979508161545, 0.02335922233760357, -0.00041976277134381235, -0.005153382197022438, -0.004100120160728693, -0.02798139676451683, 0.02003520168364048, -0.009708386845886707, 0.01794632337987423, 0.010653438046574593, -0.022614525631070137, 0.005652810446918011, -0.022030942142009735, 0.012739458121359348, 0.025266291573643684, 0.010140957310795784, -0.006739330943673849, 0.009635360911488533, 0.026357976719737053, 0.018074115738272667, -0.0113534489646554, -0.013427084311842918, 0.022690363228321075, -0.028509996831417084, -0.015129280276596546, -0.017253173515200615, -0.03312557935714722, 0.017483361065387726, -0.029369927942752838, 0.0017160229617729783, -0.022054312750697136, -0.0203537717461586, 0.023181088268756866, 0.007038769777864218, -0.022213948890566826, 0.03413451090455055, 0.020613785833120346, 0.011440788395702839, -0.014916699379682541, -0.018532954156398773, 0.019140297546982765, 0.019375687465071678, -0.0021487060002982616, 0.017127668485045433, -0.013580056838691235, -0.008981547318398952, -0.0016094368183985353], [0.007680957671254873, 0.007984141819179058, 0.004868515767157078, -0.03205275535583496, -0.005095645785331726, 0.01844203844666481, 0.02283029444515705, -0.015836486592888832, 0.027137111872434616, -0.022624507546424866, -0.007312133442610502, 0.023561058565974236, 0.0045562004670500755, 0.006569092161953449, -0.024511294439435005, 0.011927016079425812, -0.01804608479142189, -0.024387843906879425, 0.03550286963582039, 0.031262096017599106, -0.013556058518588543, -0.007230120245367289, -0.0006474824040196836, -0.022619042545557022, -0.015379498712718487, -0.02760932222008705, -0.01652367040514946, -0.031428199261426926, -0.0039330231957137585, -0.013050930574536324, 0.017545344308018684, 0.009347714483737946, 0.024102944880723953, 0.005943133495748043, 0.002278753789141774, 0.01675599440932274, -0.02953208237886429, 0.03516775742173195, -0.022404516115784645, -0.0308719202876091, 0.032426536083221436, 0.011898024007678032, -0.00228399527259171, -0.013400140218436718, 0.034189291298389435, -0.01142827421426773, -0.021622315049171448, 0.03348527476191521, -9.267529094358906e-05, 0.012688624672591686, 0.03241493180394173, 0.015141318552196026, 0.025745226070284843, -0.014953029341995716, -0.02717612497508526, 0.024499155580997467, 0.015509220771491528, 0.03461764007806778, -0.0343446210026741, 0.02073979191482067, 0.005354361608624458, 0.022400259971618652, -0.0277825016528368, -0.013184194453060627, -0.011235382407903671, -0.008474098518490791, 0.015927670523524284, 0.021479962393641472, -0.013692093081772327, -0.025580186396837234, -0.006779779214411974, 0.02923235297203064, -0.032525159418582916, -0.01995992660522461, -0.014784050174057484, 0.017572036013007164, -0.013630104251205921, 0.0102383429184556, 0.03019726648926735, 0.009009999223053455, -0.01911429688334465, 0.013020669110119343, -0.0030708403792232275, -0.0024580995086580515, -0.0007636931841261685, -0.010023502632975578, -0.023778719827532768, -0.021922552958130836, 0.015313610434532166, -0.024156859144568443, 0.01992562972009182, -0.02475125715136528, 0.020715257152915, 0.007061625365167856, 0.016864458099007607, -0.027421768754720688, -0.004988910164684057, -0.019519006833434105, -0.021122533828020096, 0.003063896670937538, -0.032178446650505066, 0.03217815235257149, 0.022501647472381592, 0.03588607534766197, 0.006944943219423294, -0.006515318527817726, -0.001715900027193129, 0.009639308787882328, 0.013396226800978184, -0.01191608514636755, -0.02926017716526985, 0.014768942259252071, -0.02896607294678688, -0.005766748450696468, 0.000671941670589149, -0.02215982973575592, 0.02090517431497574, -0.005842190235853195, 0.005546908359974623, 0.03318436071276665, -0.0027616978622972965, 0.010733168572187424, -0.014454178512096405, -0.00944279134273529, -0.021459825336933136, 0.009923676028847694, -0.02267296239733696, -0.03342638537287712, -0.02151394821703434, -0.006851737387478352, -0.018352538347244263, -0.030733535066246986, -0.00595736363902688, -0.022474924102425575, 0.002861880464479327, -0.009202457964420319, 0.008758308365941048, -0.002151180524379015, -0.014196236617863178, 0.007356255315244198, -0.03161729499697685, 0.014852958731353283, 0.002294133882969618, -0.0010238683316856623, 0.03471563383936882, -0.015248759649693966, -0.025607524439692497, 0.026199396699666977, 0.021609477698802948, 0.0071951658464968204, -0.016030680388212204, 0.015386588871479034, -0.03335956484079361, 0.006027841009199619, -0.03775374963879585, -0.0027274759486317635, 0.0032548289746046066, 0.0007131967577151954, 0.001505499705672264, -0.0039689429104328156, 0.01863107457756996, 0.00023186202452052385, 0.027175555005669594, 0.019951820373535156, 0.02771787904202938, 0.02780028246343136, 0.02039075642824173, -0.022520912811160088, 0.026757311075925827, 0.01362663134932518, -0.007201040163636208, -0.004681283142417669, 0.03388024494051933, 0.00818166509270668, -0.006797035690397024, 0.021437833085656166, -0.008347288705408573, 0.013498064130544662, -0.005234769079834223, 0.020895715802907944, 0.011177923530340195, 0.018721265718340874, -0.03427679464221001, 0.008289829827845097, 0.0033338889479637146, -0.025372585281729698, -0.02541474439203739, 0.007365089375525713, -0.0014723030617460608, -0.023795148357748985, 0.02261347882449627, -0.02778344228863716, -0.010573645122349262, -0.032900258898735046, 0.003167026909068227, -0.017555592581629753, 0.005067642778158188, 0.032961636781692505, 0.011393384076654911, 0.004211634863168001, 0.01293411385267973, -0.02404274418950081, -0.02266157604753971, -0.027028260752558708, 0.01948370784521103, 0.01402553915977478, -0.022267352789640427, 0.010119332931935787, -0.009931185282766819, -0.02617604099214077, -0.03227724879980087, -0.02122422680258751, 0.02290433458983898, -0.027766864746809006, -0.02242736890912056, -0.01940390281379223, 0.021660536527633667, 0.009938545525074005, -0.025475479662418365, 0.0034885331988334656, -0.02046138606965542, 0.0002774511813186109, -0.030284026637673378, -0.03249175846576691, -0.017369039356708527, -0.025224346667528152, -0.02910400554537773, -0.012467293068766594, -0.015452934429049492, -0.006735403090715408, 0.01292269118130207, -0.01816367357969284, 0.016801949590444565, 0.02906758151948452, -0.01830669492483139, 0.0022005829960107803, 0.021794214844703674, 0.012238102965056896, 0.015969576314091682, 0.02430640161037445, -0.02177245356142521, 0.015256652608513832, 0.017581136897206306, 0.031413283199071884, 0.013489128090441227, -0.029886264353990555, 0.025742778554558754, 8.683767373440787e-05, 0.006883890833705664, -0.008847708813846111, 0.012611926533281803, -0.003484811633825302, -0.017700139433145523, -0.00774737261235714, -0.004221651237457991, -0.007889509201049805, -0.02370084635913372, 0.008366462774574757, 0.011990963481366634, 0.027530137449502945, -0.004082515835762024, 0.03051527589559555, 0.0068308329209685326, 0.01714957505464554, 0.002156098373234272, 0.01406181138008833, 0.004928234498947859, -0.010224283672869205, 0.006659562233835459, -0.03429979085922241, 0.0023523312993347645, 0.005500274244695902, -0.004881725646555424, 0.025016654282808304, -0.025986192747950554, -0.024695755913853645, -0.001093387370929122, -0.0068032327108085155, 0.025762077420949936, 0.017289509996771812, 0.003497710917145014, 0.03498400002717972, 0.01985367387533188, -0.02701413631439209, -0.025128750130534172, 0.015050004236400127, 0.031907930970191956, -0.009228542447090149, -0.014807866886258125, -0.006843827199190855, -0.00020262046018615365, 0.02151206135749817, 0.012179354205727577, 0.003573773195967078, -0.004776430316269398, 0.003510464681312442, 0.013056098483502865, 0.02432933636009693, -0.031092170625925064, 0.01490437425673008, -0.02529335953295231, 0.017926394939422607, 0.0013160748640075326, -0.0016293582739308476, 0.011638208292424679, 0.01766984909772873, -0.017587935552001, 0.00387914408929646, 0.03436655178666115, -0.001284533878788352, -0.017221931368112564, 0.005432973150163889, 0.002290683100000024, 0.010826027020812035, 0.019682204350829124, 0.017484799027442932, -0.015958275645971298, 0.009436092339456081, -0.02349611185491085, -0.042710356414318085, -0.01602642983198166, -0.031570080667734146, -0.0017151287756860256, 0.03364822641015053, -0.01105843298137188, -0.02856907807290554, 0.009969441220164299, -0.0391809418797493, 0.02003382332623005, -0.031351055949926376, 0.011627390049397945, -0.029701601713895798, 0.019825847819447517, 0.00021875962556805462, 0.02772264927625656, -0.010928725823760033, 0.014196879230439663, 0.014819779433310032, 0.0023995242081582546, -0.018972398713231087, -0.025352399796247482, 0.004278711974620819, 0.00922007579356432, 0.027777250856161118, -0.0015583904460072517, 0.0005917513044551015, 0.021904312074184418, 0.0005031569162383676, -0.02244122140109539, -0.009631678462028503, 0.0284278467297554, 0.028271539136767387, 0.0032599158585071564, -0.009400463663041592, -0.04462665691971779, 0.0010749021312221885, -0.0017784080700948834, 0.01127174124121666, 0.012261227704584599, 0.0001619266258785501, -0.019495569169521332, -0.00642037857323885, 0.024581510573625565, -0.028656814247369766, 0.00558931240811944, -0.0328449122607708, -0.0072846547700464725, 0.03197133168578148, -0.012226236052811146, 0.024861540645360947, -0.013539520092308521, -0.0010916833998635411, -0.013188960030674934, -0.017401065677404404, -0.014693615026772022, -0.017936982214450836, -0.021610187366604805, 0.003976097330451012, 0.013474023900926113, 0.02190585434436798, 0.02972351759672165, 0.001320089679211378, -0.018341612070798874, 0.019549254328012466, -0.01925698295235634, -0.0018237187759950757, 0.007796645630151033, -0.006012461613863707, 0.028616061434149742, 0.030926445499062538, -0.026657208800315857, -0.015718722715973854, 0.011746708303689957, 0.019330380484461784, -0.013134759850800037, -0.0006728446460328996, -0.02182602696120739, -0.02999095618724823, -0.029028279706835747, -0.013845060020685196, 0.02131546661257744, 0.012525266967713833, 0.003520479891449213, -0.03297397866845131, -0.05288900434970856, -0.002246488118544221, 0.022403797134757042, 0.03854329138994217, 0.015879573300480843, 0.009981438517570496, -0.030016448348760605, 0.027665702626109123, -0.015567335300147533, 0.01231140922755003, -0.032460618764162064, 0.03037603758275509, -0.02571585774421692, 0.01901140809059143, 0.03509103134274483, -0.020801730453968048, 0.011784112080931664, -0.00984136387705803, -0.0029213782399892807, -0.03297942131757736, 0.003298555500805378, 0.01579693704843521, 0.008661676198244095, 0.0027243986260145903, 0.03130650147795677, 0.0005187460919842124, -0.032023295760154724, 0.012336703017354012, -0.042878907173871994, -0.028077363967895508, 0.04115051031112671, 0.03068697638809681, -0.003109425539150834, -0.010571152903139591, -0.0017961219418793917, -0.011568334884941578, -0.0009720934904180467, 0.03281717747449875, -0.014457184821367264, 0.0007322084275074303, -0.011605596169829369, -0.028002925217151642, 0.031121572479605675, -0.022163279354572296, 0.021406235173344612, -0.01365077868103981, -0.016609342768788338, 0.020812146365642548, 0.006837176624685526, 0.013940219767391682, 0.0353352315723896, 0.009570779278874397, -0.016894541680812836, -0.006607964634895325, -0.000786784163210541, -0.04411061853170395, -0.007006721571087837, 0.02159370668232441, 0.04047391191124916, 0.020287461578845978, -0.013288191519677639, -0.012961330823600292, -0.03176466375589371, -0.02601432241499424, 0.005892710294574499, -0.011902851983904839, -0.008838513866066933, 0.02546633407473564, -0.014596667140722275, -0.026959458366036415, 0.033208221197128296, 0.012923638336360455, -0.01583077572286129, -0.01682800054550171, -0.000365399377187714, 0.019949695095419884, -0.02812296338379383, 0.0069872476160526276, 0.008664850145578384, 0.02183213271200657, -0.026935487985610962, 0.026924781501293182, -0.030514191836118698, 0.006372970528900623, -0.03865809738636017, 0.02844628319144249, 0.039004866033792496, -0.004757508635520935, -0.04510120302438736, -0.032929856330156326, -0.03568728268146515, -0.017703406512737274, 0.004522142466157675, 0.014392410404980183, 0.019056787714362144, -0.01202421821653843, -0.005074474960565567, 0.019775142893195152, -0.026543114334344864, 0.014024470932781696, -0.02149374969303608, -0.00014599294809158891, -0.01899009384214878, 0.014924118295311928, -0.0021240790374577045, 0.004142250400036573, 0.028012970462441444, 0.011742914095520973, -0.018656717613339424, -0.0084980558604002, -0.032275617122650146, -0.00493877287954092, 0.020990468561649323, 0.032438959926366806, 0.025671066716313362, -0.03198239952325821, -0.016345873475074768, -0.025450721383094788, -0.009899129159748554, 0.03479922190308571, 0.02558189071714878, -0.017633121460676193, 0.013078399933874607, -0.016669083386659622, -0.03378823772072792, 0.01473307702690363, 0.035066600888967514, 0.0030345572158694267, -0.024193940684199333, 0.020206738263368607, -0.01790986955165863, -0.0005700929323211312, 0.021821310743689537, 0.0004928779089823365, 0.004470632411539555, -0.014640632085502148, -0.021698780357837677, -0.024981608614325523, 0.02359159104526043, -0.040321338921785355, 0.01619584672152996, -0.02344813384115696, -0.005040203221142292, 0.012723005376756191, -0.007395286113023758, -0.002933319192379713, 0.017627067863941193, 0.01764378882944584, -0.011608432047069073, 0.0005353077431209385, 0.0018913238309323788, 0.03289959207177162, -0.002851196564733982, -0.02587432600557804, -0.02545907534658909, -0.0022406482603400946, -0.027389472350478172, -0.028696885332465172, -0.0015619383193552494, -0.028433211147785187, -0.02046603336930275, 0.00023035363119561225, 0.008448634296655655, -0.016743706539273262, -0.02216291055083275, 0.0014213783433660865, -0.00684193754568696, 0.01157950609922409, -0.032122209668159485, 0.0060987090691924095, -0.03795149177312851, -0.03459107130765915, 0.00016546690312679857, 0.015583022497594357, -0.0302907545119524, 0.009286446496844292, -0.014226490631699562, -0.002309228526428342, -0.02500261180102825, 0.02694939635694027, 0.030281782150268555, 0.035421229898929596, 0.03209003433585167, 0.03249024227261543, -0.02881845086812973, -0.002873787423595786, 0.0265202596783638, 0.03155123442411423, 0.02298937551677227, 0.01801363006234169, 0.02701316960155964, 0.017720051109790802, -0.0020096898078918457, -0.016489241272211075, -0.018183764070272446, -0.03298269957304001, 0.00911453552544117, -0.030766241252422333, 0.009380991570651531, -0.019137654453516006, -0.014216266572475433, -0.02141563594341278, 0.0006958867888897657, 0.013797422870993614, -0.00452502490952611, 0.02631162479519844, -0.03164520859718323, 0.0029346439987421036, 0.035124242305755615, -0.013663186691701412, -4.834430001210421e-05, 0.015080932527780533, -0.0016032925341278315, 0.005183168221265078, -0.021013880148530006, 0.01641673594713211, 0.0328826904296875, 0.0331425741314888, 0.017361639067530632, -0.015995871275663376, 0.023130955174565315, -0.024446437135338783, 0.014775675721466541, -0.013014636933803558, -0.010808857157826424, -0.016881579533219337, -0.05501013249158859, -0.027014877647161484, -0.011790241114795208, -0.02001798152923584, 0.02336140349507332, -0.019245553761720657, 0.007088131736963987, -0.02861924096941948, -0.0066472189500927925, -0.020532988011837006, 0.0019324544118717313, -0.024109939113259315, -0.030828258022665977, -0.009337371215224266, 0.032418619841337204, 0.02778908796608448, -0.017907047644257545, -0.024971244856715202, -0.03317755088210106, -0.026483526453375816, 0.00231440388597548, 0.02524176426231861, 0.010295401327311993, 0.018466446548700333, -0.0011230295058339834, -0.000889462127815932, 0.013770820572972298, -0.01900613121688366, 0.006986137013882399, -0.006026210729032755, -0.0371832475066185, 0.008152762427926064, 0.011230653151869774, -0.00278726895339787, -0.012791224755346775, -0.019473420456051826, 0.014583759009838104, -0.029178712517023087, 0.016356131061911583, -0.03103419952094555, -0.009764553047716618, -0.01331810187548399, -0.011075901798903942, 0.01539364643394947, 0.01057195384055376, -0.005430822726339102, 0.01044032908976078, 0.013251760974526405, -0.03191591799259186, -0.02641427144408226, 0.0043023135513067245, 0.024564368650317192, 0.012951506301760674, -0.006130943074822426, 0.03238280490040779, -0.014574353583157063, -0.03193709999322891, 0.02407999522984028, 1.8840597476810217e-05, 0.0034839347936213017, -0.002751406515017152, -0.0018643065122887492, 0.030751120299100876, -0.0032778496388345957, 0.02400312013924122, 0.006712744478136301, 0.002004836220294237, 0.005500391591340303, 0.028751423582434654, -0.0031383594032377005, -0.03235877677798271, -0.02529040537774563, 0.012595457024872303, 0.004486544989049435, 0.016412729397416115, 0.0323772206902504, 0.030017388984560966, -0.01927146129310131, 0.015324150212109089, 0.03279958292841911, 0.003687897464260459, 0.005176302511245012, 0.021098637953400612, 0.03260251134634018, 0.025561459362506866, -0.0013081961078569293, 0.0022998317144811153, -0.010093857534229755, -0.01785016432404518, -0.016347287222743034, -0.0032694644760340452, -0.02882736548781395, 0.014922939240932465, 0.010172112844884396, 0.02513374760746956, 0.014065231196582317, -0.016077937558293343, 0.008642647415399551, 0.03339669853448868, 0.01081586442887783, -0.027552518993616104, -0.006474337074905634, 0.0228731669485569, 0.02820724993944168, 0.008050700649619102, -0.007167148869484663, 0.0015682373195886612, -0.0023884831462055445, 0.012501873075962067, -0.013322697952389717, 0.02040153369307518, 0.03193889558315277, -0.02922760508954525, 0.03230050578713417, -0.031167270615696907, -0.025660328567028046, -0.017756158486008644, -0.0036558962892740965, -0.02431325428187847, -0.019688986241817474, -0.02059127204120159, 0.034000277519226074, 0.0017219551373273134, -0.01705712452530861, 0.027555668726563454, -0.002957163145765662, 0.008362025022506714, -0.017950408160686493, 0.02449030987918377, -0.019879480823874474, -0.01879165880382061, -0.01780511438846588, -0.027556153014302254, 0.020853150635957718, -0.03280935809016228, -0.013519098050892353, -0.0286389347165823, -0.031423378735780716, 0.032409731298685074, -0.012266330420970917, 0.01232941821217537, -0.002441961318254471, 0.020685261115431786, -0.011524859815835953, -0.018314708024263382, -0.03464079275727272, 0.035332128405570984, -0.00411919504404068, -0.003279241034761071, -0.00733570009469986, -0.0062041496858000755, 0.027278341352939606, 0.020786263048648834, -0.012098904699087143], [-0.03528266400098801, -0.0008156529511325061, -0.02069981023669243, -5.3351242968346924e-05, -0.004707322455942631, -0.023000411689281464, 0.031588684767484665, -0.003316946793347597, -0.021063989028334618, -0.0196395181119442, -0.035741109400987625, 0.015396554954349995, -0.02124236524105072, -0.029266955330967903, -0.016622671857476234, 0.01877397671341896, -0.027233555912971497, -0.0012902193702757359, -0.02337947115302086, -0.013409570790827274, -0.020684512332081795, -0.009041426703333855, -0.0016547903651371598, 0.0076729790307581425, 0.017274441197514534, -0.033731382340192795, 0.016329066827893257, -0.015063639730215073, -0.028128476813435555, -0.007300067692995071, -0.028282618150115013, 0.02126922830939293, -0.005735790356993675, -0.03669527545571327, 0.020541993901133537, -0.031097356230020523, -0.015321514569222927, -0.03020530194044113, -0.013737152330577374, 0.03212875872850418, -0.016070520505309105, -0.014583081007003784, 0.02878742665052414, -0.029777804389595985, -0.012511094100773335, -0.019515756517648697, 0.03267021104693413, -0.00899448525160551, 0.009495215490460396, -0.012724662199616432, -0.008917732164263725, 0.02977966144680977, -0.031400151550769806, 0.025359204038977623, -0.037296395748853683, -0.03140287846326828, 0.014992345124483109, -0.010099278762936592, 0.019961893558502197, -0.024470239877700806, 0.03259061276912689, -0.035405196249485016, 0.020330635830760002, -0.018954792991280556, -0.029766440391540527, -0.030037768185138702, 0.028770091012120247, 0.003063473617658019, -0.013561088591814041, -7.261490827659145e-05, -0.018998628482222557, 0.015932651236653328, 0.02719290554523468, -0.024417174980044365, 0.02323165535926819, 0.011527109891176224, 0.015778882429003716, 0.0103402528911829, -0.018929166719317436, -0.0035392625723034143, -0.0169987715780735, 0.006441646255552769, -0.019905731081962585, -0.03114980086684227, -0.034793075174093246, -0.0024702725932002068, 0.014280896633863449, -0.02633514255285263, -0.012086824513971806, -0.02280586212873459, 0.0321933813393116, 0.016704507172107697, 0.010585966520011425, -0.008586142212152481, 0.023470528423786163, -0.0013968364801257849, 0.0009622586076147854, 0.025982145220041275, 0.010265368968248367, 0.016173142939805984, -0.030231686308979988, -0.02633407898247242, 0.0065528517588973045, -0.015642540529370308, 0.027508815750479698, 0.02678198367357254, 0.00342091778293252, 0.030530838295817375, -0.022685453295707703, 0.011412804946303368, -0.02736951969563961, -0.03175853565335274, -0.0022498390171676874, 0.02303038164973259, 0.021566860377788544, -0.016927799209952354, 0.0325157605111599, 0.02662898413836956, 0.03168710321187973, 0.017784418538212776, -0.03103984333574772, -0.01998182386159897, 0.016272202134132385, -0.00884289387613535, 0.004866909235715866, 0.034358859062194824, 0.01259852759540081, 0.022297445684671402, 0.020400959998369217, -0.023564660921692848, -0.02161681465804577, -0.009649339132010937, 0.0100870281457901, 0.03082413226366043, -0.0332307368516922, -0.006358411628752947, 0.018355758860707283, 0.004463791847229004, 0.02123543992638588, -0.019739603623747826, -0.01524933148175478, 0.022638864815235138, -0.01309259794652462, -0.012785765342414379, -0.01852503977715969, -0.025379998609423637, -0.029083071276545525, -0.007560289930552244, -0.03406554087996483, 0.006143373902887106, 0.03613574802875519, -0.0003851334913633764, 0.00686257891356945, -0.02595120668411255, -0.004525270313024521, 0.01377934217453003, -0.02262515388429165, 0.017865275964140892, -0.007614653091877699, -0.029732931405305862, 0.01270410418510437, 0.03302814066410065, -0.009593583643436432, 0.02441921830177307, 0.016382761299610138, -0.006636748090386391, 0.0037577932234853506, 0.025962160900235176, -0.009319956414401531, -0.0020728078670799732, 0.026873765513300896, 0.008052912540733814, -0.03421755135059357, -0.03434192016720772, 0.01790640316903591, 0.0035176179371774197, -0.03580619394779205, -0.01459202729165554, -0.0202600359916687, -0.011824009008705616, -0.007875260896980762, -0.03589891269803047, -0.011296871118247509, 0.003283174941316247, -0.040347278118133545, -0.03399813547730446, 0.028055014088749886, -0.002384281251579523, 0.013874243944883347, -0.014187364839017391, -0.023688923567533493, -0.03584945946931839, 0.014957910403609276, 0.022357173264026642, 0.001577213522978127, 0.00904009398072958, -0.025484250858426094, 0.02923172526061535, 0.01941865123808384, -0.03311701864004135, -0.022010814398527145, -0.02967432327568531, -0.026811618357896805, 0.022255387157201767, -0.02799019031226635, -0.0049708071164786816, -0.005699995905160904, 0.004049731884151697, -0.027720250189304352, 0.019636012613773346, -0.02298915758728981, -0.011774303391575813, -0.034496624022722244, -0.03385058790445328, -0.002898014849051833, -0.028980296105146408, -0.019316868856549263, -0.022830909118056297, 0.012277953326702118, -0.0165103767067194, 0.029251806437969208, -0.03357493504881859, 0.026270754635334015, 0.004346739500761032, -0.018541013821959496, -0.01949170045554638, -0.0318734347820282, 0.003575859824195504, -0.009364984929561615, 0.03187871724367142, 0.013522328808903694, -0.006610572338104248, 0.003753101686015725, 0.03170711547136307, -0.009576961398124695, -0.010972918011248112, -0.019137177616357803, 0.01764659769833088, -0.033798057585954666, -0.002726184204220772, 0.0029187232721596956, 0.008887273259460926, -0.03370014950633049, -0.018909532576799393, -0.01829434186220169, -0.007639626506716013, -0.017349746078252792, 0.004843640141189098, -0.030502406880259514, 0.008190899156033993, -0.03611275553703308, 0.00842368509620428, -0.0010144875850528479, -0.03219975158572197, 0.008077502250671387, -0.028931234031915665, 0.004726941231638193, -0.00561769912019372, 0.04185212031006813, 0.040136829018592834, 0.041635580360889435, -0.0013786547351628542, 0.02831980586051941, 0.04123956337571144, 0.0493052639067173, 0.04840080440044403, 0.04271591827273369, 0.020212993025779724, 0.023706577718257904, -0.020786132663488388, 0.022820109501481056, -0.013374323025345802, 0.0018920385045930743, 0.0036167174112051725, 0.010591787286102772, -0.002484111813828349, -0.025979094207286835, -0.0004156771465204656, 0.006798828020691872, -0.027786003425717354, 0.020111504942178726, -0.029864691197872162, -0.02089986950159073, 0.021905940026044846, -0.010627574287354946, 0.016408223658800125, 0.02728130854666233, 0.03518753498792648, 0.050191331654787064, 0.04683192819356918, 0.05596858263015747, 0.004205259960144758, -0.015239070169627666, 0.006083532236516476, 0.029942192137241364, -0.011510519310832024, 0.022587770596146584, 0.011316632851958275, 0.024302637204527855, 0.030795669183135033, 0.01942070759832859, -0.005693070124834776, 0.001114299171604216, -0.017553919926285744, 0.017322728410363197, -0.021852198988199234, -0.027008114382624626, -0.03171764686703682, -0.00783855002373457, -0.0074694505892694, 0.023653129115700722, 0.02057734876871109, 0.010726752690970898, -0.013897321186959743, 0.0018399081891402602, -0.015804700553417206, 0.02883416786789894, 0.008011792786419392, 0.0151597261428833, 0.04044872894883156, -0.02217608503997326, -0.01198359951376915, -0.008357129991054535, 0.005498465150594711, -0.014585730619728565, -0.004471108317375183, -0.022562852129340172, -0.003340719500556588, 0.0002404558617854491, 0.028735894709825516, -0.008336019702255726, 0.02840845100581646, 0.017208566889166832, -0.015858925879001617, 0.023671390488743782, 0.001023162854835391, 0.003971419297158718, 0.016132762655615807, -0.03189766779541969, -0.03212977200746536, 0.02963286265730858, -0.017408540472388268, -0.017294341698288918, 0.025164315477013588, -0.0023297173902392387, 0.008340761996805668, -0.0071335420943796635, 0.010276248678565025, -0.0246302280575037, 0.006201065145432949, -0.01150077860802412, 0.03039379231631756, 0.00506994454190135, 0.040311723947525024, 0.03643285483121872, -0.021873431280255318, -0.00353580922819674, -0.004630327690392733, 0.00686559546738863, 0.02916606329381466, -0.006482449825853109, 0.003329802770167589, 0.029903357848525047, -0.010181037709116936, -0.012549025006592274, 0.027584949508309364, -0.028398968279361725, 0.03166210651397705, 0.00924608949571848, -0.02575088106095791, -0.021628553047776222, 0.018206780776381493, -0.01471781823784113, -0.006766476668417454, -0.015167271718382835, -0.009896264411509037, -0.03489542752504349, -0.02117946743965149, -0.009860275313258171, -0.009773751720786095, -0.028275858610868454, 0.012965500354766846, -0.00847068801522255, -0.001275986316613853, 0.007252018433064222, -0.007508555427193642, 0.02835201472043991, 0.02398010529577732, -0.016747036948800087, 0.02656673453748226, -0.0104009248316288, -0.016905920580029488, -0.024608349427580833, -0.00863587111234665, -0.00790257565677166, -0.03214441239833832, -0.0009674338507466018, -0.004556488711386919, 0.016781186684966087, 0.03408990800380707, -0.03094659559428692, 0.00467595225200057, -0.04920642077922821, -0.03180953487753868, -0.040803905576467514, -0.042822446674108505, -0.017394788563251495, 0.023341424763202667, 0.024922538548707962, -0.013193836435675621, 0.010196095332503319, 0.007422836497426033, -0.0005613603279925883, -0.008935528807342052, 0.009410623461008072, 0.02282487228512764, 0.014095480553805828, -0.015586838126182556, -0.014064338058233261, -0.03690706938505173, 0.012157243676483631, 0.022154947742819786, 0.017038945108652115, -0.005276905372738838, -0.0002811760641634464, 0.01956402137875557, 0.0003050120430998504, -0.02311706729233265, 0.026981709524989128, -0.026783769950270653, 0.016264239326119423, -0.02464749850332737, 0.0025389206130057573, 0.008452650159597397, 0.020864419639110565, 0.028681453317403793, -0.02134462259709835, 0.005498811136931181, -0.0019774760585278273, -0.003671883838251233, -0.017590893432497978, 0.009201589971780777, 0.017033686861395836, 0.03751624375581741, -0.014734677970409393, 0.015328940935432911, 0.013375800102949142, -0.0072750793769955635, 0.01479931641370058, 0.01970919407904148, 0.0004646488232538104, -0.0015266878763213754, -0.008703360334038734, 0.007016839925199747, 0.005659625865519047, 0.02698272466659546, -0.026138147339224815, -0.021050168201327324, -0.024530844762921333, -0.027815483510494232, -0.04781879112124443, 0.027993278577923775, -0.024240979924798012, -0.012915380299091339, -0.023001639172434807, 0.016546553000807762, 0.004201519303023815, 0.030299944803118706, -0.01288136001676321, 0.03900051489472389, 0.037933770567178726, 0.037275489419698715, 0.03697824478149414, -0.0017435740446671844, -0.016060004010796547, 0.016362646594643593, 0.018773695454001427, -0.02791992574930191, 0.014214464463293552, -0.03236818686127663, -0.027395792305469513, 0.03579695150256157, 0.013787279836833477, -0.02438795380294323, 0.034087639302015305, 0.002941903192549944, 0.027303744107484818, -0.030752088874578476, -0.01810569502413273, -0.018527792766690254, 0.04493178054690361, 0.01501391176134348, -0.004584622103720903, -0.011631221510469913, -0.012269447557628155, 0.02717014215886593, 0.03519975766539574, -0.002390448935329914, 0.022210294380784035, -0.01132479403167963, -0.028320688754320145, 0.014995969831943512, -0.005901165772229433, -0.012599264271557331, 0.002714171539992094, -0.021321432664990425, 0.025333816185593605, -0.027839474380016327, -0.0009318096563220024, -0.00335625559091568, -0.014964800328016281, 0.002617421792820096, -0.021645233035087585, -0.0013950229622423649, -0.026700541377067566, 0.027668165042996407, 0.004656636621803045, -0.026870455592870712, -0.01897967793047428, 0.027392107993364334, -0.01527275051921606, -0.03037996217608452, 0.027155838906764984, -0.00829403754323721, -0.0011965286685153842, 0.02334751933813095, -0.007868379354476929, -0.03422730043530464, 0.029974941164255142, 0.021913642063736916, -0.011166342534124851, -0.01530026737600565, -0.020488645881414413, -0.02403809316456318, -0.0029495719354599714, 0.008046173490583897, 0.015929507091641426, -0.02597980573773384, -0.014699122868478298, 0.01382072176784277, 0.005938660819083452, 0.004455169662833214, -0.03693510964512825, 0.012581720016896725, -0.0024123257026076317, 0.02497822605073452, -0.03387501463294029, -0.015476091764867306, -0.0034079556353390217, -0.01951281540095806, -0.01885061338543892, -0.014644878916442394, 0.010291695594787598, 0.03674697130918503, -0.00280521041713655, -0.024964453652501106, -0.017358461394906044, -0.030271664261817932, 0.02714242786169052, 0.0322469137609005, -0.014393712393939495, 0.0020764346700161695, -0.01768283173441887, 0.008449324406683445, -0.012121563777327538, 0.0073773800395429134, -0.014713936485350132, -0.037799954414367676, 0.008321507833898067, -0.02188851125538349, -0.01917877420783043, -0.030029885470867157, -0.027834368869662285, 0.02019968070089817, 0.005798462778329849, 0.0071099307388067245, 0.0038756923750042915, 0.035464245826005936, 0.03680608049035072, -0.00764960004016757, 0.01366158202290535, -0.022952716797590256, -0.014650393277406693, 0.02589467354118824, -0.02211121842265129, 0.025049500167369843, -0.024779725819826126, -0.003361467970535159, 0.023774297907948494, 0.008891575038433075, -0.02883189171552658, -0.008999851532280445, -0.015505434013903141, 0.0001774434931576252, -0.014370744116604328, -0.027484936639666557, -0.023750126361846924, 0.02543357014656067, -0.002817281521856785, 0.024725336581468582, 0.022819576784968376, -0.0017766093369573355, -0.017637481912970543, 0.02430589683353901, 0.02825981192290783, 0.012266087345778942, 0.03359248861670494, 0.002948096953332424, 0.03743284195661545, -0.020096831023693085, -0.025995798408985138, 0.022914055734872818, -0.037301093339920044, 0.00183840561658144, 0.005502298939973116, -0.012545036152005196, -0.034334298223257065, 0.025419071316719055, 0.028722379356622696, -0.02980858087539673, -0.017504451796412468, -0.0204351544380188, -0.017771726474165916, -0.019967038184404373, -0.018248997628688812, -0.022080859169363976, 0.009988106787204742, -0.010668239556252956, 0.0037839245051145554, -0.004768264014273882, -0.01075455080717802, 0.021378885954618454, 0.037472113966941833, 0.042522575706243515, 0.014286325313150883, -0.008810291066765785, -0.002633501309901476, -0.018550749868154526, -0.036939285695552826, -0.03508101403713226, 0.02623446099460125, 0.029825231060385704, -0.0023958757519721985, -0.031819384545087814, -0.017112258821725845, -0.02846512943506241, 0.018656495958566666, 0.016955377534031868, 0.013141556642949581, -0.028246892616152763, 0.00034836356644518673, 0.007258554454892874, 0.002136056777089834, -0.01678171008825302, -0.017352424561977386, -0.009453059174120426, 0.02445206418633461, -0.0016413748962804675, -0.017623646184802055, 0.03640808165073395, -0.011130819097161293, 0.003987320698797703, -0.0024296585470438004, -0.014487062580883503, 0.020886296406388283, -0.02691318653523922, -0.00987506564706564, 0.008381949737668037, -0.005045025609433651, -0.006699782330542803, 0.023429783061146736, -0.002567002549767494, 0.0203744824975729, -0.029549555853009224, -0.007279260084033012, 0.017789721488952637, 0.00068088952684775, 0.019935788586735725, -0.0031945770606398582, 0.012842945754528046, 0.004573151469230652, -0.022497979924082756, -0.023602714762091637, -0.032615941017866135, -0.031120840460062027, 0.030523670837283134, 0.02219485118985176, -0.013610400259494781, -0.022312074899673462, -0.011831353418529034, 0.037746962159872055, 0.00601396057754755, -0.02722632884979248, 0.016193481162190437, -0.03306809440255165, -0.007303011603653431, -0.027400175109505653, 0.018589265644550323, -0.000639519770629704, -0.024210920557379723, 0.01468562800437212, 0.002288833959028125, -0.017443504184484482, -0.010370008647441864, -0.01731904037296772, 0.0011711331317201257, -0.0048422617837786674, 0.020761072635650635, 0.022585101425647736, -0.01279692817479372, 0.02691284567117691, 0.029947873204946518, 0.016841508448123932, 0.029983684420585632, 0.003907608799636364, 0.020212525501847267, 0.0014900785172358155, -0.03154301643371582, 0.003991338424384594, 0.01575922593474388, 0.030385103076696396, 0.011036989279091358, -0.016438990831375122, 0.01289580762386322, -0.02160024456679821, 0.006431780755519867, 0.01121264323592186, 0.003114582970738411, -0.024558139964938164, 0.024889245629310608, 0.01263006404042244, -0.02298840507864952, 0.027406997978687286, -0.029239105060696602, 0.0005849156295880675, -0.007329579908400774, -0.008357835933566093, -0.005663250107318163, 0.019043780863285065, 0.03372040018439293, 0.011754939332604408, -0.014984048902988434, -0.0011773299193009734, -0.005288494750857353, -0.030884692445397377, 0.02952471747994423, -0.024773621931672096, 0.02370462194085121, 0.007606612518429756, -0.03693721443414688, -0.00014574933447875082, 0.01165771298110485, -0.0287227313965559, -0.010165249928832054, 0.000511683349031955, -0.024979205802083015, 0.013394434005022049, -0.035615719854831696, 0.028675440698862076, 0.017740294337272644, -0.008262994699180126, -0.03716594725847244, 0.026391468942165375, 0.029554519802331924, -0.023335712030529976, 0.013123685494065285, 0.01451233122497797, -0.01992654800415039, 0.004767335020005703, 0.029903152957558632, 0.008844281546771526, -0.006579147651791573, -0.006170734763145447, 0.014774949289858341, -0.016324497759342194, -0.035996392369270325, -0.020140891894698143, 0.03195975720882416, -0.0369962640106678, -0.002511542057618499, 0.02306138351559639, 0.016724351793527603, -0.01429180521517992, 0.025028837844729424], [-0.012431244365870953, -0.011200420558452606, -0.002361964201554656, -0.018649354577064514, -0.01117220614105463, 0.03140999749302864, 0.032365839928388596, 0.010842072777450085, -0.01461144257336855, -0.0030455279629677534, 0.008536523208022118, -0.013082128949463367, 0.020647114142775536, 0.014753258787095547, 0.005592238157987595, 0.002285618567839265, -0.013746303506195545, -0.035642948001623154, -0.02731182612478733, -0.016458552330732346, 0.009731851518154144, -0.004100737161934376, -0.019058343023061752, -0.001667988020926714, 0.029644999653100967, 0.012851951643824577, 0.024433229118585587, -0.008917017839848995, 0.013644004240632057, -0.003296702401712537, 0.004984364844858646, -0.008008946664631367, 0.0065150149166584015, -0.01483919844031334, -0.00958088506013155, 0.0039509800262749195, -0.03414132818579674, -0.014004028402268887, 0.025785593315958977, -0.018254635855555534, -0.007927927188575268, -0.010345463640987873, -0.010944973677396774, 0.005657867528498173, -0.013056805357336998, -0.009088436141610146, 0.0115661034360528, 0.015300648286938667, -0.0184766948223114, 0.02678488940000534, 0.030756590887904167, -0.003741689957678318, 0.01621566154062748, -0.0028848154470324516, -0.017015280202031136, 0.008692899718880653, -0.0012240782380104065, 0.02209438569843769, 0.010383500717580318, 0.018639272078871727, -0.03367526829242706, 0.01588250882923603, 0.009385805577039719, -0.006133053917437792, -0.01120219100266695, -0.0024143203627318144, -0.03257397189736366, 0.03158065304160118, 0.007415050640702248, -0.008485806174576283, 0.023853758350014687, 0.020559370517730713, -0.014620602130889893, 0.030356312170624733, 0.007729272358119488, -0.004856120329350233, 0.021287206560373306, 0.0061811236664652824, -0.00499268202111125, -0.0228127334266901, 0.01798393204808235, -0.005535502918064594, 0.002929957350715995, 0.02123727649450302, 0.032724179327487946, 0.017808731645345688, 0.0231888759881258, -0.01953059434890747, -0.009736897423863411, -0.02742817997932434, -0.028471168130636215, -0.020099161192774773, 0.002880185842514038, 0.011688726022839546, 0.015154794789850712, -0.009566100314259529, -0.01955481618642807, -0.03424917161464691, 0.01641293801367283, -0.023390844464302063, -0.028108811005949974, -0.021758290007710457, -0.010414015501737595, -0.02867896668612957, -0.021328182891011238, 0.004143464844673872, -0.005583163816481829, -0.03538144379854202, 0.0041724261827766895, 0.02572106011211872, -0.021230267360806465, -0.01833518221974373, 0.02608391083776951, -0.012273221276700497, 0.014939471147954464, -0.014171191491186619, -0.0055434443056583405, 0.0029367629904299974, -0.022453851997852325, -0.02275783382356167, -0.019876334816217422, -0.03027348779141903, 0.029860451817512512, 0.030986377969384193, 0.03478725999593735, -0.031016482040286064, 0.027832472696900368, -0.036030251532793045, 0.012610316276550293, -0.010533923283219337, -0.029273690655827522, -0.002208270598202944, 0.0025147702544927597, 0.00825423188507557, -0.014035750180482864, 0.01461386401206255, 0.01671762578189373, -0.033832091838121414, 0.03237178176641464, -0.010127722285687923, 0.01885124295949936, -0.03196851536631584, 0.030855827033519745, -0.00735123734921217, -0.003861132310703397, -0.03541027754545212, -0.02857346646487713, 0.010984155349433422, 0.012937838211655617, -0.00437880726531148, 0.018130343407392502, 0.02124009281396866, 0.028147319331765175, -0.014391779899597168, -0.0068519264459609985, -0.007036995608359575, 0.003659415990114212, -0.024647314101457596, -0.00943551491945982, -0.007477405481040478, -0.011007804423570633, -0.004335201345384121, -0.003653767751529813, -0.031324684619903564, 0.01572948880493641, -0.03675176948308945, -0.009970741346478462, -0.009604905731976032, -0.008183570578694344, 0.0030242938082665205, -0.029832301661372185, -0.008682145737111568, -0.006136585492640734, 0.023533441126346588, -0.017192915081977844, 0.02444288320839405, 0.0032694549299776554, 0.025458797812461853, -0.027939708903431892, -0.01878904178738594, -0.02296649105846882, -0.024649469181895256, -0.0018179771723225713, -0.002210315316915512, -0.03441980853676796, -0.011904457584023476, 0.015515872277319431, -0.02015121653676033, -0.016319340094923973, 0.001482236199080944, -0.004526194650679827, -0.012769188731908798, -0.014432091265916824, 0.0027095044497400522, 0.016250260174274445, 0.01106430683284998, -0.004348637070506811, 0.005467827431857586, 0.01501056645065546, -0.00041457137558609247, -0.033155784010887146, 0.01847296580672264, -0.023707114160060883, 0.015429805032908916, 0.03611544892191887, 0.011406107805669308, -0.026720112189650536, 0.0005518707912415266, -0.017180809751152992, -0.0283899437636137, 0.02536633610725403, 0.03761330619454384, 0.004926529712975025, 0.03738635778427124, 0.00965902954339981, -0.0008978430414572358, -0.0019289535703137517, 0.022533969953656197, 0.031962890177965164, -0.024590076878666878, -0.014759850688278675, 0.02098526991903782, -0.009430219419300556, 0.023765169084072113, -0.03482669219374657, 0.017975036054849625, -0.023191438987851143, 0.00550534762442112, -0.0015515098348259926, -0.013469338417053223, -0.003677380969747901, -0.015208948403596878, 0.0018844384467229247, 0.02534114196896553, -0.01924164406955242, -0.024538114666938782, -0.014613274484872818, 0.033609673380851746, 0.02832578308880329, 0.006704823113977909, 0.007641137111932039, -0.006276086904108524, 0.006732943467795849, 0.03740784525871277, 0.01992829330265522, -0.019552813842892647, 0.025131098926067352, 0.00694852601736784, 0.004407267551869154, 0.0017871272284537554, -0.011945177800953388, 0.015737934038043022, 0.012633898295462132, 0.028011592105031013, -0.03615804389119148, -0.003906140336766839, 0.000297668157145381, 0.02630697190761566, 0.02214912511408329, 0.002166636986657977, -0.0007356539717875421, 0.010320493951439857, -0.006700810510665178, -0.010400952771306038, 0.03529911860823631, 0.03332345932722092, -0.024306904524564743, -0.015623301267623901, -0.0028467585798352957, 0.036681339144706726, 0.009089149534702301, 0.0062481495551764965, -0.03164933994412422, 0.03149621561169624, -0.03044034354388714, -0.015392398461699486, -0.027651265263557434, -0.007745598442852497, -0.007342055905610323, -0.02803884819149971, -0.02987043187022209, -0.014439577236771584, -0.009708216413855553, 0.02705053612589836, -0.00011819279461633414, 0.009066502563655376, -0.024841690436005592, -0.022655457258224487, 0.004744906444102526, 0.01802620105445385, -0.01624610833823681, 0.027776425704360008, 0.023585138842463493, -0.034830935299396515, 0.02378666400909424, -0.014372949488461018, 0.03955841064453125, -0.031185859814286232, 0.03224221244454384, -0.013772205449640751, -0.006064698565751314, 0.036262307316064835, 0.011374442838132381, 0.03438419848680496, -0.021487785503268242, 0.02529182843863964, 0.0065776449628174305, -0.027825262397527695, -0.026085298508405685, -0.027083497494459152, -0.034697309136390686, 0.0026882397942245007, -0.012410451658070087, -0.02625836431980133, -0.016795631498098373, 0.01421897578984499, -0.03833036124706268, -0.02229999378323555, -0.0024085920304059982, -0.032397858798503876, -0.028633086010813713, 0.012110373936593533, -0.008237971924245358, -0.018176421523094177, 0.033805519342422485, 0.0348326712846756, 0.022654596716165543, 0.036636289209127426, 0.009298618882894516, -0.017693188041448593, 0.006877830717712641, 0.02263052389025688, 0.019660716876387596, 0.022912250831723213, -0.022462256252765656, -0.03556698560714722, 0.02153822034597397, -0.010671917349100113, -0.003916686866432428, -0.03546101227402687, 0.005605689249932766, 0.029117682948708534, 0.019744938239455223, 0.025563281029462814, -0.041786666959524155, -0.006288158241659403, 0.021173886954784393, 0.0171866063028574, -0.007156761363148689, -0.03412527218461037, -0.016696244478225708, 0.02280694618821144, 0.0006749788299202919, 0.01555318757891655, -0.02026611939072609, 0.0018080798909068108, -0.006368822418153286, -0.026677163317799568, 0.01574569009244442, 0.03123788721859455, 0.012079677544534206, 0.022138653323054314, 0.02118193358182907, 0.02417999692261219, -0.009242832660675049, -0.0214819498360157, 0.014937368221580982, -0.021319668740034103, 0.02145618572831154, -0.02040431834757328, -0.020542176440358162, -0.02679073065519333, -0.029709942638874054, 0.017375824972987175, -0.021328015252947807, -0.012829676270484924, 0.0009278552606701851, 0.006933860946446657, 0.013200361281633377, 0.015821823850274086, -0.00022071415151003748, 0.0249992273747921, 0.030720453709363937, 0.0012927539646625519, -0.006692491937428713, -0.035345155745744705, -0.0038463398814201355, 0.018127314746379852, 0.012082678265869617, 0.031812865287065506, 0.023911776021122932, -0.012859513983130455, 0.0033032482024282217, 0.002150988904759288, 0.006562394555658102, -0.012369499541819096, -0.0026694454718381166, 0.00690368190407753, 0.030496148392558098, -0.015616890974342823, 0.009146023541688919, -0.013652078807353973, -0.029657943174242973, -0.025672489777207375, 0.0196713637560606, 0.03433897718787193, -0.0017738820752128959, 0.006878477055579424, 0.0024553737603127956, 0.027622101828455925, 0.018762126564979553, 0.006690147332847118, -0.01721559464931488, 0.019321972504258156, -0.0017503390554338694, -0.009409387595951557, -0.02122965082526207, 0.028297139331698418, 0.018505088984966278, 0.0055145141668617725, 0.012580016627907753, -0.027979634702205658, 0.02398044615983963, 0.005382736213505268, -0.02097104862332344, 0.031851332634687424, 0.01570289023220539, -0.03110318072140217, 0.025852957740426064, -0.022149406373500824, -0.022130023688077927, -0.030031070113182068, -0.016675474122166634, -0.005783675704151392, -0.00855605024844408, -0.006105597596615553, 0.020203817635774612, 0.012703284621238708, -0.0060904547572135925, 0.024143973365426064, -0.030592430382966995, -0.021437689661979675, 0.029299965128302574, 0.00578997703269124, -0.022792356088757515, 0.010786785744130611, 0.01537729799747467, 0.024808047339320183, 0.015496142208576202, 0.005018886644393206, 0.028629710897803307, 0.03125227987766266, -0.022985175251960754, 0.012800779193639755, 0.012857899069786072, 0.019091062247753143, 0.007384833414107561, 0.010069204494357109, 0.00764851551502943, 0.03125540912151337, 0.012820911593735218, -0.040014199912548065, -0.002081290353089571, 0.010626344010233879, 0.009460055269300938, 0.005883621051907539, -0.017707977443933487, 0.03021099604666233, -0.014803193509578705, -0.03643409162759781, 0.0266185961663723, 0.011543283239006996, 0.011035426519811153, -0.002599504776299, 0.026527272537350655, -0.006902860011905432, 0.008679090067744255, -0.03171803429722786, -0.009626910090446472, 0.024317562580108643, -0.0236493106931448, -0.010939843021333218, -0.012240908108651638, 0.009572507813572884, 0.013598427176475525, 0.014135180972516537, -0.0023576058447360992, 0.007272329181432724, -0.00647552078589797, -0.02772972360253334, -0.012930475175380707, 0.02724766544997692, 0.009990512393414974, -0.005523229017853737, 0.02226603589951992, -0.028184639289975166, -0.019166117534041405, -0.03244449943304062, 0.00020088464953005314, 0.011456425301730633, 0.014099261723458767, 0.019236452877521515, 0.03054068423807621, -0.03384518623352051, 0.005804442800581455, -0.014932293444871902, -0.0060474020428955555, -0.028170276433229446, -0.014102254994213581, -0.03252708166837692, -0.018820839002728462, 0.00898007769137621, -0.032566267997026443, -0.003248796798288822, -0.009076083078980446, 0.027167800813913345, -0.03359149396419525, 0.0030166208744049072, -0.017130864784121513, 0.03582029417157173, 0.01342441514134407, 0.012938402593135834, -0.01986505836248398, -0.016898274421691895, 0.0066682081669569016, 0.0012149785179644823, -0.020090512931346893, -0.004028458148241043, 0.009087580256164074, 0.012277054600417614, -0.03508735075592995, -0.002959718694910407, -0.03414857015013695, -0.027453672140836716, 0.02896609529852867, -0.012108315713703632, -0.03574974834918976, 0.002633659867569804, 0.018925322219729424, 0.027523456141352654, -0.004733371082693338, -0.02971589006483555, 0.002920468570664525, -0.01271830964833498, 0.025277554988861084, 0.01298304833471775, 0.029649728909134865, -0.022479845210909843, -0.03425018489360809, -0.005681793205440044, 0.002153635723516345, -0.002232825383543968, -0.011513248085975647, 0.007301173638552427, 0.01610507257282734, 0.018220925703644753, 0.016798553988337517, -0.02921126037836075, 0.032628681510686874, 0.011447075754404068, 0.0004503661475609988, 0.010485050268471241, 0.014970867894589901, -0.02932346798479557, 