[
    {
        "weights": [
            0.2955813068063567,
            -0.08928658318793643,
            0.29306852639510034,
            0.2797051027253689,
            0.6069910509331701,
            0.41960400862087377,
            0.31284888332680755,
            0.5346343098863365,
            -0.000980092947547054,
            0.26107031088046134,
            0.23578876477512836,
            0.024498191664029414,
            0.12975784531779816,
            0.18882800264098534,
            -0.30165732679785623,
            -0.2892682853920746,
            -0.00457774846359717,
            0.12515684327096452,
            -0.3930632048213008,
            -0.32994455981385995,
            0.37602774589360993,
            0.27645263229928935,
            0.3255352612949338,
            0.3504317838475384,
            0.47004703464894326,
            0.141057701278844,
            0.33595632460460845,
            0.5866355791408627,
            0.14878697111864714,
            0.1398233209497621
        ],
        "intercept": [
            -0.32869312507095966
        ]
    },
    {
        "weights": [
            0.262995366033117,
            0.6649050417147662,
            0.2667017254018082,
            0.27308618206344376,
            -0.0964482987636703,
            -0.06123283643294305,
            0.5613689311486572,
            0.5567916470852866,
            -0.13540841782806912,
            -0.32595017219037237,
            0.6933671117187362,
            -0.2707340826703787,
            0.5388234394837935,
            0.46546810202842387,
            0.2513715185678443,
            -0.47930907322340943,
            -0.19806159330320555,
            -0.08031597654964556,
            -0.20412534653380954,
            -0.29846380790291693,
            0.6549422844535475,
            0.7386237487983197,
            0.5936724720773455,
            0.5775618888039457,
            0.9819864642398083,
            0.13797853206068364,
            0.5933843998551954,
            0.6120866575793105,
            0.7155915902778253,
            0.26388497397691174
        ],
        "intercept": [
            -1.0630708974296053
        ]
    },
    {
        "weights": [
            0.18202776342985896,
            0.35378814294733246,
            0.1863559812999032,
            0.16378558870989027,
            -0.013502382768891614,
            0.1852954497557476,
            0.12480200665561378,
            0.26583088589960857,
            0.08380881378878936,
            -0.035780874988165144,
            0.14925234999777146,
            -0.16031157892453615,
            0.14976704075926475,
            0.11329809289908059,
            0.18234301921072762,
            0.22213535234978002,
            0.17173464564627205,
            0.32001099020242824,
            -0.06301574969437682,
            -0.004703003225862996,
            0.1477869818098741,
            0.1903974021756147,
            0.14694305791926532,
            0.12308622246490494,
            -0.06646813362241058,
            0.08454418166319562,
            0.07525995401657581,
            0.2544459081279346,
            -0.21145399277110322,
            -0.1091188448222514
        ],
        "intercept": [
            -0.0775196736434177
        ]
    },
    {
        "weights": [
            0.09661943262741822,
            0.05937142826012228,
            0.1021160684111336,
            0.10063446909703216,
            0.087862215133604,
            0.12249460378838414,
            0.15218144522833818,
            0.14920832019737734,
            0.10272612241687741,
            -0.0036386619815115422,
            0.08103482366927478,
            0.005269723807730661,
            0.07485110107021037,
            0.08310139876110792,
            -0.07487178687172574,
            0.04596311129734212,
            0.056716677507689876,
            0.0457308840746895,
            0.03767473516646293,
            -0.0006347905026161061,
            0.13611513145155074,
            0.08360814020490949,
            0.13181244659843944,
            0.14653570445285885,
            0.060682700922140384,
            0.10533711624477124,
            0.15726304236205166,
            0.14115916431236553,
            0.15092181806724725,
            0.05292193101825713
        ],
        "intercept": [
            -0.5896914537783363
        ]
    },
    {
        "weights": [
            0.12194220584657893,
            0.20427836278480505,
            0.11340790409352966,
            0.12765958533535157,
            0.23372973679843556,
            -0.15525475231789224,
            0.3241843514277865,
            0.5874932865540329,
            0.09985020152668038,
            0.19664438802257952,
            0.6515176269533991,
            0.2945775959226056,
            0.43360003677213,
            0.3309113640277671,
            -0.6050319762592277,
            -0.4844283807467274,
            -0.2421120748389347,
            0.38933054664718597,
            -0.22929261932092662,
            -0.28988592756216636,
            0.3770843303038163,
            0.371798429557062,
            0.288912160026539,
            0.31271198140617423,
            -0.022577222371741625,
            0.13193692515072183,
            0.4028078174052665,
            0.8142687458881647,
            0.30075421076632997,
            0.2826821981984128
        ],
        "intercept": [
            -0.7601671876410007
        ]
    },
    {
        "weights": [
            0.03545184696318037,
            0.11011385989298801,
            0.03346319623984744,
            0.02671691576909383,
            0.06202812011571358,
            0.12054044841206024,
            0.03868582590377305,
            0.03223153634101997,
            0.07774711590167897,
            0.021685701506700166,
            -0.027003628001263304,
            0.11553293763197733,
            -0.1009601223063498,
            0.0023748587974728673,
            0.017300741783582093,
            0.23917861433835028,
            0.01214603519074904,
            -0.12068952801780754,
            0.16059642405535302,
            0.05581709648192876,
            0.028624269276417303,
            0.18545997516121202,
            0.018023000152159102,
            0.022539125054889912,
            0.11066824517478739,
            0.23622353686603673,
            0.12151617075466203,
            0.04616961803100401,
            0.22074648703597274,
            0.1609961326513081
        ],
        "intercept": [
            -3.7531080435912556
        ]
    },
    {
        "weights": [
            0.6200824182597128,
            0.45051561888572406,
            0.5810662250919189,
            0.6047944084011146,
            0.0241841311435901,
            -0.4192275669195385,
            0.7007084504878301,
            0.6407911848707998,
            -0.0233430356200216,
            -0.5274491196455576,
            0.8421709315845486,
            0.035563637063227814,
            0.6283287594119562,
            0.689845910041666,
            0.19178474051843436,
            -0.5269991412565139,
            0.10316598200791463,
            0.31341141479327406,
            -0.2783714850014152,
            -0.40921462463325925,
            0.7301529568497148,
            1.1358814988229682,
            0.592160904434881,
            0.6567874515693278,
            0.6611968273517492,
            -0.0604692020989657,
            0.7727498310588912,
            0.6563243816972634,
            1.0068338450184748,
            0.22547248303704212
        ],
        "intercept": [
            -0.493916831053391
        ]
    },
    {
        "weights": [
            0.1193392190580168,
            0.025989103155582803,
            0.1236912358138056,
            0.12384713753232433,
            0.0985254842452261,
            0.10533726194137372,
            0.14212693022284958,
            0.1386673185965862,
            0.10550721079327174,
            -0.01980215425444788,
            0.12652177590006713,
            0.10574737430278348,
            0.11116195544602969,
            0.14411671821499694,
            0.12627067082543442,
            0.09056039195533501,
            0.09677778511302954,
            0.023746645980937633,
            0.09741334020572415,
            0.001243510310729673,
            0.09052446548802941,
            0.007368946511212688,
            0.09518268053393848,
            0.08908578118381191,
            0.044699118871633775,
            0.03974397835641427,
            0.06000222034306668,
            0.0693031256405844,
            0.03852578779353496,
            -0.02176947625133944
        ],
        "intercept": [
            -4.303923806884865
        ]
    },
    {
        "weights": [
            0.3742536161748399,
            -0.016810471018899525,
            0.38059246183833306,
            0.3425645895573686,
            0.07666890157792397,
            0.24252591430889528,
            0.26183174891078786,
            0.35564847069276817,
            -0.03383103403618277,
            -0.21036113560852834,
            0.04019046298752762,
            -0.191515619026623,
            0.06311320890092581,
            0.09607190723748561,
            -0.013613831328291725,
            0.14397618524711173,
            0.07326134272502913,
            0.102436778747638,
            -0.11122276576300338,
            0.0029034497443470968,
            0.3345239637344241,
            0.008051698225340815,
            0.3486294044543101,
            0.2932955577908352,
            0.20265818701950397,
            0.292730647255419,
            0.2908180845639807,
            0.37156545460096396,
            0.10408391402419957,
            0.057352099084778056
        ],
        "intercept": [
            -1.272514765417781
        ]
    },
    {
        "weights": [
            0.5271550862911286,
            0.25161196929084495,
            0.5065750481580222,
            0.469716911972261,
            0.03453537431980868,
            0.14109321189413435,
            0.258297210804477,
            0.3586155858826118,
            0.16629213450827562,
            -0.25690262885462783,
            0.23652761910576783,
            -0.04478379986067096,
            0.16769827179975555,
            0.2076225584287079,
            -0.2235249554629424,
            -0.017336926742047926,
            0.012301868276224452,
            -0.041057168081952186,
            0.04225844256070571,
            -0.12096989046926175,
            0.5762462591193585,
            0.6674533018778447,
            0.5196372504899067,
            0.48213189819147845,
            0.21225627582055875,
            0.3754715010873412,
            0.45280188232755375,
            0.4191296742507288,
            0.5420960265789675,
            0.17419695404061958
        ],
        "intercept": [
            0.10827897042954489
        ]
    }
]