[
    {
        "weights": [
            1.2826271170162689,
            1.5786740384179543,
            -0.5022396538338769,
            -0.4910100983641866,
            -0.4123578482766658,
            -0.1618841026311545,
            -0.17811446445328946,
            0.4926762457995465
        ],
        "intercept": [
            -0.11214225195823695
        ]
    },
    {
        "weights": [
            0.3668609247857088,
            1.3372788614209596,
            0.22208877502471866,
            0.3362656842321749,
            -0.11922319834165135,
            0.7019240867876245,
            0.3360421349313651,
            0.43226857459111495
        ],
        "intercept": [
            -0.6706196960814179
        ]
    },
    {
        "weights": [
            0.26984485144089143,
            0.4244944639071918,
            -0.09599519416051125,
            -0.09155811902800906,
            -0.07449101513560774,
            0.538271353522001,
            0.18227114369827407,
            -0.26379105420206694
        ],
        "intercept": [
            0.37782289267601404
        ]
    },
    {
        "weights": [
            0.32815918860402243,
            0.17786237086993434,
            -0.21219061441330633,
            -0.14853828334403332,
            0.4454743313628305,
            -0.22640707987092612,
            0.017163140287276307,
            0.26864322305524585
        ],
        "intercept": [
            -0.7912410793944334
        ]
    },
    {
        "weights": [
            0.3382566676973756,
            0.8856622389584836,
            -0.15193003923513393,
            -0.30258001378990473,
            0.42444903088140024,
            0.7153961931549507,
            0.2370107579593042,
            -0.1090762054917734
        ],
        "intercept": [
            -0.8737321785164953
        ]
    },
    {
        "weights": [
            -0.32154043259009524,
            0.38631225617019144,
            0.04478191698561024,
            0.36676026649792903,
            -9.97926342393774e-07,
            0.25835389611916487,
            0.2589862558401896,
            -0.18425783918282082
        ],
        "intercept": [
            -0.7059097747116239
        ]
    },
    {
        "weights": [
            -0.19087880410896982,
            1.0353778866018206,
            -0.5580164152565976,
            -0.045936836401646336,
            -0.17797418725498695,
            1.0887251293813232,
            -0.07920763501741106,
            0.5830818841306566
        ],
        "intercept": [
            -1.064506966007002
        ]
    },
    {
        "weights": [
            0.7893788821449486,
            0.39333634274959806,
            -0.5703938205222526,
            -0.1935862935091471,
            -0.03208468780957897,
            0.08060570217794857,
            0.3230068876222265,
            0.5801749538578491
        ],
        "intercept": [
            -0.8237811407527161
        ]
    },
    {
        "weights": [
            0.2088252080788884,
            0.7187587835309059,
            0.5862006777781887,
            -0.43712910839990776,
            -0.367796233416196,
            0.6948821735125978,
            0.9946524443726491,
            1.025453559067264
        ],
        "intercept": [
            -1.592753151793122
        ]
    },
    {
        "weights": [
            0.6093737378465302,
            0.421465182685312,
            0.27671883248977747,
            0.2180852784909633,
            -0.4246464504069951,
            1.4656187423613989,
            0.4294779602168695,
            0.5306720265648116
        ],
        "intercept": [
            -1.2966880117075905
        ]
    }
]