[
    {
        "weights": [
            0.14721180606736062,
            0.48663932268780136,
            0.13059236170188057,
            0.14847143247845676,
            -0.1326939314157047,
            -0.08353867141461564,
            0.2212687806950884,
            0.18354281316015492,
            -0.0990199248398803,
            -0.12173214848577793,
            0.4638835080599805,
            -0.01522122000401039,
            0.40357027773794024,
            0.33110066910285935,
            -0.09074016198065595,
            -0.08071214932134342,
            0.014648918599726885,
            -0.11605227140458957,
            -0.07761588032951718,
            -0.11472233495681396,
            0.49022506812283523,
            0.6789500209217803,
            0.45336333070425633,
            0.43237549765691996,
            0.26159068513256606,
            0.17700652759223887,
            0.38074380834476423,
            0.35995430893657954,
            0.5085661383716351,
            0.23654562893753947
        ],
        "intercept": [
            -0.8153667422457868
        ]
    },
    {
        "weights": [
            0.33359158907224495,
            0.10224962559740373,
            0.32880540635260974,
            0.3627354064794127,
            0.35970303114935215,
            0.15642413084724924,
            0.3103176498285267,
            0.48611250128215205,
            0.16216119121015335,
            -0.03994904822689488,
            0.26868095947317555,
            -0.06830907466155824,
            0.18755441973572642,
            0.2794627724361858,
            -0.048261268303852745,
            -0.10132815202757454,
            -0.16114615975017388,
            -0.0616134902485821,
            -0.022762178055080934,
            -0.14230981733221498,
            0.41377742273946344,
            0.18233211881748412,
            0.3691309698287779,
            0.42546308930128146,
            0.4985438954684245,
            0.14231051076840595,
            0.2784539071402698,
            0.44719843147980737,
            0.29089079292966213,
            0.21445983512714148
        ],
        "intercept": [
            -1.9062982183794899
        ]
    },
    {
        "weights": [
            0.29883124674001393,
            0.25826130743349124,
            0.3043325611898607,
            0.25631526266673754,
            0.339337289187951,
            0.28168152160558074,
            0.17207383246669705,
            0.41807902441349,
            0.19610947065858472,
            -0.005588552414457138,
            0.28875734277683496,
            -0.06947828258957944,
            0.24987674292848758,
            0.22424098578066262,
            -0.13190621764872715,
            -0.061715803501176704,
            -0.1486135667911244,
            0.11690413755255699,
            -0.0029702785802716747,
            -0.1403801942003109,
            0.31705905678016316,
            0.2364725450841482,
            0.3187963490033511,
            0.2640811558135736,
            0.22455944308692619,
            0.2204378602373633,
            0.1503478361062124,
            0.38998751977705143,
            0.1134778515109035,
            0.0635697969006259
        ],
        "intercept": [
            -0.8416051273046254
        ]
    },
    {
        "weights": [
            0.48322265180150215,
            0.42580766991102487,
            0.46212003615065156,
            0.44172789633234977,
            0.0029005426071776097,
            0.07714164541982298,
            0.21091288615032197,
            0.2925436539253707,
            -0.03023458652423817,
            -0.2809654316249665,
            0.24230851466017006,
            0.12334411406457026,
            0.18311705080137183,
            0.23452416129499482,
            -0.013558677176229128,
            -0.17379152324274638,
            -0.036418744547719394,
            -0.03728611529955579,
            0.07698387699800581,
            -0.18394057012621,
            0.473826017297403,
            0.3715582783079474,
            0.43866543244595274,
            0.42387011676140784,
            0.19190116304824115,
            0.003755319788436896,
            0.17971520167620772,
            0.2842988743597296,
            0.1523966463585078,
            -0.12134253837586939
        ],
        "intercept": [
            -0.7676473266429498
        ]
    },
    {
        "weights": [
            0.3256643949680253,
            0.5097600914960068,
            0.317831271607322,
            0.2930947046016349,
            -0.0674024362413531,
            0.17571393112789982,
            0.28334737092065426,
            0.2777777497286247,
            0.16190124161546365,
            -0.2965678959019297,
            0.051578246406383456,
            -0.03972036530807717,
            -0.043855664206926874,
            0.06968207875018088,
            0.21658447727534186,
            -0.20195892187267853,
            -0.006132298609342207,
            0.2626049589069967,
            0.3260091141345599,
            -0.349445990447846,
            0.29544354247760846,
            0.5065789038018321,
            0.24214291784249753,
            0.23266615640246432,
            0.34635704453324595,
            0.28232215194399063,
            0.23758338282687755,
            0.34810045360052133,
            0.46101038455118976,
            -0.12482221070671246
        ],
        "intercept": [
            -1.1629920980989814
        ]
    },
    {
        "weights": [
            0.3462613062896842,
            0.03819184823110581,
            0.3499398106248584,
            0.3155018545364884,
            -0.015816987586897348,
            0.2040564657096071,
            0.35841082763242593,
            0.3171724872307406,
            0.16118574291091692,
            -0.061965754923030435,
            0.2324600721471061,
            -0.13777156948609084,
            0.26970364738500285,
            0.2079514685075051,
            -0.07098578503515339,
            0.3206582255627815,
            0.27207291894004815,
            0.18014425055694205,
            0.08362702066093766,
            0.20724303034637828,
            0.3095368500075813,
            0.0014140808930783349,
            0.3588755834944534,
            0.2711345884862248,
            0.0654240451703285,
            0.3542655484175365,
            0.3626767770477636,
            0.2689358480636981,
            0.22600504260719012,
            0.24769606268117061
        ],
        "intercept": [
            -0.3415717073659117
        ]
    },
    {
        "weights": [
            0.32745896093268545,
            0.47592747695072085,
            0.3381398581310144,
            0.29806737670521977,
            -0.06761872222437763,
            0.11625484716881072,
            0.24420828211336795,
            0.19429132353010586,
            0.17159121249766393,
            -0.16904040027377626,
            -0.019642328655756186,
            -0.42049466389547285,
            0.06259896314073699,
            0.03791112114539338,
            -0.4135305656963119,
            -0.0815464092842409,
            0.014291953078802143,
            -0.07916144558582054,
            -0.22637327722362524,
            -0.26059011441152663,
            0.42036793551312346,
            0.46369872525519285,
            0.43782374553892406,
            0.3569651011475122,
            0.11012977650829703,
            0.44372298097716334,
            0.4917754304249138,
            0.5584042933661867,
            0.48513562632366386,
            0.18702402197462703
        ],
        "intercept": [
            -0.41511145391730836
        ]
    },
    {
        "weights": [
            0.38728677356578156,
            0.2413580817633765,
            0.3850557738484232,
            0.39670976784053147,
            0.3424129754450671,
            0.1256530335161975,
            0.42714638249462394,
            0.432463183832246,
            0.1569893901518384,
            -0.18353087944752816,
            0.25390453111097305,
            0.08879333068072484,
            0.26260339430373797,
            0.25628684227181203,
            -0.04331425073700901,
            -0.11307865021643113,
            0.13050415170021873,
            0.11428613731367018,
            -0.11565706216660479,
            -0.007318447275271925,
            0.40632004125659077,
            0.5543969983389754,
            0.4207928887096811,
            0.39287765693636434,
            0.4018242843643922,
            -0.002594797931619932,
            0.4763998972194255,
            0.40357789357340024,
            0.17253230135626035,
            0.011564160819668686
        ],
        "intercept": [
            -0.31329002234050535
        ]
    },
    {
        "weights": [
            0.35824225737688564,
            -0.13440411193769164,
            0.33635067057259344,
            0.3494020527598582,
            0.04055597345688284,
            -0.007374810537073018,
            0.12315125755895175,
            0.215950106133749,
            0.1312405178731083,
            0.28815923018728595,
            0.6456449683958327,
            0.2528160843183003,
            0.33910447575699226,
            0.3096797614325505,
            -0.766744300048425,
            -0.4610377842129438,
            -0.2825990125905362,
            0.10203488197623727,
            -0.7220962833155079,
            -0.10372700316768749,
            0.47210200094137955,
            0.13908683413549108,
            0.3868777408791778,
            0.3984409325670235,
            0.048052643762405714,
            0.11045503682518625,
            0.30833199382595894,
            0.3867691915830887,
            0.31096065137309514,
            0.4284556806353187
        ],
        "intercept": [
            -0.07683416016606041
        ]
    },
    {
        "weights": [
            0.2948030807318241,
            0.2756948531097843,
            0.29660279112787696,
            0.3149851931318138,
            0.12472820111131469,
            0.23745183640747441,
            0.3862676044586967,
            0.34769209759838743,
            0.30634477700911056,
            -0.008469739524216622,
            0.23789455386488303,
            -0.08766067438712982,
            0.1827430885003791,
            0.23028832105357708,
            -0.04979654384581486,
            -0.012133912797989636,
            0.08893176223957565,
            0.13826781225823884,
            0.02673403986562857,
            -0.09890450596415871,
            0.3395933109894322,
            0.18632789070966743,
            0.3228813707968686,
            0.3387033416579896,
            0.2123917981798149,
            0.17765948932168432,
            0.43004475520338803,
            0.33254191243478026,
            0.24345305484778035,
            0.095252660529572
        ],
        "intercept": [
            -1.5707119517095527
        ]
    },
    {
        "weights": [
            0.16690863037140136,
            0.0712471272469255,
            0.1810848423994298,
            0.16824781946694925,
            0.24219414188650573,
            0.2829673642889513,
            0.3122533933991324,
            0.39132572524837983,
            0.23038399902215717,
            0.10848761290496961,
            0.17630752906548341,
            -0.10819837682751718,
            0.19222704344431146,
            0.14622876113636155,
            0.0962497606226284,
            0.11469634103544811,
            0.06342899380127169,
            0.18931239763946,
            -0.1358411873448689,
            -0.049966037904937616,
            0.22778684147543882,
            0.06768987518398138,
            0.24583557663236938,
            0.2114213367615773,
            0.34919718499241925,
            0.38393595535231906,
            0.35375786578902174,
            0.44813374939512723,
            0.22389562663360887,
            0.24347560003142332
        ],
        "intercept": [
            -1.9406651288418666
        ]
    },
    {
        "weights": [
            0.23113235035712187,
            0.477943881048997,
            0.23208238049444663,
            0.22399209638918088,
            0.08315460411732395,
            0.10899656356294501,
            0.2401839624991231,
            0.31326772488436555,
            0.32429439448436226,
            -0.05134594239299845,
            0.6661084415746324,
            0.11814288752096018,
            0.5410968946376025,
            0.412377369302472,
            0.19242446769882895,
            -0.14462683899853687,
            -0.2222252557771304,
            0.11467209015501202,
            -0.24020459504530206,
            -0.05311697706079049,
            0.3260038699976352,
            0.26661457806912797,
            0.28233007658144516,
            0.2792223926644478,
            0.2900841197880752,
            0.13764507294002312,
            0.141020500605922,
            0.16702019312672062,
            0.29637680225356516,
            0.2039833114737618
        ],
        "intercept": [
            -0.8662022711095088
        ]
    },
    {
        "weights": [
            0.15441598127195375,
            0.5790507179997229,
            0.16447975352876143,
            0.11868372550431927,
            0.15312316209251844,
            -0.01708475490045693,
            0.43035532346549055,
            0.3238204669820477,
            -0.01634994514491082,
            0.017231123292329134,
            0.008088494242567476,
            -0.03288877675252854,
            -0.0025658567217361817,
            0.07397477996694658,
            -0.2072486430298909,
            -0.2152284316969992,
            0.11524122279893723,
            0.021793849589331966,
            -0.10583514422479678,
            -0.16483916480316904,
            0.2209788962261564,
            0.7815615730510309,
            0.21286315404278278,
            0.18482993709375783,
            0.3534273168462738,
            0.16929238556488993,
            0.5352117612085479,
            0.3868821842584482,
            0.37002535239858003,
            0.28969077475835187
        ],
        "intercept": [
            -0.5890696306252999
        ]
    },
    {
        "weights": [
            0.3004720091639738,
            0.5358520054521644,
            0.30049049564824665,
            0.2626158677602549,
            -0.09015825860707029,
            -0.02534746740709153,
            0.5333512169959518,
            0.45421982259010035,
            0.16281425602919036,
            -0.10620628077549452,
            0.1639615805300702,
            -0.34325110846180734,
            0.0875122112030717,
            0.19201054330418352,
            0.008252812164522087,
            -0.08789783424788807,
            0.43218069420554994,
            0.04209489861120446,
            -0.14517094658456345,
            -0.27180028892286556,
            0.39775897031673235,
            0.6523902180431252,
            0.3453976606928671,
            0.34463134212165,
            0.24349767056970112,
            0.016037483230674564,
            0.7194257981531874,
            0.39477017612915616,
            0.18469834478919966,
            -0.1763173987789335
        ],
        "intercept": [
            -0.3801097717120815
        ]
    },
    {
        "weights": [
            0.35885866688155604,
            0.20294456520344933,
            0.34867957744116784,
            0.35911815297185445,
            0.3042348507918999,
            0.1282217945528023,
            0.17157996973565243,
            0.32998180331438626,
            0.30471669378188365,
            -0.1838307373270874,
            0.27062322638930636,
            -0.10063965249919825,
            0.17347979940346298,
            0.2377464253804996,
            -0.29326747769677275,
            -0.21255308646923443,
            -0.12864540940055555,
            0.009933737837971305,
            -0.3793863843278989,
            -0.0464320296311386,
            0.4207878795896836,
            0.2847727572249925,
            0.3803915742520864,
            0.39082689125342845,
            0.2726867038852789,
            0.1621977074333419,
            0.17690903200952768,
            0.40480990397142763,
            0.2843402495058941,
            0.22576467501117325
        ],
        "intercept": [
            -1.1201121354241501
        ]
    },
    {
        "weights": [
            0.26932842920370187,
            0.40734525298027635,
            0.2725050243001964,
            0.24675699725765204,
            0.16982916133409218,
            0.1779180889035916,
            0.24391657155742907,
            0.28344362768772613,
            -0.07876763045464855,
            0.05006484389850894,
            0.1821519726162321,
            0.13916127382651966,
            0.1775488092003603,
            0.1612978105881331,
            0.020279914488161382,
            0.08248001056356787,
            0.10670348301364628,
            0.22342577603597477,
            -0.16572864441176818,
            0.07204107203429012,
            0.3536289201772092,
            0.5118535697363398,
            0.34288839764741746,
            0.3081272916523548,
            0.22140661212740187,
            0.19463427763933555,
            0.25983499569033125,
            0.4184357834537737,
            0.12629598829213518,
            0.23072876440801776
        ],
        "intercept": [
            -0.30182306408630066
        ]
    },
    {
        "weights": [
            0.17511334141381962,
            0.25119407095644203,
            0.18929701732447782,
            0.1584901863774117,
            0.08078052228237585,
            0.1465650771027222,
            0.2645086992837244,
            0.4113177692608918,
            -0.0865572572877272,
            -0.12247802533604286,
            0.029499688343737077,
            0.3137409930792051,
            0.050564553774103016,
            0.08119637284963073,
            0.03102573497311759,
            0.0003689954779922376,
            -0.0677121254820405,
            -0.047910314546980345,
            -0.3995256959472703,
            -0.11108191801393949,
            0.28856697925983205,
            0.6322937586625539,
            0.28484026958447584,
            0.2245472504515488,
            0.4690164209549299,
            0.42784566155000403,
            0.2998619134720802,
            0.5349768947420813,
            0.37280440619714195,
            0.3224222823168484
        ],
        "intercept": [
            -1.5352514943038795
        ]
    },
    {
        "weights": [
            0.5300738929090993,
            0.31218986198992893,
            0.5155485678010283,
            0.4919892079085431,
            0.06548396593636409,
            0.03015452724834424,
            0.3225064336133669,
            0.33533401184290906,
            0.1361459213788302,
            -0.2977125281123359,
            0.18140121829177758,
            0.2953170944003899,
            0.2186442200123297,
            0.19807070742538502,
            -0.10286125922237527,
            -0.009291145319649474,
            0.05394747876112274,
            0.0003542741211250986,
            0.036897747686323985,
            0.07591852963385375,
            0.4451957714761575,
            0.5087380900918577,
            0.4404827605484794,
            0.3899433466979166,
            -0.027766716540743572,
            0.0035206438182184764,
            0.15631073177719634,
            0.19758309661290682,
            0.12392994893481343,
            0.0473712578264217
        ],
        "intercept": [
            -0.5610071470058947
        ]
    },
    {
        "weights": [
            0.2889004512655049,
            -0.22488142872017564,
            0.281820595845454,
            0.2676961732793301,
            0.45375826958424703,
            0.3043216213418869,
            0.14506831599881498,
            0.4524168412547799,
            0.16458173245801158,
            0.0029744204375581804,
            0.21099269004774854,
            -0.017408405420105577,
            0.1189783009581633,
            0.1975292665308571,
            0.04899692912617266,
            -0.11070993471467305,
            -0.14250860577801155,
            0.19348786510150365,
            -0.12733060869160723,
            -0.3288939750657492,
            0.3224554429757801,
            0.06747967764398949,
            0.2927456279043411,
            0.28999850229749563,
            0.6063260442491614,
            0.3627995681933332,
            0.2989077932620603,
            0.6082011361914935,
            0.36919525322029834,
            0.1497714458963803
        ],
        "intercept": [
            -1.2008081879373131
        ]
    },
    {
        "weights": [
            0.372854235879307,
            0.4958798441977901,
            0.3586572924043257,
            0.3076812657003009,
            0.2603248170790384,
            0.11002345934906693,
            0.21625695184055393,
            0.4566074948872681,
            -0.014822962098411952,
            -0.27935811931836896,
            0.16049458062828365,
            -0.1768519637890939,
            0.05062649159196699,
            0.14186647500467142,
            0.18664441834859863,
            -0.2955378997779672,
            -0.13286931338525518,
            0.22422209971056628,
            0.1450527558377095,
            -0.11892545339332235,
            0.40710483132034114,
            0.5144018226643747,
            0.36751104542708163,
            0.31760454933003784,
            0.6360191696751177,
            0.15337612352037777,
            0.1824477779253214,
            0.5237661812671972,
            0.43415879709958427,
            0.05520858023371261
        ],
        "intercept": [
            0.12883759033128434
        ]
    }
]