{"fc1.weight": [[0.0035442931111902, -0.03287966176867485, 0.034698668867349625, -0.004611267242580652, -0.01465577445924282, 0.028618739917874336, -0.03417882323265076, -0.014437811449170113, 0.016750166192650795, 0.03594815731048584, -0.029570821672677994, 0.010197574272751808, 0.027922138571739197, 0.0032044195104390383, 0.0016425384674221277, 0.009834947995841503, -0.007037631701678038, -0.008029391057789326, -0.03131074458360672, -0.03441561013460159, 0.007275748066604137, 0.026422075927257538, 0.011235143058001995, 0.009443512186408043, -0.015393306501209736, 0.009079637937247753, 0.024917028844356537, -0.006453582085669041, -0.02696944586932659, -0.006821818184107542, -0.024179764091968536, -0.025656715035438538, 0.009506960399448872, 0.00900243129581213, -0.02374161034822464, -0.033127766102552414, 0.009551580995321274, -0.012946431525051594, 0.03363974764943123, 0.0005030320608057082, 0.0346270427107811, 0.015529682859778404, 0.017072409391403198, -0.012375705875456333, 0.014218381606042385, 0.01235479861497879, 0.018804559484124184, -0.009291629306972027, -0.018860917538404465, -0.020112860947847366, 0.03549256548285484, -0.024708682671189308, 0.006640804000198841, 0.022021889686584473, -0.0035781848710030317, -0.021901696920394897, 0.020334569737315178, 0.021002015098929405, -0.030352206900715828, 0.017090991139411926, 0.030337056145071983, 0.02434207871556282, 0.031215891242027283, 0.010692321695387363, 0.03259006515145302, 0.022951584309339523, 0.03154713660478592, 0.025944538414478302, -0.0075600361451506615, -0.025231635197997093, -0.014731712639331818, 0.019768770784139633, -0.0013113061431795359, -0.010865150950849056, 0.0342058502137661, 0.01751977950334549, -0.008071375079452991, -0.02487628161907196, 0.026855193078517914, 0.02785552851855755, 0.0007818401209078729, -0.014561209827661514, -0.03418557718396187, 0.005264717619866133, -0.029588907957077026, 0.019435526803135872, 0.03530237078666687, -0.02756102755665779, -0.008895211853086948, 0.028587516397237778, -0.020074155181646347, -0.03495287895202637, 0.002993488684296608, -0.004102627746760845, -0.009696000255644321, -0.030181219801306725, -0.0033759165089577436, 0.02448042295873165, 0.00976492278277874, -0.03194883465766907, 0.03283443674445152, -0.011396803893148899, -0.03189430385828018, -0.012733511626720428, -0.018721699714660645, 0.011459937319159508, -0.014128989540040493, 0.025814730674028397, -0.012285253033041954, -0.021432172507047653, -0.0012785008875653148, -0.03226441517472267, 0.03555978834629059, -0.0020139163825660944, 0.014041395857930183, -0.006976480130106211, 0.01649090275168419, 0.026767577975988388, -0.010713548399508, 0.035361528396606445, -0.028804292902350426, -0.032748740166425705, -0.003690180368721485, 0.02554176189005375, -0.020626336336135864, 0.014161493629217148, 0.0011863395338878036, -0.017217673361301422, -0.030540212988853455, -0.02262222394347191, 0.015517632476985455, -0.01568516530096531, -0.0038120998069643974, -0.030543629080057144, -0.03141656890511513, 0.02143765054643154, -0.012853197753429413, -0.00724540650844574, 0.031038369983434677, 0.003827354172244668, 0.00832134485244751, 0.012765681371092796, -0.010529338382184505, -0.008879798464477062, -0.012377985753118992, -0.004688219632953405, -0.007357284426689148, 0.03406119346618652, -0.01906927302479744, 0.023094136267900467, 0.014740051701664925, 0.010734829120337963, 0.022254593670368195, -0.027754198759794235, 0.004169154912233353, 0.01792319305241108, -0.01568523794412613, 0.005989775527268648, 0.034478336572647095, -0.029163967818021774, 0.00650814501568675, 0.020786136388778687, 0.02134968712925911, 0.0110542057082057, 0.020564276725053787, -0.01102717500180006, -0.01649615354835987, -0.006586553528904915, -0.011881248094141483, -0.0019099880009889603, -0.005700903944671154, 0.02481292374432087, -0.02060270681977272, -0.025806521996855736, -0.026925554499030113, -0.008173134177923203, 0.024993043392896652, -0.011638115160167217, 0.02664005383849144, -0.008957494050264359, 0.03197339549660683, 0.015162964351475239, -0.008963926695287228, -0.03477150574326515, 0.014428313821554184, -0.02979065664112568, 0.029843194410204887, -0.0048536513932049274, -0.004485313314944506, 0.012837648391723633, -0.022453518584370613, -0.02042357251048088, -0.02279181219637394, 0.020213890820741653, 0.005895210430026054, 0.0018679092172533274, 0.0093894237652421, 0.016727056354284286, -0.03316843509674072, -0.01143605075776577, 0.03614620491862297, 0.016117576509714127, -0.03206690400838852, -0.030965913087129593, -0.019174868240952492, -0.026058929041028023, 0.03266475722193718, 0.005532494280487299, -0.0356038473546505, 0.01126102264970541, 0.0036072595976293087, 0.023549819365143776, -0.010478188283741474, -0.011535887606441975, 0.010976276360452175, 0.025748228654265404, -0.028772180899977684, 0.029008137062191963, 0.02219829522073269, -0.032463438808918, 0.026930512860417366, -0.015991097316145897, 0.008055627346038818, -0.0033826574217528105, 0.019338509067893028, -0.029649551957845688, -0.030417341738939285, 0.03456694260239601, 0.0136205879971385, 0.008599145337939262, 0.004072687588632107, -0.0018369756871834397, 0.032573968172073364, -0.008683868683874607, -0.019833937287330627, -0.019862568005919456, 0.014648105017840862, 0.0002593382087070495, 0.012060796841979027, 0.029693489894270897, -0.030773498117923737, -0.010722828097641468, -0.023138046264648438, 0.022121263667941093, 0.01405375450849533, 0.032753173261880875, -0.015096073970198631, 0.011369319632649422, 0.011674095876514912, -0.0034351928625255823, 0.0021707238629460335, 0.025118224322795868, -0.017474619671702385, 0.018958978354930878, -0.03177810087800026, -0.025816863402724266, 0.00908456277102232, -0.03474978730082512, 0.024076882749795914, 0.01962313987314701, 0.029392579570412636, 0.02087363414466381, -0.02733345702290535, 0.009643571451306343, -0.034094229340553284, 0.030910665169358253, 0.006054309196770191, 0.019178979098796844, 0.023164618760347366, 0.017364395782351494, 0.017124924808740616, -0.03252246975898743, -0.003627255791798234, -0.024290498346090317, -0.02047618292272091, -0.019237728789448738, 0.014967149123549461, -0.002687677973881364, 0.03601765260100365, 0.016170918941497803, -0.003691376419737935, -0.024517374113202095, 0.011229576542973518, -0.03262465447187424, 0.01285975519567728, 0.025667496025562286, 0.02085805870592594, -0.025117171928286552, 0.028912682086229324, -0.03200212121009827, 0.031788118183612823, 0.018565570935606956, 0.01533068623393774, -0.014959524385631084, 0.004207229241728783, -0.030841682106256485, -0.009402185678482056, -0.02255254238843918, 0.02453703247010708, 0.025086242705583572, 0.020930426195263863, 0.021573364734649658, 0.007121578324586153, -0.03332424908876419, -0.015711002051830292, 0.022440455853939056, -0.014001885429024696, -0.0010339468717575073, -0.007268690038472414, 0.03512350842356682, -0.011958261020481586, 0.035271793603897095, 0.01525156944990158, -0.008993231691420078, 0.011142191477119923, -0.009474154561758041, -0.01812773570418358, 0.019137607887387276, -0.03339138254523277, -0.01482058223336935, -0.03507588803768158, 0.028298337012529373, 0.009892902337014675, 0.017986061051487923, -0.01378677785396576, -0.031050315126776695, -0.005258172284811735, -0.019637150689959526, -0.028311846777796745, -0.025267837569117546, -0.028055822476744652, -0.030850134789943695, 0.029892411082983017, 0.028977205976843834, 0.022300871089100838, 0.02769428677856922, 0.029215071350336075, 0.023536648601293564, 0.01280543114989996, -0.02470279298722744, -0.0095771923661232, -0.009084407240152359, 0.030703287571668625, 0.029058711603283882, 0.02952716499567032, -0.03432464599609375, 0.005086441989988089, 0.004498162306845188, 0.005034198984503746, 0.01569908671081066, -0.025796547532081604, -0.006912760436534882, -0.005880208220332861, -0.0021111061796545982, -0.03457752987742424, -0.001295584486797452, -0.017411455512046814, -0.027090005576610565, -0.020197099074721336, -0.0006996029405854642, -0.012394278310239315, 0.0050763413310050964, -0.017384231090545654, -0.008216720074415207, 0.024475159123539925, -0.006267807446420193, 0.0054411436431109905, -0.010931854136288166, -0.004872525110840797, 0.025947436690330505, 0.025553176179528236, 0.014786354266107082, -0.005057090427726507, -0.034711334854364395, -0.00850314274430275, 0.034506965428590775, 0.018259750679135323, -0.03431084752082825, 0.020967699587345123, -0.01730365678668022, 0.03136357665061951, -0.0023267837241292, 0.005198132712393999, 0.023016896098852158, -0.018197059631347656, -0.0338570661842823, -0.015081273391842842, 0.0013055173913016915, 0.012982683256268501, 0.00270785391330719, -0.024326542392373085, -0.0026033336762338877, -0.009118437767028809, 0.02546589821577072, -0.02313440851867199, -0.024609636515378952, 0.007825296372175217, -0.03283851221203804, -0.024561291560530663, -0.02633262425661087, -0.01490112580358982, -0.025596776977181435, 0.031070899218320847, -0.032828789204359055, 0.03526567295193672, -0.004745395854115486, -0.030779723078012466, -0.024453552439808846, 0.0031138239428400993, -0.005410775542259216, -0.027508068829774857, 0.004766837228089571, -0.0063733975403010845, 0.03230949863791466, 0.008102557621896267, -0.0014048165176063776, 0.02254600077867508, 0.0007301276200450957, 0.028843214735388756, -0.029509039595723152, 0.02743883617222309, 0.010661284439265728, 0.0010132142342627048, -0.006378757301717997, 0.02357254922389984, 0.03525339812040329, -0.022658634930849075, 0.02202158421278, -0.020470621064305305, 0.012849227525293827, 0.01814924366772175, -0.013526014052331448, -0.03563498705625534, -0.0030828744638711214, 0.0035025791730731726, 0.0021710852161049843, 0.02452620305120945, 0.014816380105912685, 0.017015036195516586, 0.005152797792106867, 6.779707473469898e-05, -0.027734821662306786, 0.007371879648417234, -0.0024738784413784742, 0.01094101369380951, -0.019352957606315613, -0.022313477471470833, 0.0008462444529868662, 0.016175372526049614, -0.005880223121494055, -0.019785096868872643, -0.005863355938345194, -0.010852489620447159, -0.017060978338122368, -0.007471706252545118, -0.03247009217739105, -0.00910945888608694, 0.03225165605545044, 0.01914484053850174, -0.027181239798665047, 0.02476794272661209, 0.0016239852411672473, 0.026147345080971718, -0.022412577643990517, -0.0071955774910748005, 0.024790829047560692, 0.004551192745566368, -0.0165439210832119, -0.03394445776939392, 0.02907598577439785, -0.001552976667881012, -0.02208096534013748, 0.032134123146533966, 0.006116708740592003, 0.0296455230563879, 0.027257300913333893, 0.01767660491168499, -0.01021705660969019, -0.014558656141161919, -0.0019288517069071531, -0.03325976803898811, 0.02657628245651722, -0.0283527635037899, -0.015938475728034973, 0.01049564965069294, -0.01070595532655716, 0.006345616187900305, -0.03521626815199852, 0.02152376063168049, 0.002225311938673258, 0.025602469220757484, 0.02216092124581337, -0.02457316406071186, -0.027534976601600647, 0.008019248954951763, -0.03486040234565735, 0.023041144013404846, -0.005504564847797155, -0.017848659306764603, 0.019999032840132713, -0.02089807204902172, 0.017740175127983093, 0.015173369087278843, -0.0317811518907547, 0.021016839891672134, -0.0015439148992300034, 0.01448791939765215, 0.010519279167056084, -0.001061154529452324, -0.004560010973364115, -0.01666443422436714, 0.034596338868141174, 0.008987761102616787, 0.024625251069664955, -0.018425900489091873, -0.030174560844898224, -0.014951148070394993, 0.01358702965080738, 0.020968448370695114, -0.03037485107779503, -0.009732718579471111, 0.005511971656233072, 0.015505844727158546, -0.0075796679593622684, -0.01932860165834427, -0.022174891084432602, 0.01404992863535881, 0.03036336414515972, -0.012523200362920761, 0.005308639258146286, -0.027401361614465714, 0.021968375891447067, -0.031940918415784836, -0.010920330882072449, -0.03276725858449936, 0.013245545327663422, 0.00879400223493576, 0.0009886252228170633, 0.013130388222634792, -0.028874224051833153, -0.016554908826947212, -0.02327650785446167, 0.005291502457112074, -0.03520502895116806, 0.03294316306710243, 0.014557779766619205, -0.0053839366883039474, -0.009492053650319576, 0.030847718939185143, -0.030721737071871758, -0.030616121366620064, 0.022607339546084404, -0.015497906133532524, 0.027282986789941788, 0.0121484799310565, -0.027929894626140594, 0.030995046719908714, 0.01213535200804472, 0.028423186391592026, 0.020099909976124763, 0.014716986566781998, 0.012022464536130428, 0.025206683203577995, -0.02816782146692276, -0.02830387093126774, 0.02398373745381832, -0.00495326379314065, 0.028439633548259735, 0.021945558488368988, 0.03075750730931759, 0.010707181878387928, 0.014046311378479004, 0.0028307235334068537, -0.010471481829881668, 0.006444959435611963, 0.028733285143971443, -0.005195619538426399, -0.011514081619679928, -0.035320281982421875, 0.0341535285115242, 0.026636241003870964, -0.01461620070040226, -0.013707203790545464, -0.027389900758862495, 0.03470277041196823, 0.021423732861876488, -0.005346797872334719, -0.010243318043649197, 0.020687634125351906, 0.03303921967744827, 0.026325279846787453, 0.0040057688020169735, -0.0008827454876154661, 0.021616240963339806, 0.034558702260255814, -0.018948303535580635, -0.012764635495841503, -0.0030801258981227875, 0.0006881485460326076, 0.014635729603469372, -0.01658085733652115, -0.008234892040491104, 0.020179886370897293, 0.00690044742077589, -0.006975781172513962, -0.03306974098086357, 0.005540758837014437, -0.012560257688164711, -0.005219159182161093, 0.010638750158250332, -0.01604614220559597, -0.013000325299799442, 0.03444679081439972, -0.02475971356034279, 0.014513015747070312, 0.006961310748010874, -0.010112750343978405, 0.018473871052265167, 0.03521738946437836, 0.003516050288453698, -0.01584838330745697, 0.018905386328697205, -0.010859872214496136, 0.03096684254705906, -0.02226370945572853, -0.010687519796192646, -0.009833192452788353, -0.026205388829112053, 0.01902090571820736, 0.0027820058166980743, 0.009047692641615868, 0.01247229240834713, -0.028521154075860977, -0.016757216304540634, -0.004631389398127794, 0.003368087811395526, -0.0031287060119211674, -0.007642416283488274, 0.02069045975804329, -0.0036522631999105215, -0.018945865333080292, 0.032862141728401184, 0.003174383891746402, -0.016522133722901344, 0.0037153412122279406, -0.012134403921663761, 0.0035260377917438745, -0.02753531187772751, -0.02606859989464283, 0.0157718975096941, -0.032300323247909546, -0.0021603733766824007, 0.015997344627976418, -0.019420551136136055, -0.00015673882444389164, 0.011959027498960495, -0.0031471154652535915, 0.02862754836678505, 0.021723642945289612, 0.016410041600465775, 0.031912751495838165, -0.023014940321445465, 0.011056932620704174, -0.029173554852604866, 0.00385037693195045, -0.02585713192820549, -0.01924794726073742, 0.007202782202512026, 0.013509253971278667, 0.027470456436276436, -0.0002625706256367266, 0.030291898176074028, 0.021073881536722183, -0.005843347404152155, 0.00687294639647007, 0.002999542048200965, 0.006725619081407785, -0.01945502869784832, -0.0036926933098584414, -0.015929071232676506, 0.013445214368402958, 0.03128984943032265, 0.0076553188264369965, -0.0017118979012593627, 0.018605252727866173, -0.01791701838374138, -0.019191354513168335, 0.03060184046626091, 0.0016483699437230825, 0.019603867083787918, -0.03215408697724342, 0.009151363745331764, -0.03215669095516205, -0.03462756425142288, -0.015746740624308586, 0.010628766380250454, -0.021269533783197403, -0.030159208923578262, -0.015616849064826965, -0.029002578929066658, -0.0276815053075552, -0.003667703364044428, -0.03165005147457123, 0.004418686497956514, -0.03451723977923393, -0.025707338005304337, -0.0122212003916502, 0.03331722319126129, -0.016188913956284523, 0.00501667708158493, -0.025199510157108307, 0.032552462071180344, -0.03640887513756752, -0.001979056978598237, -0.023284541442990303, -0.003039646428078413, -0.021408749744296074, -0.008942375890910625, 0.026361657306551933, 0.0314360074698925, 0.033083610236644745, -0.030932504683732986, -0.018918976187705994, -0.012223294004797935, 0.021549822762608528, -0.01792242005467415, -0.02939039282500744, -0.006748112849891186, 0.02452108822762966, -0.027701446786522865, -0.033944349735975266, -0.021724505349993706, 0.011953613720834255, -0.006196836940944195, -0.01106038223952055, 0.01461728010326624, 0.03436574339866638, 0.019275931641459465, 0.025733446702361107, 0.028841547667980194, -0.006931255105882883, -0.004857087507843971, 0.01589362323284149, 0.025471730157732964, -0.010380028747022152, 0.032284870743751526, 0.004299261141568422, 0.013807576149702072, -0.008904901333153248, -0.03392232954502106, 0.003384075127542019, -0.023853503167629242, -0.006712453439831734, -0.02887672185897827, 0.03594508022069931, -0.01632474921643734, 0.015376228839159012, 0.011024662293493748, 0.02729659155011177, -0.03416350856423378, -0.0041615525260567665, 0.024975892156362534, 0.022620338946580887, 0.021670877933502197, -0.014622709713876247, 0.0009633883601054549, -0.02498498372733593, -0.012249760329723358, 0.031110230833292007, -0.0017485240241512656, 0.0004248023615218699, -0.011209791526198387, -0.016637561842799187, 0.034177251160144806, -0.002819160697981715, 0.018483851104974747, -0.019013430923223495, 0.036141637712717056, -0.018336929380893707, 0.029364237561821938, -0.00968160666525364, 0.024694155901670456, 0.013359416276216507, -0.005695897154510021], [-0.022054992616176605, -0.024683959782123566, 0.015932852402329445, 0.03192971646785736, 0.03022284433245659, -0.0088805528357625, -0.0230626929551363, -0.021157564595341682, -0.015350479632616043, 0.004523186013102531, -0.03401484340429306, 0.0118842339143157, -0.02578715980052948, -0.035132259130477905, 0.013731204904615879, 0.02588825300335884, -0.01893964223563671, -0.012365542352199554, -0.0032725052442401648, 0.01564883254468441, 0.029372990131378174, -0.01292679738253355, -0.02672574482858181, -0.03639175370335579, 0.006620089523494244, 0.017353421077132225, -0.027711093425750732, -0.035306550562381744, -0.021874265745282173, 0.027969248592853546, 0.019984198734164238, -0.019175155088305473, 0.027699323371052742, -0.03444884344935417, 0.015116951428353786, -0.028829731047153473, 0.006003770045936108, 0.031712956726551056, -0.0275452621281147, -0.033816080540418625, 0.029596447944641113, -0.008949069306254387, -0.02112765796482563, 0.011636595241725445, -0.0029968619346618652, -0.011781113222241402, -0.014931353740394115, 0.022913040593266487, 0.002634685253724456, 0.033893339335918427, -0.027341116219758987, -0.008802352473139763, -0.024936797097325325, 0.014676474966108799, 0.009360111318528652, 0.02802945114672184, 0.009737652726471424, 0.014877408742904663, 0.02066849172115326, -0.03252287954092026, -0.03197227790951729, 0.008816001936793327, -0.03200254961848259, 0.033499423414468765, 0.02254110760986805, 0.027005989104509354, 0.019772682338953018, -0.00830354355275631, 0.021013380959630013, -0.02655204012989998, 0.014486489817500114, -0.009548068977892399, -0.01975340023636818, -0.010487457737326622, 0.025835882872343063, 0.016782866790890694, -0.03033864125609398, -0.030455082654953003, 0.013125726953148842, -0.011380000971257687, -0.025559214875102043, 0.0003316663787700236, 0.024322401732206345, -0.007620695047080517, -0.007892959751188755, 0.02383066713809967, -0.017887316644191742, -0.002364529762417078, 0.0220539178699255, 0.024765297770500183, 0.031459398567676544, -0.008136337623000145, 0.025958146899938583, 0.008885495364665985, 0.029147837311029434, -0.030764931812882423, -0.002211339771747589, 0.03259973227977753, 0.02787330374121666, -0.012775328941643238, 0.003528900910168886, 0.0035202743019908667, -0.004882702138274908, -0.027317427098751068, 0.004840427078306675, -0.0005413317121565342, -0.010574230924248695, 0.012972717173397541, -0.030973466113209724, 0.03194860368967056, 0.007273466791957617, -0.03191713988780975, -0.024266041815280914, -0.012959017418324947, -0.0320630706846714, -0.027370553463697433, -0.03575223311781883, 0.004359537269920111, -0.033932797610759735, 0.012808307074010372, 0.02811156027019024, 0.006039092782884836, -0.015542778186500072, -0.02643110230565071, 0.0021516242995858192, 0.014956275001168251, 0.026180190965533257, -0.009442957118153572, -0.028080424293875694, 0.013710577972233295, -0.02476382814347744, -0.030681747943162918, -0.0034713607747107744, 0.03152494877576828, -0.01626923494040966, 0.0166860930621624, 0.03358422592282295, -0.01896589808166027, 0.02297256328165531, 0.028234431520104408, -0.015621032565832138, 0.01845698617398739, 0.021552840247750282, 0.024025222286581993, -0.0028882883489131927, -0.02950046770274639, 0.029075713828206062, -0.0073985569179058075, 0.020466847345232964, -0.02236293815076351, 0.009862564504146576, -0.024233484640717506, 0.009174302220344543, 0.00892444234341383, 0.028301335871219635, -0.03660900890827179, 0.023099927231669426, -0.02239641547203064, -0.011755137704312801, 0.015203522518277168, -0.01985711045563221, -0.012609264813363552, 0.012945311143994331, 0.0043834056705236435, -0.005258650053292513, 0.025580955669283867, 0.016572287306189537, 0.007279213983565569, 0.012396802194416523, -0.0035860261414200068, -0.025221815332770348, 0.018872657790780067, -0.011071204207837582, -0.020916344597935677, 0.016214905306696892, 0.01139811147004366, 0.014149846509099007, -0.026470137760043144, 0.015035117045044899, 0.02047635428607464, -0.028894755989313126, -0.014449137263000011, 0.014325362630188465, -0.0005134888924658298, 0.019089387729763985, 0.017466045916080475, -0.028621051460504532, -0.006015465594828129, 0.032098188996315, 0.02902587503194809, 0.015036248601973057, 0.018508456647396088, 0.001260395278222859, -0.021033380180597305, 0.01192780863493681, -0.028524333611130714, -0.012504078447818756, -0.007268168032169342, -0.0038159394171088934, 0.03426932543516159, -0.028240999206900597, -0.03506318852305412, -0.021792272105813026, 0.02280556969344616, 0.016795502975583076, 0.026808183640241623, -0.023491809144616127, -0.030710499733686447, 0.02066824585199356, 0.012992696836590767, 0.03340766206383705, -0.004595755599439144, -0.0306047722697258, -0.010785898193717003, 0.0044824606738984585, 0.015097818337380886, 0.033978093415498734, 0.0025385073386132717, -0.0036531942896544933, -0.0014409023569896817, -0.00806297268718481, -0.017175056040287018, -0.022145675495266914, -0.03623573109507561, 0.005666238255798817, -0.03210930898785591, -0.026661185547709465, 0.02485218457877636, -0.0014310104306787252, 0.02334757335484028, 0.0028575134929269552, -0.0062994565814733505, -0.008547460660338402, 0.03934148699045181, -0.016097918152809143, -0.008564062416553497, 0.0349438302218914, 0.008935628458857536, 0.02728590928018093, 0.015363285318017006, 0.007595176808536053, 0.00012294380576349795, -0.017652906477451324, -0.0020097161177545786, -0.0229796115309, 0.02391894720494747, -0.02341165952384472, -0.0030561331659555435, 0.024872690439224243, 0.024339832365512848, -0.003172331489622593, -0.008581127971410751, 0.012334526516497135, 0.03333062306046486, 0.02228519506752491, 0.01897362247109413, 0.030068187043070793, -0.03213716670870781, -0.010582293383777142, 0.017042823135852814, -0.019369620829820633, 0.04104075953364372, -0.018754800781607628, 0.04259708896279335, 0.0012196000898256898, 0.03728784993290901, -0.010935303755104542, 0.04187757521867752, 0.0348748117685318, 0.012391326017677784, 0.021192600950598717, -0.008077171631157398, 0.02316710725426674, 0.025119103491306305, 0.02606111578643322, 0.017273753881454468, 0.03297281265258789, 0.012501616962254047, 0.02165023796260357, 0.01797439530491829, 0.0004279232816770673, -0.0244528166949749, -0.01880076341331005, 0.027536410838365555, 0.0064092474058270454, -0.010070056654512882, -0.00013332566595636308, 0.027997208759188652, 0.03484272584319115, 0.02223178558051586, 0.040442489087581635, 0.023607755079865456, -0.005662880372256041, 0.0337747298181057, 0.023229731246829033, 0.0010350876254960895, -0.00521246949210763, 0.0026555804070085287, 0.03290851414203644, 0.03122880309820175, -0.008466377854347229, 0.0033862534910440445, -0.002411868656054139, -0.03261293098330498, -0.03493189066648483, 0.018844423815608025, -0.028705403208732605, -0.022938702255487442, 0.033002082258462906, 0.033922288566827774, -0.02716297283768654, 0.02262299694120884, 0.019864186644554138, -0.005391194485127926, 0.017778446897864342, 0.032179467380046844, -0.02262437716126442, -0.0159305352717638, 0.0029196522664278746, 0.02392221987247467, 0.011885511688888073, 0.02285061404109001, 0.00824019592255354, 0.027509361505508423, 0.029417704790830612, -0.0011416184715926647, 0.041737765073776245, 0.018025435507297516, 0.02061406709253788, 0.0067583415657281876, -0.012135368771851063, -0.014710009098052979, -0.008287697099149227, -0.016891960054636, -0.01847113110125065, -0.009731192141771317, -0.02200382947921753, 0.013694957830011845, 0.030739502981305122, -0.006275895517319441, 0.019433164969086647, 0.027578063309192657, 0.0017775156302377582, -0.008088848553597927, -0.009271764196455479, -0.009336072020232677, -0.02364009991288185, 0.01996692083775997, -0.02622384764254093, 0.021964557468891144, 0.0029201917350292206, 0.023933595046401024, 0.03564433753490448, -0.0014312582788988948, 0.026152875274419785, -0.0076608010567724705, 0.03100322000682354, 0.01303817518055439, 0.01869112253189087, -0.01798868551850319, -0.014743947423994541, -0.03070317581295967, -0.022724924609065056, -0.005287378095090389, 0.0011522354325279593, -0.0076093836687505245, 0.019762756302952766, 0.021824965253472328, -0.01516798697412014, -0.01171649806201458, 0.024936633184552193, -0.025104044005274773, 0.01894228905439377, 0.0027508847415447235, 0.0004799544985871762, 0.01662607677280903, 0.02017718181014061, 0.02863810583949089, -0.002783421194180846, -0.005106538999825716, -0.0036290762946009636, 0.0012170355767011642, 0.037222061306238174, -0.008446445688605309, -0.00948241725564003, -0.021373098716139793, -0.03514739125967026, -0.005617874208837748, -0.027863461524248123, -0.02856002002954483, 0.018232662230730057, -0.0012310825986787677, 0.031887467950582504, 0.013189793564379215, -0.005696739535778761, 0.008323445916175842, -0.01542648021131754, 0.009083487093448639, -0.01495981402695179, -0.015895958989858627, 0.035395000129938126, -0.017608486115932465, 0.019876854494214058, -0.029482068493962288, 0.013490350916981697, -0.0068002729676663876, 0.015533531084656715, -0.020116712898015976, -0.01461432222276926, 0.017877480015158653, -0.009922143071889877, 0.0010320545407012105, 0.01979057677090168, -0.018378958106040955, 0.028336534276604652, 0.023067286238074303, -0.03342285007238388, -0.01715824380517006, 0.010396799072623253, -0.009453478269279003, 0.012901660054922104, 0.017283333465456963, 0.0110150296241045, -0.025030210614204407, 0.014458239078521729, 0.03456413373351097, -0.007850504480302334, 0.027402205392718315, 0.005021598190069199, -0.017234567552804947, 0.00039677051245234907, 0.02898239716887474, 0.027588751167058945, -0.00159492960665375, 0.028268970549106598, 0.02779897302389145, 0.01099840085953474, 0.04005100205540657, 0.006809641141444445, 0.00575597258284688, -0.01839641109108925, -0.023260021582245827, 0.031101778149604797, -0.03300708904862404, 0.0019813254475593567, -0.014977449551224709, -0.030839964747428894, -0.031168563291430473, -0.001521823345683515, -0.006704155821353197, 0.004822663962841034, -0.026450064033269882, 0.03264334425330162, -0.035750728100538254, 0.00544372946023941, 0.0018939770525321364, 0.005664708558470011, -0.007800692226737738, -0.0020119270775467157, -0.01137667614966631, -0.031210988759994507, -0.019993217661976814, -0.01103715505450964, -0.01261658314615488, 0.019828742370009422, 0.03180558606982231, -0.0061319186352193356, 0.032494720071554184, 0.019144829362630844, 0.007667000405490398, 0.007570286747068167, 0.023424828425049782, -0.036526117473840714, 0.020876891911029816, -0.026845624670386314, -0.01692727394402027, -0.01211363822221756, -0.021616889163851738, 0.02845151722431183, 0.02040688879787922, 0.015037471428513527, 0.02254262939095497, -0.005583224352449179, -0.006052698008716106, -0.02065383642911911, 0.0018395354272797704, -0.02439405582845211, 0.005486954003572464, 0.0029636186081916094, -0.0287779588252306, 0.003311388660222292, 0.0011648982763290405, 0.0410427451133728, 0.02644752711057663, -0.00742526538670063, 0.01772019825875759, -0.020434880629181862, -0.020794149488210678, -0.005328665487468243, 0.026091132313013077, 0.02212238870561123, -0.023698510602116585, 0.0056504905223846436, 0.015869753435254097, -0.020243506878614426, 0.03273189812898636, -0.008269133977591991, -0.02590795047581196, 0.014368020929396152, 0.0071202609688043594, -0.014380795881152153, -0.024179352447390556, 0.018129456788301468, -0.014874721877276897, -0.033978063613176346, 0.010834624990820885, -0.01820499636232853, -0.0015002060681581497, 0.002883392386138439, -0.02147853747010231, -0.022054290398955345, 0.0028799406718462706, 0.007265173364430666, 0.007766989059746265, 0.004154853522777557, 0.01411848422139883, -0.01245606318116188, 0.014167162589728832, -0.014291065745055676, -0.01626482978463173, 0.020573312416672707, 0.004336884710937738, -0.026859695091843605, 0.03381457179784775, 0.012804752215743065, 0.02768854610621929, -0.032667528837919235, 0.025900302454829216, 0.013155327178537846, -0.012575077824294567, -0.03494686633348465, -0.0017272208351641893, 0.003905343357473612, -0.002741587348282337, -0.0002600100124254823, 0.03532695397734642, 0.030493246391415596, -0.01583409123122692, 0.013396733440458775, -0.012808348052203655, -0.022671518847346306, 0.03348373621702194, 0.007310640998184681, -0.01565510779619217, -0.008279930800199509, 0.028549395501613617, -0.0367555133998394, -0.031483326107263565, 0.009865698404610157, 0.0013723395531997085, 0.003677308326587081, -0.03392474353313446, -0.005796290468424559, 0.0076191620901227, -0.03037268854677677, 0.002383876359090209, -0.02099275030195713, -0.010717556811869144, -0.03447876498103142, 0.03152068331837654, 0.022589651867747307, -0.0025174415204674006, -0.018442852422595024, 0.03442957252264023, -0.025644099339842796, 0.014558793045580387, -0.010870377533137798, 0.008707578293979168, -0.007253936026245356, -0.01790796034038067, 0.0072523001581430435, -0.008465857245028019, -0.028895573690533638, -0.030308565124869347, 0.015310545451939106, -0.02966582216322422, -0.008298773318529129, -0.0018641194328665733, -0.01628895290195942, -0.001239520381204784, 0.01374971866607666, -0.002920367754995823, 0.016938980668783188, 0.005979076959192753, 0.016664346680045128, -0.006025662180036306, 0.002897748025134206, -0.005361298099160194, -0.0013745833421126008, -0.02042701095342636, -0.018841631710529327, 0.03284275159239769, -0.027302401140332222, -0.007781075779348612, 0.023136164993047714, 0.010490460321307182, 0.018705857917666435, -0.003836473450064659, 0.007569467648863792, 0.019080108031630516, -0.021785015240311623, -0.024381961673498154, -0.01893746480345726, -0.02380407229065895, -0.0016676768427714705, 0.0215802863240242, -0.03315414488315582, 0.02545759454369545, 0.022769726812839508, 0.013666088692843914, 0.0044971914030611515, 0.013611367903649807, 0.02459944412112236, 0.02899309992790222, 0.0017587615875527263, 0.016844183206558228, 0.03499877080321312, 0.001521634985692799, 0.023725543171167374, 0.011542600579559803, 0.02660367079079151, -0.005337965674698353, -0.01158437505364418, 0.027595700696110725, 0.01895046792924404, -0.012023941613733768, 0.020894277840852737, -0.019113996997475624, -0.03451475501060486, -0.01930880919098854, 0.02654023841023445, -0.021757973358035088, 0.02064530737698078, -0.005285955965518951, -0.00045930611668154597, -0.028990089893341064, -0.028813911601901054, 0.027967281639575958, 0.007666086778044701, 0.008558996953070164, -0.014579386450350285, 0.027955640107393265, 0.02770560421049595, 0.03640260547399521, 0.034048814326524734, 0.029826713725924492, 0.01863567717373371, -0.026662664487957954, 0.009007350541651249, -0.007114232983440161, 0.004657852463424206, 0.015412824228405952, 0.01934169977903366, -0.016975855454802513, 0.020129302516579628, -0.03634323179721832, 0.032074350863695145, 0.007249156013131142, 0.01804676279425621, 0.011150073260068893, 0.025132859125733376, 0.030537761747837067, -0.027426717802882195, 0.005391491111367941, -0.01561846025288105, 0.013942699879407883, -0.011810444295406342, 0.0001467933034291491, -0.008689825423061848, -0.027346907183527946, 0.0004985610139556229, -0.028184838593006134, -0.031101342290639877, 0.021501293405890465, 0.03244995325803757, 0.019396554678678513, -0.019459011033177376, 0.03685330972075462, 0.018392987549304962, 0.02710111439228058, -0.004661176353693008, 0.03287157416343689, 0.02735338918864727, 0.03257386386394501, 0.017958253622055054, 0.03324032574892044, 0.008434908464550972, -0.009029052220284939, -0.016447417438030243, -0.018353279680013657, -0.002511443570256233, -0.025035066530108452, 0.028993627056479454, -0.026822777464985847, -0.012879371643066406, -0.024382364004850388, -0.02285582385957241, 0.02707095816731453, -0.027236178517341614, -0.025855407118797302, -0.001792489318177104, -0.028481576591730118, -0.0013462707865983248, -0.03245772421360016, -0.031855739653110504, 0.004402809776365757, 0.011951294727623463, 0.032844580709934235, 0.032969485968351364, 0.009908998385071754, -0.008138634264469147, 0.031627148389816284, -0.001994016580283642, 0.01773245632648468, 0.029697207733988762, -0.03503778576850891, 0.0011562838917598128, 0.002353309653699398, -0.02579663135111332, -0.034479014575481415, -0.005125024355947971, -0.027839917689561844, -0.016148870810866356, 0.0265046413987875, 0.028198976069688797, 0.007823502644896507, 0.017909197136759758, 0.02051803283393383, 0.020241372287273407, -0.0032275833655148745, 0.004190121777355671, -0.028764085844159126, -0.025444891303777695, -0.02783747762441635, -0.0033445293083786964, 0.024881891906261444, 0.01989857107400894, 0.006101621314883232, 0.02906801551580429, 0.024365849792957306, -0.028682023286819458, 0.02964264154434204, -0.03585049882531166, 0.02825404889881611, -0.020255785435438156, -0.021173259243369102, -0.007864853367209435, 0.027246788144111633, -0.010365551337599754, 0.0009481899905949831, 0.01617991365492344, 0.013639245182275772, -0.0004100168589502573, 0.0257603470236063, -0.02666821889579296, 0.008231163956224918, -0.005144202150404453, 0.029995398595929146, 0.017481980845332146, -0.00643230089917779, -0.02985064499080181, 0.030883103609085083, 0.03138112276792526, -0.016927223652601242, 0.033441923558712006, -0.023811442777514458, -0.03457612171769142, 0.022977709770202637, -0.005949423648416996, -0.015169098973274231, 0.026476478204131126, -0.016983937472105026, -0.024855421856045723, -0.012744459323585033], [-0.007316663861274719, 0.03473775461316109, 0.021504800766706467, 0.03388124331831932, 0.0008653357508592308, 0.02591964788734913, 0.02070021443068981, 0.03184329718351364, -0.01835770532488823, -0.012727509252727032, 0.004328068345785141, -0.01927008479833603, -0.019388001412153244, 0.019415123388171196, 0.020488955080509186, -0.027665484696626663, -0.029329871758818626, -0.0032391734421253204, 0.01601257175207138, 0.003772645490244031, 0.009855025447905064, 0.02902672067284584, 0.03158971667289734, 0.010173467919230461, 0.006233755499124527, -0.022206610068678856, -0.033796846866607666, 0.00175484677311033, 0.016569796949625015, 0.014686264097690582, -0.01659565046429634, 0.009941862896084785, -0.014079377055168152, -0.03366988152265549, 0.011119150556623936, -0.0041675628162920475, 0.008942907676100731, 0.022367948666214943, 0.01045377366244793, 0.00973370112478733, 0.016354016959667206, 0.020496835932135582, -0.029851816594600677, 0.03315512835979462, -0.026508336886763573, -0.023682083934545517, 0.031342457979917526, 0.030771693214774132, 0.007860967889428139, 0.03435575217008591, -0.027725474908947945, -0.03444343060255051, 0.0025645724963396788, 0.028059685602784157, -0.03198909014463425, 0.01994585432112217, 0.029954150319099426, 0.020726481452584267, 0.00832764059305191, -0.006241770926862955, -0.03238362818956375, 0.03009575977921486, 0.034483615309000015, 0.03521066531538963, -0.015351363457739353, -0.013323135673999786, 0.03067799285054207, -0.02033977396786213, 0.0027409112080931664, -0.006732677109539509, -0.02994367480278015, 0.026432959362864494, -0.023557139560580254, -0.022722523659467697, 0.02893756330013275, 0.0003472501994110644, 0.013680677860975266, -0.033587999641895294, -0.013792425394058228, 0.00921934936195612, 0.004800247028470039, -0.024518905207514763, -0.0028227977454662323, 0.0090664466843009, 0.00970448087900877, 0.026752812787890434, 0.033729877322912216, -0.029253575950860977, 0.015428981743752956, 0.016953814774751663, 0.01097456831485033, 0.029228702187538147, 0.025341393426060677, 0.011949513107538223, 0.007171867415308952, -0.010139239020645618, -0.030353844165802002, -0.024494044482707977, -0.018124379217624664, 0.00821206159889698, -0.0074121709913015366, 0.008967953734099865, 0.011016882956027985, 0.00607242900878191, -0.0026615893002599478, -0.03031586855649948, 0.022225379943847656, -0.0068565900437533855, 0.021289650350809097, -0.02582641877233982, 0.03130012005567551, -0.010813499800860882, -0.0337175689637661, 0.002053706208243966, -0.00982077606022358, -0.00924376118928194, 0.010789535939693451, 0.009237469173967838, -0.03402560204267502, -0.005574649665504694, 0.03072672337293625, 0.020654946565628052, 0.028089692816138268, 0.005530830007046461, 0.01680675894021988, 0.006266329903155565, -0.01705709658563137, 0.018774723634123802, 0.031961724162101746, -0.006309786811470985, -0.02844749204814434, -0.0036635003052651882, 0.0015330287860706449, -0.02423778362572193, -0.03257576376199722, -0.014450281858444214, -0.025772081688046455, 0.022794220596551895, 0.007176853716373444, -0.025707045570015907, 0.020845428109169006, 0.02647465653717518, -0.02021639607846737, -0.019585391506552696, 0.012407242320477962, -0.028453128412365913, -0.012675667181611061, -0.019574211910367012, -0.029533134773373604, -0.01548980176448822, 0.01393407303839922, -0.007157714571803808, -0.0115898372605443, 0.006287206895649433, 0.019549110904335976, -0.005547581240534782, 0.02998082898557186, -0.006679869722574949, 0.025829710066318512, 0.017551997676491737, -0.009182512760162354, 0.030386095866560936, -6.190843851072714e-05, -0.0177178792655468, 0.008921502158045769, -0.017914345487952232, -0.02689877338707447, -0.027540791779756546, 0.0160319022834301, -0.027036072686314583, -0.02840971015393734, -0.006043398752808571, -0.019870780408382416, -0.005030418746173382, 0.01522879209369421, 0.004864724352955818, -0.025166532024741173, 0.023205699399113655, 0.03380333632230759, 0.0013073974987491965, -0.0067166518419981, -0.013056576251983643, 0.003329336643218994, 0.02138299122452736, -0.00815047137439251, -0.0019017272861674428, -0.013082782737910748, 0.005449202843010426, -0.020209502428770065, 0.010415459051728249, 0.03346294164657593, 0.0065162088721990585, -0.025854405015707016, 0.010327872820198536, 0.011560694314539433, -0.008233771659433842, -0.01326566282659769, 0.0010425095679238439, 0.0257352776825428, -0.006198260933160782, -0.02851570025086403, 0.016931988298892975, -0.02971065603196621, 0.03497322276234627, -0.02122945338487625, 0.01893078349530697, 0.023313501849770546, 5.108676486997865e-05, 0.000455632311059162, -0.01843261905014515, 0.03471146523952484, 0.021566957235336304, -0.005829721223562956, -0.030405433848500252, 0.032531194388866425, -0.011662215925753117, 0.03357616439461708, -0.003519764170050621, 0.004279427230358124, 0.0346418060362339, -0.01790771633386612, 0.002422529272735119, -0.030029572546482086, 0.007708030287176371, 0.03021937422454357, 0.011554594151675701, 0.0301910899579525, 0.013062424026429653, 0.03467721864581108, 0.0163438618183136, 0.005953922402113676, -0.02270772121846676, 0.007506754714995623, -0.0029839614871889353, -0.0016877518501132727, -0.007598118856549263, 0.025051584467291832, 0.007347168866544962, -0.02485976554453373, 0.015519227832555771, 0.030128560960292816, -0.023733433336019516, -0.0355144701898098, -0.023829620331525803, -0.0015474477550014853, -0.006894813850522041, 0.018955456092953682, 0.0308577511459589, 0.0009043007739819586, -0.0001569548767292872, -0.008131485432386398, -0.031938716769218445, -0.022531738504767418, 0.017414173111319542, -0.010316002182662487, 0.031389910727739334, 0.010288781486451626, -0.032463349401950836, 0.015680333599448204, -0.03415905684232712, -0.0021527146454900503, 0.0037631900049746037, -0.004216187167912722, -0.023788634687662125, 0.00947367399930954, -0.013107183389365673, -0.020817261189222336, 0.032620493322610855, -0.019115537405014038, 0.012805089354515076, -0.031153835356235504, 0.004028093535453081, 0.029588133096694946, -0.0210556723177433, 0.0054215919226408005, 0.02501876838505268, -0.03404419869184494, 0.025363322347402573, 0.009943817742168903, 0.034254446625709534, -0.029416397213935852, -0.020889125764369965, 0.026841284707188606, -0.003179640509188175, -0.028099754825234413, 0.024672741070389748, 0.01872466504573822, 0.02147148922085762, 0.01938549056649208, -0.019885577261447906, -0.0022730743512511253, 0.007485659327358007, -0.008215527050197124, -0.01129759568721056, 0.01461869478225708, 0.01569944992661476, 0.025345729663968086, 0.028293637558817863, 0.012720177881419659, 0.028461238369345665, 0.013460883870720863, 0.013159145601093769, 0.012624545954167843, 0.0026186727918684483, 0.022695252671837807, -0.02874564751982689, -0.02898418717086315, -0.0006439422722905874, 0.0221334807574749, 0.007377974223345518, -0.0032174671068787575, -0.003789246780797839, 0.02458990551531315, -0.010048536583781242, 0.0032623789738863707, -0.0013391959946602583, 0.0025363080203533173, 0.02767685055732727, 0.011528645642101765, -0.0095056826248765, 0.023115430027246475, -0.019887417554855347, 0.035276900976896286, -0.03165954351425171, -0.035234976559877396, 0.029471002519130707, 0.021399838849902153, -0.015481497161090374, -0.02899603359401226, -0.016661185771226883, 0.026295220479369164, 0.0073783425614237785, -0.0317520946264267, 0.024096382781863213, 0.014392416924238205, 0.01634400337934494, -0.033121541142463684, -0.015797654166817665, -0.02181307040154934, 0.02783569134771824, -0.016329139471054077, -0.025936009362339973, 0.016669994220137596, -0.019953051581978798, 0.0238864216953516, -0.01653306744992733, 0.03551507741212845, 0.010810492560267448, -0.016171235591173172, -0.02492080070078373, -0.013583959080278873, -0.030503716319799423, -0.0061927069909870625, -0.005814144853502512, 0.01995459757745266, 0.019461534917354584, 0.011247671209275723, 0.005719717592000961, 0.028803706169128418, 0.014834529720246792, -0.025839898735284805, 0.03007548861205578, 0.030456488952040672, 0.008788568899035454, 0.033123280853033066, 0.012250824831426144, -0.028933962807059288, 0.01769218035042286, -0.013607348315417767, 0.027241099625825882, 0.0029528618324548006, 0.009179938584566116, -0.016760341823101044, 0.018338602036237717, 0.03532611206173897, 0.010279753245413303, 0.01228343229740858, 0.0298667810857296, -0.0005062008858658373, 0.03227026015520096, 0.025265755131840706, 0.01853885129094124, -0.0001827861851779744, -0.013459521345794201, -0.03453810140490532, -0.0299189742654562, 0.029807107523083687, 0.03315742313861847, -0.020511960610747337, 0.0020194859243929386, -0.027007197961211205, -0.0002959799312520772, 0.004996235016733408, 0.004075327422469854, 0.029392989352345467, -0.011527490802109241, 0.025271018967032433, 0.025621341541409492, -0.029658561572432518, -0.013658303767442703, -0.022885369136929512, 0.031253036111593246, 0.01730058714747429, 0.0005857288488186896, -0.014584659598767757, -0.021623309701681137, 0.023659812286496162, -0.007208643946796656, -0.013329905457794666, 0.025155084207654, -0.02852754294872284, -0.0019208750454708934, 0.03024979680776596, 0.003154796315357089, 0.01844194531440735, -0.0005865155253559351, -0.026148423552513123, -0.02920243889093399, -0.025452841073274612, 0.013693696819245815, -0.010654388926923275, -0.035113196820020676, -0.008435476571321487, 0.030804315581917763, -0.030270516872406006, 0.022624149918556213, -0.029782172292470932, 0.008937731385231018, 0.015836799517273903, 0.03222937881946564, -0.004240226000547409, -0.020823972299695015, -0.012545733712613583, 0.004339231643825769, -0.008894712664186954, 0.019409779459238052, -0.032768283039331436, -0.010026978328824043, 0.010661718435585499, 0.03436233848333359, -0.0005121541325934231, 0.01235339418053627, 0.032455336302518845, 0.014214078895747662, -0.018206488341093063, -0.009918157942593098, 0.010588286444544792, -0.022768963128328323, 0.022145554423332214, 0.01583699695765972, -0.02641156129539013, -0.030388010665774345, -0.027201607823371887, 0.014161515980958939, -0.023534568026661873, 0.02380092442035675, -0.003386483760550618, 0.03398140147328377, -0.004822402261197567, -0.00928154680877924, -0.022453783079981804, -0.011985741555690765, -0.009111949242651463, -0.028183210641145706, -0.01791844703257084, 0.030909258872270584, -0.033798616379499435, 0.024861210957169533, 0.027946755290031433, 0.023468952625989914, -0.005364892538636923, -0.021303566172719002, 0.01827065832912922, 0.0055846041068434715, 0.005773733835667372, -0.017687011510133743, -0.008089950308203697, -0.009005511179566383, 0.03167041018605232, 0.0267830491065979, -0.019228942692279816, -0.03220239654183388, -0.0263853557407856, -0.03417947515845299, 0.02833777479827404, -0.007375234272330999, 0.029528692364692688, -0.028292305767536163, 0.008289086632430553, 0.017021404579281807, -0.0006456599221564829, -0.008675857447087765, -0.01720944605767727, 0.022306101396679878, 0.022074932232499123, -0.02081318199634552, -0.007648657541722059, -0.0020959009416401386, 0.005282730329781771, 0.020157672464847565, -0.015269560739398003, 0.03257294371724129, 0.03529001772403717, 0.01901194266974926, -0.023728923872113228, -0.03432609513401985, 0.0290620569139719, -0.016412213444709778, -0.006793694104999304, -0.002272084355354309, -0.0077187782153487206, -0.016736434772610664, -0.022917689755558968, 0.0008513991488143802, 0.01894635520875454, -0.015610869973897934, 0.027806216850876808, -0.023453697562217712, -0.0016633974155411124, 0.0019321375293657184, -0.022141359746456146, 0.0023287490475922823, 0.027109555900096893, 0.024259837344288826, 0.027665285393595695, -0.029052918776869774, -0.006892192643135786, -0.020605552941560745, -0.014324844814836979, 0.006950814742594957, -0.005648682825267315, -0.016930537298321724, -0.03421470895409584, 0.03326265513896942, -0.03471098095178604, 0.017478646710515022, 0.009184555150568485, 0.011432849802076817, 0.0175250805914402, 0.006314525380730629, -0.013293745927512646, -0.025921840220689774, -0.004333049990236759, -0.008972326293587685, -0.017525557428598404, -0.023573534563183784, 0.022165201604366302, 0.025565866380929947, -0.024917392060160637, 0.035485245287418365, -0.00040494519635103643, -0.014409054070711136, -0.014774717390537262, 0.014019416645169258, -0.026767438277602196, -0.008596200495958328, 0.030842766165733337, -0.022267712280154228, 0.03183792531490326, -0.026783188804984093, 0.023812754079699516, 0.03481705114245415, 0.03257213160395622, -0.0027547290083020926, -0.018484842032194138, -0.03342200443148613, -0.029275240376591682, 0.02822473645210266, -0.015749629586935043, 0.017876161262392998, 0.0027152521070092916, -0.027133794501423836, -0.029069265350699425, -0.02805117517709732, 0.01983996294438839, -0.018474934622645378, -0.0027071679942309856, 0.006083516404032707, 0.026824433356523514, -0.02485721930861473, -0.023391209542751312, -0.027216365560889244, -0.005632774904370308, -0.0028421012684702873, 0.02831588126718998, 0.008678191341459751, -0.011513980105519295, 0.022489799186587334, 0.027779823169112206, 0.014808503910899162, 0.00534026138484478, -0.004221513867378235, 0.032043907791376114, -0.03355337679386139, -0.017465079203248024, -0.00033409649040549994, 0.003063500626012683, -0.011461627669632435, -0.031401071697473526, -0.011681722477078438, -0.03517809137701988, -0.031600672751665115, -0.0041925664991140366, 0.03424239158630371, 0.019080834463238716, -0.005098000634461641, 0.022803673520684242, 0.03555828332901001, 0.027015112340450287, 0.0031485382933169603, 0.02449461817741394, 0.010378439910709858, 0.019144466146826744, 0.011212511919438839, -0.01167475339025259, -0.03562406823039055, -0.003271175781264901, 0.01609010249376297, 0.014705860987305641, 0.02449711039662361, 0.0011410994920879602, 0.02442287653684616, -0.01028608437627554, 0.005161764100193977, -0.01454225555062294, 0.01491555292159319, 0.03514542803168297, -0.012115961872041225, -0.027479296550154686, -0.032672811299562454, -0.01545014139264822, 0.011358627118170261, -0.0244442131370306, 0.025426730513572693, -0.013992640189826488, 0.009507136419415474, 0.020988987758755684, 0.026926813647150993, 0.008388313464820385, 0.010451656766235828, -0.03457390144467354, 0.005888848099857569, 0.02123754844069481, 0.023075299337506294, -0.02555312216281891, -0.023990502581000328, 0.01863774284720421, 0.0210934616625309, 0.0056841070763766766, 0.0131711820140481, 0.007698334753513336, 0.02673189714550972, -0.0018513848772272468, -0.027000242844223976, 0.007415924686938524, -0.028726523742079735, 0.030185190960764885, 0.03512994945049286, 0.005222024861723185, 0.004053022712469101, -0.01391582004725933, -0.034575287252664566, 0.015742968767881393, -0.026088763028383255, -0.02524942345917225, -0.01360009703785181, 0.012144654989242554, 0.00913850124925375, -0.007629010360687971, -0.019755039364099503, -0.005423146300017834, 0.006977290380746126, 0.030576173216104507, -0.01913553476333618, 0.03541778028011322, 0.03412400931119919, -0.026995966210961342, -0.0015573041746392846, -0.0211960282176733, -0.010658903047442436, -0.003334445646032691, 0.01269931998103857, 0.025315139442682266, 0.020706627517938614, 0.03397270664572716, -0.016827834770083427, -0.003470551921054721, 0.03546364977955818, -0.03209822624921799, 0.020027054473757744, -0.009410401806235313, -0.006132245529443026, 0.021328752860426903, -0.028419701382517815, -0.035145215690135956, 0.004726256709545851, 0.01644415594637394, -0.02147567644715309, 0.010572325438261032, 0.030594127252697945, 0.006366710644215345, -0.009271692484617233, -0.015309222042560577, -0.0133258868008852, -0.014465388841927052, -0.006748232524842024, -0.006245404481887817, 0.010111557319760323, 0.001112158875912428, 0.028399953618645668, 0.03160383179783821, 0.0035092299804091454, -0.018764907494187355, 0.006268597673624754, 0.013141662813723087, 0.010448838584125042, 0.005734285339713097, 0.0007155881612561643, 0.0027663912624120712, -0.008801269344985485, -0.02019301988184452, -0.0017302747583016753, 0.020054364576935768, -0.0034339516423642635, 0.00132681371178478, 0.010420797392725945, -0.03214852884411812, 0.0072381626814603806, 0.014776561409235, -0.02182234823703766, -0.02283869870007038, 0.0018548625521361828, 0.011905617080628872, -0.01994980312883854, 0.02979903481900692, -0.006976652890443802, -0.030979353934526443, 0.026666797697544098, 0.013718361034989357, 0.02763344906270504, -0.01922706887125969, 0.021571654826402664, -0.023873766884207726, -0.00285557983443141, -0.008594741113483906, 0.009013045579195023, -0.02538108453154564, 0.008249379694461823, -0.015513372607529163, 0.007339447736740112, 0.012692808173596859, -0.01206063199788332, 0.002111804438754916, 0.03215751051902771, -0.003472752869129181, -0.011481515131890774, 0.009489769116044044, 0.0022843682672828436, 0.010532334446907043, 0.009178603999316692, 0.024209879338741302, 0.006019823718816042, 0.01619110442698002, 0.02756916917860508, 0.01866794191300869, 0.03314577415585518, 0.030917132273316383, 0.016854269430041313, -0.004922936204820871, -0.035726845264434814, -0.015976514667272568, -0.031828753650188446, -0.029757807031273842, -0.02664436586201191, -0.035277120769023895, -0.02491191402077675, -0.034342873841524124, 0.030096374452114105, -0.02043699473142624, -0.00844838097691536, -0.020670339465141296, -0.005553822964429855, -0.033500976860523224, -0.030240554362535477], [-0.016767829656600952, -0.007620181422680616, -0.013634010218083858, 0.02816605754196644, 0.03427732735872269, 0.03270156309008598, -0.0354011133313179, 0.02623436041176319, -0.007894190959632397, -0.032615676522254944, -0.006249395664781332, -0.022360892966389656, 0.03508276119828224, 0.01745498739182949, -0.024703729897737503, 0.005973505321890116, 0.017497921362519264, 0.03416600078344345, 0.009354689158499241, 0.015578409656882286, -0.026070691645145416, 0.018111541867256165, 0.030248548835515976, 0.008794466033577919, 0.021066948771476746, -0.025611083954572678, -0.020480362698435783, 0.021364403888583183, -0.001825213199481368, 0.003696281462907791, 0.006272683851420879, 0.027627315372228622, 0.022909121587872505, -0.008764710277318954, 0.012744024395942688, 0.003542534774169326, -0.019224142655730247, 0.023504070937633514, -0.035376206040382385, -0.008656151592731476, -0.03441336005926132, -0.02794032357633114, -0.026506498456001282, -0.024094877764582634, -0.012325029820203781, -0.02300027385354042, -0.0003741211839951575, 0.00023246885393746197, 0.00045492511708289385, 0.005853424314409494, 0.011607061140239239, 0.03569741174578667, -0.028530485928058624, -0.01896975375711918, 0.022241169586777687, 0.009952099062502384, 0.014991452917456627, 0.012491956353187561, -0.027216333895921707, -0.0240317415446043, -0.0006164888036437333, -0.021386858075857162, -0.020875239744782448, 0.0349247083067894, 0.012474906630814075, -0.005590598564594984, -0.015205828472971916, -0.015889089554548264, -0.023896513506770134, -0.026967478916049004, -0.03193314000964165, -0.031446609646081924, -0.013440217822790146, 0.028482459485530853, -0.029216688126325607, 0.01188464742153883, 0.02300681360065937, 0.013686851598322392, -0.023066319525241852, 0.019141877070069313, -0.010248033329844475, 0.029268523678183556, 0.007557641714811325, -0.0006036700797267258, -0.019600341096520424, 0.025499660521745682, -0.016217272728681564, 0.03472296521067619, -0.02063102275133133, -0.03467869758605957, -0.020736757665872574, -0.025352640077471733, 0.0015483694151043892, -0.0008427992579527199, 0.021699652075767517, 0.015622185543179512, -0.028203211724758148, 0.03471413627266884, 0.03106042928993702, 0.023850394412875175, 0.011901959776878357, 0.02658168226480484, 0.004718664102256298, 0.0058792028576135635, 0.0007415258442051709, 0.013613635674118996, 0.02856604941189289, 0.02791634015738964, -0.017824087291955948, -0.016354339197278023, 0.012137158773839474, -0.019506370648741722, 0.020528661087155342, -0.031992893666028976, -0.011704234406352043, 0.009986273013055325, 0.024196796119213104, -0.010588916949927807, -0.02977176196873188, 0.012960542924702168, 0.030431358143687248, -0.0050894212909042835, -0.019449003040790558, -0.018400026485323906, -0.008198659867048264, -0.016720110550522804, -0.007525468710809946, -0.00489337183535099, -0.025639275088906288, -0.0194252822548151, -0.02242473140358925, -0.0045262654311954975, -0.015873922035098076, -0.016813497990369797, -0.003595007350668311, -0.005400053691118956, -0.020787237212061882, 0.031226128339767456, -0.016712455078959465, 0.031950436532497406, 0.027188768610358238, 0.03241877257823944, 0.000732665415853262, -0.02153766341507435, -0.005715479142963886, -0.0008555043605156243, 0.029792899265885353, -0.006781136617064476, -0.02509491890668869, 0.010551818646490574, -0.002417729003354907, -0.024830136448144913, -0.026438310742378235, -0.02803601697087288, 0.021838387474417686, 0.012272831052541733, 0.02408454567193985, 0.018347566947340965, -0.009907918982207775, -0.001464319764636457, -0.021544361487030983, -0.01628720760345459, 0.00853328499943018, 0.0015637455508112907, 0.02777138724923134, -0.03399483114480972, -0.022452639415860176, -0.010198971256613731, 0.012129845097661018, 0.004272880032658577, -0.003700070781633258, -0.01786034367978573, -0.014073856174945831, 0.01056311558932066, 0.016482211649417877, -0.007760334759950638, 0.015393766574561596, 0.007763459347188473, -0.033194269984960556, 0.005537780933082104, -0.010223627090454102, -0.0178053081035614, 0.03154337406158447, 0.026371298357844353, 0.003852495225146413, 0.024360600858926773, 0.031345877796411514, -0.012757185846567154, -0.014412730000913143, -0.02147522196173668, -0.0075093465857207775, -0.00779804028570652, 0.02463627979159355, 0.006326479371637106, -0.01957315020263195, 0.0349038727581501, 0.01618313230574131, -0.01767941191792488, -0.000169377846759744, 0.025934383273124695, 0.022860651835799217, 0.03437824174761772, -0.010559478774666786, -0.018901977688074112, 0.032601188868284225, 0.004760240204632282, 0.013436097651720047, -0.018525714054703712, 0.03462916240096092, 0.0035051382146775723, -0.03152105584740639, -0.01615435816347599, 0.01564398780465126, -0.01000980008393526, -0.008939803577959538, -0.023886868730187416, -0.021071836352348328, -0.003933032043278217, -0.030770469456911087, 0.03261774405837059, -0.021371249109506607, 0.0354158841073513, -0.014363627880811691, -0.022039908915758133, 0.012985720299184322, 0.025497259572148323, -0.01364150270819664, 0.025877676904201508, 0.025973746553063393, 0.03427223861217499, 0.017160287126898766, -0.0311606302857399, 0.014994565397500992, -0.007097159046679735, -0.019191812723875046, -0.026418417692184448, 0.018534524366259575, 0.03337523713707924, 0.01376036275178194, 0.007031374145299196, 0.023434516042470932, -0.022230032831430435, 0.03296053037047386, -0.0018407837487757206, -0.01824813149869442, -0.0035476309712976217, 0.017386071383953094, 0.011233030818402767, 0.031221972778439522, 0.007710246369242668, 0.03014756739139557, 0.03392251208424568, -0.013194935396313667, 0.008785760030150414, -0.018118122592568398, -0.03435247391462326, 0.02322371117770672, 0.03271680325269699, 0.028699062764644623, 0.02177080512046814, -0.030999796465039253, 0.01563102751970291, 0.017421822994947433, -0.02962092123925686, -0.021142076700925827, -0.016834259033203125, 0.015798456966876984, -0.03273285925388336, -0.016660571098327637, -0.011448291130363941, 0.008167816326022148, 0.009103113785386086, -0.00706948759034276, -0.02628478780388832, -0.03175343945622444, -0.03231823444366455, -0.025640767067670822, 0.02296590991318226, 0.030828889459371567, -0.027509232982993126, 0.01334670465439558, -0.006376373115926981, -0.029949283227324486, -0.03499631583690643, 0.010252352803945541, 0.007685168646275997, -0.03226880729198456, -0.013622567057609558, 0.001555940369144082, 0.024642005562782288, -0.02134929783642292, -0.007452360354363918, 0.025812920182943344, -0.015283777378499508, 0.021956229582428932, 0.02907402627170086, -0.011160599999129772, -0.030429990962147713, 0.009629802778363228, 0.028360607102513313, 0.012876280583441257, -0.023741180077195168, 0.0016509756678715348, 0.016225626692175865, 0.019335346296429634, -0.004674423485994339, 0.0001402257039444521, -0.0034033944830298424, 0.006580235902220011, 0.030161520466208458, -0.03171141818165779, -0.023060306906700134, 0.027799947187304497, -0.00959862396121025, -0.030641233548521996, -0.004992564208805561, -0.015343675389885902, -0.031784772872924805, 0.018908381462097168, 0.02215687744319439, 0.01152681466192007, 0.0077737197279930115, 0.003029439365491271, -0.015070748515427113, 0.028695562854409218, 0.021712105721235275, 0.023189539089798927, -0.007108074612915516, -0.02179628610610962, -0.02231323905289173, -0.015843072906136513, -0.031944628804922104, -0.0017541833221912384, 0.011015417985618114, -8.732888090889901e-05, -0.007770376745611429, 0.003037828952074051, 0.01186144258826971, 0.013597389683127403, -0.026884449645876884, -0.02923537977039814, -0.026863347738981247, 0.019689107313752174, 0.013573657721281052, -0.0034066992811858654, -0.02204255387187004, 0.013377808034420013, -0.014680367894470692, -0.03310645371675491, 0.02669765055179596, 0.011146962642669678, -0.02235097438097, -0.0230027474462986, -0.0144401416182518, 0.03489350154995918, 0.014526077546179295, 0.03493784740567207, 0.0065275561064481735, -0.03166130185127258, 0.005075249820947647, -0.0017577963881194592, -0.03250083327293396, -0.02798350341618061, -0.03051932342350483, -0.024132024496793747, 0.025437025353312492, 0.0031863474287092686, -0.027199015021324158, -0.010933851823210716, 0.003642948344349861, -0.02126549556851387, 0.018477512523531914, 0.0022937306202948093, -0.007966765202581882, -0.006604789290577173, 0.0029823274817317724, 0.0025468154344707727, -0.02848687395453453, 0.034647006541490555, -0.020045893266797066, -0.015757597982883453, 0.027019700035452843, 0.02018599957227707, 0.029875412583351135, 0.003498347010463476, 0.021587224677205086, 0.026834089308977127, -0.01746106706559658, -0.021709969267249107, -0.03062400408089161, -0.02223559468984604, 0.012380767613649368, -0.02636650763452053, 0.027176478877663612, -0.02879182994365692, -0.027172090485692024, -0.026246817782521248, -0.03145107999444008, -0.026599163189530373, 0.015033235773444176, 0.014782178215682507, 0.012376083061099052, 0.030981242656707764, 0.0051916781812906265, 0.007748323958367109, 0.010854074731469154, -0.021550964564085007, -0.00748598063364625, 0.023369314149022102, -0.011132515966892242, 0.006543347146362066, 0.008114378899335861, -0.016419697552919388, 0.009513542987406254, 0.007623064797371626, -0.0269313994795084, 0.03569065034389496, -0.018905263394117355, -0.03309067711234093, -0.006093005184084177, -0.004543105140328407, 0.011416277848184109, 0.019811376929283142, 0.01808241382241249, 0.03454865515232086, -0.010043390095233917, 0.033445559442043304, 0.011192947626113892, 0.027209721505641937, 0.02329637110233307, -0.025705354288220406, -0.01961572840809822, 0.02535979636013508, 0.00036875653313472867, 0.033067893236875534, 0.00524974474683404, 0.00893282052129507, 0.013520180247724056, -0.02533607929944992, -0.028739752247929573, 0.005565634462982416, -0.034345049411058426, 0.024995282292366028, -0.029112260788679123, -0.014775064773857594, 0.026904385536909103, -0.02108643762767315, -0.03453192859888077, -0.03236383944749832, -0.00719036441296339, 0.02626761421561241, 0.030361594632267952, -0.022695617750287056, -0.0019761081784963608, -0.02258370816707611, -0.028784912079572678, 0.009529505856335163, 0.017923783510923386, 0.026810845360159874, -0.00592545373365283, 0.011510977521538734, -0.033675625920295715, -0.024989575147628784, -0.005897930357605219, 0.007482306100428104, -0.0007227229070849717, 0.008961174637079239, 0.011934050358831882, 0.018310483545064926, 0.02255583554506302, -0.0019715982489287853, 0.019001364707946777, -0.028507711365818977, -0.032440491020679474, -0.00853418093174696, -0.029381245374679565, -0.030044682323932648, 0.0007582557154819369, -0.009838416241109371, -0.01232306007295847, -0.01608308032155037, 0.01625985838472843, 0.02607211470603943, -0.022634277120232582, -0.035803936421871185, -0.021463684737682343, 0.020671887323260307, -0.020110825076699257, 0.03013985976576805, 0.002817247761413455, 0.012254822999238968, -0.028434688225388527, 0.024893037974834442, -0.0010169240413233638, 0.025698257610201836, -0.03251364082098007, 0.0008290854748338461, -0.03216302767395973, -0.013581914827227592, 0.027181249111890793, 0.03124016523361206, -0.01094923447817564, -0.019261851906776428, 0.02604210004210472, 0.012236657552421093, -0.007611904758960009, -0.033721257001161575, 0.008278491906821728, -0.023819880560040474, -0.003066795179620385, 0.008575143292546272, 0.0013775734696537256, -0.02019418217241764, 0.025151807814836502, -0.018862934783101082, 0.022243209183216095, 0.004349996335804462, 0.007774802856147289, 0.02767127752304077, -0.033706437796354294, -0.0032975368667393923, 0.023966636508703232, -0.035132814198732376, 0.030920295044779778, -0.013300884515047073, -0.02488836832344532, 0.014869620092213154, 0.03465592861175537, -0.0009019360295496881, -0.007874112576246262, -0.035214025527238846, 0.026515210047364235, -0.015868661925196648, 0.004498995840549469, 0.012145073153078556, -0.0009322036057710648, -0.016377713531255722, -0.018307171761989594, 0.0013880227925255895, -0.022684898227453232, 0.024641940370202065, 0.026364412158727646, 0.03018883615732193, -0.0011748321121558547, 0.012757892720401287, -0.03138018772006035, 0.018429666757583618, -0.032783035188913345, 0.021114442497491837, -0.034750524908304214, -0.0033045548480004072, -0.0232913326472044, 0.028023045510053635, -0.019979823380708694, 0.02657586894929409, 0.009648104198276997, -0.014135731384158134, -0.0023593148216605186, -0.0054383412934839725, 0.0012605180963873863, 0.009777108207345009, -0.03122011385858059, -0.003212780226022005, -0.03195210546255112, 0.026902051642537117, -0.025746025145053864, 0.03271157667040825, 0.030116913840174675, -0.022440288215875626, -0.012809636071324348, 0.01143655925989151, -0.021214349195361137, 0.017186174169182777, 0.01797756366431713, -0.00187511439435184, -0.016264287754893303, -0.017675237730145454, 0.005976524669677019, 0.02220340259373188, 0.009661031886935234, -0.014745659194886684, 0.031235750764608383, 0.0045787254348397255, -0.02038303017616272, 0.009293699637055397, -0.02073853462934494, -0.001174610573798418, 0.024009622633457184, -0.03144342079758644, 0.013755920343101025, -0.01871221698820591, -0.034672874957323074, -0.02733922004699707, 0.035412367433309555, 0.026878701522946358, 0.012397531419992447, -0.0055235023610293865, 0.03385064750909805, 0.03342580422759056, 0.02501450665295124, -0.012365295551717281, -0.00590489199385047, -0.015809576958417892, 0.01857895404100418, 0.012762166559696198, -0.0033206099178642035, 0.009965995326638222, 0.008546672761440277, -0.03490510210394859, 0.026195934042334557, 0.02424711175262928, -0.0028490726836025715, 0.012156777083873749, 0.032722316682338715, -0.0015499049331992865, 0.020572595298290253, -0.013086455874145031, 0.024314366281032562, 0.010333572514355183, 0.011695877648890018, -0.03233585134148598, -0.0012198983458802104, -0.00986066460609436, 0.01687782257795334, -0.0035379035398364067, -0.001507755951024592, -0.005552913062274456, 0.02601071260869503, -0.025043480098247528, -0.023185433819890022, 0.023852849379181862, 0.014544579200446606, 0.03343193978071213, 0.0057721612975001335, 0.021944889798760414, -0.01864784210920334, -0.02171744965016842, 0.031235728412866592, 0.006116660311818123, -0.013454368337988853, -0.0005514579243026674, 0.010724510997533798, -0.0038724730256944895, 0.029623325914144516, -0.018530666828155518, -0.012929952703416348, 0.0029254888650029898, 0.0068529690615832806, -0.02447757124900818, 0.013013864867389202, -0.021472059190273285, -0.035075150430202484, 0.007264648098498583, 0.005992107093334198, 0.025820964947342873, 0.014695698395371437, 0.029410498216748238, -0.01986977644264698, 0.009225561283528805, -0.01219968032091856, 0.018771769478917122, -0.017073696479201317, -0.02729400433599949, 0.029250506311655045, 0.03231915459036827, -0.03201385214924812, -0.0013471790589392185, 0.025022326037287712, 0.031906113028526306, -0.034901052713394165, -0.011453226208686829, -0.004500357899814844, 0.014280052855610847, 0.0340457409620285, 0.03073296695947647, 0.026368599385023117, -2.9692911994061433e-05, 0.02504223957657814, 0.022370461374521255, -0.01755143143236637, 0.03322989121079445, -0.021059604361653328, 0.0356941819190979, 0.00688574742525816, -0.0075670573860406876, 0.015704402700066566, 0.014239279553294182, -0.028070887550711632, 0.020860113203525543, -0.026095209643244743, 0.032019149512052536, -0.01858280785381794, -0.01343254279345274, -0.01074634026736021, -0.017716431990265846, 0.014595129527151585, 0.005436345003545284, 0.015428856015205383, 0.03348788619041443, 0.0008195432019419968, 0.01766783557832241, -0.0004816359141841531, -0.012707818299531937, -0.027165556326508522, -0.00381470681168139, 0.03244411572813988, -0.022676566615700722, -0.00417232746258378, 0.0036793192848563194, 0.029333295300602913, -0.0004331512900535017, -0.011090637184679508, 0.007838716730475426, 0.004894571378827095, 0.031474266201257706, 0.014066232368350029, -0.014318916015326977, 0.01470049750059843, -0.009055734612047672, -0.006992659065872431, 0.002655880991369486, 0.02686113677918911, 0.02039608731865883, -0.009933711029589176, 0.013696542009711266, 0.024670297279953957, 0.02575838565826416, -0.02891635335981846, 0.001909733167849481, 0.027557453140616417, 0.028607672080397606, 0.03344440832734108, 7.741969602648169e-05, -0.012741364538669586, 0.03144606202840805, 0.013023222796618938, -0.018714770674705505, 0.021361559629440308, 0.008973115123808384, 0.02962445467710495, -0.03474695608019829, 0.008621587418019772, 0.013479769229888916, -0.01606437750160694, -0.017679305747151375, 0.025525808334350586, 0.03279528021812439, 0.008937615901231766, 0.031656600534915924, 0.010057305917143822, 0.0039031074848026037, 0.03095761314034462, -0.001885597943328321, 0.02292259968817234, -0.020797809585928917, -0.011359733529388905, -0.014275342226028442, 0.004382692277431488, -0.0032324104104191065, -0.015687264502048492, 0.024800539016723633, 0.019435806199908257, -0.025319723412394524, -0.03189241141080856, -0.005881522782146931, -0.0008080709376372397, -0.027923250570893288, 0.00021251779980957508, -0.03011329099535942, -0.026889460161328316, 0.028673270717263222, -0.0010439857142046094, 0.00027366032009012997, -0.020198803395032883, 0.0003722931141965091, -0.028329947963356972, 0.016578448936343193, -0.014017198234796524, 0.010133085772395134, 0.003294924506917596, 0.02496560849249363, 0.02389088273048401, -0.030158160254359245, -0.01721472479403019], [-0.0050132982432842255, 0.022799817845225334, 0.02325551211833954, -0.02918996661901474, -0.018046023324131966, -0.021480118855834007, 0.016680430620908737, 0.021719787269830704, 0.01062927395105362, 0.0019409720553085208, -0.034856606274843216, -0.028627218678593636, 0.004187032580375671, 0.01511868555098772, 0.01081725675612688, 0.027121983468532562, -0.006425309926271439, 0.005674223881214857, -0.027977867051959038, -0.027235718443989754, 0.006243771407753229, -0.03126155585050583, -0.009205037727952003, -0.004917318467050791, 0.011104356497526169, -0.025047069415450096, 0.03220381215214729, -0.0032249910291284323, 0.003683223854750395, -0.028694098815321922, -0.03286636620759964, -0.025292405858635902, -0.0004197487432975322, -0.02817482128739357, 0.017203575000166893, 0.015973718836903572, 0.012443638406693935, -0.034662630409002304, 0.03038453496992588, 0.002836335450410843, 0.007186420261859894, 0.01458396390080452, -0.004704116843640804, -0.012454251758754253, 0.01212526485323906, -0.01897507719695568, -0.017564013600349426, 0.004291224293410778, -0.016438977792859077, 0.03170919045805931, 0.008662214502692223, -0.002668495522812009, 0.0127284936606884, 0.024670638144016266, -0.003650886472314596, -0.01291540265083313, -0.01911967620253563, 0.022678637877106667, 0.027815891429781914, 0.024988828226923943, -0.03302984684705734, 0.008147924207150936, -0.023145072162151337, 0.03081430494785309, -0.014554714784026146, -0.028026528656482697, -0.01771158166229725, -0.005647712387144566, 0.008275081403553486, -0.029287435114383698, -0.014703860506415367, 0.004243547096848488, 0.02269529551267624, -0.019474219530820847, 0.03286945819854736, -0.002260796260088682, 0.01967628300189972, 0.03256695717573166, 0.02804015949368477, -0.01538510899990797, -0.009929142892360687, -0.027862943708896637, 0.033636774867773056, -0.010303039103746414, 0.01870601624250412, 0.018048394471406937, 0.025853509083390236, -0.03349873423576355, 0.030448799952864647, -0.01953982375562191, 0.03081919066607952, -0.02284807525575161, -0.03565739467740059, -0.008193917572498322, 0.026430891826748848, -0.028031736612319946, 0.003219940233975649, -0.016624145209789276, 0.019681544974446297, 0.0010235275840386748, -0.01716734655201435, 0.019329911097884178, 0.0005124020390212536, 0.0283659715205431, 0.003581176046282053, -0.016882741823792458, 0.029752353206276894, -0.012555745430290699, 0.020417628809809685, -0.03133990988135338, 0.003109060926362872, 0.028748566284775734, -0.020509280264377594, 0.018737053498625755, -0.014982088468968868, -3.7970839912304655e-05, 0.01401197724044323, 0.027453972026705742, -0.013871093280613422, -0.02822834998369217, -0.026268314570188522, 0.008741029538214207, 0.023889858275651932, 0.01959298551082611, 0.01784328743815422, -0.0069907475262880325, 0.02809050865471363, 0.023288287222385406, 0.009915463626384735, 0.034356553107500076, -0.007880393415689468, -0.01829654537141323, 0.014705676585435867, 0.03563886880874634, 0.004504754673689604, 0.0043672481551766396, -0.019905464723706245, -0.03218342363834381, -0.024210898205637932, -0.023344065994024277, 0.032048895955085754, -0.009594624862074852, -0.012586195021867752, -0.029088076204061508, 0.003470029216259718, -0.025125429034233093, 0.0014184820465743542, -0.015652278438210487, -0.030548252165317535, 0.03424344211816788, 0.029879730194807053, 0.009240605868399143, 0.00567770516499877, 0.019713833928108215, 0.022022122517228127, -0.01943157985806465, 0.02191600576043129, 0.02626768685877323, -0.03264547139406204, 0.01725483499467373, -0.014267507009208202, -0.0008279380272142589, 0.031825534999370575, -0.02005108818411827, 0.003200816223397851, -0.021052978932857513, -0.01454239059239626, 0.030950210988521576, 0.020754162222146988, 0.011369324289262295, -0.011800246313214302, -0.024501075968146324, -0.027495888993144035, -0.014700992964208126, -0.03222275152802467, -0.004956218879669905, -0.02641809545457363, 0.02761664427816868, -0.032699938863515854, -0.030594319105148315, -0.032902851700782776, -0.01062312163412571, 0.008975117467343807, 0.006465923506766558, 0.00041588148451410234, 0.0019770171493291855, 0.021016800776124, -0.01614036038517952, -0.019646724686026573, -0.003244963241741061, 0.018602360039949417, -0.016685962677001953, 0.012964222580194473, -0.0124817518517375, 0.033791691064834595, 0.030362708494067192, 0.0014330473495647311, 0.01843247562646866, -0.011508150957524776, -0.001114913378842175, -0.03562942519783974, 0.033969584852457047, -0.015889279544353485, 0.010153974406421185, 0.021190863102674484, 0.028451675549149513, -0.0029534592758864164, -0.02926262468099594, 0.017207499593496323, -0.013393918052315712, 0.006131302565336227, -0.01625334657728672, -0.007175597362220287, 0.009214489720761776, -0.027354257181286812, -0.02795913629233837, -0.00042399822268635035, 0.010651645250618458, 0.022087084129452705, 0.027283521369099617, 0.013369303196668625, -0.002359043573960662, -0.013863315805792809, 0.006868856493383646, -0.019586231559515, 0.03523761034011841, -0.016967644914984703, -0.012898441404104233, -0.0211891308426857, -0.008819127455353737, -0.01821904256939888, 0.011030183173716068, 0.011192151345312595, -0.02892935276031494, -0.0029134806245565414, -0.013935276307165623, 0.032191794365644455, -0.027354001998901367, 0.03326219320297241, -0.015042868442833424, -0.001184368971735239, -0.005058613605797291, -0.005702144932001829, -0.010913548991084099, -0.011868152767419815, 0.029902039095759392, 0.016056817024946213, 0.01981826312839985, -0.03234173357486725, -0.03197719529271126, 0.02355930209159851, 0.033631835132837296, 0.024996133521199226, 0.0021223481744527817, 0.02595498412847519, -0.029373863711953163, 0.03546983003616333, -0.017591044306755066, -0.03210017830133438, 0.026987357065081596, -0.01887238211929798, 0.003928058780729771, 0.011914241127669811, -0.005704731680452824, -0.008883793838322163, -0.014108560048043728, -0.01690414734184742, 0.023796552792191505, -0.020895034074783325, 0.0307221207767725, 0.0258992537856102, -0.0030891820788383484, 0.026899509131908417, 0.01794590801000595, -0.019271085038781166, 0.006477490067481995, -0.03553984314203262, -0.031357213854789734, 0.026196975260972977, -0.0075183226726949215, 0.028881050646305084, -0.0022868653759360313, -0.024211876094341278, 0.002145391656085849, -0.008332488127052784, 0.019968215376138687, -0.007818998768925667, -0.005099585745483637, 0.011325626634061337, -0.026284320279955864, 0.03412109240889549, -0.013424239121377468, -0.024888651445508003, -0.03163210302591324, -0.02715533785521984, -0.004926901310682297, -0.03083019331097603, -0.012254005298018456, -0.029723336920142174, 0.02307828702032566, -0.01416366919875145, -0.030229173600673676, -0.02926630526781082, 0.0006570109981112182, 0.0032272334210574627, 0.033912498503923416, -0.0035117000807076693, -0.003368157660588622, -0.019509121775627136, 0.007212433498352766, 0.033449843525886536, 0.0357096791267395, -0.03026294894516468, 0.010718350298702717, -0.023807436227798462, -0.02170434780418873, 0.02464960888028145, -0.0018811856862157583, 0.035445645451545715, -0.014382878318428993, -0.013691417872905731, 0.01912863738834858, 0.01986682042479515, 0.013220304623246193, 0.024508966132998466, -0.014126063324511051, 0.008389901369810104, 0.013633952476084232, 0.014249489642679691, 0.005479359533637762, -0.022223027423024178, -0.011983996257185936, 0.027095912024378777, -0.017726436257362366, -0.015538450330495834, -0.013233554549515247, -0.004124706611037254, -0.0038125389255583286, -0.019214879721403122, -0.007042665500193834, -0.03230980038642883, 0.022768627852201462, -0.01018464658409357, 0.014843795448541641, -0.02216959558427334, -0.0250459685921669, 0.017190957441926003, 0.03026815503835678, 0.01445616502314806, -0.029241124168038368, 0.0005464968271553516, -0.027186425402760506, -0.012087403796613216, -0.015115016140043736, -0.012872505001723766, -0.03214099630713463, -0.029415566474199295, -0.020615240558981895, -0.025288360193371773, -0.012583281844854355, 0.0079323910176754, -0.012662356719374657, 0.010342614725232124, -0.032259006053209305, 0.01965162344276905, -0.009281677193939686, 0.032408904284238815, -0.02994130551815033, -0.009477266110479832, 0.011491375043988228, -0.010599826462566853, -0.030588386580348015, -0.008746410720050335, -0.027815567329525948, 0.0308340135961771, 0.02890651300549507, -0.00903514213860035, 0.02271398901939392, -0.025004900991916656, -0.024756161496043205, -0.029673147946596146, 0.03389889746904373, -0.004654929973185062, -0.024221431463956833, -0.03306370601058006, -0.016372648999094963, 0.0029099308885633945, -0.02802819013595581, 0.013902378268539906, 0.007638036739081144, 0.003037266433238983, -0.017937103286385536, -0.031330935657024384, 0.02862468548119068, 0.008755556307733059, 0.026423543691635132, -0.02277963049709797, 0.019707245752215385, -0.023671645671129227, 0.005041960626840591, -0.029438886791467667, 0.019045935943722725, -0.0183042511343956, -0.018970562145113945, -0.017660096287727356, 0.01431005448102951, 0.0048997243866324425, 0.01651540771126747, -0.011350002139806747, 0.00514602568000555, -0.02773347683250904, 0.02111498825252056, 0.0007509961724281311, 0.0081072011962533, -0.006166997365653515, -0.016732078045606613, -0.0031260184478014708, -0.025270650163292885, 0.015866991132497787, 0.008878855966031551, -0.013765666633844376, -0.004521266557276249, 0.0334397591650486, 0.00361460167914629, -0.027626989409327507, 0.03424792364239693, 0.023975659161806107, 0.026378151029348373, -0.004902919288724661, -0.03364891558885574, -0.011295190081000328, -0.0022306388709694147, -0.0024124172050505877, 0.026493141427636147, 0.013492804020643234, -0.012700020335614681, 0.013636291958391666, 0.026334557682275772, 0.01544113364070654, -0.006238786969333887, -0.030889827758073807, -0.030266299843788147, -0.00410810112953186, 0.027682466432452202, -0.020843319594860077, -0.021634604781866074, 0.005675658583641052, 0.026311488822102547, -0.028843576088547707, 0.011518105864524841, 0.006718523800373077, 0.0011618556454777718, -0.030450211837887764, 0.01566166803240776, 0.03297227621078491, 0.01487225666642189, -0.014094744808971882, -0.01232117135077715, 0.018037540838122368, 0.010497829876840115, 0.025944067165255547, 0.025430629029870033, -0.021678315475583076, 0.01487791445106268, -0.01630222611129284, -0.016787869855761528, -0.023639576509594917, -0.008605082519352436, 0.002642436185851693, -0.0262026097625494, 0.029419351369142532, -0.01404525525867939, -0.022707639262080193, 0.006042725406587124, -0.006742698140442371, 0.03413733094930649, -0.010260084643959999, -0.02913796156644821, 0.028131671249866486, -0.02892649546265602, 0.01825595088303089, 0.016051428392529488, -0.021117761731147766, 0.032736636698246, 0.007566631771624088, 0.001743055647239089, 0.016103610396385193, -0.0072855837643146515, -0.011938594281673431, 0.022005807608366013, -0.025690680369734764, 0.03510689362883568, -0.009478348307311535, 0.035672176629304886, 0.0026190197095274925, -0.013956702314317226, -0.02052713744342327, 0.020548230037093163, 0.014414218254387379, 0.026472454890608788, -0.002788692247122526, 0.014742989093065262, -0.0008702730992808938, 0.011544373817741871, -0.02409992925822735, -0.01781110279262066, -0.012165694497525692, -0.005534330382943153, 0.022341163828969002, 0.02356603927910328, -0.012667530216276646, -0.0349658839404583, 0.015611940994858742, -0.035545170307159424, -0.0074820867739617825, -0.012348582036793232, 0.031163278967142105, 0.018448270857334137, -0.02068374864757061, 0.012387646362185478, 0.01667078770697117, 0.017245180904865265, 0.026145998388528824, 0.017446840181946754, -0.023877756670117378, 0.03316003084182739, -0.03588128089904785, -0.0034945481456816196, -0.02657834067940712, 0.023194851353764534, 0.0218272116035223, 0.02397937700152397, -0.008935010991990566, 0.027332253754138947, 0.020391764119267464, 0.002747525926679373, 0.015327232889831066, 0.023287786170840263, 0.01632426492869854, 0.011950771324336529, -0.03279508277773857, -0.031528763473033905, -0.021212920546531677, 0.03007909655570984, 0.032494593411684036, 0.016872232779860497, 0.028513291850686073, -0.034555334597826004, -0.01866122893989086, 0.01853710599243641, -0.03238564357161522, -0.03209281712770462, -0.01427491195499897, 0.0017395855393260717, -0.03271279111504555, 0.016486145555973053, -0.033412232995033264, -0.012366226874291897, 0.013722879812121391, -0.012255476787686348, -0.019447237253189087, 0.0070184217765927315, 0.021709540858864784, -0.0026987441815435886, 0.010003136470913887, 0.0243272352963686, 0.016068050637841225, 0.013158784247934818, -0.01734895072877407, -0.030002877116203308, 0.01345460768789053, -0.009953362867236137, -0.0013082694495096803, 0.004707111977040768, -0.02728620357811451, 0.022508617490530014, -0.01628064177930355, -0.026522967964410782, 0.0026190588250756264, -0.020881412550807, -0.032624006271362305, -0.0023470690939575434, 0.030182136222720146, -0.0004404513747431338, -0.016164259985089302, 0.03420000150799751, -0.02574308030307293, 0.007032156456261873, 0.031533438712358475, -0.03399837762117386, 0.0047745415940880775, 0.012298584915697575, 0.03493205085396767, 0.018918119370937347, 0.0019443734781816602, -0.027821345254778862, -0.003695906838402152, 0.02008737064898014, -0.01962103135883808, 0.001428736373782158, 0.014423432759940624, 0.02721225656569004, 0.012768851593136787, 0.02030462957918644, -0.0032041652593761683, 0.014564395882189274, -0.025344451889395714, -0.02969786711037159, 0.0025207852013409138, 0.023563915863633156, -0.030843613669276237, 0.03075520507991314, -0.0260571651160717, 0.02370188757777214, -0.0007569020963273942, -0.0024527625646442175, 0.018818117678165436, -0.031633563339710236, 0.028712183237075806, -0.021716797724366188, 0.018456440418958664, 0.03429299220442772, 0.009298020042479038, -0.026026736944913864, -0.0010883823269978166, 0.01175721362233162, -0.03063109889626503, 0.03169836476445198, -0.03050118312239647, 0.006557791493833065, 0.029797419905662537, 0.0020088115707039833, -0.006751157343387604, 0.025062020868062973, 0.006941709667444229, 0.023368211463093758, 0.0026369690895080566, -0.031229449436068535, -0.007385400123894215, 0.005490750540047884, -0.02886822447180748, 0.031967464834451675, 0.01666080765426159, 0.03222766891121864, -0.00808194000273943, -0.03422299027442932, 0.008717996999621391, -0.02773403562605381, -0.014317925088107586, -0.030587149783968925, -0.008043935522437096, -0.008972288109362125, -0.000376189302187413, 0.001510818488895893, 0.013883482664823532, -0.0015139420283958316, -0.01041316520422697, -0.029583493247628212, 0.011591018177568913, -0.030095422640442848, 0.03266861289739609, -0.021102208644151688, -0.015712197870016098, -0.006163791287690401, -0.0022238746751099825, 0.006361508276313543, 0.02131384238600731, 0.030980806797742844, 0.014876672066748142, 0.0019056538585573435, -0.01286126859486103, -0.003340950235724449, -0.0011924150167033076, 0.02643323875963688, -0.0003359843685757369, 0.031687747687101364, -0.018993237987160683, 0.027929017320275307, -0.0347503200173378, 0.0009095820132642984, -0.01921473816037178, -0.032509226351976395, 0.023445168510079384, -0.03239057958126068, 0.03459072858095169, -0.012461953796446323, -0.016353728249669075, 0.003017908427864313, -0.0201160479336977, 0.018351901322603226, 0.016271669417619705, -0.028494514524936676, -0.012172886170446873, -0.003506789216771722, -0.02117242105305195, 0.012519248761236668, -0.0164859090000391, 0.005019713658839464, -0.030304111540317535, 0.001760208746418357, 0.011435715481638908, -0.005367088597267866, -0.010684636421501637, -0.00889897346496582, -0.028747590258717537, -0.022507764399051666, 0.01294757891446352, 0.0008052258053794503, -0.03218454867601395, 0.022291598841547966, 0.012097988277673721, 0.012284706346690655, -0.01572270691394806, 0.03373304381966591, -0.0315377302467823, -0.011267759837210178, 0.004264002200216055, 0.03002883493900299, 0.013409070670604706, -0.020665762946009636, 0.01860935240983963, -0.03023660182952881, -0.017076782882213593, -0.0013926465762779117, -0.022494494915008545, -0.01826603338122368, -0.03060743398964405, 0.010940871201455593, 0.004425850696861744, 0.021647358313202858, 0.0283377543091774, -0.025829175487160683, 0.008477333933115005, 0.024731745943427086, 0.0331740565598011, -0.018755672499537468, -0.01285624224692583, 0.029421405866742134, -0.01665390096604824, 0.029726805165410042, 0.024100909009575844, -0.007347853388637304, 0.0009752293699420989, -0.025957349687814713, -0.014541235752403736, -0.006284933537244797, 0.033201780170202255, 0.01539558358490467, -0.004138822667300701, 0.029653403908014297, -0.003973897080868483, -0.019292237237095833, 0.013314157724380493, -0.008358999155461788, 0.0015386611921712756, -0.018486615270376205, 0.007390225771814585, -0.02077433653175831, 0.014769996516406536, 0.0044189151376485825, -0.026299752295017242, 0.021613549441099167, -0.018162015825510025, 0.034043408930301666, 0.0035693994723260403, 0.0020729266107082367, -0.027750033885240555, 0.021111294627189636, -0.03358817473053932, -0.024530833587050438, -0.017708197236061096, -0.017731627449393272, -0.03136729821562767, -0.028222711756825447, -0.013839494436979294, 0.0009612101712264121, -0.011888855136930943, -0.0008886557188816369, 0.00485576968640089, -0.027241410687565804, -0.022244557738304138, -0.025078874081373215, -0.01729888655245304, -0.011397726833820343], [0.015923939645290375, -0.0070389630272984505, 0.0012308593140915036, -0.013729151338338852, 0.03059670701622963, -0.01942112296819687, -0.033231575042009354, 0.0023743449710309505, 0.0016979012871161103, -0.017047150060534477, -0.02609710395336151, 0.01836908981204033, -0.0009511462994851172, 0.025291165336966515, -0.034617479890584946, -0.014868827536702156, -0.029028989374637604, 0.027537917718291283, -0.0281855296343565, 0.008937078528106213, -0.0011718382593244314, -0.01790936291217804, -0.011985697783529758, -0.016127653419971466, 0.03404613211750984, -0.002170620020478964, 0.012901624664664268, -0.008823246695101261, -0.015814611688256264, -0.01462967973202467, 0.02492562122642994, -0.020542435348033905, -0.027105096727609634, 0.030861344188451767, -0.009900392964482307, -0.030392924323678017, 0.005474839359521866, 0.030691826716065407, 0.021257583051919937, 0.035426750779151917, -0.023916183039546013, 0.025506213307380676, 0.0029218406416475773, 0.023013271391391754, -0.017697373405098915, 0.015039907768368721, -0.0017183003947138786, -0.012983642518520355, -0.005264667794108391, 0.002249661134555936, 0.02475421503186226, -0.010899864137172699, 0.012201226316392422, -0.016594624146819115, 0.027621574699878693, -0.016147207468748093, 0.011001959443092346, -0.012401750311255455, 0.0010716249234974384, -0.0012710789451375604, 0.00682594021782279, -0.006901412270963192, 0.03240586072206497, 0.014927121810615063, -0.02286674454808235, -0.027002211660146713, -0.009758558124303818, 0.02437145821750164, -0.03237634524703026, 0.00217134109698236, 0.007874579168856144, -0.03353988006711006, -0.02529890276491642, 0.01783190481364727, -0.015310563147068024, -0.016719533130526543, -0.019978730008006096, -0.02798561193048954, -0.015327242203056812, -0.014385336078703403, 0.02436812035739422, -0.02490202710032463, -0.009727461263537407, -0.0036369122099131346, -0.019249960780143738, -0.010929523035883904, -0.02702202834188938, -0.004961324390023947, 0.0033045215532183647, -0.0021697813645005226, 0.005746389739215374, 0.007008284796029329, -0.012168188579380512, -0.011368827894330025, 0.0313434936106205, 0.010806259699165821, 0.02928675152361393, 0.016106896102428436, 0.0008764598751440644, 0.010918492451310158, -0.018095796927809715, -0.0015597640303894877, 0.01285307016223669, -0.023683294653892517, -0.030236992985010147, -0.027139633893966675, 0.0009815931553021073, -0.015659498050808907, -0.023801671341061592, -0.003676675260066986, -0.015179397538304329, 0.025036392733454704, -0.028890738263726234, 0.007994026876986027, 0.009966791607439518, -0.013333487324416637, -0.03255549818277359, -0.01544345635920763, 0.02118266373872757, -0.02599521167576313, 0.002621934050694108, -0.004901405889540911, -0.024505972862243652, 0.0037881569005548954, -0.027988171204924583, -0.029715469107031822, 0.03018157370388508, 0.0005835427436977625, 0.011769629083573818, 0.022134214639663696, -0.010317726992070675, 0.002252910751849413, 0.022180650383234024, 0.006177855189889669, -0.00016430948744527996, -0.021570587530732155, 0.015844082459807396, -0.03277334198355675, -0.031866155564785004, -0.02448117919266224, -0.03202374279499054, -0.02130891941487789, 0.015220549888908863, -0.030812373384833336, -0.0048887282609939575, -0.008439523167908192, 0.014792907983064651, -0.017236629500985146, 0.029338646680116653, -0.03345896303653717, -0.01284886710345745, 0.021215427666902542, 0.03157637640833855, 0.017186319455504417, -0.018178459256887436, -0.013487405143678188, 0.0011423282558098435, 0.02803572453558445, 0.013243441469967365, -0.021092955023050308, 0.023036733269691467, -0.004756993614137173, 0.004766549449414015, -0.015590211376547813, -0.02657582424581051, 0.02037147246301174, -0.00597547460347414, 0.011770701967179775, -0.025409923866391182, -0.010523635894060135, -0.0022607932332903147, -0.01853068731725216, 0.029970841482281685, -0.03260736167430878, 0.008458210155367851, -0.01635816879570484, -0.01641497202217579, 0.0257027018815279, 0.034491170197725296, -0.0007252923096530139, -0.02663995511829853, 0.020157013088464737, -0.0062004574574530125, -0.012049426324665546, -0.027896329760551453, 0.0033393579069525003, 0.009391271509230137, 0.025769799947738647, -0.02764470875263214, 0.017517011612653732, 0.0023017674684524536, -0.02026952989399433, -0.00654754601418972, 0.031025493517518044, 0.01924419403076172, 0.034233298152685165, -0.032973941415548325, -0.0042410800233483315, -0.01650221459567547, -0.024451417848467827, 0.029893631115555763, 0.0326373465359211, -0.035248927772045135, 9.533986303722486e-05, 0.011542941443622112, 0.03317955881357193, -0.014163516461849213, -0.01293514296412468, -0.020328139886260033, 0.03052576817572117, -0.030742179602384567, -0.025073174387216568, 0.016341131180524826, -0.031827911734580994, -0.002875985810533166, 2.285028858750593e-05, 0.02051939256489277, -0.018329497426748276, -0.00527483643963933, 0.02577590011060238, -0.03251716494560242, 0.013506910763680935, -0.02802429348230362, -0.023715656250715256, -0.035177845507860184, -0.026745524257421494, -0.024635452777147293, 0.009756907820701599, 0.018852321431040764, -0.026184285059571266, -0.03057602420449257, -0.0161569956690073, 0.024120448157191277, 0.025685815140604973, 0.010827070102095604, 0.03379261866211891, 0.006001915782690048, -0.02108941227197647, -0.020738067105412483, -0.003951911814510822, 0.02590620145201683, 0.014316891320049763, 0.012056240811944008, -0.0028491744305938482, -0.022882219403982162, 0.0232597216963768, -0.03336412087082863, 0.030555982142686844, -0.02383006177842617, 0.016041971743106842, 0.009563867002725601, -0.010694905184209347, 0.01267971284687519, -0.020166002213954926, -0.025796689093112946, -0.03209969028830528, -0.009895744733512402, 0.006667501758784056, 0.0077285016886889935, 0.01415148563683033, 0.0023698024451732635, -0.027979377657175064, 0.01816737838089466, 0.00832173228263855, 0.025465169921517372, -0.031098511070013046, -0.027980873361229897, 0.015011603012681007, -0.003645486431196332, -0.018705302849411964, -0.02620486356317997, 0.0005568290944211185, -0.00916444044560194, -0.028889112174510956, 0.022586612030863762, -0.01539155375212431, -0.005332774017006159, 0.020173562690615654, -0.016780907288193703, 0.03276567533612251, 0.030264228582382202, 0.03293876722455025, -0.034599948674440384, 0.026362713426351547, -0.0195835642516613, 0.030931079760193825, 0.000934545008931309, -0.02673228085041046, -0.027630141004920006, -0.018155112862586975, -0.02694658748805523, 0.027743671089410782, 0.03259395435452461, -0.028379669412970543, 0.016637837514281273, 0.0011805585818365216, -0.02557939663529396, 0.0016879538306966424, -0.0051572369411587715, -0.019505133852362633, 0.014549552462995052, 0.03115745075047016, -0.024325193837285042, 0.0020999079570174217, 0.024131134152412415, -0.010691389441490173, 0.004333542659878731, 0.008968624286353588, 0.027949528768658638, -0.016389941796660423, 0.004273467231541872, 0.015565531328320503, 0.024581752717494965, -0.005920812487602234, 0.01947341114282608, -0.0032239786814898252, 0.021281762048602104, -0.028705043718218803, 0.021219031885266304, -0.032105542719364166, -0.022921480238437653, 0.00961233489215374, 0.021344617009162903, 0.01972770504653454, 0.005512272473424673, 0.03357881307601929, 0.025362100452184677, -0.029771439731121063, -0.02870793640613556, -0.02622789330780506, -0.026184074580669403, 0.034268029034137726, 0.013314648531377316, -0.019548257812857628, -0.008986689150333405, 0.015934480354189873, -0.031196093186736107, 0.007723360788077116, -0.013949432410299778, 0.008157912641763687, 0.03116699308156967, 0.012167707085609436, -0.01299811340868473, 0.028045542538166046, 0.029186874628067017, -0.021342072635889053, -0.02568584308028221, -0.008323407731950283, -0.01197293121367693, -0.023217754438519478, 0.026254896074533463, -0.007610874250531197, -0.016812920570373535, -0.02864019200205803, -0.014202598482370377, -0.012382845394313335, 0.018274327740073204, -0.006424651015549898, -0.008556654676795006, -0.002529490739107132, 0.03326768800616264, 0.016351619735360146, 0.02359309047460556, -0.035339582711458206, 0.01734502986073494, -0.0035560207907110453, -0.014337523840367794, 0.0014721648767590523, 0.0032021556980907917, -0.014827555976808071, 0.011149188503623009, -0.03190448880195618, -0.026168737560510635, -0.009542545303702354, -0.024757729843258858, -0.02846333757042885, 0.024642543867230415, 0.019794918596744537, -0.024279577657580376, 0.012623492628335953, -0.0168156661093235, 0.024601684883236885, -0.032061867415905, -0.031159432604908943, -0.014489837922155857, -0.03454620763659477, 0.024376973509788513, -0.00402086041867733, -0.0006877943524159491, -0.03205198049545288, -0.011327135376632214, -0.03204406425356865, -0.004351496696472168, -0.014169938862323761, 0.0063539291732013226, -0.02926482819020748, 0.0013554214965552092, 0.01317418273538351, 0.01189771480858326, 0.008003498427569866, -0.0035970862954854965, -0.03057107888162136, 0.021380893886089325, -0.022963838651776314, -0.03398137912154198, 0.030329152941703796, 0.0051263305358588696, -0.02374476194381714, 0.0022159104701131582, -0.010415887460112572, -0.018883537501096725, -0.03213601931929588, 0.014901424758136272, 0.011102366261184216, -0.013998353853821754, -0.02868156135082245, -0.025794321671128273, 0.014660125598311424, 0.017301680520176888, 0.03062087669968605, 0.02701900340616703, -0.017938891425728798, 0.01503789983689785, 0.030728694051504135, 0.009934312663972378, -0.03117741271853447, 0.0032721308525651693, 0.0276822317391634, 0.023371698334813118, -0.019648928195238113, 0.018580347299575806, -0.01595998927950859, 0.009424382820725441, 0.01958400569856167, 0.00325589906424284, -0.015045776963233948, -0.0009607490501366556, 0.005350625608116388, 0.019619649276137352, 0.030662652105093002, -0.013639324344694614, -0.03334054723381996, 0.023752762004733086, 0.033981092274188995, 0.03424881026148796, -0.011169067583978176, 0.013770786114037037, -0.03411819040775299, -0.026814885437488556, 0.026002489030361176, -0.03313387185335159, 0.033417198807001114, -0.03422902524471283, 0.025605937466025352, -0.0056554707698524, -0.029629260301589966, -0.011292905546724796, -0.0015107449144124985, -0.001388292177580297, -0.02903611771762371, 0.021455135196447372, 0.024827513843774796, 0.013255149126052856, -0.023976251482963562, 0.023928219452500343, 0.014283250086009502, 0.026357078924775124, -0.013834278099238873, -0.0034670622553676367, -0.030765308067202568, 0.006974539253860712, -0.02127527818083763, 0.0257363673299551, 0.010812275111675262, 0.015069365501403809, 0.0005528612527996302, -0.010673509910702705, 0.030740248039364815, 0.031670261174440384, -0.011320885270833969, -0.00888058077543974, 0.009438153356313705, -0.009942694567143917, -0.03226567432284355, -0.03398796543478966, 0.00033917438122443855, 0.0040008435025811195, 0.03148622065782547, 0.011350144632160664, 0.029703138396143913, 0.001688058371655643, 0.022976435720920563, -0.025552820414304733, 0.021055299788713455, -0.009250537492334843, 0.03476519510149956, 0.020686857402324677, -0.016652559861540794, -0.022624433040618896, -0.007271413691341877, 0.032452989369630814, -0.00818483904004097, 0.02141660451889038, -0.02986261434853077, 0.025194531306624413, -0.015734005719423294, 0.033578209578990936, -0.012236078269779682, 0.004998106975108385, -0.020287783816456795, 0.024572372436523438, -0.007922240532934666, 0.0256256852298975, -0.029775183647871017, -0.009010786190629005, -0.014710849151015282, -0.013669951818883419, -0.0010501224314793944, -0.00028004180057905614, 0.026646025478839874, -0.03245072811841965, -0.01742873527109623, 0.02241668850183487, -0.00604948028922081, 0.02824077382683754, -0.008992237970232964, 0.011952859349548817, 0.008630037307739258, 0.03254586085677147, 0.01709701679646969, 0.0022314079105854034, 0.017282620072364807, 0.02957444079220295, 0.008588745258748531, 0.025867318734526634, -0.005986409727483988, -0.0031402339227497578, -0.024119306355714798, -0.0124110272154212, 0.013912382535636425, 0.02141874097287655, -0.033086441457271576, -0.011805150657892227, 0.013671571388840675, -0.015540809370577335, -0.006915510166436434, 0.02281440794467926, 0.007059447001665831, 0.024484783411026, 0.008570518344640732, -0.026865154504776, 0.0329330749809742, 0.02541755884885788, 0.03267720341682434, -0.00030748933204449713, -0.018620653077960014, -0.01969219744205475, -0.02775021456182003, -0.0002618497528601438, 0.021428877487778664, 0.032829493284225464, -0.0056651984341442585, 0.028141245245933533, -0.026343291625380516, 0.018303949385881424, -0.000948773289564997, -0.03206535056233406, -0.009459998458623886, 