{"fc1.weight": [[-0.012939181178808212, 0.01554647833108902, 0.013241126202046871, -0.01831391640007496, -0.018099090084433556, -0.021365845575928688, 0.0308776143938303, -0.00304832449182868, -0.030733734369277954, -0.008231800980865955, -0.024209575727581978, -0.02258322946727276, -0.0030759177170693874, 0.032972097396850586, -0.011414402164518833, 0.02192705124616623, -0.032648567110300064, 0.01866082474589348, 0.023505734279751778, -0.014495904557406902, 0.003283581929281354, -0.02036960981786251, 0.0275757797062397, 0.01612173579633236, -0.02416291832923889, 0.030841557309031487, 0.030135460197925568, -0.01040377002209425, 0.013153890147805214, 0.013581795617938042, 0.0032921764068305492, 0.008657213300466537, -0.016041571274399757, -0.008652635850012302, -0.021205846220254898, -0.0002227286749985069, 0.02339887246489525, 0.004321793559938669, -0.002637716708704829, 0.002749239793047309, 0.00623309938237071, 0.011952083557844162, -0.035629697144031525, -0.00256974040530622, 0.0321747325360775, -0.012745431624352932, -0.022294066846370697, 0.03374335542321205, 0.011504251509904861, -0.033430248498916626, 0.01312344055622816, -0.018397025763988495, -0.025344857946038246, -0.01247340627014637, 0.03268828243017197, -0.0005611255182884634, -0.005695531610399485, 0.030208123847842216, 0.004252561833709478, -0.01813189685344696, 0.03274606168270111, 0.02194041758775711, -0.01778227463364601, -0.00750623969361186, -0.014523734338581562, 0.032916128635406494, 0.035386621952056885, -0.0005757097387686372, 0.009305359795689583, -0.023579733446240425, -0.01858937181532383, -4.4274740503169596e-05, -0.028998950496315956, -0.01796431466937065, 0.008425969630479813, -0.001930885249748826, -0.030681077390909195, 0.022409752011299133, 0.01778658665716648, 0.018252763897180557, -0.023737413808703423, -0.02055640146136284, -0.005363728851079941, 0.03268159553408623, -0.006042016204446554, 0.032450154423713684, 0.014626126736402512, -0.027281010523438454, 0.0007058746414259076, -0.015261650085449219, -0.01792023703455925, 0.012832751497626305, 0.024204853922128677, -0.025500062853097916, 0.0017975341761484742, -0.03148048371076584, 0.029882870614528656, 0.009454050101339817, -0.0038576896768063307, -0.02559049054980278, 0.001376276952214539, 0.016009319573640823, 0.015093330293893814, 0.03550437092781067, -0.017389504238963127, -0.03508030250668526, -0.0004792381951119751, -0.03507514297962189, -0.01667635329067707, 7.91133934399113e-05, -0.02354408986866474, -0.02240329049527645, 0.014826713129878044, 0.022983258590102196, -0.02829843759536743, -0.00036052754148840904, 0.020716968923807144, -0.012200637720525265, -0.023398583754897118, -0.002654372015967965, 0.010008511133491993, 0.02573205530643463, -0.00707869092002511, -0.02410648763179779, -0.02124604769051075, 0.021991226822137833, 0.01787557639181614, 0.011951558291912079, -0.0077806999906897545, -0.02820146456360817, 0.018756277859210968, 0.0005149147473275661, -0.02496180683374405, 0.01818358711898327, 0.03407420217990875, 0.0016873202985152602, 0.03433503210544586, 0.00533316470682621, 0.03007899783551693, 0.015955958515405655, -0.008938174694776535, -0.02037845551967621, 0.024150284007191658, -0.022405393421649933, 0.010620289482176304, -0.017658192664384842, 0.03512023016810417, -0.031018134206533432, 0.008576558902859688, -0.009040811099112034, -0.0014323681825771928, 0.03251364827156067, 0.04236946254968643, 0.02126341499388218, -0.007415775675326586, 0.013706952333450317, -0.005144069436937571, -0.029871055856347084, 0.009148876182734966, 0.00517762778326869, -0.031335532665252686, -0.012859998270869255, -0.02037302404642105, -0.03556574136018753, -0.029570886865258217, -0.004105126950889826, 0.02915181964635849, -0.03221406042575836, 0.02355378307402134, -0.006086681038141251, 0.03014915995299816, -0.010328187607228756, -0.028834624215960503, 0.02771648019552231, -0.03462544083595276, 0.012025733478367329, -0.0038235196843743324, 0.02099692076444626, -0.008189444430172443, -0.014606822282075882, 0.02706035040318966, 0.008953582495450974, 0.03911340981721878, -0.009943496435880661, 0.03728065267205238, 0.006510226055979729, 0.037845317274332047, -0.014591723680496216, -0.02281646430492401, 0.02512330748140812, -0.009264668449759483, 0.017419639974832535, -0.02370532602071762, -0.027598455548286438, 0.012115512043237686, -0.025446154177188873, -0.02654433064162731, -0.03523177653551102, 0.032132383435964584, 0.007751323748379946, 0.03377199545502663, -0.025005271658301353, -0.023434046655893326, -0.02348821796476841, -0.01918376237154007, 0.020433390513062477, -0.006906862370669842, 0.012155215255916119, 0.014269102364778519, -0.028638426214456558, 0.017816752195358276, 0.01169583946466446, 0.03864105045795441, -0.014697796665132046, 0.011256287805736065, -0.002587832510471344, 0.014063307084143162, 0.03186727687716484, -0.00865132361650467, 0.01648830808699131, 0.02284526266157627, -0.02965805120766163, 0.017132965847849846, -0.030415836721658707, 0.016850130632519722, -0.016633281484246254, -0.025841208174824715, 0.012894668616354465, 0.0042374650947749615, -0.029134856536984444, 0.03139574080705643, 0.012822302058339119, 0.03641130402684212, -0.014860647730529308, -0.021448984742164612, 0.034856606274843216, 0.025608085095882416, 0.017490152269601822, 0.01951037161052227, 0.03175240382552147, 0.026810575276613235, 0.028472986072301865, 0.02811724692583084, 0.01128039974719286, -0.025253599509596825, 0.008854186162352562, -0.011580424383282661, -0.003679839661344886, 0.028282733634114265, 0.00634521571919322, -0.002796351909637451, 0.010861662216484547, -0.012942323461174965, -0.008141915313899517, -0.028423290699720383, -0.010828179307281971, -0.0023930768948048353, 0.013640343211591244, -0.030999161303043365, -0.01303278747946024, 0.02307901531457901, 0.024125531315803528, -0.011761206202208996, -0.015369540080428123, -0.022339826449751854, 0.007862619124352932, -0.01309178490191698, 0.007055949419736862, -0.014191744849085808, 0.003727105213329196, 0.01779833808541298, 0.013734783045947552, 0.008667442947626114, 0.017155751585960388, 0.014992971904575825, 0.0124063016846776, -0.0031149694696068764, 0.020635761320590973, -0.027244506403803825, -0.02914353832602501, -0.0316876582801342, 0.025324776768684387, -0.0235148835927248, 0.0045110988430678844, -0.022920731455087662, -0.0024487189948558807, -0.01946938969194889, -0.008457377552986145, 0.016747571527957916, -0.01895206980407238, 0.02675384283065796, -0.03995127975940704, 0.025545809417963028, -0.027486635372042656, 0.00175814691465348, -0.023426594212651253, 0.008290790021419525, -0.005255071446299553, 0.012975194491446018, 0.008667262271046638, 0.03543022274971008, -0.008974572643637657, -0.026598772034049034, 0.01763802021741867, -0.014859993942081928, 0.016060806810855865, 0.03187229484319687, 0.006098840851336718, -0.01709507219493389, -0.029554329812526703, -0.000859004445374012, -0.0075937858782708645, -0.034025948494672775, 0.008412224240601063, -0.011758454144001007, 0.013808896765112877, -0.013742925599217415, 0.005932676140218973, 0.008515546098351479, 0.006831968668848276, 0.004557865206152201, 0.005208709742873907, 0.00433493684977293, -0.010954596102237701, -0.00741655332967639, -0.010723848827183247, 0.025261126458644867, 0.012350925244390965, 0.02826511673629284, -0.006123880855739117, 0.03234297037124634, 0.020247898995876312, 0.004974022973328829, -0.026902850717306137, -0.024544235318899155, 0.013998186215758324, 0.007918944582343102, 0.02844293601810932, -0.02633628621697426, 0.026897473260760307, -0.014170169830322266, -0.027554359287023544, 0.009273314848542213, -0.008188414387404919, -0.026068149134516716, -0.03646194934844971, -0.0008907746523618698, 0.015150748193264008, -0.03404824435710907, -0.009905504062771797, 0.022541703656315804, -0.01253451406955719, -0.029141344130039215, 0.02169799990952015, 0.008937632665038109, -0.00889400765299797, 0.004608131479471922, 0.024258209392428398, -0.031042827293276787, 0.03284795209765434, -0.016828224062919617, 0.025846829637885094, 0.03212236985564232, -0.005356432870030403, 0.019886253401637077, -0.014526077546179295, -0.012666746973991394, -0.027741380035877228, -0.027599437162280083, 0.028579263016581535, -0.0082502206787467, -0.02256530337035656, 0.026650531217455864, -0.012699331156909466, -0.01986772008240223, -0.011786554008722305, 0.017201149836182594, 0.014644106850028038, -0.019998867064714432, -0.02836458571255207, 0.03294845297932625, -0.023753345012664795, -0.008508836850523949, 0.01665407232940197, 0.0035142742563039064, 0.003156038001179695, -0.007381923031061888, 0.01079208217561245, -0.03408259153366089, -0.01090144645422697, 0.006475219968706369, -0.0029716775752604008, -0.03008665330708027, 0.0319480374455452, -0.02986046113073826, 0.011826814152300358, -0.005601544864475727, -0.025080395862460136, 0.004952162969857454, -0.019460173323750496, -0.02663627453148365, 0.0034916060976684093, 0.015499464236199856, -0.016207143664360046, -0.001415472710505128, 0.027452079579234123, -0.016774164512753487, 0.000531268073245883, -0.021273577585816383, -0.0037168993148952723, 0.003450560849159956, -0.013574209995567799, -0.031177686527371407, -0.02231523208320141, 0.029839178547263145, -0.02141728438436985, 0.026342222467064857, -0.0019606000278145075, -0.0227766465395689, -0.009902602061629295, -0.013520902022719383, 0.0037553373258560896, 0.006555140484124422, -0.026441466063261032, -0.016192981973290443, -0.0077342684380710125, -0.02494652383029461, -0.025232646614313126, -0.02731577679514885, 0.017953475937247276, 0.010435902513563633, 0.024927223101258278, 0.024505427107214928, -0.014191684313118458, -0.010086380876600742, 0.0045301360078155994, 0.03385619446635246, -0.019066153094172478, 0.037297140806913376, -0.020458122715353966, 0.03330187499523163, 0.027154013514518738, -0.0245339497923851, 0.029756266623735428, -0.004777657799422741, 0.030604707077145576, 0.034397173672914505, -0.02992088906466961, -0.028763970360159874, -0.03152268007397652, -0.006053134333342314, 0.021947316825389862, 0.019665423780679703, -0.0030786425340920687, 0.00541001558303833, 0.02015439048409462, -0.01132932398468256, 0.00637880340218544, 0.0036651596892625093, -0.027823004871606827, 0.006207162514328957, 0.0053456793539226055, 0.0021533232647925615, 0.035271719098091125, 0.008819563314318657, 0.033933136612176895, 0.01809493824839592, -0.005060555413365364, -0.01944873295724392, -0.007075437810271978, 0.01990046352148056, 0.03414887934923172, -0.004258327651768923, 0.011332262307405472, 0.03271324932575226, 0.011559197679162025, -0.00024025895982049406, 0.018662355840206146, -0.0012951375683769584, -0.021035699173808098, -0.01830121874809265, 0.010683431290090084, -0.01854841411113739, -0.014789609238505363, -0.015445183031260967, -0.01515630166977644, -0.023092055693268776, 0.009279023855924606, 0.00028546334942802787, -0.024474691599607468, 0.02445822022855282, 0.0039315917529165745, 0.033104851841926575, 0.027041375637054443, -0.024891983717679977, 0.005469643045216799, 0.03912185877561569, 0.017696678638458252, 0.02335251495242119, -0.027998341247439384, 0.03290211781859398, -0.0031549332197755575, -0.0016692900098860264, -0.002290652133524418, -0.0031005877535790205, -0.03420139476656914, 0.007168678566813469, 0.00896610040217638, -0.0020831474103033543, 0.0011266539804637432, 0.010511147789657116, 0.03646891564130783, 0.03483752906322479, 0.011603690683841705, -0.024272870272397995, -0.010569047182798386, -0.01045791245996952, 0.023426759988069534, 0.033101361244916916, 0.02196284383535385, -0.027857691049575806, -0.01717527210712433, 0.03583573177456856, -0.013264083303511143, 0.01951659470796585, 0.020956221967935562, -0.02705100178718567, -0.013156033121049404, 0.0045463028363883495, 0.009678816422820091, 0.011482476256787777, -0.003115870291367173, -0.026985904201865196, -0.012012576684355736, -0.02156904526054859, 0.005983566865324974, -0.00940394401550293, -0.021538086235523224, 0.0017009119037538767, 0.030708573758602142, -0.030507663264870644, -0.013796788640320301, -0.030404692515730858, 0.0018074664985761046, -0.0216784980148077, 0.009019372053444386, -0.01651352271437645, -0.0047574774362146854, -0.02421722002327442, 0.025953004136681557, 0.019108282402157784, -0.025418030098080635, -0.009744065813720226, -0.015987902879714966, 0.0109828170388937, 0.03363827243447304, -0.013701875694096088, 0.027959436178207397, 0.02961934357881546, -0.016669584438204765, -0.014384342357516289, 0.009514548815786839, -0.02362874522805214, 0.015979012474417686, 0.03665962070226669, 0.030197210609912872, 0.006253901869058609, 0.016333647072315216, 0.030544184148311615, 0.01294089388102293, 0.021928703412413597, -0.007602803874760866, 0.02110728807747364, -0.0009161655325442553, 0.0062462990172207355, 0.0202608872205019, 0.011499755084514618, -0.021883176639676094, 0.01906955987215042, -0.010876915417611599, 0.024779997766017914, 0.012380259111523628, -0.00014226348139345646, -0.0016490565612912178, 0.014387818984687328, 0.02769698016345501, 0.0009173757280223072, 0.0003690401208586991, -0.008667117916047573, 0.002319981576874852, -0.022209204733371735, -0.0033126790076494217, -0.026257425546646118, -0.03086579218506813, 0.03515596687793732, -0.013173755258321762, -0.03245977312326431, -0.006164588034152985, 0.012063066475093365, 0.021074457094073296, -0.008286277763545513, 0.018658863380551338, 0.009148165583610535, 0.007568690925836563, -0.0020097405649721622, 0.003166479291394353, -0.02290261536836624, 0.016068775206804276, 0.015675030648708344, 0.01993860863149166, 0.011960238218307495, 0.019017966464161873, -0.033885858952999115, 0.016529761254787445, 0.018800554797053337, -0.03175731003284454, -0.005165194161236286, 0.020247308537364006, -0.02966292016208172, 0.009038751013576984, -0.02662537433207035, -0.024994954466819763, 0.024304162710905075, 0.031361304223537445, 0.006897194776684046, 0.029309608042240143, -0.019705601036548615, 0.0010409792885184288, 0.005944682750850916, -0.00634723948314786, 0.006577770691365004, -0.022865112870931625, -0.0052296812646090984, -0.028780803084373474, -0.012557861395180225, 0.015989530831575394, -0.008905056864023209, -0.023468509316444397, -0.0007945956895127892, -0.005983374081552029, 0.020675938576459885, 0.003915364854037762, -0.027306271716952324, 0.016593964770436287, 0.00433179410174489, 0.00851855706423521, -0.029059069231152534, 0.016668306663632393, 0.006724951788783073, 0.023672254756093025, 0.020027605816721916, -0.018564844503998756, -0.004639236256480217, -0.013712277635931969, 0.029013464227318764, -0.019737211987376213, -0.03771623224020004, -0.028284884989261627, -0.0291481614112854, -0.010611139237880707, -0.02719218097627163, -0.0022672158665955067, -0.011906426399946213, 0.025284327566623688, 0.017632966861128807, 0.028039811179041862, -0.02080857753753662, -0.010590923018753529, 0.000834030332043767, -0.012670868076384068, -0.018552670255303383, -0.00660525681450963, 0.008423585444688797, 0.03349859640002251, -0.022914299741387367, 0.009582696482539177, 0.027530957013368607, 0.028886280953884125, 0.001961852191016078, -0.02345401793718338, -0.019018629565835, 0.013652930967509747, -0.018753781914711, 0.005272611975669861, -0.0025996079202741385, -0.010676363483071327, -0.03312963619828224, 0.010768231935799122, 0.023516254499554634, -0.0007716710679233074, -0.009407869540154934, 0.033491916954517365, -0.004805514123290777, -0.03141501545906067, 0.004959914367645979, 0.0017789506819099188, 0.026362232863903046, 0.029194528236985207, -0.02212607115507126, -0.031001519411802292, -0.022489769384264946, 0.005554105155169964, -0.030079083517193794, -0.015385706909000874, 0.002314898883923888, 0.011620191857218742, -0.00047070198343135417, 0.03282991424202919, 0.03165239468216896, 0.019494323059916496, 0.025792956352233887, -0.011156772263348103, -0.015676604583859444, 0.00018725368136074394, 0.011672327294945717, -0.02792237140238285, 0.0022417211439460516, -0.03435850515961647, 0.019702548161149025, 0.016596093773841858, 0.009346974082291126, -0.011082661338150501, 0.01250249333679676, 0.01418431755155325, 0.004872635938227177, -0.00963085051625967, 0.027240866795182228, 0.0059671844355762005, -0.024676194414496422, 0.03216871991753578, 0.005756689701229334, -0.030182112008333206, -0.016335977241396904, 0.009326181374490261, 0.02510925382375717, 0.005364250857383013, -0.026852943003177643, 0.003447978524491191, -0.017179060727357864, 0.015472873114049435, -0.032911915332078934, 0.0010768250795081258, -0.03357291966676712, 0.021529197692871094, 0.0011398755013942719, 0.0009046720806509256, 0.024822168052196503, 0.014676942490041256, 0.0022675865329802036, -0.018744580447673798, 0.035436779260635376, -0.027994194999337196, 0.029203219339251518, 0.005652402527630329, -0.013419773429632187, -0.01587877795100212, -0.023676443845033646, 0.001044888747856021, 0.02275957353413105, 0.004192129708826542, 0.00536060705780983, -0.001865876722149551, -0.018669918179512024, 0.032906703650951385, 0.00021393250790424645, 0.024144111201167107, 0.022387215867638588, 0.007178529631346464, -0.02262011542916298, 0.017430422827601433, 0.016179611906409264, 0.011783289723098278, 0.010661935433745384, 0.024508049711585045, 0.024364586919546127, 0.013705846853554249, 0.003823087317869067, -0.03318797051906586, -0.018281491473317146, 0.02324497327208519, -0.01066767517477274, -0.021682143211364746, -0.029244810342788696, 0.031507495790719986], [0.007679977919906378, 0.03128327429294586, 0.015288219787180424, 0.0017420698422938585, 0.015659261494874954, -0.01435209158807993, 0.025734122842550278, 0.015434040687978268, -0.027689723297953606, -0.034612417221069336, 0.0335860438644886, -0.03522093966603279, -0.013755397871136665, -0.021602420136332512, 0.0020526545122265816, -0.012073962017893791, -0.028453057631850243, 0.010285082273185253, 0.023784004151821136, -0.029375525191426277, 0.004071950912475586, 0.024167262017726898, -0.016274994239211082, 0.02916036732494831, -0.023550499230623245, 0.029065610840916634, -0.005202104803174734, 0.0004970859736204147, -0.014661588706076145, -0.03279002010822296, 0.03469294682145119, 0.013133895583450794, -0.029982764273881912, -0.017337223514914513, -0.002888972871005535, 0.024166394025087357, 0.0265063289552927, -0.019781339913606644, -0.026117945089936256, -0.0029350798577070236, -0.006364957429468632, 0.01939256489276886, 0.001918977010063827, -0.035090506076812744, 0.004212371073663235, -0.010504511184990406, 0.03135102242231369, -0.022076759487390518, 0.005045947153121233, -0.03346199542284012, -0.015413491986691952, -0.028303897008299828, -0.034752123057842255, -0.02814360521733761, -0.00920775718986988, 0.0018982843030244112, -0.02920614741742611, -0.030232587829232216, 0.013784793205559254, -0.008814411237835884, -0.0336616151034832, -0.011042020283639431, -0.03181157633662224, 0.02137596346437931, 0.011796684004366398, 0.021260306239128113, -0.008241350762546062, -0.01645132713019848, -0.01782079041004181, 0.03277275338768959, -0.0033956526312977076, -0.023801710456609726, 0.024293746799230576, -0.0280646663159132, 0.01559104397892952, 0.028647499158978462, -0.020679103210568428, 0.008595594204962254, -0.0077288467437028885, 0.01407062541693449, 0.02405758574604988, 0.026339882984757423, -0.0019711481872946024, 0.02667849510908127, 0.01871902495622635, -0.03606501966714859, 0.017270198091864586, -0.013737283647060394, -0.019709207117557526, -0.022948460653424263, -0.0014860513620078564, 0.03506091237068176, 0.005790856201201677, -0.008438801392912865, 0.017855040729045868, -0.00852951593697071, 0.010639599524438381, 0.008640958927571774, 0.01743304170668125, 0.00544088426977396, -0.020212233066558838, 0.02425112947821617, -0.033025987446308136, -0.013512085191905499, -0.026108194142580032, -0.018239453434944153, -0.021905099973082542, 0.021295655518770218, 0.016492391005158424, -0.010173745453357697, 0.013383995741605759, -0.02882629632949829, -0.0019706585444509983, 0.009537977166473866, -0.026646539568901062, 0.006957046687602997, -0.016697824001312256, -0.016261115670204163, 0.014052842743694782, 0.01253873948007822, 0.0008292825077660382, -0.014623857103288174, 0.002512946492061019, -0.013379769399762154, -0.004182544536888599, 0.011184187605977058, -0.024202564731240273, 0.013667930848896503, 0.019332848489284515, 0.030359622091054916, 0.0017523564165458083, -0.03473188355565071, -0.016738010570406914, 0.003410378936678171, 0.011043278500437737, 0.019215203821659088, -0.033905114978551865, 0.0068414644338190556, -0.002469569444656372, -0.00015118581359274685, -0.0006101365434005857, 0.016848742961883545, 0.008109829388558865, 0.028477530926465988, -0.022850893437862396, 0.03366362676024437, -0.02230622060596943, 0.02213343046605587, -0.016874214634299278, 0.018294543027877808, 0.016168370842933655, -0.029774948954582214, -0.011713026091456413, -0.0035256529226899147, -0.031088579446077347, 0.019602905958890915, -0.02000434510409832, 0.033811286091804504, -0.029454056173563004, -0.0033818737138062716, -0.0010561970993876457, -0.015495979227125645, -0.0203899797052145, -0.006574912462383509, 0.014082432724535465, -0.03401551395654678, 0.0021868308540433645, -5.414766928879544e-05, -0.004950009752064943, 0.004267866723239422, -0.023712292313575745, 0.0199123527854681, -0.026108959689736366, 0.021371111273765564, 0.01872956193983555, 0.02566809393465519, -0.032438475638628006, -0.02937658131122589, 0.02530571259558201, 0.015420760028064251, 0.02800554782152176, 0.020123422145843506, 0.020408524200320244, -0.0332440622150898, -0.03380700200796127, -0.018270686268806458, -0.0039069559425115585, -0.014511975459754467, -0.02330876886844635, -0.008095022290945053, -0.02330857329070568, 0.005593607667833567, -4.945133696310222e-06, 0.01687685027718544, 0.02418847195804119, 0.01568329706788063, -0.03494369611144066, 0.02313886396586895, -0.03113454207777977, 0.03114933706820011, -3.467557326075621e-05, -0.03055642358958721, -0.02104908972978592, -0.012608454562723637, 0.0001652059581829235, -0.006752569694072008, -0.022857414558529854, 0.020887838676571846, 0.03410836681723595, 0.024625346064567566, -0.01992502063512802, -0.01511039026081562, 0.01825125887989998, -0.005342978052794933, -0.0008649937226437032, 0.002310536103323102, -0.011848392896354198, -0.02307138592004776, -0.029276622459292412, 0.0011787523981183767, 0.008760765194892883, 0.010637090541422367, -0.006253896281123161, 0.032159943133592606, 0.021910883486270905, 0.004606135655194521, -0.01322921272367239, 0.021712064743041992, -0.021331895142793655, 0.019123617559671402, -0.03002331405878067, 0.0065794773399829865, 0.015681779012084007, 0.013669749721884727, -0.028189653530716896, -0.01993616856634617, 0.02152322791516781, -0.02257494069635868, 0.03523477911949158, -0.019288305193185806, 0.0169527530670166, 0.003018163377419114, -0.00787602923810482, 0.030898278579115868, 0.012795710004866123, 0.01700395718216896, 0.03516772389411926, -0.007077646907418966, 0.021544737741351128, -0.0022064943332225084, -0.01835421659052372, 0.0007807420915924013, -0.013869373127818108, 0.03244450315833092, -0.018355119973421097, 0.010595027357339859, -0.02840396575629711, 0.02537556365132332, 0.015073314309120178, 0.0005837647477164865, -0.01772434264421463, -0.03593962639570236, -0.0003250513691455126, 0.02948552556335926, 0.008012869395315647, -0.007833539508283138, -0.0028024339117109776, -0.0036238243337720633, 0.02971561811864376, -0.02109687402844429, -0.001692377612926066, 0.014441682025790215, -0.02277762070298195, 0.018939172849059105, -0.003658437170088291, -0.011339775286614895, 0.026170821860432625, 0.022893954068422318, 0.028622429817914963, 0.02361961081624031, -0.03321614861488342, 0.0330720916390419, -0.013753069564700127, 0.020261701196432114, 0.016268279403448105, -0.01591467298567295, -0.022621162235736847, 0.020714171230793, -0.03035038895905018, -0.007364211138337851, -0.007362679578363895, 0.03488343581557274, -0.004015000537037849, 0.00953848846256733, -0.019566522911190987, -0.010290561243891716, -0.016782550141215324, -0.0034604016691446304, 0.009629890322685242, 0.02115081436932087, -0.03095986321568489, 0.033096108585596085, 0.03379661217331886, 0.01184242032468319, -0.012145545333623886, -0.012285957112908363, -0.021406851708889008, -0.00425246637314558, -0.03029109723865986, -0.0242665633559227, -0.018482228741049767, 0.011410857550799847, 0.012739179655909538, 0.027502508834004402, 0.031475987285375595, 0.007282773032784462, 0.024635491892695427, -0.007182759698480368, -0.026984598487615585, -0.02531948685646057, 0.026676032692193985, -0.03456881642341614, 0.021153297275304794, 0.02605399116873741, 0.02209674008190632, -0.020134804770350456, -0.03388039022684097, 0.03430081158876419, 0.025509851053357124, -0.0221554022282362, -0.027969270944595337, -0.034471411257982254, 0.032526493072509766, -0.002918716287240386, 0.004902179352939129, 0.0259444247931242, 0.03157531097531319, -0.000186029210453853, -0.01889922469854355, -0.03171563148498535, -0.017428845167160034, -0.016333268955349922, -0.011915692128241062, -0.0020961693953722715, -0.013244157657027245, -0.007569971960037947, -0.035760074853897095, -0.028989054262638092, 0.012164680287241936, 0.020366335287690163, -0.031245652586221695, -0.01579876057803631, -0.02308068610727787, -0.013382138684391975, 0.02289094775915146, -0.012982706539332867, 0.022263996303081512, -0.028493385761976242, -0.0003450015210546553, 0.0328376442193985, 0.013192485086619854, -0.014823275618255138, 0.014757095836102962, 0.0010257066460326314, -0.005547995213419199, -0.03484092280268669, 0.010375388897955418, 0.008288981392979622, 0.03161270171403885, 0.012082475237548351, -0.024670269340276718, -0.02982671558856964, -0.029560348019003868, 0.010733989998698235, 0.008965286426246166, -0.02571089006960392, 0.001961010042577982, 0.0010891965357586741, 0.03139985725283623, -0.021828895434737206, -0.031714849174022675, -0.007991370745003223, 0.0010373517870903015, -0.007567071821540594, -0.01789284683763981, -0.0225327517837286, 0.03296930715441704, -0.0007996613858267665, 0.016548138111829758, 0.006578503642231226, -0.00831632874906063, -0.030162030830979347, -0.03575083240866661, -0.0327460952103138, -0.03348355367779732, -0.015100492164492607, 0.009008464403450489, 0.023947345092892647, -0.005694256164133549, -0.012428941205143929, 0.008746646344661713, 0.03387768939137459, 0.02063601464033127, 0.0006163004436530173, -0.0025259265676140785, -0.01547987386584282, -0.029954947531223297, -0.018040359020233154, 0.02931051328778267, 0.026027416810393333, 0.014870746992528439, -0.021597765386104584, 0.007132311817258596, 0.023027697578072548, 0.031949419528245926, 0.029641279950737953, 0.014978070743381977, -0.002020918531343341, -0.01671879179775715, 0.01587020233273506, -0.0331374891102314, -0.012022211216390133, -0.018325330689549446, 0.014836120419204235, 0.015755917876958847, -0.033355049788951874, 0.03247515857219696, 0.005420160945504904, -0.005270842462778091, 0.010302853770554066, -0.00533412816002965, 0.007258802652359009, 0.018531834706664085, -0.00803329236805439, -0.023189757019281387, -0.02601647935807705, 0.033713534474372864, -0.030508829280734062, 0.028569990769028664, 0.005788839887827635, 0.01496304664760828, -0.007169476710259914, -0.00514836935326457, 0.018942689523100853, -0.013122539967298508, -0.013983679004013538, 0.023154769092798233, 0.021931275725364685, -0.0014991028001531959, 0.003903097240254283, 0.010845762677490711, 0.014267206192016602, 0.021093180403113365, -0.015812093392014503, 0.01898203231394291, 0.025986498221755028, 0.010320400819182396, -0.008102959021925926, -0.0016794255934655666, 0.029894893988966942, -0.02271965518593788, 0.01921086758375168, 0.014594047330319881, -0.017686156556010246, -0.01282923761755228, 0.029928011819720268, 0.028897307813167572, 0.021255290135741234, 0.013097569346427917, -0.02922969125211239, 0.0303632989525795, -0.016822192817926407, 0.0006467307102866471, 0.013063264079391956, 0.025038301944732666, 0.018434466794133186, -0.014673290774226189, 0.005720901768654585, 0.026047147810459137, 0.024208996444940567, 0.031846627593040466, -0.027788393199443817, -0.012984105385839939, 0.016872644424438477, -0.023544250056147575, 0.007584438659250736, 0.011164184659719467, -0.02590470388531685, 0.025249209254980087, 0.006371687166392803, 0.0049601332284510136, -0.00950903445482254, -0.01509900763630867, 0.0029283007606863976, -0.011923080310225487, 0.020527292042970657, -0.03149615228176117, 0.008261078968644142, -0.002524940762668848, -0.027055585756897926, -0.014506759122014046, -0.015050905756652355, -0.012719486840069294, 0.014449304901063442, -0.01878070831298828, 0.01436510868370533, -0.035187188535928726, 0.02676672674715519, -0.02180716022849083, -0.027545468881726265, -0.016747014597058296, -0.032124053686857224, -0.012913782149553299, -0.008995382115244865, 0.0129226790741086, -0.016412578523159027, -0.013479257933795452, -0.00906682200729847, -0.02335573360323906, -0.02788911759853363, 0.03091275319457054, 0.02600456215441227, -0.03201684355735779, 0.012462642975151539, -0.011869688518345356, 0.014552687294781208, -0.014403736218810081, 0.005400444380939007, 0.026761818677186966, 0.01947748474776745, -0.0236675962805748, 0.02865220420062542, -0.01333773322403431, -0.0008555224048905075, 0.0016452653799206018, 0.01154286228120327, -0.02625381574034691, 0.014933153055608273, 0.028934260830283165, -0.006084153428673744, 0.023103920742869377, -0.01816668175160885, 0.025907620787620544, -0.006198267452418804, -0.013535702601075172, -0.015321943908929825, 0.0057982830330729485, -0.022566761821508408, -0.018841350451111794, -0.029836449772119522, -0.031201327219605446, -0.02338014543056488, 0.004757557064294815, 0.00992072094231844, -0.0351514108479023, -0.002370225265622139, 0.021568678319454193, -0.03132794797420502, 0.007555714808404446, -0.026701796799898148, -0.01234976015985012, -0.010384107008576393, 0.009365367703139782, 0.01651826873421669, -0.013597248122096062, 0.015379738993942738, -0.03202090784907341, 0.021802514791488647, -0.022231636568903923, 0.00024171014956664294, -0.02838270738720894, 0.019985543563961983, -0.025774195790290833, 0.02835100330412388, -0.006693063769489527, -0.016987821087241173, 0.030419599264860153, -0.021953782066702843, 0.00545731745660305, 0.034766681492328644, -0.006134278140962124, -0.002599405823275447, -0.009334197267889977, -0.0023199545685201883, -0.035170603543519974, 0.013396450318396091, -0.015186000615358353, -0.0006764475838281214, -0.022203154861927032, -0.02262844331562519, 0.026884140446782112, 0.0010668308241292834, 0.028887946158647537, 0.031397026032209396, -0.03252753987908363, 0.016550056636333466, 0.03175633028149605, 0.022747790440917015, -0.024945177137851715, -0.0011351099237799644, -0.00968884862959385, 0.03326510637998581, 0.03109852224588394, 0.016435908153653145, 0.021995142102241516, -0.02921726182103157, 0.006650950759649277, -0.029949717223644257, -0.032630935311317444, 0.01902153715491295, 0.025747254490852356, -0.006633954122662544, 0.010085278190672398, 0.01487691979855299, -0.00015011128562036902, 0.0074763125739991665, 0.01548547763377428, 0.022952677682042122, -0.002214703243225813, -0.034056100994348526, -0.005752387456595898, -0.022951211780309677, -0.0004776006971951574, -0.01131135132163763, -0.021909194067120552, -0.0019099386408925056, 0.031968649476766586, 0.01825522817671299, -0.020793629810214043, 0.02181924693286419, 0.016097210347652435, 0.020761609077453613, -0.009201970882713795, -0.0013761541340500116, -0.008754211477935314, 0.02296249195933342, -0.011223758570849895, 0.0048641241155564785, 0.02877461165189743, -0.01860208436846733, -0.022068781778216362, 0.012163401581346989, -0.00362687767483294, -0.011905673891305923, -0.022957874462008476, 0.023805072531104088, 0.0066321836784482, 0.018754513934254646, 0.007366597186774015, 0.012064708396792412, -0.020468691363930702, -0.02772718109190464, 0.03026537597179413, 0.01293033454567194, 0.03585461899638176, -0.006208700593560934, 0.032216884195804596, 0.0032002150546759367, -0.008400977589190006, 0.0016225401777774096, 0.0294831283390522, 0.015225124545395374, -0.033606912940740585, 0.004181021358817816, 0.011922280304133892, -0.020266979932785034, 0.014812895096838474, 0.0024442668072879314, -0.003621109761297703, 0.010899269953370094, 0.018127260729670525, -0.019470494240522385, -0.03218264877796173, -0.010947354137897491, 0.0018100745510309935, 0.03305919095873833, 0.023905005306005478, -0.021355554461479187, 0.024136189371347427, 0.02528095804154873, -0.006973487325012684, 0.01997917704284191, -0.007977436296641827, 0.022118687629699707, 0.024379054084420204, -0.012569247744977474, 0.034983109682798386, 0.0003781765408348292, 0.0003973417333327234, -0.02877468802034855, -0.012769395485520363, -0.00126826879568398, 0.0066584390588104725, 0.029703272506594658, 0.01758890599012375, -0.0076001593843102455, -0.032504573464393616, 0.0029876099433749914, -0.009128584526479244, -0.002654991578310728, 0.03420493006706238, -0.014433254487812519, -0.0059199463576078415, 0.03130001202225685, -0.025026878342032433, -0.0131545290350914, 0.022677106782794, -0.032799627631902695, -0.01132847648113966, 0.012995146214962006, -0.02236289717257023, 0.012401578947901726, 0.00881222728639841, -0.001991559751331806, -0.035184357315301895, 0.012850510887801647, -0.01287952158600092, 0.032246313989162445, 0.015823984518647194, 0.004002359230071306, 0.012848316691815853, 0.0183817520737648, -0.019716452807188034, 0.009717362001538277, -0.010980047285556793, 0.026154346764087677, -0.03398922458291054, -0.0023086676374077797, -0.005977829452604055, 0.02721937745809555, -0.03137591481208801, -0.005857460200786591, 0.006059950217604637, 0.009258856065571308, -0.013725708238780499, -0.031913913786411285, -0.005999179091304541, 0.023330092430114746, -0.024964632466435432, 0.035147495567798615, 0.030570419505238533, 0.008999167941510677, -0.03291718289256096, 0.01822824217379093, -0.022119008004665375, 0.007715321145951748, -0.018681814894080162, -0.013725602068006992, -0.016555463895201683, -0.035687487572431564, -0.008026286028325558, 0.008109910413622856, 0.012233169749379158, 0.03257574513554573, -0.026039566844701767, -0.01526990719139576, -0.009724071249365807, -0.03308796510100365, 0.003585143480449915, 0.028343357145786285, 0.00012218119809404016, 0.024392662569880486, -0.023321352899074554, -0.02400319091975689, 0.02866346389055252, 0.007680676411837339, -0.036098163574934006, 0.013620350509881973, 0.006277127657085657, 0.022561529651284218, 0.012711219489574432, -0.024355977773666382, -0.012128978967666626, 0.02543913573026657, -0.020677251741290092, -0.02125868760049343, -0.02506047673523426, 0.029260126873850822, -0.010959605686366558, 0.012852756306529045, 0.003250385634601116, -0.029058057814836502, -0.014585518278181553, -0.014737870544195175], [0.02712293341755867, 0.033025629818439484, -0.028114240616559982, 0.028506942093372345, -0.027814971283078194, -0.014663330279290676, 0.02867540530860424, 0.027612468227744102, -0.023259859532117844, 0.010527239181101322, -0.027152273803949356, 0.010319150984287262, -0.02060256153345108, -0.004287767689675093, -0.021772056818008423, 0.01777777075767517, -0.03121688775718212, 0.012038107961416245, -0.024211915209889412, 0.025636395439505577, 0.021484320983290672, -0.013826697133481503, 0.004710855428129435, -0.03434211015701294, 0.03241501748561859, 0.01635061763226986, 0.028530342504382133, 0.010612448677420616, -0.010520454496145248, -0.022002268582582474, -0.03280229493975639, -0.0336889773607254, 0.017615903168916702, 0.030667224898934364, 0.03448370844125748, 0.007360025774687529, -0.029352819547057152, -0.02855788730084896, -0.0217761043459177, 0.019208639860153198, 0.02279478870332241, -0.03555493801832199, -0.010996301658451557, 0.004464213270694017, -0.025843529030680656, 0.01278723031282425, 0.012414736673235893, 0.03269687294960022, -0.026211170479655266, 0.01965128444135189, -0.006885878276079893, -0.0018442785367369652, 0.002885500667616725, 0.00051318877376616, 0.013568277470767498, 0.031192732974886894, 0.001085072522982955, 0.020251311361789703, -0.035123102366924286, 0.017563199624419212, 0.00037510006222873926, 0.0211319662630558, -0.0352177657186985, -0.02707136608660221, 0.017090247943997383, -0.026964832097291946, -3.478689905023202e-05, 0.02458418533205986, -0.01892753690481186, -0.0017602847656235099, 0.029788626357913017, -0.03490528091788292, -0.01749131642282009, 0.01856079325079918, -0.0072014471516013145, -0.035096120089292526, -0.021945707499980927, -0.0007205180008895695, -0.03367677330970764, 0.008317084982991219, -0.03495873510837555, 0.012408772483468056, 0.019068801775574684, 0.033609695732593536, -0.026026923209428787, -0.010418817400932312, -0.025276029482483864, 0.03438309580087662, 0.007583796977996826, -0.01803004741668701, -0.00429399311542511, -0.0020085310097783804, -0.005921901203691959, -0.01982446201145649, -0.006349359173327684, -0.021673643961548805, -0.01617715135216713, -0.0096376221626997, -0.010426945984363556, 0.028855135664343834, -0.017583578824996948, -0.021208632737398148, 0.028208812698721886, -0.004398667253553867, -0.023071756586432457, 0.013059282675385475, -0.03151054307818413, 0.01664404198527336, 0.03369547799229622, -0.03183860704302788, 0.009455232881009579, -0.0307161882519722, -0.029659375548362732, -0.034982021898031235, 0.03351466730237007, -0.01833699271082878, 0.019791174679994583, -0.003407570766285062, -0.007006830535829067, 0.016353245824575424, 0.0314054973423481, -0.01723267324268818, -0.0011315752053633332, 0.02215154841542244, 0.0012976306024938822, -0.01630428619682789, 0.02508046291768551, 0.02911853976547718, -0.012916178442537785, 0.004576961509883404, -0.0040898071601986885, 0.00390647491440177, 0.03324122354388237, 0.0208823774009943, 0.0060339937917888165, 0.003951492253690958, -0.02471054159104824, -0.027420086786150932, 0.00727038411423564, -0.023873651400208473, 0.03242762014269829, 0.01510638277977705, 0.015162860974669456, 0.013266662135720253, 0.025112535804510117, -0.012250379659235477, 0.024716079235076904, -0.0012020017020404339, -0.014366285875439644, -0.025547118857502937, -0.017461499199271202, 0.0042533911764621735, -0.02443842776119709, 0.015412787906825542, -0.024885451421141624, 0.0043432442471385, 0.034915465861558914, 0.01868860237300396, 0.0070771221071481705, 0.022959962487220764, 0.028667978942394257, 0.013459079898893833, -0.01756502129137516, 0.006810008082538843, -0.005553405731916428, -0.01468728482723236, -0.0026611844077706337, 0.03165050223469734, 0.010499835945665836, -0.005841134116053581, 0.018330084159970284, -0.03335145488381386, 0.017122317105531693, -0.011041466146707535, -0.023735633119940758, -0.01653921790421009, -0.0015331745380535722, 0.0026640293654054403, -0.009334295988082886, 0.01800401322543621, 0.009394047781825066, -0.003052227199077606, -0.03136000409722328, 0.03632289543747902, 0.011689284816384315, 0.02432062476873398, -0.003800678066909313, -0.026878468692302704, -0.00425133528187871, 0.029147149994969368, -0.013097169809043407, -0.02951296791434288, 0.01739192195236683, -0.029856199398636818, -0.003030634019523859, -0.012572110630571842, -0.00821940042078495, 0.02343100681900978, -0.013657105155289173, 0.0011763478396460414, -0.017794927582144737, 0.0041392226703464985, -0.0035420036874711514, -0.01892879791557789, 0.023637741804122925, -0.018291344866156578, -0.015736469998955727, 0.034097522497177124, -0.0002824908006004989, 0.003545126412063837, -0.001588676474057138, 0.010927023366093636, 0.018529869616031647, -0.0009431180078536272, -0.015002788975834846, -0.009942632168531418, 0.03009960614144802, -0.009618657641112804, 0.03443748131394386, 0.015326231718063354, -0.013627929612994194, 0.01889294944703579, -0.008482326753437519, 0.011839202605187893, -0.013193921186029911, -0.02655913680791855, 0.023658735677599907, -0.035977598279714584, 0.016327498480677605, 0.03471267223358154, 0.030420437455177307, 0.023149635642766953, 0.016646262258291245, 0.013998402282595634, 0.013766354881227016, 0.03241409361362457, 0.013248092494904995, 0.03753228858113289, 0.0072825271636247635, -0.007221811451017857, 0.030025362968444824, -0.025378916412591934, 0.018467329442501068, -0.0005680023459717631, -0.03346657380461693, -0.01980057917535305, 0.026944709941744804, 0.002779648406431079, 0.016034387052059174, -0.01428849995136261, -0.02360782027244568, -0.0012828325852751732, 0.005714672617614269, -0.02529345639050007, 0.013338529504835606, 0.009572134353220463, -0.024777976796030998, -0.019322706386446953, 0.01022249273955822, -0.011644918471574783, -0.030402857810258865, -0.026429565623402596, 0.024414662271738052, 0.022692320868372917, -0.029763726517558098, -0.028801053762435913, -0.028116950765252113, 0.008583543822169304, -0.020339803770184517, 0.005094215273857117, -0.034376926720142365, 0.015503722243010998, 0.012696253135800362, -0.03250265493988991, -0.005709166172891855, 0.02835717424750328, -0.028826218098402023, -0.01872919499874115, -0.02125389501452446, 0.015315270982682705, -0.01525084488093853, -0.02226155251264572, 0.015467260964214802, 0.030290717259049416, -0.0024279283825308084, -0.030062921345233917, -0.008742914535105228, -0.03456640616059303, -0.011346746236085892, -0.02361777238547802, 0.01737196557223797, 0.02609039470553398, 0.0030979523435235023, -0.031023072078824043, 0.036159634590148926, -0.022008022293448448, -0.0340537503361702, 0.0003850865177810192, -0.008275738917291164, 0.006122443359345198, -0.00652011763304472, 0.025049256160855293, 0.02238895185291767, -0.02775723673403263, 0.01807449199259281, 0.012416287325322628, 0.023325368762016296, -0.027468739077448845, 0.007699999492615461, -0.0021479730494320393, -0.03373052552342415, 0.021279839798808098, 0.0320853516459465, 0.002654306124895811, 0.033304404467344284, -0.0017785754753276706, -0.02423432283103466, 0.011281517334282398, -0.011335710063576698, 0.0036122191231697798, 0.026548689231276512, 0.004115163814276457, -0.008227869868278503, -0.01625712588429451, -0.017100883647799492, 0.010842807590961456, -0.005148677621036768, -0.022783426567912102, -0.03064585290849209, 0.024922244250774384, 0.006696038413792849, 0.03246639296412468, -0.03391909971833229, -0.002208936959505081, -0.012212704867124557, -0.0090700788423419, 0.0003767389862332493, 0.008651522919535637, -0.02374594658613205, -0.029375003650784492, -0.014397405087947845, -0.02115558832883835, -0.020250646397471428, 0.014721076935529709, 0.032401662319898605, 0.03577980771660805, -0.012618226930499077, 0.00427986728027463, 0.02612430416047573, 0.0041417027823626995, 0.005971146747469902, -0.00557487178593874, 0.029027823358774185, -0.002692567417398095, -0.030619723722338676, 0.005944004748016596, -0.006215939298272133, -0.02703162468969822, -0.02989252842962742, -0.02203735150396824, -0.0018151437398046255, -0.029995212331414223, 0.031827736645936966, -0.0016561199445277452, 0.03264974430203438, 0.0018435074016451836, 0.03395196422934532, -0.0082334503531456, -0.026310106739401817, -0.035669926553964615, -0.015996349975466728, -0.016101285815238953, -0.031094882637262344, 0.03686574846506119, 0.02129986882209778, 0.034902386367321014, -0.0008145655156113207, 0.04029321298003197, 0.01214210782200098, -0.025742504745721817, -0.01769941858947277, -0.011205016635358334, -0.020344983786344528, 0.01975272037088871, 0.006788802798837423, 0.01591145619750023, -0.028684107586741447, 0.02153751812875271, 0.003533699782565236, -0.02414833940565586, -0.012759385630488396, -0.03332463651895523, -0.02074422501027584, 0.02917652390897274, 0.029091723263263702, -6.96311763022095e-05, 0.02198551595211029, 0.028064973652362823, 0.017174409702420235, -0.009259089827537537, -0.002533129183575511, 0.035486433655023575, -0.020921658724546432, 0.007335018366575241, -0.004909094888716936, -0.006866310257464647, -0.021393513306975365, -0.011505409143865108, -0.00522552989423275, -0.020666522905230522, -0.00030480767600238323, -0.0259308610111475, 0.008142119273543358, 0.014328673481941223, -0.008080143481492996, 0.0317438580095768, -0.006627421360462904, -0.006890596356242895, 0.0004875154700130224, -0.0005268030217848718, 0.0072564780712127686, 0.03443935886025429, -0.0316016785800457, 0.03429184481501579, -0.02157822996377945, 0.013478058390319347, 0.013291427865624428, -0.021594803780317307, 0.020646268501877785, -0.029959512874484062, 0.022031541913747787, 0.026825599372386932, 0.025459371507167816, -0.020446520298719406, 0.01760072447359562, -0.0017524081049486995, -0.01648125611245632, 0.022038016468286514, 0.020945070311427116, 0.006794918328523636, 0.027441710233688354, 0.028006961569190025, -0.03298649936914444, -0.011812585406005383, 0.005764821544289589, -0.00979901198297739, 0.007023358251899481, 0.008081176318228245, 0.002270351629704237, -0.013851051218807697, 0.0033454091753810644, 0.010836566798388958, 0.019741805270314217, -0.0037367886397987604, 0.022275490686297417, -0.0029660610016435385, 0.014668646268546581, -0.011266704648733139, -0.014037653803825378, -0.0191168375313282, 0.014808573760092258, -0.006652123294770718, 0.0015910188667476177, -0.03040306083858013, 0.007863899692893028, -0.030429119244217873, 0.007229968905448914, 0.03037523850798607, -0.013429691083729267, -0.0021301608067005873, -0.0006804732256568968, 0.008584355004131794, -0.01831674948334694, -0.022279849275946617, 0.02863490767776966, 0.02720954455435276, -0.01315386313945055, -0.020624062046408653, -0.028078490868210793, 0.02976534515619278, 0.004028198774904013, 0.021564016118645668, 0.030697835609316826, 0.01050568837672472, -0.025422431528568268, 0.02259901911020279, 0.02392648346722126, -0.0018925367621704936, -0.0054694064892828465, -0.02941850759088993, 0.007312779314815998, -0.01053687185049057, -0.02059135027229786, 0.004353797063231468, -0.024134134873747826, -0.008255201391875744, 0.025627436116337776, 0.012776855379343033, 0.027031512930989265, -0.02822285145521164, -0.028502939268946648, 0.03210662305355072, -0.011120583862066269, -0.020950734615325928, -0.02786850742995739, 0.026668990030884743, -0.015098495408892632, -0.023238196969032288, 0.021679826080799103, -0.007488318718969822, -0.005978960078209639, -0.02804260514676571, -0.006497594062238932, 0.023861274123191833, -0.03274013102054596, -0.03604338318109512, -0.0120040662586689, 0.021357901394367218, 0.006346195470541716, -0.02473115734755993, -0.0003690982994157821, 0.0034376680850982666, -0.011802148073911667, 0.01359639409929514, -0.019317790865898132, -0.005541827529668808, 0.027939490973949432, 0.03199949115514755, -0.018761545419692993, -0.025877555832266808, 0.005500011146068573, -0.019101740792393684, -0.03620239719748497, -0.02530565671622753, 0.026854919269680977, -0.035553477704524994, 0.021162433549761772, -0.01193072460591793, 0.02976006455719471, -0.015787802636623383, 0.021144887432456017, 0.008902720175683498, 0.0001346827339148149, 0.0016109247226268053, -0.02851352095603943, -0.007045157719403505, 0.02371949516236782, 0.010511158034205437, 0.02326376736164093, 0.03207145258784294, 0.02878749556839466, -0.004308007191866636, 0.01036976370960474, 0.0297487024217844, -0.007182789500802755, 0.029402362182736397, -0.02022300660610199, -0.03393721580505371, 0.017290953546762466, -0.013158352114260197, 0.030250385403633118, -0.026455355808138847, -0.011526250280439854, 0.02218799665570259, -0.029561219736933708, 0.010466080158948898, 0.02799084410071373, 0.022441614419221878, 0.026448145508766174, 0.01915425807237625, -0.017347484827041626, 0.014672759920358658, 0.013936775736510754, -0.005912547931075096, 0.00898612942546606, 0.002981309313327074, 0.035466842353343964, 0.022500259801745415, -0.019269507378339767, -0.018099218606948853, 0.007446778938174248, 0.021093804389238358, 0.02953624725341797, 0.01845814846456051, 0.009630762040615082, 0.033924464136362076, -0.019670017063617706, -0.003844950348138809, -0.028376752510666847, -0.003919835202395916, 0.028141263872385025, -0.004995427560061216, -0.025601206347346306, 0.023133331909775734, -0.01939847692847252, 0.004049601498991251, 0.03463754430413246, -0.03299560025334358, -0.0002408352302154526, 0.016475999727845192, 0.016813654452562332, -0.016475193202495575, -0.010760189034044743, 0.00733289634808898, 0.018755245953798294, -0.02843174897134304, 0.03116636350750923, 0.03258144482970238, 0.007791241630911827, 0.0349954329431057, -0.010843322612345219, -0.013371100649237633, 0.03393115475773811, 0.00795462355017662, -0.027218353003263474, 0.0032790708355605602, 0.01981888711452484, -0.017425155267119408, -0.005189184099435806, 0.012240252457559109, 0.022898325696587563, -0.02952929586172104, -0.03398328274488449, 0.023541230708360672, 0.02874733693897724, 0.01551350113004446, 0.028546910732984543, -0.011820174753665924, -0.01718508079648018, 0.015848392620682716, -0.014949630945920944, 0.03939507156610489, -0.005267883185297251, 0.009999691508710384, -0.014762258157134056, 0.026042496785521507, 0.025359924882650375, -0.0332222543656826, -0.019683092832565308, -0.005329384934157133, -0.005266452673822641, -0.0204424150288105, -0.010345269925892353, 0.010339390486478806, -0.022889394313097, 0.0015960481250658631, 0.008315841667354107, 0.02600863203406334, 0.004438264295458794, 0.024783112108707428, -0.016053689643740654, 0.025807153433561325, -0.008534114807844162, 0.011893031187355518, 0.015214371494948864, 0.0019536062609404325, -0.009163174778223038, -0.009716929867863655, 0.036718904972076416, 0.02747359499335289, -0.002251025754958391, 0.000865742564201355, 0.009819764643907547, 0.018044933676719666, 0.02708802931010723, -0.020939461886882782, 0.019086306914687157, -0.00833935383707285, 0.01105527114123106, 0.004730833228677511, 0.009125715121626854, -0.003976205829530954, -0.009932616725564003, -0.023573458194732666, 0.02200295217335224, -0.018939998000860214, 0.03372332453727722, -0.021134022623300552, -0.028171813115477562, 0.02046811394393444, -0.01579876057803631, -0.013212651014328003, 0.03576252982020378, 0.03371479734778404, 0.007918880321085453, -0.01708461344242096, -0.02793320268392563, 0.022127842530608177, 0.019844109192490578, 0.023796003311872482, 0.03354427218437195, 0.006061412859708071, -0.029332783073186874, -0.015769673511385918, -0.01563531905412674, 0.02648903988301754, 0.03221547603607178, -0.009975158609449863, -0.025430113077163696, -0.03265583515167236, -0.012799696065485477, 0.018771149218082428, -0.014178846962749958, 0.03188155218958855, -0.022203465923666954, -0.017987379804253578, 0.002048651222139597, 0.010290693491697311, -0.023962531238794327, -0.03598332032561302, 5.6899232731666416e-05, 0.025958886370062828, -0.0008750431588850915, 0.035440705716609955, -0.0036331568844616413, -0.02602255530655384, -0.008881296031177044, 0.002276647137477994, 0.007418148685246706, -0.034552328288555145, -0.0020863052923232317, 0.013460805639624596, -0.0205050241202116, 0.03216046839952469, -0.02062765136361122, -0.014496388845145702, -0.025706637650728226, 0.0028568669222295284, -0.0254877470433712, 0.03448307514190674, -0.016371654346585274, -0.01434069499373436, -0.02658645249903202, -0.02042042277753353, -0.029701171442866325, 0.021265637129545212, -0.020086124539375305, 0.03380617871880531, -0.01740407571196556, -0.013788018375635147, -0.036090340465307236, 0.03054453618824482, -0.0312400683760643, -0.020379824563860893, -0.02919834852218628, 0.02645232528448105, 0.020138422027230263, 0.016056431457400322, -0.028941646218299866, 0.002761106239631772, -0.00915934145450592, 0.018311893567442894, -0.022992605343461037, -0.014469025656580925, 0.033940400928258896, -0.0037047627847641706, -0.0010192865738645196, 0.015978960320353508, -0.0304722897708416, 0.008528180420398712, 0.004247516859322786, -0.029206011444330215, -0.021537471562623978, -0.020232241600751877, 0.0019593602046370506, -0.03356723487377167, 0.021141434088349342, 0.008375655859708786, -0.012965967878699303, -0.017219513654708862, -0.009588578715920448, 0.008972509764134884, 0.03071383573114872, 0.0062156193889677525, -0.032903041690588, -0.018857574090361595, -0.001715611550025642, 0.0013364693149924278, 0.028106488287448883, -0.027308862656354904, -0.020205039530992508, 0.031057529151439667, -0.005699741654098034, -0.005851930007338524], [-0.013571287505328655, -0.03000064752995968, 0.00634919386357069, 0.015958521515130997, 0.02850801683962345, -0.030661752447485924, 0.016292868182063103, -0.002102928701788187, 0.02312261052429676, 0.006975396536290646, 0.024377763271331787, 0.031234152615070343, 0.009741178713738918, 0.018535571172833443, -0.019382253289222717, 0.004504358395934105, 0.002811569720506668, 0.027699528262019157, 0.03312018886208534, 0.024277515709400177, 0.03155959025025368, 0.004932938609272242, -0.018584873527288437, -0.01568841002881527, 0.012618218548595905, 0.03315580263733864, -0.024752328172326088, -0.005430916789919138, 0.032412029802799225, -0.02981995791196823, 0.0008443579426966608, -0.03131968528032303, 0.010505498386919498, -0.023635223507881165, 0.00954568013548851, 0.007411526516079903, 0.012188060209155083, 0.023504123091697693, -0.016294095665216446, -0.022142820060253143, -0.004958535544574261, -0.0006059910519979894, 0.034638289362192154, 0.023281389847397804, -0.01747514121234417, -0.005516431760042906, 0.006609939504414797, 0.004337627906352282, -0.029348215088248253, 0.012625718489289284, 0.02832307480275631, 0.0055679078213870525, -0.0046010310761630535, 0.0015362302074208856, 0.0007532368181273341, -0.031121689826250076, -0.015215844847261906, -0.016805659979581833, -0.021565813571214676, -0.024101095274090767, -0.01621289737522602, -0.025967853143811226, -0.018387308344244957, 0.011374789290130138, -0.020709672942757607, -0.01956217736005783, -0.005077076144516468, -0.013796361163258553, 0.021783411502838135, -0.033526841551065445, -0.015066453255712986, 0.0034893129486590624, 0.03502553701400757, 0.01394613180309534, 0.0299422275274992, 0.02984551340341568, 0.017630230635404587, 0.0073760622180998325, 0.013968619517982006, 0.028731223195791245, 0.029062537476420403, 0.02180545963346958, -0.011675113812088966, 0.024650979787111282, -0.009863155893981457, -0.018663521856069565, -0.02103666216135025, 0.009368530474603176, 0.03359594568610191, -0.032828956842422485, -0.033157773315906525, 0.023197146132588387, 0.029528891667723656, -0.003772526979446411, -0.03505437821149826, -0.019098404794931412, 0.00648382306098938, 0.00696842884644866, -0.027477657422423363, -0.015742721036076546, -0.03173917904496193, -0.03457251563668251, 0.022388622164726257, 0.007594568654894829, -0.031236184760928154, -0.0003817887045443058, 0.022204631939530373, -0.014066536910831928, 0.016403689980506897, 0.010168660432100296, -0.015554817393422127, -0.02856801636517048, 0.02174071967601776, 0.00413036672398448, 0.006472524255514145, 0.020819587633013725, 0.01627166196703911, -0.006282726768404245, -0.035650067031383514, -0.0006887580966576934, 0.02421671710908413, -0.03224286809563637, 0.007476078346371651, 0.009546929970383644, 0.010218339040875435, 0.006880012806504965, 0.029827633872628212, 0.0015120289754122496, 0.013431210070848465, -0.0029139681719243526, -0.0035605751909315586, -0.022878605872392654, -0.007187714800238609, 0.019562752917408943, 0.02077079378068447, -0.003952960949391127, -0.009573576971888542, -0.03549525886774063, -0.023337198421359062, 0.00018424737208988518, 0.0021492457017302513, -0.017168279737234116, -0.015761444345116615, -0.010211621411144733, 0.03068038821220398, -0.01787588559091091, 0.004276327323168516, -0.02766711451113224, 0.015201127156615257, 0.009968826547265053, -0.03298836946487427, 0.0017290835967287421, -0.00554691394791007, -0.026829561218619347, -0.017048412933945656, 0.005010230932384729, 0.013616297394037247, -0.023888196796178818, 0.02104785665869713, 0.003167052287608385, 0.014264652505517006, -0.018333924934267998, -0.022128136828541756, -0.008910171687602997, -0.002392000751569867, 0.028774017468094826, -0.023147543892264366, -0.00030487700132653117, 0.018581604585051537, 0.011366010643541813, -0.0349600724875927, -0.02292679250240326, 0.018809279426932335, 0.0007066380931064487, 0.019226381555199623, -0.02822788804769516, 0.030128302052617073, -0.02156139351427555, -0.009313343092799187, -0.016337018460035324, 0.013843581080436707, -0.01695334166288376, 0.008872795850038528, -0.019744550809264183, -0.014631886035203934, -0.03300212323665619, -0.027297088876366615, 0.03432329371571541, -0.02699997089803219, 0.01515737734735012, 0.017587143927812576, 0.017145637422800064, 0.007502465974539518, -0.03290296345949173, 0.01947735622525215, 0.014111127704381943, -0.009584682062268257, 0.004743666388094425, 0.035121504217386246, 0.023514894768595695, -0.010439157485961914, 0.025930237025022507, 0.0276980921626091, -0.03137357532978058, 0.005106472875922918, -0.008252398110926151, -0.0047614797949790955, 0.0016684825532138348, -0.03242043778300285, 0.011589261703193188, 0.004937652498483658, 0.005805008113384247, -0.021840879693627357, -0.019475296139717102, -0.03411480039358139, -0.025520894676446915, 0.02719840593636036, 0.011690068058669567, -0.022490935400128365, -0.008661388419568539, 0.008587933145463467, 0.012391251511871815, -0.0031710676848888397, 0.028892267495393753, 0.018287813290953636, 0.023236563429236412, 0.02240382879972458, 0.025668364018201828, -0.010163181461393833, -0.02389366552233696, -0.005896751768887043, 0.019739685580134392, 0.0023677952121943235, 0.02809426374733448, 0.005100326146930456, 0.030775241553783417, 0.030043242499232292, 0.03464718908071518, 0.00024141186440829188, -0.023381173610687256, -0.008601641282439232, -0.004641375504434109, 0.016261707991361618, -0.012750097550451756, -0.015398216433823109, -0.003253699978813529, -0.0045995390973985195, 0.009045816957950592, 0.021784182637929916, 0.031861986964941025, 0.03142109513282776, 0.016560589894652367, -0.004215581342577934, 0.013076032511889935, -0.017311425879597664, -0.01552549283951521, 0.0010930646676570177, -0.02246522717177868, 0.017527572810649872, -0.024255702272057533, 3.85226849175524e-06, -0.003440061816945672, 0.015812790021300316, -0.015702184289693832, 0.009197386913001537, -0.016725389286875725, 0.009857063181698322, -0.007008079905062914, -0.033222753554582596, 0.022828860208392143, -0.03296767547726631, 0.018279286101460457, 0.018543332815170288, 0.013616915792226791, 0.021477065980434418, -0.005466281436383724, -0.019164133816957474, -0.028970465064048767, 0.029603859409689903, -0.03098934143781662, -0.028807155787944794, 0.00423949072137475, -0.0006179191404953599, 0.0049432856030762196, 0.011882682330906391, 0.03415468707680702, 0.023589039221405983, 0.0037255026400089264, -0.00891206506639719, -0.020374877378344536, -0.03141308203339577, -0.024661844596266747, -0.026914235204458237, -0.027840184047818184, 0.02220831997692585, -0.02517259493470192, 0.03344903513789177, 0.020624207332730293, -0.0184821505099535, 0.015532443299889565, -0.030994249507784843, 0.01901298761367798, -0.02546384371817112, 0.006515839137136936, 0.026218509301543236, -0.03488057851791382, 0.01560042705386877, 0.018468337133526802, -0.029913153499364853, -0.027910014614462852, 0.031742680817842484, -0.010226787999272346, -0.024507058784365654, -0.013420265167951584, 0.003660633461549878, -0.00703094806522131, -0.0014303986681625247, 0.012518479488790035, -0.009094496257603168, 0.026675071567296982, 0.015625549480319023, -0.01538948342204094, -0.03323271870613098, -0.02975422888994217, -0.010841324925422668, 0.021989326924085617, -0.02314748428761959, 0.0022073069121688604, 0.024921806529164314, 0.02110367640852928, -0.006949789356440306, -0.02230532467365265, -0.027921944856643677, 0.025797799229621887, 0.0010249228216707706, 0.020752884447574615, 0.014144105836749077, 0.01131320558488369, 0.03175274655222893, -0.03564179688692093, -0.01881437748670578, 0.02392391487956047, -0.005005421116948128, 0.007951254025101662, 0.031213385984301567, -0.008424107916653156, 0.02878505364060402, 0.017967283725738525, -0.018187908455729485, 0.007970103994011879, 0.00011162575538037345, 0.02489139512181282, 0.033791303634643555, 0.031525589525699615, -0.0016170662129297853, -0.006982454098761082, -0.010405286215245724, -0.024131668731570244, 0.021062038838863373, -0.03603339195251465, 0.016049401834607124, 0.015887843444943428, 0.00453156279399991, -0.009480294771492481, -0.023864464834332466, 0.024472003802657127, 0.024405255913734436, -0.010871541686356068, -0.010103592649102211, -0.00873895175755024, -0.013126116245985031, 0.01802302896976471, -0.032429687678813934, -0.03091505914926529, 0.011464564129710197, -0.02640661783516407, -0.0037741265259683132, 0.005006635095924139, -0.0010174675844609737, 0.020375795662403107, 0.03370951488614082, 0.007947506383061409, 0.011630442924797535, 0.01700574904680252, -0.010703330859541893, 0.001960163936018944, 0.02039469964802265, -0.00887368991971016, -0.03276991471648216, 0.02592562325298786, 0.03148835524916649, -0.027189230546355247, 0.003728384617716074, 0.01564803346991539, -0.01681458204984665, -0.013873347081243992, 0.00918806903064251, 0.009758650325238705, 0.023037496954202652, -0.022417014464735985, 0.028932705521583557, -0.02344820462167263, 0.018805459141731262, -0.005633961874991655, 0.004758206196129322, 0.021017739549279213, 0.002277996623888612, 0.021316129714250565, 0.02893873117864132, 0.0157169122248888, -0.02248716726899147, 0.0003052193205803633, -0.011449805460870266, -0.006136384326964617, -0.018344508484005928, -0.019834307953715324, -0.02905786596238613, 0.019095532596111298, 0.016587458550930023, -0.008579053916037083, -0.005964655429124832, -0.02882036566734314, 0.012853732332587242, -0.011399785988032818, 0.03297467529773712, -0.005327923689037561, 0.014447322115302086, -0.017607051879167557, -0.008716121315956116, -0.015566091053187847, 0.0095736188814044, 0.0328981988132, 0.0016098346095532179, 0.013086204417049885, 0.0020540293771773577, -0.02257654257118702, -0.02561967633664608, -0.027265649288892746, 0.001081289374269545, -0.022760270163416862, 0.017036644741892815, -0.01203275565057993, -0.002676102565601468, 0.010429673828184605, -0.0010233372449874878, 0.020630167797207832, 0.002620932413265109, 0.00025948521215468645, -0.01703893393278122, 0.009137431159615517, 0.030076507478952408, 0.020277701318264008, -0.013548157177865505, 0.0215865857899189, 0.004765555262565613, -0.0001928994752233848, 0.012199904769659042, -0.0009520440944470465, 0.0081590311601758, 0.015230614691972733, 0.013962125405669212, 0.0260895024985075, 0.022547636181116104, -0.0196083914488554, 0.0035232349764555693, 0.021581189706921577, -0.02791386842727661, -0.0002027516602538526, -0.03472255542874336, -0.020935017615556717, -0.0029061876703053713, 0.010979406535625458, 0.01538957841694355, -0.011813346296548843, 0.009000361897051334, 0.033951934427022934, 0.01654323749244213, -0.0009869026252999902, 0.018813975155353546, 0.028919586911797523, -0.03560667484998703, 0.010240750387310982, -0.015783820301294327, 0.015311898663640022, 0.032819002866744995, 0.0073710847645998, -0.0015728659927845001, -0.03302337974309921, -0.021927500143647194, 0.013195347972214222, -0.009617932140827179, -0.030301682651042938, -0.015647271648049355, 0.01791178062558174, -0.019154205918312073, -0.027893081307411194, -0.008836997672915459, -0.029304446652531624, -0.02607060968875885, 0.013813301920890808, -0.0006377911195158958, -0.010560804046690464, 0.023887531831860542, 0.006882400717586279, 0.02615770325064659, 0.031422507017850876, 0.010637461207807064, 0.01018710620701313, 0.02729376219213009, 0.013235821388661861, -0.011112505570054054, -0.014661891385912895, 0.02596268616616726, -0.019092479720711708, -0.0037208383437246084, -0.01814020797610283, -0.005063909571617842, 0.02565428987145424, -0.01574786938726902, 0.026564817875623703, 0.017996931448578835, -0.03164324909448624, 0.0024255807511508465, -0.021827587857842445, 0.027491288259625435, 0.028658147901296616, 0.019654393196105957, 0.031507305800914764, 0.0017449833685532212, -0.03406459838151932, 0.001533021335490048, -0.013027986511588097, -0.006188743747770786, 0.007216583471745253, 0.02956898882985115, -0.0352984257042408, 0.0020781841594725847, -0.02541922964155674, 0.026407981291413307, 0.021186623722314835, -0.029816744849085808, -0.03304873779416084, -0.034254223108291626, 0.002348445588722825, 0.011678908951580524, 0.0012552827829495072, -0.01222790963947773, -0.00905860960483551, -0.015079176984727383, 0.0035217541735619307, -0.013515112921595573, 0.0153579730540514, 0.005608906038105488, 0.01564093306660652, -0.017599821090698242, 0.006958433426916599, 0.02645048312842846, -0.029318852350115776, -0.030355140566825867, -0.006636558100581169, 0.008054649457335472, 0.03415960073471069, 0.0191508661955595, -0.00749178696423769, 0.006406958214938641, -0.025006361305713654, 0.020908059552311897, -0.0003997465828433633, -0.009463953785598278, 0.016626328229904175, 0.0032992460764944553, -0.028517872095108032, 0.01611258089542389, 0.010350302793085575, -0.006951427552849054, -0.020129108801484108, -0.0009748875163495541, 0.027262741699814796, -0.01615089550614357, -0.02253933809697628, -0.002644692314788699, 0.010604744777083397, 0.028864093124866486, -0.02704870142042637, 0.003746262053027749, 0.018776236101984978, -0.02070898935198784, 0.014894985593855381, 0.017321208491921425, -0.02521604113280773, -0.014610879123210907, 0.0164981409907341, 0.017204735428094864, 0.0010734552051872015, -0.021745000034570694, 0.002625578548759222, 0.011301642283797264, -0.00040392830851487815, 0.03187621384859085, -0.0054855505004525185, 0.01964752934873104, 0.0066678873263299465, 0.008909660391509533, -0.0017840182408690453, -0.024208039045333862, 0.009340537711977959, 0.005269090179353952, 0.004229207057505846, -0.02183523029088974, -0.028472041711211205, -0.007340406067669392, 0.01690763607621193, 0.01876339130103588, 0.02381068654358387, 0.03002000041306019, 0.034727033227682114, 0.010725757107138634, -0.03346819058060646, 0.003915577661246061, -0.01587097719311714, 0.03398774564266205, 0.027886157855391502, 0.004378066398203373, 0.025418784469366074, 0.011592471040785313, -0.03182952478528023, 0.012183255515992641, -0.027755167335271835, -0.0037988938856869936, -0.02128332294523716, 0.008611448109149933, -0.005728266201913357, -0.0016025579534471035, 0.024105390533804893, -0.005530945025384426, -0.010215427726507187, 0.0343712717294693, -0.03565399721264839, 0.006821730639785528, -0.014564568176865578, 0.026137007400393486, 0.002457862952724099, 0.026607651263475418, -0.022690674290060997, -0.017727717757225037, -0.027202747762203217, -0.012027820572257042, -0.009077063761651516, 0.019594838842749596, -0.0037659751251339912, 0.03349015861749649, -0.002942661289125681, 0.016802562400698662, 0.022174697369337082, 0.00395959010347724, -0.023909373208880424, -0.028746338561177254, -0.026050563901662827, -0.03159402310848236, 0.024130072444677353, 0.0048066102899611, 0.0324854776263237, -0.017853310331702232, -0.011010841466486454, 0.0071893478743731976, -0.00824454054236412, 0.010626362636685371, 0.012335986830294132, 0.03507137671113014, 0.007724457886070013, 0.030912034213542938, 0.027524592354893684, -0.022647634148597717, -0.009454198181629181, -0.030710555613040924, -0.014548718929290771, -0.03071916289627552, -0.004244172014296055, -0.003627283265814185, -0.023690298199653625, -0.0045419842936098576, -0.023063553497195244, 0.00040217500645667315, -0.030328519642353058, 0.007039104588329792, 0.01379041001200676, 0.033584535121917725, -0.024196935817599297, -0.021263081580400467, -0.012621916830539703, 0.025349171832203865, -0.009633399546146393, -0.03577027842402458, -0.026650231331586838, -0.018034247681498528, 0.021352536976337433, -0.03238274157047272, -0.02772737666964531, -0.027495386078953743, -0.005824993830174208, 0.013218502514064312, -0.01745479740202427, -0.02451448328793049, 0.01193729043006897, -0.01992303691804409, 0.025375308468937874, -0.015460477210581303, -0.03046860732138157, 0.01748739741742611, 0.003976763691753149, 0.03184479847550392, 0.02420623227953911, -0.006307941395789385, -0.020375940948724747, 0.021947836503386497, 0.03452200070023537, -0.03221873193979263, 0.0313895009458065, 0.032950662076473236, -0.002501649549230933, -0.024319402873516083, -0.03347678855061531, -0.00439221179112792, 0.003447594353929162, 0.0015689617721363902, -0.02711537852883339, 0.0013390460517257452, 0.018151629716157913, 0.0019582854583859444, 0.03458857908844948, 0.025021540001034737, -0.011334436014294624, 0.03341709449887276, -0.007643391378223896, -0.006736894138157368, -0.03357025980949402, -0.028351005166769028, 0.016349447891116142, 0.002101673511788249, 0.033398859202861786, -0.0007638357928954065, -0.02645917236804962, -0.007918235845863819, 0.003996061626821756, 0.014198561199009418, 0.023256046697497368, 0.01705893501639366, 0.03018251247704029, 0.025482941418886185, -0.009309484623372555, 0.025371447205543518, 0.015163226053118706, -0.03331827372312546, 0.03462880477309227, 0.011602073907852173, -0.0028064772486686707, 0.029690897092223167, -0.025186821818351746, -0.0031737543176859617, 0.017126910388469696, 0.014779889024794102, -0.022199634462594986, 0.008307299576699734, 0.010617408901453018, -0.027855269610881805, 0.005182937253266573, -0.00060840486548841, -0.004100344143807888, -0.025973768904805183, 0.025817042216658592, 0.017068037763237953, 0.019632387906312943, 0.005815023090690374, -0.02428896725177765, 0.026707250624895096, 0.012882421724498272, -0.001553210080601275, -0.01060286071151495, 0.026060285046696663, 0.022776788100600243, -0.03406548872590065, 0.029452474787831306, 0.016646385192871094, -0.00462724082171917], [-0.017733974382281303, 0.03265786170959473, 0.0297551266849041, 0.019433848559856415, 0.029384572058916092, -0.0009596229065209627, 0.007804465014487505, -0.010067698545753956, -0.02910769172012806, -0.00418977253139019, 0.003081378061324358, 0.009867873042821884, 0.02796538546681404, -0.03168538957834244, -0.022053860127925873, 0.014257144182920456, -0.014806101098656654, -0.0028995389584451914, -0.0065661086700856686, -0.021132277324795723, 0.034101538360118866, -0.023869063705205917, -0.01943676918745041, 0.014474738389253616, 0.014168043620884418, -0.02633022330701351, 0.024155104532837868, 0.026550237089395523, -0.028428301215171814, -0.004007531795650721, -0.01796279475092888, 0.0037461132742464542, 0.012514002621173859, -0.0347105897963047, -0.01170443743467331, 0.02174811251461506, 0.025430655106902122, 0.010803697630763054, 0.022428348660469055, 0.005759955383837223, -0.026084473356604576, 0.024959158152341843, -0.004615874029695988, 0.020931296050548553, 0.018551256507635117, -0.013967074453830719, -0.005452014971524477, -0.02681611105799675, 0.027958311140537262, 0.01576913148164749, 0.01806742511689663, -0.0015164632350206375, -0.029094289988279343, -0.02615753561258316, -0.03330878168344498, -0.03053191490471363, 0.005038091447204351, -0.0327892079949379, 0.011044686660170555, -0.02642853558063507, -0.004558952525258064, -0.01743956096470356, 0.008833278901875019, -0.026792921125888824, 0.010273579508066177, -0.023665988817811012, 0.016344912350177765, 0.027133997529745102, -0.013356387615203857, 0.006870219483971596, -0.02126893773674965, 0.009955182671546936, -0.0027825208380818367, -0.0019653416238725185, -0.029081163927912712, -0.001318946946412325, -0.028966156765818596, -0.023906176909804344, 0.031325411051511765, -0.026122618466615677, 0.0255912933498621, 0.03120754286646843, 0.019042091444134712, -0.010299003683030605, -0.008360485546290874, 0.015176836401224136, -0.012112311087548733, 0.02139192447066307, 0.01018903125077486, 0.0020572487264871597, 0.030801739543676376, 0.00410077441483736, -0.031170690432190895, 0.022693941369652748, 0.009782124310731888, 0.019420402124524117, -0.02488705888390541, -0.03322536125779152, 0.006246622651815414, 0.031465958803892136, 0.026796799153089523, 0.034486256539821625, 0.016713658347725868, -0.014180121012032032, -0.001839890843257308, 0.00903747696429491, 0.028129395097494125, -0.02015898935496807, -0.006670280359685421, 0.016438284888863564, 0.024821849539875984, -0.03034588135778904, 0.013431823812425137, -0.013564667664468288, -0.0044629196636378765, 0.028671588748693466, -0.004167786333709955, -0.009389537386596203, 0.01638323999941349, -0.022417958825826645, 0.01877603307366371, 0.007929894141852856, 0.0030674971640110016, 0.018373172730207443, 0.009782296605408192, 0.00856415368616581, 0.0062349652871489525, -0.005277260206639767, 0.006002201698720455, -0.015231401659548283, 0.007891855202615261, -0.0013817341532558203, 0.006270707119256258, -0.020135432481765747, 0.02474292740225792, 0.0029634591192007065, -0.010361642576754093, 0.032427698373794556, 0.01593979261815548, -0.030916422605514526, 0.003200191305950284, -0.005052486434578896, -0.01002958882600069, 0.034562621265649796, -0.033199090510606766, 0.016913948580622673, 0.005497231148183346, -0.026235496625304222, -0.008720536716282368, 0.012032969854772091, -0.034670207649469376, -0.01159849762916565, 0.017801787704229355, 0.009310132823884487, 0.01613672450184822, -0.03133057802915573, 0.016036519780755043, 0.006563431117683649, -0.007493075914680958, 0.01906490884721279, -0.0019010540563613176, -0.01862114854156971, 0.012097932398319244, 0.030857915058732033, -0.003889084327965975, -0.029442789033055305, 0.004287382587790489, 0.0129130519926548, 0.016655923798680305, -0.03626926988363266, -0.003170155454427004, -0.01634293794631958, -0.0339050218462944, -0.019847983494400978, 0.028958076611161232, 0.0007429063552990556, 0.024114197120070457, 0.008546940982341766, -0.021067852154374123, -0.02014760859310627, 0.021554039791226387, 0.015994923189282417, -0.009947064332664013, 0.029881708323955536, 0.0025364765897393227, -0.02321550063788891, -0.009310114197432995, -0.020416803658008575, -0.017919473350048065, 0.008337781764566898, 0.01062029879540205, -0.027921631932258606, -0.031546805053949356, 0.020814543589949608, -0.01814032346010208, 0.033188167959451675, 0.02326195314526558, 0.024145763367414474, -0.004810997284948826, 0.028809739276766777, -0.0022986524272710085, -0.01883573830127716, 0.0203056950122118, 0.024342602118849754, -0.0033948749769479036, 0.012583269737660885, 0.03286590054631233, 0.026622435078024864, 0.016711413860321045, 0.017609963193535805, 0.004184167366474867, 0.016020260751247406, -0.00017310709517914802, 0.03374633565545082, 0.00528175150975585, 0.008082154206931591, 0.024122269824147224, 0.002622771542519331, 0.02708708494901657, 0.013241363689303398, 0.01924842782318592, -0.00118898821529001, 0.01403316855430603, -0.032748907804489136, 0.028138166293501854, 0.021796058863401413, 0.004862354602664709, -0.0301466416567564, 0.02141481079161167, 0.022594798356294632, 0.004760554526001215, 0.03259345144033432, 0.03550293669104576, -0.028819601982831955, -0.005011373665183783, -0.009946124628186226, 0.013093981891870499, 0.0292770117521286, -0.0007704513263888657, -0.018707508221268654, -0.022580569609999657, 0.014412574470043182, 0.009488885290920734, 0.015007044188678265, -0.011170065961778164, -0.002042720327153802, -0.012411920353770256, 0.0005897596129216254, -0.003194556338712573, 0.012665673159062862, 0.018941881135106087, 0.033712469041347504, 0.006952009629458189, 0.03436177223920822, 0.016952186822891235, 0.01237045880407095, -0.03545955568552017, -0.02320745773613453, -0.004183115437626839, -0.019007643684744835, -0.0062774596735835075, 0.000400238815927878, -0.018640726804733276, 0.019545281305909157, 0.006378957536071539, 0.03487900644540787, 0.006202486343681812, 0.020546268671751022, 0.019355282187461853, 0.03191288933157921, 0.013479048386216164, 0.02013974077999592, 0.02089501917362213, 0.0005202366155572236, 0.02147758938372135, -0.016108890995383263, 0.009717181324958801, -0.017015380784869194, -0.0005309274420142174, -0.01628001593053341, 0.011991804465651512, -0.0009713040199130774, 0.00031673433841206133, -0.026135869324207306, -0.01648019813001156, -0.035580988973379135, 0.009006498381495476, -0.011299765668809414, 0.023365769535303116, -0.011539268307387829, -0.019951287657022476, 0.01458196621388197, 0.024544088169932365, -0.006357257254421711, 0.03512253239750862, -0.017795953899621964, 0.028003668412566185, 0.003985785413533449, 0.02776598371565342, -0.023678140714764595, -0.02052643522620201, -0.028036994859576225, -0.02327311597764492, 0.034585535526275635, -0.030133333057165146, -0.0017404629616066813, 0.022246915847063065, -0.026960423216223717, 0.032588884234428406, 0.0019470517290756106, 0.03383295238018036, 0.0251410361379385, 0.014473156072199345, -0.03163566812872887, -0.0015125005738809705, 0.0014064338756725192, -0.03194859251379967, 0.009532926604151726, -0.0033929224591702223, 0.016857536509633064, 0.008383544161915779, 0.011038249358534813, -0.029781494289636612, 0.024853378534317017, -0.031580157577991486, -0.007777120918035507, -0.023372946307063103, -0.0048548029735684395, 0.0064286342822015285, -0.021976472809910774, 0.01930011808872223, -0.022022869437932968, -0.012610606849193573, 0.028903083875775337, -0.030933545902371407, 0.013199368491768837, -0.03179238736629486, 0.014527895487844944, -0.028597353026270866, 0.0028466410003602505, 0.006790571380406618, 0.006934413220733404, 0.00010615091014187783, -0.028514614328742027, 0.03172517195343971, -0.025327153503894806, -0.01191134937107563, 0.010683337226510048, -0.027308646589517593, 0.005574612412601709, -0.032048989087343216, -0.025247910991311073, -0.000792929669842124, 0.03164363652467728, 0.005431363824754953, -0.0029106864240020514, -0.018132822588086128, -0.018620038405060768, -0.0270843505859375, 0.02330956980586052, 0.014007074758410454, -0.00288051413372159, -0.018142685294151306, -0.0324675515294075, -0.03060183860361576, 0.0070237284526228905, -0.02231031283736229, 0.011963004246354103, 0.01853576861321926, -0.010326391085982323, 0.03002489171922207, 0.000933655072003603, -0.02059073932468891, -0.011035038158297539, -0.028535548597574234, -0.01606924459338188, 0.031331852078437805, -0.015794333070516586, 0.0036593065597116947, 0.009698501788079739, 0.014196092262864113, -0.012683317065238953, 0.012636430561542511, 0.02429555356502533, 0.011150048114359379, -0.012417597696185112, 0.005936506669968367, -0.03283561393618584, 0.01051404420286417, 0.005748256575316191, -0.03432813659310341, -0.0035463098902255297, 0.0005675475695170462, 0.014239232987165451, -0.0339721143245697, -0.029749616980552673, -0.020359007641673088, -0.024128573015332222, -0.025291385129094124, 0.008538301102817059, -0.025852853432297707, 0.03148806467652321, -0.0037602672819048166, -0.009315242990851402, -0.0013899223413318396, 0.009518107399344444, 0.025672229006886482, 0.03589053079485893, -0.013685470446944237, 0.00669235410168767, -0.031675200909376144, -0.026576317846775055, 0.01928010582923889, 0.0026500930543988943, 0.029326146468520164, 0.027238057926297188, -0.028000935912132263, 0.013136416673660278, 0.021601052954792976, 0.032607078552246094, 0.02645309828221798, 0.014874096028506756, 0.01864093914628029, 0.03339291363954544, -0.018265951424837112, 0.027311913669109344, -0.004311632830649614, -0.017919989302754402, -0.014199793338775635, -0.016140850260853767, 0.00819469429552555, 0.030236853286623955, -0.03179258108139038, -0.030148301273584366, 0.018601354211568832, 0.025193316861987114, 0.014236469753086567, -0.008443346247076988, -0.0031259998213499784, -0.0072650485672056675, 0.03096029907464981, -0.023911252617836, -0.022486859932541847, 0.006339899264276028, 0.0225133765488863, 0.030569983646273613, -0.013193515129387379, 0.008965647779405117, -0.0017151578795164824, 0.009765947237610817, 0.02882980741560459, -0.022696059197187424, -0.022196941077709198, -0.03182780370116234, 0.025038091465830803, 0.009328681975603104, -0.008652741089463234, 0.010417841374874115, 0.019327474758028984, 0.03172677382826805, 0.03218503296375275, -0.008348314091563225, 0.02178782969713211, -0.00587209640070796, 0.038194142282009125, 0.029331017285585403, -0.024337636306881905, 0.027687842026352882, -0.03001864068210125, 0.012968598864972591, 0.027851887047290802, -0.014438185840845108, 0.01490733865648508, 0.026780402287840843, -0.013075464405119419, -0.016338404268026352, 0.02339954301714897, -0.02137959934771061, -0.007078343536704779, -0.025229213759303093, -0.012847726233303547, -0.03181438148021698, 0.006486847065389156, 0.0285786222666502, -0.005675445310771465, -0.021224692463874817, 0.00051112100481987, -0.02403237856924534, 0.0303217563778162, -0.00391327403485775, 0.028234140947461128, -0.02350933663547039, -0.024801207706332207, 0.013068389147520065, 0.012376385740935802, 0.01707502454519272, -0.016914086416363716, 0.03598639741539955, 0.005359211936593056, 0.016458066180348396, -0.009515824727714062, 0.005352106411010027, -0.030302833765745163, 0.011067907325923443, 0.0033930300269275904, 0.02101326733827591, -0.028890570625662804, 0.009015587158501148, -0.005462507717311382, 0.03076271153986454, 0.032410118728876114, -0.028848418965935707, 0.01183999516069889, 0.01796950027346611, 0.017293687909841537, -0.028980636969208717, -0.02398562617599964, -0.021357033401727676, 0.020935269072651863, 0.025805646553635597, -0.009814981371164322, 0.005515179131180048, 0.034760136157274246, -0.015959352254867554, -0.0060317437164485455, 0.0071855089627206326, 0.012100559659302235, 0.03044966235756874, 0.024457992985844612, 0.016232075169682503, 0.03405830264091492, -0.03090422786772251, 0.03427135944366455, 0.010109947063028812, 0.020571066066622734, -0.020510051399469376, 0.010092293843626976, -0.014995099976658821, -0.014994301833212376, 0.03431272506713867, 0.025621989741921425, 0.018950238823890686, -0.003996828105300665, 0.03157905861735344, -0.00929973740130663, 0.007917210459709167, 0.018729403614997864, -0.004415217787027359, 0.008952433243393898, -0.019134294241666794, 0.03240475803613663, 0.010746035724878311, 0.029559634625911713, -0.011481721885502338, 0.007020057179033756, -0.002918776823207736, -0.020216839388012886, 0.022052280604839325, 0.001748124253936112, 0.0034191033337265253, 0.027249617502093315, 0.032931264489889145, -0.02470991760492325, 0.012455571442842484, 0.029264623299241066, 0.00506890844553709, 0.03605189546942711, 0.015285649336874485, 0.03546283021569252, 0.03857807815074921, 0.037203408777713776, 0.034207284450531006, -0.011567196808755398, -0.0037148992996662855, 0.025069860741496086, -0.014583318494260311, 0.019680123776197433, -0.03404491767287254, 0.013152417726814747, -0.007234783377498388, 0.03418866917490959, 0.01119614765048027, -0.026566872373223305, 0.023618368431925774, -0.02154642529785633, -0.0017742811469361186, 0.025868190452456474, 0.021061740815639496, 0.015399530529975891, 0.022170476615428925, 0.00985597912222147, -0.004679775331169367, 0.028025556355714798, 0.008635234087705612, 0.03146967664361, -0.00952279195189476, -0.028882984071969986, 0.006601899862289429, 0.030939850956201553, 0.013799358159303665, -0.02283131517469883, -0.005949404090642929, -0.021844031289219856, 0.02154022827744484, 0.006863752845674753, 0.0008301495108753443, -0.02051888220012188, -0.02384357526898384, -0.02109702304005623, -0.03410135582089424, 0.02861068584024906, -0.022236622869968414, 0.0317029133439064, -0.025229260325431824, 0.01102383155375719, 0.031136341392993927, -0.0014202760066837072, -0.007898682728409767, -0.007984422147274017, -0.0021676423493772745, 0.005935697350651026, 0.01438151579350233, -0.02797849476337433, 0.013979274779558182, -0.004427703097462654, 0.0038352555129677057, 0.011529266834259033, -0.006087285000830889, -0.03069896437227726, 0.003922947682440281, 0.016929496079683304, 0.02074003778398037, -0.019982237368822098, 0.01509652379900217, 0.01512675080448389, 0.006070706527680159, -0.02979462966322899, -0.024547303095459938, 0.016963176429271698, 0.017196258530020714, -0.024993017315864563, -0.011745329014956951, 0.009475530125200748, -0.005410287994891405, -0.01042864192277193, 0.0008060671389102936, 0.017097370699048042, -0.02902352251112461, -0.02171817608177662, 0.03455116227269173, 0.028874438256025314, -0.007796982768923044, 0.009212879464030266, -0.016241595149040222, -0.002816304098814726, -0.003666304051876068, 0.023785453289747238, -0.028975093737244606, -0.016225114464759827, -0.030654801055788994, -0.003204016014933586, 0.03012610599398613, -0.029010122641921043, -0.011812897399067879, 0.023119842633605003, 0.0004016188904643059, 0.026201603934168816, -0.009174913167953491, 0.02004416286945343, -0.0364651083946228, -0.0177127867937088, 0.024198047816753387, 0.00985670741647482, 0.03485890105366707, 0.01565312221646309, -0.017660124227404594, -0.013499977998435497, 0.0032968672458082438, -0.027938062325119972, 0.03457961231470108, -0.012375019490718842, -0.00772185018286109, 0.033401455730199814, -0.023440642282366753, -0.014366088435053825, -0.01975337602198124, 0.024354543536901474, 0.03409632295370102, 0.0005783582455478609, 0.021089693531394005, -0.033221323043107986, -0.019478444010019302, -0.005921619012951851, -0.025618935003876686, -0.008060609921813011, -0.025417737662792206, 0.03214453160762787, 0.011602004058659077, 0.016806362196803093, 0.03299350291490555, 0.027927571907639503, -0.007739446125924587, -0.03369081765413284, 0.023204505443572998, 0.0011526667512953281, -0.01075011771172285, 0.021738560870289803, -0.002475048415362835, 0.009585822932422161, 0.016932476311922073, -0.0034450339153409004, -0.019442861899733543, -0.013126937672495842, 0.00943484716117382, 0.010589341633021832, 0.006536634638905525, -0.030977919697761536, 0.0058861467987298965, 0.025460174307227135, -0.023071013391017914, 0.02608182467520237, 0.013497021980583668, 0.009432722814381123, 0.006656317040324211, -0.033907268196344376, 0.016496198251843452, -0.005847744643688202, -0.03509167954325676, 0.012943053618073463, 0.03319011256098747, 0.014878658577799797, 0.0020495899952948093, 0.018601486459374428, -0.014513698406517506, 0.0006097598816268146, -0.03287073224782944, -0.02186746336519718, -0.014016901142895222, -0.024602115154266357, 0.02804289385676384, -0.0025530923157930374, 0.025817932561039925, 0.022946299985051155, 0.01959884725511074, 0.009986160323023796, -0.01545338612049818, -0.010753760114312172, 0.026304924860596657, 0.020310059189796448, -0.036011118441820145, 0.016790611669421196, -0.0021856112871319056, -0.010951822623610497, -0.006980372592806816, 0.031388260424137115, 0.015125740319490433, -0.007110432721674442, -0.027319753542542458, -0.028504911810159683, 0.010509038344025612, -0.01107598003000021, -0.02198350802063942, -0.024447744712233543, 0.012906700372695923, -0.027548139914870262, 0.0164147038012743, -0.021504361182451248, -0.024181412532925606, -0.0307838786393404, 0.005693826358765364, 0.03302965685725212, 0.02848144620656967, -0.022804584354162216, 0.032271821051836014, -0.025517640635371208, 0.013681566342711449, -0.010831918567419052, 0.0168679840862751, -0.009393950924277306, -0.029817940667271614, -0.033886026591062546, 0.020810147747397423, -0.007817496545612812, -0.021989474073052406], [-0.02202337607741356, -0.0019498795736581087, 0.012105158530175686, 0.03174879401922226, 0.021022729575634003, 0.022794121876358986, 0.01823514699935913, 0.0246915053576231, 0.026973862200975418, 0.027929238975048065, 0.015557167120277882, -0.009516522288322449, 0.012680331245064735, 0.004576865583658218, -0.030664291232824326, -0.0014120048144832253, 0.02874898351728916, -0.020679393783211708, 0.02095971256494522, -0.02479461021721363, -0.027724266052246094, 0.01711585745215416, 0.006927364505827427, -0.024616273120045662, 0.020942993462085724, 0.027273640036582947, 0.004851594567298889, -0.022763999179005623, -0.018745113164186478, -0.0020139224361628294, -0.025136798620224, -0.0028192719910293818, 0.007656966336071491, 0.0017014920013025403, -0.007745511829853058, -0.00244527542963624, -0.013409494422376156, -0.02093311958014965, -0.03594401478767395, -0.02367657981812954, -0.014425686560571194, -0.004328935407102108, 0.0009906806517392397, -0.017065472900867462, -0.019272252917289734, 0.00310363806784153, -0.01890573650598526, 0.013902269303798676, 0.002310739364475012, -0.007742485497146845, -0.025241227820515633, -0.026573527604341507, -0.01745004393160343, 0.01509331539273262, 0.012403415516018867, -0.011735668405890465, -0.034272339195013046, 0.024814873933792114, 0.018724538385868073, -0.013574819080531597, 0.0029823994264006615, -0.03510858491063118, -0.028360262513160706, 0.006289107725024223, -0.03547050058841705, -0.030408956110477448, -0.023576628416776657, -0.013461954891681671, -0.024794280529022217, -0.02295360155403614, 0.025834666565060616, -0.033680953085422516, -0.02402545139193535, 0.009816770441830158, -0.005954181309789419, -0.003522894810885191, -0.014004581607878208, -0.030967285856604576, 0.02895648404955864, 0.026332996785640717, -0.02937360294163227, -0.025574790313839912, -0.025098945945501328, -0.024348244071006775, -0.016389047726988792, -0.009674359112977982, -0.013773420825600624, 0.030759545043110847, 0.02412131428718567, 0.01693040505051613, -0.01707405224442482, -0.010584291070699692, 0.033637262880802155, 0.03584282100200653, 0.01643533632159233, -0.033922627568244934, -0.004357151687145233, 0.01688361167907715, 0.0083122244104743, -0.03305603563785553, 0.012246353551745415, -0.03130657225847244, -0.009260742925107479, -0.0325477309525013, -0.0005502029089257121, -0.022411733865737915, 0.02954820543527603, 0.018234122544527054, 0.01248444989323616, 0.021914010867476463, -0.013635777868330479, 0.027152998372912407, 0.0007849573157727718, -0.034871093928813934, 0.000917622004635632, -0.01670706272125244, -0.022702816873788834, -0.009008605033159256, -0.02144172228872776, 0.027454175055027008, 0.02968181110918522, -0.023717958480119705, 0.02635197900235653, 0.03674788773059845, 0.01868635043501854, -0.020501524209976196, -0.02501675672829151, -0.027486249804496765, -0.009118892252445221, -0.01551783923059702, 0.0011288366513326764, 0.03523986041545868, -0.021397845819592476, -0.012075435370206833, -0.03526362031698227, 0.023967571556568146, -0.015507275238633156, 0.021473463624715805, 0.017608515918254852, 0.014002099633216858, -0.0213047806173563, -0.023152977228164673, 0.025051068514585495, 0.011105719953775406, 0.0018562929471954703, -0.008724338375031948, 0.011766299605369568, 0.0006507104262709618, 0.03129671886563301, 0.010294202715158463, 0.0007464979426003993, 0.0038431694265455008, 0.0017532071797177196, 0.03454183042049408, 0.03346249461174011, 0.014207919128239155, 0.0034825224429368973, 0.014614749699831009, -0.008955076336860657, 0.01860724575817585, -0.002977621043100953, -0.034062761813402176, 0.034018248319625854, -0.030620461329817772, -0.034690987318754196, -0.034506235271692276, -0.007550573907792568, 0.01730039156973362, 0.0007595812785439193, -0.0017280648462474346, 0.012217333540320396, -0.023006638512015343, 0.03509967774152756, -0.004883518908172846, -0.025558894500136375, -0.0057321093045175076, 0.019073421135544777, -0.017663761973381042, -0.019924134016036987, 0.019399654120206833, 0.012073291465640068, 0.03009464591741562, -0.018229929730296135, 0.011430197395384312, 0.015980875119566917, 0.002262991853058338, 0.014218556694686413, 0.02073635347187519, 0.016554217785596848, -0.007197005674242973, 0.022847913205623627, 0.002020103158429265, -0.0184930469840765, -0.0006976427976042032, -0.007073381915688515, 0.026501551270484924, -0.011145547032356262, -0.00990687869489193, -0.02874547243118286, -0.008953357115387917, -0.01598597876727581, -0.02510378696024418, 0.02724422514438629, 0.03325536847114563, -0.0077308835461735725, 0.011845662258565426, -0.01941526122391224, -0.0001983675902010873, 0.02182186208665371, -0.001962353941053152, 0.008465488441288471, 0.014738981612026691, 0.035330548882484436, -0.0017124349251389503, 0.021826554089784622, 0.011511829681694508, 0.011840160004794598, 0.021977625787258148, 0.023270972073078156, 0.012148312292993069, -0.0013371261302381754, -0.001987763214856386, 0.01695512793958187, -0.01007086131721735, 0.007839713245630264, -0.024458786472678185, -0.008687090128660202, -0.016633981838822365, -0.01072930358350277, 0.004807977471500635, 0.005371187347918749, -0.024068130180239677, 0.02082781493663788, 0.0018583384808152914, -0.008282316848635674, 0.025792598724365234, 0.006543005350977182, -0.020448680967092514, -0.026594581082463264, 0.007092397194355726, -0.022498834878206253, -0.022985776886343956, -0.0030409025494009256, -0.008689410984516144, 0.00448748841881752, 0.03619654104113579, 0.027636835351586342, -0.029485002160072327, -0.006330637726932764, 0.0075548263266682625, 0.006574743427336216, -0.03406742587685585, 0.018271801993250847, 0.017909293994307518, -0.018391018733382225, 0.02599417231976986, 0.016157519072294235, 0.03085659258067608, -0.028305387124419212, 0.034761205315589905, 0.013370074331760406, -0.026847515255212784, 0.03404060751199722, -0.01660195179283619, -0.03252566605806351, -0.007387894205749035, 0.013530593365430832, -0.019341863691806793, 0.005917134694755077, -0.022748025134205818, -0.013227899558842182, -0.01714308187365532, 0.020458996295928955, 0.0021379103418439627, 0.0010714520467445254, 0.009052533656358719, -0.025532471016049385, -0.0036235142033547163, -0.03171367198228836, 0.02713487111032009, 0.008391459472477436, -0.024827679619193077, -0.007830892689526081, 0.010481519624590874, -0.006966945715248585, 0.03254306688904762, -0.024705883115530014, 0.011588080786168575, -0.020399127155542374, 0.005443922709673643, 0.013503499329090118, 0.028040241450071335, 0.008579586632549763, 0.03092256747186184, -0.02080957032740116, -0.021086446940898895, 0.0028624131809920073, 0.007262063212692738, -0.020876731723546982, 0.020343251526355743, -0.019826488569378853, 0.02421114593744278, 0.03316549211740494, -0.007713327184319496, 2.8670692699961364e-05, 0.019885588437318802, -0.03536025807261467, 0.0181315615773201, 0.03018544614315033, -0.007615016307681799, 0.017759481444954872, -0.03292994946241379, 0.025174913927912712, -0.014447024092078209, -0.008444917388260365, -0.007617049850523472, 0.0013718254631385207, -0.0073963007889688015, 0.004107979126274586, -0.009923127479851246, 0.015190360136330128, -0.030337747186422348, -0.0009976547444239259, -0.008517785929143429, -0.002433937741443515, 0.02800052799284458, -0.00878504104912281, -0.0010000860784202814, -0.022146211937069893, 0.003630831139162183, -0.03516891598701477, 0.022070610895752907, 0.005320093594491482, 0.027410220354795456, -0.005446108523756266, -0.013615435920655727, -0.029965166002511978, 0.01625610888004303, -0.032013703137636185, -0.02159973420202732, -0.026986701413989067, -0.006234536878764629, 0.0032607705798000097, -0.01038778480142355, -0.01917846128344536, -0.014703026972711086, 0.02267359383404255, -0.018039317801594734, -0.020469367504119873, -0.02707534097135067, -0.026251615956425667, 0.001132640871219337, -0.0312570258975029, -0.01828671060502529, 0.024415189400315285, -0.018963893875479698, -0.030314911156892776, 0.02049199864268303, 0.002809693571180105, -0.028239766135811806, 0.03379267454147339, 0.01748797483742237, 0.01649811491370201, -0.02413826808333397, -0.0333918072283268, 0.027261899784207344, -0.02832193113863468, 0.011501898989081383, -0.005809727590531111, -0.02198425866663456, 0.015055141411721706, -0.014571502804756165, -0.009458746761083603, -0.019354412332177162, 0.02333989180624485, 0.01535349152982235, 0.005687424913048744, -0.01923934742808342, 0.0330558679997921, 0.03334975242614746, 0.021877950057387352, -0.00984600093215704, 0.021566949784755707, 0.03510931134223938, -0.008696917444467545, -0.009166048839688301, -0.003599834628403187, 0.030274974182248116, 0.004113988950848579, 0.03419099003076553, 0.03170938789844513, -0.027365459129214287, 0.03260695934295654, 0.03159625455737114, -0.017049143090844154, -0.02594178169965744, 0.025612860918045044, -0.019608866423368454, 0.011931590735912323, -0.01601964607834816, 0.02905779704451561, -0.03326927125453949, -0.03481036797165871, -0.026972295716404915, 0.029358146712183952, 0.027672240510582924, -0.02884606271982193, 0.0015772096812725067, 0.0021105846390128136, 0.02458079904317856, 0.01844300515949726, -0.03205098211765289, 0.017335135489702225, -0.023377995938062668, -0.0036754771135747433, -0.029602862894535065, 0.008746257983148098, -0.006076924968510866, 0.006049151066690683, 0.017965078353881836, -0.0015091064851731062, 0.02751987986266613, -0.01302495226264, 0.011754990555346012, -0.031376104801893234, -0.03157227113842964, -0.026735302060842514, 0.03298807144165039, -0.006585981696844101, 0.017464837059378624, 0.004223763011395931, -0.0031210845336318016, -0.000739194278139621, 0.03610244393348694, -0.03484094515442848, -0.030951695516705513, -0.035859011113643646, -0.009145787917077541, -0.015260220505297184, 0.019692176952958107, -0.01871461048722267, 0.027468599379062653, -0.011464288458228111, 0.030292576178908348, 0.03162406384944916, -0.030470898374915123, 0.022058110684156418, 0.004057961981743574, -0.03158941492438316, -0.005119402892887592, -0.02726956643164158, -0.02841383032500744, -0.02774186246097088, -0.023365335538983345, -0.035547882318496704, 0.014134026132524014, -0.009075908921658993, 0.008310594595968723, 0.019531715661287308, 0.01896785944700241, 0.01742187701165676, 0.028434768319129944, 0.008941223844885826, -0.030509015545248985, -0.014891047030687332, -0.03496157377958298, -0.0348212756216526, -0.03036269173026085, -0.0043390910141170025, 0.008363476023077965, 0.01135140098631382, -0.012529767118394375, -0.03487800434231758, 0.027977202087640762, 0.029163723811507225, 0.028806451708078384, -0.019114887341856956, 0.026169495657086372, -0.02630847878754139, -0.011113821528851986, 0.019214995205402374, -0.008505635894834995, -0.0195284616202116, -0.018484128639101982, -0.00207792641595006, 0.0024381468538194895, 0.02649710513651371, 0.013503753580152988, -0.025080116465687752, -0.0003908411308657378, -0.02772613801062107, -0.021952634677290916, -0.030778978019952774, 0.013019464910030365, 0.02701774425804615, -0.02007010206580162, -0.017426932230591774, -0.000505023926962167, -0.019415127113461494, -0.011490547098219395, -0.022493597120046616, -0.019418807700276375, -0.027918575331568718, -0.035746004432439804, 0.018006199970841408, 0.02787422388792038, -0.006355476565659046, 0.001949663506820798, 0.01950968988239765, -0.026608366519212723, -0.024765515699982643, 0.028169311583042145, 0.03724626451730728, -0.01762799546122551, -0.005416210740804672, 0.025704577565193176, -0.026977481320500374, 0.010140346363186836, 0.02831343747675419, 0.01580345816910267, 0.029609642922878265, 0.005084863863885403, 0.027116352692246437, 0.025189070031046867, 0.0055612921714782715, 0.004545615054666996, 0.030792996287345886, 0.029166048392653465, 0.015227841213345528, 0.009227387607097626, -0.015337266959249973, -0.02129361405968666, -0.01699693873524666, -0.03422582149505615, -0.029128164052963257, -0.01985432580113411, 0.01763118803501129, -0.030100848525762558, 0.02203289233148098, 0.025909075513482094, -0.0018621333874762058, -0.017855264246463776, -0.013135620392858982, 0.022460216656327248, 0.032327648252248764, -0.015647733584046364, 0.02011330984532833, 0.025350967422127724, 0.011768760159611702, 0.01583954505622387, 0.0012111903633922338, 0.00014045812713447958, 0.03667216747999191, 0.03352607414126396, -0.012085567228496075, 0.025942979380488396, -0.033613234758377075, -0.031035099178552628, -0.015554231591522694, -0.021784568205475807, 0.009306282736361027, -0.027110673487186432, 0.00915661733597517, -0.029251407831907272, -0.034653469920158386, 0.013970281928777695, -0.004029432311654091, 0.02118813246488571, -0.007270690985023975, 