[
    {
        "weights": [
            0.04627113019877852,
            0.1609254604273134,
            0.3866494380640532,
            -0.1270620611305988,
            -1.3920259996434337e-06,
            0.17402493607278724,
            0.18775853188174635,
            0.5170558811126896
        ],
        "intercept": [
            -0.3020022253556639
        ]
    },
    {
        "weights": [
            0.5431120963423559,
            1.3423070410457323,
            0.16236407895973556,
            0.06206735345055186,
            -0.5909569589067101,
            0.6768646825899794,
            0.3411185110927469,
            0.5258743088964919
        ],
        "intercept": [
            -0.5192684474875167
        ]
    },
    {
        "weights": [
            0.023020527355310346,
            0.1044724280603574,
            -0.05610280731065641,
            0.23363543017240923,
            0.3133505348751511,
            0.1555857800573416,
            0.4380917369624061,
            0.026361360075231394
        ],
        "intercept": [
            -1.4137455697060939
        ]
    },
    {
        "weights": [
            0.1007812442668785,
            0.4248541562547503,
            0.12280889448591131,
            0.43640527890092046,
            0.30940344181116264,
            0.1485957798979811,
            0.06406283718634356,
            -0.14438205114869143
        ],
        "intercept": [
            -0.12140513986287477
        ]
    },
    {
        "weights": [
            0.44028269331992703,
            0.9198271778043254,
            0.6299507522380975,
            0.5339323067549847,
            0.5246136193411097,
            -0.11999901196539774,
            -0.21611309931947148,
            0.20139499049040557
        ],
        "intercept": [
            -0.22626303678229742
        ]
    },
    {
        "weights": [
            0.4289773756415787,
            0.41192039121722274,
            -0.058087381795811126,
            -0.07048534410246891,
            0.18396625222347557,
            -0.13240633131560864,
            -0.03392602020939529,
            0.3414275453026827
        ],
        "intercept": [
            -0.24612895983654096
        ]
    },
    {
        "weights": [
            0.08200418359783107,
            1.0170196483438179,
            -0.4239969667396202,
            -0.03621628281148941,
            -0.20724945239896486,
            1.014338497087145,
            0.18651846622632198,
            0.43755868153479965
        ],
        "intercept": [
            -0.9891457068652842
        ]
    },
    {
        "weights": [
            -0.26622515802847757,
            -0.0911752067788705,
            -0.13906056274596112,
            0.42174810048972544,
            4.008309893024182e-05,
            -0.17067769738549426,
            -0.07238108870540606,
            -0.4958042572279369
        ],
        "intercept": [
            0.5183048431549827
        ]
    },
    {
        "weights": [
            0.22042450024086793,
            0.08961621975741974,
            0.03288541595886206,
            -0.1064496169532494,
            0.5523747991997281,
            -0.12651503643722453,
            0.15019975646352915,
            0.19847675614578605
        ],
        "intercept": [
            -1.0996108974542704
        ]
    },
    {
        "weights": [
            0.4168804451420091,
            0.05703979697010167,
            0.3420305065933793,
            -0.3347395916288196,
            -0.06577343475055555,
            0.3122116721311279,
            -0.36795893272473607,
            0.3409574023893705
        ],
        "intercept": [
            -0.6742698365980393
        ]
    }
]