[
    {
        "weights": [
            -0.21528138097587246,
            -8.885894518854463e-06,
            -1.1369365712118133e-05,
            0.39308546838137554,
            0.10855785733174417,
            5.408107310909453e-06,
            0.434583060169869,
            0.3780666176368079,
            -1.8588587199549475e-05,
            0.11172950563205143,
            -8.405612412460382e-06,
            -4.673076146834112e-06,
            -1.583978855417802e-05
        ],
        "intercept": [
            0.23895525909437132
        ]
    },
    {
        "weights": [
            0.25907051574197054,
            0.3057282407510951,
            0.5204686214132582,
            0.17120781456311107,
            0.21533303981847202,
            -0.006409282499062958,
            0.05050393824014301,
            -0.09650150450684424,
            0.3301125284029374,
            0.16292727374730737,
            0.024894894487745206,
            0.26001527024566634,
            0.9627603930898775
        ],
        "intercept": [
            -0.2789285966959854
        ]
    },
    {
        "weights": [
            0.2327863351050481,
            -2.168805715389247e-06,
            0.1217460348619149,
            0.0664183869428472,
            0.029349062524335744,
            -0.32817062814283693,
            3.150317394215018e-06,
            -0.2555055273273315,
            0.24881523285968987,
            0.06040552766671982,
            -0.3793840966389872,
            0.12510290513023045,
            -3.866062541184301e-06
        ],
        "intercept": [
            0.7849966992100695
        ]
    },
    {
        "weights": [
            0.1619029874171129,
            0.22366834128881724,
            0.21772388903262452,
            0.0712703023522667,
            -0.1917779329761457,
            2.819857551452314e-05,
            -0.21010056861374013,
            -0.0822466647315738,
            -0.22248033863576416,
            0.30608086464891904,
            0.16961449758971184,
            0.11187359766567267,
            0.21850639513703812
        ],
        "intercept": [
            -0.2441662062811206
        ]
    },
    {
        "weights": [
            -0.0677979481417008,
            0.327843319684775,
            -8.132554134309723e-08,
            -0.01740941695465828,
            0.1272311185777314,
            0.4301003149840325,
            0.30795020313019755,
            0.15403796668189634,
            -2.515964847549755e-08,
            -0.052778933968544016,
            0.24861133044002004,
            -0.1639606147784246,
            -3.1448491419783665e-08
        ],
        "intercept": [
            -0.10786607914586133
        ]
    },
    {
        "weights": [
            0.2891337503988513,
            0.26631092487875285,
            -1.0340799992144102e-08,
            0.3252632767634183,
            -0.033649329287415305,
            -2.6131367966935985e-08,
            0.2501515283132821,
            -0.1305670620790986,
            -4.358813176193253e-08,
            0.3215471908636401,
            0.20194986681810911,
            -4.449544846934833e-08,
            -5.4483312418335695e-08
        ],
        "intercept": [
            0.4995450266502801
        ]
    },
    {
        "weights": [
            0.21225130087477395,
            0.05256428890340431,
            0.9845343827840208,
            0.30609920913388905,
            0.171706537592437,
            0.28880735589376555,
            0.036709444448787334,
            0.31291705237537537,
            0.5552018224248703,
            0.09598903123052917,
            0.49205750047865193,
            1.32885277289871,
            -0.4601985583106167
        ],
        "intercept": [
            0.28476313625468147
        ]
    },
    {
        "weights": [
            0.04713054145953873,
            -5.1710666361571585e-06,
            0.29574698006256683,
            -0.16133426177530968,
            0.15355651872214304,
            3.147199555484586e-06,
            -7.66150286111281e-06,
            -0.43446474716834155,
            0.3022070928601918,
            0.1222837435913046,
            0.2303980253145345,
            0.15194936735321318,
            6.5618400406591585e-06
        ],
        "intercept": [
            0.0615060408812342
        ]
    },
    {
        "weights": [
            0.17132160310482517,
            1.3337952212003851e-05,
            1.7065705228204786e-05,
            -0.06158734605594135,
            0.14054579614954074,
            0.4347132509719959,
            -1.937415719524469e-05,
            -0.033830641761316595,
            -0.32957757322594533,
            0.02665557727691004,
            0.2512634920288909,
            0.3314307283581215,
            2.37759228761755e-05
        ],
        "intercept": [
            -0.45200108982223525
        ]
    },
    {
        "weights": [
            0.09128323389620027,
            0.35312000089067985,
            -2.253228579360169e-06,
            0.11250806471511034,
            0.02230923056331002,
            1.0718013881952826e-06,
            -2.609179766795601e-06,
            -0.17312634486447964,
            -0.35124412476524136,
            0.3410874459411787,
            -1.6658595205093592e-06,
            1.8250205462334856e-06,
            0.34495879712923155
        ],
        "intercept": [
            0.020721302428728983
        ]
    },
    {
        "weights": [
            -0.16453997410169846,
            -1.5564682463000312e-05,
            0.19363621433526165,
            -0.15843990600145427,
            -0.10053575111492562,
            -4.460555278822077e-06,
            -1.064580338382056e-05,
            -0.2031884641604315,
            0.39573324536638077,
            -0.09607702460074,
            0.3016917717253268,
            -7.595255166737753e-06,
            0.38865137417721435
        ],
        "intercept": [
            -0.12632018123134867
        ]
    },
    {
        "weights": [
            0.3233675331984465,
            2.0544923251953321e-07,
            -4.9481250082642965e-08,
            0.13285684639532588,
            0.06322401237051381,
            -1.250399151182921e-07,
            0.23500653104965297,
            -0.11755111949154685,
            -2.0857141133475817e-07,
            0.20138641554135997,
            0.18972311556154745,
            0.37537091693641933,
            0.24440640163673705
        ],
        "intercept": [
            -0.3564159689920038
        ]
    },
    {
        "weights": [
            0.25851753447010445,
            0.20834705941957746,
            0.1014042668396612,
            0.21021370537905865,
            0.1372681129997102,
            -3.9748813680821444e-07,
            0.195705169906634,
            -0.2426037448266174,
            0.20724099716974786,
            0.10900973441160959,
            6.178004658926606e-07,
            0.31259631029434787,
            -8.287537938954798e-07
        ],
        "intercept": [
            -0.571017369863665
        ]
    },
    {
        "weights": [
            0.08993870929577916,
            0.28991289285672506,
            0.28220128557882895,
            0.17705504834624425,
            1.3220943909771233e-05,
            0.3803151136441959,
            1.5955460839898847e-05,
            -0.0947671955462469,
            0.2883607684934852,
            0.11668645041093374,
            0.21984572708011013,
            1.13834336418712e-05,
            1.3938665478423206e-05
        ],
        "intercept": [
            0.03331817676027026
        ]
    },
    {
        "weights": [
            0.3201436369485325,
            7.916633686072565e-06,
            0.1674334728840633,
            0.38363582029292403,
            0.3198041748353867,
            2.2687634176348257e-06,
            5.414753939554071e-06,
            -0.14758557657949742,
            0.34218811338712135,
            0.11076582693252597,
            -3.526251393812119e-06,
            3.863159627533644e-06,
            4.730320519674729e-06
        ],
        "intercept": [
            0.3591136220877829
        ]
    },
    {
        "weights": [
            -0.03719827127876421,
            0.35976464622532384,
            0.17509578858703123,
            -0.30567534453434175,
            0.1753370708023945,
            2.9155115838806293e-06,
            6.958318223743394e-06,
            -0.014702482545483626,
            0.35784825243790513,
            6.2610021533993866e-06,
            6.815925721666154e-06,
            -2.5192561565634314e-06,
            0.35144745941350347
        ],
        "intercept": [
            0.1618614224568411
        ]
    },
    {
        "weights": [
            -0.12666723271253325,
            -2.845114890401057e-06,
            0.34069954443353706,
            -0.13939723215169517,
            -0.02842746015277856,
            1.7315855602715772e-06,
            4.132696102754547e-06,
            0.028597124724533168,
            -0.34814707766939296,
            0.14086866759519825,
            4.048126107598769e-06,
            0.3500865721093414,
            0.3419163062699869
        ],
        "intercept": [
            0.048136573548667044
        ]
    },
    {
        "weights": [
            -0.09931953726230737,
            0.6817137404769635,
            0.24435477580792597,
            0.32317535489879146,
            0.5260935509111151,
            -0.437724190660535,
            0.07425613706377514,
            -0.7216794289185087,
            0.6691959142079522,
            0.2806863025798424,
            0.1866637657183197,
            1.1773585822978272,
            0.6999153901846062
        ],
        "intercept": [
            -0.3309429983629461
        ]
    },
    {
        "weights": [
            0.01847308459884304,
            -6.924367985510415e-05,
            -0.3484405905900678,
            0.09514344682271299,
            0.2681654004384155,
            4.21428872983947e-05,
            0.3362526630954861,
            0.24866595496763969,
            -0.3561108087083048,
            0.043169231161520605,
            -6.550106279075614e-05,
            7.175922334468521e-05,
            -0.17481655063836393
        ],
        "intercept": [
            0.16537898959893613
        ]
    },
    {
        "weights": [
            0.10329179514025441,
            0.20010160291572074,
            0.32034798505676854,
            0.3145243684461558,
            0.2684210530227015,
            -0.14353759551805859,
            0.3605145829250575,
            0.4320064085302468,
            -0.359856467636722,
            0.24643184033167645,
            0.5059686499824628,
            0.39293889286714356,
            0.5488990190773395
        ],
        "intercept": [
            -1.4952988531650144
        ]
    }
]