[
    {
        "weights": [
            0.2520063670225583,
            -9.640366084157105e-06,
            0.12485580121230407,
            9.346706330256167e-06,
            0.046306245435181394,
            -0.33657417387746197,
            1.4003196664942938e-05,
            -0.2830109302816611,
            0.2551746139452455,
            0.28908850039474193,
            -0.19456284980304545,
            0.12830426644140178,
            -1.718469198813818e-05
        ],
        "intercept": [
            0.5063020201207561
        ]
    },
    {
        "weights": [
            0.040038216604026365,
            0.916411475219873,
            0.4928875147402912,
            0.45115396111732775,
            0.4856605472718542,
            -0.18911211438171888,
            0.017488566368570494,
            -0.2908517576410492,
            0.5122350477850649,
            0.3529821481845494,
            0.5494713172670703,
            1.265911963564955,
            0.3873291875819881
        ],
        "intercept": [
            -0.13403255409912837
        ]
    },
    {
        "weights": [
            -0.2651154595508346,
            0.23308904502485733,
            0.34033748484843673,
            -0.1856654308714904,
            0.07573253549747097,
            8.209802147768417e-08,
            0.21894541489281644,
            -0.15713351603725448,
            0.23185068407146048,
            -0.0750492698393349,
            0.17675689798699135,
            -0.11657237505505623,
            1.711725218248177e-07
        ],
        "intercept": [
            0.3075338364031674
        ]
    },
    {
        "weights": [
            0.023067753546532815,
            -5.350440236752741e-06,
            0.434405208762549,
            -0.11849246554556223,
            0.12888741344411558,
            3.2563693952682366e-06,
            7.771827981070632e-06,
            -0.18233254674270852,
            -1.1192696996854422e-05,
            0.25145686329150524,
            7.61278811014623e-06,
            0.2231891238191871,
            0.43595576871671654
        ],
        "intercept": [
            0.1764365694217887
        ]
    },
    {
        "weights": [
            0.6823267284105258,
            0.05481330667919503,
            0.8040479091991526,
            -0.37354029214446105,
            0.1856076461402526,
            -0.942064558140141,
            0.13527816175236929,
            -0.12489539343114552,
            0.38304683150167806,
            -0.04090913845791663,
            0.10416239906710331,
            0.6608285256378723,
            0.748782882618716
        ],
        "intercept": [
            -0.2611252629020912
        ]
    }
]